1.8502188860620357,1.7701275460762438,-0.37882490975752914,1.1601530660134824,-0.4351351592599473,-1.0871994350829444,0.5094617341133327,-1.8306176920403394,0.9997638332357535,0.2508380151189593,-0.16031154123842395,0.39316627342496613,-0.77672480183434,-1.226196549524306,-1.5537214791217209,-0.2679370887080572,-0.30564769687228255,-0.9297307291051005,1.9532613874479474,0.3281743626192086,-0.8924668762756616,-0.1261377116106317,-1.476144842886007,-0.8523482635814612,1.4663897569002002,-1.1806464138498973,-1.5456405973208316,-0.7432993600801399,-0.8106917610501485,-1.7950137018854644,1.0733575269534708,1.2576626702147289,-0.03570892588859431,-0.48691553946145927,1.2693650346651566,-1.8292871804682456,0.5044253912779473,-1.1091696575791854,-1.555139723461179,-0.2293748750422857,0.9891109015242723,-1.729443483440924,0.9062098600413075,0.3601042418523259,1.7765729441355709,0.9250960673043518,-0.31646230923943097,0.17933393503168027,1.1497450946446586,-1.7607616648594133,0.7767613095073314,-1.7415040712787935,0.3406436139779374,-0.6089228472380044,-1.7182288723462298,-1.6134124719627914,0.1794285493733354,0.7345272286161677,-0.9591111805279504,1.4196459123504699,1.2159216517979115,0.6815894291358777,-1.108534434327702,-1.3739686497522694,-0.9798829524358172,-1.6936661088118479,0.17322134661106503,-1.018449002356669,-0.7354140762987442,1.3000974610117084,-0.626736549007064,-0.31494692851268624,1.1922713219733794,0.04668757542124968,0.053819578244108435,0.6096884100341011,0.6742620339251082,0.3286597265577256,0.4927375682522839,1.1640667671232499,-0.8138401013472172,1.1503613703528957,-0.1384545014061831,-0.8124799318208482,0.9572686176224479,-1.6713616080137617,1.175740917807797,-0.8832515086470512,-0.18362951906598468,1.486763712729334,1.0656226647899172,0.37950392153428414,0.23115326851588103,-1.353574652391445,-1.073345394773197,-1.7587297955789136,1.843696157974561,0.7497600619638072,0.3836979909908629,-0.8472671515797416,-1.215913974964454,-0.6031369947143248,-0.3426954436982528,-0.33962707809634196,-0.7733205441488846,1.6733408738033746,-1.7052446485657522,1.5961974645766075,0.06088146967502528,-0.42245346301172715,1.4609528886707026,0.24293931806160618,0.6432497698945121,1.0444178743010006,-0.9864759305201236,1.6375235689390895,1.1828398578656274,1.499405994416755,1.3287970061759378,-1.8182325779327035,-1.8299681219969393,0.756676212678804,0.5995545759012728,1.8174353091089182,1.919545043840372,1.60650987176115,-0.4603582812989586,1.7637542073292578,-0.8447791750432452,-1.0070224938779653,-1.3682354825729233,0.9367060547302195,-1.8710518858988392,0.9425450274529084,-0.9353233585435081,0.8832973581531212,-1.5684033658251457,1.349683775686179,1.586397215912183,-1.2987604753097735,0.8633810576502645,-0.5383039377285432,0.7428772473273986,1.662112368740392,-1.7392205897716315,1.2837914054237043,-1.292003014893027,0.1365117197618715,1.5983873663310817,-0.2109765545082265,1.0860161635105392,0.9728378867533753,-1.6880417809548733,1.8877585160421275,-0.06260013519344021,0.9007320002780861,-0.7571671896443171,-1.625568245986667,0.39897904154165964,-0.772146614953626,1.0216884731297218,-1.4217799045378912,-1.4012398457035635,1.5810650699029782,-1.881279504270195,-1.7422841570281773,0.35814501615030947,0.3699062495050809,-0.44947713332520856,-0.8583910197397455,0.6360378071103465,1.8061717626688636,1.7969163097481,-1.1751046938394722,-0.231133916736872,-0.5908124086247666,1.5222433818703394,1.6745744556519595,-1.4964776246057685,-0.9641628490037877,-1.6083138712144858,1.3522054510315025,1.7386474687720743,-1.508792709105096,0.4853575202769096,0.04996535376344413,-1.488453997412571,-1.273775687158837,1.777571801325013,0.7076741226429175,0.1598634181816454,-1.607226131636473,1.6455906444512372,0.5657572821423575,1.4823897271387398,-0.05038256263680507,-0.16366866014700188,0.30915283433130103,1.7014004825232005,-0.08288935133243003,0.47944386624170354,1.2931326407390564,-1.9319469130197482,0.3322218470672498,-0.6403364920085419,-0.12919037263026212,-1.3302148102617202,-0.826575861590606,-0.12013654216204062,0.11044486259871,-0.36629275355750934,0.7700800287222176,1.4766799494419498,-1.1827981320761998,0.9373922378612756,1.6707777534011594,1.989033708114683,1.054617555056339,-1.0670028811084933,-1.7888399194032187,-1.244439703855082,0.10237805678903822,1.423212203464407,0.18424705342227687,-0.6090878027226809,-1.089769771449061,1.9343715979056708,-1.160367675542871,-1.4010114933645936,0.6531015592148668,-1.1892094655627394,-0.1755855111838538,-0.18190296233366476,-0.41985173222229877,-1.0426522443500263,0.3335970532405099,-0.6104419880101339,-0.7610884705868197,1.4958527458926265,-0.010645091105502047,0.19275028598002208,-0.9138556281917958,-1.635044927435564,-1.0920881214903746,0.4351080474826112,-1.4805291551979485,-1.346578244259943,0.36876709036518696,0.10056462429630697,1.6385258334536643,1.9248443440302458,1.9132999098088606,0.7540560137645542,0.1592860260315021,0.3382020228417679,1.6213180221767303,0.4500850861660308,-1.1617771816968614,-0.027858138809317978,1.5180036408322701,0.36933013576956775,1.8975894024144204,0.13232590716834114,-0.2660007533347861,0.6930531553827608,1.7792146159843916,1.8945123786965823,-0.8656370038201042,-1.9908018844278237,0.13752420355906247,-0.2535473369627277,-0.9370442443889679,1.436600304918116,0.8138941239593667,0.1718963259104953,-1.4878148671829856,-1.4244765418472785,-0.9420898925674352,0.79491245140265,-1.0764912791909689,1.9241621890757772,1.0753167346573242,1.585415111890283,-0.4620016093703829,-0.3213754914298472,0.3609450521688893,1.846941064514216,1.2838278558385237,0.9433468674374832,0.15541000261063953,1.0597373863577806,1.6789093990873813,-0.73499461399516,-0.41603400842703797,0.2944611761324891,1.7136939923712657,1.8306451198364546,0.2462882880205055,0.42317072750763796,-1.7185397653081318,-1.1464249050931405,-1.685082440946481,-1.7191714466773886,0.12033650553755493,-1.5459171569464858,-1.036553631321722,1.3776415039411987,-1.4097305588106184,-0.18336528806995034,1.4996069547726942,-1.5747094330759848,0.778935762947143,-0.9343648895298866,-0.16346346697870429,1.5498177673640816,0.9434608964125286,1.3284712139330295,-1.0975094103060976,-0.261840018869413,0.943554439874414,-0.9577369954147303,0.3091786607917917,-1.2492254406376295,1.2429772569835427,1.9053122285208617,-1.155788261871189,1.244378050773025,-0.7044138827811457,-1.5527625306689319,1.8904962487008485,1.3690226338624654,1.877086453300071,-1.4483468542349782,0.6128812647192725,1.7532584143213148,-1.6236896245701353,1.7950386793164452,-1.5506681828890758,-0.35431012573140075,1.330917052800093,-1.842471528642267,1.9332422600850365,0.637235666331939,1.4379297874050803,0.22799905237515672,-1.2388076210359729,0.026033679499564144,-0.4199119388587147,0.8199161287945205,-1.6107029465620935,-0.9040165636089812,-1.2374496718720733,-0.7519034085781202,1.7552875166075452,0.8155338030174226,-0.26736724023452973,-0.3435035618019535,0.7969660439523389,0.29873645922341563,-0.4750214623527689,1.9587391761562176,0.9395795435702521,0.6465958056724292,-1.1057275414684007,1.604863182669785,1.2505890037822187,-0.4360737319881074,-0.07156542700770263,0.03818911808231684,0.41246849144542486,0.832893912660976,1.8224902756889452,1.5518176177028304,-0.26184258308175146,-0.7188058407936264,-1.0258881848492654,-1.0302769104649792,0.23632499203396273,-0.6552689469088637,-1.3900433585720129,-1.4317919134172117,-1.9317598507714857,1.4037364181785037,0.5562162340954289,0.48244983976551703,1.6801158637841511,-1.9314578976745396,1.344202728663897,-0.7397760751367444,0.7422318305407116,-0.9461221917365337,1.9640070275997017,0.5280700681311532,-0.6971299585859851,-1.1546199347329051,-1.1400820568316181,0.7850317192376348,0.7095919948097507,-1.0057804025303065,-0.5399379968766134,-0.48305194444258914,-1.8483181915855234,1.1448073884599297,-1.3401028580200913,0.335238608508984,-1.7687655629130932,-0.8399218775928543,1.2496888157281179,-1.793242653415299,0.6295199031323748,-1.0423240558195754,-0.036419762162669844,1.9589559833583299,-0.9835105866027147,-0.9989525000339627,-0.3292434726797082,0.2661145877533717,-0.292295528937903,-0.23043133654621029,0.9369080569170878,-0.6972973749832465,1.6682567146776157,-1.906020249035707,-1.8421778107930735,1.6500950735027051,-0.48332547557552674,-0.47541512134419284,1.888884719725283,0.1483596103898317,-1.8716821983786667,-1.7384022147656726,-0.7085381051216495,-0.6936688236553028,-1.851626194562272,1.7056996458893972,0.10989442388705895,1.2018558546788038,-0.12508991872403064,0.057371345754022585,-1.7857140549136337,0.8247201701231135,1.1925164309305147,-1.9960778574833182,0.5777329502129911,-0.0852507094445567,1.915881573587935,1.2353188287770687,-1.055221404555923,1.9554202803749519,-1.8804995453031657,1.1513052818501186,-1.353660567097307,-0.33496794802737817,-0.17563479808433557,-0.8474509390256482,-1.3320416768932564,1.7194040129064252,0.735624571088576,-1.585700349859628,1.7132888457754971,-1.7342275548192774,1.2404233628553132,1.8607663827053318,-0.9871073501606134,0.9391174602739585,-0.7633397106310182,1.5505139129622645,1.1663602067972136,0.7096468485408534,-0.9674682800937693,1.8629493821501724,-0.5689191428286402,-0.694276825427409,1.9550130458758805,0.17008874325158851,0.18368722230219126,-1.4380391488380417,0.04073353968402005,-0.7650516249991717,0.7750210591781928,-1.136768690285423,-1.5448580245258516,-0.8236516256858111,-0.054016419275667804,1.9659607881530117,-0.4477160073522275,-1.0186654622888218,-1.2149845482301838,0.936050865644952,1.5104431843230266,1.135209236920124,-0.32612005319578774,-0.47668978976595744,-0.9577254217470696,-1.891595358143364,-1.9360483505863826,1.081579469799228,0.9079772509533801,-0.7846281173224039,0.3048140020251502,0.7779443781306696,0.7601672632442344,-1.9453332049482497,-0.8729280636081573,0.3752982859413039,0.15154425407785155,1.620577183144083,-0.08807642840054086,1.4126798611107727,1.6659126407309799,1.2674445361295525,1.6878787704130396,1.1289160742150872,-1.0919974625795619,0.4370765419260887,-1.7886927003167004,0.10169308496826801,-0.33740770072713655,1.0239201744918027,1.1112507224677395,0.09582999880603316,-0.9478488957152353,0.35987624652953176,-1.1884875558444379,1.5996602610470774,-1.831554840074808,1.2722641595430582,1.9811155487566725,-0.3073365080759398,-0.7411801417067498,-1.4654043914888786,0.8482091364677964,-1.7260322044610183,1.1735485671344654,0.05678861162693005,0.14425516888486767,1.3977875431711646,-1.5883792922516426,0.4641490642545434,0.29643858160269776,-1.1122481623836364,-0.10548677218098979,1.7955505448859475,0.8046597428715119,-1.4230809435081584,-0.5347477658020958,1.658986037268221,-1.2761054856758065,1.8401812964751683,-0.31405297107536345,1.0360459924106293,-0.18355773909301476,1.9319594555483888,0.6677887708870922,1.098379768867547,-1.5435908152729598,-1.0735831758834666,0.6309508779522708,-1.0832446227990995,-0.8373481404218395,-0.13319358218763755,0.8510694928014138,0.5282485365579559,1.2651410896643003,1.4560140067617255,-1.582046895865413,1.4254136751254882,-0.23856181679196053,-1.9884747916487187,-1.456361184415937,-0.9321533688808685,-0.477129950969009,0.4529458476924164,-1.4191700569768528,-0.4449181642385436,-0.8039319977689723,0.9969709822005695,-1.62899003700685,-1.8981222093596415,-1.4787049473696534,0.16827939966696537,-1.8266492926217452,1.8261566702733947,1.0586827478706051,0.2387685496644325,-1.2260322129315409,0.30497433869057655,0.1870410374088749,1.7757072140492505,-1.5426574999154767,-0.011226807158801755,-0.7773647342781915,-0.11036268970701979,1.6999699159309558,0.363847187335268,1.6480609438387441,0.06759219294378349,-0.41357507129532634,0.8451894496613437,0.25718241262538744,-1.7954292537894174,1.1560505164533441,-1.4860335423287712,0.13140522681716993,1.13267141420938,-0.9164106336163989,0.40158352517793494,-0.7640364480056658,-1.162589055662277,-1.2431800810262552,-1.0281315370495605,0.24141543577476776,-1.035961635025179,-0.2615750529283436,0.8263503390305811,1.7405814675815168,0.05959865120397456,-0.8375242503499178,-1.0101016812565478,1.8415524097676998,-0.4817106308028687,-0.8308191793288504,-1.3933435071971019,1.1733864082359067,-0.549122691794,-0.2853326954886426,-1.5453322027786305,-0.24584363007521848,0.29416197728576376,0.4471947438041708,-0.8558187111247451,-0.8015974486054969,-0.20737001015695666,1.3965223275248162,-1.736195623781318,1.687327551916323,-1.8477621163980822,0.644612872977278,0.49927588633197706,0.16804846430805132,0.39795083469747405,0.16206362584365408,-1.5288218647988057,1.4626763894165373,-0.3344202718652891,1.424441356002256,1.113883886033253,0.7265638235518233,1.9586017241104257,-0.6024726973713102,1.250186486557904,1.9624031964540105,0.4613515218828681,-0.5251808713724477,-1.2408950454257375,-1.39344874313081,1.73276630209046,1.7770652538478862,-0.42680390188310247,-0.8032655527990498,1.7843391591356408,-0.17224559665385186,0.02680924087558978,0.9249951680377957,-0.8646409499599876,1.3352355259910258,0.8517942266893246,0.7364144673971693,1.8887097151750964,-1.3584574892838148,-1.1767018714438415,1.5227659534439715,1.384044029444976,0.09046636422387344,-1.082879584000588,-0.5564028421492049,-1.3427336903328646,-1.8570731027645113,-0.7640524084494231,0.9618360770345102,-0.9552220453849971,0.12913613211379626,-1.045513810068146,1.856969020052881,-0.2732194844151805,-0.45487883882512126,-1.810987753065429,-1.859965176285384,-0.7650272028136169,-1.1504088558677825,-1.2992976663766171,1.606321512026279,-1.0615956615551454,-1.88726157100932,0.5141044018809904,1.3816102781292456,1.3779113080063468,-0.9398171286706924,-1.900466504735359,-0.29719956996344976,1.8169434712703647,-0.16053482631196925,1.4376886407442897,1.2272856559798235,1.4473912268509181,-1.557214692634254,-0.19750731362147755,0.6305070674235163,1.963252022668596,0.9087784270746915,1.4497184522487867,-0.674318323266546,0.5693480263900783,-1.3083212011821357,-0.07973746973670215,1.851349817047749,-0.42658197563441735,0.20483873100193417,1.5345528126115742,-1.204883856027966,-1.1972247809410748,0.9164470707860293,1.6447427269806143,0.8419194342608121,-1.070683498720419,1.8055902762008373,-0.18590807774461204,-0.7936706042472639,-0.5820052076150128,0.2176826381982453,0.46663450161053355,1.8853869181949592,-0.1375797244696617,1.8933143971454918,1.4777256383407802,-0.9779684742825734,0.4404582907793917,-1.2450865274979304,0.3073990712743928,0.863251795439457,-1.1114814909871806,-0.206183978742295,-0.7649774789457009,-0.8167141786324259,-0.3269518935093694,0.5111809605791215,1.8149757239750626,-0.15861373797277212,-0.2738260150478,-1.1170169527701308,0.8872976496289375,0.5372022485348986,1.9296631167185967,-1.1164842231113794,0.320763582409894,0.183000801587895,-1.750449348949179,1.1014014769475615,-0.9748005553391801,-1.3866499960431211,-1.752633305581655,0.33353092400924966,1.3039500087316132,-1.8752222657053115,-0.18689713202984626,1.2330212715892,0.526206008677236,0.5026226666865532,1.9212434438680126,1.5576578608723417,-0.229425216110287,-0.24289842588274535,-0.03729868236252187,-0.4442006893463444,-0.8933905659970014,1.5238210055466923,-1.910138037886278,0.2512272371502213,-0.8966262202115138,-1.3755661597279634,-0.2264522546610097,-1.332438609194753,1.9140603113125212,1.1224871018247877,1.2934604136686696,-1.0254483036925137,1.6056982054915934,1.5072866380035221,-0.6760220461052526,-0.0007121578321926947,0.37906879811008043,-0.9154184098233089,-1.911196407642473,-0.271428269577048,-0.6098854510551837,0.15800632550573068,0.9832460162055678,1.9892687782546914,1.304038563353938,-1.6784421359522312,1.690335341966839,-0.9947010459243399,-0.5170046730975866,1.800114694900257,1.191510337387927,0.8468701357030395,-1.3278442518269644,-1.4323584590444143,-1.2932421296493386,-1.0235606750980808,1.8835108963076141,-0.7144054024212338,-0.3682031903953398,-0.898223626315215,0.6153050217344931,-1.1785971785775655,0.09392607154238197,1.9924771721994983,0.8454712907582072,0.8980947392408365,-1.6688594277078561,0.6011802789214888,-0.3292175525130694,-0.5850298244174628,1.90993947467378,1.6959071880028875,0.5565934296870942,0.6572650219516523,-0.4949597813033284,0.4187630436618721,-0.872689074887802,-0.044372845174800446,0.9187642616185974,1.746122942368289,-1.59917013269492,-0.20552923624616026,1.7190466411212153,-1.5540734449715683,-1.1047279313938971,-0.6877540460774783,-1.589391179430879,-1.9632870035898309,0.4865141173438863,0.10599629082625261,1.7227453884888404,-0.5880254901536537,-1.6941694587361478,-1.2684615710908536,-0.4261857755968461,-1.74002995338037,1.9320662339863381,-1.2627091305149785,0.5213579319362327,-1.792593411820969,-0.30379897777383036,-0.3922090411873391,-1.257453478883372,-0.11880164361683576,0.20228569810216035,0.9812890952815052,1.5424046226540873,1.3882800339359322,0.38351612023036274,-1.5044189633924527,-0.5858832839182648,-1.5650427282175428,0.8225311095129451,-1.693250085617322,-0.21329088225074733,-1.3228798115252522,0.7164171167858244,-0.44318371888002384,1.4726102261563416,0.9396614504959682,1.3639960681277765,0.9592678207789862,1.0860954044616657,1.2223549006820749,1.9597255793314141,-0.6705051501881867,-1.45291366014748,1.5158223885174866,-1.4394324194844152,0.8429987483923709,-1.8582457956929233,-0.621803247767899,0.8987434762728066,-1.7434830074059997,-1.169413113326522,-1.4843319421350167,-1.2280777172540316,1.1297591678330394,0.6764826320187352,-1.6391732051140946,1.847197585156363,0.38959372781534984,1.3519306440347125,0.3216879561123287,-1.9199110640329713,1.0642086368401897,-0.8561470054173452,-1.6584038857059107,-1.2121674687011637,-1.3492936477058728,0.8728906349135208,-0.490594065246889,1.3768771974441743,1.0998351417948706,-0.6413367683788529,0.515343515808337,0.8429129057643281,1.8672382470852655,1.708950258791671,-1.2186158685305073,-1.3392889521419726,-0.0194714239462348,-0.21460770633267146,0.9489412207795449,1.487151810426723,0.23397421605168667,-1.465514123585352,-0.09242534661050339,-0.6447507894980409,-1.9643139356876547,0.5819855017660611,1.8949879178952398,1.324318807951106,1.5587305918457646,-1.1515749544214016,-0.06440917014893488,1.7559504434067295,1.8087235428048611,-0.6344813124861584,0.8706737602229362,1.770962728059072,-1.1008225096111564,1.4940051889278108,1.0359906877609433,-1.2741212878941717,-1.2252708752507977,-0.12184383597393866,0.6695852687515336,-1.574238859364962,-1.6549694492344402,-0.9406276526028989,-0.3652581995018864,1.5376273325104242,-0.7670874827866232,0.1300940092973666,-0.9239812466914663,1.4795789708275229,1.6905312237564218,-0.5214489538678038,0.06385387481176208,0.5468381278179857,1.9742327221705733,-0.4169997057290282,1.7467660919749681,0.10345306218379191,-1.8524926467747123,0.03437053202603657,-0.46152668520105733,1.617764294042559,0.49922878075822785,1.7895748011413453,0.5015388531285883,-1.8817039197359557,1.3290971417005468,0.2020027111934546,0.9755606906228387,-1.4930897112482926,0.8815096754434606,1.512968544318238,-1.332576860737087,1.3542708512703983,-1.069257152624584,-0.7604267279742429,-0.562958863862117,-1.2487044741617388,1.1780619619288744,0.5827610341846805,-0.03981943412805089,-0.11858199577409989,0.3770282512192886,0.4642100018208697,-0.05480156639462486,-0.20326111943373437,0.051903984388964375,-1.337505560048398,-0.04331518855798455,-0.24138721448383382,-0.187009777105684,-0.8796501337395335,-0.8292275702858745,0.3096630914665508,-1.8951268368164418,-0.07486190407346216,-0.396772454575232,-1.153415539601765,-1.1570055454158577,-1.4006914029690787,1.4691524528230238,0.5348776791115979,1.8026905142799277,-0.8607556169520123,1.1741441154094625,0.36343621466881704,-1.4432036057818238,-1.9985619455194485,0.8112496528812598,-0.05433837892100701,0.8877957770485327,1.6727798875916675,1.539513858876762,-1.263824150508527,-1.6713277870123058,-1.5748674149332178,0.7123735783440073,0.26670005712504263,1.683906669766583,0.9352656007009705,-0.2569181707533743,-1.745360460905188,1.9209539062757623,-0.6265526879593604,-0.10299072525036124,1.273569050953708,0.22702160720441444,-0.8142734660486552,1.3098273428032674,-1.929898819207175,-1.1225787275996577,-1.7912607261680513,-0.2066562840265882,-1.0161332287911033,0.1746118991787191,0.3637307753911503,-1.1942100636208215,-1.0813719471682326,1.0420507193338988,-1.5368459759295434,0.7309915648709131,-1.5492060548134554,-1.3859178561124104,1.5355559677419217,1.4668153945193074,1.0262807997703387,1.8981379579857096,-1.5979148479316643,0.3225123295448231,1.8301998493594729,0.650228430773244,-0.22898349520590555,1.3989403946620005,1.923078827975616,1.4318557764167292,-1.7712242691361202,0.33466415663939575,0.5502889377289581,1.1273552864841592,0.3109772605638481,0.8814807107209908,1.967087340635715,0.5068129202359946,-0.8334472905976154,1.0481170079829147,0.39818031623419925,1.7436577576564196,-0.6806951923972422,1.4629401967316609,1.9752014968880744,-1.9231020256212918,-1.8501920939134386,0.9929770189024509,-1.018603842520731,1.023606954323855,1.074001482838976,-1.0095159327157885,0.2699476908821783,1.097997251657799,1.7005335637897137,0.18175237753841245,-0.3489759717088572,-1.841222333083555,-0.80430468319447,-0.877767530046837,1.1994932472589563,0.23020428522295067,0.5415996291339633,-1.126661679034823,0.2561045884307722,-1.3203529744177658,0.8070725781538108,-1.6143590483629042,-1.1752232338654984,1.2232789365397938,1.608715127828467,-0.638304229761192,0.9269680761019918,-0.7033383406534774,0.7627695539526229,-0.18357797554869082,-0.8151743240799889,-0.5936752726964061,-1.9308942626211083,1.9553828861609923,1.6533932063140426,0.9476529271965419,1.560019242317496,-1.6129109418897398,-0.18915200954564781,0.7785114131956088,1.1881288071105787,1.372956598528479,-0.8945935735928869,-1.3625046201609496,-0.9233647126772633,1.3052237321732445,-1.8993141052655296,1.6934127807542234,1.491286051878122,0.13376181565015077,-0.14666895553724757,-0.9516273875994203,0.7198116993361445,-0.5410390832970591,1.9592052824676411,-1.3166155524052163,1.6149722992418263,1.473602444303399,0.628140614421846,-1.3722804161891307,-0.48585487893001256,0.46047250248183325,-0.9301885694683136,1.5992987213085588,1.8768164022033789,1.558264662167323,-1.0039854894924765,-1.3961585149487883,-1.4872105559972848,0.008842284120383681,-0.8296137370229482,-0.7490946575662121,1.2167893654441588,1.560376925951699,1.9773112992196933,0.6612262537707916,-0.45068163158843566,1.693901166164851,1.4809815127415145,1.0828026364462806,-0.4143093276908414,-1.1029430890861147,1.355201843993938,-1.6537634013641744,-1.2038270479865378,1.0900196419465753,0.3095530496394545,-0.15546412516514163,-0.5582855180942565,1.4911571457005004,1.4377326537189319,0.33501463779274676,0.16992626617461903,-0.7805598144075176,-0.37388593537145587,1.9363910392836599,0.2683321106620413,1.475398569220721,0.6379133130339159,0.9284238406430116,-1.125370508678075,-1.9798138008888455,-0.16904048691325757,-1.5718031468596259,-1.9760743331066295,0.6044340613892905,-1.410114029183911,0.3602698712674486,-1.0866208795493604,0.05490073532348827,1.3091689930149997,0.9531974568533217,-1.930887374005763,-0.7681472738409254,-1.946727684763656,1.327344799080442,-0.7652646411506878,0.3244367277225315,0.5776573768606643,-0.2681133360104253,-1.138612686841761,-1.2117263013248705,0.8177071596670431,-0.2869757072120658,-1.3466240754748204,-1.9036444720271217,0.5401857431296659,0.5785967804801433,1.3846284163218474,1.5022486220851166,-0.2787811531199158,-0.8126881826843708,1.830175076291003,-1.6341668837070302,-1.5799781865511382,1.9327295609057051,0.325519429514026,0.5110142132262196,1.5929207001634111,0.8632734392255119,-0.28927997274883577,1.2049386752958817,-1.8752796074991314,0.6932442940210768,0.052485421387391984,1.3825332513301007,-1.9415147195802014,-0.9384433210473877,-1.5999701911052648,-0.5821199125744081,-0.7869683685803919,-1.3982822358976312,0.1689069152943814,-1.2732332418195864,1.0716404626835776,-1.156257291922063,1.8352488061635919,-1.6312459525382121,1.3645397717692536,1.966677636270576,0.7936926093372598,0.42050472735436983,-1.7256603171817706,-0.47222911784462296,-0.6609686343305734,1.4095723859939349,0.9323581489024577,-0.32193287246781477,1.1237274066451448,-1.6920738106062871,1.077722284105362,-1.8927352252350764,-1.9932641027991642,0.09581733027308559,-1.691886133706768,0.9412379646740949,1.6835550960783991,0.8016623070585767,-1.4124888579009771,0.6122774865939147,1.0892357567124002,-1.4757808883786963,-1.3757870201868925,-1.8780236318837944,-0.8644274286197562,-1.5839499191484925,1.4680531726512531,1.415361643454446,-0.26507895780196256,1.803489292647893,-0.5344772256807624,-1.7143730846875807,1.6505557359182461,0.6819969252073754,-1.5363241438372315,1.2397522271981374,-1.331868610794837,-0.21989843571098255,1.5480449314897573,-0.45342671257186895,-1.587802185357393,1.1829424024211095,0.45324793279647313,1.4666305020263848,0.8146713765046911,-0.4632547933200786,-1.2137742104658367,0.2911707670282442,-1.744046060797038,-0.18637880395532935,-1.7628940452273403,1.02582410291539,-0.6778478834381807,-1.2287697874257058,-0.08683900905410047,0.24737275186865926,-1.7808812054125869,0.6711109524385206,-1.8565558811806593,0.8310245792912396,-1.2992875666462358,-1.242351875492194,-0.6145304166945795,-0.0731354134861939,-1.5225258310600909,-0.6990490541438912,-0.8303508145817791,0.8158675400771629,1.0265726958489578,-1.9342276558571276,-1.2132037642282918,0.28683899075320074,0.9865730785793114,1.465214256793689,1.4734757704686166,1.1824569860349388,-1.9744156882622361,-1.4127042458247545,-1.0839136767168642,-1.937858264967081,-1.7617941291702879,1.4233089914304475,0.22752992205435518,-1.105218654400495,-0.6220238474070072,1.9709635258937621,0.844191050674362,-1.4389431156455523,0.2728207282104034,1.778301319134806,1.1181406163067842,-0.5334665395509361,-1.3752515360984119,-1.3465558043524974,-1.8099865514464182,0.255227680262307,-1.108097196971376,0.26741695938127474,-0.5097813360079848,-0.21339198019562478,-1.1557695604088818,-1.2702163591426783,0.17077239138826572,0.047320015902153845,1.5041444988334325,-0.07760530242705288,0.29371828212581397,0.9959828103088006,-0.5833769418364616,0.5215496930763575,0.5533668336620363,-0.2132626411413865,-1.0615904812053687,-0.4606027022370731,-0.7874363452266651,0.9144899388855134,1.7507457389213266,0.20622965106872249,-1.2928786887110872,1.0471171861897277,0.8028593594714732,-0.9556903111967081,0.3950888275727982,-0.10159492735188502,1.4940252828948823,1.8979469191073872,1.2963325040468692,-0.37400529046831466,0.5542786419489372,0.36110744718107446,-1.983399457654866,1.575506228080667,0.5595221321792354,1.9566124011428534,-0.40926151916214737,-1.8229047918010197,0.491410297707775,-1.316578141363844,1.431654331768602,-0.7194855077048139,0.09582938742256175,-1.1319150706344963,-0.7441998896974078,-0.35480122041796625,-1.409643244591392,-0.1208015026774083,-1.7547380547109777,0.013131609803792355,-0.6376412715701054,1.024602166385984,1.8436955127680674,1.7941728698084733,-0.2360407483139575,-1.8822380102600738,-0.6494498379602804,-1.287739078904171,1.0966903711103395,-0.38800537367612975,-0.3008174187122368,0.5549157830455691,1.250645883411984,-1.1471216790885883,1.716238341822811,1.0851083006522164,0.6327041247313963,0.7336810821298951,-1.0885644895073163,-1.4360678611266482,0.630268383828414,-1.6710487651430106,-1.7547327614448167,-0.8870491474627022,0.05252484935510049,1.9988634213193226,-0.7493817962228975,-1.4854106760810009,-1.529296753242289,-0.4247009423293133,1.6752578952155193,-1.2050096933102017,1.0266917448932484,-1.9998051234315906,0.07585479732945899,-1.8175486627836266,0.046426970684161795,-0.8043513699782059,-1.5905440360590206,1.0247145263906368,-1.8902581569149373,0.4032626388014777,0.08582224156667229,1.3830898983441813,0.6036616980024059,-1.4982697469822477,-0.6468906775947718,-1.7702905785531264,0.014806231921847157,0.004039134902529717,-1.3452155552100504,-0.7074240539971637,1.2705890423898265,1.0224373188424094,0.8960946172376514,0.002874070853577493,-0.9476228794734558,-1.539255642265164,-1.376428540840807,-0.016550449985669236,-1.622562744039016,-1.6970214941637618,0.7177021244778361,-0.2555530056753681,-0.06401796993539399,-1.2421608124225454,1.7092787343269769,0.9774158149562253,-0.7304860447817627,1.9971007625734298,0.04482081044874553,0.14815708435375052,0.5638682168317932,-0.6707552076842593,-1.1118282737016707,0.397853985755412,0.29942807297088203,-0.5712897480359307,-0.5133754157219337,-0.5736040516183576,-1.9241382820710609,1.4672937475709817,-1.1419066934402915,-1.7168749700171921,0.8878512548030422,-1.9356543421339034,-0.3026563143400831,-1.3393032787902177,-1.3019470423032238,0.17226235356088226,0.372036637967617,1.2518440286743933,0.605652166065549,0.31879832461592894,-0.5657087665405207,-0.022566221298456757,-1.3011472444522392,-1.880188387885375,-0.5910666502323196,0.7342015635330186,0.9690433345947196,-1.1408690317205137,-0.0013629458539723416,1.8896788748083044,0.3835499853234263,0.7200553361414399,1.516308808410543,0.5759429695711327,0.6424904237750741,0.6325076785938513,1.5027593715461642,-1.8821686271791838,1.7562522223405246,-1.4569615855250007,-1.3683907852117638,0.325641780835225,0.6546494989417924,-0.12784270557277155,-1.799456174366329,-0.09319473750730678,1.8962020779508122,-0.8641725908138524,-1.0399528630417456,-1.1858411172349936,1.6134440911102317,1.8820776220752915,1.6782471078586139,-1.566743472958414,1.4126828181804498,1.0888289178376898,0.9527568278363026,-1.241947468567087,-1.4289558717370774,-0.8078510437133297,1.814652076632139,1.5512512106764884,1.6731902026052379,1.6658993996939238,0.8802343333032758,1.8210302849145767,0.7036797399155725,-1.402371564710295,0.9316356857692263,1.3432137975056717,0.18742621227409462,-0.8777624462436013,-1.2205916042748393,-0.11423291696397486,1.5925719422970475,0.1611072035583465,1.2488860428837407,-1.0761323282989306,-0.9816621023830643,-0.743435746077552,-1.1003931796000659,1.2829606006859762,-1.630199603198569,-1.9445975729657068,1.0028631301904833,-1.3756025808069672,-0.3219684398481588,1.7153668522316199,1.2251365493951885,-1.5077776415241573,-0.8883662070241112,0.6019856480415062,1.1965498841029736,0.8363325106690143,-1.3722472697466288,0.7937863639887972,-0.15507818658438932,0.102000440867279,0.3507394321815198,1.4294046767109658,1.9428335743083416,-0.6436561683035249,-1.6318410230755247,-1.802445419532599,0.6749545651048909,-1.1138345632433886,0.13976204150837557,1.4822732794301383,1.148653437224635,-0.7423724151168951,-1.3960869070687774,-0.36924593945499673,-0.49974079148457484,-1.7998431613998624,-0.3833871535888891,-1.0129595817537127,-1.5556808306941257,1.782857171976516,1.5645972036950555,0.30913243776336463,-1.9311455150800199,0.8574746806012938,-0.8658919121036308,-1.057563725984362,1.4219837352242855,0.12055881456398376,1.1042026985000284,0.4282434240480826,0.1458668882696892,-1.8267430037982026,-0.3135674361317644,0.2875280673534064,0.40220432303702935,0.32424943977351095,1.5574144464560669,-1.7163419040509695,-0.5038267519222899,0.2400282743455029,0.7927929247719243,1.5154442421102812,1.9127234168980114,1.6109692608077344,-1.8848329805477224,0.08959838147271659,1.5863551788905,-1.6379463660325744,-0.8806048398482949,-1.3846406465425294,-1.616928522395015,0.1903157834168594,1.4054720490913137,-1.3021784435097867,-1.3508075293360382,-1.4944848254932137,0.05902806955938855,1.5628354615208822,0.5641878700146425,1.8297011993584227,0.4454540394572257,-1.6992810549130852,-1.4066515927397285,-0.3276222351012623,-0.4819456064808674,-1.5121137847749626,-0.7761524495310455,-0.5290541908002955,-0.6154933472494695,-0.17382988191421145,1.884127939955234,-1.6374164992213753,-0.2375645422099919,1.5928212180070442,-1.9977131734659026,-1.8734034719899784,0.5825481027691093,-0.6982835080625853,0.8110833986182322,1.2843420686601212,-1.2495768845502129,1.4883850051511298,-1.3194431481840985,-1.704531587127227,-1.2453668956016664,1.4121157645677438,1.5373889634278055,0.8789831567950266,-1.6942110628888045,0.5364019402477802,1.0243464849349344,-0.42365489688097346,-1.4895699910718032,0.7220277707392353,-1.167343758901148,-0.06856518561263414,0.3956382963711156,0.09950806151282965,0.40891494742896883,0.6382463090747517,-0.39454454647338677,0.517351433850803,-1.8117680257859594,0.7653341353750855,-1.4948073356667364,1.1593552995969696,1.464938617467578,0.18439188426727648,0.18185771243224869,-1.5406474422627014,1.9388857816202734,-1.8568589637152226,-0.6565248352485078,-0.37384494162050297,1.3627701891788524,0.9407757998764814,-0.2436446004951951,-0.41817891228470216,-0.37621753907406097,0.25164742207904345,1.4620436110741442,-0.8861981677511053,1.9256873380688444,-0.08281205074337139,0.8114862041540927,1.289134212548721,1.6463697707121163,1.949675214456426,0.5482433090157093,0.002936446002044679,0.35791621528768847,1.2081367645248196,0.3963519142773104,1.123357138114773,-1.4780319145196739,0.8064069079400915,-0.35896133052166723,-0.484016291490144,-0.16187108517407856,0.5725290783324675,-1.9989438272180284,0.17147999571808237,-1.5577259044951246,1.4908642099480724,-0.20679585204063544,-1.5756030300080215,1.1489008071578484,0.9605291309399107,1.5642484659524776,0.2287746258581822,1.1803140325240626,-0.49421771323006114,-1.411557592775801,-1.8877752629675935,0.9034074371240073,1.7770255031135394,-0.7425714515687258,1.8414060907706573,-0.3539138647184017,1.283675606998567,-1.7960096111829382,0.6303054003819031,1.2832567981091079,0.9945559950669116,1.2277727817144988,-1.9845053889054283,-1.9542537978211434,0.7530182528522125,0.2547769188339397,0.9547351182296953,-1.1955547740733472,1.2540914941435917,-1.8073936829036814,1.5958894999172912,-1.8375693464698153,0.08633918244149363,1.3667702871030882,-0.9828824211064511,-0.06655997379953771,-1.0810655175468584,0.3034001670673425,0.9958092637291767,-0.24497146830021732,0.28679826448741474,1.1502168195638722,-1.0653867265685997,1.3828383442301502,0.23592440403204495,-1.5270944775577675,1.8781069124656864,-0.7822886748925417,-0.002276980592991862,-0.7623564524653141,-0.622202831516613,-1.1851347392435558,0.19122606529920994,1.3772949710093432,1.0680460565108407,0.8348123539517749,1.0976063937703455,0.38145415199924537,-0.7687802529608994,-0.3197578207790466,0.9030022725469449,0.1844492673791418,-0.1571107030863148,1.779671042009467,-0.47479136908700337,0.09166677191173056,1.8428018986369321,-1.4933331294740704,0.6047415606532014,-0.2585680879772805,-1.6695896757324435,-0.12542031603439963,-1.270819859200436,-0.8441358749006453,-1.3203692821523259,1.5203749217520617,-0.6348660459533804,-1.1701116008728323,-0.7011605037897715,1.5372631844609872,0.6929044728499427,1.920540118468649,1.817546345425436,-0.8074860412632736,-0.1021175471493212,1.3173366757349565,1.5100100973850314,1.0481466285399375,1.684678366803705,1.229202785729457,-1.9744732619427978,-1.115443805886533,-1.499149745142836,-1.5434458380731866,-1.5449420827497367,1.3784918178147505,-1.5980975129005603,-0.909364962587953,0.9161784674196221,1.0024398326566004,0.41009703184606394,1.633279789074154,-1.956973496788819,0.44565823973384777,-0.9059983726640204,1.636736025791869,-0.08201735246719988,0.27596348703981155,0.13324789614927868,-1.9293380445887265,1.2016650379995517,1.5258784524561237,1.7640418135894738,-0.3120704725717678,0.900259518091798,0.8672552951493508,-1.5250436950580033,1.8418666300978526,0.12912751260545452,1.3754486367164005,0.8915138526059252,0.4362811392037593,1.1284597187245518,0.04066544803118344,1.3961758716374688,0.18981299414218356,0.6220408623441371,0.11981033726604107,1.4774278526084346,-0.10252980683921953,0.860586963487648,1.8399166975247963,-0.2987137061836993,-0.6306473467638756,-0.3213783001643411,-1.2975364227957602,0.9020590215934958,0.4701006929001972,1.5491931559890157,0.7160220681056453,1.025071697190791,0.07261782866104616,-0.21561750315777006,-0.26782677911513053,1.1388385182455885,0.8947493989619346,-0.7269791317045136,-1.807845891692331,-0.6055225617503184,1.0354208886093286,0.805626011561182,-1.4309975078542232,1.8824299417070316,1.0902129985319293,0.8781394928543964,-1.1731177527239858,1.3103762423801397,0.3567043079604644,0.4134753264280988,-1.5893596541177928,0.8488522520764525,1.5434880527497437,0.36193289090323644,-0.5687159787847742,-1.9938954371469166,1.6388699908770765,-0.23414354803537796,1.6818406705929414,-0.4725873521078392,0.018938570964630586,0.18088111548853636,-1.6820741037344273,-1.0016598573241118,-0.5740847612256808,-1.7317607619801763,-1.0562420095867013,1.8951146661624962,1.1276831785546548,-1.2187892550412531,0.5621788009249009,0.13861978483889104,1.7495727269324592,0.5454971480002722,1.7258524415012784,-0.8573735982196964,-1.4031337563238035,0.2234024387797251,1.8569887205029705,-0.6946761941359441,1.7134799016883302,0.10858697666105499,-1.0814796350207159,1.9583553362102961,-1.925278063104817,-0.06471349535820625,0.2463907374738188,-0.49367772789827624,-1.0582474248783842,0.17715434369811112,-1.0227300036302305,-0.5059383772310597,1.7867575294492095,-1.7893300106720034,-0.12522577199437457,-1.0674058834950917,0.8318727142060784,-1.0323548427647102,1.5750227957723646,0.4609086225262127,1.6681817900647697,1.956657978857729,-0.8930027679120012,0.1274061828501405,-0.3224308487686671,1.5388233041194552,0.6831052469520706,-0.1807575149563041,1.2675211123429588,0.6025150735366642,0.9619323141926555,1.9114178158431456,-0.2630034254178124,-0.760431606877948,-1.753075303910026,-1.4597538286739642,-0.8577066932373012,1.1544914755458056,-1.5746176965194212,1.1300941351486418,-0.6957141530779807,-0.41355188799277576,-1.2105802297866384,0.609832644319841,1.6625197779347585,-1.5478740838036251,-1.7548885254338038,0.7562959422429603,-0.08908461319755157,0.11857089942019483,-0.8669506078789868,-1.933726404218358,-0.07793309611134891,-1.7718584783646323,1.0561339769965268,0.07604834310136832,1.7609069108774071,0.5108316265246682,0.2972431497629682,-1.909876606464544,-1.1712242032797224,1.8639562105521943,1.2928053219654445,1.4519951174095835,-1.7612393206596648,-1.9228362312184677,-0.2527243108879209,-1.4766634922973263,0.014530869379364209,0.02719866994721931,0.0773276035702728,1.0942144074205533,-1.6631889192704667,-1.6907941995353588,1.973579607902991,1.3848025681321618,0.9851316916121831,-0.4050190276564938,-0.5822871495531956,-1.7217929922412876,-0.39287204446588175,1.04183847654366,1.457979669599911,1.1120791382276782,-1.8910165643647892,0.5815390563678822,-1.9201572565861764,-0.3414542198943473,-1.9926148577562093,-1.581675402374064,-1.107984048687229,0.17497691669485071,-1.633313696034934,1.7047776551799538,0.7777499703277204,0.9733245972225135,-1.8385033549021386,-0.42983905487509944,-1.4137896064862359,0.6770175361268613,-1.8218878839128965,0.39990912343809626,1.1982850520681874,-1.919313143465545,0.21222984517432186,1.641005773393592,-0.5362326974956959,0.49013542192087645,1.6817803696248745,-1.6973852267370586,-1.5760590666301617,1.200597768776344,-0.43367166106786126,1.2401499704085595,-1.2144504994255265,1.357929723238981,-0.7966695222878108,-0.4997468109389924,1.778081082739139,-0.8078185500752522,0.06544242893055285,0.33539304249869906,0.09504014642669523,-1.816103807658735,1.8398453855568153,0.9866844570439279,-1.0852809123453095,0.2090331141552353,-0.13163246184796762,0.07335669814159163,-0.34174805951562437,0.7047373406376827,-0.953469268188532,-0.2014037318420061,0.8601215568901637,1.1721566248382338,-0.6904786198174433,1.4809313468675054,-0.3745576759275777,-0.051537454967380825,-0.35021822661843904,1.009413335918437,1.4016631511068947,1.7346950105320653,-0.8444899802730754,-1.1283388441031215,-1.0476935305323467,-1.7813149930376166,0.9100876548702863,1.0618399643150243,-1.5517786487861214,-1.4319576410942347,0.3438746645425135,-1.1286578685083675,0.43637339436542977,-0.47563389589013694,1.1433623477776562,-0.2883093896628348,1.819847635917824,1.7288977940513437,-1.1503537840966849,-0.1844514213162296,1.021627187525016,-1.520247229051166,-1.0576219451765918,-1.997388480923687,-0.8706518868856437,0.8206306277609348,1.7403750491358774,1.0991120821540084,-1.693833374856287,0.4960553525343432,1.2209968939571851,0.35337213608531526,1.3265745140741956,-1.8222790895691916,1.2005025765219424,-1.6622144512719923,1.1967140005952235,0.9131108492023166,1.5207229167616325,1.8198506049609242,0.21978548468266457,-0.9622724191718484,0.8243465320726937,-0.19116263379965215,1.9790198057306223,1.776270652261974,1.3689545512095784,0.6913895406237502,-1.8105585963507145,-0.3000651261020213,0.14197649012723668,-0.23284337173697578,1.1390630574573328,1.8332570006592355,-1.2163151172452333,1.2485136129023315,-1.0772596944873856,-0.19459121403870094,0.13230411354879656,-0.7960431085642825,-1.0062867420647987,-1.1925545751240256,1.8519680724749632,-0.025666749390666155,0.6938267147602213,-1.4857606027024137,1.2122956092391157,1.961415196959432,-1.7944328453114595,0.8803001370886192,-0.4605654763356015,-1.755520340290837,0.27986450026347187,0.8459618395250041,0.31160628203048235,-1.013492947019603,0.18999630572724913,-0.6916107755326721,-0.6545950933635436,-0.31359724577294745,-0.8383433014655717,0.5655751552787365,1.3463075290438153,-1.750421458561512,1.1275669346366164,-1.1658482258309282,0.30932677004226905,0.4960919251533724,1.344668734475551,0.1389792987455647,1.9516219308633564,1.1020394586776563,1.1200699368188936,-1.167016486901205,-0.6109104819487903,-1.5676931464535628,1.4966949739409938,1.4740560404425493,-0.5986295222283449,1.4797456655307721,-0.03787120821576817,1.619339314555177,1.91594920100414,-1.1412603374915467,-0.6155424884220388,0.6544273846279274,-0.6196419386669425,1.328448611686314,1.8674635129389663,-0.9905890859863304,1.6069081026263676,-1.45905412982418,0.19396347766825617,-1.6865485234822843,-1.8273383936269778,1.3573233593457643,-0.9110760310725188,-0.3900181619836167,-0.10731680464937687,1.9294627591269844,-0.8708959301237549,-0.4175727971580314,-1.092870766290301,-0.06174874309783318,1.5735401843241061,0.5297933652825986,0.4873692382672816,0.6888038656251063,1.1544223132663807,1.3689395056375178,-0.24894006695107995,1.6304986257355454,-0.3939189925506863,0.701744392476376,-1.4462454190831315,-1.4206199967370465,-0.10761785245469246,-1.2660791378860594,0.8552601696940929,0.07956061618118682,-1.9910786594093222,0.3834359396711897,-0.6200630567572993,-0.5922092876430738,1.928264753655915,1.8771404526411084,-0.42606019345014223,-1.4413200212134432,-0.4668411044286218,1.1864809508266134,-1.7053023385639738,0.9414471618316598,1.1783841421726855,1.3379603814021022,-1.6623988067557254,-0.12678067695219486,1.0713630845496263,1.4624856842594665,-0.9917930353128317,1.27705544426209,-0.3650909153026798,-1.4860561260719307,0.2975014064805106,1.8455613260939314,1.1279947078294859,-0.4701640200976773,-0.05194685893866069,0.7630886016530161,1.118383995912462,-0.24946448698533796,-1.248524189387862,-0.25883883548915865,0.5378441297682546,-0.9946907934093896,-1.0807503403695535,-0.8732511010470785,0.5724046806189356,-0.19170787469247852,-1.588353913630233,0.20887756487924802,0.17265809908073493,-0.5525193954550147,1.223410666883316,0.7624135615847392,-0.9819266250752512,-1.0414838592136495,-1.1572927399784159,-0.3133207441690393,0.05274221705742166,-0.3664667872067038,-1.7108103364294092,1.1301351395627695,-0.7287749063404116,-1.537060372750771,-1.3077443475187116,1.737382004698023,-1.157402318318682,-0.5791950976651186,1.3121399041999422,1.5236705373051027,-0.4234988450180701,-0.6662979361783665,-1.1876264192274832,0.5624897721870581,-0.24739723002921732,0.19791455822576554,0.20800828091569157,-0.12143006872093132,-0.06275809445436398,-0.3418187040337206,-0.3100512059282501,1.495890976034798,-1.3714914408044852,-0.4432990730889732,-1.5527199320473897,1.201207797218696,1.8406545326639758,-1.1863324119471632,1.392424497893816,-1.089374778581524,0.1861056262058307,0.4440248169554124,0.3905721757871259,0.7248761432644959,-1.8885881382852614,-0.42013120873773957,1.1224910079164676,-0.7208547866663157,1.1567303149955999,-0.9395542724588735,1.2643323352926905,1.7447943254838942,1.1327347578724218,0.3909931157685316,-1.54839698353413,-0.46194257126989013,-1.2493978118342834,-1.7224628955014847,1.676262526048717,-0.6031790720597048,-1.3039497673237581,-0.2126763680140904,-1.3251364072443113,-1.6729838489856879,1.3653852811682636,0.18115032729747238,-1.69015903017026,0.5510533495405778,-1.9728069490471842,-1.068466074440324,0.06769670139134654,-1.2196310142042273,-1.099144294124288,-0.7414555726208247,-1.4399514642128612,-0.9068996479365312,-0.3348864130091549,1.6898313977896726,-1.8116394195626313,0.28502776910738215,0.05895950858204335,-0.09579959994131348,1.2226416374132856,0.7107713172989052,0.2486793464867958,0.6828515699910107,-0.6120474154919631,1.939878883851558,-1.308848182937981,0.27818616352892755,-0.700696100097836,1.1789626997010894,-0.5095654127614124,1.2934560311247432,-1.6497945628175419,-0.35654523522522785,-1.1344153399750252,0.5791291672339494,0.1920314375797898,-0.38714555980109466,0.22696223317894804,1.7585444305637563,1.8433812493793544,0.3764312602307971,-0.4492890532430427,1.8630125218521352,1.2933631988865644,1.096811160193322,-0.7672292814773649,1.8446128491479539,-1.3247816777011563,1.688454084590743,1.5224270461585951,1.5089950893050843,0.6804244133032622,0.3396150666423301,-1.46764198352672,0.9130420543662465,0.4363239259045071,-1.045793952883602,-0.06169145018429534,1.9296177114782869,0.9362775920692177,-1.2859334752539517,-1.048913147443626,-1.5033911728916718,1.4229487796635136,0.05589218327356704,-1.164571984083898,-0.5361291533695276,-1.0856477256764445,-0.7345876313892612,1.0995107422550867,-1.925670140599626,1.0262301580459159,-0.8901930752307501,-1.2896803190253334,1.1493246818116982,1.2293918080496926,-1.769249424383582,-0.4210145917375794,-1.5206367475155198,-0.5315112443362042,-1.4341933790733412,-1.0939352500377764,1.0009388905929724,-1.7836720634007408,-0.35717181060752967,1.48872136146529,-1.6022231533121905,1.43285627363943,0.91102887344337,0.258852602714267,0.3520019580488829,1.8935493893158344,1.1600368557387624,-0.27249224179075426,-0.15497498261357512,-0.010612316675129296,1.6954538117900069,-0.5073923738315327,0.4032248862812726,-0.33118039284308276,1.4745900590586971,-1.303452238105717,-0.4593011205459008,0.03574980135867856,1.4978261595952853,1.9001489250507348,-0.7987753400171158,1.1452314154088068,1.3840869169909422,-0.04591533340213916,1.1933023467472754,-0.3470595075137255,1.8802413616102034,1.6735785328394983,0.7210445150072906,-0.32942775662383195,0.7671165916663876,0.8680824527102411,1.1969070553716277,1.5799238916165135,-0.7902198525184727,1.3083817542195453,-0.2847074278017927,1.1792213222380439,1.2875942444341817,0.21531223962121482,-1.7967372769856698,-0.41208423813662076,-0.4581674520952479,-0.8979185322631844,-0.42534510266497394,1.2963705808160007,1.323544001205085,-0.2819005234873586,-1.003167604332599,1.568537292795086,1.3789281421400572,-0.6191168087554244,-1.768630899306121,-1.836282645376019,-0.6809736564008113,1.0036240747463654,1.4466400616995463,-1.0110776232891783,-0.4103793598179162,-0.6809177001773117,-0.2955886407498274,1.0827645778358672,-1.3821659685686964,-0.3362403292973988,1.9270712392196958,-1.276693565530811,-1.74473091347816,1.8583325278443117,0.3010717258181037,-1.5282924655017318,0.5651124994309913,1.1897933200003288,-0.2953143091900676,1.6379284609214042,0.10691539102008285,-1.6619377525207826,-1.2039219964516295,0.5644047886903336,1.2504736477931453,1.6760869895866706,0.36963210973241045,-1.264602698374652,-1.7459647609803821,-0.6163507406736763,-0.99966788503201,-0.0804642106227873,1.6383345269368856,-0.49706145215482156,0.4171029548497276,-1.7385107894361607,-1.91809228488908,-1.4749099071062641,0.2547635222542355,-0.12409280683742496,0.6073123393829016,-1.9170356426060642,-0.5189988340110356,0.3662662944577444,-1.3831996821845993,1.8303320697477483,-1.0030695042892126,1.6986773898534038,-1.6761936394697905,-1.5076612221819992,1.3658375607967197,1.463472424318911,-0.8985768075325966,-0.45031299162348715,-0.14957077268772734,0.35411030225227647,1.0117813123703523,0.8012571095819307,1.2445449006027411,1.4607095548391236,-0.4067785132364441,-1.5769276959007965,1.7182853408626455,0.7402096065409838,0.3827890718923186,-0.9714432167108842,-1.4234244872032584,-1.5136123828764623,1.1751009795849119,-1.747120559020226,1.5882930202665606,1.2655811334525424,1.3970343257913935,-1.3199737181190683,-1.9964631977373486,1.220156488325694,-1.5116996098495261,0.6650586922435151,-1.0114381784289388,1.8302807337710236,-1.606116725228604,0.7557465417643519,-1.4277641045788596,-0.5058509146922656,1.6540721250699493,-0.9164140773370608,-1.1932800420171823,1.860945502068763,-1.1586367046389734,0.7399386300368787,-1.056878934123152,-0.21680756412653635,1.747904602371305,1.8939738696393666,1.198438877153488,-1.505119607217793,-1.0529031257751718,-0.7697942041242491,-1.3193114655246925,-0.271208576562449,-1.6919592622430821,-1.4743817525778509,1.2961538975100386,0.7858136624721683,1.2003199041831705,0.0917031789880296,1.9265543480017469,-0.8784638977205774,-0.13405930380863396,-0.2738765060686439,0.39665432439924375,-0.2979200515316247,0.6189046059389587,-1.9048711688257196,1.959940290564786,-0.5246533204781656,1.3270065210987654,-1.154193793259516,-0.5309708909769686,-1.8386385983422722,-0.3675563609549495,-0.6065189274822851,0.006039030222129149,1.7315309466388764,-0.5140937669186445,0.31639068080954846,1.2428557552451203,-1.1202419665189862,0.8859639872803831,1.750452812466611,1.461795464183937,-1.6759479259811907,1.7112352169166778,1.7013948668331351,1.2604824491941895,-1.879623137737044,-0.5184887897695596,1.0563941806991508,0.30272470812829333,1.83670324954744,1.5474933492333895,1.573153092632519,-1.4212979329004853,0.012444892479955172,-0.4381555777097774,-1.8216158003429408,0.4703306377132308,0.21672067582189714,-0.29735375721471824,-0.9687916323447427,1.9945535670205445,-0.7134766383986673,-0.46497695782695825,-1.9150714350370115,0.6318648886570823,-1.5923918732778501,-0.6862886674849471,-1.729541036842956,-0.16093271441481027,0.5969848396640196,-1.8251224413915952,0.49043595363793724,1.5778439444181611,0.9244345549446953,0.8121918016367196,-1.5338792722331482,-0.8697694283624733,1.6272271882063372,-0.2029978685904288,-1.9842291304880098,1.698449582511289,0.3686776452771854,0.9508921780638118,-1.0610291391775748,0.7274726971295187,0.7977351161711947,-1.9695124067061553,-1.0473313630966694,-1.641639825768439,0.80283293070916,-1.369018177857471,-0.46108170631051726,-0.2583124446434115,0.5879609970175053,-0.5211183081865234,0.330261406373936,0.18757211486555025,0.22613592227312385,1.326015958987616,-0.9299184399838931,-0.40179513232527686,1.7685977394868586,-0.575604255484496,0.2834090640698963,0.046432774561906864,1.2306064495178761,1.905875812981912,0.7350378718755337,-1.2751311186690022,-0.28128265844631484,1.8504062635692877,0.9687614058209326,-0.6721868122533077,-0.9329978885989267,-1.669109175219539,0.24206287337919452,0.9582976116310551,-0.6741171399247561,0.9376947940691855,-0.08722071570190826,0.021209211175907683,-0.08641356453324489,-0.2432978657119449,0.4636477611267984,-0.9821478375604937,1.1188522035122461,0.6840157915580911,0.8323927706718455,1.7576110130621068,-0.27473063408236076,0.38792396403907903,-1.8336950195498636,-1.0408128037605842,-0.19469851231843105,-1.6178843363756554,0.4906336621178613,1.148873154149677,0.6172716238215457,-1.3387013346744223,-0.30029876287532353,-0.3965120565274174,-1.6696619001642268,1.7391357215568934,1.3619745032322088,0.2839854326196045,0.00616994500943191,-1.0289302424641558,0.2939455375421698,-1.5356913653694053,-1.1880880607347701,-0.6382000403761219,-0.2213454882479513,-1.6042160636657576,-0.7667119936888964,1.2477857559674974,-1.4231580591600435,1.390818647830633,0.6202648793712933,0.31282449578706206,0.661693964395925,0.7630997428258137,-1.573945076564769,-1.992383652770779,0.14476345269847357,-1.559567471670876,0.12473757509250794,1.4875342169526786,1.936010773443137,0.5719414593002745,1.571615140723114,-1.2349143735902977,-1.4857345657813394,1.8673796169723609,0.7865410403489035,-1.3398071861523468,0.9438486707356413,-1.1906253637517787,-0.26106823886365493,0.954467082542287,-1.9318241203388324,1.1918046965874818,-1.560112293437324,1.7641301606422815,0.8531278943877432,-1.4058355295987774,0.11046102688984316,-0.43176259107479265,-1.5679160400824812,0.009811271507487174,-0.1538312847098089,-0.5103943968709812,-0.17172699990710294,-0.7480873650649391,1.9964903250943786,1.28233946263432,0.8072103087318907,-0.6827379620453664,1.8426695121193362,0.7835610398816542,-0.6974338732602967,1.6082194398782312,1.3836731529112933,0.10076801235166188,-0.6489693514548747,1.0316142955927234,-0.25393665164284096,0.03668212958180117,-0.42626233677435943,-0.3236822779959283,1.515223689695354,-0.7412789746462458,-1.1560128938595033,0.5310904354322514,0.7520273844439997,0.36475575272570016,1.6866235901184043,1.913611075863467,1.6567373307091229,-0.21357244450247048,0.6852895699084511,-1.5685759992037802,1.650374584096019,0.23101985244469425,0.6393726213225452,-1.6627183954231053,-0.2893912000602694,0.3658329340134667,-1.462359812518546,-1.6334311775082013,-0.9401505329114292,0.3617651047186645,1.6394301913550025,-1.1250165442400148,0.5412011610703682,-0.3344433908197755,1.253014083633516,-0.8495764243521009,-1.7385378221660344,-1.8941249674508676,-1.8796159041247384,1.1007880774519823,0.20276683888031632,0.023250523366388887,-0.06308231558726574,1.5863437034398866,-0.4549171073951723,-0.7567480069658861,-0.06010279919587713,0.2367119571189904,-0.32190915093327455,-0.4527928143505906,0.939208933517881,1.0729416173213178,-1.5267402587086982,-0.06659853636802326,0.38774877806043095,-1.636486926796831,-0.8783749609750977,-1.5905930164803541,-0.9621084293586701,-0.22903923394272407,-0.35316658854102156,0.44000306241522225,0.5446351454633267,-0.6254832448100536,-0.10827390317352004,-1.3616967955380752,0.6158285962130701,0.20078257120837106,-0.0026198681683946567,1.3156719088656876,-0.44342817414659486,0.6177916567520341,1.461836157376978,1.3169167783513762,1.946350226447537,-1.4856767199478074,0.15091906255735132,-0.27165798971324007,1.2735899169731364,1.9398742402507363,-1.4114960188803667,1.759876592598253,1.1354809493136648,1.4472915506184227,1.5211280857553255,-1.307013083379017,-0.28605288509771265,1.6616155391187544,0.3139667136121398,-0.06874556073334936,0.2839761246416561,1.8804950970509453,-0.14696700433740784,-0.20158170727799973,1.7931343721287347,-0.9413113580789148,-1.7518803663222604,0.30511800435124137,1.5193910615927084,0.18438620607629908,0.141679305017111,-0.7475555342759352,-1.3342054115566349,-0.8411486066513616,-1.7346243650950326,0.6444469214555624,-0.991649734744124,0.9963303377651411,-0.12867578953061143,-0.7488539892325266,1.3619336615781377,0.6775704680855354,-0.9467360254397361,1.00820596648854,-1.870901125907142,1.7013502948075132,1.593932294844247,-0.353434609987445,1.3893592433988493,1.7157691117158902,-0.078890370405722,-1.9963704903054418,1.0973582620887643,1.2713467892563894,-0.030442836638425508,-1.6160295382969072,-1.1451339259471625,-1.9551018552793384,-0.09893367358884042,1.4724817345098895,0.8852789958111722,1.6982311861289014,0.8104291022905357,-0.7194695918792315,-0.9877866842998615,0.5421546452713084,-0.8098868457412327,-0.6293605937130007,-0.391914929437871,-0.8016899589666933,0.35204958788702,-1.997209454515807,-0.34430328330598003,-1.0163281028222668,-1.8897043662597648,-1.7970776528661556,-1.0894145077725392,-0.09004661207990106,1.0601689854836889,-1.4021389811642275,1.8634644553198392,-0.32688317778796394,-0.33220232563975083,1.7727534138129646,-0.9204913524167906,1.3415515411254026,0.6860040088784718,1.0430279750099802,-1.5963620840939217,1.2481821358565752,1.807145250813385,-1.3360000401607546,-1.2205721568554466,-1.632517704479799,1.189233127272674,0.3186816921523965,1.8460358871998461,0.9410994783810618,1.9896866948229115,1.8862472245457953,1.299096368302136,-0.5374922221362324,1.7042335222709575,-1.092810003548359,-1.001643379006702,0.056551593433840086,-1.2244187483758662,0.3025598444101556,0.12191400586994172,-0.13333945930257496,-1.3434945246537637,1.8359487007043955,-0.38123631051286067,0.3749649676275686,-1.9029834282823046,-1.1726725490213785,0.07612009340278325,0.04942288438569342,1.3565676919330354,-0.12135427737759397,-0.05241834111133681,0.4662856815125975,1.6419803163640623,-1.707906604174139,-1.23307902181464,0.6183392266085361,-1.8562366298359332,1.4135280117200675,-1.0347575051776383,-0.5833421010056177,0.9934111802191894,1.0047270713704668,1.4313552352126173,0.12333329641018942,1.844558087736567,-0.13578859863168136,0.27028644486577935,-1.3551424152512266,1.018121792514978,-0.15445660825839314,-0.8687131324347219,1.6467062152792784,-0.10825431485162662,-0.6702373537403714,-1.753878468841772,1.687213145718621,1.4633315250495342,1.257304107033566,0.3002345486279756,0.6765664950568993,0.43589847214753297,-0.34422753358199465,0.8787566893188021,-1.6575299668584074,-1.0722521039150177,-0.7395918868885931,1.9205529298282715,1.8851015196766938,0.4409718124904032,-0.08735682133016764,-1.1072275084172292,0.44986519353923304,-0.3527450326428272,-0.8638815956271819,0.8289699363423302,-0.07567857845661274,-0.7677527180949206,1.5204771840416025,0.31696741826206365,-0.3588312136593639,1.7638756847082715,-1.0441687950798104,1.7636010346736244,-0.6835619303450668,1.900922614603568,-0.5954592959287419,1.6445669105413665,1.9817269333884417,-0.5979725660584183,1.695170532343523,1.795689220493164,-1.6685095475783722,0.9129676668052773,-1.1244031060943973,1.7331339910318246,0.6973456928919539,-1.3248773340639715,1.089971807400151,-1.8062747096587182,1.2706683375965238,1.8383472711381974,-0.808272040204403,0.7422068177934928,0.6722140641848702,0.3094685235537815,1.8247577959754309,-1.5055847142160657,0.9802065367379025,-1.8689423509628216,0.08702757829922492,0.16727393813896896,0.32296621856390884,1.9670922869004972,-1.2949239324857182,-0.8759349580071847,-1.2038542834046968,-1.766745521608156,0.9410191172320275,1.5489519036003516,-0.7189616171809541,-1.6842135805364222,-1.035671897966794,-1.762018896186453,-0.16453032771232,0.3031195815022105,-1.9029029451337705,-0.08861739739756613,-1.2932157695066948,0.7579111746320444,-1.1506339486837414,-1.7424569923598097,0.16479830282910024,0.6579525640298596,1.018594710561497,0.15827620149783606,0.2958423243044588,-0.9280782978607105,-1.1672183697152327,1.4446588487889382,0.7448251653944431,0.34022425527742817,-0.3591916856079034,0.09067258161974667,1.3074364634694322,1.8707356911604833,-1.4164908644825371,1.605487290013769,-0.5369471137379898,1.9224468445261422,0.4197451118640103,0.3590346906191533,-1.9784336428055296,-1.985901083372009,0.9212218883710155,1.390788499495109,0.6978635008059171,-1.4020824045072913,0.00456604650739445,-0.20804574006870125,-1.4915576800021642,1.8539536090785274,-0.1990540989006262,0.9381512998174628,-1.946181230054652,1.3055808953968846,-0.8676878592926611,0.9371786654926195,0.3835559552638297,-1.3105552718853315,0.8480887790136693,-1.3790662798537552,0.18428535741891405,-0.06294163064753411,0.6542163768395248,0.08551132650748627,1.2909605696013822,-0.7703677414800323,1.2339553657327125,1.1960772938953452,-1.2166753644419388,-0.6973885276073082,0.300938264309063,1.3760162419552713,-1.1035021478497926,-0.047983704209196176,0.6984828663746772,1.0623225226097555,-0.6866939094212814,0.24603103637255197,-0.12290288686752282,1.2972436842024528,1.1359699477326304,1.84643461956062,-0.501628627155748,1.097779820113471,-1.801176573367734,1.8446244211348604,1.0963519257608367,-1.2346367307819626,-0.6598468233568275,-1.8104862683723568,-0.6713577524178849,1.4306595907727742,0.5340009210970651,-0.596019594467621,1.1310199948118993,-0.35402209384951133,0.8131707119556579,0.9314064140927214,-1.037036598319153,1.2452904442042478,1.6210805943197846,0.1741963955467818,-0.5895019521505134,1.3718246498052928,0.5832820506783398,1.7033694827341415,1.2465687422814762,-1.3592744794973286,0.43754767282060714,-0.3455550864498771,-0.5578520252602637,-1.4379489415075164,1.203447369368381,1.8477371856969196,-1.8006017573507638,0.33790074595224295,1.6793211841541904,-0.035768814193228415,0.8435508336005704,-0.9835087950294032,-1.6195489450954463,-1.6958032444203797,1.8008610750399532,-0.44030428101316543,-1.3104356576939726,1.8996856377691471,1.1717906365988124,-0.9341120806383323,0.5298944458445503,-1.0175160248191188,1.3310677136806497,0.7840224003508163,1.9701179660525372,-0.0872033195377453,0.19600301938692422,-0.5049953704477472,1.6270614805291852,0.6140261881459672,1.2919853922733213,-1.7337543244814082,0.14249618478105353,0.6607983518079878,1.765758154017853,1.7033454032220599,-0.3951437252360006,1.7988006484899381,-1.4731166746127258,1.065521777886984,1.2247995796618865,0.23766935054852922,0.16368179069629374,1.8442897662083464,1.0247590797955084,-0.959585197129551,-0.8166884451703007,1.1249679360369238,-0.05527419908849174,0.7070456870579256,-0.4619412763866815,1.5057158048378025,0.10725804177206655,-1.458708906571109,1.7469010182289617,0.42399078196254747,1.7171022843268595,-0.6168249338546188,-0.8007195456411935,-1.741808258540015,-1.6173497574941145,1.0059076767052404,-0.5276742941552941,-0.12396015880272504,-0.8579911591130749,1.373972096509585,0.6487107428055863,0.6385574408961627,1.0522618774071795,1.6364104317109036,-1.3836781374789484,0.5957381985585735,1.1203425528873852,1.4534066031701083,1.8117934251253809,1.8759130490626483,0.33958163979472333,1.7943285182633377,0.647063156409029,0.9774124001764632,-1.718245913619021,-0.5734709107591263,0.5420554545102063,-0.46891049820063424,0.4331252439757467,1.3849209802892966,1.602770116979387,-1.8417288743234037,0.31338733101110927,-1.3065312370277207,1.2512500611461368,1.6321168053715827,0.3483935478587301,0.7451805644458327,-0.5742277225855998,-1.8887335804626835,-1.8519638141615777,1.5947800356317754,0.05514158920204615,1.9769281353843269,1.4514298387447084,-1.6772611779047542,-1.8261076588572371,-0.8134589354328905,-1.9445384152991854,0.28846104131273087,-1.7227232559542127,-0.5060056194789384,0.10980127850315968,1.711260584086833,0.7098734051729609,1.4370904503715511,0.860794047041014,-0.5820619489357326,1.4043392707101447,-1.8948756742458706,-1.5439076740267432,-1.978254441843231,1.3504608536679141,-1.1598527502022882,-0.06730685412365922,-1.1389162003731528,0.9103570316853986,1.299721716881531,-0.5797143974094823,0.24698659790541777,0.2533288519558021,0.9253600883524324,-0.1536553381837802,1.844254904163508,0.8934835246803061,1.654306025976764,0.5839469026349948,-0.4502404667840594,-1.0638030479665588,-0.5130870666627403,-0.6919605305259977,0.7842461483418863,-1.8590232348073528,1.5615908062653778,-0.2891349245511554,1.5070772167569415,1.3277395979007585,-1.4904595474126587,-1.3918919497709554,1.0375144780862988,-0.29892695521318435,0.9675776420597106,-0.9313489267359616,1.6848481249251916,1.9634019790764934,0.1543482343215068,1.1982506823162322,-1.3576063308844075,1.1524217263654144,-0.21172378402861725,1.2096827187825032,0.38226365869104395,1.375464655248415,-1.0389923868673288,1.395694844012214,-1.248174028621189,-0.6733014532823542,-1.5014071083582619,-0.66081002424148,-1.6488623566697687,-0.3575613339564656,-1.582866651249497,-1.2101844283656433,1.4655420374668893,-1.9566566370942566,-0.7043216392515026,0.13905481339611336,1.2742343895083907,0.708286213584087,-0.05291216577093438,-0.6085189909217594,-1.9858679236223864,-0.8624226232283174,1.8974335753818763,-0.37467922908001094,1.6883115070763823,-1.514555414229287,-0.8634639377957511,1.0118368924887213,0.14089947888771537,1.583169256454712,1.5042651255331383,-0.6258580551940338,1.104784433362775,0.9038678707960646,-0.47663028652032047,1.7022516558706724,0.4234322305050684,-0.03389704385672054,1.1538812489269894,-1.2262865638523204,0.7328803639153434,1.9473690516577955,-0.48390179021348256,1.067681093583781,-0.9967480934096371,1.7847035607910224,1.772863178972191,1.3711421841850076,0.3485458684932432,-0.635052009732155,1.9406510102263805,1.8137154681256402,-1.029339878522439,-1.402209240975321,-1.3926324915588002,1.083449229392356,-1.4661227401679144,1.7387360942790853,-1.8809958213910294,-1.4792079884986258,1.8635042895547116,1.4616458227475815,-0.028053911122699393,1.3206147391597667,-0.8983190183030763,-1.1076566650963766,1.3350526178971527,-1.3710856260762871,1.9979047283186433,-1.0532172650122567,-1.89581112732193,-0.7132814534159171,1.476090385935752,0.6315339739669938,1.4025830892540805,1.7671147726422958,-1.6610853257273392,-1.8434284789242796,-1.3882557009571794,0.6936109984571548,-0.594838713891761,1.9710902862310586,1.413739292852946,0.0976613253049412,1.8626507179332257,-1.7812148293738201,0.00866140596511844,1.048900269223429,0.6657100301731149,-1.369094028374707,-0.3347454251623856,-1.9354315409218796,1.1414596726139843,0.2831826470380787,0.7196876638501104,1.2697388844133655,-1.7196938991568098,1.5862417469253387,-0.7854664919376018,0.5234218968081481,-0.692654376075879,-1.301904586226132,1.2886870304358298,-1.6890228908513065,0.4168923634429591,-1.3070775039935265,-0.8193674524945398,-0.11199357713612779,-0.13521110369742484,1.9389220233369722,1.3414063935859577,-0.6786722470810784,1.058987200328469,1.8174239714806242,0.3534155122346663,0.6223717951292209,-0.9977136477471737,-0.20097028275375362,1.744717584854123,0.6023179737149302,1.3273443981377504,-0.2517982344288825,1.2389626741626842,-1.1102638564123568,-0.9928002924535413,1.4908070614303353,0.19389596000913079,-0.8062614858622958,0.25175731552954783,-0.024491725363835037,-0.20565862109483257,1.7175248150380074,0.8349139873592342,-1.5032482155390428,-0.7757743935988257,-0.6289866857561526,-0.29366860951295237,1.1106728066578788,-0.04024250258411488,-0.5742800535438191,-1.9424644116501484,0.32627167982087224,-0.44794035148026623,-1.122858564132315,1.5874201124209848,0.3395703034611892,-1.5751314372225722,0.3054738154993144,-1.6901686920064747,-1.7394487182860998,1.2645532718392332,0.6161278424024017,1.0101708444963213,-0.7992763159582128,0.8029148142646605,-0.8327647904133393,-0.3064975352458372,1.193314941020474,1.0639773643613686,1.0211044431344587,1.6427742732234227,-1.949469879642126,-0.15075001704872992,-1.1424096478248997,-0.35274917539306117,-1.3475224670710357,0.627288692571685,-1.4489402164724288,-1.259528683182198,1.2118267968292837,-1.4493060343710842,0.017011382537262865,1.636078519880412,1.8773129747502977,-1.957101509489541,1.4595027252400414,-0.5102338189655606,1.1005412442183369,-1.7052573757472977,0.8961379569746111,1.169450690747471,-1.77076548649335,-1.9671654208304927,1.6518932123614665,1.106547167070361,-0.19134824022780172,-1.1005289083288652,-0.9331786215621509,-1.2240076572519336,-0.21685880569631788,0.9134602788682775,-1.602655669060792,1.3843943713117741,1.0767075156139487,1.0706565020195034,0.6678997058817511,1.0167325666095204,-1.00280450600567,0.14884708058252194,-1.0400048791150174,-0.9538141516929497,1.0011854162974716,-1.554812212066322,0.9944684856509851,-1.1572744036782279,-1.9887226575064272,-0.31450316906987874,-0.03743513600087489,-1.087461067684612,-0.2149426185352059,-1.3302535196598022,-0.8536974316944574,-0.39897537034967545,-0.44916817571979406,-1.4096519887308436,1.1310659851150136,1.5730508407679404,0.802954116329933,-1.3730047806241945,1.8200853508266346,1.6823532968727855,0.4768997345479682,1.0793948263014483,1.980224226753751,-0.6124837571998323,0.4606228784542594,-1.2724992627043545,1.206358820100908,-1.8669056432245443,1.8846836416839268,1.881675131030168,-0.46558082558161207,1.1913717924711142,0.31294713242244443,-0.4800471715782919,0.32561242370011056,1.6168553723616492,1.6916459543765079,-1.7216278107190646,0.3781548398182748,-0.8529761667887916,1.3131831031619257,0.7287234388337178,-1.4148743340179473,-0.05943037428173348,-1.0047441156422412,-1.5698976377181069,1.2035306672350838,0.6382020480971033,1.4683263925499639,-0.2746595776297682,1.1105195845205262,0.9112658722908806,0.8332474406482029,-1.395405747931028,-1.3444818124000268,0.14005361358207047,1.7957090324424754,1.3025799638489621,-1.470329104984308,-0.30590778845159017,1.977591161806243,0.3362015110043415,1.910859158754103,-1.39557348542735,1.3482777333897151,-1.6085317681601046,-1.745687974692438,1.2939112334953085,0.21521736385933776,0.15252452548392448,0.04471142196082978,-1.6480040388551278,0.2998861433352058,0.4444523232980653,-1.7664685223967047,1.767762073508817,-1.0838855693780456,0.16797184709530333,-0.8318891111168338,-0.7062019305126319,1.273447500739167,1.592117559504667,-0.713969186326993,-1.9301385129218516,1.8341989878741947,1.052106205310447,0.7907101710636351,1.8702594137840056,-0.5763035291569563,-1.1788050514321684,0.20337285742852007,-1.5875886586865007,0.5249487107771973,-0.05157688727068388,-0.4937771470288861,-0.5933793120468098,-0.29975880066792815,-0.681122026142448,1.0581872839198434,-0.7850148395283201,-1.3591698757245525,-1.177696328924604,-1.8099613805824926,-1.5519718745702993,0.4078145461416507,-1.334883877707016,0.6473066350390644,-0.18661757033525506,1.3232927173455171,1.4874330486248142,-1.2304344953407158,1.3623359878113135,-0.6103778416098695,-0.3279021399326463,-1.368049240622336,1.7657212304688037,-1.2465815981458532,-0.7399854239714099,-1.7438059889769457,0.2570748207712188,-1.999449157327418,0.8648465351405319,-0.4023557986557602,-1.2967303209872147,0.19053825168933702,-1.8959405516821093,0.08706247062844952,-1.9799613613432605,0.37380894921814045,-1.5262176798517522,-1.8408016266797618,1.0923217332810458,-1.1631721668655284,-0.03123512371959869,-1.6369162731410825,-0.9694904823270498,-0.19306623968254222,0.9928762328692615,1.7632093969747054,-1.7915518626171618,1.2661248036128558,-0.7316248712434805,0.461904259179001,-1.0299785552354144,0.20557189623310324,-0.8920341594229995,0.954415981690802,1.2469106455513206,0.11010173832031311,-1.170237554008121,0.5799432111002853,-0.693254358519579,-0.6882713667109659,-0.6038616806278303,-1.5459477965312218,-1.3627882917114027,-0.3851266739209853,1.087551788198207,1.6244238562929092,-1.049027062782757,0.49526224951604414,-0.033310750991267124,-1.0281416212690364,-1.836317017957426,-0.5314205299794135,-0.06728422656418465,1.0164615240793853,0.46510924020809963,0.3241190435958754,0.05503509059221523,0.9397287862914885,-0.6513518971080838,-0.9909798835229191,-0.3893747874497011,-1.0938138657107515,1.011566065813844,0.8036688018197538,-0.12115351460723778,1.524811485008212,-1.7178033299887923,0.16315841955058463,0.18922693850342265,0.2629936681732201,1.3589697377144314,0.6258818519694298,-0.8633769274153584,-1.0621479760941615,0.264517340652918,1.722888037225626,1.5985398139467515,1.921718046719108,-0.7101302250091841,-1.1321063174495376,-1.297598702618382,1.5313944453625967,1.7569757350912472,1.2981226808581985,1.2749915452332088,0.7337476435704979,1.1946530101500112,0.38484214773097447,-1.0001684033353868,-0.8830411134569709,-0.8301168701063926,-0.4256115412908832,-0.4576117952385217,0.7549770757635041,-1.7334812006920735,-1.3285628314965265,0.0007866185028206907,1.6641552372942314,0.22594478776047966,1.6862283531435662,-0.3617380476825156,-1.333832610211524,0.7543690712851179,-1.33891029610254,-0.46734253526569036,-0.11441486365858644,1.0819695410021581,1.9875787544014623,0.18109371947828556,0.5055512880184128,-1.1539388324374187,1.6253690735111732,-1.3196575529606522,-0.29223476750365673,1.1103708348515466,-1.1173186323881592,-1.7508595306742225,1.3196356056927194,-0.13076884999289806,-1.2239264513550214,0.33473231114572055,-0.7556681080128311,-1.1734787315735256,1.1376958465715155,0.284059418171382,-0.35999544009457196,1.9776130955085898,1.5107266230392513,1.579212563839667,0.1243770981627792,1.0829121392138568,-0.33805289886606404,-1.1704444951171986,-0.8042765650174863,-1.674291252472572,-1.6728298995207624,-0.5682060042665484,1.1979380364217298,0.8345020085358628,-1.1887718387875035,-1.7556513607104316,-1.0235977621816508,-0.044507393934553274,-1.1009947160082825,1.7183022733945519,0.2584989969654665,1.83025514973443,0.6240017479718749,-1.4042551090272277,0.43887504551781165,0.22909761954491703,-0.20802654885535832,-0.5377069238830288,0.46073615686966507,1.2722439365231972,-0.2522005445060227,-1.0502989431120158,0.5018552270712622,1.8537977573403683,1.5132688004155828,-1.8826324985190457,-0.35316313739328686,-1.060316558127703,-1.176198880252255,0.42598103151126443,1.1768859439700599,-0.9740112788799391,1.7205559855099648,-1.4052162533657535,-0.2591784719790051,1.6155281444752396,-1.5482524115630274,0.4344776645281576,-0.9627489524627748,-0.26210512785348294,-0.23455976544438828,-1.103915163452796,1.6842574048298924,1.8361745522230808,0.46930834357987017,1.4336364182565275,1.2765283087193224,1.0095756749414733,1.4558663071105622,1.713515197985898,-1.8834142777527791,-0.25459692032132875,-0.39691792329638,0.11123521189538677,-0.5229019004858477,-1.371880252143606,1.402722573635979,-0.2674098045969031,1.5492889160808434,0.31902199844962364,0.7941672650334075,-0.268054422039691,1.800319520551823,-1.462708894999413,-1.7117386846786387,1.9038484768261092,-1.1380959001496804,0.17006611838098618,0.7791836414572688,0.11503881111473113,-0.7740773025062846,0.10390182085722666,1.6115381720370152,-0.9283360979166284,-0.9891077989208541,1.4156614022171494,1.2915112031404568,1.5876787348753982,-1.150579897949593,1.3645219871724148,-0.8951219248952818,-0.19428027920262947,-1.9930330391454887,0.9181638960649003,-0.0878552070279639,-0.48854058021147884,-1.0245967259350564,0.3146958954243506,1.1823396506513246,-1.334066070928782,-0.2746534595827077,0.21640966555139007,0.5410426782102604,0.8464187665936103,-1.2345002305022432,-1.820901526640518,-0.2712131439552019,1.4622504044849336,0.7288026702183479,1.8989257452363493,-0.38582881480825915,-1.3610042694045434,-0.9005180872843308,-1.9067503441189082,1.4681460331241865,-1.9460805772297576,-1.2208263488157751,0.8225547589118509,0.007198610262127314,-0.4799619373574302,1.0329660398083336,1.9683586207029928,-1.5251560555294517,-0.34884376014256535,-0.35374733084367804,0.6141179906748877,-1.9973110224301358,-1.137336881890393,-1.6718382033957595,-0.8210263444677408,0.6495971167143515,-1.4383374258684576,0.3564422315288156,1.3810857216876373,-1.888381156867656,-1.2896464636361462,1.430964728819732,0.8450639760391065,-1.6567466103650097,1.2582317108569554,-0.7740939262352389,-0.3393255035778133,0.5414878910147398,-1.495095951721507,0.6567951068231275,-1.542925808448948,1.945074338836016,-1.6835508282761205,-0.6822155399817706,-1.2627656479356806,1.634179796069501,-0.24207922156172135,1.8203460348857328,0.8288826098645279,-0.559719315320943,-0.11254001957489823,-0.004016485963803884,1.631954315232162,-1.4710217371324408,0.5418134523296283,0.7606800770299094,-1.5394053119129678,-0.17658849442190228,-0.21251792809338488,1.276122077404228,0.8342892117409018,1.0092426219880175,1.2457690072978602,-0.6315177833841825,0.8917549912763758,1.7467502178278496,-1.3766274409973658,1.9004663451654609,1.2108585986291809,-1.14103452431397,1.1806243525674862,0.4558540892967078,-1.4409337122871162,0.9626048693731013,0.35604492256036346,0.3388966902716932,-1.2048884418745525,-0.8729132412402114,-0.9549593699414283,1.9280908665429104,0.9556884824555234,1.0297198320422831,0.30128417878061553,-1.4946958510795079,-1.9306144394167486,0.14818940704089334,0.1545349949870909,-0.12313458439920755,1.3770664481793964,-0.9362360358620281,0.6347203283697671,1.053025179591991,-1.752042556373686,-1.2080670319659275,1.2208866358477048,1.7336556038023314,1.360067015755452,0.7724756528424632,-1.5426979823629439,-0.9683915590818675,-1.2549428571628334,1.686633898834447,1.2011173089558889,0.2934851060491286,0.8066894891844387,1.637716657159297,-1.0643182629945516,-0.06542611203141346,-0.2777211004668243,0.592324106890878,-0.9715340659963196,0.22916621456418618,0.22888503062539467,0.33535252211423305,-0.12185788837553346,-0.4170160758287249,1.4966855490842756,-0.2740227761052574,1.7874861205304136,-1.9261149866613638,1.9321109236578224,1.6920763040494546,-0.5457837752069765,1.3979302585316526,1.6335000065428829,1.3735940317083912,1.6921831291545075,-1.2642558081469257,-1.0263052378793973,1.852290545318648,-0.2975745649999504,-0.4509617984251455,-0.19469616857537098,-1.852473889789115,0.13164362973650823,1.8476095894757543,-1.0265396418442605,-1.8007200036585562,-1.2829780539973097,-0.1866188787144667,-0.19379059945392685,-0.6132471273046782,-1.1405078061903962,-1.756685552825112,-1.0226108655329345,-1.3401586976403252,0.01922741473327072,1.9975377658774205,0.20920507032886837,-1.7988506559880313,0.7126333497752002,1.691261938552337,1.454000094601382,-0.9848110908671326,0.6441797501577611,-0.8133361286565086,1.8888949638927488,0.06753169465903897,1.6670634014805095,0.16626869923083643,-1.2778647494581867,-0.9687579962629678,-1.3380629752708897,-1.455325894292495,-1.1237477588818567,-1.2713758767743686,0.59135436209487,0.6046253579408671,-0.02808460619085551,1.7184192789231818,1.9978801694423338,-0.4765437863844486,-1.24267408951961,1.895373975485041,1.4182197174564184,-1.8047388837453697,0.7159302575574014,0.7150743832356343,1.6795997649537968,0.6758446111418266,-1.3925526082533133,1.0227888842318764,-0.9715276284880168,1.5120260441363165,0.9174648008942041,0.16257959384726428,-1.7141061116624736,0.1603405449951385,-1.7498408943378045,1.021240416110368,0.43546719445975013,-1.2779289323611338,1.7064400839893898,-0.5163615456686093,-0.9194508596950315,0.7584713337552644,0.08790408833569074,-1.7037144919493947,-1.5151258892633042,-0.8453106924545661,-0.3818705101311677,0.5800033639066,0.43955351944110177,1.2548007627566453,1.5801334232774504,-0.8930956849644365,1.2294473711838805,1.5843421944842673,-0.8060427769504916,-0.5273642286122611,-0.01600284343941194,-1.1481663957164607,0.35873989939687867,-1.6070506206462034,-0.38145177323603896,0.22604953175268339,0.5852144022109655,-0.9935656513603743,-0.017109910805837902,-0.9175418268336291,-0.5715987729209662,1.4616213142316306,-1.8784937942840578,-0.9180737492022746,1.0668397219207417,-0.9451684140745931,-1.8970117652913343,-1.8384936218468955,0.06431233864822783,0.596502815647066,1.6306188808934245,-1.234835980151677,-1.8343429405672236,1.9604986230912504,0.8429092568287015,0.45826265306400593,-1.1285601450303182,-1.3550177366741094,0.0891875853864561,-1.3906395884040923,-1.2116551533225453,-1.5386740110802362,1.2067034391811147,-0.6529782483943851,0.3920066620564442,-0.8558342286983245,-0.7247247399420749,-0.3294124048889291,0.5685730990129483,-1.6141869944132665,-1.2421488832567165,-0.5268256015830897,0.6394364756430817,-0.8831185041915903,1.1018359337579882,-1.6243384744956502,0.15775435788070524,1.4330954892189567,0.7753842548373533,1.2811155904575733,0.9320079303098185,-0.3223669659978232,0.8104810240094111,0.9591193631808026,1.1820750909254478,1.9057497919678563,-1.1151610719606788,1.1904734606707223,-1.0659763323414397,-0.05847642139629006,-0.6335879493560372,-1.7842455165595377,1.1909963742895702,0.09407467863408447,-0.6646051722872519,-1.2839645495270982,-0.5215088468290001,0.6123304644547667,0.25386027415801404,-1.3152649873641877,-0.7672230509068707,0.5490226206265074,-0.04081717602372459,-0.6428559355477028,-1.003408453785549,0.5835221471104122,1.9123725980319461,-1.0596593905911358,0.6019555091937501,-1.7111620788493238,-0.9221971538147629,-0.15042230898756737,0.9428674714590524,-1.7962738528622473,-0.15666026956365275,0.6647035227887654,0.3515681986806687,1.5354716577459362,-0.7665334304456746,0.5270370722190405,-1.4548416330273901,0.4073798513798548,0.15946998361799736,1.7204212077340735,1.0133167421966744,0.3198739749774484,1.2988101974819926,0.5053840205780276,-1.8792897180594714,-1.0972866596588373,0.8925597493186062,1.6765233526887457,-0.21059576041337147,1.783650212547955,1.3478613936433876,-1.2432703446560898,-1.1158863558951198,1.9781877542947641,0.2120134474397224,0.8618839842869033,0.890345457562626,-0.22027648497636187,1.0173383994243648,-1.8121508230246035,-0.1421309959769097,-0.28682961678937646,-0.9956682944931883,-1.8419154991561593,-0.621980437610206,0.3569466537751844,-1.9349255007329242,1.4727812917127614,0.9903405548897819,0.13389235724883308,0.38105089345471743,1.8036089842401601,-0.5849675299101822,0.3084116657149507,0.6967158424816327,-0.3322361233445883,0.12187767198769572,0.6338997745510295,0.1681264460372618,0.8785779727054579,0.049121016459724665,-0.35388245556424014,1.5029606038302594,-0.7272484656293523,-0.8514975094967552,-1.130718595735349,0.22194241905201517,-0.9712698539764846,-0.9718570853757016,0.9244274796692724,-1.157383767600344,0.5054015944882293,1.7588217757701003,-1.7009719667300738,1.4253392350769425,1.1024227066531815,1.7507599960394518,0.8599865922758383,-0.8759455564463297,0.6739642526252227,-0.6061165166354185,-1.0635323624823516,0.9925656503864957,1.199097214261767,-0.21156490099425485,1.7512840953276867,0.41196009285462143,-1.0149917059853233,1.52269092708292,-0.5047838507724007,-0.36113733810602167,0.5811624331986178,0.28477443555246085,1.224464383576508,-1.3476701903518333,0.14507205817945668,1.7738317074441752,-1.213597380827712,1.7564311559393966,-0.4356192566160644,1.398719257593048,-0.7385342460095465,-0.5825633334218026,1.856475853135707,0.011343513805243344,1.553197178195035,-1.6696599478185936,-0.19444390189000904,0.13357911181320103,-1.832109440621755,-1.731998686477683,0.8240853654548506,-0.4283667218615195,0.002520669074407511,0.27221425301285906,-1.7070927728965413,0.04831603548118979,0.4762863537203921,1.3217918999915694,-1.5308274570017484,0.9378745274818967,-1.4193995622588305,-1.2903670352563394,0.2777169845819878,0.4726606649988532,-1.526923356653647,-1.282016212929864,1.5431214159280815,0.7147403781197506,0.17809646172207838,0.5970423076874485,0.22790872146620433,-1.9817895027393981,-0.2268026519543178,-1.3076941374975353,-0.9486100654432241,-0.7758514032427377,-1.5416471512354635,0.32127036379829255,1.713443351905255,1.8436669475497758,-1.0485191734406056,0.9448137056126407,-0.7680825347834253,-1.2823758393381626,0.1788691216003353,-0.9266231695416751,-1.406192168568548,1.1354933803523584,0.0835439569405092,1.9799554262348642,-1.8975048764331484,-1.6548028964191888,-1.4995988388853383,-1.3450712107606484,-0.06452566372150681,-1.7592873172393362,-0.9761132122272116,0.43000704741832196,0.27645909122804957,1.8169280264896348,-0.5087221373199009,-0.3438516719117235,-1.711857624285484,-1.9591664785426803,-0.6519064605416593,0.8192359614826943,-0.5532591650226681,1.517716297790844,-1.3903733881930855,-0.6759103039460905,-1.573540091306569,1.9188261495312933,0.0890979901997504,-1.6118005567092903,-0.5097772740079862,-0.9605135471588877,-1.660474413095593,-0.041766813703351335,-1.415468390227979,-1.1773384817652612,0.8493946317995733,-1.3674963602241252,-1.9280234927354396,0.9423896510251852,0.8830389015534141,0.5611669774012182,-1.2911763857796443,-1.5135405321421795,-1.3994735014736657,0.46409658646106733,-1.2019568062638046,1.137808098829625,-0.8542803840228679,-0.2761193649792193,-1.3952688368228499,-1.8871533146581134,1.3648343132264698,0.727244662208363,-1.0239805069960477,-0.3909704216159495,-1.456093835340185,-1.6521876057888085,-1.1028686912746237,-0.014853320096363642,1.8586140535490405,-1.8800069730047544,0.5306079280180618,1.1485770537163975,-0.7381811122964903,-0.8571153053453608,1.4170853879155945,-0.5392163588572725,1.675244351466953,-1.7099964097720988,0.33100745795510766,0.49223498549490063,-1.1897416419943125,0.6147334475448192,0.6210828096354231,1.381941883714104,-0.03801547784388326,-0.4869235647486376,-1.205520307862002,1.6583276846388433,0.9849771991587675,0.4730818602716087,-0.8482862976124297,1.376678272334162,-1.8115245762258856,-0.5328321800619369,-0.39088665382557286,-0.9847550097650908,0.26543375685321813,1.9098920322803408,0.5128741968948494,1.3863428458638265,1.1516489030324228,1.7112681855984317,0.865663835607819,0.679789022177284,-0.13906134291956018,1.9911572683873873,1.7600354348902174,0.9056561043667752,-0.9782969823951921,0.05365831778055208,0.06650778771006838,0.6693578359913763,-1.5971357136317237,1.0879963426816515,1.942992484855822,-0.21612189101238632,-0.03228820391852327,-1.3296897372597067,1.1641908674022465,-1.9814239406939422,-1.4494284442220482,-0.025408217252626653,1.1287098867604843,-1.9063944340625327,0.48206354979027255,1.4425451929393796,-0.05752304828659627,-1.6086504199663927,0.5040581309813259,-1.346638661488213,1.9433953248431597,1.972090740322503,0.26623198678929993,0.7866732987332608,1.631374567622613,0.5982659279134528,1.0145615886543693,-0.08560413028925495,-0.4008541388462743,-1.2288083519969208,-0.9564686695772133,-1.4849391160114367,0.4570302257011929,-0.7429222568032214,-0.6656435277955328,-1.0195541260070842,-1.532743988866486,-0.17785395783316993,-1.739534082545807,-0.9788001430870019,-1.2468350527827048,1.76848140552694,-0.9142438473018788,0.49666129917539026,-0.6589071750099333,1.6083282939910104,1.3042352513446525,-0.2706953651172057,1.8390552890413474,0.435238053709329,0.1866948872267442,1.2576811799043641,-0.8557299938587524,1.7721041656403997,-1.8532498237962614,-0.18426464501752404,-0.8642442579540068,-0.2423825951771037,-0.9854514929060323,-0.13836152879829688,1.566311808322916,-0.7366192617141007,-1.47168552522497,1.0038152443851778,-1.7577535266851436,-1.369893563868673,-1.995967194850631,0.2728349615293615,1.7304724475130357,-0.835614818910237,1.9828059449458761,-0.14703640895045655,0.9931618978237857,0.1852187748997185,-0.15282318651678528,-0.46622530202150037,-1.210524320582353,-0.9323487565789215,0.8025458942042287,-0.3567933938219743,-1.7684068628186682,0.2897834811348421,-0.9167548748792314,0.8400753981086191,1.4161637024017852,0.3284058443727176,-0.992754919705197,1.9962800509211802,-1.8547479772332336,-0.832022039669007,0.3124172206129492,-0.42482983111592265,0.27074141334984425,-0.7487207383661936,0.40208458245823087,0.8764008006450363,0.08426998606958369,-1.7267785612159208,-0.04525350936940331,0.3984933919907694,-1.3665076296999783,1.754557004722746,1.2292236964385008,-0.6106556493983804,-0.1654354323068774,-0.7196736109315398,0.49510340984816636,1.407396456214241,1.6956759519922664,-0.683931923956572,-1.8718111196994491,1.9752810134242167,1.251697066299997,0.7246519370401305,1.5863777058544537,0.5548086315109919,0.5572581092935915,1.6356634520205557,0.13524862633176804,0.7132208274905105,-1.8259740064261694,1.482746244600055,1.9338107514516025,0.9385457877968699,0.018296235362960545,1.4736923304973861,0.2515397425983874,-0.8225470514583062,-0.7698486338786572,-1.2821278126529667,-0.705582185028581,0.6630287406974569,-0.11842324779021896,1.3294616907464682,0.5214441220365762,-1.1967518770205423,1.0236099474123241,-0.09113624316299473,-0.09858705230984155,-0.2800220811444323,0.7372451242882758,0.952399882243141,-1.0404351505030376,-0.9368196031044995,1.1772227505262212,1.705470272398974,1.5265210853316042,0.5733768454484847,-1.9529904793196513,-1.2906682511950018,0.05955549455876641,-1.1898194280802046,-1.2080514983423827,-0.45717515825761845,-1.8641121717980105,-0.00451049497859124,-0.9383785475935333,0.6640322539398427,-0.27139515118538604,0.34912711726923185,1.0455146098836647,1.8784013322862299,0.2854780980721068,0.3392541409811858,0.14852319679719272,-1.911476919788869,-1.258055356580582,-1.7183618292567684,-0.9861918715710201,1.951072756815095,0.716090748727578,-0.34803225239424895,-1.7962992095725676,0.16132751106988552,-0.41783011980956974,-1.425227855347074,-1.146542543964065,1.9688894861690605,-0.21162993544705522,0.7112016007872048,-0.8336670255953167,1.0886733107765179,0.23707038468161112,-0.02473572878730801,-1.4045826890922868,-1.9996406160243936,-0.31293149688132704,-0.17356539568948248,1.6291565691777516,1.6761523165540382,-1.3335709269211105,-0.547576457437887,1.420868269940454,1.5401327759444436,-1.5884628144027793,1.8805341806916958,0.7969011704962643,-1.1677985735903844,-1.0628245816824458,1.539918052327331,-0.46171975711422286,0.06011703116385858,-1.1151808778177092,0.5208604996881543,0.24609682173414216,0.9344638959811933,-1.7755971212754966,0.026635188792029307,0.5145163933315682,-1.768130903533129,-0.9858198850074666,-1.3143263107943253,1.9353067091401246,-0.616178037832086,1.8878231369202552,-0.8749434679085621,1.8157535819667823,-1.4880638255044074,-1.9154415280453772,0.2466192770429343,-1.1691829745953153,-0.1809753892264685,-1.0352162407326615,1.7465192252159243,1.1936557654107998,-1.0358543852149564,0.6947664053505225,-0.032708559760655564,-0.615208493437287,0.5305480853616058,-1.193471388809849,-0.7151780732838797,1.7447058999487415,1.8024063798116696,0.6443352520205696,0.6862200969385372,-0.38446754839514696,-0.03764988617674758,1.4081578655735902,-1.3021813661139996,-1.2154787736307973,-0.6421431544661171,0.6901130216668525,1.2096922861046289,-0.5773897164143169,-0.20019689916170247,-0.46144569985996764,-0.712957829495287,-0.6648456451384503,0.7317015401343236,-1.4296457761897212,0.9437831326477144,-0.5012498190329286,1.9330398974561072,-1.6239806866076445,-1.507886602403984,1.6459580751077758,0.9302634267520009,0.1830347349388246,1.2021470796012088,-0.35606152058093254,-1.396933784616082,1.2351843439991166,0.7626478764882236,-1.0594139645558305,1.0166717010736064,-0.3390931505758008,1.30640516822467,-0.2466990242802436,0.9628631962527558,-0.70478451781696,1.1081395095644124,1.505635885820376,1.278874522622798,-0.10492486247014998,-1.9463233583093587,1.0302921994842698,1.4524473362402728,1.8065652655806965,-0.9472399587895568,1.181280996134793,-0.9220994045236681,1.1467923224976309,-0.9771799702365396,1.8825947232136202,-1.2911696475402827,0.07516994505519037,-1.894455403937319,-0.2673042791449123,1.1172513826664647,1.2364526280408512,0.5363208427811772,-1.3296578465907611,0.18626660603470357,-1.0425422138147207,1.428109429012825,0.7492900532641245,-1.81032908344682,-0.8490811389371453,1.54113793983635,-1.6887756530463935,0.2530452460395507,-0.07344246641786922,0.6072630734596176,-1.8684199126874228,-0.09173353986544841,1.8307001842715915,-0.167432680556463,0.2807489642236738,1.0893109936741205,1.5520594290337626,-1.6624485611574853,-1.0691345212461134,0.2097497018872203,-0.20339226347495032,-1.6485432018330997,-1.395329308794786,1.5739986146651859,0.8601810521304469,-1.963354282557837,-0.8930628472867004,1.6992973647622236,-0.46769593292706446,-1.5917171373604049,-1.8493111839145993,0.6189910826801852,-0.4033618754093453,0.6223027978138145,-0.3261617342156957,-1.8270882435826712,0.5383907745216518,-1.6130837240078422,0.8760982298828526,-1.1312301717447153,-0.5706430500534183,-1.5715666432538664,0.7519487757444674,1.6365879920782445,-1.546540758939456,1.777814212400711,1.725680069212713,-0.02045889267610468,-1.6487195874093534,1.7724346650683898,-0.9485189449744116,0.7843036556951333,-0.38480967788650977,-0.7231220416902744,-0.5175605939978207,-1.947614642503627,-1.1201332367398709,-0.9818359149091256,1.5302884303561681,-0.00013033223920411174,0.9654960082192616,0.05822475208470301,0.3858907289040472,0.06319999891511419,-0.9839687944757856,-1.2392461706111022,-1.5845758487010873,1.7838074757402134,-0.8635572391711954,0.3822885691076312,1.1446336189059099,1.9387060570473271,-1.5572446548045304,-1.5829122537750169,-1.9878519078152492,0.17145723300717686,1.650184393892224,-0.8235300096507419,-0.5639829975941515,0.11572487026929457,-0.10630769990904687,1.061175264082972,0.9295057510260425,0.931965226093542,-0.14256385122053672,-0.8754593727133497,1.4430890575982023,-1.1776778155419771,-0.1056858532539584,0.4587991463807022,-0.5621631369099633,-1.0950897923383653,-1.2320862178485679,-1.870686032224452,-1.1983143846262396,-0.03509779765337795,1.116536730376167,-0.5921085337397805,1.6720444337354796,0.9170253469887313,1.8583903173951821,-0.11325816844074721,-1.3115159443830566,-0.7776082009691976,0.8224828725260118,0.6611793805326975,-0.2160230645409813,0.34554345017159616,1.737233060197732,1.5198057587565996,-0.9315139009522606,-0.6327860601436153,0.30196000874465634,-1.273866481820519,-1.1523763514725283,-1.6060189053463603,-0.40462538875948795,-0.8824546222666276,-1.3552618812841835,-1.7631496428452973,0.8147506865787766,0.5622246726117361,1.4002907867370507,-0.33479982237059014,1.1774484229751168,1.8548603879195835,0.46898395834839857,-0.679552727064415,-0.6496977269784221,1.6617569448708203,-1.8174512924408837,1.2580964093552738,0.6062012587729364,0.5297437471922333,1.60126483119743,1.114489628808116,0.3799277077038541,-0.35606035286814075,1.7313031550317923,-1.3894398133929484,0.8528516104941342,0.868509745559594,-1.804777270533632,1.331744246267795,-1.8766033381742488,0.466048381739002,-0.29346976561804894,0.6241044239057558,-1.7922728083782755,1.4610276442626824,-1.7664447353802673,1.2744676184580404,0.39763420530689775,-1.3299665529587412,-0.4088588805365321,1.7237373228477173,0.4435174211188264,0.12697445635163307,1.060239784715018,-1.8467428490944475,0.5857159654935837,1.3693714950143465,-1.5758759189625766,1.677053299579522,-0.33210117758540303,0.4792525605859139,-1.1216905912705242,0.1647240062774724,-1.9379867381576106,0.8412512383370494,1.3625450999681363,-0.6062440241694884,-1.3270810234917607,0.4179550424118652,-1.483834945447024,-1.0679901538216638,0.12163857490134689,0.012834180773759751,-0.3339580728193918,0.7393230209415589,0.4020908150577043,1.7578365946131127,-0.4835565696666051,-1.584361259639247,0.815637090383956,-0.31642511360388603,1.061388039496633,1.0228244275101201,0.12167356915782435,1.0427809202075071,1.8566441502431381,-1.595716444295948,-0.7286078182157558,-1.4122346212282144,0.3402331975659818,0.1603133908515595,0.04524526238788562,-0.7494263250459334,0.9691496029230269,-0.058070963716674306,-1.225142225287032,-1.9847116418150663,1.314352368748358,1.8740306266053461,0.006919947043488861,-1.1880257844819493,-0.2193053383054906,-0.1780073316656816,-1.8953113899739638,-0.9432190122479382,1.251519451657924,1.8624662256567808,1.3611732181048941,0.37846602918414085,0.42412693974753557,1.1982952624458685,0.34583909560003434,-0.8010725993927696,0.5945030133235405,0.3977803736160732,1.6650929618672898,0.8305282343695821,0.5579307407829894,1.3264498531228752,-0.5686919452498533,-1.6565527086664882,-1.0843327862306285,-1.944331560441709,-1.4792458784620672,1.877531236647196,-0.9827589739762632,-0.23841142514795033,-0.3176684435153896,-1.956232886061981,1.3953742267671037,0.2757509727993668,-0.7337439270410755,1.7108919280018533,1.097230103472718,-1.2781976118830611,0.1695678593004084,0.9004603242711227,0.3243249327390214,0.3274924057689268,-1.7898415596987531,-1.9080883116413037,0.6512352079408088,-1.1259306614410143,0.1756378054737091,1.003313032099658,0.40774170074605376,0.8493309219818226,-0.30767182247082925,-1.3545206130688174,0.4644351171335388,0.7442229441077144,0.09518249203985052,-0.28899797429246465,-0.9931268815283518,-0.13052881579114484,-1.4409107437384834,-1.063338704382843,1.0523262452661997,0.3049265807878694,-1.5163233400101692,1.820582079184418,1.7759570836835366,0.6387074885084241,1.686620332776823,0.5449933075739835,0.5009517037866225,0.35966871122589517,-1.4294508512031543,0.3274001116374121,0.6963556391684675,-1.232977428568233,1.1548215999912776,0.6760700806132265,-1.7152708445563332,-1.4128865055799502,1.0397576949270992,1.6017437356550825,-0.7992511511408389,1.0314699095024387,-0.8010936273118685,-0.6116859681084659,1.5225257359209374,1.3517457563044077,-1.753681178469741,1.8830066197948265,-1.859998400286817,1.6057103137312172,-0.08497659206542352,1.2197318130865136,-0.645608963418971,0.37523221613461866,1.8267487242699239,1.920697176204559,-1.7044822637534764,0.990776799670599,0.9593967904988423,-1.304629398498252,-0.3901374029831879,1.7054621582990324,1.008055052349024,-0.4837589470952728,1.2462680279311176,0.9672095920117454,0.16386272812272829,-0.5182609208059241,1.9983258360936822,1.4370506359856168,-0.9986437261965042,0.48899505651800057,-0.16775359096411258,-1.7435142630399327,1.9325271838003628,0.5689466091045952,0.37923422542437546,-1.468055865148464,0.40768552052116425,0.06742699037606847,-1.8787031955451083,-0.7421239348660174,0.3929606999083348,0.42294680160850406,-1.0290866017232871,0.32677847354760514,-1.6546669350182537,1.1063254516322076,0.4616209042920434,-0.7735250222409094,0.09075911483001198,-0.6445429779437206,1.8110132778611026,0.9463040262207332,-0.3155956149976622,1.2206254518237558,1.128333196304204,-1.9157229756248655,1.6314211340662412,-1.6350339692627789,0.049036465236453886,1.217567693122429,-0.2676885589239353,-1.342341821937501,1.3726813033598244,-1.5740640174383325,-1.8820043520783982,-0.04874933700494877,-0.5306496751132355,-0.46267213472080204,-1.9177964256959092,-0.4311445732252839,0.19945827488857182,0.13470695713653758,0.649090055374494,1.4526547430103305,0.14129262504106865,-1.5879823345622408,-0.42385129181981585,-1.5896097835841707,0.852838054586659,0.9054695281687613,1.0323397574587307,0.34712880776120425,0.055637529715394596,0.6957117336599405,0.009486756192877088,0.48523429910601257,1.8339977568806929,-1.3827893912357263,0.006268842544864928,0.0957148638106391,1.2087954224815416,1.070200683708837,-1.8382158980047332,0.8868074847986538,1.6151326124619998,-0.2969163424278074,0.26354216304563627,-0.5092046560648216,0.9558377324335949,1.4911084635581768,0.11810437091900239,0.7726108382652028,-1.7813057503575958,-0.5740418207201632,-1.7614902754861217,-0.8536213220331819,0.15174024879401138,1.6493282045040907,1.0389547461764868,-0.7931317260702051,0.9544307864220238,-0.9511999525753163,1.788926452401665,1.7656841167084085,1.4443486748735528,1.0616574330403545,1.8389068190069104,0.5833284366532143,0.877278628295636,-1.7766673257730137,0.9349247670963048,-0.01463256343399344,-0.10009908096467202,-0.7948868860873417,1.2445613337580066,0.0690810653621905,-0.8032114699028625,0.410587506453266,0.9439797202608036,0.5511654208420769,0.05258290744882377,-1.7043008644555346,0.19462231416703535,-1.8988642441468624,0.6425563401121459,-0.07135987838345104,1.7108384024520253,-0.7835543724671501,1.166545441905447,0.3188565047312779,-1.3776697635897377,0.827217850448347,-1.6741422426471022,-1.9450387048957802,-0.4575771245097151,-1.7854799889058355,0.11592093577583151,1.8631492193938906,-0.2292217078689882,-1.6081179314569014,-0.32375132782784943,-1.4434157341420875,1.533651706173523,-0.5181008376869998,-1.8493802189110844,1.042144599508629,-0.8945363872787699,1.0389256840264487,-0.7208988981109012,-1.2330159646505932,-0.6352678341091145,-1.7806434500601305,-1.9950137374382333,-1.67175535463051,-0.802658594946899,1.736720019350991,0.7302284881738288,-1.9885756464840183,1.8581938113846976,0.34980812053832366,-0.6641092506155077,1.5386496493154191,1.6822180843764225,0.005171938403029319,-0.9271741728888045,-1.5895114859068507,1.6454608950309884,-1.795120063731018,-1.5566720324882963,1.9653299665944104,0.1935277542093048,-0.9048143380415992,-0.520646572809909,0.6661555056804165,-0.09620139820378748,-1.3759760428440528,0.6000645458919025,1.0523050753483778,1.605896015396508,0.6484519001976139,0.18529798643078177,1.5135214604349017,-0.05497886471733349,0.8719608188439385,0.37799420106140635,0.17016967459478582,-0.9370036143863381,0.9325875658373368,0.4525741666872283,-0.9791645822827588,-1.0002563283899737,0.6202304464937942,0.06627895447029841,-0.6609736111529823,0.9413864173235367,-1.2018707761647835,0.0889954716985919,-0.5609408133396818,-1.6018924679956492,0.6338554960849891,1.9279030623408828,-0.9417121460337419,-1.75292678525941,0.11000131962646753,1.4613718676915868,0.5753679142838322,-0.4250618449738397,-1.743182064532364,-1.966971597250585,0.8803890879237275,1.9743595533972447,-0.2508349180765257,0.3673378115380106,0.18446775745322874,-0.6780811937887741,-0.7957710973301602,1.318506380126526,1.033829420739893,0.7595975335120899,1.946535775232646,0.6461908289479772,-0.13845369378676686,0.8326229180018765,1.9560514186689946,1.9498427218853478,-0.6003037772251045,-1.9272102506948992,-0.6795511787854491,