1.2034231447238914,0.3568329904151688,-0.5323107716455269,0.3502969120404553,0.8822606563466797,-1.7816012622946027,0.7824883975911074,-0.35023295294627355,-0.7367341439645281,-1.5807031396553741,0.11234950800107324,-0.6472086792534641,1.147660903260451,-1.0610158976163122,0.5362344745775438,-1.8881780978338396,1.02783335988584,-0.48661357675036765,-0.19364489421721087,-0.32241321338590323,1.8231148582596415,-1.4325016898800302,-0.9588164747879446,0.14831692659061302,-1.3022022771829933,-0.22926254238789,0.47845282360218455,-0.8437556707606966,1.79262600767531,-1.092202391130657,-0.796927278906729,-0.6494992412315468,-1.7275779796907553,-1.2792922976660468,-0.7887665984517995,0.14044843306513854,0.3769975351335142,0.2495024750776751,1.2372531813944763,1.6896839151161265,0.23848816556073915,0.6260312940615105,-0.43019481851636554,-1.2575164795195604,-1.6804786826169553,1.4091511498211098,-1.3198953102164204,-1.1018044615362963,-1.86746424718668,0.8830191652348955,-0.6206791545139061,-1.143931148629194,-0.954829057753027,-1.908684737912007,0.9303761261087415,0.5331343146690948,-1.5243684413982845,-0.7767475751909574,-1.5916822635429906,-0.9563328086333804,-1.0078410379128369,-1.8469114009170111,0.766165666564611,0.3482925903394025,-1.4745682252296608,0.11819474052322887,-1.5331116002041867,0.6598622430895897,0.19369531437655985,-0.6829485373531528,-0.8889491459603676,-0.4974919497649313,-0.09404850572683188,0.2582254451974335,1.2575328866453512,-1.5141924595948888,-0.08436674091850893,-1.9044182544924042,-0.9238858733162094,1.4899639447163646,1.665021391462746,-0.41354313171117285,-1.9661987597860127,1.5827621033672101,0.02406501171663189,1.5965435643266326,-0.2419783777489486,1.3691764590286497,0.4643801949792392,0.24214316708820194,1.2493945830937894,-1.2798054392503482,-0.48894167568818947,-1.6031815485711243,-1.2181151302034237,1.1826961053577962,1.9320060083279635,0.8898141420501395,1.6221137488191961,1.731193199702302,-1.3953729456740982,0.563230487257588,0.8408199934335858,-1.5273826611169374,0.23720322987783815,1.982756489024084,-0.22355208422501738,-0.3641729308027566,-0.8461265444001334,0.17644970969077267,-1.7578622473890313,-0.9433629728630617,-0.6679872123224868,-0.5317012027023766,-0.6661075710117896,0.671308645453156,1.5606559266327982,1.5006809237651364,1.6520912250603388,-0.7487820723113767,1.857752424328062,-1.2946955983021526,0.3257350732954891,1.1304817173269166,1.2894087722415524,-1.320027597874677,-1.711095823742859,-1.752832468219308,-1.659817437166382,-0.17668341610112437,1.885548604258247,-1.1071186449814836,-1.3413407468103649,0.8947757878066462,1.7762981197889864,-1.040033873012011,1.2106405028140643,0.03636125818220215,0.9242351140728977,-1.715150397445628,-0.34298199033552956,-0.5701832864140677,-0.18359665301986938,1.037900379835973,0.3393277722270893,1.3426929631995508,0.8477200615072231,-0.44472369627991215,1.0849048874510054,0.4382720365709507,-0.6510958127825504,-1.4957584722533483,1.0454833058875725,1.2452502678647566,0.24974052295982707,1.0576518282035114,1.2971211602536177,0.6847141818981393,-0.9701413825868093,-1.0687835320722439,1.6256447970738983,1.9785783321108954,0.9671076418130182,-0.9001269689813265,-1.9604364926803886,0.4465581423998306,1.2886054943570802,-0.7747991713205327,-0.45202483828787265,-0.8765597091504622,1.0958769192553253,-1.255040029111779,-1.1050225674043617,0.24254634991287993,-1.0391519113115852,0.3774237357565755,-0.6098182963921976,0.7292592748333608,1.9000327092154228,0.8544736112396851,-1.7456176030357216,-0.5394575838156834,-0.3038815437710549,1.9077010311812157,1.444891190103291,1.544921185467493,0.06292891486613961,-1.0705606923401678,1.9635898613145386,0.9920741984172006,1.2062707567973323,-0.08180049438344561,-1.3551300453189854,-0.8969462893905895,-1.4107198000829095,-0.730104414840897,1.6794057661676978,-0.4018474049161118,-1.9481427653860655,-1.701130113662367,0.4911707451113405,1.7443089636356346,-0.956636652715054,-0.8189208245368533,1.7831226081357308,-0.8631508403678514,1.8474833348815993,-0.6013339347620055,1.575715923146174,-0.826443582745835,-1.8153481432383498,-1.3921465048290593,-1.9701746521680676,1.5571794692626768,0.31777817752668325,-1.3266841131623321,1.8768688328034635,-1.2051773008118807,1.9338468312045363,1.8255327863817854,0.03437024585243087,1.90526614651507,-0.6208352231548138,-1.4136658299492222,-1.5508193020429797,-0.6421483607150287,0.4053679929468297,-0.41023249030152176,0.15163279708200816,-1.610783099152533,-1.638265427146195,-0.789349941471587,1.2103416612671913,-0.9074678320694622,-0.3234503038592753,0.8827453800426759,-0.3520293079363981,0.5233894293614871,-1.4566249504153226,1.2606527525827804,1.2656826624742505,0.2234297754223511,1.443009154561667,-0.4125073588149313,-0.7819515840848266,-0.7699241605341638,0.36880524073199217,0.9667857612106965,-0.4075507901585578,-0.6829251645320356,-0.9291502520741632,-0.9199043106206175,-1.9373390897453464,-1.4611978880069834,0.06156586222806926,-0.12357007425253208,1.244170400330833,1.3259796193492446,1.1741558272143,1.051026441964137,0.025837364626348336,-1.421062919776968,0.32525387890774926,-0.6808036001908744,-0.7424546101371332,0.7527166751855563,1.9091543695772297,0.11045278190777097,0.68623730919838,-0.028525812850252574,-0.07195677376596965,1.7745543472767422,1.2462694153552798,1.3188754806176108,-0.917319497631417,0.6627272381759419,0.12082370631501282,-0.164099036741304,0.3213059683768935,0.5303589742099604,-1.3206577475679757,-0.7695997452882808,-1.0021302693439589,0.7498020855726368,-0.8822711897750395,1.2897851644252873,-0.8027655695002043,-1.3759282861532869,1.3632445630541707,-0.12096405806227173,-0.1767712777106918,1.6153354516668448,-0.13957355745430178,-0.45902310999264806,-1.0288036611084124,0.5428232162104414,-1.5477436449254989,-0.9121706369648273,0.06415610503415525,-1.2275249153252492,0.2316451877471848,1.5520189975523784,1.6084075464394774,-0.08989575119859206,-0.5157248980573881,1.788909747588395,-1.470384963571838,-1.3514603490115817,-0.08384782324560325,-1.9406209384139101,0.4051465642815759,1.4870616213336776,-0.06760050001364037,1.6503731881519803,1.789547602130146,-0.26411571478713425,-0.7475556108332171,-0.9094570546952276,-0.3758287192799692,0.4646552134982902,1.5903221871897824,1.099127766117765,-0.4560398562216199,1.453810022010213,-1.7908526638310582,-0.44627821158914216,1.0086462802569383,1.7004505971317334,1.0435736196546705,0.7535831178519348,-0.2325462752398435,-0.8880036268341263,-0.26834222732173973,1.8022723598959103,1.6363394080899258,-1.7463224121568737,0.9901899334881925,0.03242929639086434,-1.84621363972346,-0.9412673061002681,0.022576089227655416,1.832367315184642,0.5833064911072019,1.3603665543678338,-1.3760602490657643,-0.4291786044366397,-1.0264037985675678,0.7729097334527126,1.3867571522559703,1.4370674405841366,1.8205376242529363,-1.798892299803788,-0.29711766836378484,0.8417619048670959,-1.0748948089058028,0.726147080050286,1.3899557556552518,-1.1453332873814377,-1.63712587401508,0.3944693502777623,1.7452681910611534,0.8252562907727539,1.1089237738874882,-1.7444803175580001,0.407878070883092,1.8460485461386962,-0.834005827848423,1.6802220555314409,0.5926407956981619,-1.5749391359838563,-0.33135351554852166,1.6552335114411827,0.9990283002211586,1.0537575475420504,-0.11906562072395044,0.7558388958303408,-0.10271832998323838,0.8902328602793976,0.6442454137959479,-1.7989493199953728,-1.4602651178123298,-1.7041599583354148,-1.3538888984468649,-0.6258874276067252,-1.966851260873236,-0.6183455952973325,0.9114302667333996,-0.8753013044741453,-1.1104941670566237,0.6564490101564129,1.8466770808912374,0.5231735494625234,0.8614838925729122,1.4760562409425448,1.2925216476137704,-0.773388730691952,1.6004157788319708,-0.5035127845689553,-1.4061515777871723,0.45564307885820643,-1.3993330278144565,0.08034083306310746,0.37960561195101405,-0.3736791777700832,-1.5096736262772947,-1.525056697590557,-1.9230814915011885,-1.226079519859978,1.9544553921348746,-1.7760820090662435,-1.8309327483733173,0.37101816014723843,1.5305602755046515,-0.31809330173484396,0.2507039211939057,-1.6822611553281974,-1.8733653024365826,-1.9349006665843849,-1.7488956195962193,0.36137748903431,-0.20743979493200904,1.7802492613488754,-0.8159313268857158,-0.09192812486776081,1.0006573875837366,-0.15232899760896856,-1.475284506818281,0.22124663707988823,0.21758446465363912,-1.6634932407005607,-0.05816616147257836,0.24205302131554607,0.29105538025847144,-1.67617939326307,-0.04006453080892003,-0.08312370363192878,0.10216092325592241,-0.938016031189068,0.10306789902782354,-1.5729678254264172,1.4525868892734461,-0.20095172865433808,-1.4145867007135355,0.04121380185177381,-1.6110978572248826,1.768232583009572,1.0028347916671043,0.9024453601850846,1.9154367243893775,0.02425729166663748,1.0687156474612753,-1.7587656237567493,-0.43972407158068405,0.8670474967693265,1.1828504669926496,0.5045622278817263,1.653360986185457,-1.9719358417682233,1.3533821758114204,1.9730615927612223,1.877645258654649,-1.148708312357578,-1.4557179643473037,0.14602714936300654,-1.3872735921769768,1.3469436673512605,-0.04913582128789118,1.3987329986124486,0.919327565142031,-0.15826736669189057,-0.525852640278714,-0.9719581415947394,-0.8561062886603072,-1.5559976944878895,-1.6398153937893492,-0.15123874565045536,-1.4029248132169907,1.6136835561998266,0.33161051328588487,0.20685754528928424,-0.2106441327644215,0.4003331154622529,0.48684948743547585,1.94992149416758,-0.5695003823813662,0.9304566972540909,-1.3784834010659859,-0.6999476432258254,-0.3893589760256728,0.45538048953765253,0.8850347345238267,-0.0593123809462579,-0.6869250607562276,-0.7611575786644709,0.6295873778767884,0.3330984369103578,-1.0616560931835681,0.11548818542578543,-0.3468406442459142,-0.05139511449524159,-0.333251861616787,1.3525870009347196,-0.15904118949136237,0.4219718921909701,0.6093369353016409,1.1633889106245379,1.4440565165929824,1.3035348516668366,1.4136410255336957,0.6997105487233428,-0.80298725116497,-0.8901635918769499,-0.5532912849805043,0.6601774096716051,1.9216154875064269,1.913509801153329,0.2931130097461909,1.7181710745160985,-1.4352162820630996,1.2767264618048122,-0.8098974154436362,-1.7098402645103339,-0.49700345989483674,1.9551994708492235,-0.16259716827912207,-1.249720253450883,-0.8300151128151896,-1.0923696927907272,-0.6861642103112033,1.2203847074780971,-0.3473181744123437,1.956571859073362,1.0628697037385435,-0.6142186658869577,-0.6082600108228093,1.6736590052927625,1.477520880278571,1.6241003065047916,-0.8503890774500578,0.7653269555658504,0.9525391173300388,-0.3632578451583446,-0.2897270718674809,0.31290624981842363,-1.6233324733009602,-0.15028806152282792,0.30663871753257865,-0.2987593257718153,-1.5879607573630592,-1.7001123828848574,-1.9627778375592566,0.3947898802063339,-1.8823744196289662,-0.5052648860591207,1.379140991405031,-0.6130115590398946,-1.7105518782047926,1.4068108219542443,0.8584228187940117,-0.9542604529758991,-0.5362946525495609,0.5159404497186362,-0.6078642885001178,1.395446071072934,-0.30953053891694493,0.5096442457089583,-1.3237867249115385,-0.6971690387092941,1.3330502112790774,0.31472018325383555,1.2113295740665508,-1.4674710924514884,0.7621518726348655,-0.38039783067602606,0.5510116825607105,1.8587365496673804,1.8080271914214943,0.27909836977489544,-0.31544534047084705,-1.0764536338220285,0.575083855893876,0.9704792911746072,-1.4244489647067802,1.2733132199010906,1.6430710659875523,1.3322909398906777,-0.2004382076805986,1.9895951759938657,1.21702743954069,-1.141941780134888,1.209355187225853,1.1031324833563199,1.7422474002600965,1.5606226580938025,-1.5978710572111154,-1.3156088477220331,-1.6968772628070394,1.9072088259886422,1.932781357026022,-1.5186288384811046,-1.9407592482269398,1.5922861662728263,0.47593503421842254,1.4472347888838173,-0.056237458904331294,-1.5193447145279975,-0.7226882890706574,-0.2665408504306086,-0.048259814184367755,0.9658644910723466,-0.20355291247989404,1.5489780191877207,-0.4757085950207065,-0.43922089087286853,1.9621639390074699,-1.267613036908645,-1.845671910900161,0.6977858717782546,1.029779283018729,-1.127717209690399,-1.184767289611114,1.2191224504910632,1.6413033712672402,-1.9680830659548834,-0.95006437933516,-0.43117002214695965,-0.156755011120695,0.895604290863385,0.493914249118911,-1.9348584760946057,-1.0994201151473852,1.5267004776770374,-0.4980862994144326,0.6476674172683428,1.1868286785640074,-1.128025274489835,0.4868849745614279,0.3318620039109521,1.0718915943089735,0.833447347958399,-1.528151675085999,-0.14499005660955344,-1.2433932178828422,-1.446168385821259,0.6065901108074478,-0.15454266036792097,-1.078571718903421,0.724319755789212,0.8836938163891985,-0.9733438231390572,0.9394231298762614,1.562078479901683,-0.8888149395230069,-1.6621142646992033,-0.7117057620348373,1.3607908782886922,1.6426327635130105,0.6591349376552107,-1.0434635536375136,-1.9723361597838847,0.829816135538731,-1.1641968033944234,-1.0829688352166102,-1.6500740789225814,-1.549424670997991,-0.2565655013294159,0.7667527310087316,-0.5221675395893488,1.608375083890346,0.4778546167270785,1.1878338381909517,0.511060387194624,-0.10450641120996984,-0.44720930669103387,1.7205118161189725,1.7167228734344775,-1.3030819578337547,-1.8748664084454085,-1.845273984088041,-1.3568733389110035,-1.143116757815056,-0.968681371137821,0.15819579237492665,-0.07131186917960264,-0.49169352611028927,1.144454299825294,-1.4166208105495661,-0.9530471334045223,-0.5303847914410484,1.2731624644517634,-0.9220766668671483,-1.0406882220764713,-0.746285254484353,-1.0433253565774523,0.8980914321033051,-1.8809684205297494,-0.3350975954737203,-1.2417670821387277,-1.6796732650239545,0.9635983166287101,1.2371912985498854,-0.659631951131411,0.07802437635957737,-1.7069090914511782,0.1804756487076138,-0.9146869843900229,-1.7013457922417303,0.07279389295192296,0.5362058949591719,-1.4413164532160412,1.660276568221493,-0.11687586149493212,0.23086906448214295,1.0120108095486513,-1.4999564182419372,1.326178721903331,-0.04647102934710334,1.338404246949933,-0.5631175389155647,1.235213805893224,-1.0254951271499206,-1.9604254646874435,0.8622167053047516,0.04735843184521338,1.6449935393338455,-1.724230763649313,-0.29167317215748323,-1.7706273302618056,-1.5378007971859553,-1.6986961369473743,0.30104347728584724,-1.2806334282766905,0.5787111356869183,-1.6110959220193966,-1.092067320091921,-1.0725087744386173,-0.8816159836461073,0.5589379090608344,-0.8886749237958975,1.7576121006194678,-0.7973822956099665,-0.7428603239863003,0.4432869839226674,0.6661696145714116,0.812217759162535,-1.3808407555303956,-1.9746741200306999,-0.18023366072828395,-0.05145057022078969,0.07194238638757389,-1.662889446101023,1.9454656393098722,0.18064359494682147,0.824298262428611,-1.963737354193479,0.6195586330507861,0.6610162841295462,-1.7296620406886505,-1.2694988711127482,1.7897377417895886,0.7283323399709944,0.9180466836633769,-0.218144156343969,1.2050512822465822,-0.723301885834339,0.3222639059616319,0.15463066153467642,-0.14166319146080575,-0.5076528885199028,0.1879225930591466,1.116213575939002,-1.4666685089900082,-0.2625261243677852,-1.75923934040734,-0.14818192495812443,1.6924556811371079,1.1589307544068563,-0.33598921782437774,-0.866518325884726,0.06737253512335739,-1.2817285604091677,1.3144270540150838,0.58403374230903,-1.9399772032043656,1.5996856553548242,0.4292732305900664,-1.499503483519903,0.3369290070042563,-1.653451757830556,1.8246330003152051,-0.37787049847895826,-1.9848980671414478,1.323401882817202,1.005605751936006,-1.957148282393896,-1.051630649139725,-1.4311113937096582,-1.9835881056471796,1.2079718601851455,1.9746048638886329,0.7592606602281284,-0.45136059746245083,-0.9482572747444693,1.4691057883272847,-0.010744115384608843,1.8405632841064987,0.9068695563482505,0.4762362132858544,0.7728663905774207,1.056194389013136,0.8818415655651224,-1.436804190288468,-1.0820184759617217,-0.46803504223066916,1.388838463142923,-1.3579686109490767,0.41898141095348906,1.1987126092048985,1.7331413997085066,-0.6950466872314371,1.358474628091805,-1.9158477520736321,-1.9576751612956675,-0.82128327287632,1.4604251142500395,-1.318556368524789,-1.2038925241726206,-1.567567909939867,1.094086636976646,0.27123425082142694,-1.4033234416400546,0.5394287505518944,0.6884024131020952,1.9929379526305877,-1.9043959935924195,-0.5325340667972918,-1.2851412954072687,0.7137615463421629,-0.2784002439111206,1.87271982967586,-0.8950913385287245,0.11682741936867691,0.5406165802921015,0.19355634727256055,-0.2658327733832486,0.018106632775802378,0.11412438292226534,-0.6735766056242616,0.7964174209464518,1.3683579438221796,-0.7149198838704005,-0.1252787138133864,-1.1872216406330574,-1.2752967376198892,1.7719753088598313,1.07313818551952,-0.5535400146027021,0.6199049636844212,-0.33023578013504507,-1.2261586227918775,-1.8353236926331693,-0.9494124515802813,-0.7456304265275637,-1.9534713122501106,0.29624981279025153,1.8792910946601498,0.9580933733360109,-0.10391749867325162,-0.912139187100947,-1.4839156110204361,1.1178527667635723,-0.39837476938608907,1.8370468854290225,-1.6690144442924728,1.3577775880801757,1.3416048945286287,-1.1232755126637226,1.4568444777388163,-1.6238277655808302,0.17030596323956004,-0.5504418025801461,1.2057074393123117,-1.957729088431074,-1.9338774849727858,-0.7910838699532019,-1.0747349703852147,-1.2358236578228836,0.5325203504927436,0.49755888662967473,-1.4322300122202032,-1.245125160777349,-1.9238638656549365,1.0448701177246926,-0.5650012969984228,0.2652971999703979,1.699015487164925,0.4255513225731806,1.0643054283007163,-1.3442327931289428,1.6293091185334156,-1.2947608354419802,-1.074570281019878,1.7039831873232707,-0.11083664395231985,1.2098782354534232,0.2544398205844818,0.700357282500732,-0.4301748259917013,-0.24121708122743923,1.760508221865262,-1.4937726295529865,-1.8379298359197302,-1.0585426456317024,-1.2540781160183059,-1.5401835863886406,0.11916323972920972,1.163891591831009,-1.0904882563958744,-1.052847312783804,0.9753780682911026,1.8427541954328936,1.8248012676505976,0.26041329120081746,1.1859252403252607,1.5206316544141907,-1.6707972780797835,-0.8346924933261248,0.8453026299861492,0.575587505849871,0.3249997230933368,0.554156102673959,-1.0184624421259856,-0.05458680633504098,-1.0187491786791356,0.9449107306059008,0.7969752008865707,0.8729092027942107,-1.285524981288614,-1.1457387002614556,0.19614362596843682,1.3203466535111494,0.9968748817288628,-0.75024311178543,-1.8264943016548947,1.1674895509698655,-0.7745889267200883,1.947338214467588,-0.8462526185186139,0.08325695289059842,-1.309432564194184,-1.5915180891884497,0.8007753913856384,0.05993257932662033,1.6106862827386843,-0.9827752481452152,1.764835427585572,0.3101156125462148,-1.5487150759040316,1.0644039083231691,-0.48683730179220364,-1.125564465270008,0.47452178525048216,1.3616436752332786,0.6687695828568905,0.22546553330885644,-1.1482809694241154,-1.150633094176717,1.8914601272673188,-0.8520707212354868,-1.6242684601137216,0.3602753844047908,1.9025455865050076,-0.2759131248507303,-0.3563971193148774,0.9069855982963864,0.2849662569702871,-0.7160617291452591,0.4313636892079522,0.10782172989606753,-0.837764975212842,1.5564532143535197,-1.9395520884012014,0.13203127323242114,-1.3251249943190802,-1.9750953696245563,0.8894528934246093,-1.6554109292559138,0.9176331225542218,-1.6234061073505042,-1.7676927711146773,0.0032780859549879082,-0.9602594811717449,-0.46189738717078255,1.1732142570675794,-1.4032964042473108,0.8523046959909077,0.572072795574853,0.44133356724210815,0.6857965506409882,0.39900077154734026,1.4779070157045386,-1.8351025514885246,-1.9053944338364883,1.4739659006148251,-1.728335248098054,-1.5530394410598132,1.8425210038642263,1.4958237938251702,0.6032454895419894,-0.9345507832448727,0.2310806348019403,0.4638409912607515,-0.21934146755846662,0.9336232689541331,-0.33672249317933245,-1.1249414105650803,-0.1303239361343982,-1.730650939580399,1.0322691344000319,-1.5567493638414471,1.1250810682366112,1.2279724254389297,0.848582605764125,1.6046805801808168,-0.8032729110699997,-0.6471652616311374,-0.7788565882798912,0.8253221951659975,-0.5557020563006736,1.2088094343695825,-0.7680926516863344,1.0528869364638078,-1.2599422773974385,1.1742111670977158,1.6285706069788608,-1.3658793846782005,1.9643686555191002,-0.8482298815601275,-1.9901246493541112,0.7712980776335745,-0.6232256796396256,-1.581446453766116,-0.7490427060816982,-0.8814916870196337,0.7190877479719977,-0.507505528254542,-0.0975062943739764,-1.5407107558208661,0.6741916945634445,-1.6514517268499582,0.38628333322510056,-1.2029680488419383,-0.3112896436757051,0.5182245897346811,-1.5405265076334307,-1.9643376634393084,1.1278674809691003,1.9147148260442597,0.9557718824956911,-0.29462545256631056,1.179896575687958,-0.8857403669352739,-0.2812244232584913,-1.5641644751051271,-1.5354136852440923,1.8539276528362856,0.012966386085331294,-1.6704278360040412,1.094250495826584,-1.222849714674572,0.74203914480568,0.40303151533649073,0.23783416306057914,-0.0002714957347378366,-0.4912699400236815,-0.2435120763878733,1.770096010359051,1.7670667093481338,1.6440506430921578,0.857362649232853,-1.5735803239633421,-0.9937241951491722,1.9906602406650609,1.1957489992736003,1.2039728084860641,1.9773087482424945,-0.8113151452341083,-1.9817073832708423,-1.044397705305577,-1.4966765043247512,-1.5108559524574168,1.500842020339408,1.8659019352238122,0.6081948816460359,0.3251061757534486,-1.4043782456903826,-0.04750652279501155,1.3976531465763489,1.5090631831919001,1.6815444402104323,-1.9045568102461057,0.673528310868635,0.842972234729372,1.6253874971239144,1.0926507955419833,0.5807585371399613,-0.23432831756139993,-0.3084864777810785,1.3342838563545474,1.0960242290928526,0.8474699869215523,1.585858649493706,-1.902090761422035,1.386961994993655,1.7880302524241296,-1.2334910046380383,-0.5718074807726459,-0.9890996602798405,-1.5038465158748178,1.1834277542167335,0.11939683020690417,-0.012540732998858495,1.2371400339413903,-0.11312679723612451,0.5015402237907893,1.7093751772553896,-1.1523582112967778,-1.593814007442231,-1.3578785101480997,0.46306111002568606,-0.03443225979573983,-0.0428153128113693,-0.93427703372349,0.9603752675067354,1.2967532895017282,-1.7775090323132527,-1.6487694619150868,-1.9890921394823127,0.5090979138608507,-1.1146810184258404,-1.8470690301054655,-0.791323006025773,0.5432085090010039,1.8999526790578702,-1.7498098962848214,-1.3872443128318706,1.1892661452223945,-1.8390313123649702,1.4031977009349306,1.8464059046959047,0.6696809257671417,0.4064875660115419,0.8005009857496996,0.001154772318976871,0.8380388668971865,1.8588032297856039,1.9131721895943024,0.5895107436707594,0.9381369981662186,-0.658838211402855,-0.4938289496850743,-0.4876808842793956,-0.4383217612943042,0.08630135131286654,0.7326852010740748,-0.9104464321333778,-1.2246965849679339,0.7298775944992135,-1.0567579009070753,0.5529189567075758,-0.7670447059733068,0.12375458610200818,1.465609156792289,-1.3856050192472211,-0.25679390172748295,-0.6032900668396546,1.7852798083656998,0.5408977807851105,-1.2986991855393617,-0.23492230691899163,-1.3817272681907178,1.1776444009533016,-0.849122603475545,1.6582904858754475,-0.48145900393243624,0.9968599418858752,-1.491026143159837,-0.6004708123738878,-1.788626642471919,1.057931099976885,-0.422240824586539,0.8573855156565102,-0.5530345936234928,1.97279087978924,-0.7197288781352342,1.16852166416823,1.9893468293844814,-1.0618363300103097,-0.35226032521332806,-1.5307245623833192,-1.7043645242845593,-0.42884355204006885,0.7938194439955755,0.49416933612907554,0.41456067943257446,0.2772460786405304,-1.3493352943774113,1.5684140635190258,-1.069736049124375,1.3082075957244657,1.6071461650153327,-0.4358385797305333,0.5865072506775304,-1.154254682468717,-1.3782462652059766,-1.683885307955792,-1.4868714079622785,0.08138499256229847,1.7274253478534076,1.6859711462652673,0.1664458145641574,0.5140332870440583,-1.2918095996298238,-1.3912283258195042,0.696065548023387,0.6562903598750194,0.5205526393040509,0.9475796760116366,-0.3667035090256432,0.11590048990776003,-1.9751320248071966,1.0654606057514786,-0.5566122573589696,-0.9318068869280935,1.3829078364171874,-1.553190060803467,0.8799599590056633,1.1945842593579972,-1.8632851075341286,0.6882055294987675,1.0039251534943032,-0.6158715724260531,0.9386974048854597,1.4672115180290257,1.4164511208016441,-0.3711986355009933,0.22846357689369645,-0.4008536051980074,-0.8833728143939217,1.7901463961728048,-0.07630232996210484,0.21402713049948963,-1.7986732832169512,-1.8074102414811013,-1.95491532038743,1.2417181035494198,0.6430762293119918,0.769940585163992,-0.5111991638067188,-1.1971880242920516,-0.8854413230768392,0.992030685137641,1.04645196514281,-0.0746646633295498,-1.0444142369821101,-1.3567175886045506,-1.8207317243885477,-1.0425809623158182,0.6041616379448294,-0.03435714407535073,0.6633305557067071,0.0999454234991739,1.2885037915295645,1.7219979679713955,1.2047763060519565,-1.127065641213508,0.3289046370137214,-1.3498305890904723,0.2263451415623421,-0.1485200095877821,0.6048943835001799,0.6119694004082663,0.7851966006735007,-1.7859723879125586,-0.8425914966174046,0.3524751355488447,-0.42005520193924273,1.406509347548408,1.7992203736875232,-1.9762176945831507,0.011215035134902074,-1.775335138359884,0.5431549247138001,-0.5503837432255798,0.38845974446533393,-0.5131555484115871,1.9464874707126483,-1.6130198919604037,0.5200149953034465,0.09735101461658457,1.1024093670798836,0.5414412944202494,-1.1147483202603432,-0.7051864708392976,0.7424542615822776,1.5665763412178633,-0.03994155555282308,-1.8284662774215663,1.268100444339598,0.724419823181897,0.603417721657181,-1.1744616200060705,1.4925033218253674,-0.04704189473304199,-1.5403955165472172,-1.306230848135185,-0.9529746698515247,-0.9899508540302846,-1.5614056284532838,1.6486834625944233,0.4164044547115555,1.8114643363054772,-0.11750341916887264,-0.7860636125964731,1.0878971772864645,0.7923710736892504,0.48412798405458934,0.6590978293904959,0.4566014658554325,0.646851525145145,-0.5698488487526943,1.1092302999538601,-0.8179116032599105,1.714880432379069,0.8564412195733544,-0.3617877435433514,-0.7837959583276453,-0.602069620321172,1.27491209841346,-0.38154179486377604,0.6504474323114504,-0.5828646618046776,1.2260436416007243,-1.472289796477443,-1.0013563353283468,-1.867201823216405,-0.17905702050300087,1.1348000798354425,-1.6773337780909046,-0.7723546894679423,-0.06362207120332863,0.6453429496880734,1.4302892692892981,-0.24460691182057825,1.8338839395671447,-0.5132459545911767,0.2327363053262772,1.176895767622606,1.2578679268277835,-1.3973717034185777,-0.7174664697699118,-0.03818802909416785,1.8969454988617747,-0.9166775219389955,0.3647106378459388,-1.8078910202128204,0.04552188383581823,-0.8640701228161474,-1.127155308447612,-0.42564540388334837,-0.22724095491831342,-1.4125182202524136,-1.234694956031721,-1.331023281448282,0.9859680948921277,0.13107405731188493,1.1210229225310666,-1.5025788877194386,0.026156127878348645,-0.3050207641663323,0.7786199847600415,0.13104538863886273,1.3557725369235336,-0.5738855585372966,1.708102933393291,-1.1963198496303846,-1.763277407616028,-1.898436533575662,1.5899233018121381,0.4453725494417595,-1.7557687885154634,0.7611197258333866,-0.5620808077738935,-0.05960028984843024,-1.6628445830066632,-1.228583817765717,0.27625644881697786,-1.5939692064724489,1.515262269863907,-1.8215445659515503,-0.3242349977961094,-0.6827780152252538,0.4394831993986008,-1.5915415212069783,1.6032560176141688,-1.8861610644607798,-0.0873085742197941,-0.7008149021678269,0.1736780153937003,0.14995450784407982,-0.518826680069473,-1.0257008714561708,1.7721072302994365,0.8424431674669135,0.03128353121759497,1.3669270351278873,-1.8064137499085002,-1.2713262203880173,0.8126945483958465,-1.0233338699960308,0.27893092060578395,-1.2284568707265304,1.9424423260530856,1.7783857558153007,0.06340622619642655,-1.4881922488159218,-0.4752357221977124,0.2593175184922951,-0.10715072295477057,1.4044156622110227,-1.6645401301044949,1.5805546481618151,-1.6758323723830046,-1.3426121686838854,1.9481496108933456,0.12398446548544895,-1.431231139801203,-0.2811607819757449,1.4736699028313698,0.27750916589104735,1.0493116888819167,1.7386648552031252,-0.18053187013553318,1.1839065639062811,0.3083692034729997,-1.081159983032184,-1.0073936413258129,-1.0658372441154702,-0.45526786226528104,-0.5303205929391352,-1.7216362545350212,-1.351073379513692,-1.5506790650278592,-0.646441813776033,1.6554490502878236,0.8348362424465177,1.1507407530832023,0.4283950660467548,0.2712633709333092,-0.8074836468459781,-0.6153227690308904,-0.037963654910525335,-1.1394567430512854,-0.9746092142571761,-1.446615872592476,1.0050372556892575,1.3063715968764256,1.93407942676841,1.4132693925191377,0.9056841177620227,0.8589037484871676,-1.051549728795258,1.3764755006176044,0.14367926134592146,0.24988385376709976,-0.36758831450238905,-1.4217799408374443,0.5174508684617636,1.9725990415148766,-1.9696205062729994,-1.9227578760016177,0.8753409033724187,-1.521477690118609,0.1271316529846236,-0.04501444933688781,1.5523559369816433,0.7221912192615414,-1.5971768032936775,-0.7943842646200951,1.5044569376297576,-1.6564036161316382,-0.794836416024622,1.0317246581704311,0.8920112688253297,0.9504083711091948,-1.1310497317675843,-0.9592506762869886,-1.1538773364128634,0.064695407775329,-1.720629436672227,-0.714086013808573,-0.0782184177584817,1.6269855395456507,0.05749497257390912,1.793764539511662,-0.661643757615924,0.40310888838146086,1.9651606373142534,1.5852195346999332,0.09316861914662722,1.0210495785585336,-0.4274484286640061,-1.6033097786266937,-1.0360290223304292,0.22536620424863107,0.4569211024471551,1.3031224525683927,1.0912782969785644,0.3561347951806888,1.7162072395073111,1.1187164286824567,1.453648425604647,0.5801529950657995,1.9477781270014902,1.934643431767734,-1.5309719488609397,-1.1728919539158698,1.7912919949427666,1.9452219226122267,0.8784139850306292,0.24716282035357162,1.6282804566605744,1.0152904567939993,-0.8746746816035276,-1.7854365538655297,-1.3644994720577865,-0.9688807610255821,-1.3336501855102862,0.7391938494993608,-1.024486662129855,-0.6568573089758085,-1.2603221857541564,0.40232747429293303,-0.1270685110464682,1.7231401521638703,-0.6751072416763,-1.0579839972150333,1.619812433517978,0.7222674687988659,-0.1947168553369596,0.9792043029595998,1.7266294999136464,-1.6429048425971704,-1.4240042339035592,1.5665777174040012,1.8080354438482806,0.80741515275531,-0.3978408331464536,0.8033612980843312,-1.3977363288779565,-1.4273800982015716,1.7649170595295538,-0.04779886087500529,-1.462590834357361,1.547957509180256,-0.43384701146115656,-0.39690246768507764,1.5735861753817453,1.2777514732759547,1.3371419348245173,1.8482267768891734,0.20919707403484145,-0.62566664401223,-1.493457607461334,1.2342459962195962,1.3975904072007541,-1.272461969700772,0.7309551213423018,-1.8385969773835984,1.30846411891287,1.6665531783393308,0.26553883387941424,-1.204415701170268,0.2661771051572144,-1.6235296689604115,-1.4210025259458758,-1.7526153532164104,1.3046560195562944,-0.015840296725078584,-0.7833599553446162,1.9601119919119023,0.47312100127825296,-1.5761580367567358,-0.23621372197496981,1.0520303552460235,0.929477160204423,0.14069883188645615,-1.4448551555870521,-1.7461605478016913,-0.44603763476247105,-0.8562009751998523,0.0029087996843362163,1.7667108045780657,0.19680301656228272,0.4179118717993786,-1.0982282792832296,-0.43212839994635877,-0.43455088905618533,-0.29135048305796296,0.16374248202177943,1.0040260497604714,-0.09462447502683702,-1.5944984054462394,0.6368791974489278,-1.3086185357711364,-1.381228773883885,-1.5089482277478576,0.5491190357022249,1.0570619815854916,1.2891752471950277,0.21523208948977635,-0.930824062978,-1.772542437624439,0.6004113999691865,-0.36172070300148684,1.3214420970986045,0.5037628866600885,-1.0024084899989743,-0.32118054977033506,0.6439541173498897,-1.162338159607402,0.5586881801827683,-1.5554551882568988,0.4380119861413534,1.495947289613607,0.5995034035499307,-0.678348617797901,0.37365292045206466,1.120528569585122,0.37286702349011813,-0.6715002491888429,-0.5145844930073364,-1.8685254708598928,-0.9807160382942941,0.34117119241721383,0.608779227734034,0.6440955712040002,-1.753616469032138,-1.0842060461854026,0.08449602217482122,-1.3734438195474055,-0.05481229249217057,-1.1521521104056087,1.4497800092301603,0.9481471330180233,-0.27005076081450907,-1.738568729352815,0.5378402594417873,0.2785077821260371,-0.4660967341661548,-0.5762782452120647,-1.1086189174120507,-1.8754197745259087,-0.3401082511806597,0.07392546923747112,0.22010075613472724,0.46266486909381177,0.21704610083671927,1.358478332709558,0.9993040184841036,0.6552593386917676,-0.8563969139751779,0.7517139120784249,1.8930738205863706,-0.8346303963140214,-1.357997786555774,-1.1279703607196674,-0.3489898193203813,-1.575939145500365,-0.2550658766384264,1.0267901737737324,-0.7536412209374856,-0.47356258041413346,1.1700384445480636,1.487262917231989,1.045055426772251,0.9447761311761536,-1.1318567936177262,1.4537557769358185,-1.5718881099285618,1.9368500583555766,1.5904760285324966,-0.38209465739124804,-0.11591356400556307,-0.36672701245761274,-0.4330229109512338,-1.985278740031121,1.640228423273832,-0.8470624963310693,1.9123343026268715,-1.7210346632982843,1.6269876544393616,0.08365335637651938,1.9120481725109748,-0.06555333630102389,-1.4908092489547138,1.5191533916358928,0.3221470433035325,0.7066050433776097,-0.9637092259582576,-1.2410166277570576,1.0637965412491526,-0.15974827881551867,1.7541647869678156,-0.35945851541381746,-0.36189773482501897,0.03486326511525917,-1.2150695759811856,1.4425963554389498,-1.195736571446925,1.4139701894263386,-0.31396413614878105,-0.49345596219068133,1.7343852122120986,-0.2927205491245015,0.4219048342791907,-0.9180020349887665,0.4059694440914461,-0.06829010926797796,-0.6213822916547498,-0.629367013680497,0.7258860318191354,1.159564867648324,0.6281068129614451,-1.5003697012417194,1.9206481553044674,1.5094828029777645,-1.5317006339516261,1.2516094950583603,0.11286069073468141,1.089958455591208,1.2226580460171679,-0.8050532870183651,0.7958848520875006,0.23591424846249387,0.3555738148990315,-1.4006344536147775,-0.7061073777668097,1.2521082692539758,1.347049150421916,-1.6370722436268976,1.2770285702343904,-1.4493451029159505,1.971087952044651,1.8836348965179974,-0.733959920931782,1.5831662188484774,-0.6788795747945069,-0.032041510734750034,-0.9966086967262529,0.4591891571691722,1.9614586272856256,1.0844807425846095,-0.6014273027008108,-1.5017499319787841,-0.004381437183253567,-0.3715081792423276,-0.5716027319843149,1.5131876747203332,0.8343669564724117,-0.14912396670861128,-0.2823341980810934,1.4668746119241787,1.7263823761474084,0.04493106103770739,-0.135478667681161,-0.2581856823487976,-0.3425944610364877,1.958123026960242,1.350149552145738,0.7323943634762378,-1.4578122306609091,0.054026522450065784,-0.3466922071388492,-1.6941579921259269,-0.4612419662128775,1.30294544668608,1.6767103787701565,1.2290938019179882,-1.868428463065516,-1.7227212965526806,-0.8008870567044069,1.712795794562096,1.3357317669568074,1.8134943842400681,-0.0022943438074363165,-1.991541282137391,-1.3117781016068566,1.9435441456552627,0.33881968209431923,0.233357670865459,-0.42458574528603243,0.06549719775275431,0.9815204870848788,-1.5405898843895969,-0.9074842314523086,-0.42321721351286934,-0.6792901142266752,-0.36782466370788747,0.9052659483016265,-1.8597388212080466,1.4112066256449758,-0.9406071197351666,-1.9755267673902566,-1.287136772156841,-0.4466916087383721,-1.2614632821047649,0.48183233288641647,1.6410725332956932,-1.0414451808066647,1.114677189193035,1.373402065507718,-0.14795970746163167,-1.9575242064903406,-1.692071122963695,0.39594466385867655,-0.703532854925689,1.7539148139877456,0.15160848594911291,-0.6497254585099501,1.6433174829490311,1.3252630358375965,-0.8823085256656293,1.4504801741775095,1.4658956061016228,-1.3790129279917323,0.39699710420252776,0.5369605722084678,-0.921281006998298,-1.9205525213731178,1.8297980356543135,0.1858783037834537,-0.41973649855474715,-1.4872140974802384,0.9729732475105481,0.4945106446550125,0.8099234243153433,-0.7680388986985651,-0.3750412262547882,-1.1079554853486608,-0.6012863188481021,1.3589387507567605,-1.6976875120997548,0.31967110056092807,1.2473326512652325,-1.80714260044951,1.335941085204393,-1.9864852998776463,0.9993102895728723,0.5908975501455824,1.6881842066386503,0.4544923661357205,1.5414688521802336,-0.46721237162739815,-0.21629901608673086,-0.6710674576817879,1.6411265971147415,-0.8738425353445778,-1.9423009504819593,0.8893727179084516,-1.1813354771751645,-0.907122346839131,1.8380635555333762,0.5265788547643924,-1.6334045192360191,-1.324543570007299,-1.5061464632126667,0.9940795856057596,0.20702143892383695,-0.30568182125285315,1.00050787915414,-0.0912685921657963,1.690314222654393,-1.0088198496570393,1.9750666610459948,-1.3260677776742544,1.4125608638871263,0.8390328902000737,0.9366139444471386,1.4927047375989493,-1.5462564968196548,-0.20621010920539362,-0.5932464055319207,-0.7274823465940932,0.8895361228209149,1.108575174671675,0.8726509714728419,-0.8648100119867332,-0.39690739445168477,1.327420777362466,1.5179964025997368,-1.9367287848451902,-0.3232922771119502,1.785096763267144,0.3301814885957657,1.2165414560398657,1.689460104563604,1.554066037927599,-0.1627116153627748,1.7140735962919043,-1.1545557981125385,0.518148304410806,1.5960735196131455,0.6829105805803626,-1.5394222856892332,-1.7861210187239283,-0.030683682577809623,-1.7978049248324708,-0.696734177799128,-1.4071893801084916,1.387873007928448,0.739564233367445,-1.138312836273053,-0.2822859970587852,0.6005981197774348,0.26812718226275356,-0.08146439114973436,-1.5650449579667574,-1.791729823807528,-0.8960537785869249,-1.9061121754974093,1.8493327476138997,-0.41925277837153674,-0.15038273544088954,1.2539343655915123,1.4914715141360606,1.2587858436398078,1.9518281120395757,-0.3166209135484901,1.574787612430903,1.239732915121858,-1.7973783502832394,0.001421689096711809,0.7386744307878423,-0.002378151251846816,-0.23662410904914521,-0.108915858213396,-1.4307083040098383,0.8089595115091432,-1.369367060957376,-0.1767903798330912,1.5323834585348797,-1.000867118135698,-0.8687277320171085,-1.838592927972316,-1.730779368515332,-1.1202461184490757,-1.5605609092092219,1.3272171563359096,1.3882777637518449,-0.7977946668494211,-1.6734353467616687,0.9859049625197467,1.222207645815621,-0.7605403154121411,-1.7109731709642726,0.8941205938880556,-1.1701370727350815,-1.1863333663425686,-0.6841069079543498,-1.1438382169188839,-1.5768751235560585,-1.619604372555902,0.08476504920258376,1.5971533694112474,-1.7317755138955544,-1.9960513419978074,1.9035692343750958,1.3370197250210083,1.1979249164579668,0.5424053870219598,-0.20555846540525335,-0.7132389363572602,1.9613987967418618,1.2057105858261075,-0.4868037450890763,1.3487992378708729,0.5932180479486417,0.05027515311279984,0.19318111538751248,-1.8046584668945198,-1.611451090888937,-1.7054048769015515,-0.6844899617843963,-0.9316228531063944,0.4053903960620051,-0.9766628776935264,-0.020214792304438678,-1.8586823292399433,-0.5269301030660509,-0.6855098505407851,1.7684245728598635,-1.9644504205151017,-0.4728067849198734,1.9137929514632943,-0.5452585376132699,-0.5531172393135262,-0.7052543326239977,1.8762383468310762,-0.22338448286092616,0.5752545554489203,-0.4115663874799882,1.693866157813718,-0.514555218733812,0.20609894364519032,-1.4556183267348417,-0.19655925082841064,-0.88563397791087,-1.5604610966499362,0.42536200113443146,-1.526558372146941,0.4777234711780607,0.15229055522890977,1.905203501816556,0.27508316190065774,-1.7593713996058025,-1.7304058783617244,-0.3804865876704904,-1.933623114340267,0.9335449117770156,0.9016588864319073,-1.591118632581408,-0.1340500633161552,-0.28732785654583193,1.1780262001955597,1.96386240818999,1.9857982265573058,-0.6100949725133478,-0.2299871373265372,-1.663714230437002,-0.39620785063217,1.3456115478113442,0.8759763701235759,1.0249853990822793,1.7753840186978498,-1.4816099642984204,-0.4984596268315009,-1.3260284441933194,-1.308508103299547,0.432543241642223,-1.2038233595909107,-0.39985195544909313,-0.45896976127357725,1.9148348017855796,-0.4278278176381418,0.7029958075615403,1.9026742481555825,-1.1827738174329654,-1.9459755484121803,1.5095718588877354,1.0232837799332994,0.7642410508666018,-0.2979201178841553,1.2725742873942996,-1.919083634279569,-0.3971617960897227,1.6048615917546147,-1.6778403965229742,0.7759195111925545,1.427799665214398,-0.12685301825332473,0.5652334948754936,-1.6765653425728115,1.455978167643826,-1.7982196167409472,1.8358782894843002,1.111852925150271,0.4760947960850621,-0.5178170927538965,-1.2903052478992172,-1.344764624596254,1.7318789911045984,0.4137720242674683,-1.7226045287099838,-0.15925825905303626,-0.1349017830287491,-1.6317198401693034,1.4273600213302937,-0.2298440267773385,-1.016311726053741,0.34400608813511946,-1.1890431340121856,-1.0992727190890523,1.3562000959382075,-0.7000433019331469,0.4768327301858033,-1.2266958257581777,-0.962647462269016,-1.391754276468376,1.1664388390950897,0.9269563957845564,-0.3519402141917487,1.8541800186027606,-0.28991934496653426,-0.10901601864925015,-1.5478134153073246,-0.15094912781380376,1.255801478112097,-1.4058931684749019,-0.47967849303055976,-0.9618375617924895,1.50528314157645,-0.9019481371176723,1.2979712368847287,0.8471173378341756,1.487458918666523,-1.9600272103124263,-0.4197875616340587,0.3873861865284143,0.7464823783616334,1.2974070040149615,-1.8950711836620315,-0.22681945020581917,-1.4422375768309195,1.4821077749099456,-0.15926316542774366,1.8547224114533813,-1.670125222670979,1.1304872626574634,1.3275726053559067,-0.6671471613777467,1.433693008548509,-1.5918627826735992,-0.9436282507934579,1.424936565606413,-0.8312240629348779,0.5816573457858016,-0.48060504337708077,-1.3172915241830832,1.7496537956635185,-1.8652929872663053,-1.7795122913221597,-1.2353273683552195,1.8456661042791866,-0.8400897571927461,-1.8397068120970679,-1.9541250774569088,1.455440741524857,0.413879234512776,-1.4909421080781229,1.2177889976803313,0.6924307393895508,0.4457147403767343,0.34082583155532076,-1.036168819575209,0.5062781137719563,0.33420984526331976,-0.033658374630126886,-1.6455472092637815,1.9432498753384078,-1.6145172964891565,0.9399162298568031,-1.996291621407639,0.5612757655230554,1.3660212248717332,-0.13639190726706207,1.5855933336887484,0.7961707618722431,1.9686819380919633,-1.6261857205828143,-1.1083646043729454,-0.7750149797333203,1.578748301955792,1.8733667709983863,-1.538143864795761,-1.8981342474798941,-1.0812967264289028,1.7615608651662127,1.7800096045845741,-1.8059274338229203,-0.9135000037151517,-1.998738757641541,-1.5588569766341078,-1.9643376123471556,1.1531315469611125,-1.4972554523758945,-0.15882800728124336,1.8239243502768336,-1.358565018162471,0.8667630203571308,0.8511240595838583,0.20614932838540279,-1.655241168038958,0.9436561242134314,1.2289143912944676,-0.9733704529920022,0.3886364845824857,1.4778781912716772,1.291672084328352,-1.8006874293861235,1.9553194358232315,1.3647666832322827,-0.1611367502627079,1.5058117724511724,-1.9307364187804912,-1.1116831053889311,1.1823618988854085,1.8740424728436644,-1.064581964249391,-1.20988426273866,-1.6992494010643955,-0.9413200828971133,0.3906891062375566,1.2315327092871073,-0.15516218475001597,1.782343071795418,-1.4927330905522425,1.168594701864131,0.5583146384525426,0.784241911987281,1.5215537123019467,-1.1874098598032723,-1.2769706001299426,1.1243997884086734,-1.7735948965742234,1.0575312105446972,0.9615861738871283,1.6175032185058944,-0.3390490027359583,-0.4751760127078404,-0.08260431710882443,-1.6976125495775585,0.7717116104614634,-0.1846617059849054,1.6064370304679834,-0.3877380453167629,1.9075972784958743,-0.6964002249627876,1.520823699595503,0.575990873046393,1.7552645810302634,-0.4703542197642796,0.1392810399704021,0.7474949032701796,-0.11296009760167802,-1.5410097406018557,-0.9189085667425951,-0.9296477013554298,-1.927410866046106,1.9714518596272033,0.07516390881728974,-0.3504337915342721,1.4547112007921639,0.06602384763407843,1.2349093853911342,-1.3965243785773622,0.9548629072206212,0.8109877263388623,0.11741176872228909,1.6929914873051484,0.9817485879812824,-1.3221517446339348,-1.6029475913023368,0.0614683793740185,1.7723295002519275,0.9896130916137755,0.5119283000407653,1.9195579975725163,1.2851842197500445,-0.8515688942818218,-0.3984769186957733,1.4354072452703521,-1.102218540155222,-0.4622086192116326,1.689140086003433,-1.6337911727856405,0.007268556117457692,-0.8107133453490394,-0.6182665617855654,0.2582425468948948,-0.5691088596479434,1.989078589962035,0.7445498431354962,1.4477209267627456,-1.6627839767111356,1.7558292029686213,-0.14580927595797233,-0.5149071060309574,1.9522256349037543,1.5949285441006822,0.8197484084584685,-0.12382731749797316,-1.6553141054887335,-0.6476994787151309,-0.45570452437500286,0.6998855351747655,-1.245490701066569,0.5259316121423456,-0.8896119730547949,-0.6521190407199318,1.4958744795916887,0.8727035544205788,-1.1239682752448572,-0.3189961983980818,-0.24185208790601154,0.4559593579428922,-1.2148852746744825,0.24089483112565802,-1.3306763014711929,-0.6857128393819312,0.2906718068503551,0.16543989783315327,0.5037060703478082,-1.9452278937358942,-0.6448423859795751,0.6111416120935766,0.1471226814288107,-1.8811805922474734,1.1915941594912889,-1.2116507711516364,1.7291417438095689,-1.860717206541294,-0.5217484564137287,-1.265019438736763,0.5286835416805813,-0.761803395517108,-0.2853870072754914,0.8258593428808738,1.3298081628569105,-1.1935649790551333,0.4570213726912873,0.9354890919982677,-1.2912592168605919,-1.5137562811353913,-1.2981721280961787,-0.3611333651130959,0.22673752080426945,-1.771673684307491,-0.5318109387070353,-0.40210656823411917,-0.3885945083551876,-1.944269693376448,1.425982262778605,1.4992268251750493,1.5482687468067566,0.16735403318800612,-1.521729813696028,-0.005275649289907758,-0.5424563268564313,0.21752820909699944,0.26716822113737937,0.24119910149298285,-0.38251356546419935,-0.5346241101933527,0.8207957188882573,-0.7010169507120736,-0.42517330365801476,-0.2561300438965586,-1.0221118125899413,-0.30771100142292296,-0.3834254907029808,0.9854524291454569,1.7212410696687952,1.4477817862302675,-1.4067501847146007,-0.9937462979849698,-1.8532340511488679,0.7566206834947269,0.28176186079226584,1.4230204258602086,-0.10490320503513928,-1.6176244395729933,-1.3813211226119209,1.189314176801787,-1.6607230109315156,1.6492824994999662,-1.0472308334370366,-0.8527228509961247,-1.483971009899085,-0.23170057591378868,-1.64276503230764,1.2108335211366499,-1.1102087570976833,1.9503154959415405,0.2537253283890477,1.0377447269233246,0.1670669437977943,1.42868101251918,0.5923219716279955,0.004848532267823558,1.5085167098348014,-1.9748374370356645,1.1625938293531881,-0.8092618029697061,1.857755798781262,0.8920575549620282,1.6511668047405537,-1.5748859527369157,-1.2722999463402607,0.2686042440555303,-1.5169387051133847,1.4001962550201825,1.1594019099476753,1.7437011405499758,-1.547162839543485,-0.7521913290407127,-1.3151050086144238,-0.1755642347618256,1.7147831147305816,1.6134071038515545,0.7999669950795565,-1.6240323158680385,1.8349605075778,-0.11036940899171821,-1.0915612910094517,-0.2601430599036343,0.10072105052832869,-0.7642424423679741,1.9474671948422069,0.7964656075077841,-0.1711548515760999,0.584616930065589,-1.7034410655308911,0.18151567486563414,-1.1222021411925915,-0.22173140111732614,-1.2547280941568655,1.172202569193023,1.2551399441254625,-0.5228007037114706,-1.8021401209592844,0.5559584078773958,-0.15115017105877993,-0.1999574128169157,-0.42666705783936276,0.9588962301229778,1.2428015426437486,0.979733594010701,1.1032307141322915,1.0273908844912771,-1.5781849135167447,-1.5490372371483048,1.714341227273831,1.5917399580152605,-1.3102077337652687,-1.6191774376212615,-0.8759105350789445,0.7665339641864981,1.5474404903203434,1.6014202020666408,0.7604520413411562,-1.8205649812441504,-0.1578479707616478,1.8739004090084745,1.6023511010120366,0.25697153653373306,-0.4711718289474325,0.9295001089801702,-0.8807010286283834,-1.698907749873408,-0.21686170272776328,-1.4565207596204206,0.3483791323548213,-1.007112001656862,0.01964249966706877,0.23606799299973202,0.7541879622241137,-1.7061677591545723,0.6381135728849001,-0.8619596383510095,-1.1772538584956003,1.1338450475987756,-1.6367177318151351,-0.7115554521884841,0.3846582150676987,0.3824393731301221,1.8850882268454088,-1.7239765979145294,-1.2045240268754944,0.117304704013097,-0.6529646819250834,1.8804567013879114,-0.8996686891197125,0.3293303197524309,1.7975549554815662,0.7196468897773003,0.24059690952764923,-0.7426597652946003,1.5074256066154144,0.5827919675460036,0.25849421022474717,-0.09065497049379312,-0.2307613344057069,0.44754185668496804,1.514342717071305,1.157063174106551,1.1799057614289712,-1.546381200821168,1.154574953192454,-1.3515881398375535,-0.7569379901643525,-0.5203551322878206,0.052577965109859015,-1.8359298348932844,-0.14720230955543645,1.826837175121386,1.4595053641442322,-1.7090172556970877,0.4854534602241243,1.029198589958158,1.7879034100120479,-1.338857760287822,0.4810988300575638,-1.9800810373232651,1.2120003533088064,-0.9626936980897112,-1.8135000902235916,-1.2204331711163414,0.2298269343032544,-1.1150554168231088,1.3841125108016756,1.7936434390443807,-0.7097621489552823,1.540357623457198,0.13996275909947364,0.9914797548602681,0.08191469070903912,0.9502415119417296,0.29054462861210606,0.3816397992317575,-0.7614002655808503,1.2713957118972807,0.9582188753309282,1.3577929245180251,0.9250337483667082,1.7110208766647124,0.9607714988528788,0.3986410988369298,-1.9177582856923059,0.8010357757968012,0.44484718641004184,-0.5346005170992187,-1.2838178972989924,-1.003607836970808,1.2396771436437022,1.7715228374238388,-1.636090731254248,-1.9253757177013364,0.8390716518223704,0.6314249194507688,1.0581883878822422,0.45974269115605226,1.6890350792817705,0.1755749738633594,-1.1024616709567217,-0.21410845330547001,1.2644565032097899,-1.9664653199089388,-1.6949993308441824,-1.964619072326094,-1.453803596092036,-0.264329849046796,1.4921613493227457,-0.2096336336352702,0.5141393815071345,1.8466276705137679,-0.7948822298698155,-1.7249097851946509,-1.2890758098574384,1.1461127940146114,0.32330329143940073,-1.2361235488731004,0.8412317763566435,1.8568935737259071,1.6237510956517816,1.1738220821085696,0.09169610044908083,-0.7752573552405284,0.20525657393218433,-1.4166681438445767,-0.862450616507294,-0.7646003885971089,-0.5551787947263711,1.911818104540374,1.8613698742968272,1.9362506192084528,-1.6763572779282514,0.7746795691325286,0.035933820886502765,-0.5743928131898417,1.8503647561991303,0.7622821480867041,-0.8173486466080413,-1.3500969765345112,-0.059367170126768176,-0.14836051559681884,-1.3457611395756235,0.4490542496294152,-0.9531128197173881,-1.0421731278318709,-1.8631223764069307,1.5404780931127253,-1.4829494588534167,0.2789280809455166,1.1379007342168448,0.8803027674047357,1.8529734459046887,0.38499698380127256,-0.971622688563643,-1.7685251919363805,-0.1416013361983035,0.4774604067052346,0.9722729085074664,-0.8172085537933964,0.35868370772255176,0.5024960409386532,1.8675928264343873,-0.5900176709392237,-0.5303838844579931,-1.6182227239579507,-0.44219992407264064,-1.931529085521594,-1.9060373596627285,1.6296569279610345,-1.8689798573261451,-0.8460292743957138,1.8762202548244953,-1.539076438006325,-0.08059896952368417,0.2378253843152116,1.0841135400326842,1.9844445683188825,1.8772842021154035,0.052404589689617254,1.8056710585346485,0.3018096566084676,1.7991457686834118,-1.7352171349459242,0.8885300649194563,0.3240275598945308,0.3682238609948958,-0.16071721240960457,-1.9354082432841309,1.9808827886802765,-0.810715731156896,1.496370948859218,1.8516212957867486,-1.7911730805102923,1.2359621001787953,-1.6203850410838214,0.5599145153651008,-0.804480088676164,-0.6629367598193858,1.3552434078222246,0.13295374515137093,1.1235387215842119,-1.024022622389884,0.8233017324165632,-0.1692941195042077,0.04198710730157584,0.06434796093178541,0.41117294163004026,1.9993223946370495,-1.1927898278390923,-0.8601015358749837,-1.153575886528547,1.889762699965825,-1.5638950871591715,-1.4364746789554679,1.9221520129820462,0.009814164046370255,0.7499650405708622,-1.2492367919965677,0.5745428936424801,-0.3874402069211902,1.8043723734953279,-1.9334151633370706,0.6837750335046966,1.0036506816179411,0.8455768928909535,0.286619932541996,-1.7836601618875783,1.011831988586851,0.23700802951369848,1.4970040299342413,1.9085304288925875,-0.6322079253575348,-0.26132197056055917,-1.349382193398828,-0.8177047318046018,-0.8606743061297455,1.6920899294790508,0.9307662070057714,-0.9926708175305126,0.2748511185471507,0.08658164774393917,-0.8211447650428312,-1.174989712868709,-0.689767051542574,0.0768602125687945,0.05818600367505189,-0.2740883242500849,0.4538645644072292,-1.253912836936784,-1.0890329395598592,1.6617577623707747,-0.9606652043373312,1.693319409003061,1.3291509873931484,-1.775945302241543,1.2032057417284077,1.602946674819104,0.7718847797470665,1.1413391909539845,-1.078589659925476,1.1775577028281567,-1.7778083238520224,1.626717232591687,-0.48556645097747086,0.2718482741858601,-1.5917335239264587,-1.3946059311416636,0.02068808073480044,-1.2735015033201322,-0.47970644069290946,0.08680353033807853,-0.8987501518933572,0.9470564833150266,1.938556586863279,-1.8485928207169446,-0.4280877404063568,0.4973573369030988,1.9669410300112053,0.5947877828779098,1.4256436291136474,-0.6699185418018723,1.8096842796818562,1.60154923887663,0.5904630966339552,-0.8590044023376322,0.9558802399195363,1.8661837170944189,-0.7056772351124367,0.13737728890249246,-0.6639131678165304,-0.21739869165789028,-0.027624759442600677,-0.8264905647801148,1.674340643003506,0.19649014985136626,-1.6562977961067373,-0.1748528598177681,-0.981814755675682,1.236515577057387,0.7528330719334382,1.2889946094186944,0.9654344482132755,1.1143519700850173,0.677954035800592,1.3297036369917588,0.8771438896072579,-1.6146460857112954,0.12661911944816673,1.6459372797345768,-0.5932792661379973,0.5403753284940671,-1.9599595558345588,1.1657168881173403,1.007018335550348,0.539956922842332,1.0892160466985739,0.17573371519656433,-0.8000881029717979,-1.5825756101572988,1.3276795327705013,-1.8116572525959045,-1.191744180936344,-0.42708156298472355,-1.2061336409999082,-1.466238384631025,0.391292736514389,1.6036017198612087,1.0930152860273221,0.7740465503822773,-1.201919306240344,-0.08066630109490003,-0.9870135425636803,-1.6981749863794096,-1.2744519143412791,-0.042411412943882176,1.2934834570792897,-1.8037301816989824,-0.7296205961698408,0.3655084660484085,0.6766782851078705,-1.4340476349039113,0.15105502774015456,1.401322820554308,-0.8289967611404112,-0.386012773110191,0.07448010165116248,-0.45174838745758983,-1.6597059221606165,0.019106681143883808,1.8967541646960844,0.763063460697341,-1.1922403492911329,-0.6259058400029875,-1.4473751337785243,-0.32569670532487427,-0.6648377535916565,-1.302411776846276,1.034121980160149,0.254630643501196,0.542555623784029,-1.3785321783164908,-0.2310771274524721,-0.6693326390700665,-0.3676721257044804,1.263730350775658,-1.475756534220165,-0.7380533985554449,-1.8328282952154793,-1.301822041959904,0.002891132743231939,1.9342276204896822,1.3227014809938358,0.6451794175732801,1.3843774387086825,-1.2325183398785726,-0.8672152392603425,-1.4611186601937725,1.2886146573978277,0.18833104372379372,-0.7137177438273143,-0.7591459648408616,-1.3661852099098004,1.197053756077668,0.23990080325097907,-1.0659432096468033,1.4643484598298846,-1.7567565883892335,0.15665545471309272,1.2233252972276238,1.5584764874215176,-1.747895210588808,-1.9598802721382849,0.6739990588926137,0.6269249599853755,-1.7272939670818954,-1.5536233862733924,1.1161855004305354,1.8814623495869283,0.28303730879807976,-0.8698245484628329,-1.0091033688487028,0.5095973609546292,-1.1226285279753783,-1.1379627563396237,0.977644841397816,-1.1726729401597105,-1.3659693012306229,-1.458578057053336,0.7552322847226525,-1.8205984902285417,1.0314552998609239,1.0631347058192682,-0.020492175181977323,-1.4513935354319223,0.1926164051138981,-0.15264184016665006,1.0726493700838255,1.1212989728891238,-0.020217455016122265,1.5308095746703927,0.6735650799776125,0.9104503125234018,-1.6388463203640615,1.338471110064496,-1.4603772837982882,0.9150738032218744,-0.6069623284393968,1.0174219973205392,1.9435415081129315,-1.141972096142574,-0.706905359457473,-1.3922984122736133,0.8579650409231205,0.21525732730315061,0.4477984312440908,-1.0993311635369394,0.1402206638190493,0.7440837214242801,0.5681207245034314,-0.2384316422106978,0.0046805783820556,-0.779544033823889,1.2921410458313756,0.5887217516896883,-1.1984044062887524,1.464142863991675,0.6031957021219134,0.009007943178500177,1.1139300176052926,-0.08602657803862312,0.14249638792495567,-0.4394764554883883,1.2870179998067615,-1.4091524905336907,1.1919935529657049,-0.5012404730250193,-0.1947403121807354,-0.8613319420277192,-0.2569967312016619,-1.014463468937187,-0.47486929431501235,-0.39667056405653023,1.476317137058285,0.6462267610940424,-0.4283316815998095,0.44253713204035394,1.048005153094576,-0.749521640169025,1.3678260437622591,-0.5210635706756905,-1.0004896524542142,1.1222066864651432,-1.0392180270422418,-1.9413266556719329,0.8942601977311924,1.3713649301182822,0.6347175617678991,-0.23231137644745248,-1.0726851612200434,0.32618415327194406,0.6592825312689592,-1.917853224279348,0.6355979618498653,-0.5399826445539135,-0.2546410752457171,-1.0641642701261618,1.7697298065193614,-1.0719763055626563,1.6046031581476798,1.2895023442685978,1.8108358581226192,1.8337707734898006,0.3537790471395903,-0.6532967575868995,1.9015484303835803,0.3533158295215908,1.241393411089319,1.4102818778364816,-0.8213425283355962,1.612539913197188,-1.1545903760461282,-0.11134207044606681,-1.5610484132102243,0.6857590307462993,-1.0427483558510406,0.10142191959497593,-0.6157843163404317,1.5702282098957419,-1.6983367592431913,0.5090094999142019,0.6021864958107481,-0.2889094516663797,-1.537146730270261,0.43912975861549874,-1.5405368879744983,-0.73235802095552,-1.7780988714835497,1.8952157792773368,0.33847768438198544,0.36772857208170473,-1.212573037457192,-0.4800518292726177,-1.072900133479747,0.5218901370989348,1.4462868707880365,0.9643640466790813,1.0312353756791546,-1.1024867507783656,1.6865447967747733,-1.1893253609719632,1.4627828598725303,1.8332261486326935,1.8425173859452117,1.4593090292728705,-1.380186050705995,-0.09924480395432989,-0.007695066149588925,0.8390478333846034,1.6767977791475213,1.4490963616981825,-0.6326595713579959,-0.11987353314919735,-1.4360391870614846,0.7668817700041126,-0.8251936858925504,1.9798039424955336,0.14202013618000553,-0.2684821758112288,0.4908119605272865,0.8248605250525669,-1.8412976478230774,-0.8830816666847436,-1.1802446820669852,-1.000256932085534,1.4071581935195456,-0.8635256914999112,1.9407853441555072,0.6421020764453984,-1.0806592766599783,0.8417743928195414,-0.7422921684974786,1.4988312450986974,0.6205377377667665,1.2104362661774068,1.2824642258574457,0.39977800508907047,1.312777306147531,-1.7330356469688364,0.8079017253377629,-1.4904327070075145,1.3979171339422454,1.2610656417822659,0.43687641542015543,-0.08755071415604387,1.7235735566396913,-1.9113721450666787,-0.5962162316010104,-1.5061047063890323,1.655457260595984,-0.21333272419363558,0.21256844826425425,-1.1554329705485467,0.10589937394068505,-1.4451168751516779,1.5997504155531757,-0.9076980519864377,-0.6405739159124093,1.1609393102902734,-0.49123365058458246,1.744309339790115,-0.7606696677666491,-1.5879116286296457,0.6863997660703918,-1.0810769892113208,-0.19364389482554678,-0.7468943359637272,-1.0649617276266836,-0.2137577620779716,1.8783908553186386,-1.8821672724370533,-0.6025593748209648,0.33808557647016446,0.42675164574370017,0.3918826146375407,0.5329699367048097,1.2358071945987477,-0.9750388445462574,-0.2538121644481408,-0.2743245607155429,-1.1018048334181594,-1.8909252968843084,-1.8978712014376264,-1.8646004583555627,-0.08446992391439911,-1.3163909769552675,1.6341154523501484,0.7546123628717263,1.477014826901363,1.2763643286122899,-1.1836825142776446,0.6801108010064505,-0.997672805959017,1.5928890614419267,1.4139412197979424,-0.016293791177620864,1.1850845382744035,-0.0750633861601182,1.589364421890656,-1.5471099457843374,-1.673216605421298,0.8126276557911893,1.5363307800872064,0.008849288555118129,-1.6384999878879016,-0.7210963194646212,-0.885552591767472,-0.3299906509642163,0.15967618128374284,0.1545775014830859,0.5979310522298844,-0.3703764959417386,-0.7620017037011042,0.19006003260849402,1.6810849044392024,-1.953207478646148,0.3407735759593744,-1.405277043916425,-0.32620594940646486,-1.9670103869419355,0.35789698329151776,-0.006219912221010926,0.25992717095801554,0.7926208057030935,0.5352801734618842,1.2576782819029426,-0.3098889484262477,0.5014774458745586,0.22939750172151063,0.456342385843004,1.9635354479379323,-0.4256760205574621,-0.6167497381582883,-0.26383048536117526,0.010709407487810019,1.992063850295155,0.6008625901560354,-1.6683993917996047,1.219014707633272,-0.8068864286515383,-1.5702364383423406,0.48210768566512474,1.7856831229568866,1.9046979639413522,-0.537773503804889,1.682402273554228,1.3994889294413624,-0.03764415256662046,-0.925271521066581,0.9171383175369878,-0.6074887042257187,-0.21937824083777713,0.49834147905116,-1.2851007709351303,1.9296222461315589,-1.4951249289447026,0.5196520230890904,0.6907276283677763,1.9525119744373383,-1.2249645842835433,-0.3179168404250321,-0.5730766270148266,1.5380742159003562,0.5827508353580346,-1.043707097421775,-0.6341238161242848,1.0715038646771253,0.5175633837108817,0.2501471170850551,-0.11484620038851645,0.6462071308788824,-0.94189232347198,-0.6461084246846274,0.8177103283022094,-1.7383235768691008,1.40299899792501,0.7262762850454734,-0.08622659236421404,-0.07955852506235894,-1.4645268338542419,1.5889126234764723,1.9005735375149917,1.1511530233424936,-0.05599291898944703,1.4345173099582005,0.3139839543398817,-0.6484777559649233,-0.9106698616479125,-1.2369639059500899,0.5616033898550654,0.022422595142084223,0.7108800783280942,1.789770919604246,-1.0297790493785586,-1.1407611239824047,-1.2407829070891734,1.7509912437597195,1.0406705585262204,0.5503838360820605,-0.18193611075613036,1.459695873658862,0.02452580700526763,-1.6891712977539686,-0.722463359118267,-1.0911737205000405,-1.646756049251171,-1.6181053256751672,-1.9214467900438117,-1.0160255124495117,-1.1591450845282218,-1.2092334071865611,-0.6915194092534294,-0.9541929502866586,1.5110959037363427,-1.2245584233115716,0.5577689831843227,0.4311412778441901,-0.7777829869358794,-0.7369389282647996,-1.9666490051161416,0.40940011575664714,1.8482278163190422,1.9154326797340588,1.959492981501307,-0.03406745356907104,1.8698312420058323,0.703860692810363,-0.7088808694756006,1.533291041409273,0.9681140526287026,0.174230778496955,1.6864278650305575,-0.19005608341363622,0.16761862734886268,-1.4491902577826798,0.3068642126832004,1.2376839602023746,-1.3192985342480323,0.7588579179045811,-0.3696245032086334,0.6987979572488738,0.6848612157304887,1.68086620682026,1.2508312919707456,-0.6427266333147763,0.47932690030654124,1.9551136972349243,-1.5918677555519403,-0.28483622379254747,1.2376492042710017,-0.23078933832188797,0.9792515914221118,-1.7747404458780367,-1.7970669992037411,0.8338738735567977,-1.3080164316350769,-0.6752544717924387,-0.2946453053596034,-0.44374918292262544,-1.3903609465695181,0.8710042337876689,1.7859682117626745,-0.3111212457698511,-0.40170988237081895,-0.3696395460197941,1.0390920268031918,-0.5523873350785315,-1.4432950115941923,1.1455570835771476,-1.4697122625444439,-0.9069132692380282,1.1436887116248413,0.7428396500729297,0.28226525647038114,-0.5750331551706926,-1.8142859341862114,0.7735189130956446,-0.6054692641997828,0.9700802903412229,-1.5710709095599027,0.05004467872365881,-1.531424159891651,1.5270813931117866,-1.5419250844073868,-1.3898958327944126,0.05906413042299308,0.47984776364235504,0.18171993728268587,-0.946380153888914,1.7132403382517323,0.5781038045498423,-0.26292530273960724,-0.9220816390394058,-0.05203410952165921,-0.031999083822821905,0.12609734114623405,-0.005080599705874267,-1.037056006877652,0.614405503835699,0.8399787494057085,-1.7765112027900094,-0.6474260749741791,-1.0665420504050807,-1.249052559190765,-0.41389184647376,-1.8228332701326506,-1.2241568118867208,-0.003714450276788739,-0.3922621830561903,1.4938987698423571,0.7451209846916722,-0.6546945581445387,1.137799540247979,0.8630895195249719,0.06957499357241037,0.43991376677366656,-0.005709669965632269,1.1450564255413442,-1.4213871688216924,1.389916724400031,-1.8665772393529316,0.8145270636217798,0.9433575361694087,0.22597467869596555,0.9201236247376516,-1.7370918904688053,1.9672518969023187,-0.8470342901166981,1.7917303963843358,-1.4552660513000477,-0.49520679030451475,-0.1272769955733155,0.44967148140133517,-0.9892514408759148,-1.4493829060693644,1.72646724710965,1.0747653855349797,-1.931151626630652,1.2537336494084883,-1.8581042325420136,1.4248281150847424,0.9740857195008235,-0.7182131123562314,-1.7051197610931252,1.7254643868482424,-1.1134695565014905,-0.8918258169721986,0.16925013772315411,0.061128756565655085,-1.5765819583732004,1.7932240509546675,-1.5501527723462218,0.22672325084243905,-1.5829417270987207,-0.39511986752223116,-1.6068965384892655,-0.806257518991941,-1.320392347202358,-1.9548034241778773,1.8158286453602526,1.7193985768698363,1.0847639133945663,1.229326969845094,-0.8977870830301686,1.7646822753190965,0.28118843171796515,-0.11681548406750109,-0.2795317903921841,-1.0555669408824486,0.21897755989986845,-1.6591607336360426,-1.1184951220438357,-0.17118534849103595,0.1116551893823714,-0.493200922795475,-1.488650119839098,0.5150521030904507,0.011250455771648404,1.5500376967344671,1.0649277519163065,0.6968221708199089,-0.7936372748108456,-1.8251692584839976,-1.1751691950456347,0.886779596077313,1.8584686225040268,0.30969223587870953,-0.5059166607062284,-0.33213973249308326,0.22784991470226723,0.8585377476689966,-1.0454636380280369,1.098137720222188,0.921312198864733,0.29652241900890397,-0.49495604182317665,-1.111162779411575,1.9596100551358675,1.081102399433906,0.4378873837778836,-0.6182947832259122,-1.1683071645156686,-0.6197462492875703,1.9779300562812225,-0.5424664372093098,-1.8927570517425387,1.9698230242941919,1.4201264045317217,-1.2064436389267517,-0.528764528450298,-1.040935370939498,-0.17660482171682412,1.4284844296471721,0.5858963791493448,1.6784701474376487,-0.7359908441003524,1.2360773860620777,-0.02462756761337248,0.21353659067645392,-0.6285815785093098,0.014903469921512258,-1.544866843390531,-0.7639011185674218,-0.306702450813948,1.5201012959426565,-1.6254004936075659,-1.7272205048514166,0.7160169544775896,-1.4354307651456915,-1.4920150961522403,1.2089200671216807,-1.402981088141277,1.5677147838780696,0.8935202045908159,1.2534645590220737,-0.32479196461255455,-1.7648554953940123,1.9090385946615012,-1.0764238207010428,-1.313323818858513,-0.02952352132944691,-1.2644738784430611,-0.33700098064711526,1.6704137100973053,1.0523494542696366,-1.0081690955365907,-1.456909877975221,0.6090719679894652,-0.014901029561685153,1.3426033707758105,-0.9505824427815197,-1.0398215677383726,0.3398520655937842,1.7338170077403028,1.7154758469845448,1.1006414712314103,0.39008536956252726,1.7717777921581885,1.875310226410047,1.1694785136753971,1.1716083270189324,-0.9470629486653093,1.9068759105154554,0.8387440003955522,1.8552808610740317,-0.4316684264064179,-0.3103666826389211,0.9252293532893061,-0.6757888330330553,0.993498934642056,-0.4905702751437744,1.15281946274078,0.5036736452324471,-0.06169837357204422,1.7952990921783654,1.645753420431134,-0.48373657441508433,-1.9631128272521003,-1.17725866790212,0.4671006509203255,1.2184071092710806,-1.9579069163558849,-0.994594204683799,-0.15072746210305699,0.3724756532033986,-1.6027186184268434,-0.12244248371063593,1.714790961771885,-1.5418270929375755,-0.4566134944004925,-1.464675829398066,-1.5874858446259221,-0.42507512919465773,1.9201654907578103,1.7785849667676024,-1.8724544303802717,0.20249649901210143,0.06478659748823601,0.5754903555715969,-1.3439815283562622,-0.6670141461873706,0.48103030885748055,0.5028194546709552,-1.7773913146853313,-0.8148995526307834,0.48778299375369816,-0.6981305316807234,-0.016215768573888845,-0.19512453263480767,0.9837790793720611,0.7644303165363846,-0.582506562391889,-1.4247803581099507,-1.5720060730979557,-0.7184528208633392,0.8728082951104819,1.3084254432659748,-1.190324003363175,0.6035222165368337,1.3916812047911113,0.7468381936086486,-1.024339267069609,0.5953069164666469,-1.4762489110116164,0.9438565496458149,0.17333165369356163,1.643541338471866,-0.06038719158478978,-0.6273419158454998,0.4011438290512186,1.3094927681488406,-1.6562643660220098,0.13545338795340944,-0.4324309119601959,-1.0074580928176537,-0.24537495399832565,0.6851217784024617,1.1823563472927634,1.449158195485173,0.6557827953250746,0.025996816655807997,-1.9556278386127182,1.405149782116165,0.8538912567640762,-1.139035612772585,0.5856445180437952,0.7104347548225647,-1.3248783476689994,0.42323847098796996,-1.2643005563054794,1.847475146729452,-1.9242222936579814,1.9783529246941631,1.2737728714731293,-1.6734559652090724,0.9886342061939075,-0.9355565495265825,1.976822264113662,1.0220825792936705,-1.5166211452455203,0.8396829775487831,0.059804620798399544,-1.65384729689973,-0.4502276868706354,-0.9520886177645913,1.4130532254069892,-0.018974423256304274,-0.2067200190681615,-1.1527575879299388,-1.189101559754043,1.2316516480227353,-1.7068135729704745,0.6779353290865489,0.9764066109970924,1.7666376784404827,-1.0958516867443788,-1.4084045938032914,-1.5354157610867327,0.5849304402948086,0.9683135272204639,-0.6244469134878692,1.141959711514572,1.27376483125165,0.8509934214612551,0.8603952415012546,1.162953329153229,0.27489202798187984,1.8707388958618192,-0.37769844592474566,0.30221152715812716,-1.6121608437890198,0.26939721619180723,1.492902224525797,0.38274174264772975,1.7551758990585773,-1.8373180483053928,1.8390111806581304,0.7934361952158566,1.489889034648336,-0.7041644181409157,-0.40187007736706937,-0.6353604016119987,1.2672174781009966,0.9506975678470435,1.1867240810111261,-0.7564822307857764,0.3302030495123316,-1.2581964757935773,1.029393570923708,-0.38214650899211877,-1.6633513613479476,0.912001794763508,-1.0583998171828766,1.9771430106000802,-1.2168576650634892,0.8751954492133849,-1.9189285587871834,1.983925058867471,-0.138168463402073,-1.2861900608015548,-1.1464050836605972,-0.6499238706809645,1.729878715411477,-1.0965476522424047,0.7033723563479692,1.7599416917946415,1.4546312534370864,0.3313285841226259,1.8145666816523764,-1.6374979523219446,-1.823918400546479,-1.0138512313498782,0.3090537385286196,-0.7891925686200789,0.048411042542887195,1.2591525799666314,0.5859982279501774,1.3075173044516877,-1.4104414156105332,-0.7856933840036939,-1.1998582166372427,-1.35939176551629,-1.657785704662345,-1.4518625703819699,0.20769983883431653,-0.3294930900722881,-0.0877755602562833,1.0399081887658372,0.11709148080988241,-0.799678087427651,0.6298173240772904,1.391115033628851,0.24798823996032704,-0.4764076347927384,-0.5901620451350342,1.9192908251131664,0.6705170215899416,1.7974883974020122,-1.59105079220245,1.5010999151781186,-1.8832261209126222,0.010909863388697705,0.40282439483365984,-0.524251044117146,1.1941667053813823,1.1714447948309448,-0.2380439112145467,1.7095844133284754,0.2767940769217274,-0.7325998549370412,-1.1648960259630812,-1.2790572213447553,0.32753049353131836,-1.33387063035924,1.9752185834232132,0.9002152772461174,0.25256105131411655,-1.0796673012833704,0.3453931295599202,-1.8443117512960723,-0.21674543775158384,-0.7653936899973552,0.6347393818360625,0.03850076038194139,1.8362190115284438,-1.7558252369619294,-1.6778011716220629,-0.007024373735305289,0.8077947689990377,1.5429664558059217,-1.241124646889658,-0.7503818178903465,-1.869574150682212,1.723478579684767,-0.12155505933382083,1.3605063608321952,-1.1559979275133037,-1.0488207728858785,-0.15548749506831028,0.10506613838066992,-1.3759579221088956,1.6650150028054935,-0.7751079257004982,-1.0623180825234537,0.9361961631629319,1.151909975726968,0.9027403354825982,-0.3948151996150413,-0.46008468884282117,0.9118280082786172,-1.4140415527585972,-1.5460159623199088,1.2844759056846415,-1.8266287864737571,0.9199993776986055,-1.5806773177616296,-1.63090523132436,1.4667504696453872,0.18072528464615045,0.6948366293141155,1.525419299037631,0.35371611723134144,1.7945434435688754,0.2951131562166527,-0.8721749631729692,1.0062468739347974,-1.0511910719317008,1.2600078042649638,-0.19029406664997284,-1.1965295881959515,-1.8592380633244185,-1.4685993368386523,1.5900264994030304,0.13196505065928132,-1.1183820252743861,-0.6788934469019141,1.0790920110920523,0.2515895870408489,1.0528235881619437,1.220799842986874,1.1458599030244518,1.3490993022774722,-0.21108777628502562,1.158285843729213,-1.0066145115857519,-0.5784595029980371,0.9458925528774023,1.5020284816766116,-1.5823756311036994,-1.5711308002525697,-1.050524379565672,1.9266490955839917,-1.3938268737537474,-0.22790057002052322,1.8732763100227876,-1.8371300532606867,-0.22850408182750614,-0.2619417493518337,1.0614950715710503,-0.6137794712156657,1.9695484049162144,-0.26342265279373356,-1.1041889688606417,-0.9701087542545959,-0.09285282738137246,0.18960016249634837,0.9831956496120524,0.3425260158422083,0.7083354992131525,1.594923742838978,0.9501790066862341,1.7900662322073746,-1.0587393977841093,-1.6617560639180922,1.833081526866665,1.816660158383126,-0.7694075617297673,-1.4234245648011612,-0.13856953430426344,1.1167250395721382,-1.0659711900562336,-1.9460670319173592,1.5085787434711668,0.9648399850408493,0.9341573430797316,1.9220989818839471,-1.9174424949386966,1.214165289221794,-1.6763700861715174,-1.4524130841869485,0.6106662341191349,-0.2109737725391141,-1.7197841418749702,-0.6874028085344892,-0.8633248042260275,-1.5954949874256679,-1.8973065080488891,0.9524818821177718,-1.3459380635134477,0.7584994550010338,0.8473907452631946,-0.019666642733890516,-1.924144055144069,-1.5374728596392324,-1.6466467796830822,-1.0045804293867344,-1.6124256335785137,-1.1048667444758071,-1.078964570369204,-1.460607454502103,1.6351682361496733,0.09259719887517992,0.9074715144425043,-0.8554238600972002,-0.6970011111814505,0.061437639976565706,0.5691327472510834,0.699696309257297,-1.9721223703301378,1.9524839546906878,1.0648705008302795,-0.4425718230201823,-0.025390983480743312,1.1687875203784652,1.3765140134752247,-7.03025187909212e-05,1.6578884616129934,-0.5577635555755274,0.5112073100334085,0.7137099567684682,1.3715337109832357,-0.8896047170766885,1.1448726532482727,1.6008272481553818,1.2479583201626414,-1.952707925356759,-0.07568171206979235,-0.9985793355665971,-1.5039026175227241,-0.3064256351187806,-0.5054001929659186,1.6391958910491726,0.23644534872064416,-0.274994671795743,1.0482310141377749,1.4825968559137261,-1.5664913901410737,-0.498459765548279,-0.7570360503547597,-0.7942530221339466,0.9194316481157028,-0.2506418881281798,-0.8023394609787098,1.7625956989179374,0.6731412247833437,-0.8219031130874543,-0.41998588207983545,-0.026354882419399317,-1.8230302197519008,1.6909188424858534,-0.5308588997350494,0.8385765376781111,-0.0241962453159279,1.9028567403500536,-0.48290290393401847,0.05888044101807566,-1.9335458629331486,-1.007055176878497,0.22237032374202803,-0.001257686129314095,-0.643248460123039,-1.0744889563925564,-1.9402210440653795,-0.08299091177862294,-1.1294320701229892,-0.24892390496344685,1.460897471620218,1.1266015967943792,0.5165732684766318,1.8010489381957444,1.5131379518620784,0.45737348003147815,-1.6386859702603789,1.6793625990353815,-1.345631699385894,1.237439798660716,1.5726987179964418,0.12655048979701533,1.184124449355787,1.5407369163969609,-0.3450525792455146,-1.3467010148353116,-1.5837175488029027,-0.7716837343602516,-0.6205362706245712,-1.2957365701913024,0.15663175370835303,1.9421884481084613,1.4010155367808097,-0.3780997858787907,1.7848093130892515,0.8805706444850032,0.40924716733289035,-1.3877445622387392,1.6608956701731383,1.2723147656838947,1.4977988006952048,1.2926796533127898,-1.3953593570979304,1.993357757858297,-1.6839015932205887,-0.12695000986861915,-0.8677582080387682,1.6416889192181965,-0.8601864134969439,1.8550012188139355,-1.696623135390272,-0.8173041189169084,-1.697050255076649,-1.1782198802496495,1.2182934060823287,-1.8670534719166003,-1.7819691337393158,0.2837350852924536,0.14519500322952572,1.3038023807666188,0.9527206220016993,0.2954593265804317,1.253596671239277,0.8484725950199086,1.9392574627346746,-0.6985131330663852,-0.3113855631674416,1.5771256082020022,1.3316782991434093,-0.726479928263033,1.4207940001770845,-1.595749793422569,0.9925122980204795,-1.049333338190762,-0.8108229010526,0.20469514422419133,0.4522605308065146,1.8116716386472698,0.9963964152340106,1.3415806226685958,0.5594932797716106,-1.0655636323475224,-1.9934267390964928,-0.7046126967640691,1.3324566006239182,1.0145150615283245,-0.8494211189972289,1.3773854033035229,-0.5601233306594611,0.7710728400187628,-1.4622940305303573,1.9834770550190797,-1.7233434746834355,-1.5630798503442107,-1.970123688018938,1.16261641803632,-0.5570572229468516,0.5998736950382808,-1.1632436022662827,-1.80899131287934,-1.711060685193793,-1.5967290073201226,1.42321896622073,0.15091952966145694,-1.939964880438454,1.8575215919441699,-1.2757376877620183,-0.04573441561664726,0.7336422201149402,-0.9719415109946508,-1.1341703243572598,1.0860803721928232,1.3873628010201413,1.4347185865447276,-1.967287325411855,-0.14986568605112227,-0.474441292883637,-0.44614963176104094,-0.7431797921955137,0.3677093211625704,1.6693025087634838,0.6808458811987674,-0.5602613015818774,-0.19531897297518208,-0.7091898690010177,-1.1830117429833122,-1.553717277532912,0.4220056007053179,1.8001146547350402,0.8587647117173041,-1.5501965045177108,1.9665352142172856,-0.7380432226588356,0.6562834212701611,-1.5261199343073986,1.4684011804036805,-0.2858324955150793,1.7087170431362253,1.5082363098990563,0.6601169817127186,-0.2874557452978519,1.712028791976437,1.035843026689784,1.1503295346569256,-0.3763370899921532,-1.3657624366208814,0.24635156506403755,-0.660240748811816,0.20007087216575137,-1.8241431300674913,1.9771668329641603,-1.0779068894470103,0.2144728037601249,0.21933687494667797,1.7093778808554259,1.56698878707006,-0.9674909407804204,1.279053487334918,1.1564460499562714,0.7011178480721703,0.11832192662207941,-1.7515221013590039,1.0787952111080679,0.5494147427529068,-1.8963419475726826,-1.3675232167990394,0.2126884770453965,-0.6160990736444862,-1.1830928165801762,-0.7638753832277101,0.364660059801758,-1.6969200595912035,-0.26064723238685117,1.6140978223999913,1.2181503662594615,0.7392772839416195,0.24601962621228113,-1.9682557968818584,-0.45765047458455843,-0.7181288302454791,0.010910608139849565,1.5524336332051547,-1.0842453632071236,-0.735688257207598,-1.4405791004918695,0.5114080017008988,0.9398671200919972,-0.6983719178415413,-0.69286300276551,0.1004653528841879,-0.3713772365321737,-0.5684113329228393,0.5881337776440971,1.981291804562336,1.5626273446556018,-0.833388506194876,0.3790511162900323,0.7603580628016471,-1.4980067067415082,1.9276642288921968,0.7657872585945493,1.975409418616906,1.6733571665072025,0.35615985553222274,1.86225082901352,1.0549509835715787,-0.658452130555085,-0.1384606024851993,0.0648787424835433,0.27470983241977587,0.4648367391901136,-1.8890352138055486,1.7412648851081651,1.5560683362228485,-0.04981957295722106,-0.9850415803190318,-0.08974537117690051,1.485181186830086,-1.7500769354550005,1.2079505090888354,-0.5736335537744752,-1.9293631177830575,-0.20775214019081512,-0.37927423080274636,1.5609900009932245,0.3892841367811113,0.234862887444784,1.583144910036053,1.7768949694982155,-1.5796873659628914,1.6737213535162536,1.0868784403897944,1.8139576911836492,1.4528851309158877,-0.5984282019783547,-0.9803924099591108,-1.3300260880128558,0.04696974331646153,-0.868095153882817,-1.7003465365732926,1.6903010547746455,-1.2903828488649811,1.0897278978318647,-0.37127720471264336,0.5291554610969489,-1.0928442867873849,-0.8453877731212218,-1.3752868055907759,0.11400410325022081,-1.2894199312531085,-1.9817416480162007,0.3307651747992284,0.6508634952858916,0.09356893854450066,0.8633006517054627,0.36968606900646517,0.7216109965852069,-0.7482095677288831,0.7611563974483628,-0.2024219979796733,-1.0690506721129873,1.569499795805482,1.169827053509775,0.6083930962536117,0.4752534388062415,0.7742843181471675,0.6855675908576409,1.9771856624934152,-0.5247837027005455,-1.0162875072019855,1.7202415181552948,-0.39684502948357814,0.7844847381750002,-0.964401572709694,-0.6524240166991726,-1.2632645767474595,-0.877126839520812,0.5482869356484166,-0.3334905600850391,-0.7424477602064252,0.5512490645401371,0.23338858274007057,1.6879093545295332,1.0468681250443743,1.6818458036992872,1.4184813801413667,-0.8434576823271756,0.008572210619192777,1.7262401292309004,1.3377218095408074,-1.083103505073474,-0.729119097683713,1.0117060345097708,1.0050796117594283,-1.0569532545375382,-0.07218198314734314,-1.4868618512031846,-1.3683882518280996,0.40953856198433725,-1.6607944915878456,-0.5187882506637962,-1.9908964220756338,-1.7389037563401692,-1.6505828238226168,-1.3998670438372298,-0.9888858475567841,1.4171019325105547,-1.9773247626025272,-0.7077095572082719,-1.802648114881591,-1.5085213277348686,-0.3229812275246653,0.1707288938203364,-1.831621935644585,1.2159031828664255,-0.014661689463339123,1.4161167817276548,1.2786403748291,-0.6750168084570873,0.7287008621555713,-1.8140270140329666,-1.0512778920234145,-0.7748443787380279,-1.025257382093777,1.0675563878476955,1.9674290198461177,0.6312501716980878,1.866613313260411,-1.6994012092368669,1.9674121304998535,-1.7637741541182783,-0.46401176554658186,-1.0819589056646768,-1.7485229763990495,1.1676560991615133,-0.25770624717171753,1.5029833558218924,1.122022168342518,0.5767951673889384,-0.7529971743130095,1.9904507159693612,-1.7734914227907104,-0.14833543713184572,-1.3325700265867653,-0.3543973564635201,-1.4531658773475113,1.9153944202893158,1.4685094709937965,0.42114332450768677,-0.7443082854175729,-1.998256158724577,-1.504189612876885,1.7763631599702236,-1.0103347669475564,-0.5764036443427263,0.16453828423353034,-0.8869102254724681,0.2182995881395149,1.3423860549020659,1.8579728795472827,0.053351121347748,0.09989663566131801,-0.20646058837553438,-1.5625505571327651,1.2463965668640924,-1.9134382044382652,-1.4825399306192093,0.7699790089412519,1.790845165430333,-0.5640270683121535,1.3771516212092911,0.6660882750194395,-1.992975022250504,1.0351368576285878,1.8269088408105914,-0.039727415201860516,0.44255684160509734,-0.8655954469999805,0.28488676870862983,-0.1315845739366095,-0.10185858537238301,1.4019092346468542,0.9004765921683493,1.6822788524430359,-1.2251809135569975,-1.6542275509859312,-1.1769019110829855,-0.6337709289044833,-1.123255141853015,-0.18288259089719183,-6.982689162304823e-05,1.0859766282316499,0.14254192764864326,1.9478913460058171,-0.9136784051302227,-1.0539115021971628,0.3322302476767307,0.5550642597493152,-1.3355081114203657,-0.41522416232148984,-0.9883950237314423,0.8763316009242552,-0.8534977698680435,-0.8742966877904346,-1.3210498112920046,1.5214807852264212,-1.4561953348779437,-0.3877828725285224,0.4714259582129374,-1.5235766963847976,0.1781764395552683,-0.9542254243200134,1.628022839378584,1.3437921328189337,-0.26739326070343106,-1.1325906981977578,1.1276710274611919,-0.7507160214318152,1.8633574442644405,-1.7023827714717417,0.1387634632177508,-0.3152030239882575,-0.5561593033251828,0.545836360047538,0.7687745573825326,1.1611719765460395,0.8995686046878606,-0.5148144729565081,-0.14060468116080216,0.0652511994637548,1.410520986381468,1.3751463809650932,1.3510163397124493,0.3910174085905904,0.1505214885047157,-0.29357015296393785,0.5309446098963244,1.528644193827326,0.12448639677459239,-1.0916666604121077,1.302666858873073,-0.8980595771842603,1.7689568751674054,1.7784342947494487,1.497361985766866,1.9266903862608,0.5711327046530768,-0.5458165487231805,0.7871551884673078,1.3450550002098791,0.5497032463799245,-1.2333239253621535,-1.1414452454627515,1.233611312933545,0.8270043196375401,1.2527877858040495,1.9755001080201433,-1.0694456940288575,-0.45152601073193566,0.5305685218597893,-0.882855637933897,1.400942857944535,-0.532046428514303,-1.285793810803653,-0.005299148789327912,-1.331982556434237,0.6190724491028226,0.5437906166705515,-0.6856973516729736,1.8297653491160335,-1.218392117384068,1.7604806687039134,-0.5540750131633128,-0.48085203675890664,-1.2388996990642611,-1.8481785063175868,-1.5988185546676816,-0.7999178285644835,-0.24155336993878374,-1.92537529463887,-1.1837369779706353,0.34039878139841395,0.49201571215130446,-0.8094404625486011,1.395117945628026,-1.714559360971431,-1.2792319674870405,-0.6035778685834456,-0.6044547648129699,-1.1052603658535918,0.6908971018130399,-0.927460678374227,-1.7873118273279416,0.04649280514621701,-1.2150363333105538,1.7785562337158285,-1.8878595090485737,0.22603088948631456,1.6014014670469585,1.9975449902368094,-1.8207012197258186,0.2801191505804743,0.3487180778903354,1.6754877440916784,1.5196070911530954,0.7231389703573861,1.620695681820608,-0.6640712780571247,-1.1577618491130353,1.2564144279734912,1.2775236302999602,1.4035626704346016,1.9010565509412922,-0.42696995644007707,0.7869647999419094,-1.171541169534311,0.5720266534763678,-0.8290140386628915,1.6155949003791825,-0.19897094928354697,0.6824813161124186,-1.752999067610081,0.9970498861221695,-1.8344913663987503,-0.2532265238920117,0.26871749738464246,0.9413710794041807,0.8402833341957572,1.0906415669197451,-1.6307130159287118,1.492773438277291,1.839033644150725,0.12671958081096202,0.514058265898941,1.9443876646942888,0.36332692683912793,-1.158957115302579,0.13170235367847605,1.787919674438244,-0.6716659508409473,-1.8459133086176998,0.7556948804866144,-1.7820033225274399,-0.955646025540307,-1.7628357197384745,0.3562400676790447,-0.6135233849721664,1.4195465005011378,0.0057298073581559805,1.1510789834243087,-0.2906133900237968,1.6588480787482367,0.3278229016993386,1.172096091103692,1.9137333340803027,1.2362057383308485,-0.8399399278012085,-1.3593608357989013,-0.12258777195780235,-1.213329555726097,1.0720748425565225,1.2124606941033078,-1.5117634044753894,0.30039374787422757,0.6129645754440438,1.757459306730862,-1.9150915720670092,0.2912573827798517,-1.3173820629233428,0.10681239283370125,-1.0158331457364684,-0.3445821972420462,1.0503752619500024,-1.4378592226765479,-0.49293254444587475,1.9608388816188316,-1.3286436080625812,-1.1182003051152654,-1.4108735819663956,-0.28482563726072874,0.3864920082642356,0.0043442986542192585,-1.3732535718995478,0.9412264750880381,-1.6482995511855036,-0.6881763531648275,0.25940258220527035,-1.454715114184042,0.8730939400030477,-0.41159465538904616,0.07409629337145685,0.5441292771385071,1.638072657382466,-1.341884925794481,-1.836658633378395,-0.00959772680947335,0.7477702631673009,1.7694842890555305,0.9116868661755535,0.7096588767300971,-0.4854726450670275,-0.2125447433379435,-1.043853963431674,0.4583216604267206,-0.8625447562947479,0.7386771637715088,-1.7228609104585244,0.8101784081410242,1.5324694711422833,0.8234647335993932,1.7581627007578535,1.1260670918545936,-1.2221637836047403,1.2173736601016687,-0.45028470969545387,1.3112482532036038,-1.5113281178943105,1.260221472686737,-0.007278123965519967,-1.6466899471048175,-0.04331183197551791,0.5208680530571193,0.05828356473519847,0.2497332261370846,-1.0308058771421509,-0.498439586461108,1.1526842262511012,-1.3486975497402032,-0.02118971828624794,1.7628879757549503,-0.9194594407010408,0.5932028094566295,-1.0184527703333406,1.24606594176587,0.7417737431389595,-0.6424682797389951,-0.2712431995689917,1.0880705382303795,0.8805186374119822,-0.7496437061741577,-1.76493983915482,-0.5257362415181381,0.30676485265443487,1.043082866017237,0.521971558389918,-0.8800051808127187,-0.9362058741351662,1.6267323262617883,0.9317102996668201,-0.6451897443740351,1.1307443301053173,1.7809171006109525,0.7511821224129758,1.6133495806262457,1.5786917424883855,1.9189843953103751,-0.8437356107791834,1.0648950727097914,-0.7398614111596737,-1.329804063192877,0.893778031560712,0.43907123023989403,-0.6927916487515433,-0.5994291278171726,1.0817296072462912,-1.8674507389393749,1.2376564724445656,0.6087228453549374,-1.2255009605536364,-0.9395380025963562,-1.654028486158282,-1.6653420896243745,-1.3765032452228891,-0.10805368723280928,-1.1770932890431411,1.7891180881268394,0.5219721492829899,0.04174472799736062,-0.9592164334573119,0.8850819159511185,0.9685388341331778,1.7047800851993857,-0.49951968146082004,-0.3845895666555146,-0.48460179685870886,0.8835546710822619,0.9194399336822441,1.3262652462900655,-1.5637475946426913,1.753667438084066,0.8606172364688809,-1.5674357403119266,0.337838669779297,1.5402364345332233,1.5137569122435197,-1.1458098718966427,-1.7893405234931916,-1.869697640531565,1.3680754227954641,1.9870322126258992,0.2877702119010457,0.989718315350034,1.013826144772565,0.4386870006813952,-0.4000382003989684,1.6906226250652283,-1.7477361191393554,-1.3548690441556892,-0.5822707176489339,-1.4795224238051432,-0.7715949735026535,1.2449578404379134,-0.2959026452960969,0.6401556752863242,-1.941849117814904,-0.11394013274649062,0.65629763990693,0.3383470896111356,-0.9744446512566407,-1.361852319466144,0.3481227335166328,-0.6946962943719375,0.7056464185999833,0.08821491510543478,-1.9373690709477507,-0.7628705960740101,1.9414003323758506,-0.6873431125073681,0.032245548565724924,1.8152762952309538,1.2286731131726882,-1.4675008909779828,-1.6747656155709674,-0.3819761381269653,-0.6589351872081544,1.9217619413161144,-0.6326521147821795,0.6018087682505633,1.0348860818530419,1.1477536855247772,-1.7031367967499706,0.02313649695067621,-0.5197741601548258,-1.607467415977606,-0.5581638869373968,1.8712187315875557,-1.226692015587287,-0.2708081555683828,-1.9879027508701994,-0.43771880743591796,-0.403442442936377,-0.5514891025818986,-0.5044669681652678,-0.8301567536498506,1.39683766209802,-0.9663082101870959,1.9126056289228366,-1.021439671238968,-0.5017487634680506,1.881534204375599,1.4434590067594146,-0.05030384610520766,-1.9398481954615558,1.113862395616847,-1.739632561703456,0.32269638583535665,1.5334162435378262,1.789041364145989,1.1158946236291287,1.074999279962427,0.04867096681939875,1.6587187551952436,-1.9739485011813729,0.6993609219521879,1.5742149681915905,-1.2690605259040453,-1.9827544866946938,-1.8190994493838115,-1.7316859337835466,-1.1396132082003154,-1.2330216950706494,-0.4372871081285781,-0.9083540547890174,0.6639208865025816,-1.855230512494503,0.5563844125447521,-1.446692288083545,0.6014719519488891,-1.1779298033271282,-0.8387191358168375,-1.8625088088601243,1.9662232366677217,1.3627695432503582,-1.1913697555792178,0.8438142994626219,0.8706975811692872,0.9471159424204645,1.259917491067661,0.707376943170563,0.16854522900465518,-0.055917060726637935,-1.5163030063194323,-0.2759476351729506,-1.6267565283617027,0.7437769322655567,-1.8134103774949204,-0.5993104773240634,0.5890340841807129,-1.0441044946322804,-1.0329158583182898,0.9190490499942463,1.4640625759812256,1.0560316554519655,-0.588050026909321,0.8420286313175405,-0.7848661219973363,0.020710339053477078,-0.6459773617917008,1.8728590224328352,1.4291074316019632,1.320044178629166,-1.3508755575219404,-0.7547807117263186,-0.9794787969444632,0.9039588611701732,0.4532818267769261,-0.9715934171764751,-1.9716309475154832,-0.8223174854392146,1.7797786861134548,0.9459511797722686,0.034735461577700466,-0.49655475630347956,0.2823871325217322,-1.3003513968535514,-0.08790961341014958,0.5726084526586344,1.1626203401869222,-0.4003580097422548,-0.7059661775378596,-1.847330593328817,0.5612062089059293,-1.582043406340913,0.3930146314948071,-1.1178275670552105,1.3902055513055722,0.05359856141515795,-0.4454390171486402,-1.486983411470479,1.3728804628967972,-0.9416947478729671,-0.8838535572648794,0.9337401063606334,-1.0478407791331001,1.2330367215938791,-1.3981846288170017,-1.7386103397730008,1.0142600081500128,0.9052586789558887,1.3237545146389196,-1.8864412898692247,-0.9664427880673281,1.1949839718287483,-0.6691409330837241,-1.7889090411607764,1.750161275220314,-1.6642823346814528,-0.5803312395010543,-0.918595239676339,1.2432931676900156,0.9612315499547366,-1.5379839018081989,0.9219382238512135,-0.7709683155837301,-0.014522395361857399,1.4232816935622217,-1.6571528311686636,-1.0643646464566818,1.2428059028321568,-0.26595705586932405,-1.6927949210509805,1.9867208270878867,-0.7863465910079039,-0.6716238028990626,0.5501102917659222,-0.6593899401512466,1.8247652862806878,0.250306260791624,-0.863041139290373,-0.4906239764207432,1.3092096385444845,0.27477743125874365,-0.8352064353823008,-1.3727886754845922,0.02623033764899274,-0.20855631745782155,-0.5092260076073734,-0.03339954182255056,-0.3046314936282486,-0.5861605519577124,1.4927575956766521,0.5967805694878501,1.0395056338126412,-0.05957389613454822,-1.439351159096094,0.33608943787244394,-1.0115524292771707,1.197698775965617,-1.8363678277070608,-0.7240344779900219,1.2837525404188348,0.4254763265486843,-0.2890600286447711,-1.9694558914145968,-1.382102329132021,0.5912799466911665,-0.5116185897447236,-0.9823278540224618,-1.718542572526124,0.34644881450961185,-0.6077667009582455,0.2876352250362122,-1.6848819033987872,1.9960788774606182,0.3172294852877715,-1.493957354157355,1.4830098176892506,-1.410792135035409,1.101721210856701,0.031365535289794355,0.8184691112550939,0.3151321372169731,-1.7851641968851752,-0.7163505401345942,-0.8975195990735223,1.475715729287277,-0.7774991270804272,1.7541854321377843,1.54527483656284,0.8613277478615609,0.9408944649510698,-1.278636707393975,1.703341862323187,1.5447082334429298,1.521228901714899,0.9659412790926436,-0.42390521273945225,1.8556691110374528,1.1763861466163985,-0.5743730994415248,-0.3871154717236909,-1.059066799617602,1.752732702219955,-0.18105646331277514,0.01503387977618642,0.6495568623261541,-0.3957335807661124,0.408625840075183,1.3902730417115539,0.18270498520029044,1.7006445585603291,0.661921723070968,-1.8185632285056177,0.03884428738100221,-0.3190219691232299,0.6097962439938582,-1.595598600840185,-1.682699606656973,-0.7163731280685837,1.7352317933085417,0.2776007833240599,0.9462269859476922,-0.06264155343293121,0.8871557111199744,0.20707465784397794,1.283141945939251,-0.402007149465454,-1.8879727316654726,0.1694130608968405,0.36936184568240904,-1.4741787599838019,-0.9771095690427991,0.3138857004425195,1.1371724142745117,-1.3023631676556895,0.8263387790134527,1.2328655970911728,-1.5693987271645309,-1.5459122927150655,-0.51379329760718,-0.45384563658811716,-1.3792244587925673,1.2044172368328505,0.8904223703429555,1.8459295537674225,-0.9894761121283557,-1.5371192296520153,-1.1133506335864496,1.0923283012404248,1.6847900050277134,-1.827916351782306,1.4481218448130324,-1.6137919876568643,-0.17318045513185876,-0.9646770197049732,1.9383801466353936,1.9490624930006137,-1.2146995998683785,-0.2458068799319184,-1.4857221017351274,1.1520370218512959,-0.671808696925924,-0.9269962889344634,0.9707894547330165,-0.8829132975350364,-0.6699761522541414,-1.1590314120169425,-0.8045054218153735,0.6787092420959242,-0.5346430745457287,0.5995728191804428,-0.19405123788219436,1.9153717181962726,-1.6361578667913137,0.05439775572665129,1.4064102681910562,1.3349821644888746,-0.32445140140746487,1.1816666117123078,1.6132377803269171,1.275313408842353,1.0391619931746678,-0.6730363804431452,-1.5695068378996386,1.162157934087062,-0.9062032806249887,1.6507097276515892,1.2407314634744142,1.641515573462644,-0.18375808382687175,-0.37811425324002546,-1.5092979655020349,1.7732020986880408,1.7558412185891368,-1.3853067881299896,-0.5189706361115345,0.8354809635024663,-1.3166155355364988,1.1879348581661757,-1.8970131997159734,1.2039035879312925,0.8023339684472361,-0.8949892619157813,1.5856930467164623,1.3300554944509528,-1.8767134871384918,-0.17101994185528335,0.45170093647446796,1.1398203980574468,-1.7996940252459552,1.330274309539309,0.5428081787726216,-0.6187946251954504,-1.7454658790991644,-0.11650520015395083,1.9205055418768011,-1.5280255809525087,-1.5422994544587318,-0.03460378186495516,0.8646509671411433,1.301861294897003,-0.5757007968999241,-0.8427383704482856,1.722760796870924,-1.927436013267084,-0.939423801562191,-0.6739669828891399,1.663974065056244,1.8284109840445337,0.41911527966336903,1.209489938510159,-1.7199142728456778,0.9534907697083219,1.4496558671295112,0.602107083740659,0.30842547930976405,-0.16574569947056883,0.703960146416557,-0.34936958918274996,1.0736371345018103,-0.9032387630008851,0.12579748972920823,1.7482199597117765,0.32853161198432623,-0.3671279576527904,-0.01872692110834473,-1.98074168088176,1.301284662803301,-0.9452712072094638,-1.7785456906623933,-0.9245773040193175,-1.679727054465201,-1.1575124840130364,1.8383427695494774,1.7450734803897379,0.2672261923278283,0.10820825862942929,0.33636197462333817,-1.4574924813244903,-0.020235909449137335,0.7362242364138374,-0.8892355927577462,0.36678472538337337,0.11112146894942398,-0.09836450683623887,-0.21879101020757963,0.22934571819787175,1.4732644724197788,-0.584631577373933,-0.3968219342721273,-1.3971756551815595,0.12021492265955835,-1.1429330907319883,1.2922894435112249,0.6910365911934702,0.10507279672059733,-1.5525190929750354,-0.7602437909088113,-0.00018550577323139805,1.2710607659207707,1.8709853335810207,0.22296433684296835,-0.2101135244591359,1.4629759254825823,0.9422110838047013,-1.4689294816772676,1.3907747867344518,-1.843209821016678,0.9557045727983433,-0.9256432873802498,0.7611404955200687,0.9149896047615877,-0.7042289491088538,1.6082608190260466,-0.5809396046918911,1.8021210975665998,1.5356768188257397,0.7272920025835412,-1.6323199674345896,-1.872943688400548,0.8751743924704494,0.29923285919891596,0.33428506966565585,-1.3745765996142625,-1.230209685709223,1.5377988690914508,-1.5205922908126936,0.19420634875455534,-1.155449035493608,-0.052307905990101045,-1.2262932295582982,1.1543054310617449,-0.7871955861428321,-1.5435151819868458,0.3495965016766611,-0.9931782311668318,-0.5897438413629459,1.4527832963628367,1.2785403680758756,-0.6331822926294053,-0.815783348775776,-1.2092861040794127,-0.8379971397504962,-1.5336404505705308,-1.97280208092572,0.1940275653824748,0.9274843814200362,0.5179644576679223,1.6911457868255928,1.4880997932748214,1.258934512631082,1.3520951336451184,0.469004090182084,0.0943512477968369,0.8039911769045878,-1.3654752116382038,1.6117569032338879,1.1922291944241463,1.2450393565698392,1.8231076685616672,-1.7615123588348918,1.1686434153991372,-0.4463634094871787,-0.6538334992662724,-0.6270942433515723,1.3780690960993836,-1.4118099967268174,1.9576140924886003,1.901763365354638,-1.9302355123818309,1.0321610825789391,1.3014812125408444,0.8693044504660614,0.4348597200586024,-0.017764186807196047,1.5995826128382582,0.37065424219068577,-0.9817491050383609,-1.3970211647916657,0.6902766023030069,1.857472259145153,-1.51619412470974,0.9239023791667482,-1.561735779246562,1.5980078262678479,-0.749830176455859,1.9031597030296243,1.7982703043358947,-1.8964399403793206,-0.4674669282312802,0.29464639037363405,-0.44548875529572696,-0.8933013976459794,-0.6244597209893512,1.9539647426506073,-1.3664046199114264,-1.8739346966632437,-0.7192598115934645,-1.7621002469287972,0.545572066023043,-1.2035840619513851,-1.8648621029911965,1.6519013243972211,-1.8529093279221698,-0.49132942172099403,-1.0484467513415892,1.272252262151326,0.8830724699784875,-0.64599158970077,-1.1893285050941182,-1.449568208082312,-1.7714899401287347,1.203345743963531,0.15366348337799618,-1.8602262912433711,0.7078272815082527,1.453501437084408,1.5412088566141167,1.1679191995428266,-1.0137031522229534,1.3948756247817133,0.6240208486368051,0.11590522780884438,-0.611297073283974,0.4358241306237032,-1.1017953955770778,-1.0678971476543184,-1.524412475890022,0.252568713458996,-1.8259837330846334,-1.1467416933340173,0.4648190036861979,-1.6015656212850273,-1.668211821832191,-0.7731578531716421,-1.0037083979737491,-0.7987835166358206,-0.9612963943021935,-1.001647582731585,-0.8258301214965122,0.2665650083233877,-1.3345361530160735,-1.410890477834688,1.0401316438450294,0.9865454898154487,-0.4561195138658203,0.8808379096545362,