0.2833728163539566,0.1826009636404584,-0.9843368995941117,0.00858984121894113,0.997892844167775,-0.97499489899242,-0.17229735858285178,-0.5821792014794243,0.5781635054320176,0.5701882754394059,-0.5416845036904978,0.6032429414757159,0.6576898468635095,0.5697943516249833,-0.2682665579521213,-0.5028956880635196,-0.6914309336062907,-0.5751031190792566,-0.21552242473902816,-0.4336447406983237,0.4259057357566953,0.2647828259625695,0.7295851008577334,0.6201931589310985,0.04085541752844568,-0.7663956395532896,0.5671677635095032,0.2942711185922442,0.9964994280638437,0.31200981194421673,0.18247330737771073,-0.43952428788233266,-0.33692935073601316,-0.8530354959559183,-0.8628501549947876,-0.84956733564103,0.10226973595617683,0.6448351132635153,-0.9996621545044238,0.37767479661886005,-0.059492682089981486,0.6125368983721904,-0.8779437461288837,-0.4464714996874062,0.2894152626934665,-0.5146587247971044,0.9301622401337395,-0.26304021733159444,-0.9685515089697747,-0.7605179713961421,0.4216777214893317,0.7306082539439707,-0.2826070875012876,-0.7967514341353799,0.007172143228130201,0.37061176639865345,-0.1557261494473925,0.8430826369180051,0.9306506860880956,0.3003668962424424,-0.4795682382683968,0.49175483679713117,0.052400028752974226,0.1621241443972341,-0.34761030065128184,-0.02519912228604726,0.9558369149340933,-0.12542703531534527,0.16166643334939046,-0.45059139699256545,-0.6095065150644228,0.11192120584299081,-0.7285458055874916,0.0607137791726402,-0.48299539760695653,-0.6087869419572287,0.19771644225494822,-0.465596528487382,-0.18457038538031578,-0.8090437671449877,0.6804162725372807,0.18877710377757007,0.37204037332903406,0.9964892928205458,-0.6870193770268163,-0.3740943210906291,0.37886003867504625,0.053558286483904594,-0.5851877848565348,0.6314120586998597,0.8504544570870456,0.7841602145313322,0.9837098379156162,0.5136268189267368,0.5650505270248198,-0.7496897259757507,0.927425107966209,-0.8957471355861719,0.47251256352219917,-0.25839229249138995,-0.6870955030721011,0.19594680076192894,-0.02706236658030514,-0.23465854603712066,-0.12395487069695066,0.5153243006548929,0.7066801892158754,0.9810494558621579,-0.20238737382727345,0.5782101177449317,0.4259966144012006,0.3382729015536894,-0.040985657665856934,0.18197260870175613,-0.10752573259975362,-0.4394078245417281,0.8854641686740494,-0.46397649288264997,0.5826454576154438,-0.16136352511758667,-0.6241092949062286,0.4266412632652561,0.7706139123819216,0.2589911072784632,-0.38526224083313787,0.1470984389695884,-0.8757304755224373,-0.10290382353607797,-0.10724267970473411,0.8577913499194261,0.8888251663746629,0.45129211291908367,-0.6853482320190134,-0.4063434558446668,0.2581055166961532,-0.7231983250359324,-0.0496990841442968,-0.7289710612548435,0.2049858826586004,-0.06228656205817318,-0.1930678236428791,0.5968254050033828,-0.041151837714859196,0.7287446187748063,0.9604012403438567,0.009541248607124464,0.8086031184450042,0.6504265683083315,0.5781441287283959,0.36922069468128593,0.2642334227762746,-0.795067811103467,0.5029183711169214,0.43309916125567205,-0.7810883142919345,0.10709451713113904,0.5311538355800864,0.5185906153915092,0.09293643703169163,0.30893567296464264,0.44006174798824915,-0.0393693588891022,-0.051111819671069814,-0.8782446703367224,-0.9526198303136408,-0.9802225495100838,-0.3215882757136945,0.2035320516250727,0.6496543357602149,0.4144201945072379,-0.21374935434547404,0.006367245843926339,-0.2902476733911974,0.4825741057797228,0.2233510786449635,0.8241501553506105,-0.21877789186199537,-0.09624560786079028,0.9672083702764442,-0.5535337695235187,-0.1596531791732363,-0.5021527844743388,0.9201229101287061,-0.6458906389516808,0.1223503966178463,0.18815955971541465,0.2571979267721325,0.679111404852327,-0.26001437872281996,-0.5326633482494403,0.4717337537728472,-0.39550223493296066,0.947953109925304,0.7329395053361387,-0.011997154252983977,-0.16242311674057053,-0.4090697962982206,-0.7200589656494902,-0.5327663685752309,0.7799152000860712,0.9811327574806357,-0.45737286588433057,0.4377975462989534,0.6889018162186504,-0.6621763181829574,-0.9434721723886772,0.5413640560763333,-0.9208570493854322,0.7819010011607359,0.8267946643760837,0.7576130024433148,0.7695992866899406,-0.7059112346128789,0.2599119577989333,-0.689684347474919,-0.24115794689434966,0.36421423341424686,-0.4981473215597281,0.7235057337118751,-0.9813491334506697,0.2101227534455663,-0.9264867724058079,0.9438995289574237,0.0387550524233069,0.34137422525595307,-0.406322880855023,0.06383735065750629,-0.17011710721640205,0.2800645227819789,0.6842308891940805,0.9354731626914135,0.20333105715366062,-0.9836162703201825,0.6450540937923308,0.9163848701393023,0.7607963622688971,0.6873217761249424,-0.5084649724848831,0.5139368699231874,-0.6414665451286998,0.2991526769309272,-0.6135936165634202,-0.7662617985599256,-0.6494433854193753,-0.9751327880461265,0.40918651795754846,-0.8093738433490083,-0.7456981101813744,0.3259143912984832,-0.35973820784845345,-0.15806116769229872,0.8601219738331991,-0.2524981079492796,-0.6621176512271623,-0.8853487260230684,0.006738147792863414,-0.04661937523237558,-0.18846263601715108,0.6850360605510466,-0.39371318641825104,0.5191137801621788,-0.7056264710701123,-0.9009433544112759,0.7802759276173232,0.6150715696276621,0.2754232620551176,0.5745044936714616,-0.9146139250012211,0.43314214271758544,0.34571635710038207,-0.8486780919167349,0.5045816424824661,-0.32458010144084626,-0.12514853732579256,0.14140194330601363,-0.9420107103033992,-0.938446879840523,-0.9916271885998045,-0.13969691561629927,0.4630650079068461,0.6127486545435386,-0.2058167490687155,0.409070830031135,-0.6671680684033219,0.42499529876191344,-0.8651042728162306,-0.8727777831623267,-0.5545158459195305,0.8025953110331818,-0.7587981456741995,0.7896277189506224,-0.3642327360109723,0.019639282653273193,0.4196050283451991,-0.9202302531141142,-0.22641118069111643,-0.3563702055678153,0.28302541029437944,0.5401376428344171,0.1671246165863578,0.0964742310475446,0.997031523450276,-0.6209102592814009,-0.31132733962372483,-0.799699849300358,-0.4567882551216933,0.9616037129547039,-0.2170289718529661,0.21882890841691616,-0.3964951449821166,0.11344225434381427,0.13259593032564876,-0.6458166363884272,0.2926297921807881,-0.48119276410928413,0.47398576039838636,0.48710225390076256,-0.4849286688990524,-0.7124383179513327,-0.1055732452083944,-0.238001187722779,0.6557758369740163,-0.5469944176635639,0.2014451272674722,-0.23366388603560062,0.6039686524099832,0.003494551621860964,0.2313010329245515,0.30338317072688303,-0.9607898089486488,-0.9124527191733245,0.666615713878258,-0.646310698792546,-0.5938248757966114,-0.9586847498473923,0.9336820722797514,0.4774112042882075,-0.25806757951484416,0.7676366504469931,0.21419298335139958,0.9796614535917172,-0.06062562770794333,0.510948264990728,-0.36382018314061515,0.624945050673755,-0.2317170236886008,-0.011089736538801187,0.28327171067917933,0.11943163250361,-0.497486828756432,0.9502869104649128,0.5387373759469187,-0.25537976097581905,-0.06718522463825272,-0.8791870627287262,0.27180270792567485,-0.9037183745535786,-0.5015911088595113,-0.8186918103488035,-0.19220672697520103,0.7746287262464444,0.2525485213831684,-0.8170614222995147,-0.5254414001613492,-0.6572529614776443,0.9089878605310004,0.31204568674748945,0.30121289020005726,0.4015388824442949,0.7839759034213125,-0.13427030673600515,0.9486572242841749,-0.08055319662879357,-0.9806078832559695,0.7087831229258006,0.978222339393739,-0.5301223443756329,-0.03621471381544206,0.03709413821021079,0.9612876626407127,-0.9296927059639422,-0.6621819938148084,-0.1680460797015324,-0.7405487866295128,0.20927651948363613,0.9269395477531979,-0.7366566383881488,0.5976547348383792,0.13977549822232294,-0.15965558327080775,0.09060274159487003,-0.32893592862690446,-0.922249012164249,0.2886160493051835,0.5498003259954558,0.9256243047338837,0.07765677346772737,0.9023280463654888,-0.5465897017861041,0.7900677365104756,0.5450050304283256,0.6282982710232503,-0.08051550293193577,0.2262598291233926,-0.2273322598290628,-0.9749361490177835,0.3356717533084186,-0.7424206984658333,-0.272003645315946,-0.6080109594768808,-0.22570898194933897,-0.057285128020613696,-0.8642503742496899,0.07294200112586746,0.9776031590751144,0.9827530928376966,-0.4550229298663331,-0.9276548293326079,-0.2888151861487964,-0.6311176117701554,0.6193534366289013,-0.4119635139932716,-0.5564296020914368,0.33624541018281495,0.9477216865757412,-0.7505715243386533,0.6718221833809692,-0.8431199856958373,0.8313759452094769,0.6698846074412812,-0.7832148627740017,0.9961573003031796,0.8199351715493541,0.8890851425774922,0.9119188729471783,0.2430525734669884,0.15306203090914994,0.050913638965738306,-0.2998436347793063,-0.4094656920458337,0.5305350616633153,-0.06889805622049172,0.5906236208952216,-0.9226164783781119,-0.1496510787294174,0.2460394914602826,0.15643834273754198,-0.45764425519501395,0.2368699979421811,-0.6974555843907331,0.2045919179804112,0.9431007770965805,0.6328486934497242,0.25352830452810915,0.8545529472614977,0.47779882909331306,-0.32391523788245435,0.34966196806034544,0.5570308932066723,-0.27106978345161625,0.5937257280646662,0.6736213490124774,0.12285753221922513,-0.8754005221143111,0.4732571845967546,0.16210885213838644,0.14714314819275942,0.6238442275837575,0.4695425023011657,-0.544164474281666,0.60653236659555,0.3886355220844744,-0.5299594478325669,-0.9025844495985669,-0.07015529110941565,0.17976539343930287,0.17259657726798738,-0.3166784282490649,-0.8083728720801084,-0.7171613280360043,-0.9751488456965298,0.7867542318727112,-0.6982292197317383,-0.8713923795251886,-0.4107146361829854,-0.626577953669234,0.3863741062435784,-0.983059650058316,0.2529274522831284,0.031241404272403184,0.7030379847966257,-0.009927065052648176,-0.06195252547381069,0.1975954876507111,-0.5414772959549514,0.2926168389210442,-0.6558553873975059,0.2124620912619044,-0.8249967376933143,-0.8405349590079394,-0.5227732408151604,-0.6897344467282023,0.10091769527982897,-0.690937996081119,0.6285908198416017,-0.8304976506916542,-0.5428818578436108,0.7113505790615227,0.35138212332433794,-0.7710991270102836,-0.8988500284020513,0.6617444337391278,0.009278146601417125,0.2754991560220825,-0.939653903124567,-0.48815264750971155,0.6518934002611043,0.02425889251687785,-0.155193766446325,-0.6101183965893842,-0.3246210468745918,0.2824394459493629,0.5981770869631327,0.4601308181991717,-0.8105586193701613,-0.6010833467879879,-0.07636033259017672,0.22046186968369486,0.09871990277207066,-0.4162719238311623,-0.8755965811646464,0.8533087464052709,0.5718754997382005,-9.398866554333196e-05,-0.5448741013734513,0.4374603279734286,-0.19782863820117713,-0.9789541146739869,0.17205859768600518,0.746840873992507,0.9774622204959986,0.5603677605839514,-0.32513845363920324,-0.5905264308917471,-0.41127549504497574,-0.24056210665510047,0.4212610863470516,-0.7396262833471292,-0.26154752875565657,-0.4899430208347457,-0.17507295149771585,0.23866470887553715,-0.6950672986288249,0.5279710781211693,-0.963451799987906,0.6774957115418092,-0.4672384196282151,-0.2501710047550221,0.743202640717205,-0.45431062541958234,-0.00999697164853397,-0.6229617492159385,0.3617767648269197,-0.6223465121567482,0.33087787538887903,-0.8655958822830467,0.8136243836512467,0.2902539396755397,0.6426155995004748,0.46619582937506054,-0.9800227917075186,-0.33543474245540206,-0.6947817185219143,-0.5002254901569843,-0.2322619070735088,0.2632953087004042,-0.3629087377303153,0.10857495188130084,-0.9286834371407471,0.037581487320930806,-0.25802508924463563,0.8863406408710164,0.3914442982046651,-0.9812441492343655,-0.12634679092876167,0.3687480633881093,0.9210730643797351,-0.04023906432712465,-0.4152188854466976,-0.29377846999648405,-0.6628709263495252,-0.5944402308255465,0.7754650775887095,0.2238578104104123,0.4576944116269064,0.08852539211561838,0.8120275881875112,0.8738033522318727,0.445976551798581,-0.038821689214460164,-0.632588686058126,0.39743309326317,0.2669186914681332,0.3778766765974664,-0.13831386380389765,0.67027858773382,-0.15266933682118977,0.542852819456533,0.9173702978540694,0.7059545851302595,0.20684521011854762,-0.5287909446544103,0.9815705046226832,0.341212935777901,-0.7835187531864245,-0.39538694152748,0.31915711625770626,-0.713965032665222,-0.7553947196053576,7.365843671380823e-05,0.2942583684236344,-0.11820161210794589,-0.10330496402080858,-0.5495235597553583,-0.2691038514994881,0.4196465969019285,-0.37546290803307847,0.7740874905189463,0.6933539990310409,0.45102088715890365,-0.4464737688879361,-0.31417544640624095,0.5523479811507863,-0.17754661454724485,-0.32149493179680766,0.521401439975943,0.5722535257369796,-0.21293741898621854,0.8669361548219983,-0.23281313240777024,-0.7032162060857019,-0.5121750963432516,-0.012439043735537725,0.46778683668637977,0.42803767279506566,-0.28183710637744497,-0.7262010805516428,-0.8529059215800971,0.7519077366348064,-0.10471287934947537,-0.1921302173325372,-0.2371515019817414,0.5568093980155844,-0.32347128114469914,-0.37428140602213067,-0.8203368039431072,0.10377485911108009,0.08486781535420729,0.8244329964090058,0.08870568434944426,-0.004353928851524191,0.8893821437406624,0.9108700140820116,-0.7639741702194482,-0.18382202065155417,0.7852531311311883,0.7953897276351314,0.5329425675750947,-0.8756802839512514,-0.20915140055394565,-0.6655501194278821,0.7748475870305505,-0.7030844517464392,-0.8954800315253939,0.9520150855153842,0.8442523415964736,0.00975606044730748,0.4771916981960276,-0.8547996594030816,0.7026056306122059,-0.3152269447466378,-0.05982576048035626,0.6930015779816894,-0.18487248848237559,0.5307322616215748,-0.2676851631487447,-0.06839387565415578,-0.5198019730745296,-0.04530115217475572,-0.39151581732122986,0.15775463467345285,-0.4940614778638823,-0.029058114803014012,-0.2980868868484903,0.8413383654386644,-0.4378947707557268,-0.9951058468379641,-0.5222179140803904,-0.2951741071640124,0.5406189879138767,0.6351083152441961,0.7216943439838059,0.6478060181709453,-0.9437979434685984,0.3420897149604458,-0.8736048815336359,-0.9487705595334102,-0.9846574720129204,-0.4353841524833548,0.7656187053517873,-0.6850938582638302,0.15955771393725593,-0.24342999515573438,-0.2498326325013125,0.6088851078068731,-0.9221333207010873,0.6244741625013739,0.21086990447498133,-0.7474396188590187,0.8082646870908436,-0.2877384283495583,0.4838547516853622,-0.8525581503921327,0.32302232744501413,-0.8057211697391791,-0.8509944630449737,-0.0723825247319223,-0.8596793682558361,-0.6628233049912491,0.8176056674574548,-0.6716428106933032,0.09362644112768681,-0.7840504079494182,-0.17301078049631324,0.4260157397370774,0.6985746221292073,0.6607825120517024,-0.7025822334047374,0.49529344279694243,-0.5091212254229216,-0.21858301633755417,-0.37018039821904436,0.3645049434278085,-0.7911658479474657,-0.24118699367747176,0.6758556289081983,0.7851400393707075,-0.19742672315604692,-0.9450753849137372,-0.8849792859524586,0.409265431640907,0.0034573693831996266,-0.08907479687509601,-0.3338847393385951,0.0980271185392696,-0.042148972950537766,-0.21187142260528025,0.9017935862197921,-0.8244747916449278,-0.7405364422154765,0.8744590141230919,-0.026184579139193698,0.944941865898467,-0.7317510759845725,-0.8016659118582743,-0.9335084172055932,-0.31723856268356676,-0.34011706226665006,-0.17453927791853285,0.623328992987801,-0.23138715494814366,0.28332701983491826,0.8958066738089516,0.8768747348250183,-0.12020216530584005,-0.5054408286583343,-0.27797842260703787,0.5019560320528333,-0.020439468195778465,0.2865764604506651,0.6876556390724715,0.2685758556250537,-0.9308230532877528,-0.5352489505650497,0.0025253267643612354,0.3022320300553196,-0.45728802161568116,-0.9279988348659396,-0.31099551097088973,-0.7750372611464817,0.1766089664540662,-0.5012005164560294,0.32880800166510804,-0.7477386860621618,-0.8423604400553939,0.6505572796147099,0.5519838798427097,-0.784190838698658,0.6902541398011597,0.5768161675774968,-0.11962680459202879,0.9195036210657728,0.005267977499123111,-0.13367584130998833,-0.483087335779252,0.1836439747875751,0.020170250679337975,-0.64105714914213,-0.10168111528277013,-0.5363152375835052,0.5567613152898638,0.6807584839609466,-0.991685356903893,-0.8605826889288946,-0.9715357890161294,-0.714023141738855,0.902272896193206,-0.5382629099214873,-0.8186615066394989,0.7124873654731307,0.24954241549833878,-0.022392109551075068,0.15493320384699016,0.5847226639577834,-0.8829171651109968,-0.21583471476132532,-0.352583019081409,0.04505960392694064,0.9110746169285273,-0.7019708743103181,-0.6698547983802685,-0.8919380071077705,0.6658904288630014,0.36758188451739326,0.685757155650339,-0.19569718011547566,-0.35592237932548243,-0.9474774208922101,-0.9424824334086621,-0.5953052809838746,0.5506783930177253,0.8049532460624209,-0.03303840955382409,-0.8647889109785043,-0.025324787427404072,0.7167867067991616,-0.6416781839133159,-0.44448305799606813,0.6531096780448888,-0.35410220403262893,-0.7657843223433278,0.8473501963151819,0.39699059794022795,0.8863624651146054,0.15817858066453727,-0.41214714269859076,-0.41340773294844047,-0.32388333485062226,0.31486030874928894,0.8094889141147845,0.4672992059032113,-0.9789977554912428,-0.31418687590489736,0.31861497851212506,0.38407595120311977,0.4666540879023482,0.6932236729772714,-0.07042898305089795,-0.9601653207983498,0.12152230543981446,0.7477587508110088,0.29152073946137946,0.7396305354899653,0.8825013903874435,0.3201927012965373,0.25972111212359716,0.6198611331813639,0.8858062819653179,-0.571238507866576,-0.5843052706375615,-0.30859645525496204,0.4542231652801596,-0.07526379088743651,0.20905707060094292,0.4455694130845014,0.08210443283816948,0.6630828822242256,-0.6720293615396749,-0.006988584242862972,0.4620344615940406,0.27052597573422243,-0.34191856762798567,0.5370449505240731,0.9288838641649717,0.5370454123218567,0.5105452171972942,0.045339052111333045,-0.8835886513706597,-0.47119680505424344,-0.48814680938944677,-0.5918762528889374,0.42348905468830234,0.46486256528448733,-0.8971503237316463,0.5694178507280558,-0.8977084869486134,0.5051090878588584,0.9415396283211639,0.25530338031395017,0.11713169869050688,-0.6345617939164936,0.0014889419975285811,0.11197403539374906,-0.05569712945563654,-0.6625517042532116,0.3988514283325122,0.4251181661789012,0.4756696378126053,-0.4159581025304908,-0.0966835222020952,0.6775115645330938,0.23435790797846567,-0.34421321655917736,0.909232256792323,-0.5808000853714996,0.3136395453242775,-0.04388575150022511,-0.10542834534562284,0.298387793674761,0.9904401325229659,0.2221785684215456,0.6195214359257937,0.4472171144232091,-0.758029026457756,-0.48461785285941517,0.4461376741444101,0.114254432996443,-0.8312910823647921,0.44940409431178385,-0.2067017409671601,0.3579140386488293,0.05181148305506844,-0.4312079243292528,0.4221063596360537,-0.48039304178691333,0.4105412935581607,0.4023165397792443,0.19902132243463577,-0.516215495509784,-0.31859866652192537,-0.632873731539582,0.07450329223015739,-0.7471492746479897,-0.14739068300070035,-0.42959968651090574,-0.04301574561732657,-0.20392592642156848,-0.3963780679954989,-0.4453897796107953,-0.9517331381385403,0.650665963664631,0.09500901016544239,-0.9418276964052292,0.7871527471081874,-0.41632561123251133,0.21623832151120026,0.10532269386534598,-0.00039930890883099757,-0.05400371172036933,0.26977920763657814,-0.7375615645877969,0.9026800284867535,-0.8959798088831246,-0.41917348055834425,-0.1335850585982612,0.013002222932585239,-0.8547292512299163,0.34267987740152206,0.30088124581342623,0.6193978687575388,-0.8052005686638999,0.02310564561847528,-0.6047626615616468,-0.6972668532919939,0.6047597136711971,-0.9334661263025401,-0.923099924556438,-0.0052811970386583695,0.5166613629752017,0.7896505274980654,0.4062665374762706,-0.28831051272018926,0.9468500532659605,-0.03305875531309188,0.8900485750272076,-0.9656028144299218,0.734540134731797,-0.31711148877309436,0.3291268834133958,0.15526222358225672,0.7127754345097517,0.9731049419152469,-0.5246844039159515,-0.8352413341005485,0.4688790595772603,-0.08975223740845761,0.15498840141814085,0.3187099480647462,0.9146045965026428,-0.6727980829154467,-0.06321530691015731,0.28298716773377497,-0.0466237578943578,0.45542927350292683,-0.7520721686062215,0.22453542470491694,-0.35525494184806283,0.41759265226455944,-0.10937956069813937,-0.44707106388507856,0.24238543317849182,-0.9785890550450291,0.19455764809477682,-0.8482237125180343,0.2154105019469652,-0.4838802360430794,0.585533690162116,-0.2500797004651003,-0.8983016351536537,-0.8382984611973152,0.7157444890658862,-0.38607416659100524,0.29875532546189754,0.9441704944207707,-0.4110124631639429,0.7445950263881846,-0.4062544998305977,0.8594708312495256,0.4157633692044109,-0.30857602025258624,-0.24639888926896258,0.3710111814618682,-0.6997273293775044,-0.1343395977531303,-0.007881027121347639,-0.884798965622539,-0.0795301808526474,0.7141857121663606,-0.4807015373210144,-0.7958322273994956,0.4546530377347515,-0.4324286530474557,0.43711260221661385,-0.19474040553000127,-0.19658923315340648,0.4241395218419477,-0.24354922376785226,0.9713585464318284,-0.23332477865991352,-0.11248925283639721,-0.13174876212723996,-0.3153474571161168,-0.9303857602354395,-0.9207147592155605,0.5682824321997721,-0.537642875390141,-0.4833385937483483,0.8810257814338163,-0.5040426362728099,0.9283224745639747,0.41018193097888855,-0.706310335744897,0.7084071073573979,-0.4193831719316643,0.14582589456585193,0.5018107400374623,0.23352382645261716,0.06566236582897633,0.1746929647681703,-0.25449893317425354,0.10518631165020631,0.05936496600515029,-0.6030835230945033,-0.869921173023203,-0.1486679179208119,-0.9264033942014613,0.6558296731494222,0.8145394065738949,-0.178485893424011,0.8877607106241572,0.12448520020131926,-0.9640125264587549,-0.29195314749826506,0.28640729804365717,-0.6777950633364922,-0.8077833482123493,-0.7346361884311459,-0.35753219693272364,0.1936998910921337,0.24254830012169215,-0.290786970303212,-0.6800944856766571,0.848329239418907,-0.6198052211459215,0.7325598403062681,0.21034543003039197,0.6746468027709105,-0.8109964873522055,0.7048867507351055,0.4230759226445895,-0.6325825633169406,-0.9909675329824281,-0.129396542261633,-0.2325740674593184,0.38149987742228486,-0.25635383701444936,-0.16373683070853917,-0.8263395758791261,-0.747051243922529,-0.8603322475835955,-0.7533265547138304,-0.8065438813649533,0.9619985192723375,0.35461539156389366,-0.47221389836238714,-0.093506715328882,-0.3025450270184038,0.5487439615527328,0.9378732036566679,0.4182113459553982,-0.35198694117558915,0.253081484238995,0.2600469839881796,0.30384470869363,0.47007924680247304,0.11299190261554393,-0.5755409679894179,-0.04838899719591172,-0.8548371403877648,-0.7669496557937021,-0.7765478510238026,0.328348715246521,0.09292467334554577,0.11105892358053371,-0.9241591172723922,0.36737279682688206,0.42197596168806495,0.928536157665458,-0.7198948337826789,-0.16224284999339145,-0.008198357154055813,0.6322942610924751,-0.16893568347701304,-0.460086665639178,0.823393853298477,0.47473445794235114,0.1621350318264727,0.8837417867085413,0.7079721748542174,0.9301930789317283,0.43475093105653273,-0.05523442955588376,-0.5788507367489106,-0.8476690243994061,-0.7366601586103534,-0.7905772865253191,-0.0803335880005771,-0.18664507702957045,0.12948812156800749,-0.4812531515469036,0.3595504679965833,-0.6817855370133945,-0.48101591125046084,0.9423396480707429,0.5837477406801945,-0.49604122866905254,-0.4225433554605842,0.8276716977534522,-0.9108058952381055,-0.8479505882827676,-0.706100252975425,-0.98667218882588,0.4589164919459692,0.512335572325058,0.5596967066684804,0.6880395160038839,-0.2071181453041342,0.3508475210125954,-0.711008170520044,-0.39990233495829175,0.13180495572387896,0.7866043054875247,-0.8191294484323479,0.6730358162825505,0.14178840283263772,-0.7808762204621005,0.7104187222707916,0.25632466100733864,0.8973287795050264,-0.7825076948470842,-0.9753883817496243,0.8885101740875385,-0.8552579561230909,0.3594751927546789,0.07140525521043295,0.767140326965412,0.6123746948309479,-0.37256415714364866,0.03449126553874127,-0.7117135951351787,-0.6320506315953447,0.8872395197577627,-0.6887590689460312,0.8185410324307982,0.7101824436875728,0.06782928502408359,0.3178335937474974,-0.032788804346882694,-0.7234619389874706,-0.7763297497871271,0.84257428740972,0.9038670860979765,0.22781263401585838,0.6922498386707645,0.07716718157771374,-0.6331970102975062,0.28623842655515497,-0.8696142829876274,0.8608247629997114,-0.33105686673517676,0.727598541881902,0.2892050130234849,0.12271648482289588,0.8158657491370365,-0.5750147148407241,-0.41744556804361554,-0.6847244839456872,-0.48911311977777117,-0.05725330600065348,-0.0633277415614375,0.16801095541613953,-0.6631987575512257,0.4850192312061137,0.24739670056411267,0.5972007833307882,0.5214926223454757,-0.812493257301679,0.9759635952999159,0.8861561023095736,-0.875671061693007,0.18132296275547,0.7234321622302666,0.40847190157359314,-0.045330068497954734,0.23596383398191945,0.4572866332328829,0.9329700132920149,0.7206896490294914,-0.4578294500169411,-0.08642395263047753,-0.32071995384078944,0.24402541622887663,0.6217344869389891,0.5055431846396112,0.3358061171834179,0.9762844251235823,-0.7768365573304956,0.8118242526473307,-0.6263949758952736,-0.12021702936947154,-0.2636010459999991,0.5073730384849535,-0.39034722949991063,-0.9131408259701634,0.4452971132806043,0.11564680757957824,0.009287634253359878,0.9712187945377078,-0.6366506238147218,-0.25054400581973413,-0.40694426640928194,0.44799174996559543,0.8907880790645923,-0.21358775342022684,0.9922225854899547,-0.3451081916413141,0.06765121114989303,-0.4848943122613629,0.6895602035452852,-0.3661409083490348,-0.8253443695262057,-0.8852341530409533,0.601342019710684,0.8362427095085878,-0.18611726479108825,0.5918186193552804,0.3931648413347464,0.5862696007441557,-0.8677873303861949,-0.33408849636492444,-0.18850409638015653,0.8823184820786851,0.8755921430328344,-0.27893469934260806,-0.7715731521842586,0.7103377495014827,-0.01178654657774647,-0.7578580272951203,0.5980026272125072,0.6422717715303712,-0.37655969151239477,-0.8547254904515158,0.5948589777707858,0.04970169579707906,0.070317316814267,-0.1761633422634914,-0.9676345306739096,-0.22911345829773588,-0.06583491079886361,-0.5444468993222582,0.2790528743161833,0.2952436787698718,-0.3240256316465957,-0.657089662137732,-0.6242242630479478,-0.8855857922496202,-0.4541673768340051,-0.7216565137118098,0.3203016787688897,-0.5770027479087396,-0.7115898186430198,-0.6520463609744589,0.8080049000652894,-0.753394829967251,-0.32960147678134266,0.6411276525276284,0.5734952998146605,-0.7367105468885928,0.4809709955550394,-0.041625505293879206,0.8769160607572235,0.9735062109423591,-0.6806695108894607,-0.03282466309771048,-0.27356739376953243,0.6397851452715244,-0.6896330787921869,-0.6564566527928839,-0.8147185748640076,-0.7758205177794624,-0.501741818695514,-0.5047433848306193,0.921678799682786,-0.39683991639029115,-0.245446628249387,0.061285036542843674,0.2556458672333306,-0.4251025489257625,-0.19976085865941995,-0.6553808481541179,0.08218555890513657,-0.7086069540790874,0.7406558441615292,-0.10829174575784761,0.175511021085206,0.5452675656690655,0.7221871463975864,-0.7712665721476468,-0.41279658150499143,0.3454032237593614,-0.7443413576135909,0.6379311836750179,-0.11061603698029687,0.48061013101755257,-0.6626434983540632,-0.6901434832756159,0.20961864160793553,-0.1828425335710402,-0.425756283284908,-0.5227861935841831,-0.9654079383043248,-0.3333282940730422,0.4271019191639298,-0.8129528253576936,-0.44299626438408546,0.030895440908775385,-0.7030545587055628,-0.8598753962345487,0.7012254795963158,-0.7399114418451367,0.6432866301028854,-0.49768117768735287,0.7061529447567552,-0.48689046219132814,0.4293273819220791,-0.8745931171632242,0.4523386154295508,-0.6099755784191097,-0.3584610386354823,0.12502834045193545,0.28345605899952786,0.2663997375867073,0.7526667691614635,0.9522985059277704,-0.6086993773089076,-0.5517190180791676,0.1377124801055416,-0.44649826574317397,0.4113965670697681,-0.786162911305964,-0.7002395175233274,0.5412644168959393,-0.2233533991315355,-0.9604111750759232,0.2942392082543501,-0.13110725205928064,0.5250683793246573,-0.3825152178061133,0.12389160270005428,-0.41236501813745763,0.007076426253037171,-0.7067060915789842,0.44068196412294824,0.18391032014894915,0.13768426861283412,-0.2837776459468604,0.6850852665110898,-0.44699454069566524,-0.04958503752022847,-0.3060810420855651,0.6544027960128638,-0.5937129707757556,0.6458797884005292,-0.2945625917831265,0.976331085754159,-0.5284944606235742,0.16061907543893827,0.18388234823526894,-0.3231196426708278,0.3336324143001914,0.7255603655067138,0.45032082405552276,-0.12053279254356175,0.8842805202216761,0.5313619219976087,0.2224210391107253,0.6035715653461209,-0.9666535007596508,-0.08741987650800964,-0.46682153369198076,-0.8773520354555364,-0.9104025387004662,-0.10197859697461586,-0.937688809199783,-0.16205412057374002,0.004407621732500866,-0.9219555655160743,-0.2615676045447155,0.839301729043139,-0.6189330752253928,0.10450820263667326,-0.4072324630730626,0.2772938982226436,-0.5936042333407443,-0.7090295554599693,0.8357103948883571,-0.05374047130784976,-0.1967292816931574,0.5354088664520107,-0.843193372470018,0.5996907964906197,0.5777615015645419,0.9123202789145042,0.6972695828686934,-0.2922603000312465,0.06643564012198233,-0.10914405757146528,0.25087053963917816,-0.2835943550922433,-0.28266486499644317,0.6593171258969655,0.21126574383009267,0.2009150368204895,-0.14520518128284876,-0.24962214927919812,-0.6595994472691953,0.5208713416121664,-0.848320119427588,-0.8886003254671195,-0.7786585750907944,-0.14561347870144292,0.49886940328619933,-0.9687470789300707,-0.20958912751859304,0.4118621950075496,0.979232417787931,0.47022169122071955,-0.45971427302342804,0.8279625193785518,-0.712105133902313,-0.8063372853869597,0.7851366350431133,0.11512189684930951,0.9814824641401174,0.13353787936188577,-0.8956645375561669,-0.1569856176100708,-0.6122715425881986,-0.26291272723906767,0.31095756321529233,-0.12233600662209354,0.6459900073185609,-0.5530307004516493,0.1505422320654206,-0.14574485758763234,-0.05169445488574609,-0.6346009704037374,0.757730420640397,-0.695226725252988,-0.5751403471423833,0.6414382694293557,0.18761008076486574,0.10397140256316284,0.891830059404658,0.5885473722138466,-0.14061130094348684,-0.46033206675881644,0.4059685170835887,0.7816145184177683,-0.6354204630997184,0.4900283267363048,0.8479027518091313,-0.7337371344430237,0.19964874053651283,-0.10129770461789733,0.7685249084432322,-0.11293165454102838,0.657575580387832,-0.057030426478587914,0.3908879579229958,-0.363061831460751,-0.8275317506821933,0.2702707022074793,-0.6962844969141995,0.4439654566720952,-0.785045796075887,0.3116625103024593,-0.8511742770035291,0.28294693257506753,-0.7837918473566783,-0.5539809601540537,0.31886169874313475,-0.7370770870386041,-0.8421214517904385,-0.4990137671374504,-0.17068376758861947,-0.9647783128035816,0.9843026073932792,-0.2853244427184918,0.5580004886033021,0.9096586074970283,-0.023304941127761714,-0.9868939330149502,-0.5403907322704031,-0.8054554029938077,0.6602390933269915,-0.6723275054533229,-0.39405354455627006,-0.9756690766157159,-0.7083575021392248,0.9660176560211784,-0.9795579586174799,-0.6732677302172978,0.21249627888174327,0.6260485075944513,-0.8211665927297291,0.30757265893098573,0.5814099297066211,-0.45689372712504794,-0.9578214798631428,0.2911891697113205,0.9146991948391714,0.10377833077914755,-0.935081543212688,-0.6595947084728173,-0.9519073336229544,-0.4867804089687473,0.8825517888685306,0.9480010590613661,-0.6117099828161965,0.7870846356170582,0.8618392296147057,-0.9078999887819423,0.9690050946423849,0.378223023876185,-0.6346128035478336,-0.6098950615073018,0.2944236742474524,-0.8202641125112442,-0.4922609023219904,-0.45683484601714497,0.27656892051933024,-0.22416187705476953,0.4596359107386796,0.24316053934347948,-0.36595810236643045,0.8145228181129631,-0.4685296282664515,-0.1393517977332115,0.14082729488106338,0.33882893365697386,-0.35809192910192644,-0.7138262889243168,0.20224352028274062,0.057117341882516826,0.19209644205056486,0.8864370684186627,-0.03831968014290532,0.11413088287776807,0.21310169645592536,0.5820009507836286,-0.008943297291798435,-0.5868938967440391,-0.9806487829664012,-0.8043461187269394,-0.10113792829185453,-0.33845130325912787,-0.8148000861559597,0.3247933409314656,-0.15680293816505353,-0.9714887246013224,0.9793536926100812,-0.6829837486444181,0.21126941076492467,-0.6847432691391446,-0.5074294638723482,0.799667403067305,-0.033011894368071504,0.5973226540420249,0.8259980172746486,0.6827136991150418,0.08498382972205554,-0.5021768841592846,0.7710919146220583,-0.2526452197732809,-0.9279375259157674,-0.898551841803032,0.6439768526125185,-0.7114981508428919,-0.5456822468660061,-0.8210913950504501,0.7646013538958407,0.03314825096975804,-0.685383398748846,-0.38675012646748375,-0.8328233730398309,0.17833740068751314,0.6721142882533195,-0.9938782636292975,0.061983598284300445,0.288116274786427,-0.6619572958160118,-0.9451676957125521,0.45121591863006105,-0.7092869054521502,0.35352305420201424,0.5505449102738424,0.0015127766258149489,-0.008575124480016294,0.9054941097875384,-0.23653730073418155,-0.6919857552850759,-0.02559039742868796,0.4308405394380148,0.24274749422619757,-0.03570652292457477,-0.4441269111789983,-0.6491640154536127,0.10476740370786475,-0.5326071061247202,-0.7202506659918884,-0.7679564735967468,-0.5508824502839351,-0.8372068538834907,-0.8721305350178195,-0.9505063358380992,-0.07217835174329013,0.04582388208491284,0.5889131525261453,0.6212996736524914,-0.6036679801465734,0.6299746384353078,-0.7490470896737944,0.6705254357410231,0.3957000032829381,-0.825992265975507,0.7201961851823557,0.41655690246425325,-0.9409592319573055,-0.7699650431396934,-0.7423173762760993,0.9919228887035489,0.2042027537695581,0.6478535165737478,0.794571337799993,-0.8815865679602837,0.5898089783774207,-0.38147143464999544,-0.9157002679247759,-0.7551051071168107,-0.9360115346975229,0.43893569080880535,-0.62661359923711,-0.4403804389912136,0.522782388555707,0.6233124224727107,0.14648277667339937,-0.8205075439830776,0.7578977121868229,-0.045455832017883724,0.5688809820107423,0.13357960462328644,-0.9547298113030804,-0.004217067288353249,0.9492581053049711,-0.28474112164974685,-0.40755028103771695,0.05039888931812331,-0.676732931858079,-0.2842464431247711,-0.057331357953029016,-0.4205543600689303,-0.8042518402309116,-0.9684210107034112,-0.696045400307223,-0.3876096771389479,0.49459476503954747,-0.785326974569291,0.43404958907447777,0.47596842398617856,-0.8144414870270456,0.7965542518755986,0.3380844639393865,-0.28377166314051583,-0.7740184445529481,0.7604600960936903,-0.5291103126862675,-0.39632931259900817,-0.3163675517810971,0.4276337361530622,0.26500545224534333,0.5290463715538201,0.06095101197057029,0.2564079128661536,0.6014827358808592,0.25746604943854456,-0.3119418450242968,0.4526317201605867,0.7035436760666809,0.3958507552887758,0.7225293778014292,-0.20078909096630748,0.05357765535393799,0.8716890357065938,-0.4876781346592365,0.8484954776910558,-0.5679502601312969,0.16829885521033794,0.485901319587293,-0.9624217757911235,0.9896851503592363,-0.6899216440475286,0.038177565799787816,0.6152912432352431,-0.6409006507151269,0.40442924012639314,0.5524582434461076,-0.7129173636656789,-0.7643176593764616,0.07086573179811317,-0.23790686262389582,0.31987237503437926,-0.5681848248686849,-0.5359622149555139,-0.20631212314134606,-0.5448930313611553,0.4488578072465157,0.4464247133740038,-0.7354657342661066,-0.9632778724900282,0.9983545678164127,0.20616572343031203,0.2264236396379895,0.6865069341862773,0.3792353515047502,-0.4303556254701115,-0.26382623155532214,-0.03768758441276199,-0.46613424163448536,-0.6869953758958709,0.6639873148973505,0.8002083568774305,0.9402073187297717,-0.2513550554994446,0.8725075329624505,0.06367721558822304,-0.2774349097826061,0.20185562381485078,0.6783110686433498,-0.2824941562641041,-0.4675200285272878,0.39732326806587226,0.010912882835168114,0.6103557197536882,-0.8000023648444661,-0.0808935000539921,-0.5458405962887443,0.9697686978370805,-0.6478803737748864,-0.9018743582783075,-0.026415944539480263,-0.24614694591455533,-0.3528771159811459,0.6494176581163424,0.6918601926690908,-0.25814071467431,-0.32575620259312554,0.26193621295915936,0.13964639038009086,0.8631086518435831,-0.811848881159356,0.25317062207693786,-0.44661732506508534,-0.9469191498064009,-0.5486531771547567,0.12390522667233039,-0.9785418806140009,-0.07616398170082839,0.99569975298275,0.9932967503910854,-0.28822917105559975,0.08933655240674554,0.04140011213529382,0.35332037837566577,0.006603041730212755,-0.24120789610438886,0.5302001462708874,0.8356766046363975,-0.5625312167033589,-0.4855963468654856,0.018423343330657094,0.5374522200544376,-0.8592572541418995,-0.8629897677734573,-0.3890964304484479,0.7514044715662094,-0.985995305901554,0.4720234534115595,0.47623253111113706,-0.33327109900291574,0.8644129559438181,-0.39530188325574867,0.14484703708942948,0.26950866650205296,0.1950753321538461,-0.200386842171695,-0.622908326139965,0.8887557199523646,0.005425766897791284,-0.6219437453501004,0.15962727982611868,0.5039378178528964,-0.439167047893976,0.8987831657625565,-0.12597872097555296,-0.40483558548887766,0.2202397399563356,0.6562825555127536,-0.18406329720359893,0.2075289400299345,0.8704158615557656,-0.5644211489690567,0.6039638264780032,0.5920463056629055,0.6467766539811617,-0.7486886677012397,-0.891043238966577,0.07847681915228422,0.29507845908228014,-0.7077675126084846,-0.2843429965276183,0.18291443661136997,0.5946960506280088,-0.7161508146596127,-0.980888234896997,0.8321890057142092,-0.9762483463833289,0.23391132091512956,0.8173447607584088,0.28715731941347933,-0.9573817051834601,0.1540757375954771,0.7880638842047474,-0.543181677285943,0.39380574382479705,0.728326975780285,-0.19057376892421907,0.46041861159121455,-0.07702346424178796,0.6280357227844711,-0.12852219162094092,0.7957639784852892,-0.5288512677946211,-0.44803603155645444,-0.2547292715942102,0.9746777554839603,-0.02660011786009897,-0.05600357446186566,0.3070445782410487,0.4232866338967094,0.27526646651316744,-0.8716050339200958,-0.4297687038068907,-0.39581924639336274,-0.19412604515416576,0.8981172931323209,-0.7970832319435965,0.9944410513029949,0.9095865138404278,-0.6760169757362244,-0.7756165717034742,-0.915004488197684,-0.2168470256311279,0.31313725223979416,-0.44534541127880556,-0.4633295845898875,0.809806747338079,0.8753041148659739,-0.031534529630707464,-0.4965033035162234,-0.8557026378372594,0.8507434520348569,-0.08967971102958794,-0.11392950201588636,0.9298870650667357,-0.7078808204576761,-0.2923658978216146,0.09669732194337222,-0.4483852211978514,0.9035108337959032,0.2517427555812568,-0.8978791193784117,0.49576039443877806,-0.5210930159732028,0.6159306342831998,0.11611346205710449,-0.30383400532597027,-0.8894524242043285,-0.18974205085570106,-0.10653379477233238,0.7556665526909525,-0.7443805486697601,0.1292237430251817,0.7931540879602916,-0.6695466229052787,-0.6842745942679094,0.9881019513837757,-0.5128143627690172,-0.5448591219208547,0.6022115119345366,0.7342193408210878,0.7721941284496254,-0.6493966898216164,-0.8651664226274627,-0.7931215433279002,0.9178854176887232,0.5930478866959663,0.8389561558833039,-0.9659530086718728,0.8295633715880115,-0.6143772694191725,-0.24343829776945825,0.13422169260274464,0.1919218848903519,-0.39777400271820684,-0.7132069560317043,-0.6240367125419939,0.28335938912855063,-0.016731259823554057,0.5676805679374699,0.5371965951661994,0.16463378196242506,-0.4158906784459451,-0.3459344694754114,0.07298905912028997,0.42741004806080163,0.8062141814803874,0.8446532727786118,0.16533239156994872,-0.4299296275421778,0.1280565146195849,0.6119734373360199,-0.8226879643629497,0.5357367761599692,-0.9253813996539222,0.5747506111356748,0.4636350013533186,-0.8976753623169358,-0.5618235893202117,-0.9088930084899889,-0.1861817778588002,-0.2710515104861362,0.7192834790915554,0.24573950307874148,-0.14255823582992488,0.8155486492744175,0.5310831697248017,-0.995972919435115,0.6363586955760638,0.7907714231752798,0.20558770742325017,-0.6820675787305988,-0.7645740497101878,-0.934542325964296,-0.12517265053760696,0.9317501930104397,0.42473631691211944,0.4103565178402635,0.8324479173796002,-0.43830454006029407,-0.7705145619436877,0.49403082854968416,-0.8796266517147653,-0.6905244183041457,-0.28228702424316165,-0.06826781681364791,0.5304570975434324,-0.9061996621939228,0.9086613853767758,0.31314408672019,0.35000846324647794,-0.35425936190275675,-0.5023674224286829,0.9730589071267808,-0.19802439565196805,-0.38837410946765605,0.7733635821332214,-0.5915344270961953,0.22674545504876065,-0.5036009115381566,0.39496272050862946,-0.5463507852203582,-0.8949292904125736,-0.7561715343492108,0.33236602581643115,0.22478370042207008,-0.11004529079282932,0.20930378928116755,-0.4602331346978201,0.1928515999641307,-0.19908750233160855,0.19532178439419656,-0.19467768802862695,0.8705632953637792,-0.5087268607539512,-0.647316330744846,0.06901068986593906,-0.05307965404841042,0.9915542217840771,-0.9211164844596265,-0.095647069001916,0.30216574532130713,0.8492048348060424,-0.5614538041028054,-0.46951652788056664,0.25203948074911664,-0.35452808218715726,0.8679212634158451,-0.8386744154227157,-0.1253498172179517,0.22558163121128127,-0.2071448058990244,-0.3676575583245314,0.8745182761908434,-0.739661077161013,-0.8885343271220218,-0.37281929437794714,0.1477630873334086,-0.4401591523180597,-0.5863684085186416,0.7991942801048046,-0.7330618164004785,-0.46506832002421405,0.11033158456181669,-0.6291937109090895,0.625294767676349,0.49765318028225836,-0.8375287905820366,-0.34172577953675765,0.5951254085751458,0.4874692952131636,-0.2233131974442497,-0.0968575277486996,-0.642805927334726,0.846577915375758,-0.30292816252960697,-0.25667388300321625,-0.6583711046068601,-0.8732415905896285,-0.5723360638799677,-0.7535305670490982,-0.9579867175643064,0.07107273705701433,0.24250853549294327,0.3335640975613592,-0.9833646631348123,-0.4563129977525855,0.6480373033774098,-0.5048821604510092,0.9913949621304363,0.3864009385188498,-0.8068934583773184,-0.6496670298407647,0.9645392220714799,-0.38853034849472645,0.2512767259372426,0.22899761218004766,0.25642419417891027,-0.4175614260317819,-0.4163796513101816,0.05240408643898786,-0.3119075068624606,0.289795235919039,0.5371389849256274,-0.9119655255162786,-0.7405001174242023,-0.7787476125031803,0.5956413708891135,0.8080171224469455,0.27673322976105674,-0.9198957866426025,0.7796481391546062,-0.5041302414374262,0.6817801543276858,-0.5000082808586226,0.8106166021519026,-0.36739664556594476,0.8236394264711746,-0.20549136068042229,0.3237316868815503,-0.16500151463690838,0.5310785115817924,0.9261682315582753,-0.9583370843871852,0.5303051974373882,0.8314258491476021,0.42127140289784126,0.1531219801406032,-0.6236578372308628,0.23975879978422432,-0.16311522964712966,-0.17013063810014306,-0.39783649993331816,0.12158840972769247,-0.23398425586367577,-0.2100164845090513,0.07375871114087951,-0.18197234960579944,-0.9069836572145564,-0.26525627617410485,-0.25802797006393896,0.8845744783159843,0.9654898628928319,-0.9951305092741227,-0.23501631596335026,0.12381443827625227,-0.3850466296229842,-0.20524970392699604,-0.1415094229631657,-0.17781150295681014,-0.8669846201444398,-0.09267610175742003,-0.36786356535309594,-0.9748815981034695,-0.2991434919303424,0.42081330097982916,-0.5711044340509768,0.867305117581012,-0.17964826495007857,-0.7122721735025144,-0.10237840507263929,0.14210904721827955,-0.030515304059856252,-0.5937985591469122,0.9067264686860315,-0.9725552305653302,-0.2262430402000284,-0.6616185713287226,-0.10880284408331953,0.0618909901131699,0.3347838620577077,0.7689055834138141,-0.2317759751081443,0.3190864371879305,-0.442330524429845,-0.3198056117451311,-0.625975549151534,-0.6071166292781462,0.4604418607083576,-0.389044004929189,0.6501387763292821,0.40188979107452316,0.3251899087045511,0.1672267686442619,0.17967948331208716,-0.6436927010615998,0.2350644750328439,-0.5566156790475674,-0.9743237078497533,-0.7172869123974237,-0.6880172665918749,-0.7766213240370496,-0.6735990799542892,0.11274273229953713,-0.36468978728795887,0.9582105345176499,0.2886484579697637,-0.47648061598569247,-0.3945811722637176,-0.6751592708225171,-0.4296210023351421,-0.0004055808890666146,-0.730350370729878,-0.10267155184235666,0.0462375341483785,0.9629241312144172,-0.5939128989309042,0.2861315242593383,0.9952589023920553,-0.37560622536651644,-0.46824364231215165,0.21132471844832335,-0.32264025870323754,0.6382090624243111,0.06762577099160616,-0.38884153605187377,-0.4894555331106505,-0.5090784156423689,0.3785201358184975,-0.6068777625623858,0.9394808528146457,-0.025040324500921196,0.6297602512796354,-0.3913303171996678,-0.8787337368104902,0.4025753778815424,-0.3080807233254075,-0.8546870022875948,-0.07523433672688618,0.41917874788076914,-0.8563793979952208,-0.1120890687358449,-0.968853927016579,-0.7590038906866199,0.421749929723626,0.34973065149362337,-0.6084858992465372,0.5986497112300146,-0.11025491046173963,0.456630244209731,-0.0685762513809205,-0.45709075117386444,-0.3850771684096659,0.8095118575150917,0.21881729489624324,-0.5695549628451511,-0.9013867425164541,-0.8719435550781662,-0.06498273393393172,0.3131009473088924,0.6487901180910318,0.08625947379731991,0.27024009401753335,0.7422211102983844,-0.7802978219941976,0.7343770395365805,0.5314724181584141,0.6963393596112144,-0.5818122352114798,0.6597715639544401,0.9807575942680811,-0.32196762176306093,-0.6319912374200123,-0.42533408937498507,-0.405048247230517,-0.9809798437793671,0.14041242840548973,-0.10819813852653404,-0.3633088657342851,-0.7478441357819983,-0.6940507020459563,0.378984103749866,0.8767360680890892,0.44988366863607765,-0.28270389759405434,-0.8836686158945197,-0.5179712222977937,0.26367214533110994,-0.38058032071253267,-0.9518152080702016,-0.48304042928224566,0.990663545997934,0.33910738440805677,0.2934575784875064,-0.3583876812592841,0.12253468950946389,0.3711513225707743,-0.353689827594186,0.8725601800952576,-0.15226217726695412,-0.9555504071287002,-0.35999516016968003,0.4045123242876889,0.86752086739403,-0.09416806634375141,0.824963700592471,-0.8253076543614857,0.710521438690658,-0.03169591683791251,-0.317867452535018,-0.08004178707004139,0.8879689373904736,-0.8170072401476818,0.12596918685073732,-0.38266347415674007,0.7362514856878426,-0.8757975839075005,-0.4483511594054135,0.5118550947620182,0.38207593281553986,0.8903545050355341,-0.8846294727726425,-0.8264488317338483,0.9139154017744757,0.7014202753610326,0.3768283110080066,0.3638757116178293,0.7561819474067402,-0.21945834301586498,0.31694129201707977,-0.48882309165775006,-0.590535764631521,0.5479708523462921,-0.6217910149791677,-0.7616233424512087,-0.7537217210494009,0.4311253647884161,-0.7252663924738785,-0.6564710599030199,-0.8937362112580907,-0.5608330749135486,0.2766856239781652,-0.7959456159897265,-0.9599340072343623,0.9216752006490487,-0.9342730016502907,0.7115552653089168,0.5280382177677645,0.22108387232737514,-0.005571886666296377,-0.368882726410217,0.33684658236069653,-0.3568554270598183,-0.06081292683767381,-0.5008068886065888,0.7876991148999815,0.21011835266300727,-0.45610224918529796,0.5518900324434166,-0.5599708646508583,-0.7312743912600621,0.5973341403364163,0.40164861465557933,-0.6198511001980069,-0.4645075318717786,0.5393804390286949,-0.6944060840288344,-0.6014054891132572,0.8402787989612348,0.5706807212890697,0.17134384097347044,-0.08729301507573295,0.7182314000655574,0.4022806366379439,-0.8092467979539386,-0.6707022837759187,-0.6028094362048972,0.4266576267251001,0.9014413457960457,-0.5651246142154378,0.32206574436929936,-0.27461790300434696,-0.8088286954165735,-0.11954881097982861,0.8107674354486691,-0.45994928882074926,0.729885936602757,-0.9963274454603095,-0.6825916843685351,0.376941832704357,0.33005217119991737,-0.8403198814157564,0.9187736793744214,0.5497794441506765,0.32362205396837096,-0.12778243799976252,-0.6242217177832721,0.1539794360822333,-0.6822265459543544,-0.3715902172851131,-0.278688868856521,-0.1892298575169662,0.37581036103136967,-0.8059760151223478,-0.18788561421350547,0.9686323574032671,-0.3424127156929322,-0.03897650578493694,0.04411518339328735,-0.9602590435315819,0.5720751056804538,0.2668675650734136,0.19065711364696458,-0.8924683718588231,-0.3056013176553283,-0.001822808629242667,-0.3230815247025931,0.08824272428558233,0.9201445932598997,0.17053056002482414,0.6232201846459349,-0.900806581437583,0.6516580192754924,0.4149197775806346,0.3562295176061394,0.33077318260416977,-0.7777799478816763,0.34748355520101004,0.00599238213218678,-0.16890729177816688,-0.9338248424884388,0.14934090083096652,0.10906757524235022,-0.2671776353176025,0.7210288205656754,0.7476474681722414,-0.0654001730830771,0.6801756568179904,0.7058493996463082,-0.9861684124080892,0.9960589577775711,0.20515020235358028,0.0700919295373228,-0.37657527564962456,-0.595852516840979,0.05659756566266072,-0.9489129402914878,0.20615383742815796,-0.034513413424335226,-0.6713914286276783,-0.3257770222716716,-0.06434095197927103,-0.22459238731029263,-0.653855790094545,-0.23512691898656235,-0.3342947116671917,-0.479615831230769,0.9407857374503334,-0.8031940995752609,0.7442653994238784,0.27977774328499616,-0.6208759940306383,0.6021195522842762,0.9897374427828871,0.9728106607919453,0.9581715142567238,-0.06577144477256591,0.8729412982118723,0.2151566885106846,-0.563974701363537,0.4652402738194197,0.48962744762701127,-0.16039780502638878,0.646430333393823,0.49613389163459076,-0.6912953436320166,0.6548164311616218,-0.5158274191686976,-0.3807336427135486,-0.7670374093553296,-0.39347452716242315,-0.5691936120607668,-0.27534127889817506,-0.7231010581025388,0.9495960822786018,-0.37627365184576433,0.08566262839891725,0.044354199426155594,0.8141603144852079,-0.6064731163967731,0.8613943647220366,0.7132440763238028,-0.7729156150244851,-0.4793987037594929,0.4565229025324491,-0.16417744811334578,-0.5423101052218595,-0.33011339545567564,0.9952539995143475,0.10813509190024195,0.6688680976013048,-0.9530151495327397,0.1530011990754827,0.4876626244222091,0.1291601075819584,-0.9230690598631082,0.8711399798655666,-0.13625089717857253,0.088415974776612,-0.9280815593081388,-0.9435792291612288,0.9906057261555121,-0.021195969773361245,0.5262222812499737,-0.01635605516323113,0.17918808943347075,0.031567646495570756,-0.555758991226647,0.6603548253782694,-0.32705092848941253,-0.8143601225523156,-0.946431910818563,0.5170744943916943,0.5479010747490687,0.34292509796440385,0.15931199128552276,-0.5980500068632009,-0.5508217034579892,-0.3184401316725016,0.7598683440128975,0.1576942897741198,0.7059142552784676,0.7142632195820133,0.140521409936462,-0.40258213138518206,0.46589156579297186,0.9036717767073108,0.6386921255055693,-0.4085778075914259,0.5534518609513861,-0.1002111908875909,-0.19696728997927138,0.1699395228283993,-0.325407006519284,-0.962654616665976,-0.5230926030949763,0.8324110143774943,-0.9596431428206689,-0.6661628746368522,-0.21422367106581808,0.806603414961337,-0.05548680980324927,-0.5789619853368793,-0.8795756580644887,-0.12506991118376964,-0.9472723657021584,-0.1977140169166416,-0.8926439921172906,0.03921094073984688,0.9626805381415873,0.868669750145104,-0.9840596424244434,-0.8031898838470468,0.8207843826658676,-0.576175518053174,-0.5798841402327384,-0.5552268952802994,0.8856404262630537,-0.3091081777917515,0.6135267185810287,-0.35253951233947967,-0.7498997243352035,-0.34688642899199396,0.32695027280293987,-0.13194352625200034,-0.07321467283643335,0.8941913463078084,0.9898198120004673,-0.7856688295755696,0.9649993616984418,0.6764391062777009,0.5253542475853084,-0.6348648392735687,-0.535452744743586,-0.9657229330012405,-0.8221393513543458,0.1080781606173451,-0.37923611372663824,0.8450046214141458,-0.485774717212194,-0.3177222516194136,-0.5093723925806728,-0.8435997900974828,-0.8921569328471344,-0.16044589944412868,0.10556824634747541,-0.42340906457429406,-0.01219062924281955,-0.4507895451407484,-0.833831800844749,-0.7580044608510268,0.8304296290875965,-0.15783707233656208,-0.7753022862700321,0.02985091856357025,0.09625958211452024,0.4841025707329858,0.2388499210239372,-0.49314845837106636,0.13933253933723844,0.5455195714357772,-0.4127882877756748,-0.14274903742514322,-0.47437159204643176,0.510265861992522,0.79976299306286,0.4905438825798678,-0.21799834960857156,0.08364731831410754,-0.6640128780534913,-0.7366256971765832,0.8285257462621507,0.2098784078715894,0.9255018961013126,-0.34334591636588185,0.4030750989112444,-0.953062406587349,-0.47666373952102514,0.12550473810883545,0.5365644364913014,-0.2663270342012798,0.9919608244728784,-0.8287309098733335,-0.5757390239018385,0.721356212551765,0.009982876028032939,0.21940359197660508,0.7407864138949432,0.6146670617470991,-0.38845465894589415,0.169665394822762,-0.5205915280881817,0.5061542318600727,-0.34982757597282177,0.2759997921680182,0.22997538886828806,-0.8159461932122409,-0.1060852566951267,0.2970050204561423,-0.6698526782624072,0.6848645645126155,0.029619481968990113,0.767150932298414,-0.9698715837392504,0.9474811639980654,0.9628808382563179,0.07448993167986706,0.14034843744378667,-0.07166912639547451,-0.8120470125076278,-0.7494732325255506,0.5686262942543407,0.6730768725474008,-0.8616280551382156,0.6778920865261311,-0.5514582445006573,0.45916421794990137,-0.8585219891722484,0.044202577854360214,0.9056102641396595,-0.03913847494598666,-0.8726334808128815,-0.3537722194659523,-0.2081306591971399,-0.02279377983562081,-0.3575397235725024,-0.2117840546098828,0.28925796371388546,-0.9709979050702666,0.6662228497027254,-0.021752771616434297,-0.9064144519539057,0.21463168988766568,0.3053881704954602,0.16901248266134217,-0.9066675970148266,-0.6778870280256537,-0.9952465739496275,-0.41941467932531773,-0.0354852069210736,0.8537536471555192,-0.2925000895922709,0.30886041455556357,0.683648862031307,0.4282309005448035,-0.7573924258680507,0.9095247743008574,0.2392358839118638,-0.43063216053443987,-0.2516843295151294,-0.7163011882326678,0.5766395055572038,0.2011269644604503,0.4936905140244914,-0.6166679112477933,0.6022084818407263,-0.3797353884245869,-0.02662559413087595,-0.8910742036517054,-0.5525017778384629,0.994896853802911,0.7810589568448816,-0.39125171688038596,0.6709407636366638,0.7368939111056956,0.35821619273844085,0.4335426805406659,0.21446059867297307,0.01718504260287701,-0.9092720299875869,0.9783727798372985,0.41131837583995967,-0.315752063086707,-0.4322692126003287,0.7857010533487649,-0.6092912271988948,-0.2886381133966862,0.9002082460120273,-0.7739357789796246,0.3273845365127337,0.22415166347213167,-0.6494911458021542,0.496726806404973,0.5842548530898826,0.48778519015857014,0.20165662904152337,-0.9616566011867096,0.06054149967608802,0.5187494622648523,0.653302248734168,0.6288340524099929,0.7785934540140225,0.44847338512613644,-0.03347078443613216,0.8126136120844976,0.5703181057417275,0.7332361526774913,0.9378231918176267,-0.09918777076259921,-0.12386250247357933,-0.16981702349860228,0.9036629940439103,-0.37125623523182716,-0.3773999648825854,-0.8761467136377334,0.9249829112293282,-0.22317670675511758,0.38498098005829995,-0.4697712787999009,0.39879591217925636,0.20443570348740558,0.2976192275476781,-0.04185586147221776,0.22495422557204758,0.891506463011857,-0.22521203478339635,0.3952790351526183,0.38247843373056334,0.8458084086345301,0.9627819822410895,0.5886042460926284,-0.9654900698786091,-0.05946916906526312,0.9825163903840308,0.7296965508439048,-0.5664609397265232,0.062128845943740796,-0.34461080481889494,0.8364104286292557,-0.8879881079934469,0.016898389828346128,-0.6668569385681675,0.863216936689565,-0.07828741434785425,-0.8194174472144888,0.830738507616527,0.8387386752755221,0.895606192020356,-0.8075085786473217,-0.5298048476807209,0.8945780709294249,-0.8041565857833388,0.3624017463718028,0.8493014816545241,0.7403215414119102,-0.7468801084946186,0.44040184431610263,0.9410229105420389,0.3227961370207477,0.2431193216352021,0.8311997462291176,0.3613643024105899,-0.30108139344269746,0.9772508363233332,-0.007499675211834367,0.45794757933829633,0.6187795681272006,-0.662811139595276,-0.19674473308390428,0.6557947728639621,-0.7625120222347648,-0.8742596555450668,0.8354628014681227,-0.39749052952979436,0.697281038813077,0.10895464569444435,0.3372703956345642,-0.06947322866929828,0.4327122613223726,0.24396303513335504,-0.7430345717245013,-0.13301663580710432,-0.33495214618722335,0.8583691089823993,-0.8425075465650513,-0.8332391999716597,0.9164151202084792,0.8680779452830025,0.8631732844894986,0.9936681904489009,0.2259047486805188,-0.46008839662248446,-0.32362330649986815,-0.35330527685830826,0.8351009900008943,-0.8784565873706456,-0.028704876619161768,0.20919046687767295,-0.03261463584769442,0.4603645661029909,-0.8952114738495347,-0.8209543881664112,0.7221138602200217,0.0902820541438496,-0.7926297846121702,0.5817825620302282,-0.5439124347979618,0.9512159057859075,0.621319987993249,0.49506198146436375,-0.528586583435646,0.797456294588764,-0.6847460526894524,0.35383802031979106,-0.2017230530346228,-0.7867049050397161,0.7400672286127359,0.17629979676194463,0.09093426925987247,-0.8047158225065187,0.9999291031784523,0.11347966438586865,-0.7760511759785251,-0.9064240741457841,-0.7129927956244533,0.6539314719790306,0.02335592372187567,0.9086045762581436,-0.7918505390969639,-0.9709376066003581,-0.1029459228682017,0.3707010115241596,-0.49267999684004704,-0.8509402419671592,0.8746605997217172,0.9432665354801326,0.007168761929168266,-0.6478084169974181,-0.6727890551123856,-0.4534555736249275,-0.9893193660532515,0.39276509916603763,-0.0998257379871188,0.060440495888704815,-0.9477236933272442,-0.012753337718158564,0.82941100084186,-0.9954493951832091,-0.6863859609667318,0.6709652364362215,0.37595918496849534,0.12307604114836135,0.9523461380963805,-0.15862854400623005,0.8693914926012651,-0.11636538741362856,-0.8747855539030367,0.06911858469822119,0.5287086136939902,-0.48459311790662163,0.9567932031536595,-0.022663893691810877,-0.8658887229981824,0.6943963616030073,0.9496185531899115,-0.7717132894271392,-0.015278950912035238,-0.035279862958849106,0.5225561675850761,0.6425555776325853,0.18384311814179077,-0.7519570474045265,-0.4056637095446596,-0.16726553659008392,0.5316522131503636,-0.2316011137734968,0.19284177877683573,0.6279167346871513,-0.21000461723521435,-0.9824233450000237,-0.12061561312384894,-0.07793006237604039,0.376391892996067,0.3027536147691723,0.4666954313446974,0.9666711381622803,-0.8581471201034219,-0.7581485460832393,0.8753065393108579,-0.6807571987733829,-0.299050443075328,-0.3592815831604237,-0.5577973306535868,-0.8946608375077003,-0.3784522783460966,-0.1280867102111709,-0.6285557917898987,-0.2834772428135428,0.7084418957547214,-0.1098526189606317,-0.8475782016815945,0.2332415957536469,-0.5281338509267546,-0.8080018564775211,0.5178211131294941,-0.04085391288724072,-0.19650515846128758,0.6271915549180731,-0.30264167233026984,0.2874769769511931,-0.7076467037400005,-0.041060762119485616,-0.25173015924779585,-0.6186468365817617,-0.11022494014058437,-0.6743366691600723,0.2095466261284089,0.31601084116133027,0.5432906845103647,-0.8174510547450311,0.472498037783597,0.6159145361368543,0.1747339631360092,0.5754284167625152,0.5031544524170415,-0.11496362828016427,0.5833072655070792,0.5402947419341682,-0.2796962914091645,-0.5359300892513184,0.7658137152475191,-0.09298326183857997,-0.7961466158321626,0.25982396372195216,0.8751960844255247,-0.5953850924971247,0.32037828483463704,0.25397479905979026,-0.6243581528541142,0.6915513089138607,0.31401473622121645,0.8041475929750137,-0.5095042794668914,0.5268782970461012,0.5121947256666721,0.5519389558816106,-0.5045947315422625,-0.3723502766377984,0.6557674533903703,0.5131205480454999,0.09943705296621475,-0.7892366145369984,-0.7803482970013238,0.6204729106280384,-0.05121510064768264,0.8438017702078375,0.07664069176863064,0.3150642613674972,0.32349948583756993,0.2951653657182145,0.394682576354483,-0.2446733052476988,0.17682287196017255,0.5043371580235523,-0.11600157197737815,-0.07356831050251889,-0.6561718500572329,-0.21603110202300346,0.6471585434323797,0.032555600009305685,-0.7988215420473761,-0.5316957878190247,-0.009752192027394413,-0.6152676322504003,0.8336774376036233,0.0616149479798882,0.24637373460126843,-0.9385540753659805,-0.8855721382526895,0.722596211933703,0.4300940873873689,0.7007877153494815,-0.7234946639461843,-0.7824834439600157,0.09903394415012712,-0.3323400809170114,0.2341591368879654,-0.21184726614230254,-0.07405477311518638,0.6198397749472921,0.8341641423081696,-0.02617719225666426,-0.7668416777242921,-0.14369346870646615,0.08265074597298705,0.4087888302071718,-0.2965845272014469,-0.8420452127353784,-0.5384665816047538,-0.9114067723131907,-0.30200990700860775,-0.8453100904400921,0.09732065370045051,0.8876046939682332,-0.21696871818341057,0.3860518535551938,0.8786157629656082,-0.2177927952693508,-0.7110915954726156,-0.613185079841992,-0.5706503833595389,0.4200851927985245,0.2241849803616942,-0.10224219339652563,0.11774715267627767,0.18813607345569228,0.7969528708511371,0.5621676071246404,-0.6307542967000996,0.9200243975962967,-0.7331293116969213,-0.9503506641679245,-0.8817305575734167,-0.03295676719502194,0.13543303671393558,0.3822493737673551,0.6590191000848697,-0.903724837070415,-0.3650193964875217,0.032155762010724676,-0.8863929993321518,-0.8513230411256256,0.7810107131774917,-0.8344290298156163,0.22055867765526638,-0.38710118938753,-0.8146035319811209,-0.057399915480396135,-0.47404467291128727,0.7532343644910509,-0.4389697073960157,-0.41215961157641656,-0.9207275424433701,0.8721057237813203,0.9459680300228119,0.9779954027949465,-0.13663589214732563,0.08442515755205537,-0.027484411148000598,0.6128847048792214,-0.5802994615578541,0.41367511660434664,-0.03264258190730818,0.2826604583967254,-0.45814295319584186,-0.4989093744814648,-0.9971751759467613,0.7331552410485462,-0.21716429624366573,-0.7242027324673981,-0.1359356365167108,-0.28556810793249343,0.7193311428927591,0.4743674319742097,-0.36460397049960513,0.7938025383128107,-0.8049876661005027,-0.5014212349718683,0.5430264640543179,-0.3470890350876892,-0.9944487625671241,0.2716144453227394,0.053494945143784944,0.2192726923205517,0.33410738010155483,-0.4854548090334738,0.21962666375425877,-0.5208658718875159,0.48600524132721734,0.6790725895055076,-0.5779066366171719,-0.023450315653736453,-0.3836911273995671,-0.7783249615524097,-0.8639563366256802,-0.055732787815842455,-0.9482059483894174,-0.8513012196538781,-0.7479711182980453,0.585078020749668,0.8010375053411032,-0.16586414736224198,-0.6290023563161333,0.9296428883793832,-0.591995572269796,-0.6145715421391105,0.24328651176004956,-0.12693412080661526,-0.268875940383255,0.3793642084751221,0.6745872043120757,-0.8001350527517299,0.3990860611542131,-0.6918742408057801,0.8382120893460192,-0.6463907507535138,-0.8825728579806087,0.536740070318386,0.5942849741758263,-0.09768829965263581,-0.5398799151832545,0.05399762790930707,-0.10378740836096823,0.25416878955120725,0.34426221548666125,-0.17412358522229265,0.6801034927244389,0.6650855579665713,-0.6924482274875863,0.899324689379418,0.8201024353734712,-0.999036890527133,-0.20402625264731222,-0.1959156541776006,-0.7471244352023665,-0.6967637621336706,0.8913766403161407,0.1808352264447166,0.43314426440328013,0.775730587419039,-0.36895190823300017,-0.03905266042316824,-0.44530899860395357,0.35638132274387924,0.3389550652485924,0.7097277465294587,-0.9684857256611628,0.6104756775974185,-0.6102248400341488,0.7040166181719076,-0.6256387882342833,0.7533565054171105,0.5453563977660196,-0.11530587050089691,0.11005432348532795,-0.8945318876967112,0.35234546508823517,-0.6166422458028566,0.9571851466664636,0.6623812157235902,0.12802218222255513,0.3466451884691981,0.5373365737264446,-0.4454112482317394,0.06107099428596929,0.879016567923776,-0.7972781200973624,-0.31683324858910633,-0.9753436540954199,0.5183035484903009,0.6687435012504239,-0.6080072192894772,0.29640276510188746,-0.5581473402263097,-0.5286574615736814,-0.9403385432949591,-0.5520044492562466,-0.8089827398678064,0.06911606206472554,-0.4267299709392032,-0.3383400145643458,0.27129555087177404,-0.4340638674841055,-0.20808119621660293,-0.30879536894946447,-0.8164251427808453,0.8687768099800863,-0.7880230145900187,-0.11599527907694651,0.8989036443683107,0.6613730303133902,0.06159267118164613,-0.8053384805649009,0.24726046200973895,0.3285810072438924,0.7046290265136645,0.6218036909645375,0.5576294003720423,0.28631574134074667,-0.49326166190305964,-0.5492828601161315,-0.20394455407306,-0.7750727599038338,0.7625580520093871,0.9691936760416533,-0.5906907219193578,0.14891578328598887,-0.770341917797206,-0.45421239998744034,-0.8832739722346488,0.493095325421119,-0.4209999343749329,-0.8371521497783778,0.7216551955740849,0.6837256491992953,-0.20046769694359456,-0.36559689353331315,-0.6348800738240086,0.10190670831361937,0.13230100582942117,-0.25327597643149735,-0.013247104294845657,-0.34971001233042487,-0.5149336721689179,-0.283813285246173,0.15739349220264565,-0.19575262259921034,-0.19282269772252847,0.08240885229454986,0.2852359907128894,0.11676978170772645,-0.9587790993777023,-0.8215607819147805,0.8223837333039603,0.5198647562707595,-0.8170724342476332,-0.9529500726020694,0.022168157909607578,-0.8173051033178449,-0.12195666880475975,0.30008510237586083,-0.7243957476614613,-0.2517904916667477,-0.7710603316241609,-0.7850607262871727,0.34925964252130637,-0.349177346265374,0.23908524896993044,-0.8135677481492987,0.1789089138140012,0.19216798827780424,-0.5497964092596808,0.4016546385336517,0.7897268031238467,0.6539966680007121,-0.23261462073678785,0.7804512590788539,0.7950730218491897,0.023725700904818403,-0.5751237401978291,-0.7714701910177775,0.834214088412645,0.5065417653769713,-0.7125578210395682,-0.14456572531552703,-0.6797900502236169,-0.06183163450451756,-0.21650760692191606,0.05797256993467781,-0.7619247331696364,0.6101385378652304,0.9258063964851668,-0.8551525860639924,-0.8996024278693653,-0.052483143654247444,0.8500278577245437,0.9575140014807548,-0.3131383968269781,0.6761068490032789,0.3070618652727781,0.034805354187315674,0.12798612105845697,0.31618334763445133,0.6177053218449684,-0.08008979175839936,-0.7416364245100795,-0.018652936943538423,0.16506992676735455,0.7731838452388613,-0.9295948489157937,0.8513457536931264,-0.06680768417446936,0.4076424581970435,-0.06903070630392083,-0.5033827714596906,-0.15979564788718492,-0.09519589819959018,-0.43518127121651595,0.9282060692104932,-0.6977987611791121,-0.8664438875210785,0.5125081706755255,-0.44132629152851277,0.7316937758120454,0.8756528588899106,0.9258852319961839,-0.9680934921805489,0.8786067429340862,-0.42856125018303715,0.28230678142011856,-0.5366044267317822,0.6057371457400829,-0.7750483354241224,0.31769328940843233,0.7012691777937163,0.5265121163425861,0.5099719147380928,0.05729661404021957,-0.4580710763434013,-0.7595201215173042,-0.8779134130237478,-0.8849462186558428,0.32753384163154875,0.05899124438942582,0.554450840612003,-0.16386119869519233,-0.6391953093085705,-0.46601350183522094,0.5329195136105997,-0.2079125235046173,-0.7615327443464279,0.47376474134673363,-0.5144359928642916,0.8723972071415118,0.36713493639677686,-0.9963131490265231,-0.27123430253129244,-0.5952966952666632,0.9998190717513282,-0.9364541146982888,-0.2727929537680853,-0.9173402650632612,-0.6139830644786834,-0.8181509426519769,-0.6496957225366902,-0.16925046539770983,0.3971873214043593,-0.1863119415986081,-0.38565174105975886,-0.5355469003589541,-0.643456967434789,-0.3928068949545842,0.8885359481658957,-0.245911185336132,-0.6084072906964313,0.18823789620495202,0.6626541170106925,0.8627752983011134,0.20269449062724942,0.128476908165587,0.34770280729140257,0.07686007526017269,0.46271883934864566,-0.3094393273798641,-0.4589369383404136,0.796000783192538,0.4698941573101636,-0.6338565089890151,0.12386988460549109,0.4422844060929674,-0.06337127254397545,0.4239112983632034,-0.5651663086122038,-0.2619451842903102,0.38993979438297877,0.4887542179075943,-0.28971336521227586,-0.9178541906627478,0.07833245113798482,-0.3740722418572089,0.5353248632942456,-0.7332878421642812,0.45921645520834886,-0.6326218647509971,0.6049694970154966,0.9871555479483094,-0.09698852851055295,-0.5180632966403054,0.5794639173048157,-0.7102397367157993,0.10401792243226482,-0.8020298938688311,-0.6671506618981045,0.9974761596710584,0.44822641559651166,-0.2582803897759658,-0.9849380659459683,-0.6051075592176796,0.16784629082704972,0.971934181664813,-0.33290973280049085,0.25068683576976647,-0.6583266898905382,0.425157750597178,0.756987817901285,-0.22953145347937176,-0.8894213587951685,-0.872407946440874,0.899078831105028,0.37767161098462276,0.903648544946432,-0.7691810254467013,-0.10960510229347653,0.7374818515106656,-0.4853408288990051,0.681720752313179,0.7367555769878358,-0.5905130815418891,-0.07989865516851413,-0.17980498095283903,-0.46947248786336093,-0.9459825468241565,-0.7671275174150407,-0.9646257379145453,-0.7746667224750572,-0.018906548686701274,0.5564430680691541,0.3646332586223038,-0.7058470684714442,0.43904969139949057,-0.6288506418647386,0.22518208943077433,0.6862487872847478,0.7480018041426095,0.9443726108771291,0.42049204745727864,-0.8030813463131998,-0.5839535797088109,-0.10616295624871297,0.017679235709011865,-0.17149865486590032,0.13519566376283332,-0.6759621683832848,0.785201195250286,-0.5665244434551222,-0.4066030428959335,-0.43622837228105515,-0.639630226570322,-0.6687017903844075,-0.8053970093596319,0.30781966026637186,0.823465647997057,-0.8170075502347818,0.26075970263245996,-0.7207980711542983,-0.23640681655929252,-0.5973210052617448,0.7208073713004113,0.8110146609324451,-0.9769949786624752,0.8754663240427396,-0.6476472599930692,0.22430790917932764,-0.09712628160036463,0.3378046790480027,-0.022859592593222677,0.2676111582487619,-0.6975893147165344,-0.09212772005155268,-0.6620338472790275,-0.7650656465151089,0.3269450359187178,0.4558565952504996,-0.1682025129246454,0.4331830563622028,-0.7098022738313208,-0.8877825436773383,-0.09622371126829998,-0.7466580030073169,-0.22475174126825403,0.267381686833156,0.9500810872419809,-0.51558273837803,-0.9235618522906319,0.7359258118565186,0.5446147990646442,-0.5485132622706159,0.17591251898175053,-0.2950022880931735,-0.06662292181394536,-0.4899953770850176,-0.29419709239867275,-0.847416167056851,-0.6704973988483043,0.047664171375151776,0.7813130422941845,-0.6809265114156158,-0.27903919609984396,0.7959372428367124,0.6925704535424508,0.8292346676218285,0.8733369151807058,0.28612392466486125,0.113680593727981,-0.2126957409205299,-0.9045073698025414,-0.41102095245245773,0.5327860777986215,-0.8742805129360929,0.5043925871236692,-0.1643378995167819,-0.5690250779200514,0.9795543605353003,0.10092328146118246,-0.23738149591198354,-0.26018012689149006,0.7467824227356825,-0.9436824627343807,-0.5662918981058849,-0.7971106057768327,0.8456369274968494,-0.8555637711779234,0.19236346188249764,-0.31382754967733617,0.6753262307516719,-0.2198772588583009,0.801880520894596,0.29250366255558014,0.6070012635080686,0.9730660207343276,-0.7256142011695228,0.8864795858711298,-0.28691041383014815,-0.5407061909592414,0.315666831563596,-0.7627803666772297,-0.25013633379029687,0.49686463128030955,-0.8821430824401424,0.5209578837819038,0.04249631896611983,0.2956691660690789,-0.28768030119852184,0.3312983449650806,0.9421178706972522,-0.14991033797807152,0.063049167337901,0.8861528871462354,-0.40708098384562885,-0.6243486439835089,-0.34800291454086785,-0.36654749434307843,0.5908688773372657,0.729303163318094,-0.6502699755787598,-0.5920565850355544,-0.7332018595201732,-0.39317032114495554,0.18360124341369044,-0.7298171437018646,-0.9407851245046019,-0.08938578456879553,0.39454847258304016,0.18995280471802256,0.7064436416915241,0.702686478466636,0.40065248407787424,0.5635438332822837,-0.8814054351377738,0.27824093104987835,-0.5455244554118808,0.4689613482337738,0.9066090564571936,0.6997756724280741,-0.2981140119863126,0.4114586098021302,-0.817892140774245,-0.3322135636867287,-0.8117375457463274,0.02848190316053345,-0.9615240377093726,-0.583284433330451,0.6929258352832584,0.3696074958560589,0.3292818694446129,0.27351455800253843,-0.47759535312121404,0.23622642386681525,0.43153311259947014,0.15274903929196593,-0.8397891316480579,-0.8073113981578561,0.23354098136749912,-0.9023849350123654,0.6172205947747942,0.24310792483239263,0.13977115551263442,0.46810724734506026,0.5007149606265264,-0.9896441652382357,0.2573531236322013,-0.27357757886917966,0.9936242834314339,-0.6132972673057064,0.34844668678075985,0.4725342640730861,0.9604554766858973,-0.9983666290189115,0.8620481703817813,-0.43860103184752197,-0.5850019969727436,0.891389063664261,0.854296975801623,-0.6260706536062366,0.10618995719980928,-0.5336529891960511,0.1687941870619032,-0.030730539474306262,0.3919756884100807,0.9784732679496446,-0.6605853984238534,-0.1656938157363277,0.5297083371922928,-0.6946044744969366,-0.3419257650680656,-0.9591738140103878,-0.028565509027242086,0.24095270726544493,-0.7282031881767463,-0.39861047926807314,0.02185493688482576,0.4428280498324506,-0.9620290205929605,-0.32254634434365625,-0.9906453666994925,0.05067630107349008,-0.7989357981879899,0.26848811611072065,0.7379107560156968,0.6043889824643058,-0.358193911417082,0.04866953527732076,0.6896971508970462,0.5207263220240255,-0.8645089189556152,0.8919860300530507,0.1383040650650489,-0.07382174884155757,-0.11877457715964468,-0.7275031053791792,-0.1371632606024189,-0.6415406441001406,-0.35485381879084765,-0.12287781188797942,0.4532437676085148,-0.30708283519264223,-0.043619563561142494,0.021051641096607066,-0.779035884906293,0.25835862150274624,-0.7641446544675501,0.1298589303347415,-0.6757588065935674,0.3427503021020595,-0.7961215761823413,-0.6568263433382662,-0.5639825004690335,-0.968177785661325,-0.8141288228330708,0.29691950165458647,0.8110575447437001,-0.21601639645443171,-0.6005906489114246,-0.47408046949577387,0.9858169518727409,-0.32143228738859353,-0.9548474013416637,-0.31564923678361745,0.5702558163506832,-0.5408325238238714,-0.8359098971328198,0.7020812388756554,0.7809535700537449,0.7211288845824577,0.7882971748049055,-0.9077558592666612,0.055670237840394377,-0.08959754572965806,0.24876952279476128,0.7302928067676435,0.06785524926204411,-0.906120551793844,-0.23655987828668468,-0.1441919537903491,-0.34580149443463304,0.27498701977896944,0.22836552714522695,0.12532337022427043,-0.10399704328396009,-0.7274496051290342,0.9622625090596142,0.18135599283809567,0.20673840816464129,-0.6903990870076759,0.2406933724416378,-0.32496077530196077,-0.9662170211226859,-0.7941596511258846,0.5136939097978339,0.05058871727884484,-0.5522006070717884,0.5429318439179813,0.7800765048772453,-0.374554602171715,-0.8999549205222039,0.9142579839071299,0.1163930116759353,-0.6682241688918418,-0.006527329837580753,0.1911841805217509,-0.390148310257981,0.4248367439446028,-0.6464971076508716,0.7113037264839761,-0.8791697867574373,0.8313644528822346,0.09352960550382083,0.7038224747615511,0.23038310097996617,-0.37254821854613374,0.13772416328150072,-0.7458369189587175,0.15620329266845423,-0.23477644560020328,-0.8023620081864131,0.9576238560219199,0.12759743827525605,-0.9321960230712469,-0.12871070816736752,0.1039253972454548,0.6275244336724408,-0.4059976202091893,0.26026687225163725,0.6324805734236256,-0.3285098170824876,-0.6153290027723128,0.5844356539913005,0.8960005437122043,0.7021346565375972,-0.05514481872681065,0.30078026676247105,0.35806242064125704,-0.12465342095673582,-0.7168063385835475,-0.6917569769034995,-0.21424025362746413,0.5375262537065235,0.45183955676961873,0.27933133328459325,0.35611034182601053,-0.8703145868304063,-0.560998223314574,0.2819685414077495,-0.47539511897263,0.010509264398114837,0.646754641897098,-0.08798318995522525,-0.13387121800802992,0.4385980683169681,0.6510773602050612,0.878529420664304,0.5222093496783455,0.008667690298535424,0.17246969207114837,-0.16855844222185823,-0.22996373126884406,-0.7067431115861611,0.3062243963696676,0.6333051324904213,0.2380897881059172,-0.20328228111941837,0.06176103251321696,-0.9428086879714819,0.1418483149722365,0.5092350041429137,0.6014239404824027,-0.23192011285650072,-0.431386689161414,-0.43969876020570675,-0.2175670165778234,0.9575225169860635,-0.21986594835489992,-0.07967429497888068,-0.40919776342092584,-0.7582861114945203,-0.8424770462011353,0.20472962798596228,-0.29731898154671255,-0.8442013309585432,-0.3806760197571766,-0.04831317881163444,-0.06419326247220614,-0.9478331278815741,0.7088162446022861,-0.9037818608838915,-0.5836391216744772,0.6163002191885207,0.12483099077115445,-0.03885652013037255,0.26847174727042344,0.5591003522900853,-0.8029230364361595,0.07363976030387431,0.06775289566313103,0.18488142148816933,0.6785363833000861,0.8926874509416429,0.8915286952389576,-0.8507139459392024,-0.13259832743058997,0.40541280276981406,0.008079090569399927,0.8706760163426093,0.6955284591007074,-0.49110903617779367,-0.36133978577566106,0.5974128180446074,0.051126208856613564,0.7779014199252299,-0.27700709632246734,-0.3223759403538784,-0.4229325743245895,-0.5322622978467515,0.08240692944202599,0.26450654274143637,0.10319004898835482,0.9739544111339087,-0.3156756559843381,0.06933004729555203,-0.6719773529473558,-0.4371428709831626,0.9162035428831761,-0.9017448945778406,-0.431539558843719,0.14637006062022673,0.7079207727195445,0.43611665717976855,-0.22917342456923384,0.7412922580325725,-0.1694747044491811,-0.0021877112060308956,-0.3545682615871355,-0.6300083939977521,0.012025179795972063,0.9189892440680991,0.1498417365204916,-0.29971611157510547,0.44780108063094204,0.9129892154657859,-0.054425758543601876,-0.7995362174046734,0.1924836307948059,-0.10224595494394118,-0.9611519759533742,0.08674657448446133,-0.6504312114800772,0.3986781513374038,0.6949616727677543,0.7145751400091271,0.8924624933199616,-0.8726105456342503,-0.19659115732600707,-0.4853220246046501,-0.5980000853008345,-0.7286977587114667,0.6738065991969735,0.8796765301476936,0.4702794335096536,0.5001113567600552,0.5642755344786539,-0.06665262861087418,-0.9119683134575909,-0.9867980943661896,0.5957144952811524,0.916060542506907,-0.9354134968606382,0.8581341921248036,-0.19749550985938735,-0.3957851400875483,-0.5681293786166635,-0.48180789768715115,0.8802716662420207,0.7103941318682985,-0.38310323194042684,0.9359611708589539,0.5828966906970414,-0.9820582360422001,0.9970161009309788,-0.5179153356078867,-0.8028974434014797,-0.2053361718652762,0.023395147105772507,-0.4790284936786209,-0.6229506846628967,-0.2130982497798437,-0.5505479475954236,0.9934585483084488,0.033133427166635476,0.25749540452847697,-0.31524542874135975,-0.4642067560422385,-0.7564634078300312,-0.9828975302803167,-0.2123897134235977,0.18872992499801344,-0.29170538408559676,-0.9446837096079306,-0.8056850541740714,0.10937127439572136,0.5751714827705059,-0.3293333366360496,0.953054492177247,0.6348245342783858,-0.7677786081330504,0.20095633587125095,0.34674019213162754,0.08183573080538342,-0.42319280729999753,-0.4774754381837498,0.6778721239231025,0.14995264294190647,-0.2434519182006165,0.817800064809683,0.25019271287997813,0.5709737307449352,0.7479296487993496,0.19318175339738275,-0.32508132902481823,-0.2269649696553162,0.860837108750262,-0.6292180286479909,0.939675613163778,-0.2709960630001065,0.9798061007141932,-0.14961587494694473,-0.9017953722217706,0.3779335307960854,-0.6629246642167705,-0.028079990813037137,-0.4954768111622465,-0.5782215549636744,0.62806153717449,-0.7864194632122719,-0.987209163441064,0.30941958142274384,0.7613180134921937,0.6419770947287307,-0.8930715521884658,-0.9843051597483337,-0.9902622486866368,0.8532397456325747,0.4656226666236334,0.9655748903083505,0.6889371086355391,0.7896598730159266,-0.9761761762001759,-0.07617347479484815,-0.6293220063568712,0.889738941552733,-0.06416889743414989,0.21347554503681088,0.8945068523349204,-0.5885177143860292,-0.5538031683082745,0.7613392133975301,-0.5331648640201425,-0.8634190753675246,0.42795754788562546,-0.640111705619427,0.22828943152582526,-0.8241984806465508,-0.2015796751406187,-0.717791526447451,0.18611328959156337,0.5042065974396992,-0.6376412315899849,-0.4684147650515682,0.913782597240514,-0.7158994505745087,0.6987481242463427,0.9660421798591154,0.14996253612210197,-0.6046065362225161,0.8079639260769638,-0.48562747291671604,0.5531036321951586,0.3646315701406049,0.1361413714518127,-0.449936482772352,0.9058217884851345,-0.16300226322872224,0.1648316270307546,0.022330848265796455,0.29592118935542877,0.13130137939158049,-0.06402968038733947,0.30361048757367026,0.7318531316542318,-0.5210227055208405,0.26412254087709175,0.9971250112813566,-0.40533322234306013,0.4334067458961297,-0.27922852225928985,0.7269345187795659,0.12360971689821598,-0.07147670681660534,-0.23246162108123136,-0.6423381967129871,-0.8367353543114644,-0.17638363715622352,0.05701156273301411,0.2948318664089038,-0.0372271245339415,-0.5435071250322772,-0.30289975545362435,0.5004351488879402,0.17474680724726266,0.31379290909395285,-0.8630553910745367,-0.5597535426055853,-0.8103027454311862,0.8447952284743856,0.11990645092699848,-0.5807794298397202,0.2420065774655582,-0.3796842467534791,-0.6353393209272005,0.07577657199346688,-0.3206103711568291,-0.4026921689081726,-0.8332556547824592,0.6722355213176858,0.27182218763897925,-0.27905331449828785,0.6181829386884539,-0.547575101111446,-0.44990213203161655,-0.6943404365636567,0.026593961159360857,-0.8750384178785684,0.013475084109054736,-0.6361639706622393,-0.45932420442185107,-0.9686123432285125,-0.41465134809380166,-0.15331522683439758,0.5718494596539181,-0.09805525013060246,-0.2136997694680829,-0.4859721468536835,0.38313523533978544,0.3179657859647589,0.04116274353420124,-0.8607673309053911,-0.5666530185262564,-0.48753491358058043,-0.28549989175558554,-0.864819695545707,0.011719332505968572,-0.7009454407682203,-0.4946878694923631,-0.08974764386262413,0.7165395596072914,-0.9807740081966012,-0.5947463324457616,-0.34834715778837144,-0.21399797634302953,0.014005905071050595,0.6675020890583259,-0.8687384367851847,-0.820713095187732,-0.8413756270131718,-0.7803361101415109,0.0027513049685727875,0.4599723014404229,0.44810479778047707,0.07687205253452412,0.9755691847637773,0.916579717499346,0.6238270343372927,-0.6500808350288276,0.704470042843311,0.8376735919894964,0.1166923983500796,0.26732983635651864,0.9871491511762833,0.40301763731046014,0.3150391363471743,0.6340665939385108,0.8268656618696175,0.49214416515200643,-0.027726703491408378,-0.9432080316475489,-0.8924803135105945,-0.7355707306938442,0.23619330379528813,0.7508161029205447,-0.3934023696421789,0.7313829418740205,0.1394057250705587,0.7271920739448674,0.8237320241743029,0.06326744803023576,0.2886190422303456,0.5499852244292265,-0.6687523174865124,0.9030562802957776,-0.8282061734597606,-0.33787478080457634,-0.5469897659975109,0.463107636197575,-0.8553576117741706,-0.222926470566988,0.9640380219955575,0.06468838858792991,0.619874332342496,0.2206624738831482,-0.4371138847647422,0.703679777091111,-0.6674582545161765,-0.48262414596800296,0.3795675496427764,-0.45783550156343455,-0.8208831345303138,0.7476671261300472,0.5043714255930667,-0.6817082256353382,0.1363027841989799,0.7635866471931438,0.7288913929834941,-0.5557152962040275,0.7592864251036813,0.3582034889933603,0.4482050499169834,0.04146544719053602,0.4470034815140056,0.9710322563750129,-0.13851707440165062,0.9128934977102965,0.32753639687076497,-0.08750657511966109,0.7290800529602324,-0.9575070756007653,0.723820581511031,0.38025917062751313,0.8743372095488746,0.13880233283824173,-0.19367775017142663,-0.8156164332117135,-0.4245622699087208,-0.5810188344831964,-0.84718696793355,0.2409063466129726,-0.440547744711107,-0.12254759306007124,0.43297916038894835,0.26222677308432285,-0.857108724224189,-0.004038366396400539,0.058640628493684455,0.42136933050878134,0.7474214809104931,-0.9170718883393341,-0.23679729941627636,-0.1825792731120004,-0.9825411767318215,-0.522682580107461,0.993220811460148,0.3282303295684499,-0.056967540651506,0.8044130749300171,-0.39386984211501574,-0.5489842705604924,0.9310982274288961,-0.7782454334672393,-0.12745293907918942,0.9419056392289056,0.1042521964635097,0.3876911356068451,-0.16789595492481868,0.11472585319944284,0.3724019111608696,0.014801899801159202,-0.6815089737772753,0.17088550477638753,-0.1301320681352387,0.8532303048056411,0.2757910018959526,0.13897815795876034,-0.2104904491777213,0.5762219923531711,-0.9593045852644477,-0.11667437618776244,0.6006143042333809,-0.618747054349329,0.7260450537858829,0.6493268548702338,0.9261843379412853,0.5408271999432319,0.8176162986604538,-0.10463845961796303,-0.42048303359561534,0.62627896889179,-0.3235962855142034,-0.022230965349639753,-0.19326726308201003,-0.5685062333209892,0.20441341505965394,0.7624943506667976,-0.6479691639336571,-0.8757123569206586,0.727334212489968,0.43013297174379317,0.23887227496457375,0.31678220375994526,0.09915057331499977,0.7499534457038726,0.8143739074866807,-0.8710453238995823,-0.4114154629621676,-0.6872559648189971,-0.6728732567308415,-0.5884741976399783,-0.7089419480712307,-0.14403157653067566,-0.09103281646070394,0.43414730295629034,-0.9418710326273478,0.8731026967424527,0.3504139395895196,-0.9470124636282313,0.5046930300515629,0.909326983378901,-0.21663478557489757,-0.9070793765243896,0.9315171877910571,-0.5735558065413136,-0.14884287290557774,0.032543940926601955,-0.39553681174813726,-0.8698632915252913,-0.9350575410152591,0.6301659682467506,-0.8407491674057233,-0.29281085156044884,0.40636306733247696,-0.09259005313338808,-0.941626131575511,0.3681718051388372,0.8128276692449223,-0.9568127375078457,0.7758149381500956,0.28187631855160866,0.27523033463883717,-0.07111305436044368,-0.4360913557659645,-0.15945553370127263,-0.5449269761800188,0.9783082929722844,0.3576232731911295,-0.494747581635697,0.629029104387697,-0.26091401439640727,0.03319798395088003,0.6413923591895516,-0.7246405877853332,0.5546402666764976,0.08901974790700251,0.42632892504821673,0.3983162852417699,0.21651066820120213,0.7165285474131076,-0.4884843277993973,0.5228424103891463,-0.308835927033273,-0.7831438655014276,0.5473003509520022,0.9658589371524187,-0.81047963290657,-0.45201652530378555,-0.7071952998976667,0.8445927276779432,0.31803072474677196,0.024345351707854235,0.5162903796684011,-0.5107459039718778,-0.05044873675620165,0.9596760451924442,0.766668143407431,-0.8688490949643963,-0.23357738418217622,-0.465630323951465,-0.6111924039276853,-0.6985000877267318,0.014182472219366415,-0.9041397012897316,0.3193423026091913,-0.5745951442474455,-0.6566835207879143,0.9069386378216828,0.6257108562131004,-0.5764116761328426,-0.4618986691197031,0.9527031930563843,0.5899700341504264,0.907552563084151,0.7998953883372317,0.28822178459478875,0.2749788214062072,0.5758153952941469,0.6140922426646935,0.8414818226816425,-0.0019343210109370457,-0.7217068640912059,0.7245100200553278,-0.27597417675657243,-0.908651927102089,-0.5333476811176969,0.9420199723623448,0.4135571607440012,-0.7023445476584496,-0.38059465199045617,-0.9758542181690912,-0.04656237557303444,0.07204317929679438,-0.5587095803860282,-0.9226089691500532,0.8973819245175252,-0.16131562825086299,0.2858662891099224,0.885776536719409,-0.841539682342034,0.6925829875130687,-0.47911384250434463,-0.6547119473059917,-0.636984100511804,0.30767857813297583,-0.17773541937803272,0.6902918659443815,0.5220086262419943,0.20424999684958545,-0.47672000299609163,-0.11195306335750166,-0.7152016591495591,0.7622246870047986,0.42555460090355024,0.2205309311788597,0.17919618472639387,0.9020450823837365,0.6170872618443173,0.7576808332632623,0.6161286776636601,0.08664855895472767,0.71854802444255,-0.2815022284998947,-0.3588847824259671,0.7142514927050383,0.2334688073584006,-0.3904719498169009,-0.0015355020200427116,-0.4967036873591104,-0.30464685877888287,0.1295701710519599,-0.018714199202854997,0.5255558618614549,0.9272161195575419,0.012178532621954785,-0.2584864119646444,-0.46678941380398364,-0.1800685444058734,-0.08279170075760822,-0.4775709242427191,-0.6000965427337197,0.0407358829833504,0.5838430172090534,-0.5241335424756821,-0.7986994318932108,-0.8318166966197822,0.21126443268084127,0.16299027978606073,0.17696180760053237,-0.5102697533092353,0.26838421696560877,0.6638359968076724,-0.5778866786023444,0.3249535176082854,0.30351663379711225,0.810326510682388,0.44972347709368243,0.2661547166673879,-0.2887208282441498,0.34123680588106464,-0.10020645838426767,-0.45113215661659933,-0.6944687360200579,0.24519939241815236,0.3388243817255445,-0.19163690022791924,0.8045463408704998,0.646912911385805,0.3583087872040376,-0.19918599887073007,-0.7127520101173903,-0.2925442328942842,0.7123319414212892,0.5273155497342183,-0.4620904034647133,-0.3758684812586379,-0.04251496004269306,-0.8750858028078154,0.5475614453311728,-0.9341157868718053,-0.5513385045069008,0.43854672956249985,-0.7833038606460829,0.04111082293433643,-0.10433787319245846,-0.2313893613784881,0.33115732591618996,-0.13251998090159245,0.1419615517820041,-0.28311184712588067,-0.9116567881288673,0.14721713359501143,-0.07021200215312073,0.5724035147136524,0.22007435215062654,-0.7279526171643129,0.15072946877164206,-0.20322010240419597,-0.8496990056175464,0.3563753959985754,-0.04489330919618362,0.4504740066812183,0.13001844764336457,-0.3685119757503199,0.3734327681947218,0.7191663784753339,-0.8444069565452927,-0.2803215583158325,0.04834940690144984,0.2868579632135533,-0.2962106503349573,0.8491422529956452,0.03999444098873717,-0.5362160620616059,0.7100700905450901,0.658028373893617,0.4552034945860679,-0.15461727422075966,0.7836736056430564,-0.6963213926826679,0.32945436046049803,-0.6506552144677082,-0.8369624304081764,-0.45027447995717007,-0.30988538053292847,0.10737548937078767,-0.2341512243182693,-0.6501495708983553,0.19583164418476584,0.8812713871766467,0.5216355126114962,0.8634461149209145,-0.9353313606492748,-0.23046110988176927,-0.4496372564303579,0.9588677948569369,0.6387126062907005,0.18893397692103653,-0.9875746437788437,0.35216245840821614,-0.5954058302619658,-0.5050801657716433,-0.9307738897521418,0.7682228637141486,-0.7356341712187577,-0.010481415940678751,-0.9652487797778491,0.9294033217900144,0.20834874718315977,0.4650567789198403,0.9553255534444849,-0.3545469192407045,0.5404516791709972,0.21426682820645704,0.21537163626066747,-0.20394824743944673,0.8092671388433896,0.0005401340649731079,-0.28484130275231645,0.19086423468987057,-0.643767400487925,0.9632660946541733,0.5811118650066676,0.4032054120399782,0.7381456491712997,0.8007842151718649,0.25350638576043716,0.09271852788329249,-0.4695321537430903,-0.03273989213351114,-0.9059613429838838,-0.016366939518198453,-0.24359202856336082,0.2994250753453258,0.040009185304798356,-0.17175758411941366,-0.1918999814601805,-0.8964209619611168,-0.657625157663843,0.6764872207363726,-0.04082452807478676,-0.42268145033359095,0.6592862132136041,-0.11628454647196396,0.12416466049927166,-0.27273987549377443,0.646407181649878,-0.30801382042169356,-0.4889714002868717,0.03698686764937853,0.709296544653707,-0.9388185747538096,-0.2623550393669849,0.2595347203919105,0.9815711356654504,0.06009676148563825,0.8674127490269399,-0.24295762946399768,0.84620966541968,-0.6256102136935933,-0.18656118879681438,-0.7867279297358609,0.6064259174515279,-0.5181671598556374,0.5866756393174315,-0.09315260723280061,-0.9381033950510715,-0.6075853133912044,-0.7074869534295609,-0.7513743961789785,0.5318883901865061,0.31251089223072803,0.7948705447986515,0.7025396705065816,-0.4499999287321246,-0.8529097759213204,0.7090627134320491,0.34715180570604476,-0.47135800738660794,-0.6628814758280417,-0.047673606555122205,0.03227279495165436,0.25585724136534016,0.44051204599994875,0.9607012437807592,-0.7437997301115453,0.5784089131913874,-0.3966077259549261,0.6844984152960036,0.7562962060386715,0.016284496888099076,0.045070575557294434,-0.07598103255258537,0.809956929603461,0.4433022094228223,-0.7011635283810904,-0.5134031174216016,-0.08478548102982542,-0.5863864158963943,-0.5536819701215574,0.10346932547286158,-0.7778910767623755,-0.6864864440717158,-0.8691781483982546,0.7494378459976252,-0.1316088491009353,-0.09017140456067074,-0.14828096374050714,-0.4678351758108301,0.47097049144222947,0.5045616635534322,-0.8897800653952885,0.32481469543996266,-0.14166625556170276,-0.7804632929062321,0.09674724632690146,0.5920770859457363,-0.2676720278303901,-0.999460675757309,-0.17110564323410005,-0.384910297078771,-0.30750983313263847,-0.7497110489208401,0.702855011515938,-0.07585422665752661,-0.7684189346172483,0.5667689755402154,-0.6594243409482017,0.3986162535903426,0.8090102758745072,0.832835595097464,-0.37312262245615146,-0.8624084655888851,0.509992389916273,0.7612599253906602,0.5100293851616253,0.6406425710664152,-0.20119991533119297,-0.28676140124596006,0.8370320655060126,0.18626179014801347,0.9266123874483718,-0.3158491948102742,0.7848400643635627,-0.9399337911906143,-0.1477033642709087,-0.2647271211563591,-0.38908589202065746,0.8064464529841817,0.7343205159080086,-0.6272450166074175,0.41826149377546384,0.5216809117547638,-0.8104495722483802,0.7719431596305015,-0.9772904182396847,0.887398644446084,0.16893333107480246,-0.546271041392616,0.5645694336438078,-0.2785118329272762,-0.4265170395777642,0.34926258295760326,-0.8330072845505891,-0.44672770890268554,-0.3606056605962198,0.017389127226207002,0.34208918810670097,0.12205120445027973,0.02958937080934687,0.20058113804363797,-0.13714190700613926,0.6453839352860253,0.7968241576921986,0.39850270045859126,-0.17691172066107153,0.5821580888804823,-0.689017319816227,0.26419972802763647,-0.638111607929184,-0.7363808169945449,-0.2869811038691119,-0.037940482034219514,0.31290678987960274,0.3723278636954741,0.8981493212052951,-0.6649829342206248,-0.7483886610813024,-0.2448894934206305,-0.8649291717867618,0.9521901240441033,0.6983054637177886,0.9586013244459914,0.33000767483166427,0.9076886813741787,0.09008559515969128,0.0788812355753874,-0.6988828914648113,-0.9071054992968541,0.3078553887846469,-0.19211889206523258,-0.5766640019332911,-0.35407269895681637,-0.10073699826873339,0.10350593456310708,0.6445194496705406,-0.40607694406005934,0.5425549699979091,-0.22524479846769352,-0.15215628421722882,-0.8671448138978066,0.17899542503047217,-0.1637922617356704,-0.0924935063198864,-0.1384952759040965,0.4719792083475318,-0.5335321864348985,-0.5409801357713717,0.18947642708755508,0.2275857004842674,-0.5219179394974398,-0.8499710523772741,0.614206681894601,-0.9210496823931518,0.09020936973118832,-0.3729485071996357,-0.9525909150228087,-0.22323537263901305,0.21318631103779295,-0.14244149938546502,-0.8114355455284812,0.9067027730613557,-0.623175537182689,-0.33366830529780067,-0.5970252411834787,-0.061692265263899815,0.5758703983413394,0.5129501035692394,-0.34049993220774355,0.3891547111043734,-0.31920491496479864,-0.7741070100053036,-0.7719848209087266,-0.7403159356439974,0.27142961464106397,-0.8553653156079977,-0.7357635779140383,0.2425559265542383,-0.48548860665947813,-0.018087612716780166,-0.12653867840374033,0.5000729412457054,0.5262764137151441,-0.9446866240829987,-0.3468591522628559,0.8267760306438894,0.4391423303948365,-0.504046927089653,-0.9436119517395658,0.4638795754947549,0.558052174334011,0.8602840852818003,0.443841937757004,-0.18649699323372926,0.327922658135291,-0.07222500705238821,0.045584202726804746,0.42277641417095313,-0.2208723398700918,-0.5876384653152114,0.12617513923834323,-0.24259810659714764,0.6966868171236527,0.9981725329974087,-0.34538968861148933,0.5641849519492677,0.04479190309513803,-0.49662398527652574,0.7583290180673978,0.009064802121044657,-0.635725287839122,-0.39083889501383995,-0.6940192875244546,0.40248888783160197,0.11429093260178735,-0.09275771263801169,0.36306501101058486,-0.10745308292401878,-0.3077109539166689,-0.10861006799495332,0.73884381230542,-0.09897707038679293,0.831365678896786,-0.8078870931319853,0.41963503175981076,-0.10694630328300381,-0.7632143004920793,0.5241696643662925,-0.37924174679916245,-0.08630830060849592,-0.09783609918935166,-0.80338419879933,-0.9711420968372158,0.9237376649474827,-0.5832129221074065,0.1266381369333236,0.04703483743804604,0.6248200098134873,0.5984451244264324,-0.2502917707411385,0.13653798427811492,0.5112400884794661,0.8482859604020381,0.44966203708547847,-0.15507165625278296,-0.5482456198377648,-0.29051542359852167,-0.23045892225415443,-0.32543715406638074,0.9296869252892359,0.5755988256386395,-0.7385830448278066,0.7242889476946925,-0.6811222392579235,-0.36334445835607165,-0.4188819359607614,0.6662719730295354,-0.8856252475321693,-0.6480678894203831,0.5796187945758433,0.7126448451860279,-0.6267888148155298,-0.4686729123032012,-0.9435165146140492,0.7894239474469904,-0.5562935099655899,-0.41225126220745945,-0.16443232555276888,0.8653187160886582,0.01375656718902718,-0.6143718567561345,0.6980902918484979,-0.32520649000869684,0.7608508892015637,-0.8832065056435072,0.23032127324919438,0.48498077649641047,0.16312887231195017,-0.8107351546319594,0.5189044364825088,0.1192108928986586,0.521332049770042,-0.7422770644178946,-0.014360782711502651,-0.8580248911184536,0.26644791844190596,0.9747146188652884,0.23382772856017575,-0.00382004863427321,0.001998755078603809,0.40599781818770153,0.6015654016784371,-0.028654379976964295,0.5116023664616649,-0.8994056480134898,-0.1893039280225295,0.6717121431280801,-0.06874793003401591,0.997778291491145,-0.4293300384793586,-0.6471946969903593,-0.06525290477555146,0.6887103076797156,0.3373780322233322,0.702602042879801,-0.8049314846092523,0.8711773545860735,0.39019984770311966,0.7717497671924738,0.4000095499588878,0.39084727537429975,0.20491101827473068,-0.42315568270872217,0.9500804988334854,0.9037553152180267,-0.8771699346624438,-0.9037518967561369,-0.013248453429136386,0.5237651388044469,0.22341122763211052,0.13600548156806536,0.12956485467743084,0.8785891854636454,0.4028583941415942,-0.4965763257495217,-0.8278921659424072,0.6647244885136976,-0.37077127292857504,-0.05991177573733819,-0.3920339062561977,-0.5596983468403867,-0.7262326633172391,0.587017912405029,-0.5499801739690062,0.7585461682756756,0.8977351411381629,0.3689645118168501,0.3657772922305347,0.2901976095805805,-0.24183466468840864,-0.1216248858514466,0.36426268144324125,-0.26027098145444905,-0.994580103392001,0.6242689243541562,0.5935320367320844,-0.05853455102302196,-0.8921614586458941,0.35689415942305525,0.8147740273667279,0.7651723789319895,-0.4317734535974085,-0.812697114537124,-0.8860177490859016,0.6060057954987896,-0.5703817081869815,-0.17132283937644632,0.2651121965318495,0.8597940904533372,0.05905252815217876,0.9334027884800471,-0.6460212969991206,-0.007979701438201703,0.04230113697207338,0.4710397540982698,0.37080246517737003,-0.8668792427936953,0.28290488163043137,-0.4165162430364615,-0.8968111999202111,0.4684203937625988,-0.6247843098280297,-0.07447834741329973,-0.8091756892529756,-0.9940990507914049,0.6947318331671426,-0.3014248596725022,-0.7344475611141106,-0.12262535263957797,0.9372308501591216,-0.7220794200640377,-0.40518763318908047,0.9521729245412236,0.20996859406566193,0.0006015608605660638,0.7615111343965149,-0.6969984164804803,-0.17580917920014483,0.4000326660983513,0.7359315854916644,0.35349708272632197,-0.6287965099848505,0.5261519394396998,0.5467512893904609,-0.8537393185821434,0.028731974875952915,-0.45506992132772406,-0.4627137342523264,-0.29716213986631357,-0.8355460900001412,0.4339817058099882,-0.06595855551016139,0.1870108124403822,-0.9935782419357999,0.17579826262327036,0.817621219956514,-0.23222995973132932,-0.08309285096301955,-0.7848706626459419,-0.21257029073898814,-0.09837125245298028,0.8076922571589349,-0.7038346807171181,-0.5004772790224772,-0.8770539041348042,0.4870009530985566,-0.6952272285217214,-0.6560471495567466,0.4038847914055297,0.2220938951539484,0.9372909901180579,0.7329988491075718,0.6448364943291103,0.7479954657794641,0.5530569420193716,-0.8099896464026617,0.568561197903009,0.5304221337679123,0.47302429505989374,-0.5816806912035724,-0.09113880373641337,0.3843947654020876,-0.795325022448051,0.991530209908424,0.9481612043073204,0.07927918799947786,-0.2126618634965567,0.6211713171969693,0.04999781933864922,-0.16705662442628144,0.17739586838797794,-0.020412049211782968,0.8772094510318285,-0.8001559200518251,0.05613422955721781,-0.4258730888904718,-0.34160305948840697,0.5186229887933402,0.768201785624457,