-0.7396271436119153,0.25223221311650224,-0.025682390866284877,-0.6326836519930743,-0.329444516193643,-0.9788650427110439,-0.24011072107683984,-0.8888564152107146,0.07236735968036956,0.17287155637574037,0.8463374631473153,0.22746898079775058,0.33990897924350216,-0.09882661198706932,0.4396809570754048,0.6254042415826015,0.3447675490806621,0.7092690890358915,0.9378219756909052,-0.0202739364633433,-0.7447465666376571,-0.7115373629959103,-0.49805585685676634,-0.9216582334542782,0.6670753795985467,0.4093562444359542,-0.7846230964042042,-0.05912457457728748,0.940308356671079,-0.19773019062365926,-0.9164648291113218,-0.02646425592331436,0.8516294229606338,-0.22582516468724134,-0.8135973827510461,-0.028148905381610856,0.9357523003236901,0.6376694340185542,0.5301749106084734,-0.5514140606394606,0.9962531628640474,-0.40112363892375424,-0.23708447298323665,-0.6225468382290993,0.41576873564148986,-0.9420124461081791,0.4479010895687263,6.560328990135034e-05,0.1190048018555121,-0.9998543931303931,-0.44410772219062844,0.5727998828964009,0.38177677753949757,-0.0070145638221033035,-0.42994656815067955,0.9481975342100055,0.0584293403381817,-0.7610622830093432,-0.08490799472306132,0.4940105665733445,-0.41699573210760965,0.8503484402251349,-0.6227259966181604,-0.6287541993120178,-0.8093442714006727,0.36417232010914935,0.3759983735346939,-0.23709891060463573,-0.615363519672024,0.3520903854849091,-0.024782034807645292,-0.666471672950151,-0.1777839145599318,0.2432458717279653,-0.4593698180621013,0.4110696673508296,0.757556158668367,0.9195867704636753,-0.5411457280591574,0.040285179376210234,-0.09592788997255686,0.21514792205735,-0.9583507636300093,-0.3617284903347673,-0.10235566742871627,-0.34170361021945306,0.5441441257415027,-0.10472190117242519,-0.3875137614873436,-0.9376376897484113,0.4167893583043951,-0.7554193637627424,0.34564086699947083,0.8289309901412945,0.7887973021019783,-0.34057253465390236,0.39964230166849446,-0.20338404042965874,-0.5759771172331212,-0.7217437616431719,-0.19438869375647339,-0.3417796286431203,-0.6204848321333645,0.4527685192959934,-0.4729537927037426,0.4040119147379393,-0.12485370693138909,0.3091396523716343,0.7374850370470134,-0.6662265796382048,-0.33263820261025057,-0.7143163425619572,0.28910242209382186,0.8162822738264288,0.0762292705121701,0.33360669169685386,0.5386126207007589,-0.950327968855692,0.05970931374534638,0.9323261424778329,0.269511845301762,-0.590968270170795,0.04639621222871715,-0.11667076366008211,-0.31021990662549803,0.42542495563157146,0.8242049205798245,0.4850061856838612,0.8003131644398238,-0.7788619167296491,-0.5039938676776321,-0.029237435129818357,-0.0994781412395851,0.12016476389165498,0.7075246540905893,-0.9911554039458472,0.7476624743853122,-0.9471442509945172,-0.559770223901336,0.7838712672852977,-0.2105526070429733,0.45418712819282936,0.2597222185090844,0.8939648374984388,0.49840802152068053,0.593245621997611,0.8041199741204479,0.8586270527113931,0.6225567392411799,0.22701417459670403,-0.47721381153748066,0.7724259241100759,0.8620698396380404,0.39268891835334974,-0.9582562972666377,0.22889692514231785,-0.4152193694033526,0.1794076266633431,-0.1324094521236081,0.43571779774496977,-0.09216182817502827,0.2461960537576886,-0.6394030496431942,-0.10459916819900816,0.9071636508890986,0.7423901563133197,-0.38462906728458046,-0.6674701295965815,-0.7011499764403035,0.06829324018825922,-0.7516185580843033,0.5173174823285234,-0.04897903147752958,-0.47034913451763183,0.19585922088462548,-0.9396024056891534,0.35776955881425665,-0.7210180460197406,0.5132260125694299,0.26141723834705166,0.24009770328526736,0.6784311052015901,0.47252316529997396,-0.9328104413099416,-0.29780926038016275,0.22627843782412715,-0.9125534863003282,-0.4982251427938249,-0.8919833303395075,0.36593455921196205,0.3784280598312759,-0.9420559707960543,0.08131576122433315,0.20128351556871182,-0.7088162178475959,-0.1281919508188012,-0.3695554581185727,0.3971956774810752,-0.6191498358838898,-0.5681991099660015,0.25926928680355776,-0.1495503712599644,0.8327952761714577,0.4687953313909994,0.9573766790463423,0.15394201786546713,0.0229320710639751,0.10091090745984976,0.7987723050379343,-0.9579587959781244,0.9306781435595302,0.35406137655665115,0.19315078405529107,-0.5326496723614209,-0.6029709382190303,0.8210957711553626,0.8412335734832297,0.9682513512105599,-0.2666172303630583,0.8277570567421728,0.40058068306763883,-0.5839594657848726,-0.772525329477092,0.7180464390700709,-0.9736753755464913,-0.8604713707200231,-0.995175698261207,0.04819534550359239,-0.5565178235678074,-0.3095320540158293,0.6763994461514578,0.3484575543459909,-0.37002927555955445,-0.9356087990120523,0.26536896632018925,-0.9127615799143036,-0.04728661225310948,-0.09756722973016863,0.34540574892111797,-0.6740277390891951,0.335803352802728,-0.04345391006753174,0.9146714129789555,0.8608955599850123,0.1673687315556167,-0.10680645196643535,-0.6931616919030879,0.6673948806294028,-0.4543663054320617,0.7603566719706065,0.9759015200156846,0.39100260788229213,0.44242588415103845,0.2090951206322227,-0.2814894698043926,0.9382952870645613,0.4092008499037496,0.9238379914657799,0.7581538007551518,-0.8261544393466302,-0.23135264045207937,-0.8252996195645104,0.14545168227654015,-0.66996014016465,-0.7714575129794345,-0.8065031188675604,0.7247831754267366,-0.8127447136482848,0.9873647637292384,0.8562517789861901,-0.25350010769553233,0.5936891397077688,-0.0725467832767428,-0.21440507983779256,-0.303384389636957,0.5051419588815191,-0.6558563749088735,0.5063800472352251,-0.6089677093557271,0.10408180217877794,0.6187101659485015,-0.21139253890291676,0.7468174205919402,0.28554852489708615,0.19334450590897667,-0.20743761911636938,-0.051307525684598954,0.215323210366688,-0.11409631146585197,0.9863162911302763,0.06317333969217342,0.5701184908181725,0.013606559291854614,0.254930706663538,0.7989951067927803,0.7954987272228584,-0.5904600015425328,-0.5562603305260914,0.5458285865972246,-0.4908993533160635,0.36710814226173216,-0.07325020874119126,-0.9622181852801655,-0.6508099481519825,-0.343915910996637,-0.23162438516575823,0.7538433198975134,0.888455977141271,-0.9918591758482995,-0.10894380423196837,0.054696611297941455,-0.008450271137060872,0.3744888277814655,0.35378530378240813,0.27403271463531165,-0.3856814795073209,0.01764740870202708,0.1957894938365854,0.47922302432236075,-0.9364487132546226,-0.7556531954869261,0.9494519513533632,0.786696871949768,-0.47368489724933616,0.9037071447787981,-0.42288442864061304,-0.6354110011431846,0.7652979996433429,0.7355692041935022,0.19015817740930196,-0.9629722692164535,0.010517993708031304,-0.7963346375506655,0.5181973496424064,-0.9689843681702253,0.434202327415643,0.8437308936825343,-0.3818822357434766,-0.24380865461312107,-0.2269132490184409,-0.7170626564257774,-0.6152193546842601,0.3274836819703437,-0.8969210070759615,0.8403929446335345,-0.7080770880921745,0.6337275878670123,-0.2150305607472498,0.1750869258551182,0.9235510803917466,-0.9058423885287381,-0.017964642839819467,0.3093009451990041,0.05788695487366424,-0.023496508632422808,0.5017824760185836,0.753907958634104,-0.6999812365777445,0.78726101269903,-0.3961441476638359,0.18738386148965835,0.8097370648546816,0.6397937444059763,-0.03988090949315937,0.38125514556794093,0.5702942633507293,-0.821665236984324,-0.747078871256456,0.8524434432887704,-0.06284217269488379,-0.8032124272026469,-0.00021249432071313024,0.7891190849926406,0.20159727189817112,-0.286476284891221,0.7917852277733579,0.6876384887224181,-0.5866692009420871,0.0999468653008262,-0.8170042404309492,0.3826740600302476,0.31919357123591996,-0.5296907445072576,0.4801830678964667,-0.6897493907624337,0.6024190302293417,0.07764180772616536,0.991790607414226,-0.46506629898556295,0.0008887720144070688,-0.9882375775524213,-0.9804343738703682,-0.5271658819151965,0.6467803534468879,0.33129040200398907,0.42978122957274945,-0.9297904864574709,-0.47540230499405944,0.9553856469144264,-0.2759648556994674,-0.3022033204969221,0.6156531928660216,-0.6442029453804601,0.09650947373485219,-0.3330275884343865,-0.8951778479093586,0.5250237148839079,-0.1618655569754741,0.7223338515063804,0.7664972560053327,0.8110193390101368,0.2345228461479698,-0.019965856562736972,-0.355373402360758,-0.915283622491202,0.02828201235393557,0.18719694574253287,-0.856096574960409,-0.8032116302718353,-0.9536970127520086,0.4229024238783019,0.6451644565440007,-0.3360679511633897,-0.4921897274763847,-0.12450909329729298,0.49906755150743387,-0.26166565547612897,0.611468305222971,-0.14842696480148354,0.236026062895337,0.8819436946035015,0.8516599287715414,-0.7032522344005301,-0.9262739131213091,0.5347946992035626,-0.595431935651082,-0.4958376068615262,-0.7433104379574373,0.7624150847545661,0.07422863204586894,0.2677154555111023,-0.6802279572157908,-0.2274601668394416,0.5496818275188806,-0.5963198058648802,-0.8792213802074231,-0.03531781071113049,-0.6298096394115973,-0.2420079641352577,-0.7781195287512788,-0.21360562748029666,-0.6541193140281287,0.17179746120093964,0.6229164444359252,-0.7303107785190248,-0.8704018290011957,-0.2330418056626291,-0.09806326348431171,-0.6485950013588595,-0.7203716947350047,0.6795045171582172,0.7465703739786689,-0.5504185234107368,-0.7010185229647179,-0.3193443052088645,0.6591578051263476,0.12020266891212494,0.27547287618966276,-0.8143039457626544,-0.8683475402363983,-0.03202341705076783,0.26555338993522026,0.7721153661793887,0.957414276475975,-0.3525914995144688,-0.5511405628031603,-0.4822190379540745,-0.17533707810938925,0.6558274223198814,-0.9283263928014267,0.6099878008526729,0.9186011143813095,-0.7862763610933379,-0.887930246949733,0.7009964248063021,0.28640979960115853,-0.3905322203182784,-0.4086894942580126,0.9201366109055003,0.03304987991000208,-0.40616969972849515,0.5921990864290423,-0.2811150225212471,0.48376042652051066,0.1181101428845206,0.16969155209667752,0.6671232409706083,-0.6367740114519735,0.8298193956139013,0.07663835196795077,-0.643026156998459,-0.37065158374241003,-0.6459929668877917,0.3450068203787986,0.9312960022888979,-0.7096833399752189,-0.23828840214925706,0.34315366113137147,0.5475428040477712,0.28715805041076603,-0.5223301957030912,-0.26251829926584547,0.7974051840177723,0.9780374119871977,0.9898188870926139,-0.13339885593200074,0.30978295727547334,-0.7888056042131586,0.8043827713802532,-0.18924753450097587,0.724464294347613,0.6061374388092993,-0.5273902618762918,0.35926082985086305,0.5896567862600908,-0.3815163610489152,0.828486174724534,-0.7644894050217377,0.5962108434877742,0.5618250006607461,0.9741135390017466,0.019188560422800816,-0.3572207703192938,0.5720938262658581,0.7781853544090924,-0.7940300065822679,-0.3752267018187996,0.38737884260610045,-0.9647524865053672,-0.6144282435478632,0.8935247248783114,0.6130248954346946,-0.6761288164935193,0.6678218046606006,0.6574883813491832,-0.4532175342346292,0.577995490697436,-0.3867771851571653,-0.32428285959775605,-0.3648066486588257,-0.6271745735198677,0.06153783310330163,-0.5534241281690628,0.4661232325050271,0.938704917189326,0.1865725874490931,-0.925964617684045,-0.013020487317740859,0.20835355824135093,0.03348753872521515,0.36346625311489245,-0.13224870904292563,0.8734535685054583,-0.29404146580023305,-0.4919285024685809,0.21391398673469553,0.28290425003614517,0.05727775774552302,-0.7534265452772722,-0.8292431454215745,-0.3561992446596778,-0.4020139789215629,-0.4752437682795003,-0.6402014893961419,0.38750556391385804,0.5849658922391923,-0.15755606318382065,0.27211420311838963,0.953507892260059,-0.8400953935842981,0.17423745355446507,-0.7239162519220042,0.4565709441704766,-0.7607703848673093,-0.8942675017736921,0.35872064300457485,0.20503333129359902,0.3318452315775664,0.3998951582453134,0.21017486553022224,0.9089287117847524,0.4282173293159346,-0.5796986793462269,-0.1849183297778243,0.5724391446138715,-0.25978939531091627,0.1561426382886255,-0.35444975677985524,-0.8914361066335403,0.10481267942380534,-0.6768194642475636,0.004995167824467517,-0.14443789266333473,-0.13056853985600814,-0.2874119627214069,-0.039140220242273926,-0.8736874198016007,0.9793987069657999,0.02414771587254383,0.29447772429373065,-0.2994488335092833,-0.09397941484605177,-0.3242172322250587,0.9989860208145303,0.7836235127954456,0.1667677345082259,-0.501070302937642,-0.24107405561093453,-0.01509448363926058,0.631543673737825,-0.7856775586508353,0.9345666830755772,-0.3024227766945784,-0.050505574645274276,0.5678313495876048,0.8061092942098302,0.8057504871045666,0.9822365157153543,-0.06365266471298092,-0.8551779763011449,0.7786292522745009,0.13141272449690233,-0.7275952090880389,-0.8080676805059088,-0.874387382485649,-0.9659624696198628,-0.06907540513745558,0.8674462434685208,0.24536911968284336,0.46513174470593377,0.09370418654307011,-0.1874988841689229,0.8247473654751474,0.27966594642430787,0.9137742305135976,-0.8151800586944873,-0.8869287311110101,0.6013489111879926,-0.20012942952806667,-0.8137826484126278,-0.35424597267102564,0.5453479763236964,0.16626985274296402,-0.7594484100531318,0.04593323955835382,-0.10803928549185038,-0.6976788053549181,0.42877467845635375,-0.7204064611825178,-0.5286193553155596,-0.26642992470796867,-0.806171317177651,-0.1542924291010459,-0.9473592744547261,-0.6460313712189869,-0.05404230680501332,0.8089927320070673,0.7966986254270119,-0.8596014694424197,-0.24911035377930268,-0.9484241280368568,-0.6486373434437256,-0.6291869950615325,0.8571812786506818,-0.03593109097305769,0.09287363726986686,-0.747800918417344,0.8812574084368501,-0.30295135703830134,0.03769061914584859,0.2638497656620089,0.754559002317321,-0.2310681704047619,0.23721938591860003,0.005336136033536443,0.7847480666342916,0.040025984681607785,0.2807856001047633,-0.9356925583957243,-0.6429795369914206,-0.5348069270604183,0.5070091627863227,0.8541755564320257,-0.007291643767761258,0.40620959104214216,-0.8705393942226933,0.7928075421147596,0.4147513545368118,-0.7496449158669998,0.1719614248707111,0.18168122196399206,0.2503066411690196,0.23604032477662407,0.9746547066453162,-0.28499056021290414,-0.34977330195309575,0.9087624964411842,-0.5603825944405729,-0.05466100094604798,-0.9819649746007129,-0.2986369683532928,0.5296216158996703,-0.12475017651636389,0.15727936835815282,0.14198030715467502,-0.9934889761091223,0.7914798185622975,-0.34034088547057073,0.5824879101625706,-0.08960984017819706,0.8735720298596346,0.1578343977521124,0.24663758683808434,0.7191642077623506,0.965634047193507,-0.7228842116633647,0.789491287776314,-0.7619615266519069,0.6152414035676155,0.4072211327605164,-0.12170456702341625,0.4267004953801097,-0.6172303091506093,-0.7593139410710101,0.24308010281599257,-0.6818069088582783,0.4864922672734424,-0.9825768029137747,0.9696918041852689,-0.2753611787808383,-0.8858641116918071,-0.3089305562383948,-0.5767743420388278,0.6908940420563707,0.7391591105742306,0.8847052329356206,0.2119583740578863,0.510013483140304,0.7986419119538735,-0.46700147207374143,-0.292898824832563,-0.21407203374560302,0.059403938922882205,-0.688051566343056,0.7843839962261265,0.983676979666064,-0.386996594099545,-0.5601741464692935,0.0823950736974357,-0.9947479008347291,-0.4520703108748412,-0.4290405185156345,0.5426980004279149,0.7346370775452005,0.7520068195843161,0.9377327897748864,0.5032661011478288,0.8879436310859292,-0.28537069661915004,-0.00847502366639774,-0.7076314987056418,-0.5023413111172002,0.8607710727675013,-0.7768142377522924,-0.4189261294647266,0.5179677376859506,-0.5516236418459257,-0.45307064072913805,0.3417027056913924,-0.8252446845046246,-0.15095070785765796,-0.11305927975104502,-0.8527439940506503,-0.36751903329176216,-0.9096422517619267,-0.6790932542544201,0.1127026995347129,-0.625303117269894,-0.08451554862125188,-0.537867261240637,0.27145962789655664,0.3402709713833929,0.3321373727722019,-0.754839963573608,0.25165973661945085,0.8956027760811238,-0.8302766000725739,-0.9794254399566662,0.5419157537288841,-0.3146002012580902,-0.3222652354304427,-0.08342347599920652,-0.7459326456988074,0.6576911301237716,-0.34968055276135823,0.23039692452728655,0.2723705810637451,0.6661346392269125,0.6685448638485363,0.9950376744886942,-0.7381495696216431,-0.11915618182955479,-0.1022640358258986,-0.33018030635476303,0.42680544087372896,-0.7427351067481338,0.477643479735095,0.015844313152060474,-0.2385344381261738,-0.42710452963765966,-0.7840186302133008,0.5925523741990226,-0.2681123800397265,0.9180168689115213,0.5086963959106154,-0.797173142559755,-0.5663107927773052,0.31842217689431584,0.9164241020838904,-0.18989312614143006,0.4078762296111096,-0.25451571297004927,-0.2699251285877384,-0.33435514364031604,-0.8113406760468136,0.8951141707868004,0.08661352062159589,0.5483284330953986,0.18070965130885286,-0.9253324950946762,-0.07922059008573101,-0.9161243089409923,0.8376193198594117,-0.6864201496515028,0.07261508126271399,-0.7765105468552622,-0.9386612912556094,-0.28201960248588187,-0.7841630716977401,-0.5347088532712452,-0.7002856160782374,0.2911296658259197,-0.8782524973724093,-0.21866128504410431,0.06571794528355634,0.6532190922362748,-0.9191847574939684,0.7080434197369705,-0.2220088774147595,-0.9520225966044169,0.7151030496456665,-0.5254716529941916,-0.5410286880612944,0.4227236756400272,-0.5956253435538545,-0.055823086050554416,-0.5024042206012795,-0.986890992513267,0.4634002605116929,-0.6697707400113049,-0.4171394882252015,-0.04466580020220512,-0.9641512183980396,0.35365060032058193,-0.3885907588773492,-0.8547609993211214,-0.000844128280215406,0.8010760293631325,0.8586941012359524,-0.8931637438978819,0.2834355885042721,0.3555057020837531,0.1408264802193362,0.5904865324041868,0.7836148690014526,-0.14650135245112383,-0.772321053641247,-0.1947419571653115,-0.7712451106683278,-0.20925006828855008,0.2507366619300233,0.08943182797553773,-0.7005125553849265,-0.8760700193838658,0.3814920277168514,0.2748210803810123,-0.7466157126143229,-0.8740847164955436,0.6612127928308922,-0.44181882032276554,0.5010556581888328,-0.9262589061207189,-0.06763376248336428,-0.14360236026885964,0.6607150601891392,0.7786754017103905,-0.34054256036181885,-0.08781199374104953,0.47021766514357544,-0.3776271859849405,0.3669531156581878,0.523050605506199,0.7263788092502739,0.4994465026251387,0.15123665854406143,0.37458565294929214,-0.800423170445961,-0.7125491320023689,-0.9118899188718297,0.24460289879268493,0.06381804498138721,0.2324606722394642,-0.30940435625050244,0.3570686605306139,-0.25026674216172196,-0.44912787336361815,-0.005386725435755135,-0.25300478452549435,-0.47508313513031664,0.6886190863741293,-0.12381765387567323,-0.3853831421735947,0.5719992644134553,-0.06681887265832209,-0.745751884986835,-0.6331301567724399,-0.49928131462989445,0.24959571948537396,0.9792349415859265,0.21578259768687835,0.8540738685730109,-0.19840065210342472,-0.3901723888188755,-0.28829469446322253,-0.8419466765559604,0.09551865285872596,-0.68016068457965,-0.35844731592205936,0.0646308049568789,-0.9275128861304114,-0.6053709711293946,0.3212565851454732,-0.07912345723589032,-0.6858016642153331,-0.13326332898118531,0.7592787505761118,-0.30560370052872,-0.2588050290534527,0.8880196916398864,-0.21578819610554456,-0.36749889215169285,0.9523102409644291,-0.6707558778107767,-0.7086764625786166,0.24772043092071683,0.7514947201038977,0.899937301435531,0.5687128236157812,-0.9286162436517269,-0.8638799085133322,-0.2212630522665613,-0.5984733248256155,0.46670917987201976,-0.2977733721243936,0.9895876629967906,0.7408519688018531,0.6443668976018464,0.2251108374231603,0.5773462395419142,0.8347245838227952,0.8022469565387531,-0.2083139265713907,0.14431655572951585,0.6381109207595823,0.9975815918290747,0.04457138183217002,-0.23072655618857119,-0.7898197570636505,0.12297855205670927,0.3156010246842671,0.8144445249813244,-0.2821090698710744,-0.40966405563514185,0.27748459255832114,-0.5312332986734758,0.8429316143492533,-0.6610567792116366,-0.9311239614669371,-0.9990374094912033,-0.41168403760473526,-0.23091767125322882,-0.1334088328066083,-0.09165498930517835,-0.2235978152382001,0.14043361156769474,-0.1347315932817752,-0.8877936864270994,0.19400107798833344,0.7163214168095806,0.5556379918671246,-0.13806693142983573,-0.4615949985744532,-0.0962455918068561,-0.25779737234754996,-0.3910040166598201,0.38237991763781487,-0.02395481187362325,-0.42225106520918887,-0.7144309701036169,-0.30045678868978043,-0.2260315818964449,-0.30194083703316754,-0.409425558982933,-0.9914885694976852,0.1368238249382976,-0.28556240438487657,0.9117613688343684,0.02192542507371953,0.7197787693641196,-0.1341707097773941,-0.33024706249684743,-0.8084646086757792,0.8742613122509022,0.12501529005846002,0.51292549009672,-0.4608630281633832,0.8319435451789181,0.5451611290836873,0.8520331234224063,-0.8270005569268619,-0.9574765307949717,-0.42914863255839886,0.8387489414465903,-0.636887112297301,-0.9636472228027724,-0.10569431569117738,0.3010632884578377,-5.997217071618266e-05,0.9885891775736477,0.5191558668237464,-0.7856413198477561,-0.8709146333305207,-0.2510467441821447,0.5125424985985911,-0.40173399534316845,-0.9126462531380257,-0.8226421768583154,0.13169238545924267,-0.28543411006890507,-0.3433291020325162,0.2677746759532267,-0.6080534524514571,0.06470531965623061,-0.8236034242690513,-0.873089297316263,0.14410011560153513,0.33624137205690285,0.7660708034708184,-0.3781793049308251,0.8342415191599033,0.33363667694971055,0.04032311912629427,-0.1468619541617029,0.11586604005314038,-0.8995691222272515,-0.39818379808603055,-0.8604099192106691,-0.7030682617876265,-0.773553889712566,-0.3517899092216812,0.34489846672452185,0.3396255693893184,-0.24312969573750598,0.5975752886147994,-0.6374604149587961,0.4879670562068812,0.7072888029102047,0.5299030084070997,0.4053846355904811,-0.3228867380098821,-0.07003736595094767,0.07611227609656512,-0.7460414944305598,0.28400406094686037,-0.18723669707253188,0.39025273421720597,0.8475025028671781,0.6798042946784222,-0.7807085638527584,0.7240270405483284,0.38886593454428975,-0.02028721163121605,-0.7012844602233594,-0.2947666310030468,-0.2574554988119362,-0.16295354173692145,-0.6816390294515775,0.2893629133391462,0.27755529745847296,0.1920047963777356,0.19294203571784996,-0.961927903844001,0.5936265098562108,0.07467869724260678,-0.062220484009731125,0.7822258757186122,-0.2873645313732154,0.7041995108251908,-0.8718745574149778,0.7377129230624404,0.17279833219912333,0.8228989315001969,-0.5751449643954005,0.8353526846213146,-0.25637104628722396,-0.9853916370850972,-0.610194566373506,0.7710112417469264,0.06235237160061491,0.33670942635008627,-0.16281895256507162,0.5942289905159082,0.6726916713242856,0.05646195312305036,-0.8337276680970092,0.18779950811806279,0.9459087327006928,0.10257269284047132,-0.4813068615086151,0.33615172952192274,-0.7768643151040799,-0.11399698222450527,0.38746789456371244,-0.035150684097720486,-0.6361137820888814,-0.2706624847591146,0.00817660161182121,0.9107300225974218,-0.4934954291197944,-0.9442788246790497,-0.9267797538385347,-0.566287094808674,0.4931163924348301,0.0226107887294813,0.02668954138198476,0.8683609335850926,-0.5144694595078183,-0.9590903375611584,0.3990984631596126,-0.6043301507429062,-0.07616998753206294,0.6526181397546502,-0.107778966104489,-0.823919452924023,0.4017632919999239,0.9341164066679255,-0.4636398578938037,0.5577619647975245,-0.5792243463860809,0.636607376720524,0.2726610624878767,0.23189897655230074,-0.37475223044703077,0.2732970923415783,0.5444674326398675,0.041286175342080345,-0.041337988289630756,-0.16369959671439394,0.5158948366952238,-0.32913975934910367,0.9906250711420523,0.36777035479651254,0.7654968605551622,0.9763513643617396,0.6638200885067518,-0.4253049467477683,-0.6710671894690456,-0.07329309602513123,0.30518929790601423,0.7193855180237985,-0.13791888255297358,0.5150279076570614,-0.8311532857037938,0.5298368889920804,-0.6626811421669103,0.4139146177139039,-0.4932020865085054,-0.32233369912997567,-0.1053427684574566,0.09097275360577517,-0.9804266402722108,-0.9547693234860688,0.507294699893198,0.7625988595446811,-0.02618533033179471,0.45279972318317085,-0.17400645427361172,0.6314764897398732,-0.9644054862318288,-0.3701589697622918,0.41881332690583917,-0.6773067523880127,0.508700162856569,0.779552397382093,0.8462488762530211,0.03766787007624939,-0.2872057649567792,0.7437476250989228,0.6618954214377926,-0.39943054058352656,-0.9033540699760843,-0.5929944075828939,0.5104617761103338,-0.9005576901407659,0.7421023539648521,0.12171712279623748,0.8916459069494875,-0.2772043935186703,0.9792714697586775,0.4501741004512303,0.8353866078018009,-0.3082543539148821,-0.2534014791149555,-0.07199149257898152,-0.3684549012771634,0.363027634998484,-0.16343080485693928,0.9553158848579657,-0.013008021835738903,-0.5707997853192586,-0.9751003683810855,-0.6067398083947699,0.9553402078303437,-0.26919726775503205,-0.17380178973169857,0.05794211192641319,0.7951163074779208,-0.22882622242522976,-0.04372515236494934,-0.4371710526270729,0.2708654285584249,0.44866910505038615,0.8106917267127187,0.4318864420330628,-0.7451014544960528,-0.8446640379834165,-0.5770875381398719,0.5504928990867952,-0.18022481730090512,0.2718017061015028,-0.9012258721140607,0.9488843827078333,0.12595691154704225,-0.023703707894008996,0.11731263253063151,-0.7539519310615306,0.6873365795085136,0.7862377750655876,-0.04433498873701347,-0.09463182590666408,-0.10830740739401201,0.7051802522892383,0.9875956788640401,-0.7408577427153824,0.5779222346490398,-0.41794613612591247,0.32437620476741147,-0.1572384083399776,-0.48356800260486477,0.7102385015245527,-0.21166213160365022,-0.4305173017808619,0.12370641825591244,0.25780926163273565,0.8081461550507569,-0.8490839919586319,-0.33285551211924247,-0.20512523052409493,0.41980506848440236,0.8829059528849938,0.24578180279497608,-0.01458044482958476,-0.4936860280825426,-0.8083264715392477,0.4544535175488926,-0.16695645650834723,-0.6292775924422696,0.04192874886856557,0.7590665853463945,0.9525867390007121,0.5263270150075876,0.6593972714816043,0.2947595136991734,0.6168843729736408,-0.38727529995035526,-0.02621465051309646,0.6889567767646054,-0.9623270494296641,0.211019985749463,-0.018592076825578507,-0.19531779167967178,0.4313384134044207,0.633700222668059,0.32509428251222383,0.5882226413810183,0.2536475066631123,0.5473709389495023,0.8185508721583139,0.49562297437776315,-0.6394333016570035,-0.5508381890261385,0.8019481798014318,-0.4204785781294107,-0.13210982150441852,0.2397101001866997,0.06982976894948001,0.08484417067690564,0.9703521938468487,-0.5123743622357675,-0.2912439851271318,-0.5156755812208538,-0.5917479532974903,0.09986483169229654,-0.03862572475561077,-0.9092451293590811,-0.4769792555278187,-0.5815867971414654,0.2560901026395488,-0.5014779961791223,-0.1785181571475487,-0.14706416793764632,-0.5812142934447708,-0.609003315414367,-0.1522559672095931,0.4091422621942562,-0.18391185107799934,0.032059262840824276,0.31902953478921914,-0.3409191845884407,0.34591243558115115,-0.9108298683022433,0.5064248598553585,0.1309242488377702,-0.8815803599761398,0.6129521419449013,-0.42520914297661316,-0.8307783848252341,-0.8352068355873861,0.8774219495403459,0.9616412410505963,0.22212550212011473,0.8973051062830109,-0.9718448666221624,0.48508695555602865,-0.14911349533933382,-0.9313928580500315,-0.2518561967023938,-0.6278293990529997,0.9649622154527351,0.4710707937986618,-0.844813506337647,0.2643164365191537,-0.8099550011216978,-0.2341962500991317,-0.31632399936343636,-0.509656472438538,-0.366577483998733,-0.997340244080156,-0.39249740873659,-0.4568589532027636,0.8252029177915785,0.6660374305802661,-0.7993280940656748,0.6412843608653693,-0.7432063877453094,0.13945475591636236,-0.39269637731287954,-0.9294012646847609,-0.33508641312353293,0.4126937154542354,0.08418825703410504,-0.5567879085720073,-0.680831434438246,-0.9446296617052237,0.4643078171172357,-0.1426512789684955,-0.855478933791701,-0.9320361665632804,0.9805489176812656,-0.15798752929691062,-0.30464255469239676,0.7618984906369759,-0.5790053500072168,0.6029182182266759,-0.1890048079805482,0.8047593299335452,-0.6016864567890601,-0.33538764123624176,0.36767150324114484,0.2937270132918488,0.7436398528181258,-0.15348780552980146,0.3748066446788805,-0.9835928644826528,-0.6761717467166681,0.5865987827760852,-0.7475821133625471,-0.10788099244640126,0.819379625381198,0.4709517297073529,0.7216856949677064,0.3225454327196555,-0.12443363986999323,0.7441462070442448,-0.996961906948717,0.5134517777320242,0.541747217118842,0.04299803077960318,0.5266752492703501,0.9983317627453872,0.2230984363401094,-0.3982314885634859,-0.19142528314370977,0.7316449803072995,-0.637020312814091,-0.47673422354941186,-0.04483736262883764,-0.05771755491297492,0.972571118215156,-0.9771052945631513,0.18170185743900213,-0.6214625452363796,0.38041467071638624,0.3383920687784985,0.9003964043072941,-0.3045720228566602,0.23373269836530652,0.5158585015797923,-0.5468517146524512,0.8958468996252771,-0.1853099164440537,-0.06687056123188251,-0.2682914319077554,-0.8315102977188471,0.610509197378658,0.9238447041649549,-0.8133444033914812,-0.9285822159302386,-0.724195066270849,-0.9636055202336036,-0.37482450748008156,-0.5715827477629509,-0.17723288598725317,0.2101549020163982,0.2015382751696304,0.41501487280168337,0.5274421462017256,-0.9774119318174548,0.7022320408215952,-0.6824153813349614,0.11171449537168732,-0.34908471137385044,0.8692887883662097,0.03299069713844194,-0.3649149393605584,-0.4059763086104671,-0.6121935403412799,0.4367572080668283,-0.8593754476196698,0.31326032984486507,0.6206316619459205,0.6134999991950851,0.6527673051967906,0.14685917951606298,-0.8792129214635374,0.8917371614363414,0.8666945888663324,-0.9900283575670077,0.6085867730604451,0.34859754223086004,-0.98410148408003,-0.9744790584877849,0.5584416418093536,-0.25680438074376233,-0.23561844914401675,0.44135734261227033,-0.04172462137465516,-0.2865969806926558,0.1265724201288696,-0.646585641817363,-0.6424799298998056,0.13257241797870267,-0.3972379680927878,0.10318265339094967,0.721715709858157,0.23835481694746186,0.3216202630506142,-0.025052491596294413,-0.05117785227090854,0.7802940247739485,0.34836131180066343,0.8042351741718556,-0.6004412229277456,-0.22184899330043417,0.5524716363148094,-0.8571862017436704,0.5412441607364562,0.5674882134696233,0.24952010509499023,0.7965304136706326,0.3469807840501713,0.5764754895081992,0.9453291922971705,0.10622415254539264,0.018095406214061915,-0.8983121737733255,-0.7620416986173615,-0.5971447133367183,-0.1765847359497288,-0.8847098814006289,-0.35674780261033456,0.9094302226889528,-0.8732971756018668,0.18600146531119832,-0.9525471273600716,-0.31209893235068065,-0.6685810859270911,0.03575379756478769,0.7066368358974473,-0.86559701459029,0.4845647035322851,0.7604446223940566,-0.6366304709471489,-0.15193285433027648,0.4305200728441583,-0.7920316127545715,0.09621094172797617,-0.4366404514771991,-0.83182641630526,0.5779640774170063,0.48296668453757285,-0.5554588829296385,0.06726428837311582,-0.4426206880424566,0.38413836631944553,-0.42645810800235906,-0.9756889782948288,-0.3110777254530672,-0.7208341214456646,0.45063433130067865,-0.2318285352249143,0.011241491935669146,0.8584019986272968,-0.4759637016981131,-0.9110172272256636,0.06360787968908732,-0.9795129131657485,-0.5891561529246099,0.31037473495101997,0.08039939791423367,-0.5909452967129327,0.34206855826442295,0.28616774364616204,0.587649336028992,0.6560836329345983,-0.44616504121121814,0.19020511795980943,-0.10703344300411244,0.5185864935922009,0.5867479829684781,0.7848876663223765,0.7790937703540393,-0.47487832299638755,0.1780959104893325,-0.6969686126773884,-0.21485843981576425,-0.7210696309046225,-0.5654861899579222,-0.08468061836193064,0.9683955435023368,-0.3559785613781532,-0.8664828231496313,0.04176804295954062,0.8078524249264543,0.532292429352559,0.9121769555359853,-0.7545822409668999,-0.44718612446249706,-0.9758488139284001,0.5916433721134955,0.521885160600051,0.35343238810965616,0.7301170847740048,-0.9239364865179136,0.6420345919462256,0.6142943097909039,-0.8899981677257582,0.4871168535378567,0.7548835676012731,0.019768309676106544,0.5584873362258671,0.16078417227805653,-0.929146553108902,0.5259223343129606,0.029264506184055072,-0.13623255055554195,0.5403536739882515,-0.010902878157848406,0.2179950025632913,0.010283939542847786,0.3695651025425408,0.03182592328808265,0.6837867858396616,-0.14080880764426573,0.9137616111132318,-0.4268348987237933,0.12624915536004333,0.2129647874546503,0.5830288435209796,-0.3048908728184383,-0.9757200925972738,0.4054577816892915,-0.7314229535323258,-0.05301608470149932,-0.9854264476050458,0.5059920418142416,0.22861517295127554,0.26127323827386983,-0.9640222133803551,0.3092339869494203,-0.1317720898063528,-0.6976822826021909,0.9966009272808547,-0.13431663617634615,-0.5181896986043,0.7101848905427517,-0.5126347296150575,-0.311328899382767,-0.4935919191156264,0.14673949266718078,-0.934371775975753,-0.6245813846489954,0.15850897269190245,-0.29384234132879694,-0.30022886592205755,0.2750524676432695,0.8806515444131886,-0.03374032354132783,-0.2566973272664348,0.4677526862779806,-0.5415078594529228,-0.1964093172182968,-0.47863927442751897,-0.3980231969967931,-0.5294713289642052,-0.5348571287698345,-0.5201815141822101,0.7254270414573161,-0.9509116201886991,0.40279063676119087,-0.01328660706017648,-0.3675133313806338,0.3785052999710139,-0.33897060465349615,0.3790389895480646,0.3301560194347679,0.9901238998259958,0.28174798767857334,0.1907095298381689,-0.5996834197898997,-0.9315184331394333,0.5425294529855396,-0.8879240875196786,0.10783871890870333,-0.9072748862635012,-0.8622352328074223,-0.4288827148127283,-0.4823185770465477,0.6221368897965369,-0.32936831678375733,0.7718025203583689,0.5919928398431542,-0.13380193694966258,0.42864364172955516,0.2351165273089797,-0.6485844977262929,-0.11464797211702216,-0.23256945382309424,-0.5801244663344987,-0.585153451785311,-0.7193800227192833,-0.9950665344350604,0.015501593815141046,0.7141189026305437,0.5732888997235268,-0.12717510441977642,0.6456109166511059,-0.014288318490527585,-0.4509298921541338,-0.6593625474015148,-0.3181357208006568,-0.41951430777483,0.5566950981148182,-0.390755322633507,0.8628814241686167,-0.5460673520892092,0.6084844798542481,-0.2376552548064843,0.3331757054403104,-0.1417986530399904,0.5094633361029792,-0.6996561120940792,-0.9210591256891998,0.06313053530718071,0.3713428141118629,-0.9625018428982914,-0.7883031090302999,-0.5116544682162705,-0.8658209920991744,0.6397778985037477,-0.7089993322768564,0.9180936655195278,-0.6508895467895639,0.3460728644144253,0.24749278109774608,-0.8446809900446923,-0.615765927890354,-0.2634673654599706,-0.5306414105562507,-0.5559351675049415,-0.9622829118921361,-0.6203069186063845,0.3077712991251711,0.11386000080220615,0.035202076870974874,-0.6088297164745042,0.20483521909032598,0.4643034855259669,0.008731641412572655,0.25522740677754086,0.7163043392698494,0.2296274132468088,0.980381947392702,-0.7112478288154063,0.005602633709322458,-0.7035204505467378,0.21435480259365458,-0.0015020464133288502,0.5540576360534544,-0.7056141017880895,-0.04399046360982917,0.5667867628609149,0.1603785611786932,-0.511298130506582,0.7076935144453604,0.12865259810701035,-0.7854218920206772,0.047975092917205586,0.12118013741895872,-0.7636485356275455,-0.891081951262565,0.5593810581844072,-0.061589508068639276,0.44519513361707785,0.23776003961816605,-0.2955124278583663,-0.799270948565181,-0.3445204411522216,-0.11896615829888235,0.9952989615398116,0.13358719527954732,-0.869309809414694,-0.6034533452000874,-0.3997539603005058,-0.5526454377714627,0.9433465923911497,-0.14901760888137572,-0.3276661649773116,-0.4329837266604042,-0.840205713322741,0.5981314986941018,0.19301704297765698,-0.8714907954554567,-0.44314751720967505,0.5357907836672953,0.8983705068343788,0.13497368433741874,0.28777674046652746,0.7454337980832326,-0.22568906740236372,-0.9048229146138174,0.5535874246537589,0.08750976872875738,-0.48259960311213845,-0.09514053232706199,0.7643123003443824,-0.826303093048284,-0.175321129069258,0.0705759476856167,-0.769586365661546,-0.39643140158205314,-0.7905972135797448,0.5458924052201377,-0.18309499020719855,0.42079222578117315,-0.8364922979347003,0.37703919908542294,0.8242621604327269,-0.3107058989206666,-0.634491657176492,0.4654160132277878,-0.18021901746097768,-0.9037949448399143,0.10299410074063253,-0.3347142491370805,-0.580415971400597,-0.7721807275988122,-0.08905134741312759,-0.34421817647918496,0.16068744276516678,0.13123345356372895,-0.1494437743459529,-0.763392468521821,0.7743793543969844,0.3263555981328523,-0.40341357563745905,-0.2946267954359212,-0.31407023597351524,0.43336010271893555,-0.8325939738286583,-0.2111096606368379,-0.8633274759003713,-0.3360912525402566,0.28613930891206096,-0.9071113008302245,-0.1833110384154939,0.28079564482605357,0.4698982389305739,0.9524712463412588,-0.2150531075952833,-0.7154229415372813,0.7862247113750491,-0.3623840297513121,0.9409050892702133,-0.39444719413740703,0.9748559126223819,-0.8993411579533561,0.3498058994705344,0.14737656203537397,0.6009187476349569,-0.9061827693094449,-0.38620822852922365,-0.40992042057504174,-0.9178606517322236,0.31696027591923737,0.7658071670406303,-0.9837142446558165,-0.8358544494234126,0.008678148134469987,-0.24325019489794353,0.3346977886230411,0.5878786856302947,-0.3447923759341156,0.7272248570006072,0.46746935225770625,-0.5482447412346476,0.6659185116717776,0.4732158723131865,0.7439528803309323,-0.27229071171457586,0.02626157043257149,-0.17732923159226854,0.7280410313681291,0.59890276739196,0.25037583286927645,-0.17729937815410435,-0.69661793425764,-0.6994856595702856,0.8626040127343864,-0.9081933525582795,-0.4065675881942359,0.12221470963313386,0.2618025956199621,0.29211309394019613,0.029384322575202404,0.9355014116356435,-0.9819120331124811,-0.19943195423223425,0.6453095796621178,-0.8077856617756549,-0.24978054088432722,-0.1090573390051337,0.35260366622036154,-0.00677300206848952,0.670453673796422,0.5014734829659666,-0.44133943594044767,0.9319453517351048,0.6058075045120801,0.590623203059004,0.5062242450384813,0.7148905658230049,0.9178221561851285,0.944856080418798,0.005671673074598704,0.0554840543862587,-0.07233506174792903,0.12667393398042814,0.841773369100435,0.15999065912559018,0.4931696498653779,-0.6935758308600779,0.26836645341616094,-0.02922473908298251,0.2880565906882073,-0.33547828375060385,0.5805600786507286,0.9587807799856316,-0.896193640806364,0.9809452514303827,0.10680166828243953,-0.8666379701326754,0.3042905115090555,0.7596166750397921,-0.2874826862412594,0.8088764622977462,-0.27796386526687455,0.7470645289548647,-0.955841948997892,-0.8551125101540165,-0.8694537745459439,-0.8662676976945207,-0.2387474998496799,-0.14752456950249115,0.9830978377611539,-0.2471915635022537,0.31642884855747866,-0.4532067761082612,0.6804302192529714,0.7599348825170287,-0.57954584827809,-0.26120813847446755,-0.028423525690211227,-0.7257649970232232,0.49208128796192785,0.1437140116422988,0.7526688017739203,-0.26912941174772764,0.4289729694992692,-0.11596397947804893,-0.4764098850017764,-0.5258682074703858,0.7267568184141524,-0.7937439404634088,-0.4201332457565139,0.4895035658339564,0.8945097035397203,0.7234395162312379,0.17784403588130537,0.9249873465910992,-0.8266022071356001,0.6762307682620747,-0.5945454946806643,0.9694424642183945,0.7812391992461962,0.22010352767754027,0.5158346858574956,-0.11632138314354945,-0.7208557391228851,-0.7173972464859193,-0.4029620370153595,0.020813403231338512,0.49294064349750855,-0.39230417195739875,0.8522048624291487,0.8160376153610567,-0.12043802711300255,-0.3225116475848808,0.849951315749411,0.8484820292680488,0.14572113225557337,-0.3623203549911205,-0.8048300269251967,-0.9960291166643058,0.026353757676154554,-0.6096582653229845,-0.1641931541785029,-0.8057656881544852,0.26099884538684304,-0.6200655630829546,-0.37181067582657934,-0.21823181092511668,0.6306456297597847,0.6296083723179489,0.2989918591655063,-0.13089495231219783,0.03968351466258113,-0.49015829656033905,-0.5784050277720785,0.05900335303801696,0.7620307769978334,0.5444793626338242,-0.059154302517679724,-0.9109844534252967,0.1600109920091457,0.5833189952555773,-0.08832021458587813,-0.27185263641399704,-0.8431920785592073,0.587378835501762,-0.5858799438583051,0.9191185102422295,-0.38291277131697044,0.10418247513378476,0.7115623665154442,-0.5874515627590202,0.10876294508232309,0.847215894348816,-0.8729380235652573,0.21595505163356488,0.18430441188697744,0.8719142483428086,-0.6002904892182617,-0.22698855912350702,-0.12621360951724525,0.16440919182582836,-0.07509610916733456,0.5632487920087497,-0.2199079079639239,0.6543590869937286,0.7743317179504341,0.3208544679662164,0.14839780506613653,-0.9956758267412951,-0.28662086202346027,0.9896171311448159,0.9885948790150549,0.31809717290680717,-0.019069441966875322,-0.9743391928038172,0.28904897983037525,0.5031272311943786,0.14975318801277648,-0.8291571919779563,-0.1953500048600907,0.4843538325992096,0.29165097411982477,-0.597840292830415,0.2437346267210021,0.30508903621046457,0.7617639096763056,-0.3395803935974502,-0.8738963464195142,-0.9236485059350426,0.4926611176324853,-0.6680106487075823,0.05247260055966718,0.9472500926841332,0.014411316543263997,-0.5980527145671801,0.04019168768245063,0.10112173723189621,-0.09721064227972787,0.5208479007055549,0.6448084606461064,0.26553326766638796,-0.30856341883836924,-0.38211810342410346,0.8438480792844052,0.26820691288063525,0.5473805907863394,-0.7398380108914935,0.3017017316847763,-0.8265270331179049,-0.2686459077837666,-0.5886987328598647,0.6231044039912026,0.11143047124741345,0.7353992169008572,0.5764489461372979,-0.9932691688377966,0.43829586584124924,0.01450724042760898,0.8354399146025451,-0.8250832733103362,-0.17297931586857063,0.8538152853015535,0.8860008420559498,0.7467700751108712,-0.24965972354649835,0.6356684429176469,0.8317696796008185,-0.7576235374941618,0.9445762853224366,-0.18188716641609215,-0.07808625108970557,0.4030579349486687,-0.5988081823402953,0.31531518687528837,-0.1956819774591998,0.8731441376273581,-0.19679286332139645,-0.8719718061802939,0.23571625536599328,0.34422775712839604,0.4224962057474928,-0.3536743204855495,-0.2295115363459821,-0.891643847075839,-0.7092518143696438,0.033670871897474974,0.8620949897152348,0.5741017799057371,0.8117921569701345,-0.4447827131748585,-0.671608082401203,-0.005908666487433933,0.8783604088474954,-0.43006232925299925,0.8208081059864525,0.43472117266175925,0.6593533155900819,-0.9086284375520928,-0.37320177734763016,0.4157165671402061,0.03533141871645462,-0.1337519119805466,-0.5528922468802837,0.8122684569194274,0.6733899161168846,0.7468195942073601,-0.5106513673347146,0.16614981409669327,0.8959096366543242,-0.9522679408760839,-0.0330810779973818,0.39512409047654207,0.018287921102793314,0.7343938066198372,-0.7525871857958786,0.5825504465116629,0.012966565179541867,0.2951453305973202,-0.38365471901276993,-0.7219169708647752,0.9543241495635939,-0.5292810560853654,-0.006815879024380411,0.8017094623526824,0.35605962686409365,-0.7151700165172983,0.04440867475649446,0.2989763169975892,0.25505844035953396,0.6266191587267353,0.5076569904539308,-0.7129525380468171,-0.547043409162113,0.8157553202552701,0.11625555640025165,-0.1920877612570846,0.326088487407185,0.05244543644632138,-0.22626511970326324,0.8543044647071134,0.044906816726177246,-0.5905567818067485,-0.20276679871938819,0.4114439463666568,-0.7118840643472464,0.4314244093564785,0.14636777607081242,0.014363795801794588,-0.17103454047725974,-0.8461685628513154,0.7013555126666733,0.6564964656390695,-0.42296024227550344,0.7313514195830808,0.9472683437111795,-0.3008133700493545,0.8743794659336352,-0.9504281759852236,0.6515717549466025,-0.7761262344101596,-0.9140259363934473,-0.6544705511039208,-0.26053337426576006,0.05377822425634382,0.12611984273013888,-0.8624915952457393,-0.4650862770690649,0.7325285358534861,0.4275226042062581,0.1836776952764918,0.9630140679688945,0.5576201276299486,-0.07379711064456806,0.020345169187463652,-0.4649756846614457,0.6390915691022965,-0.8865828034213938,-0.8215990847169825,0.16292801639831245,-0.24253160748519798,-0.282967560112271,-0.5103130424271927,0.04539997569131282,-0.3570122799326647,-0.36710669840117705,0.594636661459071,0.5085334242453747,0.31666948575183973,0.8638013019943005,-0.8101450489983915,-0.07083091296305111,-0.5681920360816126,0.9871950130003322,0.514491832234534,-0.2299452590595079,-0.6951344566645186,0.876528256429091,-0.860232425070333,0.23086997605278792,-0.9380491835491207,0.05437548313795304,0.09062045269733154,-0.5916758048393684,0.3650818635764681,-0.81747719440292,0.33547547411902934,0.8741141229751264,0.569675197312866,0.421889276520115,-0.8857539451955183,-0.5544202121818818,-0.8811673663732196,-0.011514736054423658,-0.059064111188815716,0.14960289324513143,0.8642140679957782,0.5119712502123277,-0.7174769809580495,-0.24816466283241945,-0.620584897911544,0.3333672302189927,0.04591550759054974,-0.25264573681516667,-0.12005503560339559,-0.7969084708217917,0.400580557321095,-0.7884422988741393,0.08617926186518621,-0.6075509446959464,0.7287536969523816,0.8801134592939077,0.03082181381414273,0.9598351398469938,-0.2687316997401614,-0.8010657957789942,-0.3364902806785903,0.9025273344437312,0.6404301492995288,0.3796744679123214,-0.6046774922092315,-0.2227133618397441,0.8925823262390595,-0.5214479252674737,-0.47188816821188384,-0.1344244441918434,-0.8394808021805449,0.590121750611206,-0.3113571300292026,0.16923953279584314,-0.04888285202202414,0.9054190875062402,-0.49312010531884276,-0.8655905482597612,-0.9387855664199589,-0.9815260374581916,0.6668071976720169,0.08026613277504446,-0.02814917172834175,-0.9585889491674293,0.9897898347648624,-0.9860626946347999,0.9069071139026859,0.20902496428044448,-0.44159528032118733,-0.8466931116484031,0.14146808980654946,0.32611313106077167,-0.2883024821106992,-0.6434578577017185,-0.6919710200035023,-0.7364686443347761,0.17075124544985254,-0.04468572714625285,0.9423676529042952,-0.9385059612954854,-0.1144086581888819,0.4518942792951719,0.08843971032168207,-0.366042570166762,-0.36251148755671325,0.18668838617530703,-0.45291729103872425,0.7286904000093786,-0.08618385507885096,-0.9840938164258612,0.4703198722888078,0.8213138926002725,0.10577511623182834,0.5600283402160862,0.055031295939721225,-0.9492115641547292,-0.33258077600297264,-0.022052931301969725,-0.39725874954545404,-0.7634306661126733,0.19808972485844056,-0.5462925265440204,-0.47959663178493006,0.9051328204418561,-0.8973431088010586,-0.07965967002309249,-0.5525574202526917,0.6829324366521983,0.645251080699264,-0.2786550902487295,-0.36911024603603115,0.5883893777756048,0.498699883462695,-0.9855105933902852,-0.2805441098839119,-0.3338731757042237,0.5086488003459704,0.5705734347822942,-0.9750990050369805,0.6370940383004573,-0.4159711354803859,0.23381985718195808,-0.0407208934934189,0.47664394608520766,-0.13829346551788024,-0.21520692211435932,0.9768566510517314,0.3706471882801199,-0.21832725459369873,0.44959433261861537,-0.20416959106001342,0.5672095563543245,0.3215315243904562,-0.07366130602530396,0.06569203620225417,0.604046580368264,0.801316102270675,-0.885748266612109,0.8572277256666729,-0.8070728509659391,0.26330540301717575,0.7109445593435757,0.8327409141412536,0.35658391271335166,-0.22964777090481614,-0.4770507814568421,-0.49574738728360734,0.4239316808811715,-0.6364659870420379,-0.3154190927610181,-0.05321445956208404,-0.4324057928595433,-0.37998963452723267,0.2358893905842192,-0.23829667850383207,-0.9207371207557187,0.013601438828510615,0.3273419022555908,-0.9617190219781726,0.011782645289665217,0.22450636772934485,-0.9524959359933636,-0.004425803002851225,-0.9863537180030948,0.15057141393998297,-0.9490987845171082,-0.8356289310577942,-0.8040660312550969,0.3108505250036473,-0.45219708843695017,0.7777151897773344,0.010488668476538177,0.6418274167695865,0.21168838968282455,-0.44005585472849473,0.3536668027049086,0.986256781402987,-0.2143786832878658,-0.6968703858251588,-0.7039438890541228,0.6391515199856701,0.5714872281770849,0.008309923588159629,-0.7940192738193159,-0.4231469458336139,0.9018050029322378,-0.19056330718390413,0.858007413510133,0.5876020528538983,-0.3732335342559352,0.9875811505653247,-0.21900539266565633,-0.7479444809727442,-0.7892167987355183,-0.5388732034274701,0.3329179802258,-0.46670927144523566,-0.614151796447534,0.40246610242807734,0.553659097586114,0.49574292835053013,-0.029744020270598526,0.9660755217436938,-0.9811069498890286,0.14881264666400873,0.5233778019715332,-0.6691846674134125,0.15513252886719875,0.35782298482951536,0.5305335911556306,-0.001030198100155033,-0.781951098783134,0.04007435288992767,-0.006050124392631195,0.18770140191291973,0.15628166316909753,0.311704643194495,0.6988317203568963,0.8048159885996484,0.8167700878245847,0.919507890165083,-0.052266705331247776,-0.6536751067479714,0.3593074043467739,0.7335735587412051,-0.38656075269302836,-0.17881409567287831,-0.23668394830652706,-0.40721690707053027,-0.9527561639312765,-0.04277903822843854,-0.43752254267455903,-0.1431480220120145,-0.011602039843753742,-0.29633497670358566,-0.5058963961751415,0.49966041638442604,0.4624098736909201,0.22706454412759824,-0.5334340282458869,0.809374464634099,-0.957285140338306,0.048031258521971765,0.83217084685442,-0.6574271852214308,0.010070212441717574,-0.43515892690435765,-0.7272261576485639,0.8992313515730321,-0.15455777124151227,0.11496133043191947,-0.939705179663465,0.191520302200737,0.3772967887189629,0.5468547766891014,0.16159239298517547,0.508048854954883,-0.6560883847021537,-0.9534548062184902,-0.5475414767185338,0.45533873914741263,0.942689458535763,0.9780061586743316,-0.6807233342724559,-0.1641704982244503,-0.6524112393097863,0.8946604345852893,-0.7751043090614995,-0.9601686167428771,-0.1502448752834027,-0.9831600094524435,0.21014394624830035,-0.4235066987713154,-0.5050223242706064,0.1988329419819328,-0.3875665609196153,-0.9571811111115041,-0.6678732312104596,-0.5964621788190716,0.06074726911957096,0.040809349245532145,0.11638513626526636,-0.7243375167155226,-0.8456704201462022,-0.04159723086853506,-0.25032163810226904,-0.2757048319672064,-0.6058969322144521,-0.7156458299196722,0.5516054575719942,0.6057603592248133,-0.12171247053557832,-0.1881370059055949,-0.4614735468256941,-0.0617325861889817,0.7128050961817616,-0.6419439396565225,-0.9428702166186671,0.748643072598725,0.7262577142035829,0.15758351235719537,0.6849326601966903,0.15997749543194084,0.9680646049153936,0.10690182441506368,-0.7464147037237909,-0.6752622111888416,0.23173124151852909,0.26088480837122274,0.38161015242041163,-0.7524203835859387,-0.056055013299361134,0.621682408321915,-0.7003373259979297,-0.532375312273865,0.9403807041338943,0.360397650713981,-0.5503591565101162,0.8508251127379849,-0.7207911621480663,0.5184481346306213,0.4549370236608379,0.30468598530221414,-0.8462048543264702,0.4748831856200255,0.8821019845629452,0.35520173999887517,-0.8718084314973698,0.6813253278543576,-0.731668122332757,-0.8597969566754518,-0.3334369875480385,0.6930901989581328,-0.16667295750948763,0.8239072674716477,0.527699981983212,-0.714068549386119,0.04548046414580731,0.9110065358326216,0.10843912136848832,0.23773955090398724,0.09848046759471019,0.4061275821345516,0.6072833306268202,-0.5854260839453025,-0.06762554540198584,0.8847382302683768,0.5227735825879496,-0.5801321530364414,-0.9125775932220521,-0.4437836627984768,-0.17427767453042575,0.5459872754610053,-0.009756933038972848,-0.2366193211233163,0.03029545235708686,0.4681902900905728,0.14040295726456686,-0.4031317914310262,0.3078439885692599,0.2434110901957831,-0.9602261098455791,-0.9129206520270219,0.6058566216493104,-0.9122402238267344,-0.39633439828107364,0.6422207334118406,0.41145531473039276,-0.4370621036687756,0.3829872721606382,-0.15745110959738895,-0.7758373878030516,-0.7259471430505346,-0.12294189278766043,0.2427565082426566,-0.904466632425218,0.723567207804195,0.5241441792959443,-0.8386594981567359,0.42645440395437895,-0.8641016581054535,0.185638895860174,-0.30795693192014895,-0.798386384078815,0.5477616768894777,0.9790444506855895,0.41726260857910136,-0.29116765739379913,-0.275597060492796,0.5353367652075978,-0.3422827248690179,0.9739437548260796,0.7042149416932355,0.7520331793646067,-0.6694735869057975,0.766953426041949,-0.4408297153723577,0.5525663787361184,-0.34565352930965587,-0.6187712233405851,-0.4813865567731288,-0.974760255413939,0.5584624548885972,0.5211839574455126,0.6237187549619692,0.27513737996752163,-0.7854134396141039,0.5375434487863462,0.19748676481597505,0.6388371336579759,0.7020731403727059,-0.5022012241866542,-0.24214183669790068,-0.06171532561696136,0.9256391785867004,0.7029934838534382,-0.9678025692321981,-0.9925786344147265,0.6505304822515185,-0.19121566664489587,0.17081328536484297,0.14449012480987777,-0.3599814695921395,0.2588329536829268,0.9701306178701177,-0.9698069039527837,0.0847109609533292,-0.4855765264492298,0.8220408146896354,0.8494447585420764,-0.6005574424466933,-0.41679579084143104,0.7374119001007724,-0.5656847540134107,-0.5925324572967463,-0.251610191252541,0.9999919868727682,0.8170109554398937,0.9714357045520017,-0.7606105184957406,-0.3056047230447183,-0.0009786873194164158,-0.9550674625830593,0.44460391783955755,0.09033237477585931,-0.5508164008032717,-0.6538665682526206,0.5807752392451209,0.7669289077346979,0.5988110775909847,0.17727301847123678,0.6306309478146441,0.49275413693023995,-0.9243451538750411,0.3720939446386906,-0.8884486023994862,0.4901138013774551,0.09074266173212187,0.06714120067320772,0.7200281439751104,-0.2863300273330174,-0.9280354612977086,0.5833120441098925,0.34166146702933764,0.870906190080031,-0.31372287348796823,-0.9870088265610493,-0.29378697561201883,0.6892818652230357,0.8297824575183417,0.7025193880031606,-0.3470947582895092,-0.06456901566032847,0.4407707243782708,-0.2506217072153609,0.6003367276711482,-0.9930665878339164,-0.9299041278029068,0.09068768180767206,-0.8193527551310527,0.09034948820516253,0.5253489152098068,-0.7429199400742033,-0.1713356683838243,-0.20502991089368727,0.4504637970439509,0.7881453306534709,-0.19642480655337047,-0.3484340419411154,-0.328045118990697,-0.004482612779212136,-0.04793164261360805,0.3379652351436846,-0.8462786574805703,0.9732605418026672,-0.8766406805823139,0.5108362161528188,-0.22985965258996277,0.6281190170443707,-0.8736540628073783,0.025073674817836844,-0.6432520138772737,0.5702969098821127,-0.29987963821931585,0.8668694178454985,0.04523740446556901,0.5206794868970255,-0.3543563266317553,0.6060601273113086,-0.12265578264850863,0.39745019042327545,-0.6084890842064952,-0.6068974418154278,0.7264503673009097,0.92522584574029,-0.13418774433436376,-0.4113960930618743,0.9795645411675582,-0.8944208963890743,-0.6715263859685661,0.7406566092627906,0.5520923251816083,0.6561939315392649,-0.9981389351816088,-0.2848908871662985,0.4509965186571794,0.09916653955175869,-0.263309868134709,0.8152765982393417,0.345289970895011,-0.010237751948751095,-0.12193826495461302,0.7425147212170038,0.15565540112355625,0.9036295747385104,-0.7863810935830551,0.20002236115899397,-0.450685656590738,-0.5331265857815011,0.15509054671109612,-0.7909390174190665,-0.4468535763412418,-0.5596907241118665,-0.1842436964076668,0.9371674203088198,-0.6503940437156197,-0.9768947312060992,-0.6830228785357957,-0.5575449805193482,0.6080488395633885,0.7084536763135036,0.831775935122969,0.8893483083204392,0.36939466252189934,0.18910776166199716,-0.6567332132975976,-0.7488751064394699,0.732689585160057,0.2575809755282483,-0.9217102441617184,-0.886926564096788,0.565465049303792,-0.2420184271468131,-0.35509950010398583,0.7241854648562258,0.08121331358607398,-0.7950488657719323,0.5326116469052968,0.7223416178446971,-0.790321758012688,0.368578242469366,-0.2520665213439113,0.24881262930055903,-0.4358509536348836,0.7582607134184189,-0.534156380371763,-0.87572996104418,-0.6106202272652166,0.2656776464187842,-0.30287879498614134,0.6874990522398756,-0.7643116654075313,-0.8122922753354589,-0.7412877334196071,-0.18073390361951436,0.6086987620486006,-0.2764053599845071,-0.31204119684807674,0.7285376813035827,0.7313996233794258,0.2897129201620141,0.12628182295859713,0.25858849812029505,-0.5871179567286071,-0.2667882970777442,0.994605899697734,-0.08888724727715624,0.681829472624939,0.9603023979779586,-0.8624457571504187,0.9417641382089978,-0.07098552706180117,-0.44884284282194176,0.09452649783631584,-0.9333411215080789,0.10128161917821754,0.06051390543863455,-0.6823371981344475,0.28922710887076586,-0.2685458567277361,0.8931099414153114,-0.9139363273815231,-0.2387734232133718,0.898584843168059,-0.00528231812887392,0.07466863282748992,0.7712546295537615,-0.42754192576719574,0.8751276964881993,0.7571463060233017,0.6194867017544659,0.879604991077807,-0.6296399181048036,0.21480254029696244,0.20480143252328764,0.8828884116285889,0.08550060931980497,-0.8443563585459393,-0.5522467860960472,-0.6164534075171839,-0.710854785775018,0.30722227551401304,0.23555888588953122,0.6480568076176325,0.02817075760177512,-0.6382442905098362,-0.7772275643040067,0.9103438492974449,-0.4877190964846141,-0.6544553784191685,0.9206758309606959,-0.5974786839980821,0.08662187891841588,-0.35998673129677283,-0.0006366752381643526,-0.8480280533933924,-0.20456205900778013,0.9005848015838451,-0.5129277448560909,0.4501785086040009,0.30808687882029506,-0.5313608003213013,-0.7443045112394826,-0.42574451516267864,-0.7070554285373525,0.5649736544287245,-0.1718195604588777,-0.9771402544187,-0.7930041831982833,-0.05160146427791501,-0.2795936273862125,-0.8751165756320654,-0.6785623394448019,0.21865128070547724,-0.6450903489855841,-0.1771543214673783,0.4540926413221231,-0.7708341192809129,-0.5987654503328286,-0.8187543987252777,0.9268036134303774,-0.6586244874001601,0.7189932281848457,-0.5899002567658775,0.01213985747784796,-0.4586998558473774,-0.7298094119262699,-0.09846391538178523,0.13681686418190142,0.45497368689292883,0.4207983439435492,-0.9573715830420109,0.4995036433116655,-0.2446736778272096,-0.5616758611347301,0.4690846994975568,-0.03200909038218325,0.6875211746824486,-0.5629942675665471,-0.6179073048921895,-0.9763437504087829,0.969289955599697,0.9283726210415295,-0.7519894232344868,-0.1438907104749625,0.5110783095500848,0.7506950613688643,0.4958865439126343,-0.028376044679058854,0.3960901325111672,-0.2488023078534003,0.6342461053614115,-0.7084968939678067,0.2612938731942982,-0.872558529613793,0.29430564379913693,-0.5771935717809529,0.9468389389087173,0.9913251200262967,-0.23389258821324255,0.36404145534313237,0.06861201121639215,0.6925510424903452,-0.8243685196777648,-0.43301434769881486,0.8191039818961927,0.9066988049294529,0.9991453233241365,0.0896258906793399,-0.9335414664460062,0.3875969763088707,0.11192793649439792,0.30717866818574224,-0.30404246315888317,-0.9840485222100397,-0.6739658289450581,0.5329032933595632,0.5455209864093054,-0.9320887000160616,-0.9573611718513921,0.1168274522672672,-0.34079484926214576,0.13895562220204605,-0.6799109518302981,-0.7392280548356811,-0.4438133925442447,0.5500210117695898,-0.27023232186805046,-0.7227947242650352,0.8595459279943569,0.8208845991360416,-0.2254163732425809,0.6148330724324174,-0.4381845077630844,-0.5626881982585936,0.5758072818775881,-0.3432673333983163,-0.5789507061207047,-0.658963068342731,-0.6593123830002701,-0.04329036848494949,-0.9702350182542552,0.6678713173217441,0.2927500018207245,0.3174033590273193,-0.8633121326212216,-0.7074557112669504,-0.5984214296067387,-0.2503965557587098,-0.8357239627989879,0.2068164346081376,0.8418914912016995,0.5110800690046322,0.833030542778072,-0.9259265648945394,0.8688404387288773,-0.28836668872645443,0.4960100937550276,-0.3357028726714657,-0.04519328084722818,0.01782483759944209,0.5836888320770153,-0.05805970274424199,0.8250425976106113,0.6301337174654704,-0.9902791045621322,-0.22627242652020962,-0.5356307711208845,0.16229138817709354,0.5504304123357517,-0.36896786688475824,0.8879066630510837,-0.2340869976455986,-0.3977993428772413,-0.21218108717757045,-0.7998367994991042,-0.8459323283034295,-0.608999649731468,-0.12421436843732825,0.9122221009081055,-0.19695719717182913,0.6155595042662945,-0.2974209967406223,0.1896741961352606,0.3782181095569128,-0.5670375344259115,0.83860561525284,-0.6275212592232393,-0.025017767694592852,-0.42549787534241457,-0.24714447141134377,0.5024797805482173,-0.8139721867875789,-0.1214555283521972,0.020425757722278615,-0.6526230748631647,0.6388733404652147,0.28491142737668285,-0.3640264582255677,0.3898936494647618,-0.0966752975002958,-0.3818552301030389,-0.12586646590561967,-0.05252945191505587,0.7166066226265069,-0.6109144358286216,-0.4647951033413631,0.7599643334254322,0.5045476262681412,0.12430604230861286,-0.9967392621463791,0.10084121083107234,0.23245662259410005,0.3561643907487415,-0.615537824505356,0.35991401642923027,0.9072045805788815,-0.6994214449946214,0.7360766555514235,-0.13852455346940662,0.2680115115837469,-0.05810268079567238,-0.803756584031758,0.540150398236253,0.9060775436836903,-0.1229224221681211,0.11866297664657344,0.38038867209045035,0.024141372918656145,0.19739771955046748,-0.5091631993102217,0.04953250957491173,-0.4301538832093057,0.4053027109207772,0.888775618604003,0.5291970300244446,-0.9463733832369359,0.3711160398374165,0.7104333125536455,0.1358927908180021,0.2878838303055742,0.3424802343886377,0.8247495775647247,0.7327473631310124,0.07574580188491686,0.10011483979087132,-0.7206426155392884,0.8984801522258399,0.3257659196031979,-0.6526387864779024,-0.8078492872226242,0.18774793810082802,0.8300613563573429,0.4140810570275719,-0.4861231481706214,0.4477537684999111,-0.6267548599066202,0.2971256057074343,-0.23782639689497453,-0.2049332303191438,0.7093300748136988,-0.7775669157815153,-0.8290934531641032,-0.6191655220702437,0.4201851262474279,-0.13303802125964626,-0.828467901663142,0.5547775898948968,0.37283172354231753,0.8989831407783142,-0.3667015297287377,0.5406674522686821,0.41091311119946283,0.33102004387105244,0.6000726713825959,-0.4116950813118745,-0.21448960474349343,0.3429622402044492,-0.1480081897829566,0.3433737319064927,0.3531213870515424,-0.19773342811629613,0.5566261804244257,0.44995287968887854,0.12703194172928112,-0.9002965807716592,-0.6791288646197189,0.7658389338198535,-0.3502528499122095,-0.9188895317367498,0.6857707412135183,0.524345790143679,0.9614753256738218,-0.5655339938557635,0.4172248694722418,-0.9981784164392997,-0.6633557256522162,0.6518101424458456,0.8215019337192091,0.7180431316087292,0.21793572012827078,0.7886002996915469,0.042899300325184964,0.9814516795683286,0.03625001788303539,-0.6124547328300758,-0.7708897422079735,0.2248255387976439,0.10891509644156061,0.7559987212081396,0.8047790050137027,-0.27390214952776293,0.8928401669120072,-0.7483891784223373,0.5867625094019935,0.2736437390502957,0.5633543179191216,0.4764312239689794,0.9110835781019471,-0.968750195503161,-0.6667414054075009,-0.9907991732265446,0.4887007245885293,0.3653808373287506,0.19835176645068886,-0.23387067078361579,-0.1256231913057908,0.35846482099606836,0.10544824314178602,0.5692639102270152,-0.5916232622138304,-0.6372340297285852,0.6385796519940845,0.89495393810414,-0.03623808224095515,-0.21195116086537524,0.34029224024628335,0.37730882536248433,0.27626944165849765,0.8977801845956328,-0.43482202143956705,0.39456065234636717,0.26069616869263124,0.7635537619999984,-0.030906932790199848,0.8288872606731754,0.21869041036399373,-0.007807564061092398,0.8561257206795945,0.14129066326461204,-0.7060098208577164,-0.4759488807539256,-0.7220357065041154,-0.8554332123199646,0.3084029773354189,0.44432531798775443,-0.5311915199254531,0.3013391251853912,-0.13048477628957467,-0.370499653620155,-0.611164727843355,-0.3878924343964347,-0.5816420435337677,-0.07502447411430402,-0.1155101093998121,-0.651057786346793,-0.05359693034409285,-0.4963412409208485,-0.13588889601782173,0.6484592312849518,-0.21719118751115496,0.06863073118628615,0.7437221825182132,0.9531381681399953,0.26981540436934304,-0.5257538158515835,0.41629712185994094,-0.02735353526789197,-0.6124483719351479,0.18928026326194436,-0.2341021713691771,-0.6690934635471857,0.9228449016121931,0.5621800843890912,-0.2156086527520622,0.1588447987764603,-0.024313282986953233,-0.046355232664680335,-0.5160786559701334,0.23888153207832796,-0.32302616574508747,-0.2467072624158051,0.36686467199060036,-0.6732786913350226,-0.0597106771713134,0.9578117076773625,0.2042346486330595,0.5239061290501192,0.3285117448232593,-0.2810340397882354,0.6821172720823514,0.41188775699025015,-0.304746146825708,-0.5881904246340253,-0.8233469503441624,0.07949737372419041,-0.9029951916673298,-0.6344620466415931,0.6474789778796395,-0.8914979951471644,0.1313774437921289,-0.005951546583972123,-0.8827862961735533,0.301165866101897,0.9856675152605676,-0.023055672160541052,-0.5144029999578041,-0.8874577280105813,-0.08656982314067063,0.4211381155146585,-0.231667771554408,-0.06034967104965272,-0.7450011440890649,0.4057274466692824,-0.9430556828539542,-0.05928740992792281,0.3064017188052208,-0.5483486714660115,0.21638709005177148,-0.2373933016583143,-0.6610200701924391,0.5896818058805595,-0.15404308991589777,0.18303490200844363,0.5275024627077742,0.5153821950514805,0.5616645016517774,-0.2857791667471481,-0.9843903827801768,0.40117240904693996,0.5081692878755135,0.19803947705792413,-0.176516995980043,0.3730239747365123,0.7211421228360382,-0.8109582682911622,-0.2727148963068786,0.7416712719279921,0.4753077248650963,-0.19732925266811097,-0.36956868582943025,-0.2972438300569866,0.5963361742200852,0.3190205381943627,0.7737941348333008,-0.2850443724202725,0.473463117178728,-0.41047919163522173,-0.02551903583386439,0.5604039200669817,0.6684112744948243,0.4000552825483612,0.8895058919376362,0.28603362813031374,-0.46104547438757004,0.08961502325234649,-0.12290624736743538,-0.42692698730004586,0.8762130376042614,0.2906003901108747,0.0703633817571312,-0.39478443308624644,-0.2745325287779603,-0.9635206374663576,0.3279943461543027,-0.89847586365681,-0.06943847027061811,0.14911411034031108,0.950270191483547,-0.6762198959597763,-0.02096789080154915,0.9628250337315747,0.3803219710862231,0.2661303749446007,-0.345257714615236,-0.11431412720170053,0.11525330410878398,0.6639707721009891,0.035230002578635844,-0.42031656275887586,0.11764319964972292,0.9356037446852017,0.7971015391105554,0.19552001258594198,0.10235651541725632,0.4325039349493738,0.10924617071357345,0.1597517200425831,0.09240692640881676,0.626309145134117,0.4107129480292149,-0.02786544936876889,0.3197742783157578,0.20417496678770664,0.15843024326716715,0.040043932486159894,-0.3967268021724839,0.5793349593946462,0.34618537898110535,-0.6039991079729938,-0.7063409401433611,0.6517727728657172,0.4896605326457273,0.3031006681704922,-0.3506695512209448,0.6239433072469645,0.12221707443819407,-0.7997356741614479,0.30557319204724154,-0.015790017923134947,-0.7976517907402878,-0.43555669200497293,0.42190975247802,-0.5222761587700853,-0.8556701922756171,-0.6072581681891804,0.3256106964484635,-0.8346527993674524,-0.6622665512986885,-0.24064418781028918,-0.8200201176108168,0.0905812519217406,0.3966358659082754,0.7807046172639405,0.09107754438412852,-0.07016585620535642,-0.37897408173655966,0.2019826135631715,-0.6125605958945033,-0.4773874972041978,-0.21591499023558502,-0.8196689992238579,-0.9994754504341175,0.839043280344091,0.139279406878692,-0.7702122690262037,-0.06015409720244036,-0.3601493392120825,0.5325005828236149,-0.5468671148962454,-0.4370540818542086,-0.4251074473764631,-0.3225537208926206,-0.24713270820662947,0.4984316119278869,0.5832305410880303,-0.42459112172200064,-0.911890185088619,0.9500845498388302,0.9028840820150881,0.8275421741141014,0.5575069775951462,0.048798697303341854,0.6659096731918623,0.8034393725819433,-0.9891012635626892,-0.8114832955335616,0.3426529188465264,0.06145204567130236,0.04788382824897908,-0.9256456175548862,0.18654031752176126,0.5098327765160251,-0.04816546720669601,-0.06872633122084348,0.2866348937580774,0.6630183935462208,0.3977769813089189,-0.8983130314723249,-0.9011309268180829,0.23198585423825446,0.43546598625325483,-0.8809905232171382,-0.7930651039237597,0.06938424222347406,0.3912120088924034,0.08512348639898559,-0.2538784203530129,0.9207866141555257,-0.5333523417642954,-0.7918061059273027,0.9804516609306719,-0.9147658407287507,0.2818809754473035,0.3312912110994244,-0.6693030519831265,0.5125864899328851,0.6236604691845475,0.9322895413951109,-0.4781563821816497,0.04263163772057421,-0.4014027549760222,-0.3769764789969072,-0.3428483913054312,-0.8819666249135658,-0.7805166460640378,0.767307098784141,-0.6091276345199848,0.3343594835354593,0.13989586275197285,0.02317198561102396,-0.8400147783095038,-0.36954855269386555,0.7243442778878879,0.8137130844486424,-0.6634481481709003,0.8257892861285232,0.8651121927215777,-0.7359449771687334,0.9909165000858733,0.25476806999474255,-0.3576754369448063,0.641777176724369,0.62915842716708,-0.1523701924795755,-0.7531676533259697,-0.053805831118627134,-0.5493375764880368,-0.6114296799714274,-0.5752525725254962,0.6393676844467084,0.28746663225244573,-0.6081902212383739,-0.5008493351479244,-0.9560215556144342,-0.5126156256993759,0.2247231484986043,0.7908951532599471,-0.6235142569609924,-0.2554258996858998,0.5256815459189803,0.07394806660534159,0.6797534353144981,0.33484198414700117,-0.21350838589510412,0.8367160246483458,0.9063694188825979,-0.4237314764623137,-0.9201684554204037,-0.4911675484866822,0.8236463731783548,0.7677844130786091,0.8309868271026948,0.4301531534795979,-0.29119717386049393,-0.9646634375534644,-0.9417508031503092,0.5362097268962469,0.10514311862100456,-0.4546153253034122,-0.18871143189444362,0.7493872930444923,-0.1840309041317978,-0.7633624451166596,-0.4141200684599893,-0.7163825726332842,0.41582677443355975,0.201298627497408,-0.07805242443677995,-0.4928575970999134,-0.6611754042996829,0.5321905314394306,-0.06469386817704326,-0.09160108237706366,0.7032857167479005,-0.11644898802220283,-0.2635950069528241,-0.8387281755901237,0.41194409241771357,-0.07757909976502675,0.46926859487404315,0.32058988714232184,-0.45319487224907684,-0.47885228730608054,-0.08036042151422707,0.8618172718918269,-0.6082474055998741,0.77641227127188,0.17751627257469416,0.4957345538379021,0.751069536813243,0.23485769180989857,-0.054274573170101315,0.2994777404178197,-0.3554299918723247,0.8627784379066668,-0.8099997562308119,0.33156376376427454,0.2080448806054258,-0.3156947577763909,0.255115305144046,0.39418285988440904,-0.5350679145207617,0.6403290292560808,-0.2381369722573521,0.09077055247039167,-0.8520640111597451,0.4604093713639572,0.48508068817153105,0.5754571327174496,-0.2758293121445037,-0.8585171656625334,-0.6261217534420638,0.044426418481608776,-0.32157216790054477,-0.6136938383299986,0.12119221533317592,0.0627723166607872,0.20141421065101617,-0.33994386229622475,-0.8237620995455774,0.7644168716209583,0.008254693299716287,0.6552265981197247,-0.2453052592781506,0.9281006948055635,-0.9998395430289047,0.20732120945275967,-0.27844325061913766,-0.5578964391199337,-0.11028425753364668,0.04113124530943102,-0.6196975856921041,0.8137297286719969,-0.3460698800660773,0.1838674866821235,0.5900756241696015,-0.08026134974100829,0.06111457694792244,-0.6659156804078805,0.5828525857973827,-0.5980970466978548,-0.6229880648247552,-0.5763019638083497,0.3102582841911288,0.2964424588454253,-0.26163565265102995,0.6339069989395787,0.5740664904240886,-0.26109858965737676,0.9663001036262411,-0.724513694399225,0.43798226630842274,0.9201023809015407,0.8896184468277628,0.26475692630843795,-0.9387087668429535,-0.5270337745334375,-0.6486583702815449,-0.8326908417023258,-0.01745055038135135,0.9318202008604453,0.20429284366485123,-0.676695593215979,0.5024129354787854,-0.780803148257001,0.6134458668280824,-0.41615880251661586,0.7564800855689842,0.4526850343972699,0.474553009139157,-0.6579413149678892,-0.5658543506270763,-0.16297224318868175,-0.5279926894928815,-0.8041907159192314,-0.9618934882523182,0.6385631289612927,0.8684529013588265,0.8447421867844545,-0.5187462967467955,-0.6570724264825811,0.6682057950921492,-0.08439205648211967,-0.5872585452153494,-0.5988930803559178,0.9489767895782908,-0.7133391676343825,0.7266244643852517,0.10012440721414739,0.39652535551809653,-0.39839798229091805,0.95658627833457,-0.833069003614213,0.007549945966304428,-0.38014137875306564,-0.023785362270987598,0.9862474759692064,0.4937937714712204,0.11091282853281847,0.5782657219580571,0.024639324711430044,0.48339262718874343,0.7697919380636506,0.21068508680117382,-0.5327954336137193,0.027880930120240954,-0.8214477356755965,0.36891293552269167,-0.41494878272884206,-0.27816694477239334,0.20297514465503164,-0.005841490727284571,0.37696549077209607,0.6876096725170613,0.5124649749449319,0.9435387604680674,-0.7812496818630312,-0.4208330963224076,-0.8138392979784292,-0.5306651919772005,0.12886467457403383,0.34595133369655473,-0.6407362181863292,-0.026490941967393322,-0.4891103557569436,0.16863272958003073,-0.7770780111441076,-0.8164542317775993,0.6650989413502304,-0.9382248110659115,-0.14283051413263537,0.3443371310265275,-0.6107392802315343,-0.31402380668282515,-0.8312944929455042,0.472943398566843,0.09851341333090957,-0.85127814412877,-0.4725655976836456,-0.9612965524050257,0.7217773533026148,0.182164645873387,-0.06149101397241408,0.06936463154675443,0.28151946930820126,0.6030777360550739,0.7843924452860513,0.04519100252709363,0.5332360931588933,-0.9157760085763613,-0.36216177986893583,0.1595486720694732,-0.8023886378006653,0.2682185426147119,0.3788878990085507,0.4721765504755866,0.8345798030970446,0.21372251689799993,0.47728719772373585,0.5052244431312953,-0.6332150515701611,-0.6036465989993012,-0.3521469079332873,-0.30026414706750715,-0.36229282492458603,-0.6363341608402375,0.6605015070683655,-0.1280447798624651,-0.8120297633621054,-0.062082692501959524,-0.7910027312396533,0.41162280214037095,0.07962453936524572,0.5648052859893589,-0.0811336558929101,0.36254619277453637,-0.5126890047459747,-0.030156875940025696,-0.836047395647812,-0.270472513556707,0.5415529641272547,-0.41661013103204514,0.192628976950044,-0.8840386622660834,-0.9539597986904869,0.8692951917661169,0.6448139983541732,-0.17429457630871026,-0.8377736558671027,0.7366905400105292,-0.9081122316079151,-0.8537387287786351,0.531078431037801,-0.4661124979058473,0.7986653570125233,-0.10079412170534519,0.5825778299266562,0.8256212645419132,-0.06899567878828261,-0.4235474890008861,-0.2852197458527739,-0.791133909919101,-0.6351149317298197,0.8673358537569524,-0.9701369693895412,0.6701752236705549,0.6342329329765468,0.3295693123851844,-0.07707983293041742,0.7560277764416519,-0.4708680384975108,0.49768553048033004,-0.25117010097063774,-0.5577950639375069,-0.6206103301824692,0.939569014584249,-0.6875655425529297,-0.2139096942010057,-0.6690267153204918,0.20513766627315055,0.4611512479361961,0.2247126774945578,-0.5041739123516102,-0.7924895109028447,0.9867742759232767,0.4499724541871797,0.04437000126862034,0.051034384397662835,0.23057603915216052,-0.41100643014926574,0.229025508286274,0.18063872707104456,-0.7376669795883875,0.647423274097495,0.8577413052830831,-0.008939461291112005,0.18268821994292317,0.5600137719380653,0.19215194945870073,-0.30940876793748084,-0.28245617635295117,-0.06358181430221843,0.7531956129141029,0.6816084978774246,0.26980621368427427,0.7026737816596638,-0.9381617253067189,-0.1218369962569148,0.3389920218147964,0.769857284191735,-0.7573975291492037,-0.3247588025030541,-0.002784940820275583,0.47150702416184576,-0.09071095795571638,-0.8616741330716247,-0.3721995836977141,0.3411613632366235,0.1813788347660279,0.20888906972529808,0.6534413244252104,0.9934674486249777,-0.08240230824821348,0.22024273604886146,-0.27861363520771,0.13022510046996438,0.029876544421892026,-0.3958686202663071,0.4871989278916826,0.49966514154050445,-0.01283138110063664,-0.01828643947398456,-0.6447395129055646,0.7940634636506174,0.41204411449960743,0.23044282376397884,0.9007960603976255,0.1230519536533965,0.9897765724051109,-0.3862524516544661,0.003085495935772009,0.24790197682702342,-0.23628278526533641,0.40510470439904767,0.5515829670336019,-0.023948616075754492,-0.9956400900949451,-0.34413644892710393,0.8631816590312615,-0.4922265709225879,0.9941865332136226,0.8694819712563413,0.7825689211167943,0.7380474759086959,-0.37657263010690456,0.5892827461880388,0.8351869467518154,-0.42317882667883344,0.3191217001929243,0.7998179906075735,0.5896627967768944,0.48712895303173287,-0.8478616388821738,-0.9251619869161238,-0.03048041657793088,-0.38957641804581344,-0.34180358487767704,-0.9447248319586892,-0.17858296925182593,-0.5070984060934649,-0.6391547993364188,0.8224404236741778,-0.7069731793597231,-0.41152483355327685,0.5994580216696543,-0.6223043055093216,0.3725143110572682,0.8899715789620295,0.8612715897491285,-0.0232926198005301,0.8211767611565488,0.8358607092564234,-0.14792840417853048,0.17726735686113404,-0.42701589507822546,0.1609546634002883,-0.5132814794607223,0.4462358104898221,-0.19291450972805757,0.8594808758136325,0.4967730034073743,0.9718917569835503,0.33904788781598216,0.862885667477777,-0.7261102563838226,0.46870861150805077,0.5451562297878403,-0.4292436335200671,-0.28560530881027746,-0.5598838648374538,-0.09250811117128732,0.5597259852621317,0.8628175425529399,-0.32979230613314603,-0.3249955675102514,0.0710072586436532,-0.7862376798701238,-0.10603172304304853,-0.05021625210154612,0.6007158888519457,0.0816484972336633,0.9746996164578055,-0.31729812354438547,0.51149376734357,-0.47727509506238586,0.8812488965944674,0.5081742905402666,-0.07408415816090286,0.4770748846639017,-0.5322065089955872,-0.7105918681730266,-0.410640803279706,-0.6376122062456833,-0.02163892703334014,0.12977850357219012,0.4652100204049143,0.7661919436134124,-0.7413416736871641,0.509445991262754,-0.9236423132366856,0.9741932099189567,0.7682003840325091,0.6281916043192828,0.016999533847119386,0.30771412498525663,-0.29583374967586584,0.07120625700445271,-0.9174788089701531,-0.021319956286321773,0.7415521124218081,0.5472502287654777,0.9377053997577505,-0.7196626526042154,-0.9633574495585127,0.31235072886417226,-0.29261070254603094,-0.7380716843549349,0.38282279713945755,-0.6177184934251518,-0.5538534664997226,0.9311588089775005,0.4760596977195519,0.1343408808748212,0.42388798865726995,-0.39553365530644147,0.43711393291140954,0.2954070931088326,-0.01946843106518692,0.28747313916720807,0.299285733434115,0.7205898512634754,0.03366537931994684,-0.5663849786404591,-0.9477840513300566,0.8117966148922706,0.429714801923325,-0.3961012350289619,0.622576582531738,0.15902803313876435,0.9980738429173939,-0.9751172702799378,0.3958091114689293,-0.6462772257554292,-0.8768904539843683,-0.8437905853467749,-0.6282993232699658,0.22297570678558332,-0.6081122586618048,0.7574581551738597,0.49637786649873505,-0.12229741786283443,-0.26243864480745316,-0.036159028430725604,0.9531951434702686,-0.6291779958537369,0.010950481344338625,0.28990256149906735,-0.19599931361918665,-0.4986495329866756,-0.22239805997071493,-0.7982784837636367,-0.6110286688638573,-0.5243798255442482,-0.7834191575453593,-0.18165590375785312,-0.8184456324734335,-0.9034758122626758,-0.13736618627630426,-0.3750723080973213,-0.9635031609994997,-0.9371906090145212,0.6510926792895786,-0.8702926524822674,-0.20443238858901802,0.68206711730159,-0.8712508785009643,-0.48368628877413755,-0.9530190004578081,-0.18016820271389644,0.6899509777011128,-0.8495529559732489,-0.411574455553096,0.9695443717053365,-0.6671805153101364,0.8102768299643839,-0.8118447369285535,-0.3205138474391047,0.10776878020953773,0.1265586934872207,0.24338430776323539,0.9017028081067358,0.5683598785162465,-0.8362603102854176,0.09645951513543638,0.9989278692033507,0.9731250882770248,0.10480823315386467,-0.46542868172984875,0.05689481424804632,0.4734131929829124,0.6324708437294764,0.015182938073064145,0.43298530311817585,-0.19679131239520942,-0.37599034155365607,0.540128526932697,-0.07327553416075294,-0.8768970037602406,-0.201096610280878,0.6618963761573127,-0.06228169047601706,-0.9149731630528954,-0.8821610479593993,0.7782206267748666,0.25292637410719654,-0.920587011928975,0.7289238587836633,0.08468472898370027,0.15710421149420473,-0.5224661366708483,-0.49702696224966836,0.931093072775486,0.9929784171025833,-0.13559164999183082,-0.7418080018142481,-0.02424253093259554,0.08047952833810057,-0.6443080830716124,0.9689666996087951,0.7829208685873086,0.6817499856367819,0.4542450318156397,-0.3937237391193975,0.7083306228475743,-0.7148980931530711,0.3445142735452229,-0.3409132944471138,0.7801215528648522,0.16253247445429198,-0.2884418241940381,-0.7747554038802513,0.07498231970398761,-0.833326820412938,0.4247880836339837,-0.1540147792656532,0.3863995497166606,0.002944832077399928,0.7747903299618366,0.48385487984980213,-0.7418578023387628,-0.5628587598706565,0.2199211156251557,0.006453920525819834,-0.8539138213365767,-0.13116995453272717,0.6191107743023845,0.9035070127026381,0.9392712783895096,-0.8488519737444049,-0.054761212328293674,0.7544830068097934,-0.1890971892109221,-0.08235037729663053,0.49915747565604485,0.38246188370305867,0.9506252225427922,-0.1222056299395824,-0.8480468359536097,-0.43662986556428773,-0.4165571473890517,0.414702028220578,0.13736304382952724,-0.25127306592412646,-0.06253444274554809,0.3258739635285537,0.4615543942186793,-0.2990146958771067,0.9743225103158575,-0.9601240085487686,-0.8960739558898594,-0.9723614030051595,-0.3666497475051027,-0.799487757636741,0.44726087537118486,0.7453961280323169,0.7730617369111745,-0.8146787256365744,-0.37222967597567935,-0.27634584670142925,-0.8821334508377756,0.5017074454176593,0.2861700876466722,-0.739747018452023,0.767942866737074,0.579425814620965,-0.3123375604602465,-0.40427964098085023,0.943847254069941,-0.27818983739098724,0.8958762108597524,-0.6200289268790411,0.546223503624502,0.3450196040428757,0.9343364095632585,-0.3471307614632584,-0.07652020061037934,0.4127810271609125,-0.6079184269295488,0.0554131009947485,-0.5619310194468958,-0.6954782106355712,0.2842292346099067,0.8992480672579501,0.5238407203699305,-0.781780487386045,0.3151725639982714,0.6123834366909109,-0.8856608419388674,-0.5233087203072495,-0.04443719782434363,-0.38649269923427587,0.8672488942653915,-0.40934451390104587,-0.07231898584572405,-0.1732955671172549,-0.03425948044390448,0.32366828155893757,-0.4334966728738283,0.9505159819219444,0.49786297434494786,0.2515934808185787,0.45807939124546526,0.904716671272463,-0.6232225535325475,0.9706654103130312,0.9642147669485628,0.10896401169761583,-0.29661933686691744,-0.5019995198870351,0.2034345604276231,-0.9632535745789939,0.07597681704209891,-0.7843660021581154,0.24890388700294097,0.4787873330095367,0.7386542694662004,-0.9673447065510541,0.3966757684970983,0.7239500180302179,-0.8464735454701149,0.7380414890049312,0.9327959956334309,0.9878279640412866,-0.8797642346766641,0.837693266163622,-0.5430895923451529,-0.2906434803338014,-0.6788968198395762,-0.5934538724214169,-0.5094756231600663,-0.6133938481068786,-0.8728212139366711,-0.07579405994415578,-0.3105056067440395,0.3073887466445069,-0.4688408128529038,-0.4244566402608443,-0.15291225355946358,0.9615714799843527,-0.2605519044942137,-0.6084403781690582,-0.3547204942956592,-0.9595228808846772,-0.6635268529781753,-0.22528930068489084,0.43709251075726896,-0.2620532431474587,-0.509025066053165,-0.7831292300065826,0.3752742164259837,0.16085759326561022,-0.10093266378129861,0.676646704097676,0.11067610200139621,-0.605556527353565,-0.8075630196103454,0.17787908927367702,-0.7098578006822671,0.04297201942124462,-0.033464444660183945,0.8571848354218083,0.4263615093681721,-0.5990129406495872,-0.9323708690084613,0.8671743425918654,-0.5439066853264072,-0.7975064593893257,0.5558995984540893,0.3165490429390714,-0.2443847958919474,0.414559370907309,-0.6131964827568608,-0.34152532821304415,-0.9731816522629511,-0.4573198649935457,-0.653304870907198,0.7876973429368335,-0.17552244079016455,-0.32284298706695713,0.8198020273185915,-0.11820229947062355,0.8546966870935466,-0.6105446829111789,-0.9102317973074194,-0.6234695327416473,-0.6322023317668177,-0.8253013618776244,0.8395803208027535,0.26343142039762224,0.12419256107598642,-0.30356770335578287,0.12955914092076726,0.757820294715968,-0.02874473073634176,-0.0017282994987817268,0.2665980493461646,0.003600265987992346,0.005754516822719324,-0.8666660646209552,0.35445479361973686,-0.3145340088422248,0.45347719627337213,-0.8813859539621627,0.20670691666407137,-0.38856861330039894,-0.22377515197719977,0.27061324884923943,0.7106345688241893,0.46579984149075737,-0.8635991209796468,-0.9838300977828585,-0.5301160674240482,0.8858140594755834,-0.3711545804733307,0.5231300991913062,0.9058993188976923,0.21079062852247588,0.4489042253374482,0.3684428599866696,0.9119383204317348,-0.8842212350881196,-0.5491797237303726,0.6854282152497913,0.4983205916258735,-0.6487367512537408,0.21374917951612438,0.6035604287238101,-0.8379837345450656,-0.12842084629929418,-0.06715168413134842,0.9627735710937426,0.7779135566301745,0.66912432223875,-0.7161822074854822,0.020810444641442327,-0.8450277193923883,0.0020916550843548265,-0.9480935189683888,-0.3461497295759013,-0.11524892266990228,0.06446739822342318,0.01432210488213248,-0.166115553403124,-0.3639558297532479,0.6155481615130023,0.925132596814422,0.40976078176194974,0.6834400411160548,0.40420007114360645,0.19088060998403633,0.3340770248026388,-0.03128382042230449,-0.35737844377900996,-0.9224386947440846,-0.09128784843582882,0.5489190421768124,-0.4694339279679678,0.274024907639685,0.9885811545288994,0.12418916857504647,0.2749087935482044,-0.5724384877574136,0.42928443514180215,0.0805040144698157,-0.7732791178501202,-0.1213830776503717,-0.5773926162189593,-0.2982050958928262,0.932394869923419,0.27213647983868405,0.8549054916779997,-0.1496928849407857,-0.2973440251211388,0.4578136011455498,0.9115549510334673,0.8873764394801014,0.43689543258007135,0.24256329515276787,0.9840456303620411,0.3493770194559531,-0.9518241497862991,0.9458265521483786,0.46622109415131363,0.03930953595971309,-0.9420471675351267,0.3895609144170906,-0.018701507455764155,0.6898175496564207,-0.9314735635625491,-0.8647548259169575,-0.04488767019436568,-0.26328146747417747,0.7499271367609,0.46321643143017255,-0.8180982395416969,0.736562112479394,0.016866320439622662,0.06974043878975622,-0.856509743367867,0.745767710649361,-0.08649366686155702,0.28094714526105924,-0.9447698459588936,-0.6831207105808721,-0.7410429668974643,-0.050692065920425744,-0.09927955005043332,0.6366207281145317,-0.5621265313052177,-0.9767327148516223,-0.1706337185136253,-0.892573855122637,-0.20963749897989636,-0.5939452162704986,0.5122594452547511,-0.6541778207594868,0.2801518964828915,-0.5786567583996971,-0.25409128390441293,0.8106112945370847,0.5157256039901896,-0.6723719464226665,0.3727209712927688,0.9395150646004795,0.8194762466798811,0.12269441834734551,0.3555077450842321,-0.6512027774985383,-0.14141867020169796,-0.551001365466441,0.629907172240697,0.5988394135379993,-0.5480136245053526,-0.03445925747583001,-0.8202224778178007,0.5112272738500878,-0.7380499636293978,-0.31000571285947887,-0.6243860539461628,0.24712845037346165,0.7064496918756902,0.2617864282441409,0.9387240462952859,0.9343529545768281,0.38698744685489883,0.0653428405404537,0.017070720894436064,-0.1412589653159646,0.3566101689048502,-0.017861008387698885,-0.6434021896701703,-0.8077968051239375,0.6457416441124286,-0.9424587457497546,0.5481054577032585,0.5214312684869051,-0.07749519587509468,-0.4863253807237595,-0.09893942388611654,0.28463827326845337,-0.5900662418291958,0.7003406143726933,-0.9352386833231623,0.6606905333253559,-0.6466703497806019,0.32348592856892977,-0.7880457636553704,0.6342197462217682,-0.06290930940120387,-0.11089876891513595,0.790988578980141,0.201585012263936,-0.9170708147665654,0.7579349830746118,-0.29989256881937565,0.702908750269092,0.028995776138951435,0.11989059447301087,-0.7514869586812942,-0.2956693533600552,0.37088739451371167,0.6706454713664427,-0.727671121846363,0.2962597299256047,-0.7868338121565879,0.9463006908510987,-0.2284999146897253,-0.3728998889560573,0.14923345814933753,0.9780137977996681,-0.8874650960446504,0.38162906176252553,0.48429056925340985,0.06407355303411855,-0.10578970673745403,-0.6670967416448734,0.30477849894904896,-0.23427292487026308,0.21575876678092443,0.020487961087669815,-0.9249396663459002,0.2010524354631329,0.12328787961161836,-0.06028976915130002,-0.5706824814407605,0.3175475970664323,0.46539392224938303,0.7494441195921229,-0.011138759429986766,0.813734073564464,0.18000763542006393,0.7862292996206863,0.8729993182254074,0.5236835750981157,-0.3744977899818629,0.3697597539881887,-0.7703483108388636,-0.3990745223278753,0.4136594054789302,-0.4295062212908509,0.23409655180857913,0.645014914875911,0.35802085039701326,0.13525957237286135,-0.004188605025345904,0.22570544846188034,-0.3296677464500748,0.23291677357952656,-0.14059041655954196,-0.9867378157824451,-0.27154084059669437,-0.4587495621334259,-0.602180213910696,-0.7053660290141546,-0.3083703065662535,-0.3529560977669137,-0.6104420300219298,0.6530676154252537,-0.8789471036203236,0.8419778659415047,0.17986448155350332,0.7646550400149126,0.6998285188291096,0.2435358389015616,-0.6735604010861025,-0.49608977149982825,-0.11631247525935584,-0.10413477321599696,0.20169161947644731,0.1641616023709973,-0.26996444817769394,-0.8529870258186627,0.27211485826760096,0.12492114959367018,-0.8879008252816791,-0.34662387758796687,0.6982568958366069,0.17835295225719916,-0.9450023721134129,-0.7895167901390332,0.3183953712328864,-0.7785540376189317,-0.967703912675524,-0.7859179390272324,0.2806927465439675,-0.5876945930782764,-0.5811352702440813,-0.7595629964537749,-0.8854718988921355,-0.24466564881400954,-0.8441079031465792,0.6712462960520313,-0.8917611868702489,-0.9993006395943593,0.9566424837525891,0.45024622006830173,0.9964487049930499,-0.23847959475877722,0.9021521364375247,0.4656818315359921,0.8511347763959147,0.1931666714299649,-0.6872577281953467,0.6162255875280176,-0.27107050780451947,0.9908724120556718,0.8699513234154281,-0.0686146578994109,-0.49705956290395736,0.6828450925627703,0.039508185647430416,0.39350665563658205,0.20144426412001493,-0.19591026593104122,0.2518335235071709,-0.13077155511619432,-0.6639426558423527,-0.4609180393037997,-0.5081535073702017,0.8191543729739399,-0.7843081448755462,0.9426811591292608,0.4985078721286329,-0.054136023134086164,-0.48981864071880477,0.25931546792378235,0.7320746846575099,0.08133228975677831,-0.7560792128843037,-0.1709601969607033,-0.5716327040501441,0.49252858672966515,0.5489239835782156,0.25571639563632975,0.0904645306258951,0.2663611000339534,-0.8045271049942007,-0.9718220930791239,-0.2826915990004506,0.864554708310689,-0.6515562947001174,-0.06846643430022215,-0.9566988629261188,0.7522168488563485,0.6784822766145939,0.27477942719177806,0.309899850789477,-0.25246592841510007,0.566916348594988,-0.28108593651718605,-0.17239737716069214,0.7241356733997077,-0.6061534569792566,0.3603416024260604,0.78546835432002,0.29693338969413174,-0.8004636218954817,-0.8744810676751205,0.4287256853942356,-0.7562703562338409,0.4605629284229389,-0.4624683268946388,0.21775285406698797,-0.9242301513497959,0.0577967661038441,-0.521280693292328,-0.9157737588673334,0.2082675622391903,0.5425157970619718,-0.43357539334013073,-0.5741460009107493,-0.37763363533605165,-0.17535053199020356,-0.9437797288294731,-0.5981516194889462,0.7359113583974348,-0.18104585505347948,0.5329753062863303,0.07263416781638843,-0.596297656570765,0.8962122406726611,-0.7204035913011437,0.9318957431338002,-0.9261852488315243,-0.5327019636833774,0.8032801545215489,0.7417666994820775,0.3962024971601066,-0.9774272267866129,0.19061765135971664,-0.04646251910174448,0.6746761994227206,-0.6653286011030712,0.7687132182384688,0.8014813421651679,-0.9517260229753703,-0.06026959146417532,0.8231925535259474,-0.6634673412923486,-0.43561458212341564,0.316892555117831,0.3405621027709316,0.28682777925301983,0.9154553731713366,0.12263979027117622,0.6976882154353403,0.516737429248078,0.21957363722645828,0.8842199535628923,0.20136910462934043,-0.6917800142965098,-0.952792510773564,0.15079842750169248,-0.3091509838647395,0.025821770725053428,-0.39772415396639316,0.15872453469740821,-0.2546736268649119,0.1755267335141688,-0.073368854229926,-0.28166644264918284,-0.9944672863734929,-0.7588865805451706,0.5700374272457485,0.3858212452416008,0.9175154763370827,-0.6248966262996754,-0.23163093350756325,-0.015401769618630379,-0.033931489508768564,0.3141548897809454,-0.7956498071383482,0.6303668082701999,-0.1881170840896782,-0.7201065148356374,-0.363956481645507,0.4054072769593706,-0.674833744324542,-0.2470174390983142,0.61510145938185,-0.22997657093692925,0.7646882705913909,-0.4140176228945731,-0.052080822109455305,0.3136077730966824,-0.9366290219023583,0.709295675741886,0.7957967882301888,0.15714602785020126,-0.1572205423143962,0.5884654060366561,-0.7925702850138319,0.9447445120437916,-0.8423817582863662,-0.7577838877509313,-0.8957396754481752,-0.4568862190113925,0.6224265853739392,0.3235966241912869,0.3139869863656193,-0.39509151914830154,-0.880957114677583,-0.6097705341567112,0.4644660473737745,-0.953592508485835,0.7053383511078872,0.5044929145954147,-0.988694250758323,0.5247288515318747,-0.9048916775931259,0.20558810249916704,-0.3622178435338288,0.8660584209579154,-0.9189050430185446,0.893435012618039,0.36711803689885714,-0.6246184812035154,-0.6540441695570138,0.5801167487984118,0.5193273457985361,-0.7122397594454983,-0.3128543268198103,-0.17260486140156717,-0.6478663868808661,0.17838109643197209,0.896853471422445,0.6269619275517773,-0.44044807044072454,-0.5675571636372894,-0.28648519854775456,-0.37934386790372887,-0.8603536803742933,0.8475599972523076,-0.14130384397382767,-0.7726044112778734,-0.7329574700939947,0.1502178986002518,0.6881255120239198,-0.668215068639743,-0.45317941205327816,-0.9144305415696428,0.9442151183459555,0.38023956403924486,-0.6234999109501622,0.14553097567213258,0.3983835939245164,0.8807144385944454,-0.47074396553743525,-0.23402404435403268,0.14284519064225365,0.2076745274485361,-0.009862442137840155,-0.33013957584312226,-0.04894386169672327,0.986678722458227,0.9927072477161711,-0.879834668485501,0.2664696540445375,-0.47685313480750513,-0.8295250643195051,-0.20287869172723583,0.19215303198865485,0.6808260978912009,0.9519458814023372,-0.23026369188727047,-0.3180341457774363,0.5606441501342545,-0.8200769289065521,-0.7025105947750363,0.9029453524388884,0.863657716416824,0.1972090352758058,0.6006397787718487,0.12481691586400334,-0.5013292964010019,-0.595301185314546,-0.99131584885357,0.08114879804611741,-0.03922726870235804,0.1199043518829348,-0.46466160936417555,0.9724111697517963,-0.6352352422860561,0.5934610204289499,-0.928299798219115,0.2180518733260015,0.22463335171190213,0.28869140714460606,-0.24112298717868375,-0.7289334173631843,-0.8726422185859719,-0.34975335019647,-0.8064157142391108,0.12933708951285627,-0.39907694593807075,-0.2679846137223423,-0.21444780029082322,-0.996047869794991,0.8645532958638842,0.6741095360189373,-0.2138601837428744,-0.3831101182265986,-0.010688613658476731,0.08130502728386202,-0.19686350212945558,0.6155617169712964,0.2593785539815079,0.3934720827353635,0.03920899308324688,-0.9560507354782457,0.37013546137375775,-0.04238812498732725,-0.8349621694068916,-0.618477417009486,-0.040805677694305986,0.9090086506803088,0.026879146256713726,-0.5414239466554547,-0.7648364756297539,0.8956968471920315,0.05252458960739825,-0.21488978753604515,-0.6952488211157113,-0.8763494704444901,0.47306868393435253,0.3774256319347984,0.9933873031361011,-0.9680430592435478,-0.9482424069880298,0.4588781118401166,-0.4875248003596844,0.9360018453922565,0.7539497610895756,-0.4012135536567052,0.8251708543646441,-0.7680956889517825,-0.7985952561162175,-0.9912289014166689,0.4303724516570733,0.4534457193872601,0.3348400091396342,0.6923644070566632,-0.4504264910862019,0.3555629101678117,0.5353790395796094,0.2310375039300312,-0.4900096638384053,-0.7709033703034927,0.6056329575789303,0.2942507819795146,-0.8139739777864625,0.06457927414451392,-0.010774599165945586,0.5406324236587432,0.33771382592347066,-0.049811681294719135,0.7464834005717904,-0.14803326255579452,-0.35831377536842224,0.4466697712968204,0.2208766760465981,0.653103473221849,-0.9825129359786997,0.21660194137818034,0.09191586072849467,0.4081817514595534,-0.46929498490177557,0.02355720512306947,0.881361870414296,0.1956021852972778,0.14632929385799276,-0.7812190882136147,0.22497347155927017,0.732132836775139,0.5470499681421923,0.4701395520755556,-0.7953386211933231,0.4617683343246579,0.9375592400601913,0.7777752675318923,0.7112564283715685,-0.2542105396043255,0.4255311718144994,-0.9954922598782554,-0.6024657222713694,-0.578568617297512,-0.77119308138259,-0.4714556335066924,-0.06072009967606706,-0.4068425583331634,-0.5001212488502282,-0.015580563446391027,0.06562147159252829,0.6903423149622192,0.9518362032962508,0.2676236843194868,-0.46920335963216964,-0.8296370064416603,0.26374516195667597,-0.22348819528158437,0.1096955537005182,-0.7660718459483322,-0.7645869822051592,-0.8387009461176749,-0.06134721649937802,-0.6721277466535927,0.4175355564639147,-0.49672868288078265,0.7351931825654896,0.7685411576644852,0.26995471876682187,0.6798082036212214,-0.5243302048177745,0.36678167181591537,-0.13089121718146135,-0.5635113745740055,-0.701739527906474,-0.8753185517345614,0.8616541144426693,-0.48669748824325465,-0.2748276899766522,-0.8557598069374479,-0.04478082015816298,0.3140022503021205,0.723860022226265,0.7480158951716007,-0.8359239877714437,0.29676325733675357,0.5357067938960871,0.1694179458951821,0.9918198073637974,0.4635133462716454,-0.1728352331585461,0.32895502530783705,-0.5248255066161127,-0.8520620975748951,0.6773163637507607,0.3155770776824711,-0.32592784160274624,0.9219712051485005,-0.38126158331438664,0.14960431431286647,-0.06709076219633747,-0.3962993853206689,0.3560633729616953,0.48301410182566573,-0.7664174962308128,0.9583800169781322,-0.05087101314705822,0.10927945366429337,-0.20693550316178944,0.05664869964929298,-0.32459626303691236,0.1747951063886375,0.569159761143732,-0.5978169123050165,-0.815864095291277,-0.9023267413558649,-0.2852990853727606,0.9331603433071476,0.8437624584441925,-0.44669945834626135,0.025124690333372834,0.7491063648469605,0.4140402495533255,0.2318574655317036,0.160737713978921,0.6820795031891094,-0.32249800418114605,0.8254533733910157,0.8624155349445752,0.7774074705832634,0.5522789645379482,-0.3019642663816793,0.5561581387577301,-0.11092713606689153,-0.9485998106027191,-0.8143599643226187,0.5081332509838306,0.7576658583818572,-0.6407025668806388,-0.3884356454069027,0.5632637221467196,-0.5472976997985184,0.8281224422128344,0.68326505371695,-0.24313556473500886,-0.6096826555063686,0.775195247096057,-0.15624670342002278,0.5904301188147576,0.45649886862272493,-0.7154868939263666,-0.1735087529591608,-0.9674848330403802,-0.5789858798472687,0.21964392749240602,0.999043200744604,-0.5645076347343962,-0.8447144351797398,-0.33139712178044745,0.14275332145786113,0.6204765033874611,-0.7615660787946166,0.1909684533052809,0.2412534267485542,-0.9649534097192023,-0.9963499149570858,-0.48521868001780044,0.33136579937091426,-0.08307927185559882,-0.08569230444501308,-0.09718843984812886,0.42832757226442086,0.10586411943841445,0.6522044295252214,-0.4891154754889424,-0.1556888752995198,0.8906098236047431,-0.36109426219130536,-0.9995631824213331,0.5217958898812132,-0.541045309586883,-0.4907427232460648,0.7889070434309877,-0.633984129356645,-0.44640377487765304,0.4118335952531942,-0.17900925893517172,0.8757077102221755,0.9871270838781667,0.9640593621781932,0.8928915273024942,0.34044429106393004,-0.3184528982586583,-0.7126970285396925,0.35545780717210973,-0.7944349238271236,0.9823981397133681,0.17995375914516165,-0.9286901780662538,-0.8483716228042055,-0.9329277519294306,0.9762256661071596,-0.7358504042159186,0.24771588031905822,-0.6476684111765729,0.42333387858348837,0.5394275777162254,-0.5586129475048465,0.4300731129566939,-0.3948344498160019,-0.4335928238597748,-0.7627346891404718,0.10867175922863126,-0.4668130050617487,0.4001258340796079,0.14832126774421872,-0.6479343602051193,0.2961934204342609,0.020335430164462487,0.8326943716284456,0.8596201712238489,0.570191396987537,0.35064489177627367,0.057833723606150134,0.7717496547272553,-0.6603348126309729,-0.7130707297641867,-0.6910457560187033,-0.3596539820474143,0.8106092455584617,-0.7327203282502774,0.3957982033593874,-0.4385877422860689,0.6311077003181189,-0.648444013131146,-0.15816106238882366,