-0.9623998325110814,0.9616091342136808,1.6847960545441616,1.968871678250514,-0.8358677611742782,0.8511897913064193,-0.2870723279165097,1.7183055703645285,1.8131782464042487,1.2384758668706768,1.6727003708211252,1.488426368753787,-0.6372825050316826,1.5410767676978594,0.47071330669775957,-1.1649045095653126,-1.1850541965599755,1.8393275593199978,-0.13539993745358325,-1.4127347123124805,-0.7956503002395579,-0.2269845752893378,0.195904398750677,-0.4235131427511005,-1.4471788406594204,1.1588359506410484,-0.425284131475407,-0.6784217384983071,-0.9641448365133316,-0.7581187023653762,-0.48059131521060916,0.8113601173999374,-1.9333166562549482,0.6683075193352899,1.2057867882476199,0.3412924472012322,0.7211554885414908,-1.187546375622937,-1.1556271751812988,0.41048568711146505,0.5917550017785178,1.1988426980424607,1.204612824300685,0.4636787705753993,0.43131337700568473,1.208876559075498,-1.5092200235978832,1.6536612850646542,0.14422812636357607,0.05857894306920386,0.21442511407071096,1.0083451562634762,0.07044484050202904,-0.801545044647185,1.474724164351776,1.5136283087624074,1.5087306218775631,0.46421065126982564,1.882080060024871,-1.9109294319826704,1.0206569483526753,-1.0776510528104932,-1.3854282938570956,-0.31499339794584236,1.04621601294705,-0.17010153563160113,-0.6158512919851948,-1.484838210190464,-1.663057093428114,-0.4764348186828067,-0.9817524081605478,-1.3768004765302884,-1.655153750556976,1.3929883836253185,0.2489339683547005,0.314911915374696,1.7612645446745043,-0.7988314762048687,-1.9064004253471754,-1.7122124157841188,1.9435125385816776,-0.2720923156444237,-1.7747418359086224,1.1175037103481458,-1.3486979543450541,0.03529839354768516,-0.9615352152948895,0.7812560610758008,-1.7830354809936075,-0.5897595594079843,1.7734029059538745,0.9773896106666284,-0.12945205139582638,-0.8105832933748496,0.38332790023741525,0.6095068391177314,-1.0795597828340355,1.5216987444033934,1.8925531489036285,1.4677643927066675,1.4196996661699663,-0.9350066286257142,1.4035377588746338,-1.914804026696081,0.1158223545896262,-1.121546450520492,1.0250106083200068,0.03532948883982856,-1.0616581029332357,-1.1927112458731184,-0.04895434353228456,-1.5444258635975676,1.5881768362957192,0.27786889947004934,1.7205128679195525,1.1552224751024012,-0.9462079367294951,0.14096175483850937,-1.4452627097359665,1.7494385386799354,-1.0790093458994634,1.9671187294388535,-0.3395640367169066,0.7428708661605108,-1.3460316609415148,0.2967618191277621,1.9803534634758804,1.625851192010805,1.308051481149855,-0.5822221724078642,-0.9941591994247485,-1.8725665871074537,-0.5751634555885903,-1.558114639656342,1.1492728255662956,0.5950711967093216,-0.28955715798633097,-1.4706267645515068,-1.5284538609119718,-0.9214251574380063,0.6523635064298197,-1.6032952513176748,-0.23953544017751582,0.39702948717550823,-0.05945165723600132,-0.38368646445659627,-1.5299657978056547,-1.4615899454840298,-0.9789483637228291,-1.8775773721717472,-1.8122419036157589,-1.0505895911738983,-0.41193911249709236,-0.22317119935891316,-1.4725134449337798,0.48366062202277726,0.041397862544660935,1.6244142230319354,-0.8478824365442437,-1.1978043554360864,-0.7475186024121103,0.5347968374124523,0.7210503499880492,0.40075558751742646,1.213522597496917,-1.0187248866245193,1.171458042882238,0.7556203124564269,-1.248803839700352,-1.473456825113534,-0.7499064538042104,-1.5798645785977494,-0.4921211767864122,1.6545750502289116,1.5844344003496227,0.9009895966189712,-1.9255624265299698,-1.5305673385182383,-1.371719889088621,1.7610880225861152,1.0392830559049364,1.3720701461691274,-0.8860862181376734,-0.8143160787287957,1.8209487089804828,-1.4432797456614863,1.004119213516789,0.2929075252238831,0.8028508873960511,-0.9775353400480822,-1.4402907627649344,0.8865300848689297,-0.46112712410409884,0.21863463701418695,0.08955521945568545,0.46931234818405265,-1.6132146164705299,1.0996432984153053,-0.5407503791182444,-1.1446140910217748,-0.3885640363736833,1.799829586196779,-1.2404863597684126,-1.3559951327222137,1.8085212703269868,-0.32644465320121974,1.925497541130667,-0.7367206955307717,-1.8230614451953873,1.0059524517115435,1.254170981380759,1.0692361816783058,-1.4581041370142813,1.0475452254637272,1.970656758239389,0.2952149481142654,-1.0903694129234136,0.8119621216576549,0.7501702801267336,-0.6832194402347809,-0.5447406849890073,1.0572382323769043,-0.6842611672583598,-0.15237500891940137,1.2429255298177866,-1.6547278581127531,1.2648013157432652,-1.147728257583727,-0.04085991140742529,-1.0038417921002254,0.051556344351659344,-1.2952280380751784,1.781012958311083,1.9539375367541991,-1.4723991074041112,-0.07642041498545327,0.27324667077341935,0.3981967656775742,0.026177394442049806,0.22995036305535166,0.8533930925075821,-0.5524961634313117,-1.7443667530354134,0.8223055733691744,0.22458448220922467,1.7606537778303206,1.5831747499650182,-1.7969941113106347,1.8575534219914434,-0.12617767956479575,1.6740302444331516,1.4741558247473225,-0.965568111745986,1.4783809011384097,-0.1170759523532543,0.32758875682661426,-1.1079338631727675,-0.5256094828989597,0.3291826125086157,-1.6994884722196932,1.2389833026984323,-0.685060824101988,0.28609737900006227,1.802010851685652,1.7499768334044834,-1.198414072067143,0.17564429847785457,-1.8743059907800013,-0.6287309468717148,1.4106079805564513,0.3331360922666957,0.04238224132837809,-0.8464957845473604,0.5065303596565149,0.9912814518677555,-1.4960984101710477,-1.609180336638922,1.6336507768845618,-1.3110654000678807,0.2720483368478046,1.810893901560545,0.0699485092460943,-1.0675588242517948,1.3189147261645746,1.9213223302341302,-0.4545053988463148,-1.9214619728824704,0.10380453744070062,-0.8622897763549684,1.6683567437446452,-1.650761143002628,1.1309671475732919,0.7378695022537953,-1.4429429192014935,0.11236370602620438,1.271258908551629,-0.11043514723613779,0.9156804314049967,-1.5171861241416935,-0.3866766322176378,0.36881281698907076,-1.9467412860635838,-1.4429180005374933,-1.4492338149436765,-1.6554223170676527,0.5015818186989773,0.2111409093197758,-0.27923971560060146,-1.9848375908931195,-0.3222020385196136,-1.8604243341108386,1.592644797820224,0.4868259079697861,0.16588328815451225,-1.9309079755995366,0.9040195524950847,0.04403431160100846,-1.937288918439469,-0.7215519950936939,0.2449992883028287,1.4283311491647317,0.6207293516360903,-0.14260942427162293,-1.725305080087335,-1.9244147808339238,0.14808938764695467,-0.6167018963962532,-0.061722369210319705,-1.6781149831978217,0.14735220758588152,-0.7153571836133152,-1.978200640629749,-0.9774589766629593,-1.8387222988024892,1.1270493837980595,0.3992172204935618,0.11151252419747282,-0.8606078213896668,-1.5926620718901607,0.09726679240597891,1.2941724983725145,1.281773145477442,-0.2434204318376194,-0.7974172324153632,0.5133633147106806,0.5547887230780137,1.6610126578075226,-1.5193887571925035,-1.7850072221639688,1.4084069278972282,-1.5470941742733793,0.39375253017222933,-1.3031124838170656,-1.729185905830367,0.8117400899016012,0.7854905304100583,-1.7945694374353738,-1.4910708517260334,-0.240659056184791,1.1442035199402936,1.7419562655647036,0.25986838724758066,1.3394599652232628,1.4625055593472727,-0.6294463639445316,0.31938617091836496,-0.43221490731494416,-0.6163602946718774,0.3631927565623494,-0.13695965658877363,1.5173402282020625,-1.8129711580563699,-1.317215404868878,1.58186753637681,1.1150679184069663,1.445210733981198,1.481213057803012,-0.46227305152189535,0.6192826125140489,1.436908592920457,-1.9456468307471502,0.14025354062698092,-1.2380887025562468,-0.8687980714846426,-0.8691906541985879,-1.810993157204868,0.3371977745047827,-0.9669166259202675,0.27806367482070593,-0.8765927711388022,0.8252139451738021,0.20433439666856135,1.3755911988606848,1.9008543794675932,0.1608417230909569,1.0954439673972067,1.455807038684803,0.23378727721836823,-1.8477855604718427,0.9097790994993624,-1.7034763869125231,-0.8662798674448049,-0.11533428172260596,-1.6639478720016427,1.8891308909777123,1.1413739776472296,0.1429501825975481,1.609738082556198,0.5456757268748316,-1.1157594141142146,1.3194969310520444,0.2225936448458472,-1.7727113680897575,-0.7537548672363616,0.3337773133300823,1.144606308201972,1.6292051851418314,-1.8989469748650292,0.7326138118908005,0.6345480373649219,-0.6545326898361199,1.334324165256513,1.2991184682706933,0.9990825766872233,-1.6822735317966373,0.015697179558517682,-0.6945108983006629,0.23447223624211144,-0.022488517692943244,-1.3050414763628435,-1.5310607955961575,-0.8320979573695628,-0.5682960877127825,-1.8167363915959296,1.2182523894930934,0.10304255778011484,-0.08212194456603727,1.9411681055425363,-0.26520936408280793,0.29200485610910754,0.02305971730336065,-1.2305854012079358,-1.9269173761017333,-1.1014562521820053,-1.2552758712471466,-0.9532497410627907,-0.8842143909520579,-1.8647838968451889,1.8311555964940083,1.288278361154957,-0.8740109441510509,0.3730100792035751,-0.32344495220859626,0.13807940531539398,0.49394952194602704,-0.8353713898426651,1.0772381919179828,-1.4287633423636827,0.1200825330273112,0.591325742570763,-0.5519897063753407,-1.1933874846173254,0.7780285476938742,-0.10679523427758753,0.5013603291977735,0.4181740011554762,0.15178590023011962,-1.3258319153850775,0.3922523002304903,-1.7930637112302246,0.8619820186900387,-0.8866128809126592,-1.5597139944262657,-1.254531375803424,0.8193204215773982,1.0753370500192667,-1.2431798557101188,0.6656733027111263,0.23480143407799936,1.4072833166824572,1.4900801957969576,-0.7943043946232353,-0.7199267642736285,1.5007341903704314,-1.9406393705434088,-0.26035347715743207,-0.13194266278582623,-0.2962018192758946,-0.8189414972101878,-1.8097071656231054,1.7880841036945458,0.4808639055671806,-1.5720613644219505,-1.4602859018331058,0.7883188883192855,1.9527683465669252,-0.8994299148727816,-0.71406806159853,-1.091766732802335,0.5651096932471869,1.9476733115800946,1.0927474557238956,1.5591094152694742,-1.2594063563023656,0.919675141477688,0.38289358209794555,0.6770643868224742,-0.7075943879958997,0.6330656042727196,-0.6174740734980855,1.9825366505057396,1.9324344588297695,0.9993380976785042,-1.1767739363642042,1.2922436757505182,1.2329433855994782,1.5380803564897239,-1.528566324120726,0.24829496880879454,0.3015549884073154,0.01826002920411307,-0.43843931119193424,-1.068540521802102,-0.03604891267923627,1.4371038072236177,-1.6646717357214142,-0.4233974807276919,-1.9828435957108592,0.9307132244431378,0.3612489830396699,1.5758233491708866,-1.6472237843957749,-0.7724170271974771,-0.7832215716607709,-1.3042080284623694,0.634374311968184,1.0333276041386856,0.14971692022772576,1.6323007958032636,-0.7056758539626498,1.8265736612758952,-0.4654759289846244,-0.14339852232627992,-0.20496589591479397,-0.4317946576674805,1.1514158409996647,0.4964000067607963,-0.5375023023711658,-0.6321235171126878,-0.37871016143281855,-1.5227475102842707,-0.2967732150203206,0.7529404496122445,0.18149323084955027,-0.40641283252967364,0.41848194260834104,-1.0720435701993822,0.15471370104495064,-0.05806416927432512,-1.533888963621905,-0.6600483699734148,1.4803233453688183,-1.6242291524629033,-0.8820249130624638,-0.6903199942966824,-1.2576380438654615,-0.16239285733142772,1.7708144890872055,0.5354290494137555,-0.577113806822136,-1.9932686569232487,0.7534685602526046,1.5777436002213978,-1.717136894851544,0.5991235178444936,0.9887340065913945,-1.4228265879274922,1.8972062370099168,0.18208559333934815,1.9250648925400928,-1.0402793207276524,-0.1581742808107145,0.8049480674502005,0.5490187522206669,-0.7531005106784328,1.7941569732615101,-1.2102921880319446,0.40458147046552595,1.7595119016855758,1.3048993901286927,-0.2849552157382864,-1.2443191128497104,0.7751866299294634,-1.2832201615340577,-1.6163502618585532,-1.453647814931903,0.6811404359507063,-0.6939021632728077,0.4720944423120126,-1.5898061796021383,0.44677522543199144,0.995272867155256,-0.8648697468192301,1.8487154497263463,-1.9949570129687553,1.1495060177758205,-1.0429924718088848,1.5524529665635431,-0.17345780222770424,-0.15899483718156038,-1.14161654756147,-1.5755838351748066,-1.507408870901156,-1.4912361075281861,-0.8584354586699465,-0.6701533225161422,0.11827180566064044,1.9449934533625504,0.4641919124284075,-0.516833265181813,0.35469109641667673,-0.5511472207842747,-1.0868707506511437,0.9299402073037344,0.8137362580291363,-1.4536671067772908,-0.29789210891383133,0.6668112149319128,0.8173536842447038,1.059939381573523,-1.2846321978882007,-0.4623725590252734,-1.739105596757093,1.8460644835191191,0.3652449502324968,1.3639670826078878,-0.5994011318317267,-0.4629786741399844,-1.10105233078125,0.34857905102583286,-0.19870982021451988,-0.36994695897650676,-1.5942262813139494,-1.4714318205831667,-0.31111762834158263,-1.2328701709593912,-0.3666340149147289,-0.5437339927655609,0.3326012096505204,-1.3514310817450932,-0.16973023080724836,-1.1759394671878618,0.14206450794233128,-1.072033439521705,-0.5215153171570628,-1.3568005008666746,-1.7271263797834027,0.13741036126861372,1.6737030217873543,-1.462522010968316,-1.065657991963755,0.559774991913887,1.559578212986604,-0.4669464297507373,-1.238185795535994,-1.2810015609480097,-0.5955701998824314,-1.597468901529786,-0.40678345639699964,-1.4521582979028769,-1.1361083101545635,-1.5622638644922784,-0.7425341692600087,0.8784016625124584,-0.8814224384264242,1.007457976996018,0.6188737315179424,-1.2599180340100715,-1.9198235359984444,-1.3289385710675283,1.7256098385027636,1.8815749785919813,-1.4010851093435295,-1.6093272708534934,-0.6797163589896202,1.835280245384912,1.7544265999670223,-1.4318156716554076,0.452941127329904,0.47827750105823963,-0.42715167724172876,1.7672936555652856,1.830187424763221,-0.33622276184348765,1.1420606790431305,0.7898329035006522,-1.603585594360605,1.781967560298407,-0.9015760261622794,1.7581881719215038,0.590017255900614,1.408057383285894,-1.7984372589198627,-1.0948876309439939,1.9848148877947898,-0.8949938293259776,0.4504680186543877,-1.6206869374569988,1.2092060743147046,-1.285239541016045,0.32349183390490976,0.8445049338216046,-0.855601555166658,1.7866656981813374,-0.8385067549069829,0.7211379102330402,-1.4655549651921547,1.8936417821952838,-0.8785649080272768,0.9192950112642815,0.14080772871899017,-1.1834966012764747,0.6516446172370065,0.006485464821606612,-1.9739458135044372,0.09561944242332743,0.34983077558664855,0.4047597270626162,0.14093966362578003,-0.7548270622784399,1.1337683773469092,1.4767347771239359,1.1094457841996919,1.9493333778938395,-1.0777890686553069,1.0763109064035477,-0.6231609404833773,-0.7242011260246941,0.2668776389419216,-1.846642868924043,-1.3962382050718256,-1.9913308091801065,0.1304743411085263,0.4537264917032049,-0.23763089141059357,-1.7258553891073896,-0.22076217874246895,-0.09342152019649452,0.41097586181183754,0.8353530862932272,-1.792105507671756,-1.346285389881352,-0.03294826498048886,0.6750373497068418,-1.1426565052163005,0.7759850368174943,-1.5111889830410372,0.23099851972601426,0.7142749586889456,-0.17007307269698968,0.885407959398639,0.5839707538253931,-0.5905324242901191,-1.1124163502895001,1.3621994224971918,1.5518843253764119,-0.3100391497293593,0.7784270848179689,-0.6001513870742987,-0.3395516100691789,-1.3743724519930534,-1.937880322072079,0.8924519013534984,-1.9279961587231882,-0.9460998712991002,-1.0073459116468308,1.3853381295215517,1.6023555664241638,-0.3310552647588443,-0.11685989653107143,1.5170295802122364,1.255673612423092,-1.659860308668922,-0.05029079271560688,0.46022227687021555,-1.4801459868244944,-1.21778949267709,0.722166098857361,0.7533912828185532,1.3625497629357235,0.18031877262594564,-0.452823587260323,1.5024456870843728,-1.7626976640130971,1.0661015759361026,0.7713415697258053,1.5033761830715195,1.9010291828095531,0.08831447080612786,1.4729245351288491,-0.3808615181400712,1.376780569094171,0.714100607791393,0.34506114988749603,-0.21332946034611533,-1.0661965510196998,0.2558766422854277,0.5647359504403417,-0.3872908196384306,-1.4914767292271587,-1.1099973806311167,0.9882504014330511,-0.8355361153048588,-1.9208318940082312,0.9507950366082971,1.6303698161017577,0.47849374773107334,-1.3533903112493477,1.9553319935744216,0.42792695747857756,0.40551598514313136,1.5051471862249595,-1.4624130371674822,-1.4260353486399562,-0.4822017864243002,1.012781608465613,-0.3056147376324758,-1.308337300980936,-0.5459063808437783,-0.880207759378179,1.9617089832129535,1.8254470364230952,-1.0263139153313365,-1.5067596147534865,0.29641630662265417,-0.445931844573491,-0.37056517302520575,-1.2732380050224963,1.779292824454676,0.2783015536819118,-0.39701083786602354,-0.7258085953174449,-0.49476877591062607,-1.2922014392595713,-1.6479920482695292,-1.2816059735196816,1.8243627932505557,1.2228115134510191,0.1266401357812117,-1.163985730791699,1.3917732286597841,0.20655209690771237,-0.15152808478685786,-0.17026212495994386,-1.4254243605765229,1.7461758352133043,0.20477312567096373,0.1827479286269491,0.9284642806536221,-1.6957181604131977,0.9706674626255749,0.2545821229433991,0.8563414811792112,-0.8302248952557418,1.2286279433437186,0.7195718663613713,1.1936485474789764,-1.179494910502933,1.063678443196745,-0.31391418657080417,0.6395549481143488,-0.6272039524637205,-0.5411629943888001,-1.05124911257994,-0.7454518246202082,-0.371127421907953,0.29064798995174446,1.1274987250028623,0.625846140988191,-1.614557659151362,-0.9884333635756404,-1.7283665370265755,-1.5927872778859906,-1.3371959182782232,-1.2557200573793654,-1.4237144286390793,0.6471987583137504,1.0254218241500563,0.4745254502491765,-0.5949411643236076,-1.705945210392414,1.4307300081980423,1.2807607195682227,1.9434985327669816,-1.6210443559952745,-0.5969519804977659,1.1393183444683084,1.6532732238996726,1.0357840426107319,-1.1549058205213436,-1.5010125818995776,-0.5725571829143914,0.5576612712306428,0.1021172945788793,-1.936889621082849,0.6787061521233024,1.7993350210012706,-1.769518358615655,0.6692044194098474,-1.6052446083872258,1.9378545349676406,-0.8143909990230473,-1.165678384342077,-0.8303504225444018,-0.6570531491333913,1.5388007830875332,-1.207289322413113,-1.8088402870037408,-1.1663863546325284,1.3709059053295873,1.7552365047744294,-0.7477899394795129,-0.5387720401506635,-1.6400216122251638,0.6944824561984593,0.1191223658642051,-0.6758323066911287,-0.23229927169440812,-1.1465998595579614,1.9258803905086648,-1.2814514094576688,0.5362812999006059,0.23018299197102898,-0.971878998106261,0.9522226191479759,-1.183697971700901,-0.13034893674857528,-1.4336925681960557,-1.2292481937002493,-0.7401699061919778,1.3001972126223174,0.5470607717928839,-1.1704128249736336,-0.25337399867041865,0.3953651520386181,1.833311247613305,-1.5376169446409937,-0.14147373269470975,0.9307480684849745,-0.311383018329233,0.9044765645723962,-0.2599220649962173,0.33347975778620675,0.31465728443545604,-1.9339000157637414,-0.15627963143482715,1.653473466180675,1.6467608452769844,-0.10874325063563584,0.7755837503069936,-1.6527450758631144,-0.7169845375507538,-0.3301941111820623,0.4423920560004406,-1.44845366624316,1.0574608427621928,1.8485840000282456,1.9671349596403926,0.347290300706911,0.8649715001362486,1.6182582482525518,-0.6870582609898865,1.8883650332248885,-0.7450955168364706,-1.112433743325194,0.5435962959661729,0.7072293141290396,-1.2722152479412139,-1.4982924826487953,0.5932307016244098,-0.8534451570393791,1.1826635445559752,-0.9074713625853237,-0.3483641745737103,-0.4726787945802884,1.6581646008724862,0.5558393573578542,-1.7552185079311649,0.4654682961986407,-1.6052174582772505,1.1898892342182603,-1.7718471907666378,-1.384618487280632,-0.346399573518287,-1.3927850418780592,-0.5993226214867486,-0.7722728777433923,-0.14687504979752442,-0.5187637895685522,0.6386048239402675,-1.611545021373121,0.9151748029862059,-0.32216080068605324,0.6938210893646763,1.1299161183973778,-1.556692503572907,-0.027045014005262935,1.0953088859335276,1.6726596986868851,0.5028079687438969,-1.436274293432085,0.7874430720039949,1.1655642566196618,-1.2387241838654033,-0.09991511709522038,-1.2632551793886182,1.039823555746326,-1.5989881180503862,0.1520358610008521,-1.5355788190489341,0.6070010342851591,0.3929878081845182,-0.5761947072797056,-0.6993922856899615,1.4005434386017797,0.009270282304873145,0.8773698483722883,-1.917840558661227,-1.9293798710930283,-1.1200889659035225,1.7357537678236254,1.7028487144538071,1.5024463584640895,-0.563026863001113,1.8782656086986789,-1.5151802046220668,0.5183454971163384,-0.7199907277572803,-1.692788319329225,-1.6634120306275841,1.690159260100029,-1.5326413651176032,-0.013518872006148985,0.9627518377845536,1.4125418623021764,1.6329238290253314,1.1157546687417104,1.378893976608782,-0.651048807192137,-0.7620985513906033,0.7137961100355921,-0.9630608416908539,0.06540967671874576,-1.1733968373573016,1.8429092159851495,-0.8871386545383317,0.019681071520084803,1.4381889461342894,0.5967747779051233,-0.7983300146381636,-0.3750886068585486,0.18069550084188624,-1.2110526483378612,1.0621421207808668,-0.6261091538535544,1.893262609279725,-1.8776164473869357,1.5767985605739532,0.1579036285205322,1.5927914940273133,-0.8338583859732656,0.10339389990798997,-1.255983759551032,-0.9291396871652715,-0.3193725971765562,1.523345890249188,-0.45414686924878733,0.09232390930745327,-0.45281599417321816,-1.303252458050908,-0.876129986307856,-0.9250464865607806,-1.6846170070628559,1.2412631896734854,1.71329433412762,0.33015049713688294,-0.6518509416426084,-0.8447387692813209,-1.1771142631630287,1.3700202869091953,1.4246266791317908,0.3275413498368711,0.6208460580788571,1.0086429714554521,1.4895406256591577,0.14941258211019193,-0.4234673173935426,1.0067162822918463,0.13545729540824336,-1.829764610652178,0.8608214012567217,1.7026698416536457,-1.0763018902501784,1.1052397503519713,0.7149901935024126,-0.6640752083342591,0.6792134707546937,0.13568473926357072,-1.891271518462096,-1.2580091737515229,1.8981199262604251,1.0345272774303638,1.5224193480414736,-0.5885355514549135,1.6537800129693547,1.1872433079131448,1.305388609418236,-1.5380123480615504,-1.666857336212694,-1.902852860316154,1.7841874963405595,-1.5647693201356225,-1.1458345502114944,-0.9920941100343841,-0.8218257649409026,-0.3992338823684527,1.2479604507527613,-0.46021975593087694,0.28942888476495154,-0.7120024477835241,1.0458465117912898,-1.4635900447362586,1.8626983690119068,1.1974769683132287,1.1833419659359627,-0.010831430418869914,-1.080870574877296,-1.0778239419634787,1.9653940393004827,-1.746879153867022,-0.9191636577235496,-1.9182525027282864,0.45164636561015437,-1.152504119036268,1.3022995232911576,0.5182841575778454,0.2992816334629005,-0.9149127363183349,-1.8799455240303882,-0.632504774268011,-1.4232975966061572,-1.8701347035016522,-0.7096140640752631,-0.6061470257241477,1.9523976074865361,0.474716308819219,1.4925471244055974,-1.3750286980328208,-1.5315779220352184,1.8698278745888528,-1.5866373406754462,0.4261383240101879,1.4814434673346053,-0.9535745677237801,0.5546983134010537,1.2451873890294212,1.9208381770204124,-1.1418295883267606,-0.6459019457392965,1.4184947065555198,-1.3534847762326638,-1.8894466707385442,1.641780548547398,0.6924353972950588,0.08851830233224378,0.4708705505471995,-0.5511672446639597,1.5139543236101392,-0.889802253326978,-1.919847323302831,-0.49998172377677674,-0.5575679876689961,1.8759500832204816,0.4171291996745139,0.5191281328947941,0.5641805344218445,1.861940787959496,-1.9107140640196691,-1.458827357673318,0.8771667322128609,0.7365814744220489,-0.2594702017302928,-1.487732315183084,0.8131857129192155,-0.6155502960155541,1.8289431595801093,-0.9696753740392388,1.557134089404526,1.9610642362911501,1.3081327511825687,-0.24977162018680454,0.4637678429215284,0.9672412578839298,0.5022998970008867,1.6955704259410926,1.1060390162925802,-0.6019403727054913,-1.8775082097461713,-1.6086645101356494,0.3748403942142038,-0.07680676613237969,0.439404418519044,-1.1854728911816728,-0.431052628242953,0.5411694406318612,-0.6964778491740042,1.4741853041820514,0.8588750607029092,1.410961025005422,1.4397415482990814,1.631890090290164,1.6370248468040982,-0.3021031191935535,-0.3189598152374118,0.21992814939308003,1.5386549216591119,-1.839060414153348,-0.5104907227941768,1.6475730330507985,-0.320918695238837,1.7256526468330815,-0.6914074285217007,0.0033436813709570856,1.311440782977086,-1.4462858564594652,1.032829915713232,-1.8741404961307842,-1.4204696109498118,0.4893935897517059,0.712736753033103,0.05561112200563123,-1.4999867773618907,-0.1249489025760071,-1.6908356989685585,0.8971926595394493,0.2831599571282255,0.3469200134931181,0.8633310492988482,0.401803868850636,-0.25166702086262394,-0.7857572999717588,-0.97616222233719,-0.9716768925294814,0.8148121402660755,1.3332036925738473,-0.7898517032143388,1.3318313421451649,-0.9704949066586361,1.5028367796189936,1.6384649882733235,-0.04414695946331859,-0.5271058118901246,-1.1110069425897318,-1.72513055861043,-1.3006883401978202,1.681131363427986,1.5872654890736468,0.8207349605207046,1.9920651028923748,-0.0652715798663257,-1.599896757348278,0.26332596959383503,1.0553172469108345,-1.3494575574254135,-0.8063356206582646,0.0638872197676803,1.190083930597161,-0.32762707545556724,-1.6513981068007562,0.20633166808286996,-1.8899623249255284,-1.976002031076706,-1.7476890310973818,1.4963934433633148,0.5317868050517465,0.9447972823864608,-1.1173180153283386,1.6114526904383153,-0.5443911268290216,0.524684404416401,0.09171832716353379,1.1473523301553326,0.9330512042980867,0.5762555665302438,-0.5508244758939211,-1.689058411467132,0.5745328394147147,-1.024906444171151,1.6937014381735866,-1.2673947299567496,-1.9281596069061835,0.6799896512185284,-0.2581860062970054,0.7231538491874607,1.135545362608502,1.882954438477567,-1.0137197161863942,1.338439481840045,0.30179722395150055,-1.0463859561551407,-1.483129332179721,1.9572423414114613,0.2953596923435837,-0.09320653085937325,-0.5745978088676265,0.2171772552594038,-0.21120819093157017,0.5441427295573549,0.9076702843389968,-1.6877643908738778,-0.46775229105271565,-1.2204936203811068,-1.3905025028983453,0.8606699448610349,0.47448023553238006,1.1329828477701818,1.4507203349890845,1.4158723199817853,-1.2238350832996479,0.2781788580288831,0.11653606137295824,-1.2804272778499741,0.42953612382921147,0.39596409586149317,1.4619921618603913,1.2467594266863649,-1.2802920547628092,1.5904484897101985,-1.1266603198367786,0.15635813485832895,-0.7039258843965088,-0.2664935828339132,-1.7707910209980868,0.43066734917697147,-0.6974298833273407,-1.5236014101315076,-0.22138132866390547,-1.534385140410269,1.5842184347580925,0.9760982642742642,0.41773170272435634,1.3358502772293934,1.3085922395642506,-1.6480382250245311,-1.0296949621388558,-0.20068943842029796,1.0506485367143994,-0.8970370676180965,-1.3260294063299334,0.9303237879519726,0.6029094937705617,-1.4973545969548607,-1.2095398827541288,1.14272811527022,1.4202304919141846,-0.7751153578641912,-0.5698345616806026,-1.693795236674859,0.5539459187519888,-0.9351118917389334,-0.9661538819402695,-1.8611679357929507,0.0012734525023274657,0.0028674226960476723,-0.2972546862851577,0.10736698884082685,0.4166627975037276,0.8432138945176271,-0.3426952772341796,0.7746059290202494,-1.8209171842512633,-0.5656089781797005,-1.0469921034015677,-0.2380222267093992,-1.8712790985809722,0.9977085751180481,0.3851361596588361,0.7186250956742053,-0.7975776027613186,-1.199019242011313,-1.458125330218937,-0.7722878027682802,-1.2530823242035036,-0.22777121210820583,1.6236003998666506,1.6123839115700331,-1.1606404494193,-0.05192564998856364,0.9998486773827988,-1.5235584626141496,-1.7907185875006149,1.9479144874901606,1.331054428197417,-1.699572783221178,-1.117892294851233,-0.24586162808683154,0.4571107183209371,-0.05337272833024587,1.007637234825138,1.9976164207627831,1.5072790404968557,-1.5158083104670066,-0.6975112257014922,0.6671347170977651,0.07293826240049661,1.5995122966158646,0.2827041071621186,-0.8705572389851639,-0.2913095597721491,-0.8455714369351708,-1.484764490066273,1.2278930965032804,-0.11422017362808301,-0.7931841717410579,-1.3052104765980137,-1.7412207364446224,1.4615109823246524,1.2426598539703329,-0.49556396330854513,-0.8293019538493338,-0.1883113398287639,0.3054086432482386,-1.42402416517753,1.9300389299450251,1.527518574340725,1.9692379353665994,-1.2635022047790612,-0.4090597753522709,1.7686831637116098,1.1397062496246448,0.5244307258287528,1.005301321208762,-0.30945479250247443,-1.3821339290813648,-1.8463363631115248,-0.13209896563749224,-0.4471758975942399,-0.7511145316135237,-1.4727512378324596,-1.683242823618699,0.4240467954919134,0.31333814130056314,-1.9142284329315902,1.031879232950685,-1.314293771507169,0.7213684476195414,1.094065402601526,1.1120159800820604,0.03216017738550958,-1.8012058154699013,-0.5603455187707822,1.43266562866696,1.583389663603822,0.5574473452589368,1.4244076670558825,1.2926673575493273,0.2752142759960359,-1.3368010729026487,-1.3061428451628565,0.8016759700649501,-0.6790829094788946,1.5624693696691327,-0.4468697729340634,0.7848512175170317,1.598532692212344,0.9695229627226074,0.3484972595263893,-0.2631327497725162,1.498516684137154,-0.044489245899797414,1.130309657219338,-0.49189938571096503,-1.44049885534195,1.090284162164683,0.9738035989588232,0.645059759947114,-1.876034855681589,-0.5485327187789917,0.4619817569484561,-0.32527617363513883,0.002030364421052866,0.5443715709431207,-1.732636221707656,-1.750414398365577,-1.7763226207149496,-0.5821724737316738,-0.16660768122372005,0.3384600569724223,1.478397616288162,1.7954187823664753,0.266948442215035,-0.5140981506593612,0.6349625180177494,-0.618814216033889,1.2031290764961389,-1.8227618719866463,0.9903638204588563,1.4105934310161539,1.3945902000982073,-0.4512696906704057,1.5562027147696091,0.08458730479155951,0.25462790461361084,1.3129732815885728,0.3799790697028169,-1.5757881176200108,0.5023648946205794,-1.7372326621039047,-0.23472610881225053,-0.7417554686064523,1.622365032167052,0.6118558653045185,-1.0986337247894253,-0.7470956249475016,0.5721469471097249,-1.549463547900379,0.23728877804837767,0.33193524369674776,-1.793856795338563,-1.5173712718396608,-1.1450033727989064,-0.10742635261575906,1.9475814358665051,0.7571202689212919,-1.5648458189892485,0.696616459136639,-1.2575729318541162,0.07531690018201775,-0.7977951012818854,1.1881584056025702,-1.4652979561525092,0.2922851512816149,-1.0579574401562382,0.9072768346837399,1.8278173466300758,-1.1134161377997862,0.7001308214317401,1.9896062320643444,1.9191666075466003,0.14787261513224514,-1.3284117171810754,-0.018657589914202966,0.9917536237505602,0.4617303765490286,-0.39266656446806936,-1.3595456405787911,-1.7044860865552063,1.1931483713070485,1.4547153568513367,-1.4475017617975885,-0.012725432041085671,1.5915453815711835,0.3331406891607114,1.7230381993453792,0.729384653541489,1.7312340027338822,1.53026923237798,-0.33777797552276834,-1.7448021806758263,-0.8394627816150528,1.4167367179119834,1.903832021741835,-0.48653848876794337,-0.17187481073399224,-0.6400522432500946,0.47043917962429793,-0.8148121773932866,0.3544898367446798,0.2223442564607927,1.0570093251346866,-0.7987853515229304,0.5443573547256597,1.171940137908691,1.3179369539081,1.4182123386524021,1.434810779858184,0.7731612508083563,1.793832206012424,-0.19480207298848562,0.3307095145411014,0.7503095646853919,-1.7666842603749622,-0.2525802359661502,-1.6321419862157325,1.0225628738982055,-1.1160583410001128,0.2873855681690771,-0.71544558395775,1.728388573943029,0.47846149488660306,0.4316508891459865,-1.6566650280864392,-1.8957129985361818,0.11482974923091316,1.1528829112550256,-0.7009936901238336,-1.6829661995523022,0.9107674949277138,0.23587939587114493,-1.6583600620514911,0.03365323630761985,-1.9835415946082353,0.7082328130951097,1.2266388527287972,-1.5843605463041355,-1.9923734632605008,-1.8199345567073242,0.46524081250499894,-0.2341055683636588,-1.9962688291461728,-1.8965550723277889,0.6519699754703967,0.8247215563761712,-1.8021636717568783,-0.6215026495706821,0.2000408457629801,1.8357126042791538,1.398683479586607,-0.47739803689777727,-0.062469663998157454,1.209650397170944,-0.8350012101669431,0.6881812180000915,-0.7381005716410445,0.3473614328922805,-1.6837370384267234,0.7807954580381313,1.5690754194329841,0.47712123457709943,1.028397310315654,1.0182206305163728,0.1425134704403881,0.5654723185546344,-1.336858925366002,-0.513309389639363,1.913906132201319,1.7909724095441364,1.4203540373890733,1.1905450827462296,-1.0656622710876928,-1.704407497520275,-0.3461616152310709,0.24688565254312111,-0.41956278690417603,-1.7338835235665968,-0.17464420698690564,-1.7674891027658233,0.7027671455211553,0.7679008752934955,1.7431801569910936,0.5989972070346865,1.1457122218102067,-1.6703654651984885,1.303214431653553,-1.164979579655831,1.002450100676922,-0.7116150842556253,1.7345654274231674,0.7048140654285628,-0.44882966662955015,-1.7437452964602103,-1.4874767141564598,1.6234577398172259,1.5147094229669853,-0.9479743020099245,1.0875358963132364,1.3775200029789194,-0.40588400115887735,1.2937419886486907,-0.7921392944187744,0.11205042709439539,-1.5027336710198473,1.0737858822375626,-1.64512915580229,0.7819163290277653,0.43792407524338195,-0.11769886645128169,-0.06417070479894615,-1.1372836481437076,1.9753779698648501,1.4806476776545145,-0.2648910647447198,-0.45079336615496723,0.9086351986324153,0.8242617259865281,0.5547292232565115,1.6789261304715226,-0.703330602162545,1.857674759384928,1.3123855411074659,-0.0581139600279581,0.784365208865498,0.15611490126794747,1.4388428307063683,-1.67275972893382,-0.7689358233579444,1.4555529372782985,0.3725798003954641,-1.8699354586421775,1.2360985047828326,-1.2164212269015207,-1.9884099520888205,-0.19419702269200068,0.6304138730608586,1.8162615697381699,1.4696648667313736,-0.22860218765249174,1.6849766207113728,-0.05970870361424252,1.0085577210706576,1.3481654546175763,-1.7050043899120202,-0.5653282934549972,-0.01788862043854733,0.3909992613916575,1.0948474304215008,-0.8285047760663837,0.3088374215163343,0.29756703433363496,-0.8763101227558461,-0.4071761188995979,-0.835070752419798,0.29282048829160434,-0.45116869330560005,-1.6506539051609619,1.2539170392842025,0.5302809167135059,0.7042677440540275,-1.4899491827433429,-1.270362172172157,-0.876328374793085,1.520375609911302,1.1068175018296462,0.9714809971927068,-1.847114867088635,-0.5354750215170174,-0.384755264537219,-0.4440803265244466,0.5245221739820396,1.420494501860185,-1.4689795733157194,-1.668126750372127,0.14621309985953523,0.16291681313069484,1.2586410075846204,1.9147808169520313,-1.8729901985445978,0.18952074043940703,0.4202064852321974,0.42922252395054405,-0.7453069441526887,-1.7079906033608068,0.35237763094445373,1.6648777123824452,1.81748805517638,1.7988518517392098,0.27816961637158144,-0.007514205403831298,-0.5275839513101692,-0.6602692079305976,0.3087954171325791,0.9846240507983692,1.303557087235446,1.7993691492655666,0.7899030908398701,-0.18895665038052334,0.0332676724848362,1.8410578684591665,-1.7572401616232107,-1.2735156424258807,-0.5146225143891461,1.2966351807437615,-0.2431091438068682,1.687312595746186,1.594344785443682,0.9931790504365079,-0.7192188368129906,1.4843546255086384,-0.39463378590818676,1.738036536660712,-0.07254504101913684,-0.8397292567155188,1.9577628604511212,-0.9597992013233303,0.7268193251435666,0.16766121789346,0.40549510607230177,1.7157006983408185,0.6536023003703262,-0.21948277420405837,0.35858379227104464,1.2126026947323698,0.8903440825422191,-1.5192803481863875,0.7580641971942161,-0.6336095054126076,1.3105965854799457,-1.6420158060204044,1.4881428602146092,-0.7950184453095623,1.9540856536349112,1.786043393162859,-1.3120054606291722,-1.2737566929477993,-1.6109793636315524,-1.282828678377856,1.1374406265682477,1.8051140588749166,0.0023876747732463066,1.4410953498614756,0.831272604362872,-1.8974722949396052,-0.2066889334321238,-1.9462565285435587,-0.020677535008458037,1.1661204349560936,-0.9010268404930679,-1.9426417347824163,-1.3793827804723833,-0.4914853274567288,1.803920052668567,-0.5832149677046568,-1.454259070605648,0.591157796808846,1.3117746938308228,-0.6916029710451341,1.5157311372907682,1.2011841324910968,-1.4269384920161663,0.892410023015838,-1.4999997112929102,0.5594886292049464,0.6744683694361053,1.019560163003017,1.5335130267651063,0.3548588322453239,0.6213710331000395,-1.0346187279341739,1.7848338792368375,1.5879082964525688,-0.9245426800494307,0.551933162388762,-1.0042416171026556,-0.9859964673024972,-1.1335277728309214,-0.2173665264579454,1.5952245236265727,-1.626691954127486,1.7846436383937578,1.4162102606229356,1.0421622820292122,0.8448329406686934,1.2541962451637234,-0.7553561250537721,-1.5987965785666565,-1.7494375638285633,1.4356094538310007,-1.5681749374320106,-0.3145727815991579,-1.1642020732427851,1.2555508147658672,-0.13926837831953698,-1.7511473183532629,0.7133799137590264,1.0580708280771915,-1.4190333385664617,1.3153948781677278,-1.0704512302179197,-0.9505687398679092,0.5033896972179801,-0.9648352245939011,-1.7922451705444358,0.43162462630657794,0.735512554322912,-1.4664974670202886,0.6551705125431768,-1.5884446597967643,-1.7919346722750413,0.4560203580693125,-0.9582957189505841,-1.1878931683945453,1.006619759289563,1.8081885766618737,0.7512970279138664,-1.0682994268659143,1.3262752521716727,-1.8256501714695803,1.0124501102780532,-1.5944932567416426,-1.4665815903996955,0.3072310732576735,1.3613193707319815,1.054555338058282,1.4358319446621484,1.9190565597696758,-1.330277735252666,-0.08510080318679769,-0.7214630507621598,1.1778049852171386,-1.3807726822977355,-0.3483019476329581,-0.42506864323705296,-1.9998891996412795,-1.3288923645267068,0.07340236365206287,-1.5317886455478922,0.234349522374945,1.0444731233568252,-1.903161479471498,0.695423101165638,-0.4624602562468083,-1.2193944501452454,0.0421393593274475,1.2047155917623025,1.4917380588525067,0.5208195557166264,1.9565328027113869,0.7405299413990893,-0.29527346787537656,1.8628748245037565,1.4640451429258414,0.8058194054986698,-0.4331636536795691,-0.4295808368902896,-0.013748466305803841,-0.03549229572221835,0.11645646094095952,1.5046809854318584,1.9970469225410006,-1.7322089433082875,1.3724774613505524,1.4117881873669433,0.21296693754021723,0.23357411866521893,1.701827718937428,0.7278143334897522,-1.8810057373615217,-0.6907330134600045,-0.0868001284320088,1.138332965612776,1.2221203581891613,-1.6971497498505612,0.11679551049226289,-1.4993431505532566,-0.13888235446243824,0.3677213838882021,-1.30296077855113,-1.3082873380951727,-1.8740331874144633,0.7147625968415028,-1.099052186092727,-0.2638243366996482,-1.8524369461363062,-1.4262052349623242,-0.8572566923482268,1.6637770362331383,-1.1574111834169685,-1.9138558026265504,-1.0457028310462952,-0.4214293554310058,-1.408635625016168,0.580127145787634,-0.8591568227139947,0.5962884126416839,-0.37908586136780986,-1.8927905409830084,0.3295355468543595,-1.2374732922681382,1.9210190913632168,-1.6560320281966958,0.11656510643775508,0.32746903807172334,0.929386725656145,1.2028115138221551,-0.5312664441957167,1.878056139717264,1.5356732415255525,-0.2048961075418525,0.7846555524386511,-1.9120129379672983,-1.9630883484779567,-0.12663313274248322,0.29903931748669565,0.7277816189739932,0.7017315473315726,0.5527570804296635,1.637246146218902,0.5368174739298244,1.5206179847582684,-0.1022091469285944,1.9299218897405956,0.5915222781265705,-0.5211187677264553,1.4992693546479168,-1.7966271193863106,1.5431892893932209,-0.25731565478946505,-1.5531868899769328,1.1789309987374184,-1.383429206778163,-0.474720249861889,-0.7338091418817791,0.005717445090692053,-1.7322675293339467,1.7177739982528406,1.6632065136492167,0.48665858424585773,-0.9852053176032349,0.7976280315942517,0.39800760782592404,0.3842079361547648,-1.876133635593428,0.8596176057774487,0.6754669083095535,1.9367166475574997,-1.2280691420454888,0.22879561112273095,1.2723716047875886,0.17810847948365538,-0.8602264616746171,1.9248355527165733,-0.8884035478584829,0.15403614185197467,-0.7170579021614594,-0.8090015348019968,-0.5243244536560288,0.07972862346809206,-0.6276527285208751,-1.8258687240699198,-0.4961772078074489,-0.5299294596480699,-1.630297250115547,-1.457186687962448,-0.25591331904852677,-0.3108881653279725,-0.41433593502268184,-0.4541558787841953,0.9327010166557117,0.8269514480863069,-0.16384540963809258,1.3811712271521048,-0.01844495356179765,0.8486815264750458,1.7559254320628215,-0.6082982456820378,-1.3542018331842063,-1.7071241733229114,0.70094609771709,0.9312819676299156,-1.1249835467092497,-1.23960560304487,1.9153178960107886,1.7672756199353623,-1.0974566595690587,-0.8626106082136165,-1.8197814223425839,-0.600839430329887,1.793016550105794,-1.6643233362528624,0.2030418463443615,-1.2009762464496547,-0.90843235945544,1.5405388738184813,0.7046445525676206,1.8058217033839,0.6349601867988488,-1.6383121504142122,-1.6597162388393603,1.2163039170819223,-1.9933709874196839,1.4568511708476009,-0.20333881971137924,-0.12296162113585618,1.7851536199139093,1.0184082915289072,0.6558113117793676,-0.3678229998930309,0.7787181336855222,0.022536758161632697,1.0333755422640025,0.2756292758782428,0.3594444879793892,1.43609124535912,1.9475801887112714,1.2990827179317823,0.36669678457489496,-1.9997769159714527,1.099882708327557,-1.7300662740451966,-0.4361558397279417,-0.6614764152876895,1.3569106501461605,1.1226765808576058,0.6214782216118406,-1.098885022495049,0.3740620439132649,1.691925058790881,1.7449303511005003,1.8736639374797264,1.4582046424007533,-1.7474525481908256,-0.07473787475623661,1.539563614056751,-0.8959057057746738,1.9789664518707597,-0.3608083648953997,0.06342982914443862,-1.0009781162536826,1.021927292070537,-1.5587358830462175,-0.835789596319064,1.3707626404792177,1.5953787506599557,0.7483547129515498,-0.19643446251313135,-1.5054287749283994,-0.34860115099635447,-0.5219967671343708,0.7275032845972778,-0.3185182429706792,0.7811260119138566,0.5084032176383397,0.5303355393014684,-1.962014180165895,1.3331372511551614,-0.486776298057626,-0.5393660866222514,-0.6926355227591952,-0.28399948742051473,0.6357341485575345,-0.23195217604007556,0.8524633512679292,1.613502261984625,-1.5700665156567695,-0.4893720175248557,-0.7853871919892534,-0.3237435688511745,-1.2867531235543055,-0.4845979094837718,1.5478522245874409,0.16710388368929463,-0.5825483131381648,0.420857811612529,-1.6112704174887713,0.7066344591860827,0.08928415795915923,1.807350654766255,-0.2202210867386416,-0.7665289490748224,-1.0050418841364577,0.047847896609332974,1.4900615389043423,0.8539702776664182,0.8994718072223709,1.9061497387537654,-1.5220983377080075,0.701824038759562,-0.8438729659141182,1.6271698045621177,-1.3962999373274334,1.9475899524026583,1.3360781300325346,-0.9137704319404265,0.1619537740638224,-1.7051503565320605,1.637244686294784,1.3964416425739863,-1.6591387932115311,1.4631842132173025,-0.7129801996824892,0.22192778272376312,0.21110235952965217,1.5851234653804966,-1.5948510717678208,-1.4879666996909586,-0.8809032476227148,-1.9650554897324626,-1.1518099327891074,0.8954628538690161,-1.0583306776758352,-0.25262909804618694,-0.8742407963871228,0.9218599434907344,-0.7223459162024288,-1.0289658838141427,1.8508739579781004,1.9206373515857669,-1.7031427643550585,0.5669078702041661,1.1290079610749912,-1.0101915940008332,-1.9755302081765866,1.8371109727969652,1.742458365063746,-1.422449456817298,1.6709526871140987,-0.9608096531879871,-0.1493498295387945,0.3722227366840092,-1.804416606818601,1.5382243573870151,-1.676581496554892,-0.6912415855548701,-1.3272175165544695,1.2504407167150466,0.5572603104820586,1.8886446029451793,0.8338040548543995,-0.9922106499000996,-1.6236760252682814,-0.6343467956304734,-0.8886447281979875,1.041294200481071,-1.8856586014196517,1.4635308126914204,-1.2863560455672385,-1.444811489844474,-0.6726153032143682,-0.10665689583733906,-1.0604724822873255,0.34747737881338114,-0.060429876451205455,1.2319246198166423,-1.9106497572247272,-1.253907062472658,-0.8508115195606392,-1.437532615442287,-0.6955500195200983,1.3287689966294391,-0.826063057090499,0.43657460319075225,1.6836594955783513,-0.23400570659414166,-0.6803003465308906,-1.1318498578118406,-0.510823486477515,0.39027201733871575,1.0002757770672503,0.8555612365409107,0.11446412584418475,-1.1637929252205512,1.7673483454971115,-1.7629687224241875,-0.5153293309343647,1.3153590822845342,-0.9329637731224012,0.355884280515975,-1.6572640657565585,0.2504558916313009,0.7014057272560934,1.8737912134260588,-1.0143838740626347,-1.438574940009052,-1.303862822422098,-1.679877445204712,1.698421538538168,-0.7049647492260571,0.9698305718984166,-0.720816873119245,-0.8617144147460167,-0.5711618139801455,1.5588025840353024,-1.48388316109012,0.33230819120404975,-0.7035275217618913,0.7874853972161602,1.155259310499642,-1.348909193300579,-0.8566017983625716,-1.4342385116635348,-1.0268128472497073,-0.8547989246411856,-1.5284406108355841,0.9681942255711395,0.43101793811872247,-0.7164290218706717,0.9181241186334672,-0.6221015170962878,-1.7362738785363665,1.292367131671325,-1.1539863819415537,-0.5254173871357968,1.7734872072762524,1.1669569206007835,-0.04210152168069925,0.7123235269001733,0.3771826519386847,1.9544436692989646,-1.7828284937211412,1.1426085358044484,-0.6391341781186903,0.2925835771038945,1.0911120735702822,-0.9001108799881172,-0.34254941576256615,-0.7413995060089915,1.2759972800670218,-0.4887045951718725,-0.04813714566004146,-0.6542601079397272,-0.48805241761358076,-0.28043367745404035,1.8332754857888904,-1.2359541258443385,-0.8457061313251244,-1.1463874558822655,0.9872465739858916,-1.9692285769412967,0.3908892728891127,-1.0764168733187658,-0.8530156017710122,0.5501219331006242,-1.2130983270656994,-0.351129415752641,-1.5057196319358535,1.143712249002078,-0.976577438226462,-0.9313243021678428,-0.4305505647113712,0.3492150779331782,0.7932290455949316,-1.5055851948636518,-0.6936149317685425,1.7663019876481343,1.3586161920395132,-0.39859736004463997,1.1092411054496947,0.5051197362165807,-0.25417341306940644,1.1253424743801674,-1.9768824965968128,-1.5333892992747082,1.2350392911197523,-1.904003776993188,-0.992972028652455,0.4779471778823363,-0.8593439559011795,0.3217630051282643,-1.5191118424694525,0.4578576784193804,0.656625526692121,-0.7972710601862825,-0.7866564840975472,0.7985849222202592,-1.419275345973145,-0.9962067479816836,-0.1766089273287581,1.2609733861766972,0.6913856926600284,-0.9511451150371086,-0.013647138342483878,1.045342766556606,-1.6988995145989554,1.6929916103401088,-0.7666239677419777,0.1729802303922754,0.04365244504416754,1.370068657400577,1.0009605480456782,-0.9891685939439645,-1.041847712926527,1.423885264434272,1.642143219227361,-1.291254533409707,-1.34360935633398,-0.03618275871074905,0.8115398005341188,-0.27192576951629777,-1.5655729248434413,-1.1570819812377304,-0.8625797237836612,1.632574653265412,-0.875169491585543,1.002152806383127,0.16929892062577645,1.7600284762251657,0.8069808626323209,1.0699006129944544,-1.2890134379878502,0.10766977234350517,-1.2786767707792883,-1.5592207784032035,-1.6944019610901284,1.9828445930873286,-0.3649773349475476,0.236497894822429,-0.8102162129409289,1.4289198714104776,-0.6090257827820897,1.5844217727704244,1.3005693128704707,-0.3350006676951538,-1.0867109464518552,1.944571131869893,-1.1350280616180415,0.5820854387454357,-0.21638930606864593,0.7868434267018736,-0.9174482663669608,0.3467192786799038,0.8350607057992736,-1.7714390825052018,-0.2478523640158179,-0.42319883140590875,1.8184632923057071,1.1161937183041757,0.05194662920768289,-0.6162570907493752,0.4187308401291516,-0.2604772362802965,-0.12077167598425875,0.854491118651675,0.3577761198554166,1.8527828240017858,1.1170211213424395,-0.6355079646993849,0.6706350270249088,1.4359837749364583,1.4575466972676572,0.3528038507479927,-0.43813396603305277,-1.0031799821714946,-0.9565224652449174,0.8098014472232768,0.6909951179925775,1.156154275254913,1.1755370604673416,1.5307720310119604,-0.5241869894639151,1.2417890290531712,1.754657641477404,0.8858902215850155,0.18741493533707576,0.8551431151250526,-0.7885374741274007,-0.5184066389837154,0.3228143568634301,1.0777378800815902,-0.9940463296213031,0.3457742902409042,1.1585863937197192,1.6614682504844196,0.41382280146824746,-0.28882132329301813,-1.0929260475289677,-1.7758419791493663,-0.2839022975263177,-1.8723761899317326,0.6645764204026632,-0.6316148385849671,-0.2325362290662838,-0.3853041043849248,-1.6479908092452131,0.02774275655346825,-1.254431589078242,1.098863320543356,-1.122281689508768,0.29218223774133234,-1.6068943890439074,0.8875160121618815,1.8184804153184904,-0.21100609589321095,0.954229603688006,-1.3149364843873754,-0.24685668115461334,-0.29429555731361834,1.9964734294506714,1.3005739070545497,1.9255552119406056,-0.9978765363520963,-0.7371199134889159,-1.1662272528517228,0.2321857107883134,-1.0437618346837039,-0.6937987394754139,1.9409198337228917,-1.5273187460661526,1.6834522969256174,-1.1850080133842913,-0.5625523926560243,-1.755124575197578,1.4451936995173273,1.6229566545931498,-0.9176835954808364,1.0619179792758713,1.6767278800915828,-1.1150847095441785,1.3921647783003754,-0.4594603445182983,1.3766172599424547,-1.845641238577036,-1.377892388286904,1.3792271972629466,1.4165501659366555,-0.24083964140819347,0.2967476148533672,-1.7394555245406091,-1.367242342395035,0.9990909738409339,0.27132051969312965,-0.9135137503773545,1.137729003794791,1.9915143546458451,-1.6179136118948434,-1.168080115093249,-0.9927530450510327,-1.0590140873127822,-1.9988559997980038,0.6651651281920201,-1.3343338868601435,-0.8275609824300396,-0.46493339522004895,-1.263236475909323,1.9614339406988943,-0.6440690949444718,-0.8020865567393933,0.8876216989355772,-1.041742291961425,-0.6280865639304603,1.5571989544750813,1.741672359454006,-1.8940287264687554,-0.7156527884837827,-1.9785401735725632,-0.8086898668711351,1.0185898647433111,-1.9258816516207133,-1.6872702192567774,-1.8312781299808543,-0.32198189100701047,0.022277819625780015,-1.0317917268439154,0.3416363232363251,1.2918739975467046,-1.9757704303840287,1.3607226865593143,1.8360346992829957,1.8294201585779617,-0.6098013870640973,0.5083790681689555,0.9803797000664036,1.549301078358078,1.9365141474224905,1.4774850199085745,0.5246395925954417,-1.0613830695703315,-1.2781318611100088,-1.2480762892346298,-1.7318607979564185,1.9497041519943932,0.4929585508361489,-1.5908135026306018,-1.7070686335001706,0.06181052553787625,-0.6448547712242214,1.2860406649095477,-1.7424315764639187,1.6573495144045807,1.473403429646769,-0.6720652046375029,-0.4972008147689513,1.223921447493256,-0.008726937336293261,1.4755653400290911,-1.9888841075856303,-1.0088540274505569,1.6718411461286986,-1.2976394938022948,-0.4335831903664724,-1.5925362740288431,0.27425052008326967,-0.11337977495811113,1.0728144473023131,-1.0195348624483551,1.706977896027904,-0.8341258317946294,0.2811142382412677,-0.8240473639446542,1.1275445062524128,0.9165756105503444,1.432768112234466,-0.6990081498832414,-0.20782808848990975,0.36862263815735696,0.03435349816420441,-0.6306067317360431,1.6303043930546846,-0.6144053923480461,-0.3854392048806625,1.57115354184696,0.16469752068344734,0.8109439364415527,-1.676616641087172,-0.5115921922822362,-0.6459184743254571,-0.8032714278391317,-0.1253674278326926,-1.7729752663301728,-0.3215542237994433,-0.9991819147779339,-0.1486652514265283,-1.5662074371277699,0.4998010381570377,0.7030733592120089,0.3844217641986609,-1.9538963367035258,1.886835647895193,-1.0591777951084551,-1.0072037550596535,-0.015008152489413451,-1.795712015358791,0.8387726444383174,1.3825888108725692,-1.3224310131247612,-1.2017416101581966,-0.393230943621516,-1.000709633998409,0.10724589013363017,1.8808043144155233,1.179975016002226,-1.126824972329227,-0.1104265665645916,-1.5095544216946055,-0.8358927682726991,-0.29092204038764313,1.128711939917339,-1.6316285802051915,0.09004087220141788,-1.4296238289436332,0.31286888346734854,-0.9798836959887725,0.7468080543021154,-0.6358950821212792,0.719709819403175,-0.1922523630381776,-0.033860169632002446,-1.052205760893751,1.7278867180976802,-0.08378451002776632,-1.8460923248033891,0.23707874221054137,-0.2726605153626722,-0.12513141798214367,-0.00404754377125327,1.0517980024635847,0.7533625293839026,0.3040283001690067,-0.5292902389585281,-1.5480719685701225,-0.17919291751521538,0.1551599494497906,0.7779960628869498,0.9922403078134887,-0.9169923029522353,-1.7290800313707528,0.12575008073248473,-1.959574802215275,0.7803502582596309,1.5934947131322077,1.8915889600656346,1.078795636883835,0.500595970427725,0.43597255981468663,-0.8344267446808757,0.6346599198851379,0.32551969882749887,1.351116213876606,1.7711609707337836,0.3892836186566062,0.5273442098286645,-0.10052752720854752,0.20483616940924643,0.2427155822837288,-0.004970014474656281,-1.989710617420132,-1.427575091317188,0.7395933071476573,-0.9384254251367721,1.3261680231422268,1.1281464846146196,-1.4614081285512088,1.0942012525568847,-0.3436226250792296,-1.2625245765008106,0.5932224229143692,0.48951882171720085,-1.5829555142332086,-1.8593063289025569,-0.29533506319847147,-1.4663062021229747,-1.0026932765062888,0.4578734929623165,0.7252358162142825,1.363244651435921,0.6968704609881757,-0.6089390978207905,-0.684482148115753,-1.307696663570023,-1.1733270309748005,1.6127688908610422,-0.795935660900474,-1.6227962229422763,1.9235786200415363,-0.6530112624857107,-0.4433536725169853,1.1343731575285654,0.1682042537825481,-1.7785135021269736,-0.5317791771004376,0.7510945713016879,-0.9995481287640136,1.4769471357862045,0.40199355777165247,1.494219972932369,0.8799051835937646,1.2133137337870155,1.6144401249703266,0.39614086268131654,-0.3467283148051612,1.3250506614672535,0.5996383623194665,-1.135827879500264,0.052089513646060404,1.7049906028678814,0.22309808074848947,-0.6129342331112522,0.547932104669191,-1.9689987599003769,0.9223892554350503,-0.37201919453599297,-1.8002210872007538,0.754961508741828,-1.532859932926867,-1.864104278991623,-0.5695741433588837,-0.3456045695810741,-0.2803322432690267,0.11919740568151038,1.290325173826922,0.01068900917298432,-1.1027254100303674,0.3021335259584679,-0.7558848110574021,-0.4447896732633505,0.14346799290734058,1.5700424274829832,0.8884378717002464,-0.7048400722372601,0.23495375059547818,0.6956663053274523,1.9574787957174258,-0.8397366884868251,-1.8349135723611236,0.6366280575814156,1.9987524258387919,0.02789513442658098,-1.2929575377837086,-1.5915010975664403,1.0943597543841532,1.3187536285751231,-0.6878178312958823,-1.135244618060622,0.29775200942438973,1.9681513137180846,-1.0390338917021515,0.8583517404737133,1.8379951634309455,1.4341292717007659,-1.9465225635356633,-1.3244298540070467,1.1931560394771021,-0.9573772907305891,-0.3604380684380244,-0.9940363420408951,0.4885494506889163,-0.12218376597946312,1.1756053909686819,1.671737170609504,1.3147345454568633,-0.26241637248850935,-0.49613186855181723,0.7637021235671599,0.7331071779852936,1.7528334093257292,-1.1211244401127272,-1.7246273293841359,-1.987000557006731,-1.2088171494401698,1.0131725783661008,-1.7528974636924115,-0.9552034417349109,-1.8532906375913014,0.12064812075124198,1.590570532277158,1.7395583642130235,-1.72488397179586,1.8716687386449808,0.7287293177820264,-1.0243442298620753,-1.4020146051553999,1.929972742248328,-0.43239816256855157,1.3681825526686122,1.7393139043409742,-1.5620571157152359,1.7838173426799728,0.15832334005602666,1.6276505551450247,-1.845686312876202,-0.07839795912430603,-1.5291530502126953,0.2663020665542444,0.6655074817783606,-0.5898111504992221,-0.893008893552071,1.989549522129185,-1.6544542785214142,-1.25871914603665,0.36078830941323536,0.8873882845586722,-0.07082923067527958,1.5646296625984886,0.27797238252486745,-1.4251756777322448,-1.5792406881701662,-0.3512357428502648,1.6524005836699454,-1.107293179654123,-1.0163684913879947,0.3078182410400445,-1.3889739124744955,-0.004393128226258813,-0.5582327261362181,1.918874278869703,1.3046875504977917,-0.9381677427004149,0.411064371066324,-0.8420049281869608,-0.9609981953587341,-0.4457771460599269,-0.28564972566958113,1.2202088368569721,-0.458309480053114,0.4686510099681187,-1.7412397620885924,0.5957116026580649,-0.049882151482003145,0.22472094609101,0.4556571599597641,-0.33849332818505884,1.5781142412736964,0.14151106740228725,-0.04391374851157037,0.09112203742301084,0.29220349072904694,-0.17986966480066569,0.6906536475516258,-0.34550710353990155,-0.7981884431909303,-1.4155474271352202,0.0429551987421668,1.348615646830102,1.9857996659138917,-1.0490924981820076,-0.2350586721574479,1.5638280962317803,1.3657898492861489,-0.40088860879695254,1.9396576701954946,0.27313563678024133,1.523607131755874,-1.4632043477580878,-1.8211136543388315,-0.8634311008207933,0.35055455676633995,-0.6769155564765112,1.60302908402825,1.2825213632645043,-0.6247314320554755,1.6526316916409938,0.49868018782212165,1.8453176139416438,-1.2130567158718408,-1.3181395186917317,0.9314425195370442,0.590521200522919,1.1298781608167658,0.5101430499615178,0.9050461454827561,1.784807655906667,1.6072014030801438,0.05559232296525973,-1.706530726664098,-1.222555508715418,-0.7189511921726779,-0.13141468982447568,-0.12493792462074049,-1.1670614686185439,0.8935757838348493,1.5494597300140378,-1.5487017466319881,1.838673228942446,-0.604381271417096,1.924619212204835,1.7308259553224081,0.7898103970177663,1.6232345320493287,-0.33886026520684,-0.8427744450236774,1.8174174951987143,-0.005465888308530342,-1.975529592356276,-1.2381046948851977,-1.5589982777954745,0.9397523086095831,-0.020293535641890514,-0.45680980102556124,0.5385473913926622,-1.375957045712997,-0.4363676344256051,1.0510513325628508,0.009403530545148975,0.9072237004164356,1.9431119488095518,-1.7086682143251029,1.0228928382988989,-0.07280182391602841,-1.5935054000141893,-0.5764789038809139,0.19420727125965564,-1.9071454981904643,1.5138801655785712,-1.1223713405125282,0.512878529819222,-1.9081701805876143,0.6722920372472885,-1.4780259956970152,-0.26768550990110773,0.7909392732579033,0.552885270739953,-1.4714844076402267,0.8220960719115094,1.7267201935583647,1.6078483587639143,-1.6581905147323615,-1.6488339547152426,-1.4493806721899047,-0.8361976213357853,-0.37492141830372905,1.5130047178524406,1.4049613504002507,1.5764944728328247,0.9265687257109749,0.4181292814476629,-1.6408324712496682,-1.014925184787204,-0.6753879220675101,1.3911138013087987,-1.2406263795973715,-0.017371719461844126,1.9621149865754144,0.8848474617566371,-1.9637174286007832,1.89011754987783,1.400042422463521,-1.5441272014777496,-1.4928095968943866,-0.6982725083731198,0.9168965123679169,-0.7289403492535365,-1.2932898441652996,1.617444997674998,1.3769848897827757,-1.392772636803711,1.6298943053110433,-1.5484909385588557,0.844265812524676,1.4286775066980044,0.907099663073867,0.6137816902053141,-1.747118438934466,-0.7173910077659489,0.8860666650734181,-1.9249303862234584,0.3487607643292021,0.7176536521730288,1.1188798846899024,0.7992359509957394,0.5220826074473073,1.4809476382092694,0.7270582593616917,0.6823108387901229,0.6666244336080944,-0.08297426956472176,-1.163093121160533,-1.0789497823993774,1.4607386679876244,-0.11153278124029065,-1.722104419313681,-1.6101536529414031,-0.2490438041177967,-0.10000847540474966,-1.9146785151332932,1.160279189042957,0.25064150394065043,-0.7818289167079011,1.333391370782556,-1.758549876531025,0.5723151277592966,-0.07762959819855464,1.5666653241628765,-1.1985272858855383,-0.12173774825254347,-1.5015669799952773,0.9087681865047448,-0.6750558529949124,-0.4848537193708955,-1.595881463510279,-0.5375016151952656,-0.7158393733184587,-0.35313481845613337,1.6193737568760884,-0.9242722279749307,-0.6641859792685794,0.12760865898382567,0.06967613447642762,-1.390964014291335,-1.708635871077567,-1.2921453541180838,-0.20520055338693544,-1.359769272425304,1.3213903243916265,1.837421238917461,1.8261817108229015,-0.005939288207545523,-1.4129835807209212,0.5370539544812183,-0.04296712520356083,-1.0552518643299882,1.7293876646189155,0.44233696014055246,-1.7422371197929216,0.6025146210516215,0.49786349079033876,-0.25108319858666306,1.3181269741021207,-1.4444738962264316,1.9318486355524493,-0.9074855365479517,-1.076202098842515,0.15280582597443626,-0.7481349437294522,-1.0166127575393382,0.9077703854228112,-0.7025896092342543,-0.8129650323853386,-1.486295865646773,-0.007618383829155029,1.4482972006978576,0.26154616912701556,1.2446082414155293,1.097709802675221,1.929792507055815,1.0616143997837253,0.9691552353190791,0.7409181607800894,0.6675258239557436,1.6528234281930345,1.043844331025364,-1.307987585627672,1.417348179161206,-1.5113928942809078,-1.4061165481671507,-1.123218469270105,-0.24590246071106492,0.3570649273394184,-0.9346436703943426,0.15358433813669503,1.7168386310871586,1.864564708265278,-1.2767603709093978,0.07372172737671434,1.5263138751730474,1.426243660352403,0.3781364027821077,-0.5221563338703987,-0.266681397612917,-1.2879157609462233,-1.3198629492972738,-0.031165226370519772,-1.1561426643725166,0.44865105509065284,-0.4259309284557897,0.8264328409427857,1.5672792038642163,-1.6270618683227314,-1.6696651990595823,1.1580338308608917,1.299039728088618,-0.7603601908795792,-1.1582231525540871,-0.4903943743214745,-0.7256018006063139,0.6703800497603147,-0.04218163301370881,0.3231306138217178,0.3195358528845125,-0.24058315118442586,-0.5458867289776608,0.16167509419732218,-1.0113608320081804,1.9963721628371274,-0.017764487702416787,0.8388910872506488,-1.5818180698302666,-0.9570468651917134,-0.709318017076471,1.5430270157650678,-0.11354885887779753,1.970146468730368,-1.8450494611422732,0.3458320327445099,0.6621312510855422,-1.5799597365658666,-0.4508107588603276,-0.6551496827336831,1.822970528529396,-0.6733990270673154,1.386382220497881,-1.8553609901025743,-0.8530756835154691,-1.8632830747989297,-0.5382903548491051,-0.9232208144161427,1.2963778197055067,-1.6192078127145253,-0.6812778657115985,-1.5874282933799786,1.204006755787407,1.615153089392742,-0.37239921682490706,1.2865726603987153,-1.5389532286954242,-1.7386917749905582,-0.00571077949322385,0.9243946160702019,1.2687248941774079,0.6633552161624343,0.5110105878380922,-1.3195752677739487,-0.013798020746618178,0.35750358497230117,-1.6813892034300943,0.9931738871181182,1.4622882330907343,0.46037802230067904,-1.9087798058027117,-1.0910234884959098,-0.11330950533599848,-1.130055093007467,-1.7458814970271717,1.2320661101613788,-0.6923876386489827,0.2445871856055266,-0.6975361836712595,-1.117926464063911,-1.7120486962945853,-1.6358947473982863,-1.9156023535138038,1.5281077911556595,1.7188590944488489,-1.0044766828361875,-0.8733371766172544,0.5329030448984753,0.7275606842672584,-1.4532005851379277,-1.1112613983773252,-0.5447606457788305,0.28377043445525363,-1.1747572104994823,-0.7061448256286753,-1.1390002382505702,-0.8415160085518103,0.17052543043424828,-1.0738929610351096,-0.7295805268482107,0.8409552528188424,0.9976572639389616,0.1872031095293205,-0.7606529004998448,-1.3689718150451577,-1.3837017766214026,-1.211274777415035,-0.7449744029070362,-0.7134083646951623,0.040485765335291024,-0.1540274794747507,-1.4067394947154144,-0.3073493191897412,0.9165278033675808,1.1407239029756662,-0.7721171677905305,1.9451548200816569,-1.3306103527014526,-1.0733311325749524,0.675726439918535,0.8113445699584423,-1.4939554306812162,-0.8708187180048683,-1.5994686983862825,1.3844400754248727,-0.4369494563965559,-1.4394064116724232,0.29250738182999836,-1.676087749743131,-1.6063460973181272,0.18631599524938247,-0.7551775363005295,-0.7327720678615584,1.2994126084813167,-0.6288626239910737,-1.9458858977396911,0.5927469381093426,-1.5031368739734878,-0.13972942012240797,0.8203195397845788,1.3592435914737506,-0.10762304844066106,-1.4034316225625094,1.8561389826307613,0.8496873269229015,-1.3533253709017083,-0.5188372626928257,-1.0507407608902417,1.7115524770008141,-1.088095270999129,-1.6924076569398494,1.2866734633481522,-1.3393664152693523,0.8624938759808063,-1.0658199639307862,0.0002767948952664412,1.206186941515086,-0.8309667404491274,0.024602769387780832,1.371381324526165,-0.27812191734706726,-1.698326927619568,1.305214910725181,0.6257505972522348,1.2191348960465564,-1.1581221988737491,0.091232761127086,0.18981470731852035,-0.21517805574457283,1.0839000564631567,-0.2936789732409104,-0.4286436659844006,1.5743998299561484,-0.085951767132876,-1.236604394252625,-0.3853939515067353,0.7752968723036435,-1.5968028874711164,1.3697280744761922,0.08574374106929694,0.93726772401007,-0.3488361145596639,0.6635321541931036,0.1620035129667352,-1.8540129051770693,1.1011351163626304,1.3465728489372797,-1.4882202205743136,1.0997478719779177,1.8893353012442469,0.49020586269987465,0.9786808911752112,1.2132104108659325,0.3908977405395495,-0.3002453362255477,-0.5107930026896152,-1.7569731866043226,1.553499305824125,0.42699741211634423,0.15810323762332334,1.5288410057681392,-0.07514786706016174,-1.5633316617118043,0.7928691007635447,-0.9413809633397574,0.11050112030121895,0.8763857157465123,1.4323279875075485,0.8078022671047198,-1.8149799922192673,-1.3407692130786897,-0.3481856858288439,-1.5978706412755805,1.3163035593472743,-0.17530077605125038,-0.5332920758691757,-1.3946540445206268,-1.2330896472542596,-1.3029369145443126,-1.4958913441821595,0.12687055745014675,1.8801359986894686,0.5324012835325123,-1.4604698931593476,-0.09703551392454113,0.9652392629165449,-1.4069868823117595,0.3150896930315734,1.7640556969722865,-0.568615714704662,-1.682545000516341,1.9375048301685887,1.185297406868739,0.4302928319860362,-1.0820290224330935,1.5421346689764523,-0.8363427413869817,-1.3365787155134705,0.8786091835909136,-1.1701375603053652,-0.43551219230086335,-1.1401221905167267,0.1250102013749168,-1.7598845312973896,0.4031753845898125,0.9205668396297546,-1.5346583122602349,1.835815686910689,1.0092747422699602,-1.5942912872544692,-1.3764792090901072,-0.9543081104879194,-0.27343538665563605,0.6486773989967043,1.203545893361647,0.6200917937566759,-1.0935289088685134,0.19855635842642716,-0.5519767266756377,-1.2261460926404752,-1.6571568367441252,0.7804762492492281,-1.0959715722278847,0.8126437380853329,-0.6228117346909676,-1.8468033639611945,-0.47191273745555984,-0.7742055125410849,-1.1450426154112425,-0.850192150092671,0.7655541953746567,1.678514207116395,1.666105496249196,-1.8249536424374981,0.9602352694586522,0.18751051208195602,0.5865503228645852,-1.0405419983837607,-1.5304394796153393,-0.24690905732135748,1.5201883631314348,0.5285675791830315,-1.7646397220685053,-0.07253306694093009,-1.5676920315803389,-0.7326696343320425,-0.03150876530153335,1.448722015964289,1.59995170908977,-1.4222457134846787,1.0926533374394305,-0.018976474705546753,0.5488936587465418,1.3040100276889608,1.6323739774416532,0.3401400025150081,-1.6319023471161915,0.5761023585624452,-0.8055023299342245,1.7780111573577422,-0.2402679973507782,-0.1026357441034409,1.597528363118061,0.07401690488033985,-0.0524417910924333,-0.08933557997881003,-0.42867792578804087,0.504352177930405,-0.7356102577221582,-1.5408809423369454,-1.4566622993974585,-1.2252065433215322,-0.47553073178188177,-0.7490893592133459,-1.6230719951917059,-0.999159339992246,0.8322010408931293,-0.889963863213799,-1.5121809211769475,-0.8873923134272812,1.19254589230209,-1.841669254960578,0.8908274703151458,-0.9538603570567896,1.9978505835441913,-1.0428337319711356,0.822423252697766,-0.39293035969863244,0.4589536648476762,-1.039449291660532,-0.7450541600281366,0.10556318972397216,1.01311783749856,-0.7007165734145877,0.5529789432997156,1.1094615418059623,-1.3599589404683718,1.520762360650263,-1.0185074239458198,1.7277237979203357,0.8440420336597798,-0.6108402206659678,1.9948493028238277,-1.9485242847243587,0.029249823659295515,1.3024245107912318,1.1064999620732991,0.4020727711557073,1.4491258076347293,1.5711086370099863,-1.8095715887491175,-1.7239099218107348,-1.479359771117649,1.5001317654653343,-0.5278426181878104,-0.29021238118000836,0.0894923540357837,-1.728052273881791,-1.8717189408237491,-0.005003005727346466,-1.407073541055655,-0.8183872388727211,-1.4823144835983837,-1.2866796341274886,-1.3070503257245685,-0.306605929538045,-0.02954554177106239,-0.8360783098158504,1.2330959438873612,0.5438990088181126,0.6369510611242011,-1.4722003071544152,-1.5115454897321037,1.910191079313024,-1.511043571744127,1.7346858163231236,0.7791295743621705,1.4925753117642055,1.112698434492871,-1.6119805742028714,-0.35110822495931115,1.2448746684198655,1.3019284766831745,0.5168187285368546,0.813211592505747,0.9986776815008205,0.3175349250787258,-0.4165057663858138,1.5849040163605772,0.816089216178367,-0.31759408115622767,-0.2767849909549951,0.2807584898909301,-1.6160661026827072,0.7199990204219828,1.5540595100182317,1.613750905709824,-0.28337463000694596,1.2385883018906485,-1.758864623996705,-0.43396070684124055,0.4450501076932234,0.45269306502123463,-1.8472726297541198,-1.6982532412432185,1.0870211108059395,-1.3632361930108337,0.3019172819000504,-1.8027778441680953,1.9628285133042107,-1.6717343849226984,-0.6200653812299248,0.3122361060660217,1.3256652316145008,1.7495534154788168,1.1670109317340223,-1.2855151117644237,0.37637933558911874,1.903519018356171,1.6947750377213824,-1.5221748164229645,0.37600733367532735,-0.7661909330232821,0.5642566398683897,-1.738364653936002,-1.4246664603952293,1.9130270718192093,-1.2759563152151476,1.3761362051518988,-1.487452880089411,0.4700258898358194,-0.04969259415487892,0.2005804363804855,-0.8993346375165387,-0.832713258195704,1.5102136809860132,-1.6688333583953914,-0.5664457989837035,0.5251162776303824,-0.9369047745611381,-0.8672139221562394,-0.01279309685265817,-1.0135123382838596,0.18504474335554688,-0.6118279711809538,-1.4997397912083774,-0.542560339557022,0.5891552298952534,0.09241271016500407,1.1709284652564187,1.0570543373997832,-0.5029116509702298,-0.26570223045589314,1.326781287059875,1.9771288569065346,1.9498471090390423,-1.8375889719749239,0.629812196639604,-0.9325937563988624,-0.9733646963122813,0.31465692756850316,-1.1210424889549215,0.9128947438538817,-1.461147995277385,-1.5997958944112391,-0.8407477267429813,1.0839493187515172,-1.6638304809613937,0.25526782716200636,-0.6496726367641106,1.8852921671448652,-0.4279180200493147,0.44897450316574306,-1.0649757932437054,-1.2490861559283402,0.4256965995656805,-1.452028574184812,1.9108689558302303,1.998381196515198,-1.1118974110932243,-0.6556117662141472,-1.64698540018931,1.7775961892688348,0.7438129697394849,-1.4099332379216363,1.5141769146293513,-1.7789563692926058,1.0128888778766685,-0.2301396292061999,0.25755642581076543,-0.39574660860620225,1.7943777047085767,-0.26460908316472853,-0.06506380168788262,1.8964733459648677,0.4331121689202213,1.164798256907972,0.5743439848362222,1.5119994468994533,-0.8447994941752057,-0.37504143289498426,1.0240722225605672,0.7285707362427751,-1.9791034971816912,-1.3408553825640244,1.4858191755528183,1.0583548415450617,-1.4575601009086503,0.24744070779394045,-1.0609056333925935,1.4121124379399843,1.3211101917418921,1.236737544876139,1.1190159527838475,-1.1441841886738602,-0.18773801419173175,1.8250343294309648,0.07053151580495998,0.4832740783744769,-1.2979598588189516,-0.8834293470667856,-0.6888483112816464,-0.779242090383431,-1.1082086590533557,0.10771009621253391,-0.7000697285996362,1.5710366636304811,1.545080276072997,-1.2774026396825309,1.396003615591325,-0.38828216737424714,-0.3780223643273519,-0.7559295964903767,-0.9026051054948794,-0.7823330983691767,-0.9726336175603376,-0.9930916663032079,-0.608751638716797,1.031877231102185,-1.2445457216883868,0.9229602569191937,-0.9796496693895014,-0.8223765794160629,0.13792910910237932,1.1481999787201742,0.49088665121455044,-0.3540199932003909,-1.4941680123481471,1.447212376529062,-0.6459411074490893,1.4638580117840951,-1.8890456601866905,1.105186468750861,-1.6936829589532625,-0.5578465974392128,-1.7338012065449604,1.1635255521278172,-1.15145827930949,0.4089915295715665,0.48645421268167066,-1.2838108303607134,-1.189052913086453,1.582430985655499,0.8992978961771967,1.8214019219605646,1.676430332800427,0.6564319170593942,-1.1899846234278701,0.7058050612366973,1.2316343677616026,-0.8817791782196327,1.2041627079859976,-0.38054490651169903,1.745479156727177,1.7939805766789894,-1.2349297546501825,0.1857789742516558,-0.6604980556226501,-0.6194831059455383,1.428876743832331,-1.4412244953917024,-1.8609726685266015,-1.872671807456003,-1.813050168546955,0.2111454881340018,-1.601810053439944,0.9738806739684103,0.2749665768654945,0.4334154351796111,1.2488585182356098,0.24732206108679522,1.8983487103237064,-0.7461081926125499,-1.2388262983267082,-0.9423096648087244,0.6093233633810171,-0.22765688027100595,-0.8473802031786528,0.6016925532577009,0.7821682045349463,-1.0661776692086118,-0.9175736261308183,0.17955206879691454,-1.7567128472220523,-0.3303374664489507,1.4649800202679049,-1.916083283705135,-1.5815973805298666,-1.2387284092028774,-0.008563134058995558,-0.3680760555408469,1.4169411173971596,-1.3378515170653582,-0.02322453254077317,-0.7172699435087,1.845043360954791,-0.7279383919012696,-0.7919628684427509,-1.3057206882864052,-1.3916130606026091,1.2606221440633636,1.9116636530719497,0.14346903452573034,-1.5506600675668012,-0.3473141441901282,-1.000092873419546,0.2237799524180244,1.9900907037091713,1.481767665434918,0.6486549550721472,-1.935453306430936,-0.5367542118566306,-1.0792268461261365,1.2792413733237074,-0.6270334615289888,1.857706879776754,-0.033396292537255956,1.5663656544706188,1.424452882232544,-1.2923131630279432,-1.4018713748370462,1.7039513855558335,-1.6813249428594657,1.076929130329071,-0.4417934048917598,1.2817896275531164,1.106294306686506,1.5244225645662048,-0.3358740172585475,0.5624836331179979,0.18679970379119348,1.6125192316523616,1.3005710503587262,-0.3671544571369285,0.20789672325282682,-1.9434039294616734,1.4785663572126797,0.8446552161602021,-1.2855651376849897,-0.49889242060866845,-0.20903391774107627,0.5522364665556472,0.5672029031575603,-0.7478215084009312,-0.4134143262112553,1.5038758737926399,1.8925499752476878,0.5396563393653309,0.07336112330631828,1.829534572489436,0.6347584142712028,-0.053182444258903505,1.0959203844479641,-0.9012902924856561,-0.38734867452934196,-1.0960998650658036,-0.47336136730357836,0.1532244525787796,-0.5645279613777094,0.6102391027792002,-1.8761076141498014,-1.4037334775025085,0.0923678901675622,1.8390453934344904,1.3250584086311026,1.9660358580319555,-1.6951926531462087,0.12571510386131024,-0.7667236198964429,1.3394660225940562,0.6401752595332049,0.03989396454687322,1.212608734948743,-1.6728403894385608,-1.5739445468153264,-0.3884886248122643,-0.40479334742340267,-1.161035660602865,-0.7131362917769879,-0.43919725242521057,1.5079966853900384,-1.6137318032793035,-0.8792396742469806,0.03835868815132715,-0.969074403901296,1.3797184013498844,0.5638420146474012,-0.37510293260088234,0.13469165429339602,0.4957976873108776,1.8794844502395889,-1.1974237472712495,-0.036919350990570976,-0.4372079557472732,0.14648442499457248,0.1424256687125358,1.311033092037813,-1.2206762950643997,1.5354907276699388,-1.9307233919987055,0.21043096593332766,-1.3662575936347228,-1.4509399676538544,1.249366508683972,0.579353709568041,-1.3803009666542243,1.6959168764989654,-1.661698049553403,1.0937462640463225,0.17728553640902334,-0.7034299679208504,0.2116935739372101,-0.533566370804587,1.566607611384407,1.4033260317910252,0.302187846143084,1.1857724213131218,1.2576896329181269,-1.5041801806905761,-1.0431493342019342,-0.4627043664406756,-1.003792862727615,1.7048278510992878,-1.8181774610636015,1.3744860270100476,0.6329572441086659,0.09114646367873336,-0.5659471129682689,1.257141960244501,-1.5059145324191663,-0.8326988108279476,-1.7527368528375113,1.938238783690975,-1.5770687057447366,1.4277242789398072,0.18859616931399792,1.1440073530994805,-0.6672648384372106,-0.035704715150054245,-1.3565688450448992,-1.3909075505819604,-0.8884505499412869,-1.6798537820243222,-1.1582265296182173,-0.721962193557729,1.4026559571898503,1.8593788163277725,0.26076372578481344,1.9319059818678066,-0.7476208022242363,1.9652819464891707,1.895220667861245,-0.5807517883053146,-0.5528223601116382,1.0836947357132813,0.8759465382400675,-0.3987789124235537,1.4628090177258337,-0.935604923833854,0.6764669675673445,-1.9344405926878507,-1.9852632301815136,0.31696465501528204,-1.2692852054000476,0.3247592582163237,1.4552959240908736,-0.6847244283471849,-1.3820924416816096,0.45534655922017864,-1.3803236447364218,1.3553717592822596,-1.7544243341815435,0.6669494025888452,-0.644251182862372,-1.154274396177855,-0.2506319742636811,1.4403988129711043,-0.5807657872104257,-1.99815054341685,-1.817541408413776,1.8262816502975192,0.536952852306825,-1.7191444615177023,1.1749025791560759,-0.004302837299140716,-1.197832233282142,0.9391406987109914,1.4724083421848277,-0.753789809292007,0.453817847861095,0.3061672117870091,-0.9188830736252656,1.3854349814028595,-0.09183733286573315,-1.6462986431655304,1.3936014180290912,-0.22288934119092607,1.1700396297538123,-1.8678174524837678,-1.8174751836776823,-1.0491089655908996,1.9903694823938065,-0.5775284810105026,0.9320253655158814,1.9567638817019266,-1.736032903926667,-0.9357025878349852,-1.07333520801139,-0.2381313055103238,-0.6469543235646955,1.8286586810048586,0.45409937460001526,1.1453193914934894,0.749966673329169,-1.0568665039446592,-1.7863525719772686,1.7818919024133244,1.6012545234575093,-0.577944221613726,0.750136563683137,1.9120812231767852,-1.7503297028672238,1.5198013752613586,-0.4409453560144114,0.5835189621081547,1.8577484697658209,-1.3709601262714606,0.7666671303772854,0.66689999872461,-1.6731367860690223,-0.6666419412375544,-1.7758156810777912,-0.2222700431299014,1.045104590419593,-1.2633786602958996,-1.2836121057863656,-0.8215021246612437,0.1645326501777995,-0.9603367285954061,-1.329849754402603,1.766165719474671,1.4801817913408284,-0.8867767007292624,-1.3319572345218296,0.10188843161157335,-0.3338152420711342,-1.653122799540578,-1.1499735341404258,-0.36805484273748945,1.3652703876727639,1.8103454427115167,-1.9284356399724678,0.6521356233181832,-0.9377256197019999,0.3475691294950085,1.7504525557771027,1.86774130232422,-1.7084195053797124,1.1039668485644163,1.6640441499191954,-0.7529548178028755,-1.3836457137775287,-1.4684524209432146,0.3299139396736721,-0.7134156183161489,0.7111706684353702,-0.7661655741378968,-1.7747170027586425,0.3953547572638052,0.6430820467052913,0.9509315316337803,1.5991885351202213,1.8832564669383922,1.8332291718264422,-1.9167675271614293,-1.6793034406964753,-1.3261644963710428,1.22918568772544,0.2760630333208147,0.3430342983733303,-0.8073917932278838,0.9187543026402767,-0.8743221983568588,1.9152462112351065,-0.1656438876987627,1.8304715603522168,1.7687398779198085,0.9639624708166226,0.28402007840236854,0.6427759401068891,-0.8953741048178827,-0.7213399547260786,-1.4889192765307198,-0.8384591304700675,-0.02543203309089126,-0.3937516871639506,0.6336619311749634,-0.9785929813813188,-0.13666610326649886,-0.4821806667694801,0.43849161164199524,-1.1242470315874349,0.8913150914346906,-1.5923277718669357,0.8941641381550145,-1.5315022939510947,-0.004067029191141547,-1.0033799142602113,-1.1960992207825525,0.7086976128638609,-0.543375490088692,-0.7667199669674907,1.7612686121033252,1.6442693971994862,-1.3070167059265287,0.8429695644872712,-0.6135464647431741,0.5207559419133316,-1.2430069994838449,-1.0356484155880512,0.8011077396188795,0.3572428194070705,-0.9958935840897021,0.3398493041511714,0.7562623328395635,1.3910011843753178,0.3125187410701473,-1.8120293447368296,-1.9860424116082989,-1.3429792459435648,-1.9493590832795977,0.7945401580654217,1.43648798300068,-1.3039482896968742,0.41763144592788537,-0.48249930186133483,-1.259867375239335,-1.9445729561507656,1.6960860783088436,-1.9890441888220876,-1.7487352049222675,1.9985739435547591,-0.16318059167789079,-0.9488116609200068,-1.3259748463636902,0.05571641920058479,-0.2317749435782681,-0.7243489607048557,1.9479845767129094,-0.9796927192177312,-0.48129098900650735,0.5506652411392792,1.590057577556847,-1.7214596660945105,-0.691674346158373,-1.884665140217368,-0.3179262953626183,0.758409701731042,1.4551438835674384,-0.026901281469555727,0.6284355574066982,0.650263915040953,1.0349357370457928,-0.39734592214543163,-1.965916506603493,-1.9794199439568647,-1.9628499634625833,1.2721555783666583,-0.8475733408026915,-1.681007191607212,-0.49112618618448334,1.7106289061198705,0.37601176312051043,0.8143453536759235,0.5027187484207474,0.17039400678875438,0.005655426070422909,-1.1391433268867046,0.11416764532876078,0.7948464740455177,-1.830825072539454,-0.07953462269534217,0.33965115714186167,1.0395390070508896,-0.6870377378337942,1.431813870367188,-1.898258114691353,-1.068755593044763,0.21856764123760808,-1.7203509975248665,1.3880462680783943,1.5643062526207023,-1.1437791184457202,1.930583346603734,1.7732211452347277,-0.7091842914379272,0.9014517567616838,-0.7774649274113061,-1.991187633577682,-0.23392959372803723,-0.24613890176317987,1.8054939119348674,1.395531431080295,-0.3348120014840599,-1.609476028761629,1.3932686910968584,-0.9886692060552233,1.6156567678703087,-0.14316353716447194,0.41731958616607256,1.2542516094368157,1.4623692451324244,1.765959115017997,-1.822919321684477,-1.8804971466205815,-0.5988887117754063,-0.4714788563749508,1.3739816883404514,-1.9711429875676814,-0.10414063916994953,0.9197276421998142,-1.6071105743965175,-0.43222575471250346,0.3098272237794726,-0.2787957633395841,0.651561730618627,0.5376720450668779,1.5808979651756943,-1.4875443514792726,1.6674909426863103,0.9052863872692756,1.5630302756547034,1.84146550562481,0.389216928413032,1.5645237180588514,0.7141629820553312,0.5698178488085635,1.4561073758728025,1.5060692804766727,1.862339066579675,0.6220087660297207,0.38298114978447684,1.8434405375599168,0.7801959000203125,-1.8861317112201172,1.151637511984954,1.7043935526244884,-0.7977124963649063,1.80187748405976,1.3561287242282272,-1.3871329272454025,-0.0737028518112357,-0.8328924063657932,-1.5074562905017936,0.12493131726996376,1.3762072557816802,0.04362922664479241,1.80529990453052,-1.496727567886468,0.20611676068870555,0.12985675061299107,-1.4811531370553919,1.9620914692369866,-1.2906452754882944,-0.12642367077893635,0.11035462511201732,1.4152655595306238,0.30485053009954166,1.623706923209761,-0.9066104744183794,0.7627078571374102,-0.08276390899003383,1.323551609586366,0.7004214500203938,1.909031135028627,-0.4310919796549606,0.7173987287974595,-0.6197386795464905,1.18646651547688,-0.8627758861655375,-1.043398143346009,0.31135917067862984,1.1668456707087835,-0.2955389742728203,-1.9860428438837667,1.7196598548261615,-0.5402868082002104,1.2597864442881015,0.38000467744794086,-1.8497431265031112,-0.39087141496208666,-1.5516970417730502,-1.8397824052572727,0.46971338436361343,-1.378792021359541,-0.10611259965275144,1.3785950975306838,1.9886139796007618,0.4069260710301421,1.2784473420741236,1.0633231998209602,1.59240121927265,1.1612135762376865,-0.7473272886778273,0.16839575289853226,0.8726801597386018,0.012823932267023164,1.4046697397294707,0.35314386769726,-1.96969263654234,1.8256170495482982,0.8036128300757057,-0.40110029897418054,-1.660237463709667,1.8402288891673315,-1.1122926641786632,-0.35672476497703887,-0.4042314704795067,-0.4057239313547081,0.0497722449233815,1.193263137350776,-1.1268996988368039,1.5601439092897547,1.3124889518024903,-0.042233811590155046,-0.7221272108094401,0.17029459137885095,0.4120520552622384,0.25112530033441294,0.9933246391311625,-1.0543438596006807,-0.41799712806125555,1.8861515532391722,-1.642679202654079,-1.789207979999217,-0.3218607552283119,-1.687361131348231,1.2896500330283787,0.7410274172643394,1.213457386074177,0.37310102544002,-1.5379015311123,-0.584496622067781,-1.7384607924415647,0.1454325885753156,1.3729657320014605,1.1116013440083545,0.8465157675683712,-0.14699610394356455,-0.2057232847707775,-0.6469867297625882,0.6265325313122405,-0.6165491486582635,0.24196866536260364,-0.9675219369498187,-0.43295540648272457,1.215144981916016,-0.2364202060068159,1.071973441968976,-0.705622759263298,-0.8899722659763203,0.2855238052371436,0.6918356836276729,-0.5682346279985828,-0.9032025277974194,1.7225852067403546,-1.859496569742217,-1.165983872990214,1.7296199039820044,0.6277407534089345,-0.17047351139502265,-1.7858581326281615,-1.5715662310376453,0.5142227879618013,-1.3209530177411692,-0.08634036213756424,0.014843904634754601,0.5373609909500123,0.8247678670462171,1.847680139609611,-0.9533054718107636,-1.7862937677483557,0.15169791062775229,-0.38430829537381506,-0.6969531043775992,-1.1605423118769291,-1.5056700247555916,-0.7525549251633539,-0.6285718325580101,1.6233907539814338,-0.09363467104975198,-0.9740355843428925,-0.8066275444539963,-0.07618836245844562,-1.1976474311164447,-0.990342525518709,-1.1387526075348768,0.39745189035111617,0.36054763577662996,-0.6760781110904004,0.14906457827342656,1.6761967878589634,0.529977824379749,0.5321991954018057,0.26293186173687255,-1.1753067882282728,-0.9124043012162715,1.8593640930620823,1.1106182792658381,-1.5312340927776416,-0.2127719619202626,-0.5226515183954299,1.93536155270432,-1.6226574033652836,-0.7185477830875615,-0.692284061139746,1.699474266442349,1.0125123163458172,1.7501237009767223,1.9838030378234253,0.08897375155787701,-0.559551761035062,0.3088516120826821,-1.7735407435325237,1.827826104520613,-0.9127025306606189,1.7527177221089345,0.7677013093052643,-0.0659613210160157,0.057321712967668415,-1.5361712581476161,-1.653439582290221,0.28736451214241576,-1.471540655695013,-1.10973053078022,-0.7322679265553109,-0.484014453215297,-1.10939540348484,0.08905163397417626,1.3001149186446517,-0.6190629365817206,-0.8858374777414353,-1.454712420840548,-1.3822497175685649,-1.1977970420294133,-0.5500130403902612,-1.497475795537564,-1.8605325069308702,1.49449857507348,-1.2980146284081973,0.4078765681758756,-1.797322877745673,-0.2822288140939526,1.3328313008535204,-0.2287630388214379,0.6574933061406063,0.10319534390601515,1.094447108008767,0.7459377104049536,1.8006860153689206,-1.2718709223435662,-0.10706357317782267,0.7690497445792928,-1.039543287073831,1.5889113656872178,-0.4903653967908208,1.6108943591913363,-0.9499664493280733,-0.5024243750269317,1.513871326136873,0.9394758237659131,0.8922802644021854,-1.9420423346701376,-1.9500528507764123,1.8078653959993356,0.573523519629386,1.0320338510268616,0.8439585820759072,-1.7952423868419807,-1.861085893628466,0.8777139122489519,-0.1453367937401726,-1.1435422977918117,0.15011090026755358,-0.13744184219668742,1.963834139121686,1.783198861182326,-1.0621336678071969,1.9236155197963094,-0.8996300731798001,0.7465392149411243,1.4744299955347526,0.3848069504653071,0.11058124242836787,-0.3419872383776399,1.2361955823393984,-1.59730282853016,-0.6465411046573313,-1.790149481365718,-1.984328767600497,0.8828281335508263,-1.4110950815937437,1.4008088402018668,1.1346630824225161,0.6037748469545807,1.3929539001424764,0.7842972164254798,-0.7841621379566708,-0.2896446096383394,0.8599547847856042,0.845475725299095,-1.9587090781808412,-0.04641719083460494,-0.5301832872619494,-1.2987828332355873,-0.3510535688792338,1.9555524418546861,0.6525323050176461,0.519835011754247,-0.1568317138941726,0.9431349433485288,-1.2172658196707857,1.7323614080160068,1.4275565962303411,0.42556253062252836,-0.5318744171218541,1.9383652586213285,-1.0544224859696225,-1.9849060428088454,-1.1493652988165914,-0.6613622353533839,-1.0778545257370546,0.12975225491235554,1.2431522728250188,0.178132435016781,0.23468996963042077,-1.7819475707057943,-1.496121067353855,-1.289685766451635,-1.261262340131688,-1.8064227970387465,1.5413759257901236,-1.8550571551472483,-0.06873137236951488,0.49657168680627395,0.5793184339954922,1.6041275735575593,1.685536388155533,1.0989417260854606,-0.7369030378314645,1.445905105990442,0.9923684273943127,0.32502854138691895,1.1008932574179915,1.8563703629629438,1.2874574677859436,-0.857695687534751,-0.507212105261555,1.612492186974825,1.0722784764070439,-1.2388932075950279,-1.7900788895868693,1.2858884788097336,0.21098146687544572,1.2524269048749397,1.951842133761422,0.03392027101402739,1.2802690958180047,1.9624925201425238,-1.5839073626527358,-1.0351380501130487,0.11586749131920948,-1.6109338302824483,-1.7904630026743429,-1.3835603971579609,-1.4415464699572338,-1.4692647032913837,1.2888294945429326,1.8451839846851774,1.3016706085180996,1.361694399155542,-1.1976276337125853,0.753772883231699,1.9690673428517274,1.8415885963321417,-1.5601591023344663,-1.0746387165373044,-1.7490639597942108,0.5567448258420242,-1.7612325314807284,1.279882062813217,0.7072061368674589,-0.15642956508515038,-0.10224798838170512,1.9080972518681767,-1.244392327449758,-0.9814004333681496,0.41330243269078926,0.33931221518243593,0.2233771944355465,1.791148244685409,-0.3925590809149395,-0.21245382979466498,1.5107299010634496,1.5328565184260623,1.1179111953295586,-0.2024866114888768,1.2453211452936284,0.9427204139549974,0.9476522886598082,1.9780083504511263,0.22640127625214435,1.6049974115950474,1.9749096534393007,-0.03549760297604587,1.743724999683928,1.203227648898404,-1.4422035867690148,0.5769733002500073,-0.11930011377958794,-0.760266181745886,0.8643618355096847,-0.8076983956945778,1.6267732193661693,0.4373786961960531,0.42644237906310734,-0.9094427027749865,1.5571430862198694,-1.5950728173864195,0.276011137808311,1.2411720192489364,1.1074514109924896,-0.09804924896220735,0.05709406924753058,0.6051111885221103,1.2534751003312055,0.12848845857453828,-1.721592694501401,1.6127078731447804,-0.4715320433145962,1.05132415654366,-1.9681297808644374,-1.3581371242879405,1.0315775213881433,-0.9329461975048265,0.2173057479626408,1.1446303882678004,1.6671887933875391,-0.5598087318640408,0.3428610215802821,-1.1605041269886205,0.8460004852742458,1.2467139856029763,1.5807276185904744,-1.1576087782717304,-0.9386105084264376,1.7140837105515359,0.884112094683561,-0.5228396683334342,0.2417054662669913,1.3573008687320245,-1.8880392366687775,1.9551582024084788,-1.7753075511618368,1.5179660838064049,0.9011294243197936,1.3444724017757994,1.0019465888459749,-1.978983123476214,-1.3975991763451603,1.9199757347750466,1.7994268476442343,0.9592511792517953,-0.7572191580522141,-1.3019736899235808,0.4683358488685916,1.2847587816465702,-1.121788002136821,0.7652307010695427,-0.7206171234258769,-1.9580437427249473,-0.023152955725216806,-0.13957005164441894,1.206005862023765,1.2823594989285039,1.5227843126480503,-0.6687716291465264,-0.6083564251673086,-1.0298975879007939,-0.7830835871640689,-1.417446923307876,0.8332019206479986,0.712584556919237,-1.0079897617428886,-0.5650637911981851,1.174633255231421,1.1310726827152418,0.6972750573448785,0.685065898560246,0.8106938243446207,-0.6884065635095338,-0.10327554889506185,-0.6864810680656532,-0.22762882512426907,0.8372835628020763,0.810932933837544,1.572714629803606,1.7121567132248083,0.9331331701058958,-1.0784812644886808,-0.8669464670816978,-1.1877597872896675,-0.6674447043850305,-0.934398405514167,0.7734254312739766,-0.7921712838082606,-0.4879895862834487,-1.4645089439101793,-1.7423790856406964,-1.491241750185131,-0.7255695032735767,1.4163970406325803,1.0291424069857822,-0.05259395521345356,1.0469336787783452,0.8905818850333973,1.3844393205227576,-1.5005773094987935,-0.5855878478467695,-1.278083029552569,-0.3182611358339664,-0.8062534209287588,-0.6211680888471789,-0.7887688055087447,1.8264135312616552,-0.6724988081088097,-0.8817212497149196,0.9801277083118238,1.7137084923660346,1.7572815910389514,1.1785809642612848,0.30944404702610173,-1.694494639038532,-1.0215512740316766,-0.032731540547015214,0.029784929526443626,1.3550152683444718,-1.7175748941945481,-1.4670335322215449,-0.281941403488601,-1.9483119636272543,-0.28165049666100783,1.6052404484495306,1.8553224894684308,-0.5888265099025407,1.21705012589032,1.060936327335852,0.603805971363923,-0.472165874400452,-0.5805718871854406,-0.335806910696721,-0.3581993520003044,0.8529549097798652,0.8073927329806976,0.0553042927506433,-0.5988282865647117,-0.49426036639955306,-1.7664173006352475,0.8302188435497526,-1.762692722705598,-1.918946902697062,0.14979103590678955,1.4302937626471794,-1.4536366976066306,1.0381174991828073,0.32041829962520163,-1.8491566216022988,0.42201909231348056,1.766892382182692,0.1391181025859738,-0.45821528635882514,-0.6456024798578488,0.9824315435131061,1.3817894492485716,1.5902169784123439,-0.8610252128783356,0.9554197727206049,-0.8254750314434709,-1.3726472335211852,-0.6827770697519413,-1.1841793369645042,1.956471857009793,-1.354883592588588,1.6224172624400781,1.533042722397056,-1.8419866379438914,0.06057466965269498,-0.25233517315830545,-0.5786834273562746,0.16047182786008385,0.19489764514101937,1.0871813547645481,0.8264424350947706,1.7384812007259263,0.26786880224250753,1.5701366989179575,0.5352751908242483,1.3184483298451606,0.018998185843366766,-1.3531313881194533,-0.006061001042319436,-0.1934104891908479,1.5344852440027577,-0.9405732727270602,-1.3549045391708594,-1.3974239110683042,1.1377030436020914,-1.2596142878245793,-0.5439742940687107,1.9078332340635837,-1.6496395285318042,1.3286329346405714,-0.848516188211065,-0.8036347217581667,0.5797157224872707,1.534915104639723,0.962560199825985,-0.7299184600642845,-0.27010489443942065,-1.6480673245948925,0.47474316577102327,-0.16585105474980733,-1.332336957664769,-1.3073552177668768,-1.1832452790742654,1.3298800238432866,-1.8751431519078139,-1.715871072810836,-0.25672267023869066,-0.4153327183634845,1.597453777054171,0.9543700555993841,0.8830027285794793,1.7284583795974031,-0.10524603296643908,0.47105049076974037,1.696691053390306,-0.8163870929994284,0.6324244907016765,-0.9236494379979665,0.3743619372227829,-1.9457256100366322,0.04495551139545695,0.6630617109047745,1.5011474376562437,-1.0666840081376696,1.5771051199540045,-1.612144011488557,0.6312284130917583,1.72534216385422,0.937393873424345,-0.8485407641187397,-0.40378104964233863,-1.8608299654133122,1.9516376256367787,1.0627591361585345,-1.2816395939654894,-0.6240116884442348,1.016256361029905,1.4633052108412503,0.7639168468445852,0.8104900582577916,1.288874769856588,1.3622926236355921,0.8081958535641482,1.4883585453151729,0.22319745335748076,1.575535396222862,-0.667323067023347,-1.7252543539211365,0.30243727856627967,-1.800149829324761,-0.19665316713786485,1.917174838447214,1.6347949343664343,0.21674305086162304,0.1393957916093438,1.3095646624193313,1.8421138430661332,0.8872061815029078,0.48306935903026904,1.6351249254845874,1.6170836216188627,1.6431193883138802,-1.0628689676728516,-1.3161564838488529,-0.3646168310089144,1.7783078012410853,0.2156160351875882,1.8290192388694102,-0.7783234765499518,1.5171573862528005,-1.340405133881982,1.285171630704316,-0.03955427017522206,-0.521117325201959,-0.27053337613347894,1.0999097150292263,-1.6281253161550922,1.9243997883001471,1.4629170501495632,-0.5056070099767576,0.32412543310230557,-0.4231027670031984,-1.0294638165849643,0.6482905161421275,-1.8392470630627664,0.29680476790613053,1.9430935671113496,-0.06280893028296886,0.7094091982979154,-1.1269291791631058,-1.3586730165339929,0.41482351009229435,-1.9173442740963478,-1.7184478748311522,0.6264682456224975,-0.11883456366211353,1.979964048334618,-0.9906961697677854,-0.958876796989605,-0.5971653035422757,0.6138994103527136,-0.26691849871345363,-1.7986580510853476,-1.93018856240107,-0.8808248578195541,-0.30864608757640255,1.9526398302425192,-0.7985985890258367,-0.9369790111774043,0.9269088241401415,-0.9401657658290516,-0.3621498912418466,-0.5054927470657056,-0.4467741991294787,-0.7579120812290161,-1.0805047600072961,-1.1825717388677481,0.5465365167051375,0.4164835077564759,0.46027838624927186,1.2229240857487964,-1.3472507571417118,-0.714940790366049,1.1306556631529383,0.2915832997748038,-1.5674294818405246,-0.556793565050127,0.3056181111784473,0.23463779637364768,-1.017003846430359,0.21157145295468416,-1.4670982155136887,-0.8324685051825536,1.5116034806747316,-1.814059627761063,-1.325314713914088,1.1440346883359047,0.8964558997984331,0.8159230056385636,-1.968620348639739,-0.3434899868621377,0.2632120119046544,-0.39423735544756733,0.7253668724343272,1.389712281362271,0.27799899949711415,-0.9045759769088089,1.893061243504207,-0.7044068266912773,-1.7023495188566806,-1.790536306838185,-0.09440976656782674,-1.5222991313878613,1.1073723752699585,-0.022250607763435237,-0.8370752492477873,0.10689115633659219,0.8311938628957107,-1.9012438911459002,-0.7312195758880407,-0.5849004456445619,-1.434634107859881,-0.997215051021672,1.5353617227168144,1.6312977903350792,-1.2828479541833078,-0.75703092289613,1.1223069988234546,0.9999803670339227,0.40572611109737844,1.4043883860536197,1.492452770948339,-0.6588661986689126,0.7594669070246178,-0.49791376141760724,-1.9267696502795895,0.4870234406435139,-1.1728153873037033,1.2804514323730292,-1.3937084701721307,-1.0137877565627775,1.5554604309892754,0.5623961447746355,0.8136263089663518,-1.0481828905117236,-1.8941479204824332,0.47062822966643525,0.002157330614137365,0.3906763377901812,1.4577687323125748,1.1699122092744458,1.226284144760315,1.6937550577883642,1.7403086675776698,-1.7683019979509256,0.8800969912269183,-1.1771126886956882,-0.7377282396762563,0.08653166081399677,1.6478901527492393,-0.3118756569167389,0.34517040791463716,0.6396946041563236,0.2759961632678243,1.1407160886422392,0.5536089843290637,1.6995353516381058,-0.8560505594787049,1.6671353542442247,0.8806206081273054,-1.574420057213474,-0.7022414804588699,1.3082771967189348,-1.2482908652555555,-0.12328773532496484,0.5038266085894163,-0.9431315799052862,-0.366587631439093,-0.8590259842989756,0.836611439793213,-1.1942364890282993,1.358313240017131,0.17681275673283725,0.7353937118847731,-1.7404930731472623,-0.956844398448323,-0.8558042555276844,-0.9046411550001934,0.3724733067602517,0.6815553900006819,-1.5716013625403678,-1.9948176650069236,-0.6400367779986462,1.5836661523239877,-1.0307160476942059,-0.5533885204767652,-0.13217355416679988,1.070745040015661,1.9268967667715833,-1.544186808109259,-0.40188230285371995,0.26400420064069374,-1.4536665444035681,1.0506507835174261,1.237871301493966,1.2246059085761791,1.8146392820441233,0.7419534804274961,-0.41631070650386404,-0.05357379998391165,-0.9941775922184481,-1.1162819579052696,1.0253544396307062,-1.0395381908243322,0.31486832403587117,0.5917146970112088,-1.8604305737200675,1.0990437855884614,-1.4873037237555273,-0.5422751490375259,1.284647461711557,-1.8855701457645155,1.5546125982035277,-1.2395441710118815,1.7615877306387482,-1.0502072490308647,-0.7696327634319644,-0.3927172470212552,-1.7710164078997979,-1.260900053791532,0.21497848794712127,1.6932876861651196,1.153709803886768,0.9534109154655241,-0.19963626083443664,1.0710131462640526,-0.40557400217343753,-0.8256686277881538,0.6336010437257453,-1.8737359795129467,0.2219415673811982,0.8807754112836057,-1.747588424302795,-0.9407863960602167,1.1224374551995893,-0.5551547051562853,0.7294836153626632,0.36297395204127225,-0.37019850066358595,1.6445062055943827,0.38542874666356886,1.8251455634863292,-0.15896008130402262,0.9344654886420054,0.803215594994164,-0.9113635233350026,1.6273997266166185,1.1823755518230135,1.136522276314563,-1.4539219412470694,1.8462312201976547,-1.105987048244831,-0.458909067651049,0.7094175746582594,1.2078413579645049,1.2899171541937653,-1.439230967159188,1.4371519404128432,1.0168024728873366,1.2652283538672027,-0.47883906421294986,-1.8030646414361855,-1.0005846327696077,-1.982540890878734,0.2619986336721549,-0.6525231753243568,-0.23588053572896728,-0.1928842680242564,0.8676087950149318,0.1261056000938816,1.828016495209436,-1.978138401744875,-1.5651491824113286,1.0750298963328762,1.11512192466181,0.8441628681339242,-0.3726306846560785,-1.0302040699571058,-0.433184257971833,1.2412427866350604,-1.076812505448248,-0.24381225178346888,1.6875120662070926,0.6194131062089001,0.5744189823139636,-0.015870693444964168,0.8533858127403899,-0.5022981046833004,-0.2709045953824756,-1.9927673222426767,1.2659610610173773,1.3129124337290627,-1.0637683306821488,-1.6804245047136677,-1.2830140934763081,1.222265846839333,-1.6097312145781615,1.3466856462789423,-1.9631176633368121,-0.7677205383689536,-1.0762420171017921,-0.6315404494681074,-0.3746989665400373,-0.787915674511444,-1.9214022101789738,1.9830754439941662,1.1495295383173088,0.811662223266258,-1.1228512462145526,-0.6920106942015383,0.666566737174151,-0.8497062112797944,-0.7573494313586262,-0.6809728744563124,-0.9292466926967493,-0.2581122961925648,-1.891425072879037,1.120077371315042,0.7509874987083256,-1.3728618578761242,-1.7549183451479489,-0.7737930465929925,0.5617805791435693,0.6730743997466657,-1.7339925444118918,-1.6707848731094286,1.508394211475205,1.5782865036924711,0.9464472375826789,-0.24454689996757573,