1.8003444051831705,-1.2577198480121643,1.117373714004775,-0.9135307696117558,-1.034213066837888,-0.8224957705478846,1.8781238278699295,-1.6012254420769034,0.5832397467480681,-1.1060053841152668,-1.5783046417892361,-1.8805202297336843,-1.6413478866809568,-0.11400457586739288,1.8062366345737937,-0.7767614815675379,-0.6239186142678155,-0.925356963085961,-0.9115583129326201,0.17167362476778703,-1.3778187547768885,-1.5598270268648564,-0.03283063568372491,0.5302856608002595,1.1874284945871558,0.9414586377009662,1.024749268572065,-1.305575259040582,0.4991697926747394,-1.0403714065865204,-1.2369020522182366,-0.08998616481250243,1.2426788472055215,-1.0800373555407146,-0.0427481905134619,0.5825422367141511,0.8567640133564307,-0.7958286674901087,-0.5498116685844465,1.3643417857592626,1.5021092268659686,1.0061918121559397,1.668334378481346,-0.9458267682889976,1.1159897221053683,-1.4712033037265986,-0.32338923795393004,-1.6779300371082249,-0.938186775362249,-0.3893900958358234,1.294664912824257,0.9070218023224594,1.2947395717023182,0.22870420573759676,-0.18780571646686273,1.0426989723898688,-0.01739812400090779,-1.5919155462881798,1.422091356765654,0.03644044075892516,-1.838022202938662,0.6871006401951365,-1.9254223595924977,-0.15731703520343165,-1.0934215170856736,-0.2448682724844593,-1.4156224621146745,1.9306329052860742,-0.6932898065364346,-1.312514003022799,1.9616973744801065,-1.1522720786672607,-1.9618241736695312,-0.7679965913616065,-0.8949617871848883,0.49608473344504755,0.4583393220198273,1.734593287381057,1.2066318356731434,-1.5819127954866805,-0.4255130873356294,-1.5819550456693054,-1.2900081858350902,-1.7059164414360972,-0.8226664333185636,-0.14664626077141607,-1.0399224957545878,0.0591649996663266,-1.7427473446725013,1.9481579195945544,-0.36816399023578583,-1.8441677586776373,1.5593479004189748,1.1327336291821082,0.08281627661081092,-1.027847224200678,1.8465314189917854,-0.7755958278545458,-0.040040041305981156,-0.03336487592128101,-1.0339735194878883,1.0061710970670847,-1.335340667343322,-1.012747645169545,1.7969914693349733,0.8668154487185173,-0.8323683299762137,1.094309362761197,-1.7676331098893527,1.0495716284162677,-1.305870405289335,-1.8300225076778656,-0.3065047722349674,-0.7801960942101975,0.13600024066419758,0.026894374323819026,-1.9036239210483656,-0.1406698927027148,1.443836742424112,-0.3082215205869865,1.2786047254618254,1.407397104870833,1.184741052831578,0.08601646357015724,-0.7045918259429755,-0.7349049819211908,-1.1042780426476417,1.6309898480579101,0.05540671720893897,-0.41388996239118914,0.3037251910360794,-1.0382401910143493,-0.2589447892248131,-0.04339270358903491,0.774598275021801,1.381230919766752,0.7112601295594443,1.434056983943691,1.0991407546305267,1.4173096859807308,1.8043027711715975,0.12249365623657216,1.9161094304332278,-1.4116951405361182,-0.6777427220358225,-0.5982959963132259,-0.8368686158690477,0.0931569169756612,-0.5656211901305346,-0.5603188450566465,1.0802949209589143,-0.09620724931728208,-0.7111973007606749,-1.1596763940171582,-1.843082886298831,0.0737816319809852,-1.1885512933695135,0.02931966260745167,-0.8622113381177332,-1.5928376159236248,-0.5604481142323259,-1.8571645764670688,-1.184741551995704,-1.6314993319544384,1.874672713611936,1.2453303065650427,-0.7727134804268827,-1.2101573177021416,-1.2934646148793356,-1.597811512361199,-1.9148136853450333,-0.5455200470521522,1.0539587153724277,0.7232650963359859,0.30170487700367277,-1.3163473369301761,0.8623774264784245,-1.6111670086624628,-0.47732790673612957,-1.0882675159104758,0.9927258982133456,-1.9697462916553747,-0.10604337518445694,1.2172953633628278,1.002903981569074,0.8096312600953017,0.969155586799396,0.045175154961323294,-0.36974550014603347,0.06633625194343296,1.283210757847565,-0.3045579883142673,-1.3713817656705047,-1.3978174698804042,1.6572053131089497,0.8513500570514707,1.6795604463052314,-1.9490162705954313,0.888420892568702,-1.7011055049999388,0.18768413509705129,-1.6385945166264868,-0.2710295021160105,-0.5192532782634252,-1.2392694237748665,-1.4746818704183866,1.4556607058931639,-1.126512292948151,1.6012687093023072,0.2594395533218794,1.1450045579810464,1.2206250283862254,-1.5157746056663233,0.8848006968517015,1.8946374744512329,-1.4650463788055221,1.4851618080091393,0.1519989601820093,1.336634368149499,1.1795209874516117,1.7552606749830133,0.06195465845837189,1.126529048801046,0.8599908688197515,1.5536051573251473,-1.4867092498758763,-0.16388466941021784,1.0749192243438865,-0.6903166333539987,0.7686961123643385,0.5280945884605921,0.6557759340820359,1.204867755255996,1.2462799104832447,-0.2197485855924124,-0.8030626050182588,0.7689533745323813,1.1303217999798245,-0.30147552141425615,-0.30274786942822507,-1.3771949676941935,-0.4356573780811881,-1.854757583838238,-0.29947140889186663,1.5754974400294675,1.5472198300821116,-1.2244759082749268,1.5414394364589659,-1.051735592428669,-1.3522288850323525,-0.08189449787428238,-1.2803227089754543,-1.7202568347601779,-1.1359197375823205,1.1900845202810948,0.6902026762931701,0.6918273732822104,-0.8089603588505958,1.5390449168519003,-1.6595516671021255,1.3347806035329293,-0.9605035409060747,1.20694360220008,1.4071990716837877,-1.6946145602003115,-0.046615418822224974,1.588404064585725,-1.9092187170647916,-1.6831274993513872,1.552472903968312,0.5133575054424035,0.6540688104753762,-0.4083102069289435,0.44987061704372255,1.7177886981748158,-1.3957205068237033,-1.0509903549213409,1.0603641539093474,0.28400539242646516,-1.9188783878002287,-0.6201101640852085,-0.5648626833324313,-0.866546624313365,1.6859669404626656,-0.7366517478226151,1.048619426698346,0.8102029251591243,1.6363849801750878,0.657314434784372,0.4717444724809492,-1.3502555235483742,-1.823747560679808,0.9334809365620353,1.8102046033448693,-0.66246461665322,-0.12309147937664022,1.545015666971191,-1.5957929081843778,1.023195963752494,0.02480149227401318,-1.231724076880262,1.9952966841767612,1.9471980578472436,1.4122893560229501,-0.8380913204004803,1.4561055050256986,0.9013826973100314,0.31779981830445037,-0.6238787277239868,1.8340679017801156,-1.5933487761179963,-0.07715363193123181,-1.8677267526679633,1.5473798584664755,-0.7977042393993821,-0.2958912053436631,1.6727789138274,-0.2280269049876975,-0.5235172040622875,0.8624842081080768,1.7757370854868806,-0.6780348353442767,-0.966801692077849,-1.4664602633416113,0.07843868444088198,0.4013986631405908,1.4892613656730727,0.8976825204167365,0.9051230438131541,-0.645386568576801,-1.52220435078579,-0.1145340854470569,0.9947560995353371,0.40561554524921517,0.2527828183998664,-1.1758666850034531,-1.0292952569850264,1.128101442772596,1.6932140784874448,0.6624332818301615,-0.44765825921131697,-1.7672101027367044,1.68573395087666,-1.7152902457647166,1.0879837468912088,-1.7074553540126862,-1.4163495036005131,-1.9537083464567004,1.126255261996636,-0.24413104761749294,-1.6938745938131556,1.4966206253074725,-1.1608434093775544,-0.9873561097404648,-0.9436599887033452,-0.8264453908355445,1.4813619466529477,0.8985934998132912,1.4161668654605855,-1.9943154673252068,1.9473764050845586,1.6998245102319647,-0.40094684103548106,1.5431497632666882,-1.7110936286221499,-1.471165948843601,-0.48350065223752026,-1.0888870037300489,0.3745932206045226,-1.5006986328413716,-1.961296035885748,-0.6323305954258172,-1.4507099100535426,-0.6893094903571972,0.859373206966739,-0.09187294901153553,-0.06069733098710994,-0.20191878835585397,-0.8843404913817472,1.993170443538229,-0.3511887308958892,-0.8568405005482362,1.7396399310574946,0.2844877498979379,-1.0950196155562057,1.2734651241708774,1.9684202137664464,-1.5046659927731945,-1.1776259741948283,-1.5072179602732385,-1.7411093030164486,1.5915834434561265,-0.7306202216883233,-0.35292627596286597,1.5158000149525925,1.646856661885924,-0.338045755594667,-1.593626940574182,-1.3841868139936806,-1.994344405464064,-0.47668475912155106,-1.6610238702684557,1.4302331269709008,0.07922867445184334,-0.6143237828171229,-1.9185108978640364,-0.5474677456900316,0.8071452180841336,-0.5602219506818447,-0.8414600121206748,-0.07534338480454172,-0.969734417604394,0.2679157874843847,-1.2128226964114588,1.1975485162084838,0.3266200901880567,0.9538884150588149,-1.86620066668429,1.8068993251395757,-0.4842970683867831,0.46093123091803934,0.587565308139085,1.1056289443266403,-0.7704261634737111,0.6682085183828721,-0.19119127921754364,1.5055764402156897,-1.3922386444317985,-0.5785175291551274,-1.1664105226680213,1.4180300780422002,-1.2218828213122674,-0.22918828559559223,-0.44445528033800086,0.4170337326438629,1.8607872122737024,1.2633321309789172,-0.06296085519180261,-1.8833436555537184,-1.610753601507997,1.4882541744383206,0.9756462789197022,-1.5838478248135854,-0.7912937928052823,-0.6149641222322919,-0.23867197237346405,1.1973317749294923,-0.5527563565151534,0.47886204054898984,-1.317714063370791,1.2643371519675082,1.265491706595883,-1.5591619644286845,1.036098701677981,0.7265210510588966,-1.0663415442474147,0.1642120964159517,-1.4392511697083221,1.1864920776062364,0.641794235738367,-0.9410768431749292,0.9869986363334888,-1.3141888999236309,-0.18600416103129946,0.7956653984915065,1.8758936379968931,-0.5338003954624639,1.442438082865635,-0.7772460512801547,-0.2449414773150238,0.5560823938512982,1.7464310772196896,-0.448316957509439,-1.415868504635649,-0.27146713745150164,-1.2492276178174695,0.00305516742611589,-0.7950296313647467,1.3514113789179052,-1.94704169803431,0.25809141946054126,1.2759754274972366,-1.260033993491796,1.829189641914386,1.3939032249627403,-0.5921573603912034,-0.5945782419459351,0.5404185115023212,-1.246040163361641,0.1664492190541531,-0.8998431601647576,0.4647794891094139,-1.0709059479057168,-1.4266004899973774,1.019220760845215,-1.654987536467905,-0.8219810905897349,0.3807381403988326,-0.18438076600182063,-1.9896314515210398,0.42624326280763647,-1.2881921622510646,1.2349131460381235,1.0139103334989015,1.572089154836811,1.2586496527716808,1.8652816035007258,0.0472116219991463,1.509674828433612,1.4832146644803048,1.5003152188711657,0.804228932353312,1.5847624119426489,0.6270783310913419,0.47187897902876985,1.8757958789272475,-1.6647502194040662,0.9037982411295018,1.8384607852612924,0.057130447137659246,1.4786715122551177,0.3070807194070655,0.6786986865606113,-0.7946296114296869,1.9893075813932914,-0.48026092381089747,-1.4425075432289276,-1.7647631558368433,-1.1132512605860136,1.6169591683913,1.0211074362954955,-1.555546797647759,1.1368791026657825,-0.07899178184609124,-1.2378458657575102,1.8617428224018404,-1.4496555538894018,0.16251751443654028,-0.04290750783170649,0.7967423848324002,-0.8126416488399726,1.9702249966939833,1.1385801224523262,1.6894711505840774,-1.0772601344594843,0.6492662105485225,-0.12117546701418425,-0.2794351731389839,1.3083369089505084,0.9318412979162112,-0.4794951509263292,-0.6444648149997576,-0.19509399951914252,-0.9349020697085093,0.07920681346315295,0.4650445710823319,1.8411294466678938,-1.0959299655095327,-0.08851262743588606,-1.5609951982472716,0.791307204871829,-1.2160102678958276,0.03965134428190842,1.0592319240535666,-0.02412129036912436,-0.7334692645662826,-0.3681700203509246,-0.3803931600803323,1.5811265358030488,-0.24277021847066793,-0.3238907740990693,0.624586890770451,1.3325891751935934,-0.6258681652318208,1.1517964865860968,1.0558716786387863,-1.043036666992002,1.3338827996971894,-0.5171519921924999,-0.4468609797849954,-0.6338803633126497,-1.5808488730687147,-1.410771055509175,-1.7798397623075046,0.6478406617826851,1.430062384831345,0.5828999208483014,-1.188864701842446,-0.07097547050428821,1.040768869094928,1.7021722775761576,-0.8893153584708773,1.5213323096080607,0.9846854151574904,-0.23319638565301926,0.8649197758276452,-1.0108891745977484,-1.4773102631471096,1.9587794511932777,-0.008115093404660989,1.3154281333697297,-0.2045967047201276,-1.36666303951089,-1.130710508365501,0.5917175915864545,-1.9244854915686092,0.12231666394880403,0.52074143812413,-1.5145516936870465,1.8684965028021052,0.8414437601740343,-1.7761495670621437,-0.49756615482694055,-0.554719685835737,0.27062575377794573,-1.9264863088612563,0.05146390997120687,-0.18883734103133865,1.5762358210981828,-1.2455840911116187,1.105003694649167,0.44786947531890764,1.589873875982871,0.16303324041259915,-0.06645681805135917,-0.3203342952563428,-0.4163756676828747,-0.9821018201272147,-1.647427383594612,-0.11214737900133986,1.416313419806523,-1.1377542572886377,1.0378244834474994,-0.562996550312588,-1.7541612783067837,-1.0507764805758901,-0.6217642197654403,-0.5087127514173444,-1.3047813236090526,1.8093691450638185,0.03372659109147769,-1.3709857745692906,-0.428842697354733,0.6421446129661512,1.4901554703259774,1.4906387421469591,-0.4632561665046038,-0.7041853963708617,1.5184957987547114,0.878651187377145,0.9766956544330401,0.6878326427739396,-1.7670939521254483,-1.2433566476924978,-1.2307947805853519,0.855937000163963,-1.1421097535906624,-0.9392500847860483,-0.1564644458025808,1.3557014226635187,1.7323088632780834,-1.46605216430833,1.2364632555913735,-0.34243931259363336,-0.5457460253221802,1.9722321083146834,-0.2211080520594506,-0.4917827398566006,0.6129981861913576,0.47170509873918576,0.1656903864664958,-1.4708503359859844,0.2780393167018791,1.5052595911628068,-0.019389772453554333,1.8511330243883792,1.1511224821785428,-1.6981074579547042,0.684127320194853,-1.0721428073754353,0.22838637829177122,-1.7799163215991372,-0.09496583316129348,-0.5148822570750204,1.652658123811272,-1.454086779009009,1.5878063077826825,0.5487866712199714,1.1963940834516684,-1.3386491403460674,-0.40623125490995315,-0.9547406340999793,1.0631866974675295,-1.3103072947595904,-1.6309487584840756,-1.6243240670129842,-0.28486928301460157,1.7831045384660094,1.8039237477401815,1.426908533447886,1.7790146475730158,0.9472950340191657,-0.9726218918222456,1.0469084502753399,-1.032136384990849,0.2600789748147707,1.8521595583804342,-1.3733231711060974,0.7982498798774476,-1.9630487506837757,-0.559843321389212,1.0628855624276903,1.3985790363705806,1.695533295030875,1.3892031179753612,-1.3623356610238657,1.6309469751920833,0.5359030683005921,0.5346894614507693,0.7650517749952694,0.024829500515399783,-0.21982140542846285,-0.9315706266651405,-0.9448882277979958,-1.7415822981889186,0.047444990776433826,1.475440866800954,1.1439297449271653,0.08618651061718374,-0.09903264797023814,1.7067961026099026,-0.22139142571770343,-1.2833984569855885,-0.943551755429858,0.7373959326668746,-1.424885561190505,1.8571606191027308,-1.7793211363806214,-1.5097572242118806,-1.7296387549066035,-0.7755141454345442,1.433334024685092,-1.2457163693122548,-1.1086265532032078,1.0235092995300277,0.07430832573032964,1.2873558248117671,-0.6526148760110195,0.8114245176319468,0.07038574991482172,0.749767291327518,1.997873947253582,-0.1740854603166877,-0.45488409641089467,1.7699734860373537,0.41336559820881424,-1.1378075990748266,-0.20827125682222158,1.5509510000045275,-1.8047619614584374,-0.5665752006143516,-1.8505725627786362,-1.3803768381434716,0.3067373796735384,-1.5928079935087376,0.4212090856061921,-1.4815035671994616,-1.4368731047071046,1.456499409782141,-1.414021373707881,-0.5364282241353031,0.5110316042658503,-0.936212768655782,0.46194412271963614,-1.0447498412836205,-1.2430412476460848,1.537670960551099,-0.07488467963408452,-1.6283150970569453,0.28818429836087045,-1.5744746266922651,-1.5642740755282931,1.7651144464316628,0.449996212663355,-1.836026632264487,-0.9199365917421423,0.5865316920690318,0.12531611314640978,0.7123934122420477,0.5107340084834249,1.951331428156017,-1.1897442991832392,-0.3108503504505178,-1.356973915688473,0.8441941255706689,-0.6032254580083687,-1.0318084400851775,-0.6395681211224811,-1.534076151536131,1.8590497398027779,-1.4183076714603384,0.4375782581557677,1.261780264025543,-1.8278629629736924,1.798765816773059,1.7492938471962374,-1.8228790980372214,-1.2822126774497908,-1.1312885797712973,1.646221948278142,-0.002266673974522515,1.753093719354725,-0.9554173200663758,0.5957909174348983,-1.8890992667985613,-0.7808440365562053,-1.6811658220935928,-1.6051826685649169,-0.4133882157895723,-1.3826857455456874,0.2384063247841981,-1.4975332173527018,-0.030657673584523426,-0.20978723429509527,0.11061310070453789,-1.700004792998255,1.5723770596431654,-1.3690072389149237,0.5069063352073573,-1.9482014831210264,-0.8471246140579041,0.8072014540494012,0.11326457946217383,-1.9593804679165157,0.044766543195651654,0.03178609598851212,-0.3108232550894199,0.842306982428076,-1.381048809988076,1.4097368362923426,0.6617488703325312,0.35543393338340046,-1.3608157085194383,1.6026845959429057,0.30485115694300013,-0.43666191143051236,0.1583840907363756,-0.08666580044779426,1.1751617892144357,-0.339512782829245,1.1330241699866543,-0.20237164275280595,-0.18186994763565023,-1.9218080800026667,1.6471595804736006,-1.5127273366331093,1.60984091703624,-1.6444859919746682,-1.1117254884544683,1.375030805483613,-0.3460624966249348,0.9414588940071353,-0.5650065654259229,-1.7461320317324591,-1.614836869465361,-0.9132341237127037,1.908398882088448,0.6565087639641658,0.6930147675436258,-0.5268544187648927,-1.9143590732788676,-0.6106516892929785,-0.13973674336193875,0.24955720347940247,0.7442391038331095,-0.9158222473386557,-1.8430825540012337,1.461026549433348,-0.7644460557212112,0.12673929612835177,-0.08842507516379117,-1.4254855670359081,-1.3010725098082645,0.9405555217944381,-1.1581667841946524,1.9091175185988591,-0.3190458808654384,-0.4411147819385479,1.081956006875783,1.8185199527963065,0.8921564722318864,0.28910292061173815,-1.9278083721684962,1.3767158437252882,1.4219670904230575,-0.6135454895868415,-0.9724941367543258,-1.4066573740848956,-0.6445070685135916,-1.9961550888130972,-1.9297913472008537,0.08396149381505902,1.7961823202301552,1.910988998558223,1.1939762416065238,-1.6124919835384035,-1.8940150720267033,1.0336947787944295,-0.13443754374083028,-1.1304105434427614,0.3979573359764532,-1.4170926012842426,1.5582801418922236,1.9803214304121757,1.242640043142245,0.1644686035348819,-0.5167965939257182,-0.6835138803763141,0.28874152975180545,1.6410211923886067,1.7483775822155736,1.9247856568637651,-1.6240843208765057,0.7916285129240563,-1.4960512271395285,0.7143732514156262,0.6794189288942838,1.7748738490440727,0.05616797832519138,-1.3124495709443051,0.6037839813808317,0.5887942446137302,1.7693414184971772,-0.9895113741032775,0.16096220188830745,-1.4126497304139982,0.25654755276849617,-1.887328339797656,-0.8722721631418926,1.275404846771023,-0.02748665201588185,1.7572988813016797,-1.11016221292005,1.5195797678206078,0.3577876711511965,1.240305137610966,-1.9037779096415353,1.7986213767909773,1.2316978518629251,1.7949395059509397,-1.9637138322250456,-0.050760963537795245,-0.02821186388057173,1.3002359946544626,1.8586373159420404,0.2903155700583344,-0.8815078843689275,-0.4720033336049636,-1.7860209256305768,1.3000000534793523,-0.1051038657570813,-0.7967145763302588,-1.1125186883677665,-1.194382551091706,1.7339452261944777,-1.6135610784646404,-0.5255292203970425,-1.0940636193834887,1.1869936611413543,-1.8278189772005136,1.9324622527773019,-1.2008081627193063,1.6863972649180923,0.7910764013707405,1.8554412773201259,0.7611742121053102,-0.7931924775457473,0.16988781398975927,-0.48580940933821815,-0.6453095481368973,1.6508323720565574,-1.0809314631153137,0.9022251149498657,-0.7532893298102961,-0.4004801303012391,-1.1310515204588807,-1.9218772968517923,1.373127084656169,1.1900192625136246,-1.8177853203304872,0.5264685578395132,-0.08316693252276819,-0.14388742827918533,0.5359481746136256,0.8779765912867661,1.6823403439473053,1.4979281245591873,1.6236366877857589,-0.799367537168727,-1.2722169791071236,-0.7514406031664107,-1.4482190228975282,-0.3028396039827461,-1.821999032162164,-0.4546520589737164,-0.7963008631997912,1.1149951728119976,1.4726865341531248,-0.8989612366052397,-1.9548564791042802,1.6706879908043755,-1.0696740994772678,0.10536333176195001,1.8943510436423963,-0.9485355979635437,-0.9523243919504165,-0.06381077228399157,-1.1693368368475108,1.6752818166077557,0.5654578618941479,0.9619137719403357,-1.7940440369770663,1.2156437021852322,-0.7654637794750041,1.8455978416792163,1.2304048732841442,-1.7725621939957188,0.12018695729218143,0.7749066326443832,-1.743765191144568,1.0080061598739243,1.8953503157676326,-1.354402048144371,-1.5890591071915505,1.983654650697345,-0.460965492682996,0.8689988365774317,-1.17949426408694,0.9930677821543497,-1.8154227889049115,-0.0435421996881602,-0.8633033386724596,1.0845502647957805,0.482147744102587,-1.0157910307826707,1.0312814302433444,1.9076033521077393,-1.9510929111867967,1.4788356106170233,-0.6153169319861753,-1.8696322739475812,1.2269365171889417,1.2854522628827731,0.2899632643305927,0.6676453252421921,-0.2357483868621899,-1.8075726124219127,-0.07026101703086862,-0.47129812678775096,1.9048734645389054,-0.49714354243819114,1.2649482255482347,1.9933020235182601,-1.7277791065580956,-1.8628328598075758,1.335149623851708,-1.8959451899312345,-0.23236750872236067,1.9569274242707237,1.16882704544803,0.07007438092254681,1.067260895579155,-1.8157584247606775,0.6955030724324804,1.1560229191924183,-1.4564782570352155,-0.19805132098530143,-0.1693651377522305,0.09699958006297571,-1.0147867851737984,0.7907207537295742,0.6839472978397203,-0.630328220101636,-1.4155820424571504,-1.7247428599019305,0.40105194612689576,-0.6178091584753465,-0.10090618342676327,-0.8479286151776404,0.2281235738284333,-0.3412085593969749,0.6935890765528088,1.6623144793805422,1.1575357491523808,0.7005635321224779,-0.42982295848120167,-0.9756128819138183,0.21678864609419968,0.9423999768200284,-0.23391539496762181,1.2219232443475234,1.467616664498482,-0.09047857629912315,-0.34748517484367714,0.012880528734614316,1.6165782034866991,-1.3646193933290403,0.8922710713575528,-1.3962041125940465,-0.07879726338189297,-0.20738325338824293,-1.1270030845461112,1.654919621310858,-0.5652818672446269,-1.1437133388862444,-0.07255804676791744,1.872956946573657,1.5394242127275715,-0.3681396592661139,0.2863071118169134,-0.2996291473058621,0.5749676198146068,-0.33071455298354335,0.8225387999704892,-0.7334855779801099,0.5516483471378701,-0.5953297972073877,-1.8901448482215462,-0.9323169553954891,-0.15767163330633904,0.5252868407394331,0.9018095776929465,-1.751733739516757,-1.0856992440446058,1.5019250707260343,1.2032853871680183,1.7962144684758061,-1.9482548738098235,-0.5893965113676018,0.3986946165921874,-0.7831377783165445,1.621977009335244,-0.21162011188580943,-1.6900545885074814,-0.6598622567388119,-0.02545686912167744,1.6045876146688585,-0.4271396225348161,1.7815223659183088,0.2397797129352237,0.02234482571313734,1.8273522887798244,-1.9380252094077726,1.2737367381436249,-1.5071851068560749,0.23318104742166534,-1.1811843035704066,-0.8670291859072567,-0.9925663524696513,1.4704811306603207,1.7508095029260295,-0.4761332701469474,-1.1533744986960417,0.611994491817613,0.18289148944089106,1.340904130307289,-1.8986922960823223,1.570045385612569,-1.8787829335315553,0.492799850180083,0.8709489256607661,-0.47413653481242646,-0.02999638559035045,0.47894986576120413,0.7254205835252563,-1.4265921001922122,-1.2320962527835198,0.7405915260518436,-0.802027694432311,-1.5072935324653143,-0.3400294391088057,-1.8404305715722784,-0.22891177747270053,1.7378576755374642,-1.075268863691342,1.0548293131654152,-0.5660857215742596,0.4410054112020383,-0.5792171651893425,-1.7342920114715796,-0.5518785641840038,1.2632136051694407,-1.849000370356154,1.896566576499136,-0.5601756459523259,-1.0984432775964454,-1.921923511349998,1.3003510828701756,0.7560128607381342,-1.2148296004926338,1.4994759042153958,-0.08973630527662957,-1.3066793786257596,-1.78323475520081,-1.2758732762190381,-0.24497699403822137,-0.12088065218020194,1.0047247080270356,-0.27543045012028555,-0.11438117909107248,-1.5392358907536674,1.815151174840048,0.3869233784297821,0.6441240045976224,1.1262241673691942,1.2221644730326964,0.43657014188226206,-1.2742392829250613,-0.33839140479350993,-1.6447054855362375,-1.144821699173988,-0.6960398788480049,0.7797056332008019,-1.007994195345276,-0.7388483715379683,0.02099103041117134,-0.3374684710195526,0.2819597774718696,1.977482800958494,1.487587049957042,-0.9156524148723606,-0.19847966795668448,-1.5901681836891122,-1.6533404050011486,-0.15104986589600333,-0.8223065936394303,1.9312144517366274,0.45948623255252263,-1.814244533314997,1.355030785197192,-0.3830781855769696,-0.1992373027832839,-0.507181313842227,-1.317640141466446,-1.342307388311042,-0.4285317292143094,1.2409033779334622,0.932977521807512,0.15566792577089794,0.136339156831649,-0.5153688588873573,0.06568200024375326,0.052375526919404614,-0.9258783243679143,1.5238921569582904,0.9906154124308046,0.7219217938737601,-0.43903216862921024,1.0262100857146517,1.9799356913311597,0.46911166682286476,0.3335958148511069,0.5687764944084592,1.3609315081100681,1.7465030949162097,1.5392019318735137,1.236839107894383,-0.5590545731192149,-1.9724574910310064,-1.3683054269889587,-1.2740013097129101,0.372740341809783,-0.5094390669130022,-0.09676814592707261,1.2135287338935838,-0.578006650608764,1.1451701961852159,-1.4891284741197333,-0.2522792125090878,-0.670006585095082,1.2759755758391607,1.6667283465479446,0.6346239463856884,0.8491891398901816,-1.9451980922859087,-0.10134657755629162,-1.5945235061624778,1.254509248601273,0.9979961862498095,1.514898090911268,-0.33917664909235556,-0.3714708557981452,-0.9711830282578373,0.6385996273753531,0.026972504314265233,0.8244203413234188,-0.46443423339132295,-0.23990049582802087,-1.2096051972401192,0.4168159565231,1.0896220760421063,-0.9908717303334718,-1.0948767824662209,-0.3548732383518831,-1.984361757514919,-1.521954473952222,-0.5077068996329221,-1.0939280515864036,-0.25472185455338314,0.11475388499080807,-1.442070899772613,-0.3221447345452835,-0.8539409733673438,1.7189177488456995,0.2707077898985055,1.6458833710846208,1.688412162601578,1.9067964402085682,-1.426456152078814,1.1615848824499277,0.4012013234906777,0.5858183867792071,-1.726743196293865,1.3833413035885598,-0.12536884244806945,1.9151599380494457,-1.6016897315642726,0.33154195525610586,-1.8746489585319543,0.49278961019013057,0.8379057857283891,-1.4234447648324897,-1.292149070642691,-1.288407348466849,-1.1966674095669,0.37653951815989073,1.2535031892461825,0.3076736665155142,1.9899797936446681,1.1711684075554958,-0.19596986669861316,-1.7714556434231805,1.476876914281831,1.2537669065984645,0.5426728067036954,-1.602390540061693,-1.7944158181888468,-0.13401327222839043,1.934997611808864,0.9745641035735901,0.7337625045088649,0.16376602719193256,-0.028940400076205464,0.29334382164876693,-0.43441973088157315,-0.6096174043286853,-1.923733627155777,-0.40203945909495387,-1.934114335759133,1.4973359382465259,0.7846509987416548,0.9650422032359085,-0.4793136177765489,-0.4085141156538823,-0.13467854952510416,-0.6474854182361818,-1.116195007234856,1.9475181099421754,0.3523371907972259,-1.091227191556702,-1.5192514256299106,0.11122956905720516,1.2498536192804868,-0.20079474683435983,0.17992149636491117,-1.542915089815995,0.015401308128277336,0.6184398302447711,-0.6333758548176078,1.5378924558200158,-1.2803812712245661,-0.839984950609832,1.0718603329691945,-0.7162686362763058,0.45315386440391725,0.19275488581925737,-0.7321157001609793,-0.16708773717939973,1.9504166117779649,0.3929676800362176,-1.668502069911899,-1.4860519387064448,-1.3029001716547923,1.8912743195665724,1.8477114792233729,0.7526188569197831,1.5031922781290716,-0.5105506181439927,0.3649445392725559,0.2999823916456137,-0.09837909434232373,-1.1860482734089248,0.4102303373470009,-1.5239327560003737,-0.025277422165960406,0.29510593803132545,-0.1293669036849603,-0.5255730365862399,-1.044951810725113,-1.2879231521999173,0.16556441195919946,-0.16945366559673447,0.7842066042076907,0.3561911735027228,1.8236801912368135,0.9589196887587002,0.8023210484041088,-1.4328092111947872,-0.1859937352255523,0.008677893536956915,-0.06569220629068706,1.9238348527795992,1.776886881507394,-1.425524660888882,-0.08591873684969142,-1.3980771752371934,-0.6540590757175231,1.841784024624877,0.8881190278945716,-1.1676183304652592,0.3662183375217323,0.9282439111479177,0.021959731561702167,0.04901109588249275,-0.62558484204729,1.0352169916088,-0.7816542044550157,0.8760955027394637,0.9491346381770009,1.5053362849737182,-1.235912017884138,1.7648332000770917,0.6386951953709268,1.9997939214901859,-0.10919957900149235,0.05814136854430085,0.8484745835355851,-0.49029892703260103,-0.19553791350195215,0.2847036027912342,1.2851086510613472,-1.6100042270267094,0.41303164707920725,1.711057759468373,0.4578367939069894,-1.316127091092429,-0.4411081176579996,-0.3050853571668619,1.9002130500916077,0.9772653723236071,1.3240070923398908,1.7471547489759072,-1.9287686885553867,1.2808430163885847,-0.7531572163557616,-1.6500317763885368,1.0652931519550202,-1.3155316959683283,-0.41955169368408507,-0.17825647460655736,1.8919323752641732,-1.023512369813254,0.9879014292169122,1.1806609984667733,0.6921019588677457,0.22729483281913687,1.2506745639554802,0.644257870947325,-1.941969451767131,-1.718056367273499,1.8469176051519702,-0.9752731889112218,-1.6406271356899018,0.4518105706422815,-0.30393344536976885,-0.5938458794095709,0.21429732203636043,0.6276154503534652,1.7609622252290937,1.0426823645893148,0.9971051366831505,1.8466300681933636,-1.4253140760824499,-0.771399646205305,0.5353270203649338,0.6957435564207097,-1.753857562410921,-0.6390694495039377,0.7467730213985448,0.17452129287647855,1.7032122728146368,-1.3535081068818915,0.7788432109155399,-1.7675929757177555,0.8423956106398243,-0.38121084871196453,-1.7677099693151486,1.4989866651634816,-0.389760676128037,1.2332820179341581,1.4447262768810734,-1.7585776009969507,1.7697180754816753,1.494565982763803,1.9739447983304812,-1.7401307631909013,1.9023437911637098,-1.4923513991647672,-0.9822586346424376,0.07598819835241155,-0.57396041830776,1.5656563022646584,-1.669184479636065,-0.8898539015284923,1.0278915926848042,-0.49951174205552595,0.4467913738348046,-1.9788561885438165,1.2534346136272934,0.7020819973689392,-0.18227907439572588,-0.37404166682799156,-0.21755376457784115,0.13327604661212034,-0.46883866300704957,1.6761587564584626,0.12121991201740867,1.95192842946481,1.1628049060889523,1.6418514081819389,0.7430859155480154,-0.9186399333119821,1.6798359375656937,0.9644766340475894,0.38072587620006804,-1.730944818000777,-0.3628071165077724,0.34397403046469055,1.9776340224036293,1.1572796411177357,-1.4002143035083034,-1.3394955738129868,1.6486072555502362,1.0781001708923261,-1.8015658787190811,1.4131782494190204,-1.8312969141797448,1.6281516062955177,-0.8545467405729514,0.591083449587722,-0.897193730421106,-1.0022307220378428,0.5686140218332225,-0.8659540725839903,1.8105952476934988,-1.6803349648800654,0.02664518065670407,1.3930912250179754,-1.527102008340345,-0.4184579181814412,-0.0861997455051906,-1.401198951650394,1.1489788137632262,0.7428137778325294,1.243055439678188,-1.0370461056005493,-0.7501085564520742,0.11117693531532691,0.9642647837363971,0.03616071426957035,-1.3372267344661797,1.9730785002473223,-0.70630720899113,1.442250740187787,-0.4021837569569997,0.7069552937443468,1.7787038885431086,-1.247717543533863,-1.308014849715574,-0.45336655370636736,-1.212291344428523,-0.9412478503007518,0.06509124797365518,1.433909218582507,0.7542778067592164,-0.4108651913301018,1.2897405140266316,0.17538662540788286,-1.9627679985150497,-0.3012563933581416,-0.6496022530117012,1.297156248660031,-1.4067892903946326,0.6236494906924199,0.35817179250832387,-1.1655368543777795,1.3503928122994941,0.03578049180262477,-0.12273655007779949,1.973492982537684,0.6235719357013245,-0.7943954772388473,1.3365993953704107,-0.6702000700279847,1.5012978439747946,1.3375280057652268,1.4566717987415165,-0.5821540220502812,0.7326945669696991,-0.995664847279214,0.216482277361552,-0.3459864660409937,-0.6799813897098486,-1.1764882840009299,-1.0151564251441632,-1.4430768833511154,0.7576879458835175,-1.825326882845494,1.69178541231783,0.24505207672403007,-0.8562535244687401,-1.3063483143927384,1.3302884196692855,0.9647325482448657,-0.6624686729444269,0.33250425737301637,1.7708000502277756,-1.7315076738590953,-0.2599862398227839,-1.702382572677283,0.03258890589826713,0.08221824188492954,-0.1210261463207063,-1.9366163612743539,-0.32096671603904925,-1.017231030284532,-1.9971794977228772,-0.3955845666088349,-1.3554477899475792,0.7422338363238321,-0.5976716571142657,0.46082376153353355,1.6158002264634437,-1.372060413879654,-0.6499525650421436,0.9533669133393654,0.3697133382357247,1.4013733103232577,-0.1004759847928125,-0.12493250280277746,-0.18432453099169654,1.2393235200395658,1.568642977245546,-0.39342512540052077,-0.04716905138284533,-1.1327542012213039,1.7426169086966006,1.9789828271484855,0.5308925322127127,0.8943870472386113,1.9055541914627274,-0.1203724329246918,-1.2411439367113464,0.30152128871984596,0.7870491341963142,-0.7635569487790339,0.0011284939309414987,1.1216279375694564,-0.5699656883861715,-0.5878692067671447,-1.8763636920355147,0.9114968108559287,0.8094453095026193,1.388989955687447,0.4662473036467114,-0.022858429021065607,1.0560316932437712,1.1186832717337598,1.7794148937487781,-0.9158991209053564,0.5942367808283451,0.1596930141334405,-1.2950300416901648,-0.22374214794953318,-0.6689413416321375,1.1280544924092748,1.7322758751735345,1.210823595069023,0.649228965237437,-0.18993029765542158,1.1420129653765416,1.2286366371276278,0.2737459414832206,-0.62894071623028,-1.2510459763067887,-0.6258612648302382,-1.7552780835364343,0.7385275871808772,-0.9203969508212877,0.7132968639544011,-0.6767580836114675,-0.5917881200463024,1.4686975135858265,-0.36284881939783586,-1.413446934827312,0.8187026918605933,0.35936250201684095,1.590902851048976,-0.3812920335525489,-1.4035461002988359,-1.60063060614128,1.2391236061790019,1.5337043217256352,1.7212695970658993,1.696082144220843,-0.9334153036978594,-0.017891580072332047,-0.9983766072809104,1.3788986343393703,-1.419510126669476,0.7828889018040064,0.03245194109576133,-0.49381570992546475,1.3215430517294098,-0.26266133774237455,0.09553658210062999,1.3135900017481181,-0.452070841794189,1.3774334562072568,-0.1429594400819676,-1.0665939782789247,0.843727107401611,-1.1435990674707228,-0.8935686635570814,0.6931884500323147,0.22889209050036952,1.6675961857710062,-0.19752119466470752,-1.913981712772312,1.5571238277936996,-1.3594754607131438,-1.313177574709079,1.7451103424338137,1.327981380410863,1.40770497670766,0.9516429189656925,-1.997088073788189,-0.4272480371352225,-0.2863456295129869,1.9797464517832903,1.8337207770344532,-1.331980359399585,-1.4419679539110315,-0.10599186543510442,0.7916835730150207,-1.3693718838687996,1.1869542476755348,0.6447768581121158,-1.466680289860248,-1.6925702973728076,0.5328386569665571,-0.31185944448908964,-0.021158436011401882,-1.7842211891212432,-1.8135006868909023,-1.893972957009511,1.2601853030674373,1.4549284666508395,0.3613192371954166,-0.0078792898059592,0.1453517296369662,1.2584802713308245,1.0861688678496288,-1.964045333935775,-0.5154560567026527,-0.16581470447828117,-0.7006481734702765,1.8648682170619462,0.5360934865049574,-1.7997653874097668,0.12261747969345471,1.3847246919730076,-1.5654932050590613,-1.0829256493754214,-1.669575916016389,-1.8364356277482283,-0.9690137937517083,-0.9906937923142856,-0.29779059334558067,-1.9643903499522128,1.9159085015730355,0.3671476531040341,1.248555907335938,-0.5819537377946364,0.12489419981368366,-0.9903838241641152,1.804839527473474,-0.08282270494317423,1.5191123724006612,0.7756146127762795,1.0228793351899315,1.2204520971686659,-1.6987656266313245,-0.4883126502897541,1.3779662315418864,0.24076491508423103,0.05355205633925175,0.08994392978459498,1.6972792735956759,1.948542048752493,1.2058943112064267,-1.8790266240343434,-1.3763762706860878,0.4858167556808741,-1.6372479526381127,0.3797395787864053,1.8363396160207683,1.6995421814682188,1.087389761425516,0.31900257180654945,-0.7878629504807346,1.6454801270675845,0.3776006915754042,-0.03738587795307069,-1.37463096962763,0.9051012163832559,-1.3232353480126213,-0.9329140148546853,-0.9845299737818882,0.6464229688797261,1.2061901868791955,-0.7605410944196005,1.6687340269500504,-0.9475295302269546,-0.5419315022107218,1.279663102488076,1.912978588721987,0.6834183733041583,-0.49983835954320144,0.21818239827319452,1.4536234190037134,1.8641727329404487,-0.47007105198061305,0.10346027197513497,-1.8268220922772773,0.589694089227407,1.5189250611091376,1.7769679483476724,-0.05639090385286627,1.777264970494131,-0.7736781844876748,-0.26490585223336005,-0.6773752410600498,0.8067598477959406,1.3058093619265128,1.4250357122211788,1.1223583498885676,-1.5203926905147211,-1.84689319679031,0.8143824233887655,-1.7730542456948482,-0.06878087559192148,-1.437528108126351,-0.7682383107927437,0.2524780461751752,-0.4495806227861392,0.6720758128846231,1.5618341174727886,-1.898507926870444,0.12937854291106365,-1.701349604887369,1.8885662128009533,0.8438811518355429,1.7460082886093744,-1.3542759488336498,1.07396047304292,1.5954939743200431,-0.2102815397544009,0.4512665808919114,-0.42300205341479113,-1.2945956934876506,-0.5963159560229894,1.7733279745295816,1.8107239882949968,0.14284077811302298,1.0935899373719464,1.0461281850226873,0.243457324867971,0.19793738765052238,0.20337905205203377,-0.37495436971037543,1.497922148733355,-1.1640765314551014,1.9986490904510004,-1.028652798926668,0.33803766019135617,1.831033454703559,1.2003007262225198,1.3989756768655162,-0.2083843928746565,0.5209979936291669,-1.9986666118210672,-0.36404913539296624,-1.297738585565574,-1.6728627601775474,0.23361161571541755,1.862775618340053,0.1498422602803995,0.7097427156774598,1.052194133011537,0.046830883044564064,-0.14943377253123558,-1.0863055513568258,-0.37854235947176385,1.6424715533564873,1.3115102738882576,-1.3032804667965503,0.3227015095157699,-0.9520979461144807,1.3071111035258962,-1.6358355182647584,0.5182568653785347,0.3667975349454542,0.5490103820471681,-1.7581124882565002,0.4710720450309931,0.9037812940605572,0.632573568124025,-1.9738017266664944,1.4297817270761874,0.3692536536515676,-1.6728391816416361,-0.43736350967700854,1.0697034780857382,1.1496943854701214,-1.2845073713301938,1.6559362127724526,0.5862654414851236,-0.13866928774651566,0.016251489568572364,-0.6780476832856279,0.5173457703303592,-1.1654963292071607,1.325377670573812,-1.8884088780222883,0.14503327720596282,1.441663971359755,1.411724423873717,-0.7150355760260116,1.3767941044055125,1.6448735020199243,1.792546067867998,-0.3912403997714313,1.0984835984143815,-1.5269123195043353,1.2189704117149494,-0.30406785153099536,-0.9870502405999906,-0.174656280156829,0.6325500264103181,0.3454362797716106,-1.9792125599900254,1.3714444113142332,-1.3965464753802221,-1.0759118226050468,-1.8776410512614081,-0.11776103471501731,0.5914268059964383,1.2871625600786492,-0.7960510522231763,-1.3652723086632577,-0.9193289380198326,1.7900509793851178,-1.021192795480487,-1.5953219470399365,-1.5490461397327646,-0.5714912253471467,-1.1929269690667916,0.13316572838588936,-0.20040422666918412,0.8195375236794766,-0.9814820384142804,1.9206117484861491,-0.9333320447134206,1.5889786551957252,1.4562344465780281,0.07144629671868952,-0.3798604644448913,-0.1941065905137216,0.536449855834324,0.30544233754337924,-1.3605253280158416,-0.7687955724176545,1.478678899048722,1.7975001274429112,0.09113303289740227,-0.26852097488257876,-1.2727627492878808,-1.925151634104259,-0.1794295542077169,0.19423780889072306,1.591833767858069,1.7491390774352102,1.2585537183562026,0.7935276259825614,1.5506962688382004,0.15107457601197938,-1.060563377223819,0.08536742714807266,1.2459587117076336,0.5587432172423954,-1.4600128358796192,1.9077941379760084,-1.785359667426575,0.5548974370886044,-1.3998448899585245,-1.3381734278709208,-1.3063426737053048,1.0970782457845658,-1.4740948841894865,-1.863051500594037,0.23187180365260396,1.2657470983266514,-0.6635324919685681,0.9963580691788669,1.7298712249989592,1.4701595785814354,0.16356185214778174,-1.9493924101302187,-1.12042399743674,-1.7069086056181049,0.4714753202595645,-1.9579424388208335,1.1603437133920926,-0.2906734646563538,0.6615065867979784,0.8966804772897086,1.3918826772396509,-0.03552498106591262,1.771848116948842,-1.9499007398937405,-1.1231747181963012,-0.07319680727705657,1.1441403925806575,-1.857687095982437,-1.9225094357182404,-1.9628393254415473,1.2970803358243703,1.528990329561736,1.3534860667777933,-1.3684175000891865,1.5705600317095785,1.1677854133494985,1.969397704961891,-0.6721255198698635,1.171266005120911,1.8968509000433795,-1.067875519656896,0.7139354494651298,-1.2957770701152707,-1.3679450864274352,1.274619410997036,-1.499998458961603,1.509336517605803,-0.6793981672277538,-1.4639045729951072,0.4540598332116996,-1.2597025293564363,-0.17030204248455005,-0.6051684295065822,-1.8732369538757632,0.21314390514808368,1.1344701590733748,-0.032528298743686346,0.20804515752483876,0.5892265285490925,1.301864095018714,0.569273857634903,-1.5697651870517824,0.8127379340411891,-0.6992439899087266,0.19530527919507357,1.0838219052948408,-1.6194577381602677,0.27674265559210154,0.9256194128998221,0.48130520438956204,-1.397855662730132,-1.3977095709284018,-1.597410327272553,0.5448451167161914,-0.3839821390552087,0.9911466454477629,0.5786831783432085,0.1204529988627212,0.49701304879284924,-1.3259674229345633,-0.01992386986936001,-0.20253378860767057,-0.37401820164277977,-0.12752746968077266,-1.0292059417615107,-1.4047254330966288,1.976250011745087,-0.23701720848617747,-1.38825295046917,-1.3250104815133499,-0.1634867724121758,-1.2731854201844177,-0.44181014768289506,0.5612029780715995,1.7812827148786758,-0.4748622681518735,-0.15010534898330308,-1.8178104981606809,-0.5867246576448815,0.5655545323863422,1.6325063970512481,-1.7445621610753683,0.3434205498770342,-0.8252901955180239,-0.7739948184580423,-0.028243364880298216,-1.2042486730882866,-0.6831504400978505,1.6770792727736268,-0.5997034521802087,-1.5296503251181575,-0.6368752991648456,0.8256090920992345,1.9051029711669591,1.0940566239413365,-0.3616059575166166,0.5539641296356397,-0.6549475277652208,-0.7555621262401635,-1.9222146312488175,-0.11881273111809154,1.562252747716499,0.7161460685623728,-0.27392729665765936,-0.5493625101829469,-1.7488380503671377,1.4102685102934949,-1.9655659233918605,-0.6852003304451473,-1.6577657475862702,-0.07593846626522494,-1.8135889045686118,0.12410343513686417,0.47071270808689114,-1.3653673954808014,-0.5690950543387325,0.1721589830136785,-0.1191916240965547,0.8237336520227978,-1.5357913392935925,1.8327584909989802,-1.9045725857555018,1.9945811662865802,1.3219986092029763,0.13705134886713832,-0.8643738703045689,-1.945858577000144,1.9850615276482504,0.2173653088172096,1.6949149979270546,0.42649528079398147,0.7611092837590618,-0.3898265239562275,-1.7202201547914266,1.2041564170239472,-1.7860969543418914,1.1781296075603929,-1.2555668801959183,0.5588472910175533,1.301405013973171,-1.0940508711828647,1.1331858847527423,-1.6048420525843299,-1.2722647294276679,0.9319648874945234,1.2721546059296225,0.5027769239556856,1.7951773336524357,-0.12409331336544094,-0.9579577828774162,-1.3000758629761222,0.5123082376598957,0.16982325248655483,-0.2383871005998084,1.5904411064762778,0.317676780038481,0.729329434011865,0.7296755108669708,0.7455559937371063,-1.640653222711948,-0.5816472517164297,-0.6190464378475631,-1.944511644922859,1.6079355706126273,-1.1670135122390328,1.5146950462132178,-1.0803516120533754,0.44649008431402937,-0.9462443810787686,1.9895712961726684,-0.687018663686203,-1.4278299822147442,0.31816329022078493,-0.683166551257874,0.4747227519451278,-0.24830207731290166,-1.3892646190226232,-1.370913533776132,0.7777639309379278,-1.119247974653729,-1.8994978689194708,-1.8114467372889322,-0.12468375185133063,1.0640338538937235,-0.839475857618385,0.8884732609566073,0.3124556740324187,0.5697835229462132,-1.9270361916135128,-0.38662795507961967,0.1636035651357206,0.901553294496305,1.7439532113212968,-1.0450137467511573,-1.5812617384787435,-0.37259209469724386,1.7550842416668448,1.0148059306900685,1.9358298829856655,1.918140540077434,-0.660635737982791,1.3221734716844415,-0.24258384589063064,1.155586712121329,-0.9772471264391971,-0.23147027155888278,-1.919201428633957,-0.8211932758267793,1.3888565437029747,-1.2384069058632905,-0.6935675037797178,-0.937063588965275,-0.3378253614455744,1.9096655285817024,1.9939575635337201,0.5295190551291369,1.9386068228203732,-1.7872054043218046,-1.7140395314313106,1.362474517664571,1.2265913556327819,-1.8974973282807763,-0.0426447859218233,-0.731608923385846,0.3072460173105642,1.0559034273754433,-1.959662137875715,-0.8504399018196303,-0.41214383307647307,0.4865673746775836,0.8062104285230274,1.9105766138943783,1.28559043186671,-1.7245396403452276,1.410715115107422,0.6631433967102507,-1.4831330713814643,-0.2526011540057591,-0.7854963305584755,0.12139067693990446,-0.7529235228974822,1.449599588208248,-1.8040712396807121,-0.9153412445579887,1.821188543497399,0.4594355676523545,-1.2719221704221106,0.646431630379444,1.1054139148475364,-1.7256381096150926,0.7031675362116925,-0.26879506042764634,-1.355864271981973,-1.1472228724309388,-0.9019262579020539,0.7973237430458653,-1.845696062733702,1.5903073159822831,1.5279269992001128,0.36285442680662294,0.11549253142571692,1.3715770264984535,-1.0061275570395236,-1.3294259462069467,1.2883705622669375,1.725302416648113,1.1849871201054771,1.4404410681017947,-1.097800015318743,-1.7093154238654247,-0.042503600498369654,-1.2872761101376637,-0.27172851091025896,0.3173335475932544,0.5371776361275162,0.05374694344198705,-0.8770002888335111,-1.1874397026079886,1.1691755285058045,-1.8057820451592739,1.6852142590377674,0.9022746583187002,-1.0069338193990012,-0.3197869836630254,-0.7231906815553266,-0.10569229941641556,-0.045905893688278354,0.30495655084406526,1.850025669507683,-1.203765491300722,-1.960108588399649,-0.4014573401170596,0.14510612738728623,1.874616451390398,1.6176730995299287,-0.5011421049889173,-0.8208856679174428,-1.6503120170976389,0.9211957755219262,-1.607901932759249,0.15045896324429053,-0.2798131288994292,1.5960155347204323,-1.970182001533098,1.7326147920840058,1.9950728506841275,1.8575979644557097,0.8919378592787313,-1.3601049712854536,1.2928517045098173,-1.128278153315549,-0.504528387002479,0.6732540234775835,-1.760955477648864,-1.4373071663501693,0.1898145144768444,0.7530492626590441,-1.1648535416239718,-1.3964001906118844,-1.4907177294873195,-1.6215315544920172,0.03384457261521501,0.8645623324257459,-1.1322079600282149,1.9069792941524155,1.71803846797203,1.4639641714906224,1.2560325988093766,1.8404759315238692,-0.4075584605454794,1.2316230668429236,0.3568821286955588,-1.0972944105302331,0.27810165146157706,-1.9057551387097589,-0.5758365968024526,1.9398578792144803,0.47975398709217654,-1.2004484175055556,1.444645638058712,1.5377505667721678,1.2155242622504652,0.13843507450970716,-1.8634590528173351,1.4297612823250243,0.501627891191843,1.1781157667371933,-0.6550898427767167,0.50799609846944,0.2959395624501342,-0.01751988505067681,-1.2531264660925405,1.6053338501365193,0.8745606650330799,0.9399891847955879,-1.6458211802870077,-0.13804317505355224,0.03448667318594145,-0.7444900355969506,-0.3364523846566194,0.9033737644061186,-0.5875178252802962,-1.645528794431765,-1.5124174530805754,0.7814890230022571,-0.6538135600188402,-1.3461491793350282,-1.890073384234931,0.19188870662435553,0.9251225035729851,0.423258037980927,0.056482830640681936,-1.6499332279952403,-1.1301718065725836,0.2349720483381721,0.503032546809735,1.2797230585363617,-1.7943677369802895,-1.404078745946029,-0.396158006989209,-1.1318005535445073,-1.0376077789625318,0.13382138590287562,1.6868139561958349,0.09326524448691176,1.6504549290535304,-0.23526508585864336,-1.7079049154262296,-1.6700131227930677,0.7109483740689315,0.2954878203681064,1.3763533225603806,-0.4441995003744177,1.4056265406899286,-1.8603990106661978,-1.8036631828389145,1.152128059075761,1.2244641951582889,0.3231674840043448,0.7944721104948624,1.2755907690520338,0.18415453429097806,-1.726066092551374,-1.0568973429353083,-0.9734431022727255,1.4174723826150903,-0.14237653756173874,-0.5447023437625491,1.999742797483795,-1.0844627503481963,0.21614021327988198,0.9970979817168186,0.6012385955364441,-0.7207077903304588,0.8607661623116618,-1.1585495889670971,-0.5357876349756334,1.9856227196173508,1.9245874434288042,0.9447969203680056,-0.6885661911927192,0.3589605396604334,0.6651771381503879,-1.4372266591948715,-0.6657399354351665,1.7906354387166683,1.3294994483693432,1.1058743252069765,0.9802385662158439,-1.546776813697305,1.2996665067150035,-1.0097969391581456,1.5779091781130528,-0.9030465598067696,-1.5973592413311453,0.4745439316862212,0.8181811855195953,1.9878252453045757,-1.574411358628812,0.7664718327602444,1.500747387261434,-1.0045436524008324,-0.5610839654922959,-1.8718631164076398,-0.8957602133230389,-1.129129786512645,1.7130003434102004,0.7418354136073795,0.6935092211973415,-0.015239805983553456,-0.3921361547556388,0.4126123502895558,-1.0060728953826543,-1.4502600040717373,-1.0430389193556202,1.2132546183604984,1.5486997945090022,1.4952979595140428,-0.8186444323682562,-0.8395058355292129,1.148678363561956,1.7489503377516913,0.6722142506539193,1.4276948078373008,1.9973585904011921,1.4339128097586102,1.9577684614765665,0.7523673799421724,-0.8862546197887791,-1.1041581905084326,0.41910636773031174,-0.40038068544088423,-1.6469744506013018,1.7839518483865255,-0.3087714772147465,-1.6548991003610123,1.842964461972541,1.4964031437770036,-1.4405281391658247,0.5715225376660196,-0.9274596561855319,-0.6751347638930834,-0.11819373978800263,-1.4929090877522535,-1.9023374610229133,-0.45766778809158204,1.126869147079912,1.963976531038508,0.7745140424829406,-0.3730337857903736,0.46773620770029734,-1.806028456076333,-0.3483122996036525,1.8802867072031133,-1.612512553682926,-1.686829208012659,-1.6390919763586362,0.7718207417854059,1.6820444610537049,1.596732124946695,-1.1221302363422025,-0.5707483030488163,-1.7143757161400734,-1.5987406505892747,1.537702713675321,1.5945261017559438,1.3199393038089817,0.34158789676642076,0.934870292341929,-1.2496323993225151,0.9437389886661487,1.4146764952546005,1.8039287923412943,-0.516193187233144,0.4308465337149454,-1.0497246101670124,-1.1739710088947066,-1.6749707977429122,0.32795131101216635,-1.4141534519234829,1.5780364349767813,0.35065256338122275,-1.153554744923829,-1.3648500801141936,0.9904019754785156,1.8994144074388966,1.9661960496907018,0.8543426439303254,-0.8214797561962532,-1.4859851068469374,-1.7004374107580134,1.1129100516616774,-1.1104932422681548,1.438508103967369,1.5316613884134518,-0.35168124170098247,1.2994638097793763,-0.4689738586669465,-1.9046515727032807,0.47007647067093306,0.5736804445476604,-0.4119341934478826,1.0125715786413219,-1.3314196666864078,0.03958988137986186,0.09528916454244785,-0.6088257173994278,-1.7302562583280023,-1.1580808567071674,-0.9583796014585255,-1.3895328612965354,-1.4122667631768655,0.3079370115782667,0.19010313288557468,0.5921580699120788,-1.1689510770641394,1.7215501992665625,0.346041844640117,-1.206430661873683,-1.0571873279986295,-0.38036504472705834,-1.6989217951070206,0.6013183573939651,1.1710300402544962,0.9817153805068846,-1.158238320557389,-1.7114633174695562,0.8345717468920637,1.9992959799412762,-0.5399538491868796,0.4884838357886747,-0.648529209759023,-0.8771270593605216,-1.414056987702753,0.10783888749527426,-0.1882986417211634,0.7674666556033389,1.4561188603928823,-0.9360346684512519,1.9963164620777647,1.4856317569423463,1.7745113491236268,-1.7648471734730644,1.2631006875745285,-1.614341237602896,0.749551259749925,-0.26412474608347347,-1.676209854607424,-1.1044634706623415,0.5257572529625154,-1.944056810150045,1.1977610422022615,0.31117451737764723,-0.2846948229369879,-0.06524792359963616,-1.3927064499995052,0.7351016094198388,-1.6606260804666806,-0.022090154428230147,-1.326476453487159,-0.7442160792204406,-0.7640617654313431,-0.3382252302665978,-0.1571964462221267,-0.33198699508422624,1.0507471432310922,0.2526888812939614,1.6803950503669935,1.8524007982802941,0.10400318918038343,-1.1375433936034818,0.7006240333776472,0.012864293217973,0.9364427097997474,-0.5151990279779124,-1.6322086190870175,-1.5326077489213064,1.6691695907090662,-1.5356087066072126,-1.1646190182805252,0.978815361993751,-1.3784387085063337,-1.889383685753132,1.4564060786676412,1.2866441347826623,1.3565773766706513,-0.2557245965105652,1.7747451702059003,0.8780277631838254,-0.4411865121300256,-1.741399680875765,-0.37288009413661305,0.9275783464691187,1.4854827635067402,1.1677301558211135,1.733851837641783,1.597161976959184,1.8180807580624823,0.8050244813419303,0.9587169609267616,-0.26292297167774237,1.170609401826494,0.1459499979870449,1.2692074098811803,-1.8077055555855814,-0.6134545359861576,-1.3000756126826847,-1.0278302272164401,0.5182754189328778,1.8140402595921024,1.100249891978665,1.3102080022987028,0.3512609020278745,-0.6055961369489351,1.2154102727616496,-1.350409966847936,-1.4829910394027563,1.8232092524949919,0.7004265070127054,1.8505813481598663,1.9378154627897022,1.801702178756924,-0.07283738273102358,0.8503835504655584,1.1260481363769608,-0.732715898123736,-1.5164435633242075,-0.8167300718890771,1.9666128493232589,-0.10813447995359926,-1.633897406937364,-1.6953830905439227,1.4102396338578096,-1.5978518402438624,1.7744355220082588,1.5598749613040273,0.1572785352359416,-0.9343392435886608,1.8263422398598603,-1.2020047537142227,1.4541255188853408,-1.4607969361773305,1.8579520410121617,-0.21416394048162601,-1.0619703490928742,-1.7450371046876554,0.7476728365279932,-1.3204907430280457,-0.7876371853717452,-1.3959493999202492,0.25168622773578253,1.7634798716204072,-0.7741375213307666,1.7046106115264994,-1.8817942592344545,-1.4381843243468815,-0.13112760525586786,-0.2386700816014038,1.6973350065337427,0.3981255708730771,-1.5595187580210341,0.06142472093256579,-0.3228679615182246,-1.6615046133590163,-0.36124341985193986,-1.4662627851121783,-1.5214087713208193,1.7200965630297587,-0.5364774707160183,-1.9471176731157893,-1.4674420200528528,-0.912927014161538,-1.8007743617569347,-1.343859915060003,0.04532318033734217,-1.0021282303548804,1.502829489988673,-0.18261392935655696,0.48617334247589694,0.9168045661744917,0.9294907568292281,1.4872292046207174,0.7495140925132167,1.6618892084539985,1.5950773596723087,-0.16728533476542085,1.8780618511951768,-0.29472292460874394,1.9335255744090252,-1.5353348685029804,-0.9970280668932436,-1.3424590669969412,0.237558064530496,0.07855666440560949,1.7292185272522969,0.9136801630219069,0.17681507742671876,-0.271532490228124,1.4482105662083433,1.1146032013586908,-0.1799173852717293,1.9853141079018486,1.154284629141448,0.5918810026235612,-0.8641906414269398,1.9937990398522913,-0.9495759953555214,-0.8357421240085272,1.9707707927100353,1.2142846771328664,-0.8521198787466275,1.321516510725108,-1.7627173230977151,-0.5493535700461187,1.8333771242366512,-1.9782716963045544,0.342228760216996,-1.0430617641973536,0.18808390266766928,-0.6525885108266758,-0.11426861926072629,-1.156843937725228,1.8879359570167327,0.11821762993143414,-0.05036562947235135,1.5194404056748785,1.7111905939166898,1.656186469647304,1.3983523644388862,-0.8972871152058568,-1.6503240615129466,0.4127560513639943,1.0830584063457187,1.547770474884044,0.32995471935666476,1.4726041836470385,0.6256420816565931,0.8012542720205511,0.05199572124965357,-1.9803701332152497,1.985604575334457,0.434247217580475,-0.9779780975133794,-0.9227894472811742,-0.7956221230815363,0.9311924988775813,-1.349257791521004,1.7614903578269545,-1.3330755860203292,1.0320502916303957,1.4131002276062414,1.656055614596979,1.8283140702609582,1.3334129078298362,1.8569217624504653,-1.1302241340253083,0.946594069043754,0.4826036740094146,0.924888884662352,1.6400006804775824,1.3312073210359228,-0.40273893385622106,-1.7236510028393441,-0.8277005986011212,0.8323835485814142,-0.9140165126310156,0.3096596247437251,1.5609000192808513,1.5962788107348547,-0.04686086354946051,-1.1894217481777192,-1.9478955375936429,-1.231442128879526,-1.474409759880718,1.0278845575840965,-1.991128378796398,1.2512513417165994,0.5463760431299396,-0.10571345509685148,-1.6292590680816375,1.530460649855041,-0.25553402440887707,0.319027643369338,1.8216696102777465,0.63481082459997,1.9731600329755974,0.5125527510803054,1.488774360893761,-0.8103215536992185,-1.867326392700305,1.3105000618265756,-1.6252352077878087,-0.5084694418013398,-1.9915150238200194,-0.18423819247278628,-1.6822341688403881,1.9362989068380636,1.0535328573413034,0.17068317701189084,0.7178671273047956,1.3176098996534398,0.166801050854807,1.1386691917887033,-1.215453691859178,1.6283402556115223,0.6387470284793233,-1.9005156108707202,0.04654241342646337,1.9901514768816742,-1.5482211043197056,0.7239434243746707,1.8803686452730703,1.207124208199867,-0.16897486035152287,1.2279239951489593,0.5495759518757222,0.1458125824196146,-0.45068713144107697,-0.09068170499293382,0.5017225299573811,0.42235824360695773,-1.0451583091909966,1.7340565745033452,1.730630034390237,-0.08695687311033407,-0.5588453662834727,-0.6231307024984885,-0.6301074557510815,0.6723346000678996,-0.4301026382784303,-0.5960959064362328,1.2842529137211791,-0.45479524739444477,1.9661140476791434,1.4675072628429522,-1.8687498274710976,-0.7276929309364721,0.9058543444510625,-1.7931030251969413,-1.6630127668873516,-0.11675817422910395,-1.8822318640482636,-1.2459638194019296,-1.1182905773208072,-1.5828746404778604,-1.1993849833519068,-1.2822453158514229,1.122167891340807,-1.2631551411479434,-0.836160855447821,1.165415983026783,-1.1665415160443962,1.3136589605577287,0.509018554619507,0.3413247818034102,1.2174024736589861,1.2456466778696798,0.07153476968757255,0.17021655202977515,1.6316435254729904,-1.8829501075530266,0.8778208748601379,-1.2828633468698305,1.9342469966610305,-0.8502527783358471,-0.38740991540434155,1.4174859667880764,1.9998470918793623,1.0658670710656382,1.0228950251079558,1.322619796346959,-1.5633211180008812,1.9544891014245023,-0.6872209025656164,-0.23904755845205994,-1.3444450013632099,-1.9376074457230081,1.0470456392392236,1.4866101914082384,-1.7975634152721867,-1.9784555396933792,-1.921553074433398,0.11483413247786523,1.6526456728470333,0.36787033091990695,0.20631092261092432,-0.28521779687627324,-1.144740067588478,-1.843106810493524,-1.2268947885723973,1.530633781672587,-1.4451656603544207,-1.9002332245821747,0.21387420568800142,1.6694420488645068,1.713904373150843,-0.2721188507019945,-1.2061382678154797,-1.4749454860338647,-0.3418764659740541,-0.473344976681616,1.2055546542984281,1.1312924318928617,-1.3575213809767885,1.2885437472233634,-1.0741127415079137,0.2958294738149161,0.16491312569045746,-1.7900153500995661,0.8879662036715592,1.3303290485597579,0.18730081031374723,-1.6919648097215307,0.971833188419978,-0.7248782411056904,1.4849106320592194,1.1500063826619265,0.5150789612159064,1.8402749433749608,0.19340559449551398,0.18921154541963547,0.4819900322737518,-0.09081858468886761,-0.15268656401832947,-0.2662417825143826,-0.30659469811400175,0.21311653975944855,-0.17393889236143645,0.8858835269715275,1.0317284538468572,1.7417730483241889,-0.168617374557968,0.39598208051650907,-0.7972648853592803,-0.03754879900981978,-1.9470622929331731,-0.056377691133091545,-1.393082357139388,1.7486467983157734,1.9602217656008252,1.6775060094828529,-1.6803783391732146,1.3002256364479616,0.24805733871584623,-1.6438631053419628,0.7885571882601186,1.839089247265778,-1.5085474600772,0.965399384248304,-0.8448390788556277,-0.903239511778978,1.2511357644318162,-1.6695880609020626,1.5387292604202392,-0.7832329978989176,0.6496743616910141,0.06928766425602895,1.0454136536404532,1.1834551434320728,-1.9109155967449967,-1.7683563100376443,0.3964454068253116,1.9479339025357327,-1.5923888700070559,1.2077485449929162,0.9323946088470283,-0.32750183672477906,-0.10380234005104416,-1.3461884661461707,-0.8299668354166587,-0.12737234089393423,-0.5063399386309393,1.6996245324951738,-0.4126871079070842,0.907217641502613,0.7086509097174396,-1.7600526936443757,-1.2930577656733542,-0.8880236993498838,-1.4369511375355963,0.7386074218764911,-1.2708522267029112,0.9813327595056891,1.3438696188016084,0.1394793247908206,-0.15974085306757368,-0.8927589400367433,0.7555574978870165,-1.569703834201226,-0.2513009686513321,-0.2695131671138937,1.3645457684970737,0.8590076989452595,-0.8890211046068579,-1.2593730007413164,-1.3832288956216567,-0.5341891815578252,-0.05206648649397705,-0.2900251391251105,0.37087241969145435,-0.24224782845316284,-1.5017622189237567,0.03134843490763828,0.9768490182092506,-0.6190386542668764,-0.8951114426400233,0.15979655431414308,1.881205550073617,0.651932646320565,-0.8423053731058836,0.9084236420175542,0.4951401619612672,-0.47471020771002337,-1.6398061912011048,-0.22195689177180178,0.6518590342653057,0.5398737661837196,0.5916483234177954,1.2686882043665326,0.43558233457621176,-0.09325354605259273,1.6314775159080406,-0.6736482961538663,0.18161537767256553,0.018793881885041053,1.9983646268691682,-0.38583778971405813,-0.7845045999602345,0.2834837079462762,-1.9671246939748732,-0.000955841135701796,0.3042704675536747,1.3715763427242056,1.121752384643778,1.96327563016249,0.6767010089522962,-1.9329176361829123,0.07588165288779614,-0.6444574414298518,-0.8544447997895848,1.4469776054150456,-0.46795936552360207,-1.275448904466308,0.4311399215316878,-0.5481808890965958,1.406620267570175,0.3216989533026129,1.9470746815078037,1.092457053972708,0.14268579775266632,1.8186070488868635,-0.04039140967363375,-0.2672431055216249,-1.0901286554922192,1.6149239710341252,-1.3177913128470995,-1.2455822965855847,0.4676344831063064,-1.139414076879484,1.0640158691100923,1.6911202136140022,-1.1871431049956058,1.8958531519472004,1.1696750065825081,0.6948837302961341,1.7865790380818733,0.46075749151170564,-0.36712249232462035,-1.7209230665391617,-1.7009074478565234,0.5997295504705558,-0.08943173309569064,1.518461568921261,0.5194902558054464,0.5129246046780511,-0.940848803167273,0.2514200405301956,0.49214394217849877,0.8513605969038105,0.717006949391358,1.098174131051893,1.5646957770578038,-1.39168184895076,1.2985372782005875,0.5734187974617675,0.22933774515232974,-1.3870453086766168,-0.8960367953342327,-1.4527591620331082,0.50488548997911,-1.228975718801907,0.5212496599835381,-1.6474647348422948,0.13372908878785195,-0.982246523846769,-0.7993968830770246,-0.1468302746265282,-0.6307494704725447,1.5546815385271682,-0.40494940154802306,0.7957127234550678,0.6796947507979181,0.04289559815407307,1.8679892180305595,-1.0788008576220016,-1.9527200786203398,-0.27274093433889,-1.6184189931766069,-0.4383782118724455,-0.18470005169932113,-0.17770474331232222,0.8151167846201872,-0.5695385584368684,-1.1365724199473122,0.9571229101441565,-0.8128265375585473,0.5292829684519313,-0.7359655678880719,-0.2538354863316181,-0.5801359692003598,1.0234242200367283,0.2638823332515883,0.10187990238001499,0.08383015264631943,1.689524078489188,-1.6349303050879156,-1.5719673056884664,1.240533938645597,0.3259146506796178,-0.7175281805143019,0.3304271082122874,-1.4756195261634066,-0.7441980662992744,1.9008021435546785,-1.466212293245969,-0.035601445653649755,0.4775703532890523,-0.6431367077023009,0.019243725010803736,-0.8013932604577434,0.9706848679445876,-0.8027374463138153,1.4529141228288545,1.8103151978011596,-1.6446163669011526,-0.893062314903645,-0.25569675391783253,-1.148911878826679,1.4419247491449845,-1.6855397710676394,-1.2721186292497024,1.058381222500171,-1.7407378819111168,-1.0403257532355301,-1.097414974434579,-0.7566752601887226,0.4163370783851823,-1.2473631449699338,-1.828665039222825,0.6391467465334966,-1.4529197913896028,0.5765786719203354,-1.1367223031616764,0.7750884202581259,-1.1176578076383326,-0.02456215714496901,-1.4527687188823681,1.311458666423663,-1.820402455569261,0.2587592101315015,0.5563394054588513,0.18758301323836246,1.7894730589120997,-1.2033889551027035,1.3262836481807363,0.5232253778092648,0.5041799192291805,1.4160034433945912,0.8731919645423405,-1.8178197535348284,0.751682029553947,0.7168566072370255,0.9360695387583684,-0.3720419630730789,0.7145318572320511,1.7686938866525574,-1.6931723369270077,-0.3000370401661727,1.2222505235014078,-1.5682185117526317,0.7613251791405098,1.6986333445511295,-0.22668070809022423,1.3112049202631235,1.3851736458261183,0.3398952359017735,-0.24594753743318742,-1.9083946749454141,-0.6578641489752535,1.542651177244585,0.24210222212879007,1.718943080836398,1.283137695324661,-1.8628915896709213,0.9775266520854902,0.4568117249597856,1.2856105760872074,0.7706479175884327,-1.5936414955697344,-1.9584455205138704,-0.7273645999131948,1.475621960663744,0.7753620105554884,1.6227572266204153,-1.9445296092916924,-0.6636405020998812,-1.0618792254168379,0.6921173254343986,-1.6322592865135501,-1.6516620699315139,0.780268944434285,0.012098562495292065,-1.3900541717638006,-1.250852150529064,1.109091626628592,1.7873738270084263,-1.8709044435301196,0.1746749027404877,1.7791596858553116,1.129237503083385,0.2820879661154758,1.5394442879472008,1.2978267207254874,0.9023156079739474,-1.127606480809845,-1.3327977260132666,-1.652007155616725,-1.9985087648096496,-0.8002946606250512,1.3717721992125815,1.8532870111348578,-1.5596584593956426,0.05209342330213751,-0.9494699159508881,1.2336940722558412,-0.0880197647720613,-0.38000296739394956,1.2462507158320388,-0.6935873075264576,0.7181190047954509,-0.7724426700625511,1.9782583381377061,0.6463716612055896,1.1640366367599575,-0.45179470923262244,-1.8924743200626537,-0.07333035076463368,-0.17046814174883984,-1.2599200625654365,1.7041525777160467,-1.4120468567102695,1.7220236203622186,0.027576089688932548,1.5205019960455664,-1.7025536727619248,0.035134803785505486,1.566297656862794,1.3374007933623067,1.722002134707271,-0.9052468004163909,1.8510639812160994,-1.1414266151022954,1.7977412278348832,1.2575421990551572,-1.46566390427934,-0.7976783325328372,1.312642629840349,0.390344699747867,-0.7457085583244232,1.5924470239537682,1.7571147012576378,-0.20094138700315023,0.3179186290521825,-1.3172594488180298,-1.7348000838795312,1.2103395373834838,-0.9674216737440164,-1.9687814915290067,-0.517166623650867,-0.03535260491141745,1.3513730554173682,0.06883016716459656,-0.02859896220347169,-0.4734859903708668,-1.101062235818865,-1.147221705967322,0.7514738124442975,0.8093591601725625,-1.7221209421785089,0.4811041429938423,-0.49914981975948614,-0.22463209021101038,1.2691001262847212,-0.5080100658743869,1.2682583030876597,-0.5458321514876605,1.9039562438898927,-0.07725562499182947,1.4988655159196709,0.9928187956546735,-1.4505400915171949,-0.2656750947103368,-1.9383373521186802,1.662899674384486,-1.831616291252736,1.8558701325285685,-1.4636570828761553,1.8676575856149507,1.119754509896588,1.4623186997479882,-0.6218735706020064,1.1180246393777686,-0.7121381040193935,-0.6377810275955658,-0.03831200251323308,-1.7174074916226139,-0.7598689099624791,1.3421253278626764,-1.15730461729465,-0.9263207425151823,-1.7070090339384612,0.9123562721047733,-0.20503087733787417,1.0507000022298874,1.3972219429297281,1.1689175612386329,-1.7914816345395606,-0.9495247417090913,-1.10208103888273,0.6246050152887346,-0.3085034432979783,0.8369675300734447,-0.9881211393238964,1.3694731738336454,-0.49445336750310576,-0.33683171863739236,1.7084848463811126,1.3068318599608708,0.6396041751675168,1.4200262394956606,-0.7166784470651302,-0.1511283932811316,-0.1895346964268816,0.4829481151136661,1.8987626111243707,1.7287552195110463,-0.7354763471092016,0.1541771599293824,0.3226995139449622,-0.4253145759161048,0.40593051419125503,0.6884827258322948,-0.8765236914778347,0.7733316315297505,-1.5518841588163368,-1.9869825354293336,1.493993922397281,-0.09414992692225255,-1.2828040665815061,-1.9910728503400708,1.4487691346049467,0.1498788799520363,1.288848686035406,0.3789985020066604,-1.7754786554147972,0.9994797780474749,-0.06696258332030114,-0.9729009579383554,0.5985482889008811,-0.4431007505542688,1.6228236421858968,-0.8502204402748306,0.3142791483746592,1.7842096669436267,-0.538665094775542,0.700956094191771,0.9458903755739274,-0.9088932067820608,0.1540558305813331,-0.7849343207503945,1.5512030638161036,1.18227911077711,-0.5805138459051258,0.35697052923075834,0.8916531797293032,-0.18259545971157642,-0.10930226161140011,0.5113670978975868,-0.0014694593166053593,0.6017661875585083,0.21817950427334942,0.07797051259904375,-0.21887699564723873,-0.6919979018932811,-1.0774128591419943,1.30533180119185,1.23955742842892,1.552819296327399,-1.8067014415362155,1.9912492563384383,-1.175354138541532,-1.7502307674563808,0.5988891890913024,0.7005918933545563,-0.5635400894064473,-1.5430638625397948,-1.034909284999825,-1.2582756883118202,-1.704598411984001,0.029814382498652314,-0.6325090539398395,-0.5911347469481592,-1.3644522822841414,1.3407426436833951,-0.3434821077620476,1.9096529149086985,-0.09379877909518619,-0.8875102201753733,0.7186733045079392,1.1370421107451536,-0.9945184010655699,-0.3922824316632507,1.0340777180976892,-0.39312317305745204,-0.34612695017630557,0.11494456119400143,1.5228957623436354,-1.5660338622409173,1.8062051618438977,-1.8702016785944502,1.708217061695613,0.4558846089014743,-1.8746228768777846,-0.16604510538962236,-0.16715954138345834,-1.0168003645069463,-1.1148308459090561,0.2383247006977105,0.6040045858485947,0.46422328448217165,-1.7603867119423993,-1.630091882992593,-1.43964217946235,-0.8848118248602055,-0.4903718737983409,1.7969902119282168,-1.696690106681928,-1.5157351013603297,1.5535924679352764,1.4038091881710582,-1.2430720187209001,-1.5722099165071666,1.0156571947555424,1.7485024200100843,0.6957185504200667,1.590247082278522,0.33721684542514785,1.0620587829797787,0.14826754420199872,1.5099070368453504,-1.331413408079063,0.6547889821797033,0.4839348794237579,1.6197184244397036,1.3902791816032098,-1.7312937542363342,-0.17465733126487315,1.9427116572550642,0.18471904869001632,-1.35800842188479,0.5294040848658605,0.11437118862148132,0.3117811238763606,1.831167398309339,1.943307750082759,0.1453679071295837,-0.33169046284537274,-0.2664483374588609,0.691514440360856,-0.8764353229700443,1.8312802121150424,-1.6138762112462297,-0.7365358609162849,1.4377487671077542,0.14125371673750697,-0.7924221376568532,-1.4204342023826566,0.07086655409595277,-1.5649754497596784,-1.3387681542128917,-1.0272516266807918,0.861195549386327,0.4604218562767164,0.20215792994164694,1.140422710921381,-0.3556059117591457,-1.2153330436913614,-0.12027229040710008,-1.7477665679869743,-1.5025290049096798,1.0425901591307905,-1.8118761531259828,-1.571722324180374,0.4996387045345183,-1.1538859083832933,0.9692465581821335,-0.2853336187569986,-0.2758431523214808,-0.26504893527947315,1.1561545021838069,0.8879165918483576,-1.3919577418759634,-1.3657027292214488,1.5630071513718238,-0.2011080885524965,-1.3246307116173432,0.5862971677092395,-0.6211482170560512,1.103783325811602,1.548525080363964,-1.1384337740964314,0.537594910503024,1.1997678783955958,1.8937611850215652,-1.8666966971583094,-1.469306882569306,-1.8883492825224875,0.23186474365192655,-0.6100752366138713,0.7982832287702206,-0.433237040326234,-0.811441410122173,1.0222010648763988,-1.9830784728998476,-1.7375531273189457,-0.8753241543586063,-1.9224477146148748,-0.5655947105829973,1.5365915458207144,1.5317887874023945,1.7425798671232529,-0.13208880220468533,1.308270717409604,0.9807073921745117,0.21895762064657998,0.8802780760305091,-1.989120435736225,-0.6511240517734604,1.146685836935235,-0.10924872386474815,-1.152284680685867,1.1302641270907157,-1.3537004865591742,-0.7207898240343171,0.8022909370342779,1.7665448360951546,-0.8985021714210903,-0.12238479613322273,-1.6141220412486192,0.5696143200509969,-0.8916962260015038,-1.5355589208584708,1.4197040811343906,-1.2432566101462261,0.6456199532933158,1.440065146644986,1.2500616015142865,-1.6339959258066128,-0.20070424386249108,1.1313684805345186,-0.8490801009193163,0.6275477532590195,-0.3573342021618471,-1.7317395560395723,1.704534197479882,-0.3690641405153605,-1.5104066450019276,0.6790429812600625,0.5677819941910589,-0.6509969432895661,-1.336172210615004,0.6419834508334739,-1.0055765939902792,-1.4048467747776412,0.4211470513784814,0.7185062788522152,-1.4567151116789359,0.8989451288078407,1.5444020340813025,-0.990867649778929,1.9388810279280624,-1.493732001841754,-0.6251587673291867,0.9258579893889456,-1.7066353997796764,-0.224826008803376,-1.467873371716923,-1.754980516505908,1.6415488309847857,-1.5797213916538198,1.1342248130067936,0.41873542391693475,0.6433598770265769,1.4976129315734807,0.8371721298802415,-1.8991538464005098,1.3545401901874508,-1.8272693627413026,1.2971304270400283,1.7279084047601359,-1.7838215001967241,0.5327518673925917,0.6148475411749983,0.6062535448356194,-0.3257522967149349,-0.7572444536060687,0.6351436294163602,-1.0258335364390727,0.4694820804529005,-1.71190206401086,1.2958443302146572,-0.5220062341211635,-0.2277361985518267,0.2631092306404117,-1.3406966399189573,1.693368236232089,-0.3827651209796987,0.42593389864466147,-1.4808525548519111,-1.0293701098525108,1.6550341014170615,-1.7095848696812626,-0.6986658272252204,-0.8379452034353752,-1.268623030902667,0.5632645707521369,1.2819702585075197,-0.7262392400888937,-1.6303393640521588,1.669461224861526,-0.7683613917456991,-0.5193783001510934,0.657373863468854,1.1876424659422713,-1.872100156863553,1.81065750701097,0.42388438565005115,-0.13620784454286605,0.2806034548274865,1.10751605966068,-0.009184591384423069,1.0281027461976922,0.6053562063056828,-0.15494260737858445,-1.4095477850688831,-0.6344474394193536,1.9050503982764688,-0.720600285306455,1.1934446668968963,-1.2193559522153214,-1.1559521993249366,-0.18261856529322218,1.8298145011799085,1.7781453695873477,-1.7932820670731888,-0.1876079034498206,0.8511123270365797,0.18590197795485564,1.687768738953047,-0.6443036075386752,0.7964115803426344,1.752724180203196,-0.5790620200090455,0.9169837052658774,1.5033224915153403,-1.0561936091836852,-0.019709450486735225,-0.35006904597652033,1.3759840239602719,1.2361202456784488,-1.3535696461983782,-1.3993670643174663,-1.9567278147961646,-0.9446174225380113,1.2089024817883196,-1.498882488914015,1.8334722588999126,-1.1576459629348643,-0.21687939925096522,0.3759810132744401,-1.9040800811176495,-1.6050530798113916,-1.940890484230208,1.7408170580504225,-0.9012483826847792,1.610948212250976,-1.2910813275133988,-0.30804129661975743,1.3103847167409977,1.8345683448812555,0.44427942602967274,0.7881536929167718,0.4979631053271989,1.1494677086661729,1.8157804151548356,0.15844113412900684,-1.7520948035712247,-0.48312971445626296,0.27983416981986986,0.21220046466472509,1.4454343082609564,0.2644602489328016,-0.09262366680718426,-0.03773610062754473,0.3122616039379542,1.9352357645917273,-1.6450448708960081,-0.9034737674451088,0.2551970480046748,0.8710387033205795,0.4718967695663263,0.07136944817149882,0.7092502079663046,-0.24378077777174267,0.7085868430832956,-1.3230160799208055,1.9072236875345516,1.0142148186128521,-1.0537871604172562,1.415968595558276,-1.224528674831098,0.5717968690003454,0.8355374310090089,-0.10188683765092055,-0.06337740112754764,1.3041843079366306,1.8917165048269178,-0.16416866172666023,-0.0809649804135315,-0.6815410725276205,1.2916846939691133,-0.44447465406903097,-1.5431345644833896,-1.4646345569816042,-1.2450334011681194,0.14794657373300613,1.460229738670106,0.015196774278888547,1.878953843285815,0.028663094945995837,-0.7779302410161169,-0.6700416116901198,1.226969882296098,-0.19623329223852526,0.0727334500422705,-0.21463297272971493,-1.5477768376577394,1.7069437782944359,-0.27042710543602144,0.8910071540942295,0.5923644388046387,-1.2897249280164682,0.6564993613185934,-0.3459028310855121,-0.7137348248335247,1.4967911751060852,-0.8506352154771708,0.7719889479170425,-1.9502466309799051,0.8625109187329922,1.1713189522256933,0.366574140084984,-1.3769989740340924,-0.3718970263853656,-1.4645528342861005,1.9179169941072263,0.8944330559105071,0.9479869194712198,0.5793042253105289,1.6109275837715566,0.4736082564351447,-0.17863594119031356,0.5608605721352209,1.121921887303154,-0.7729147947217117,-0.874203495469029,-0.03597842119216077,0.3957462690983249,0.32912497981649835,-1.0558570394036102,1.0918107264980934,1.2155986214748467,-1.9397968204901113,1.9590739914539506,1.8669754251277668,-0.554439754393329,-1.403723800829308,-0.2952833350593025,0.320418028655685,1.1649813265101856,1.1279212515884516,-0.5903363898396607,-1.5091805716278404,-1.0191302415667516,1.5265735587746239,1.6380498709574822,-1.0427103886383513,1.8618395307505349,-1.3011557987865143,0.5732014229879936,-0.3319667250183791,0.7622188992985359,-1.5895797668654703,0.10439531204681263,0.5318781419912813,-0.7325604167809789,-1.4732642460088279,0.3490145007548251,0.49316466214550614,0.4245920965848802,-0.4959742692590732,-1.6076171583350543,0.0970873626183848,-0.2355664496856833,-1.2212488648410567,-0.9879806461661338,-0.1598345744245715,1.117386798135278,-1.116800409513457,-0.7301658450170074,1.9596297153830307,-1.3794372237300232,0.4517597708423078,-1.6060475480125858,1.6107467669408737,-0.6045040257028655,-0.5168984853222676,1.6812435057513446,1.3360641914665385,-1.3747502460134227,1.4716929080861365,1.7295891987797871,-1.5253897515863755,-1.5969253716537248,0.6842516317915766,-1.8417254451433966,0.4017925248875782,1.5049199475680006,0.5798713527955703,-0.20996471547051243,-1.577609458665182,1.134599638990819,1.97149585393641,1.0232053102203609,0.05649818716305077,1.9981437507569502,0.6098538718398161,1.7535216108173564,0.5683859925066939,-1.945936750566121,0.12611412187174054,-0.37901872025558836,0.4223475347945249,0.9413485659856033,0.9045903956308807,-1.0565638215962756,-1.3602963403524853,-0.17655751010644094,-1.929919213632337,1.4201422470497538,-1.7599255978908181,-0.3205977353768552,-1.3746905889105565,1.8053095926727805,0.16882512749291045,1.2515471269816656,-0.9258403762920602,-1.6317880011248977,-1.475800880877387,0.580093273062463,0.5760762932040548,0.5738135166030576,-1.0898801869172492,-0.19096300435238955,-0.7077475829437927,1.6951117558232216,1.024556048271004,1.4165767496258401,1.758447992919391,-0.25584234594884503,-0.7029236876288705,-0.8091734590812716,-0.9972674589129471,1.5200584695018176,0.938750378366624,-1.307847544400833,-1.133286815036902,-0.9615107452861764,0.07696438176601683,-0.06272552653419927,-1.6145505979628672,-0.9987959120014218,1.8206367028315937,-0.9580094995089263,1.1417367086671004,-1.2212856664802922,-0.45529274579585977,1.1882716417519337,0.592078298843508,0.746787555500859,0.6589933872442684,-1.743517763631007,1.8587443831228811,-1.5843625116773907,-0.3852225106985889,0.6454921111739242,1.462522242551839,1.0238456591783773,0.4398783797892021,0.19766483016050174,1.954688941016569,-1.288696483718645,1.4508551509217469,1.34107202627369,0.3497277523877944,-1.9535987560354364,-0.13339166027402793,1.0231153261032695,1.5981525676496209,1.4222249051457454,1.3334063329483419,1.5713002940200602,1.9789591284192087,-0.2624876886198053,1.6186183570537604,-0.9277238967222226,0.23587727775129386,0.5184254200134104,1.9017030819610814,-0.19101124624708277,-1.8840641261552382,0.8164176982798623,0.05084998360799897,0.6935255743925723,-0.7442813561132091,1.301745694226622,-1.707742639563294,0.4608529774974621,-0.2208221582196379,-0.5836854437400141,1.8088467951333551,-1.8078638970429046,1.51116680148318,1.7296219334746867,-1.0246480471666155,-0.5403820943375299,0.3228263195664285,0.3043074179989973,-1.6554732518850699,-0.28769497159295065,0.24008825539315426,1.1507207100436738,-0.4668668299874823,-1.3977576720031988,1.865907134606565,0.44796478188456534,0.8088813915479625,-0.030299341125895385,1.199858901496111,0.861987689640682,-1.904222621726916,-1.354914040959478,0.5994486008941253,-0.8700789014164054,0.590509393177737,0.9552936811346111,-1.9249323257898396,1.9468502686221245,-1.58398226726192,1.2748899694947182,0.9777134155098102,1.1623391882895913,0.7491982469523051,0.6043179007954453,-1.8426014249910607,0.6326694868533047,1.6701650890177882,1.3695368265629724,-0.566148028883454,-1.1464505404412955,0.8936997137852689,1.827018768379077,-0.8733639084086802,1.1575822553444617,-0.26834892294782753,-0.6729743692769294,1.1119919245651793,1.9368664218805782,-0.004753808673954474,1.659612271635655,-1.4272071552985768,-1.696761635301601,1.547613553264311,1.4083419088337013,-1.143393557408538,0.2686263347283466,-1.3757094399029057,0.8807357245320979,-0.8759769857603565,0.30828478788263114,-1.2888682522559045,0.6462127315072412,0.307537438982338,-0.252734070004061,1.8732087198453606,-1.6440339224975253,-0.8605612356758527,-0.9123596424045952,1.736552356434029,0.5110981953264799,-0.5883106085966316,-1.594960596511628,-1.6279929742872628,-1.0970884147044777,1.867213684515363,-1.0890451081642447,1.0689268149339952,1.095672408750807,-1.4998394945616895,-0.08071305619786573,1.8459855672499001,1.4188289201427748,1.5332828434715595,-1.440181436715089,0.7144232896100413,-0.4415350840932373,-1.6909278344300116,1.5106781253192039,-0.048127078984251614,-0.7281272463884787,-1.1949429343944775,-0.7001012767030028,1.563804260179205,0.4297660548259663,-1.9157197922808518,0.4607598100733252,1.543141752546537,-1.9105864245219517,-1.340743877530901,1.716103608906883,-0.9936282477537635,0.4822310255836926,1.8905146917706968,1.3099037596928236,1.5528259327707818,1.4005552466183375,0.9007197762950052,1.61418438777276,-0.5547641540897561,1.582354652323951,-1.0864293051281688,1.7412518787585598,-1.8216147765842359,1.3100541662975878,0.603746782478976,0.3428926839940627,-1.7409505311927203,-1.7428157524476386,1.0655975247515177,-0.5987781784497939,1.8830141355377967,0.9624184731644592,1.383424595324036,-1.2442070689835152,1.2247415823195147,-1.7266320259830543,-0.4182647191776758,-1.2503025390719888,-1.2634726003446972,0.6797353625601654,0.385059227913469,-1.0287260182279105,1.3803280270458886,-1.2117332893120598,0.44907655323440165,0.6754308683030432,-1.3769461661754194,0.9445068430627517,0.5382405058269231,1.8692754925919965,-0.36816601886620504,-0.8214291000873231,1.3035535940697627,-1.3291128179525056,-0.8375161038335319,0.4300591932823745,1.3051402077388174,-0.9082653050011467,0.42098175243912594,0.4426468647414956,0.8472365745426784,-0.81460531091188,-0.03319335084740693,-0.43917962368803654,0.15702181672316273,-0.6260669275766322,1.6340735956974348,1.3624522717737655,-0.34916032247069273,-0.9965498589755719,-1.772121236150113,0.8590391553789791,0.47671562514974,0.22593569079187636,0.9171353929445529,0.7837534244694373,0.9241432399911877,1.2166962345997834,1.6508192090757476,1.7254835026516502,-1.109215787493834,0.680699315716299,-0.27259188509718024,0.7136009011022337,-0.5505023085504277,-0.09212437732477463,1.2002648603579624,0.9835893490044705,-1.4171188018909868,0.3527889363671477,1.94207651354405,-1.735010200623428,0.8592714389025207,-0.8842592511839649,-0.5667714927407608,0.06743446597102531,1.7186042276680267,0.047693200407171954,-1.7332673967360166,-0.05105843435366575,0.7879935468741537,1.8486905678221435,-0.2994506772855563,0.7712758047017334,1.89940219651377,1.1162900170009742,0.23808745475294213,1.9387250690855886,1.252360599464943,0.7417347592131986,-0.24499119895685473,-0.44475297032220684,0.28939869339495417,-1.454534825968556,-0.012965294525652205,0.8407040398321799,0.9378180890660075,-0.0248257267898202,-1.0345677149271686,0.6086108014323388,1.7715031565677117,-0.12852695101105693,1.53306125353887,0.97265823930978,-1.2486465455149922,0.13263957043041685,1.503840878860045,1.7435976716343196,1.627438293236871,-1.2697571658652271,-1.1011992257174237,-0.9614156156592291,-1.166233395260455,-0.9056758005728796,-0.6850300695899647,0.7839847561775453,0.9927775662471605,0.7822740883902997,-0.7341341933953305,-0.42831545867475374,-0.7174258150277582,1.9864404527143305,-1.0555561775643314,-0.19847030670477173,0.6229272406390871,1.5042645833966573,-0.8372563007191349,0.5778793187218589,-1.5056715188009435,-1.211302983004718,-1.4034559694660294,1.1127408823297786,0.6937364925760439,-0.5414803719190315,-1.9815722474602793,-0.27564809140257784,1.6698326184328205,0.12090239359990695,-1.7047696303446838,1.9589844077070722,-0.6506354524453286,0.44613953549739715,-1.2096608767752137,-0.8271637934658855,0.3667541947672581,-1.861481217905359,-1.2761042408824217,-0.6074600111456969,0.29930280293006817,-1.2422341940075774,-1.8746470404425435,1.1028593153807975,0.9550535240160896,-0.6501049755244623,1.518894821945036,-1.646684615546656,1.9183449055678352,-1.6269320281403403,-0.23633783253829233,-1.571853391695766,-0.0007223320770641806,-0.4044896316654438,-1.357689950020593,1.5783216299572418,-1.018185824812896,1.8551674131082097,1.2088012245847133,-0.7313884039576806,-0.3400816131051352,0.45667886913022926,1.4478469439766481,0.9810409405526288,0.2565750088095502,0.0072904247758303065,0.011692025828643704,0.7483469315483067,0.19049235504065232,0.20831164520644663,1.073125118525156,0.3832355710574955,0.054512306119538056,-0.8360949623468605,-0.2697003378912717,1.9380168670004774,0.6349861138031159,-0.006805629199706953,1.8371231863877733,1.153240202305689,-1.6851511579809264,-0.5248387297085859,-1.6798627610395087,-0.8023875383542527,-1.8054199990170634,0.03854745806712012,1.7135862028046809,-0.01412024157956182,-0.9935852268650152,0.44817241883345504,-1.9855582813143173,-1.609618343107269,0.4922142217924965,1.0258020471005116,-1.690706919332456,-0.7783165662219629,-0.5711436751979466,-1.512497947706477,-1.254540958664533,1.1327409709356573,0.7582106637839199,0.6007987496812919,-0.012214013077221253,0.06694889833241069,0.7880798898872268,1.1386858799204957,-1.5404273586515425,1.244749010239972,-1.655083046728031,0.2748518240935738,-0.7813303122652822,-0.6253755320919199,0.08951416176485738,-0.24550213742520555,1.7760587769115572,-1.8639862571224866,1.7824365372669453,-0.9433885649046538,-0.4161577520453461,1.397760870618248,-1.6641622165542,1.0418022348088427,-1.5853621077263118,-0.6222605499077138,-0.6103543162115757,-1.2775662744925356,0.04943127256595048,1.8683053086743189,-0.49137067188769556,1.981735273574035,0.6089353378133762,-1.0670222937323066,1.1232670534858409,0.7549999231656339,0.6367399563261911,0.745316636314096,-1.7404978251698942,-1.4420682921851582,-1.6510694840159195,0.6543417339735855,-0.000605240921306649,0.27296374128796996,-1.0242219832891228,-1.0620590378523023,-0.5943969358833745,0.5028883144921474,-1.2973732353217784,0.09481941141289774,0.7233037092282286,-1.4341555901976495,-1.7584502628456287,-0.3603993428700276,1.1141498938787646,-1.2809470980364264,0.5122067139910658,0.5625904481216306,1.7580463320004465,0.903639019526632,-1.9565988463466066,-0.03753359603256845,-1.2478379471941006,1.2309196520474504,-0.30467867826918615,0.565664621135658,-0.6300211565866842,1.89566516646163,0.6880379012235678,-0.6005198875724793,-0.611773705179548,1.5456813637565325,1.9374297281131705,1.3892929639446656,1.0996667237054294,0.6404944073432621,-0.9751786816566237,1.0205888398067455,1.0138271376527501,-0.1494505729122122,0.5805760917738017,0.4373264542065547,-0.19753560102473555,1.318687160531793,-1.9863798829178032,1.035615616451219,-0.9121015035180489,0.815640182052412,-0.7825709406622638,-0.8377456325543076,-1.2394843744647912,-1.9620547575184593,0.048756985967526756,-1.9228907585738435,-1.6296523518952646,1.2986083658575596,-0.5210217350116606,-0.3286124887211592,-1.648608970187412,1.644899949260517,0.4103451125865325,0.583753242753505,-1.1221083708225938,1.175017718278454,1.114867799335626,-0.031325060608554,0.2726842595081611,-1.3761293853910024,-1.0319877605856749,-0.1419445616012429,1.3837107547936318,-0.4207196229670802,0.9206403667762908,-0.7436552812887265,-0.6799453227039565,-0.03759214625896945,-0.3003913241152647,-1.6853315171630623,-1.1378781196780383,1.958943877786424,0.19270645005395926,0.7022614435152197,-0.7398563824929494,-0.325389830131543,-0.9836435810232667,-1.2693679690976403,1.8567346898580848,0.30435615198957544,-0.9392196521656984,-1.421035642632805,-1.7576034394693796,0.0907093827107528,-0.23234772177074392,1.939105139142614,-0.6546159562190197,-1.2753167700298031,1.2313872958683856,-0.34918499225663746,-0.022006221414423432,-1.6806100507045953,0.6587788659919096,1.0990525564005291,0.5094462460883289,-0.34514257645906943,-1.7677790947067535,-1.246246554553521,-0.3355520248395445,-0.8741661855159837,0.42437271866962645,1.695433553138305,-1.3110760168654072,0.4653032142603899,-0.5175606543190066,-1.9276411580944166,-0.7054314068564329,0.8818654912894339,0.5333637346497944,-0.5254317153931636,0.8682840472441282,0.21474224637372563,-1.0002258306750158,-0.41986711705746105,0.4522823612540985,1.3938154252752661,1.598013746719717,1.5041664283710503,1.2811921261418746,-1.2017145547163484,-0.257583701267305,-1.063189462618852,0.5877407770740053,-1.08857508957374,-1.205832463871067,-1.525105585355762,-0.8558100522603405,1.4207308963733034,0.14893827030121587,-0.7684631422807717,1.7779767142878393,-0.6127679019308272,0.1968178965208902,0.9382537085533338,-1.1471165465463207,1.3469085131337466,1.9216266438883913,0.44596622228258465,0.5310466835289871,-1.6916121976649006,-0.02238749716250421,1.7854200574663222,-0.7891124297189283,-0.5497148782150405,-1.2386907515765309,-0.34263386070905755,1.9214576865789788,1.9752252824230152,1.8904199474992152,-0.18747661020424777,0.47134417080409863,1.1728706120933605,1.8194808416082378,1.5575308933560743,1.1138640024464475,1.3444806168173482,-1.3981052768541917,-0.17892056377372612,1.8220028054242694,-1.986901702497478,0.3222346881230149,1.314387393478413,-0.5643700785661849,1.1512382942828703,-1.0458496062187153,1.4362111867072573,-0.5046488003929066,1.4194003418865382,0.7225753829764159,1.3657194476492882,-1.1871369622700616,1.3768467172710115,0.5738463546013008,-0.1984467212074983,0.6337569072700253,0.6821884400204419,0.24472953270584474,-0.5745155349554247,-1.8543825125676112,-0.2523454660161022,-0.30602034882460405,-1.6242982116977571,-0.285836375227718,-1.1770793899109755,1.1179458200856858,-1.5299154517411462,1.6125096510970112,1.5784153558166696,0.8211596232947818,-0.9178156310763557,1.5744098660671417,0.5973267354152441,-1.236276535128932,0.9084324102413408,0.017042080445873076,0.8126042559981066,0.9367535545855579,-1.6573289416150971,0.57507031495649,-0.042533142011252245,-1.4818470278584246,1.5211995938870184,1.2137321945583248,-0.3783724092377607,1.1962902669489823,-1.253968111995455,1.7242043612307811,0.02600131893594604,-1.5687924584929394,0.16312145928990818,-0.10432011750104841,1.3902050836211024,1.2477092373384346,-1.024160618040073,0.24203322315712672,-0.41909863816913173,0.7626282032546148,1.0281196149198601,0.7022860908787041,1.1967850184416586,1.4064718273691228,0.025182149575145196,0.5029660577962853,-0.5351099895873275,-0.7459387436823648,1.3301046239256076,0.8619017672797207,-0.21043815091189266,-1.2231077704827555,-0.8250248519194843,0.7381183254746801,-0.9803336008970476,-0.1821028054067848,-0.7434140563767637,-0.6628579461045927,1.35732226174159,-0.5380133516776917,-0.0036687064423261972,0.6698371001729106,1.4952706801857971,0.1490468282187316,-0.045962175692338736,0.9567215950398471,1.7598492378433512,1.3471691115580162,1.235743037528367,1.4592555362608088,1.4463583491858767,1.6049472672989347,-0.8614397536022125,-1.6367904045499713,0.08056911818937929,0.3419682295238884,0.22844108179686806,-1.4451717639500266,-0.41855468600877055,1.042049693810334,1.2211047240488604,0.3379442531274748,0.397041515065657,0.4313516575349352,1.427324078104415,-1.5135803954267013,-1.2856937558842954,-0.5978457509310777,-0.5473695063219988,1.9259194407898899,-1.9398246642727943,0.16780613200163597,1.580721639509342,-1.0085605782126912,0.3582572831502766,-1.7423043090395116,-0.9567954914816181,-1.2767180555645998,-1.305457157959692,-0.36682797952228485,-1.4301649285377276,-0.7819305605759621,0.12756500486575728,-1.7355776465012087,1.0742235481096771,0.34047177102529247,-0.7715017032177656,-1.807984330129722,1.4203063544054428,0.0466513549921026,-1.272007480596839,1.5864335035160666,0.04318679548958482,-0.9733679598187246,-1.8032219413465396,-0.8889998715325289,1.3928403328902106,0.6356813651208211,1.144314802936405,-0.7739073135737735,-1.0008629683318984,1.8163274342770355,-1.070212270774209,0.3117172575248741,0.17762712877475106,-0.41079722639987715,-0.7095197820691008,-1.6648528031705419,0.7234048936196631,0.4662905053074158,-1.9676657384367227,1.1610562516607175,-0.5609364436374635,1.879927488214356,-1.963503648755526,1.8803110590143381,1.23743371112458,0.027040196577237552,1.0846895794238445,-1.3054150570744913,1.0633186799363226,1.4188471258640267,-1.7024313083694702,-0.5021234471131137,-0.6784445748985415,1.162008400062009,1.221677834128554,0.36500828432288346,0.10533887087520721,1.1640889510429253,-1.1906632501421348,0.3091432717395679,-0.10993869149890978,1.3993570159235151,-0.05377489409022962,0.8233622553893718,0.4763686868611612,-1.340844934696214,-1.2434205606344673,0.9873154458734268,1.0046268153952855,-1.9520354711913837,1.1089509075173143,0.5236247752372245,-0.6487686461871949,1.7129122518658435,0.17053571297214765,-0.8159912600387846,0.6243556008945399,-0.5625811008918364,-0.8979872268665381,-1.8150358326318825,-1.6616575796778985,1.2395394454034352,0.46610023344176854,-1.829835685997927,-0.7041119651792043,0.8159031507095618,1.8496778742169235,-0.91572558519956,0.8910998216390138,-1.601591500811396,1.4372989895565227,1.6746616061139061,-0.39021662222902664,0.3847953931161987,-1.1510955295833223,-1.3221449844793298,-0.8047128357905611,1.8204922203803324,-1.615369731507191,-1.7845369030022926,1.4833764946423589,1.3791350486280227,0.0698699984714195,0.3621423823856804,1.8506509148376096,0.46879134620270957,-0.1600783145549003,1.898268505816643,-1.7211856389124596,-1.464065110000755,1.9511614799819998,0.306355268624082,1.7473218520557436,0.7510226451366857,-0.20038077313113556,0.2682841217139509,-0.6909886559953251,0.8765082735173744,1.572961653673289,-1.407684570684769,0.6492775385934753,1.0140765063771529,-0.2602035372377616,0.923677780798847,0.8613623631396496,0.5034631615892189,-0.8688280671165916,-0.011115461236946622,1.7210056351265326,0.16227728583501255,-1.0102306715478098,0.10632259966742819,-0.4458132884003052,-1.8658453955793224,0.3178994671857027,1.646317170158985,1.8582715616452217,-0.2600769133644807,0.13924206351963608,-0.5948538584077219,0.45733586337214227,1.593856618307957,1.608925988971336,0.9479294550054194,0.28271113771139245,-1.2183520394310432,-1.4049405705656302,-1.504647989990024,-1.5166741920534124,-1.8684024875869718,-1.570344025708577,1.4178015540221844,1.9948183427380406,-0.4020422058970574,0.9024690169239236,0.22350503658771226,1.06373549381986,-1.8795813399689925,-1.8671737268351154,-0.17482587435241204,1.8131536835871698,-0.9320335767625978,0.11462365304771804,0.9989731075988431,-1.049601822220236,-0.9127179167756339,0.4912777572993461,-1.1589859607663855,-1.759034437732832,-1.1925711378084802,1.6956058085494892,-0.1930928061812489,-1.3772667139068915,-0.4587250130968852,0.9042650688769718,0.3962442416931733,0.4317572075980469,0.5960328125630006,-0.08128009898215849,-1.702500139080998,-1.7953650380400221,-1.3996774593153778,-0.05972510559962263,-1.7863016677292336,-0.29439245460165075,-0.8480836827172054,-0.6902961412951605,-1.463738496314984,1.426998086964034,0.950173888459918,-0.39607570483326704,-1.8854559143874488,0.10728224869641556,-1.7837758122332095,-1.2901093395755239,-1.4976076477782114,0.24609543511377208,-0.026510122038152506,1.4971082692012314,1.9698391720552557,-0.4206470823620476,0.9070456792839909,1.5592944441592942,-1.2231374467272529,1.090496999929142,-0.6119479402404449,0.22394146481761812,-1.7771306873006463,-1.7778070972054447,1.9731466441668086,0.0445838109531973,-0.836184155713235,-0.12471949372968893,-0.21724287759651295,1.0010470382343373,1.00640732044921,-0.8337901399088294,0.977695893245722,-1.4368679418603505,-1.8554436464039608,-1.7806689426738536,1.7293633742630221,1.7449446213755184,0.7286382135929927,1.7704188582083993,0.8166168712371502,1.816516454227203,0.1747223607703523,-0.689104518424764,-1.809687783413895,-0.482322400468739,-0.17533526485490958,1.4269812082207967,-1.1379418523003086,-0.569594497503116,0.12345261000549268,-1.641344807201952,0.4518251228863548,-1.5976826187903508,-0.0385760963875339,-0.3461452569196033,-1.816812336612403,1.4407741525710223,-0.18814969132531623,1.6277094835022634,-0.3229385560820086,1.1844759102482199,1.3028012353731384,-1.1645863879393348,-0.31950074059455114,-1.1800355488461514,0.36901857391594994,1.2181674211847375,0.954896182732111,0.7964526263123783,0.9151990052957011,-0.8865951030120875,-1.5935985435857343,-0.7374618197221965,0.28748294353216597,0.9471350851603151,1.9588399045353122,-0.1834919596808109,-1.8289814761699756,-1.5717766310099783,0.16530738851219517,0.22874595679079945,-0.7025066699593849,0.13545191959887237,-0.8004192060052286,0.9158253844400681,1.453193486608844,-0.43228098513124147,0.813038695497923,0.36925022993487344,0.7869432556979459,1.614693426454095,-0.42317881702268423,-0.9035714936512886,-0.3083844959594897,-0.6138063862819405,-0.03492614823399842,-0.3247680928113934,-0.16205171378795447,0.6340398648771557,0.30817396414678955,0.6028932983742297,-1.9933053195283388,-1.8291343909321887,1.12569035598798,-1.0464439204708347,0.22973413856368863,-0.5676338479918175,1.0139960207251013,-0.18567999111765632,-1.9362901529592924,-1.8934722201247784,0.41228764049728905,0.08441121232402482,1.0211925881777666,0.6230028255799769,0.9434483220822463,-0.6804959159551474,-0.21165385153862015,0.18874111358946255,-1.405583292338647,1.11818871885436,0.09195788729982768,-0.10145024899133892,1.6780255011769065,-1.1365163086436803,0.5828889635609187,1.0648783731697171,1.1598128689834746,-0.4955624004769512,0.23658032090527925,0.2684302289773415,0.6517740187186623,1.8509269590506197,-1.7977386807784703,0.8729918534430761,-0.9465716497331078,0.6482326382009007,-1.2742851489879095,1.275170604759492,-0.91708613798099,0.1232856767065309,0.31172315450260024,1.4695992956815984,-1.8064823689986111,-1.3884321774781148,1.8437000432561645,-1.0812431146717465,-0.6412622495073226,1.5340945433323223,1.4569091520514688,0.7488801160664917,-0.2753294501402195,1.226511166664436,-1.2611182511029297,-0.42608519573099546,0.32008270362815683,0.6683350678434663,0.011622895885247786,-0.3305395470370014,-0.9481641615962983,0.8187214027931531,0.8129232387366114,-0.18959946290666752,-0.7813555793511573,1.9357952585711078,-0.825717317284286,-1.0310335762533653,-1.9801444955127776,-1.7203307499157496,-1.8216609705862221,-1.107599159670717,0.9223267366613572,1.297703362493535,-0.6159636563480655,1.6000546241893208,0.7938294486924264,1.5213749461945651,0.9357733369358581,-1.00732198645201,-0.17305440619881107,1.7430323942013435,0.7897639489591652,-1.240593425830527,-1.9928257119518942,0.7085415933057027,0.8113291965765947,-0.05485830650396295,1.0807003808273663,-1.7313233805122095,0.25892456990012347,-1.9207367783179232,-0.23093263782270412,-0.6544948282674423,1.9729811270935809,1.0085846215276009,-1.623604860450341,0.9435605347465632,-0.05449734119135741,1.684538959226987,-1.3556998514830725,-1.9904857466328383,-1.4920494522460475,1.6952844961208964,0.3934127608994231,-0.8081656907679857,0.2542909786297489,0.9320150018789475,-0.872514131780719,-0.7001103912152176,1.8927066133515695,-0.7980988595246017,1.4063405117015306,-0.7393375942729428,-0.1375110486308877,-0.16515656145854773,1.6060778588193738,-1.1363522377001423,-0.6199603631984543,-0.12357928435048038,1.65550176583257,-0.16165661859919567,1.1376512150410294,0.2904541332812096,-1.8968224354659293,0.06976275587712788,-0.4058502853289787,-1.919158092383173,-1.6579316644903637,0.6814730373220463,-0.3689400306879196,1.2831489623845096,1.0367092419813546,-1.24198239004,-0.6550763644401805,1.4314037633242784,-1.0160781325441985,-0.8759199458187119,-0.501567468238318,1.0766495928896807,0.4824249597992645,0.1986103612931207,0.15416593436627268,-1.6805329120467194,-0.4143256763701859,0.6489163779061498,-1.3514579863858844,-0.8409274104119011,0.6095576858690981,-0.18054043840044676,1.2352722594852028,-1.9634926929516863,0.03317043901223116,-0.4518627975511489,-0.3246867972079257,-0.6762334773893226,-1.5416670405689379,1.4998120870230816,0.15560295412312497,-1.9870791006463189,-1.5963513637044455,1.4530552465462971,1.1823779214702501,