-1.6925313035979146,1.9033589960268125,-0.4057543023822463,-1.1924300671444117,-0.9434434315399263,0.6701821493565765,-1.195130981641268,-1.5737842022951063,1.908489353051968,-0.5279613700704591,-1.80340218039828,1.5088035480715174,0.10059289633489188,0.8575553933276674,0.20289562169702613,0.5568709783072974,1.3567873316880612,-1.3685663359134117,1.0947977538882756,0.7897511313670544,-0.5305431580516315,1.7657586248650712,-0.14906789751589233,0.8061505930509196,-1.9742712271963518,0.6648234831589406,-1.2008777904981884,-0.6340155610358091,1.0112030042169398,-0.9011120769505281,-0.026551321642531267,0.8599282540189912,0.8419970963913008,-1.7043246095523563,-1.184090743963207,0.5916658246617197,-0.2773422757474222,-1.3963821781009536,-1.5578809163516323,1.4751412808720428,0.4468802809109351,-0.4711586858958876,-0.03242182860675369,1.3953799256771604,-0.8140226307357725,-1.8973282096128825,-0.6535268009392534,1.009230748420943,1.3759990554692916,1.0930237444929287,0.4362069898456906,-1.2875684667649208,1.2612339727787871,-0.990136238532791,-1.8916039953497146,-0.3075247478181069,1.1915707093969914,-0.9919405511049062,1.081240382250618,-1.083155049922802,0.3319664551895025,-1.9488279750080344,1.069964711519761,1.898353615647991,0.6732597543734657,-0.3382838816249025,1.120622086629067,1.5201858531693153,1.2298256796505136,0.6266696601960757,1.9490321131233697,0.5722801791046028,-0.8231836353363251,-1.2527471963715593,-0.051533566656373875,0.7896996589227103,0.6141390844020687,0.6999038453543527,0.08629485825428906,-0.3110025604523514,1.0981547359734796,0.10245535455080201,1.660846561789243,1.0102481007010122,-0.1849823833401567,-1.8378567292149128,-0.7812636367782049,1.684785001950519,1.675274664036782,1.4873814096551383,1.7870846141605612,-1.9794002388007619,1.497457769945978,0.10922095924465092,-1.0922121160526244,0.20255372088670098,-1.2807298277455668,-1.5155349761593762,-0.5592641268519474,-1.0291321670618028,0.6426401511278601,0.3110865470909774,-1.91272597466779,0.8539773376113895,-0.4619978256331545,0.7749863058134872,-0.16704175913128338,-1.4081281186962635,-0.814983487697789,-0.08706815654110356,-0.41213935990584405,0.5618715883113659,1.431018150166378,-0.039617270161618645,-0.48095794172059625,0.8752249247700399,1.6308560647911947,-1.1908848210033054,1.0574895163743654,-0.4495451705037783,0.6217829795576559,-1.7950884973419887,-0.6180635644482857,-1.729509622092583,-0.3577415390424328,-0.5189440996395254,-1.6262613782771802,1.6614186638826567,-1.5415796561646298,-0.15983622494394778,-1.2517664834380087,-1.6047652578532734,-0.29093046920848353,-0.9457564255051722,1.6133491493273362,0.004867638880774905,-1.6112156199200904,0.7029468196168192,1.0710073997950689,-0.21901347839990848,0.2299875612948039,0.01479760561853638,-1.2156570985180393,-1.1377292290848202,1.2085354071546632,0.15816021964496274,-1.902481249617408,-0.7407871057725384,-0.9991364370150833,-1.5686491958435411,-0.7491344636988333,0.3426380461386236,0.8294635134650621,1.5964668021140604,0.3665661778577989,-0.4788518159585138,-0.43133014489422905,1.0892753203721153,1.72701623489632,-1.2690488869380165,1.4113251947649372,1.8529076662202124,-0.3929360730125433,-0.8440018826109936,0.46843608366727096,1.7564016314902293,-0.13052707094047866,-0.4651375652122751,0.5965286755304313,-0.049166198206470835,-0.5888014431335051,-0.5764758942612507,-1.4810383209048745,1.2424842948860588,-0.7424171292287864,1.642275810647246,-0.20276699799069098,-0.6108372624263816,1.7927174839187079,-0.3282745098280446,-1.7763529115047954,0.041652648307547224,-1.06258938905941,-0.31053155192371973,0.23048781637896365,0.9870069805366852,1.440300676196408,1.2544856042266774,1.2414691774188853,0.015883130867174078,-0.25888276638550733,1.1707167671818328,1.5173994273215952,-1.2868271936186275,-0.7761012447709734,-1.3585110030415541,0.6746880067005563,0.3526650933997,1.4224156525662317,-0.6348873152370973,-1.919111992824635,-0.3294445419012848,-1.2152534219922533,1.5931274195153553,0.5918528769615592,1.8868819986913907,1.9997978799878111,-1.5112711705633655,-0.8920093602254977,-1.7094506643595184,1.639540723358805,-0.19519670169547876,-0.2923714580564276,0.9274884613645158,-0.47661870547911844,0.7396476841000954,1.3294313990086404,-1.46219427298153,-0.6053064416323806,-1.6379930657232942,1.946836199393347,0.14553022051314057,0.8145471657805818,-1.610565391141927,-1.3359391888529317,-1.2744665093720182,1.2169878826455536,1.1325327035623736,-1.6033740271099761,0.6073562220737916,-1.654620154536235,1.348704395321437,-1.5782002766531646,-1.5357625174388816,-0.38871345420169456,0.3515170984908571,-1.0234113911321843,-1.4570047683092522,-1.146999200087401,1.1315697913162066,-0.5943871538699415,0.14578892386686926,0.6165154113983129,1.508124046181508,-1.0980453665834533,-0.9571848026475123,-1.9924266773618755,0.9778404921563455,-1.8963933038093557,-1.01490295048296,-0.23605682448781717,0.9984854637247915,-1.5128666187692996,-1.7939289395494455,0.43448212474894365,-1.3963946707710382,-1.9821511080423155,1.8713037864518811,-0.17058095059769984,1.6503423077715373,1.4561619652877273,0.5760896277456955,-1.5806044515481523,1.1969875064225524,1.5014207060165785,1.0825144451432984,0.9863721692142904,-1.0685369478647684,-1.171969924669762,-1.7652681433459572,-1.2189639629659372,1.6727002908349204,0.04706601970970192,1.3347079491012495,0.8229270649758482,-0.38294232639082626,0.49358346630608363,1.2021764008850493,-1.2566515034491448,1.0775512716032196,0.7027744114666148,-1.8545037324592428,-0.3930981939059208,0.13298997323594808,-0.9522020874269677,1.683743952636561,-1.6283739187864765,0.5729407263675821,0.7599916120242116,-0.0715176563589468,-0.2967857965499898,0.29133207203903266,0.878125816556298,-0.8443301203466502,-1.4304597909700099,-1.355592285550506,-1.5395157789349767,-0.00525031177948998,-0.28042569685664187,-0.6008771688348724,-1.394510003613147,1.0923981832607792,-0.7014631935893418,-1.7206495493754668,1.3833153036961336,-0.6948698479182243,-0.9641562233408298,1.046158747414054,-0.08810540493713503,-1.1288630181751498,-0.800859443857775,-1.6538971240081888,1.4795842395481422,0.04606619887876695,-0.6643131710337093,0.6566364205953343,0.8553492159815117,0.24866805504547118,1.7767416741622406,-1.1208374198913997,1.9129148148855912,-0.09531404910827179,0.3431985299086624,1.2099149263776332,0.905895227460193,-1.9806580800410458,0.20118101928156573,0.9995996143831891,-0.9022997066440097,-0.6448051385802707,1.7199896271190274,-0.6152641227626967,1.6271604423219124,0.11525760362463444,-1.5722206218181212,1.0556642699000132,-0.6236633790631498,1.3613614491628345,-1.3760499721673916,-0.3868883923356079,-1.4569431239278732,1.719552305809526,0.7536524278747607,-0.4084817935277436,0.8654877846493658,-1.284541863149634,-1.4392032732477373,0.7263321666814173,0.6197382485605814,0.13113179691190524,0.08302261584706816,-1.5471042937690695,-1.51679348180609,-1.478140125691291,1.36799480410308,-1.0229431025158857,-0.6788246798565809,-0.9815489022489978,-0.6431643207583484,1.2512277951715003,-0.3141774561035833,1.4572647867261401,-0.4760715460759055,0.290951787527602,0.525524059708141,-0.1462563465175215,1.1859751187815228,1.9308995691504824,0.25544939874867145,1.9809672492918464,1.6255523726869816,-0.38579949003319447,1.3339829711583286,0.33392918134139116,1.7571938848436783,1.783109153567771,1.8904488059377265,-0.9586289623868849,-0.5655853343801067,1.0315500383315985,-0.9021622184940927,-0.12149011718464608,0.6230193332384797,-1.5305817435176832,0.40019911215215265,0.09970330468223843,1.8021533490122885,1.2088141375791897,-0.7421869657117588,-0.5136168213132168,1.5043587592074839,0.3657050414464873,-0.1034957487911341,0.307464922072727,-1.023114556329066,0.015184760435656308,1.8020677950360433,1.174388149922657,0.743083159047055,0.7386915729221011,-0.6384778935547168,-0.14213202892403043,-0.013621454177227488,0.5309152577040246,0.8535655998869025,-0.6220454035158389,-1.430338711261431,-0.9472431841658833,1.9388024118954115,-1.9819866695714552,-1.539281986390118,0.366072944921644,0.7637675122645566,-1.6939153277083694,-1.9983939167539972,-1.4816487204508366,0.21107974390940187,-1.6288195429159926,-0.317489359148325,1.3188983894795787,-0.5383977042790256,1.5761763407695608,-0.9480527518970097,-1.2812661903767602,0.6031192149316169,-0.046238317694339504,-0.7649704132227746,1.5167181907359182,-0.15196090511848315,-0.9918700590479519,0.6231410892267468,1.4008159551381603,-1.5134757940415415,0.3688885562885664,1.5906909111755807,0.5389070176888895,-1.7053800652317124,0.9293740348827253,1.0946497596376852,-1.8968668834249711,0.20585287351180215,0.4074028019020095,-1.9144548382012094,1.3802300128094513,-0.39468657892842796,-0.7624890388002807,-0.9053711659604669,1.1314596334535865,0.6224943920395947,0.8709068254884818,0.7836659580369583,0.8453107127476152,-1.9254403880133721,0.9630034061787187,1.9458407729514993,0.8782866013103474,1.7333049754628758,0.31453515998727255,-0.5740041561807772,-0.5375807942572384,1.334930981952514,-0.22304265332324924,0.32414921703966915,1.5234069187610562,-0.4227288821778772,-0.8848831103827144,0.026445249783849434,1.0976037578885198,-1.959014320044147,1.6081023484574293,-1.2585040615382885,0.7063022063726514,1.3981631194453321,0.07216810077212177,-1.2963046203165418,-0.5582897101365485,-0.07531837093330207,1.0136101539230027,-0.9807778569295307,0.3055328289071175,1.400304320023872,-1.7512889062170607,-0.560387780451248,0.9477286820124702,-0.4434238974198701,0.05698326239337037,0.1693966575379,-1.8537680046535918,1.409660061682874,0.0854972449506275,-0.698340976996763,1.4356211258712093,-0.22689755346817808,1.9976788622657322,-0.36334282777715066,1.8915583155045401,-1.1992092695730139,0.5253767406785737,1.039775153126155,-0.9871110738261124,0.09822219888164874,-1.784474870318955,0.3611595243434822,0.7791463919062167,0.3163594943758752,-0.5875199135346274,-1.1747478025713525,-1.6468667412953804,1.650178994369747,-0.08585734441933424,1.9510026732250196,-1.7275964559946404,-0.7666950997023037,-0.8911937104822463,1.2794799444778175,-1.0597239540242835,0.8513711722643018,0.11192015847474668,-0.47205045901490816,-1.204921312803417,1.5220246821139058,0.8829451620338822,-0.3892696734627328,0.08826836515774872,1.8503715018358036,-0.24332548874380455,-1.5910439909735037,1.392772748690239,-1.6161302394034491,1.231801663863798,1.1581171828614938,-1.1771911388616507,-1.847583709142607,-1.4377402470007303,1.4539453390504242,-1.5599679552538612,-1.70889916769584,0.11918700055325182,-0.23000892019771824,-0.6984692451806604,-1.1056795321807105,1.8315520135282308,1.8561592009251613,-0.0860648765998211,0.7710254758654127,0.9314117564821234,-0.5939110122396918,-0.9010008687499971,0.12820531299754379,-0.5039946688158765,0.33816519453541805,-0.43920692100351344,0.292055128504471,-0.4794263768575484,-1.6707349584643056,0.6550026959307709,-0.47716704659776354,1.1408638601958918,-1.945950479194675,0.3512285704337086,0.03517908479599541,1.6935432533062014,0.6523720414937064,1.9568672521946384,1.389530104293573,0.20314609394969674,-0.639413445308926,1.4856149075450173,-1.1401629490074643,-0.4403815798213606,1.053205512835416,1.6340081016275203,0.6540241568950984,-0.4162688834329846,-0.45693957695902077,-1.8887793987703287,-0.9044148335216105,-0.6625862922164316,0.3368689163980654,1.7911098460301158,1.3245963988976484,0.8719917521294938,-0.15343119034269526,0.09348729521728893,-1.2508233109708748,-0.5875327224199585,1.5257915145058885,1.8669587789682005,0.527849482018675,1.003355015355941,0.020421412936533212,1.7150675569715181,-0.9655506958431239,0.6256751345323539,-1.3667637459832296,-1.5350228464300115,0.9364270098288987,1.4906369541263,-1.9789174777264975,-1.6560840705220237,-1.1386317078892612,1.7343030978159764,-1.8972812649318076,0.8579937113895553,0.5382154777071659,0.03353528234689174,-1.3579810561069765,0.5377984867804901,1.3891442952922768,-1.9012350624128889,1.6891375921294136,0.36565839429944225,1.4264751824469792,1.579169437112271,-0.795299609745383,-0.48210306874134856,-0.2861980576682157,-0.6450579140128605,-0.09322024598422907,0.29962811771672637,-0.3511398291757244,1.3180306366391084,-0.003623584671124558,-1.157084332947965,0.41322433598553276,0.5783829296802656,1.4660581128549115,1.4427772724832866,1.273040466090924,-1.1772054234956761,-1.839817735598905,-1.5566194998262577,-1.0435742431736061,-0.1784302475202777,-1.9239926485171495,0.02166996455269743,-1.195343504615721,1.3524797842328375,-1.874179884990855,-1.5708137154091264,-1.3982853111260187,-1.8933360029274149,0.7411816272043827,1.5874007017280984,-0.744434792899928,0.6553208637480967,0.5150090886726866,-1.4558068689408743,1.1571406644662439,0.039140291752854495,0.8191713008372528,-1.5344689722412208,-0.4299806001140767,-0.20620069160495857,1.4409908726622351,0.18191361133038653,1.6792661681526289,-1.8871097315695078,0.8289049653361595,0.7457624741477615,0.27626827592626846,1.1362659502015897,-0.11234113989980399,-0.5818787422298719,1.553770810245719,-0.2862255421887445,-1.337446109000167,-0.131589679428592,1.444588449386567,-0.48917170949063316,1.6323973943320693,-1.798438907074829,-0.6891549554041583,0.1463133585652865,0.48172445938259,1.7116220745616242,1.569982393398262,-1.0198647313620337,-0.5749017586359608,0.04193481385724107,-0.47279907412294175,-0.7968253023958813,-0.002985692270470519,-1.2035231219225557,1.0691559765938385,-0.9221486689311011,-0.8951319492645493,0.5109700151101051,-0.8269604207316101,1.8747256584879808,0.05896429732945174,1.2247292804513146,0.9992317031915605,1.458549735798702,0.9155413894294067,-0.9187020808593016,0.3143199111406618,1.1602170419878908,0.6225166025344993,-0.507782162237421,-1.191234680874257,0.3373304132872752,0.15429360071013942,-1.8115564555751766,-1.3436465970190388,-0.7795610449485677,0.9819480873557187,1.8004921654704664,1.5972859482579436,-0.6170396512267873,0.07307211272662784,-1.216652748223979,0.647645383471187,0.420508713548283,-1.6750075394451995,-1.067297703978698,-1.5931929481474363,0.8486511864702937,-1.481374889564643,1.2219276047795504,-0.11016676421353022,-0.785892438688411,1.6366552716262879,-0.09947207715425277,1.542779785081788,1.799779161387376,-1.105477074652586,-0.5406142269341299,-0.808722464125164,0.858300974806542,-0.032015530562017336,-0.5736827273514233,-0.11755311323467055,0.4273212574959815,-1.0495107785895006,1.4112677205251152,1.0040026623032068,0.6529754624406277,0.9222174462022128,0.6772155192070919,-0.5099900021944062,0.521993114858228,0.8677323094349387,-0.8443014331312493,-1.4608586242779902,0.32507310966860414,-1.1055637811435113,1.0423684714186172,1.8663095885563652,-1.3727112152254506,-1.0719493447154846,1.4081432765333473,1.4890397919734695,1.033885042098865,-1.7368799808593187,-0.24258410509243333,-0.6498509417586691,1.2516973584599933,-0.28773258532981183,-0.9789518082243385,-1.8184300567129275,-0.5638382629199752,0.05533925148248908,1.615756607192238,0.4701609782839604,0.7685919168487745,-0.09159377683906689,-0.13388394991363484,1.6225849844328555,-1.7970967679511824,-0.7216947669449483,-0.07351292361202999,-0.11751200270273632,1.1967727145049287,-1.5032983786789913,-1.8852656464351627,0.015487938053597272,-0.17930993880644852,-1.1253639833620785,1.1302709793261467,-0.4161688727867472,1.69290629796091,-1.3919349511369616,0.11287915522942793,1.9975689985226812,0.8264577705408129,-1.3630030550938197,0.659982886978828,0.7892569573696591,1.996076230323831,0.3452372470173284,-0.2758468522709907,-1.1173270555757755,1.4753495003752408,-0.22754409971218026,0.3971297098350224,-1.5029462658885548,-0.2719211811313569,1.6663703731241344,-0.17991141212031758,1.5956053235231775,-1.2556355075564074,-0.3736066377626872,0.670761077312521,-0.24438685958211126,0.21386660250736567,0.8891803058689018,0.7319604488085485,-0.7748679229738187,-0.7084641895765138,-0.9167765095283356,-1.9698724700161057,0.8041619928850205,0.879640605715799,-0.7789181255885418,-1.91290878857325,-0.9385579225564737,0.3285678859304344,1.9998257983878616,0.3538829238634129,1.3315928371270807,0.4181362206923911,-1.106694216869657,-1.6244738974069342,-1.5235363739263135,-1.002612018482958,-0.3770536467459302,1.8136381799523607,0.6567351177670733,-1.6768893362735997,-1.8249110688608656,1.333610097490896,0.9484981032970472,1.3375484030576814,-0.8293095033274982,-1.0867815896588193,0.6268292711153087,1.9729334736469606,0.08163157448651104,1.8627069764360105,-0.5927339141603962,1.240158259415776,-0.7101804792056763,-0.1341062081568336,-0.11056355251961492,1.1499933018381183,-0.6179223109788676,1.3898008363898482,0.23985317564478015,-1.6739349649625956,1.8102815944153252,0.14578804118375555,0.8022799931052775,-1.6403121161579834,-1.9236122131441502,0.73506280097974,0.9799656989744108,-1.7584583211824882,-0.7968595808373364,-1.0954584318901675,-0.3922403692311356,1.0693084981768926,-1.6557884060842265,-0.14156721733613997,-0.512281312551544,-1.1377072339141816,-1.0676859680998123,1.7097167359852037,-0.32583548972838106,-1.6505046149164073,0.7541111960247817,-1.5640300746139193,0.8162467904249984,1.8784267377082338,0.8310211871230448,1.0660616527116797,0.4197564987008122,-0.19512450223878153,0.4056541865157106,-1.3873314825371623,-1.600639673889265,-1.8378095040810392,0.34448228489950905,-0.45269648179922495,-0.9172723183367704,-1.5802222668755372,-1.1851077944816324,-0.12246454749955227,-1.555430382094034,1.6911586842388493,-0.562867513701208,-1.9684734296766244,-1.2728409824259748,-1.258035174801647,0.7104664915314935,-0.06334758460400947,1.6682586414477143,1.2210740637638247,0.6200036650744223,-0.917690444431094,-0.9251688165309213,-1.9395620471041979,-0.4883016837680585,-1.1060096286498609,-1.460269793205776,-1.2847118115321523,-0.9951295060014824,1.1624331780574986,0.5787918345884702,0.5558505714724906,0.6076099020690511,-0.7732321856373843,0.27788970486352627,-1.142228774240357,0.13117469928479375,-1.6587348981895573,-1.3545549524711813,1.9492248497370412,-1.6866185279526245,1.9853744037945735,-1.709170453997563,0.6073812865286361,1.099032414212405,0.7859197683138226,1.561771235725041,-1.1182323361328592,1.5037533587693197,-0.5458950256234032,0.18605335273820245,-1.0730366005411005,-1.3586446087368524,0.039114758940876015,0.9454934038110676,0.4958819450654737,1.2058487021163442,0.23854655457712415,1.114726577438165,-0.14821300804418902,0.09739575543495738,1.4443217197927893,1.804247165220521,1.8018211475129324,0.372517811527989,0.5065033299265904,-1.2010679954017234,-1.709501352927706,1.2736688014625561,0.682229495674326,-0.5452976224980257,0.05862227250376728,0.5379379787777974,-1.4243822379199806,-0.13187413083353672,-0.2922783434703269,-1.1014139772256173,0.33391048414695934,-0.7832629079860816,1.8823348512330966,1.5367214547031463,-0.5535453060501121,0.5742376550078658,-0.5909900841450035,-1.0401085357770259,1.9063434946894167,-0.016148806139959504,-0.8210098217091306,-0.21547848712857842,1.231120479879861,1.337692429690855,-0.20522486411922758,0.8495487718693435,-0.4109824756109295,-1.7180760117820162,1.5572878930380725,0.25497396320175936,-0.7571061448313272,-0.5705721845805352,1.0487099641958255,-0.505511214911432,1.5480759885462136,-0.6874211838698718,1.8057883923457703,0.5245766107584258,-1.3006327937072761,1.8704983908939359,0.2577465757411237,1.679755679177748,1.6565659366283754,-0.06511266618242484,-1.0846650355632308,0.317855060087894,-0.3171579454014446,-0.12197915621209932,0.7891066470239783,0.9494059369599199,0.5972598914774321,1.992046235456454,1.4609718072938134,-1.7360928060933891,1.7269781572601195,-0.40426749892112523,-0.13543812500977248,1.1865126151395047,0.9730365860753993,1.5171008224294318,-1.8657114800229735,1.7222852178455543,-0.7866190316551616,1.779784878184564,0.3514389902858279,-1.8490586542416882,-1.976311629211005,0.043418401121205985,1.023888328085735,-0.8283410014248878,-1.7752822234178538,1.968586881444518,-0.9546394936044016,-0.045197725444872994,0.8769722563359585,1.1450732206475274,-1.7809114431183573,-1.4445945192860266,-1.2291907344488302,1.8833278521424872,1.3497404227143668,0.7702028361905087,-1.2507532661249336,0.9281657686609166,0.6446932455650507,-1.0032148839655406,0.26643872629970167,-1.445615010775395,-0.26350879528857396,1.421007330575725,0.06503296300495931,-0.6098233383198637,-0.09944935843504021,-0.3183454836191211,0.6050219901808287,0.4239863801157191,0.8978950294890198,0.22089596961453228,1.5684506871181036,0.8727466216402004,1.5040669987155337,-0.6171081751167313,-1.2872899320210962,-1.2495378751155584,0.9223320343955423,1.9685890824659293,0.7629745916732751,-1.1874120591172441,-0.8325726284627142,-1.4967238663807678,1.2387816724390763,-1.893821445096516,1.9085775444627995,0.10938202243210648,-0.7877902622517401,-0.5400099051405651,0.2688499142516605,0.38659277800076497,-0.36537278512043203,1.7885726783953642,-0.8291993918193472,0.08887643119050903,1.4286984602073098,1.85054478840603,0.9976104345020316,-0.4209953548831171,1.252093430511927,1.5562508740343017,-0.9556082175407385,-1.5914529631244703,-1.1833270696428277,-0.9840235005549034,-1.064560659006745,0.5057151013694052,1.2659529400253255,-1.617419858951171,0.1159262861706849,1.8565845210047374,1.9622160508253237,-0.08529357947375571,-1.97461063874474,0.7027208135342358,-0.40130595111758804,-1.371376017175522,1.6827778585673014,-1.9774435411809033,-0.26993113228939514,0.1629175364169586,0.445243346014248,1.731926755157208,0.28473360066766684,0.048523244072030014,-0.6843276448764044,-1.1840134843494763,-0.822662482646507,0.7955027080217763,-1.2373212242560543,0.8397604188908327,-1.2527721522863966,1.4526383675925811,-1.4756321266139478,-1.0966728324792574,-1.0158557934993988,-1.2038772760280145,-0.6498185314044944,0.7684353630807865,0.4191845063638513,-0.9159492651007319,-0.5359541321194903,0.25525791478606097,0.3505900472753569,1.4199987369175662,0.910744170962865,0.27099087172814507,-0.49351292480465103,-0.538971705645884,-0.9724530792688104,1.175058962735899,-1.8796929108143137,-0.053775987706446315,0.27027603807795897,-0.3136928058251125,-1.7601916482218432,-0.9458056246382731,0.413951658427715,-1.6057253969199774,0.5697271526705849,0.7441239802293396,-0.275005125015106,1.1898100802031877,1.6768943140149428,0.19778123475903797,1.8975312410089864,-0.13080734605743327,1.6011681349978315,-1.2777251707148438,-0.23356957530789746,0.41311709933459806,-1.6401148239950598,0.3866015321387706,0.47868987999380863,-1.5059278700495877,0.8598373692817369,-1.5060458417626932,1.6778576049072376,-0.06731252658886921,1.8644427465077533,-0.719246987055282,-1.1642016432514524,-0.5870835848134934,-0.24883154825172804,-1.5838913001019104,-0.05250565982593525,0.260351786644204,0.8143895653940945,-0.17570275436983573,0.07634295041634465,1.046256370067379,-1.1041876255744287,-0.4266231062680852,1.5332636399236454,-1.1988952189308906,-1.9170910288649639,-1.0376023912355476,-0.8708250879740764,-1.6180171804327212,1.0469207756420342,-0.3375403301458846,0.8441643522182929,1.3165532143375076,-0.9721921730170027,1.2629231630118425,0.3924976063746275,1.4547377486416817,-0.9824325355193548,1.3608454911837886,1.2386726387387719,1.6106713214496189,0.7399253046447116,0.7627506162991313,-0.40180220669882427,-0.7517003778883993,0.783545605601291,-0.2826394579174982,-0.065476416132765,-0.08961983167486487,-1.5600674434177626,-0.1914984732767233,-1.8726249590449138,1.9934866420923476,-1.3170866842650777,1.3944404917041053,-0.8878323210370147,1.2449837192170885,-0.30369010653202766,-0.8441378494025655,-1.624977522273415,-0.2720380046648172,0.4289444694728761,-1.9354677345385949,-1.781989431345428,1.5616528529620899,-0.0036033577339518175,1.9867375108743097,-0.34649998175665253,-1.7562785176889442,-1.2840200377711861,-0.8179648990848754,1.8337392143563935,-0.4134095977281165,-1.211917168481203,-0.6943291971462084,-1.777634365988388,-0.09456003090113052,-1.9766907156681346,1.2834845872249718,0.51742610673204,0.8039801800628905,1.9361030666941383,0.7626457141819283,-0.844712219405853,1.9486694950206869,1.109135491511409,-1.684510875447779,-1.4347970474685754,0.28792799585320417,1.686130393577439,-0.5926868112765744,1.9884081874230901,0.8568627493960861,1.7323684935374128,0.25060532638882593,0.021321290596655995,1.3042555630228732,-0.12583530521006958,1.2457525873171065,0.26739076307440035,-1.6312511051686513,-1.331140143186515,1.8519380889816461,-1.7572283484408695,-0.3114326065888102,-1.3671865695202872,0.24163472954515708,0.4074918348808887,-1.0348525059036273,-0.3432084472929908,1.0420862090593768,0.5551010162298624,0.3984089237548152,0.05282649005710782,1.8673121931938947,0.7019953240315417,-1.4683540368206427,-1.6576626461503134,0.9673925460556516,0.014619181794649716,-1.630508085129076,0.11076358899959882,1.9987393718163853,0.2562386759132176,1.8801773450312012,-1.0269836583030898,-0.17202424908870118,0.4194987476382117,-1.315530958098607,1.9142532796579785,-0.9452807831093621,-0.37827520608545395,0.2539501683704981,-0.0029882309831914533,0.9697891712676423,1.9936090253526073,1.4399439516025372,-1.0130353131305778,-1.491590631704022,1.3994410174434382,0.7934274416992504,1.8961088176739551,-0.9403289340616605,0.757373082317276,-0.21415338657348526,-0.6125417687183896,1.9289433957757791,-0.3449826616803042,1.3511224646764224,-0.3433681973263374,0.7779553464145796,0.043789693576308686,1.7408466455281473,1.1621019244838435,-0.9816609157879332,-0.3961311703811581,-1.0776414096263407,-1.4914231292146072,-1.553579271888625,1.1111069475648612,1.3843211075980961,-1.2866225520487728,1.6326737018985096,-0.2737863046845601,0.28070818159005473,0.5824168243817822,-0.699001272164085,1.8710492317762664,0.748795269489404,0.3257737994727492,-0.9816565501414001,-0.036071160934026736,1.1165059652505822,-1.4438784518460057,-0.5900038165264818,1.3980091715955485,0.049402123269558285,0.536414356033641,1.360254020116789,1.5328635112749187,-1.110445003605951,0.2816750014193925,1.9501573155776986,-0.6190069526825948,-0.4997134302077133,-1.9415545766474414,-1.682936098326898,-0.23577336924752545,-0.28466161967291326,1.883145497293929,0.8761920947471009,-0.2501309259469342,-1.1883917589084096,1.2682516072950043,0.9880994781300831,-1.3842593175039206,-0.3817258644859991,1.332698477452149,-0.8629311143331528,1.2606625843098254,-0.6012953781798069,-1.7296367860820938,-0.4143079099318916,-1.1874268804296588,1.1258943100054815,1.9290607783418179,1.143515638299108,1.5578969560691789,-1.0207272280216046,-1.3118424772060222,0.7823116834847044,-1.2775726504365998,0.3560949603047052,-0.5098298940873711,0.2642513869551224,-1.5791831057665036,1.1351878528805965,0.45889739690780074,-1.5646286191351044,0.9934185431922735,-0.4168626803586286,1.422325684826247,-0.07926370963694174,-1.1250226641691428,1.7235363287315155,1.1333857896141621,0.12331951837974797,0.1164555001564831,-1.3958417709162352,0.9338049108542261,0.30696551417909124,0.3757979030736234,-0.6079461974950466,1.9327280459067215,-0.20512972188480383,-1.936576945811769,0.03138410682935211,1.0428834585005813,1.4553777578327187,-1.3087848082480509,0.35133126055327946,0.6859046037147309,-1.1277504604783286,1.0106918707158514,0.35354767612031246,0.1888264388518559,-1.9785427001243119,1.1417443787168131,-1.6821620044799137,-1.1480752556456544,0.36765817421671043,1.1215529335573726,-1.7235213233399929,-0.18174329339854367,0.43256773856406605,1.846400294375436,-0.2141596965280832,0.2568745840226292,1.1943239332367157,-1.7576736351048377,-0.9014684461039932,-1.884577182056177,-1.2429676638963425,-1.4500797508280892,-1.2484241423433509,1.2049166068076858,-0.25458478467722,1.6304025740942003,-1.899000525655509,0.9002226916776528,-1.2207857506597812,0.8530447293842078,0.7489103186661366,-0.33451708920350764,0.40314381664559207,0.8015439525944719,1.2555564152725043,0.575402897897733,-0.16322185952679247,0.25541438106704994,-1.4774589024568283,0.44581809605629275,-1.107029852062197,0.5571271421000237,1.9791316238684904,0.48838485124521913,1.7097533342121722,0.2309434311061298,0.5056779442738151,0.3619592336765223,1.3504119827958343,-0.7616965471185617,-1.8665554757611313,-0.3615357981908227,0.7672489740741231,0.6341154875120787,-0.7542270150509829,1.6510763276382572,-1.5343469853483862,-0.6314889926459233,1.8049361968808637,0.6796905995304843,-0.1553000614330342,-1.4454773587138194,-1.0029546250284365,-0.6926485695790601,0.6460467476561553,1.8033749783894226,0.5595024597911773,-1.7290195844518297,0.5612178465073625,0.5008478278829158,1.9538878489594338,-1.349628324403724,-0.9307358239050894,1.5981353258256425,-0.4198207540215608,-1.1607924963182428,-1.1322468120731433,0.06021179254537623,1.1474367517915889,0.990158899646223,-1.437846669807811,0.3181266353212231,-0.29728893222396424,1.2746755179675762,0.7862230804671912,-0.8856064752706292,0.14298575834673022,1.4641724615670197,1.4598644229926925,-0.40432727942947944,-0.48660915957630735,-0.24623729629389857,-0.5553782155454661,1.955837507621219,1.6733821928048904,-0.3718824231233073,1.8905868238133108,1.793580799455262,-1.3291688776175272,1.8097507205676107,-0.3775678041002055,-1.1850083867535113,0.49463467539278305,-1.9909143921440422,0.37942157837430557,-1.9264966943463406,-0.369960052633993,0.26052847738034535,1.5084944765860437,-0.015458783832567491,1.0564681723738296,-0.9273762244843335,1.7630980380664991,1.0572644639575368,0.7405536014390273,1.1943784753385978,0.8300600337434152,1.4254441578992672,-0.9580864111467919,-1.5047363502967643,1.956748808743571,1.48334960381659,-1.0024291318509482,-0.9061550220608239,1.6263007573249308,-0.29246719587279557,0.13685207431281565,0.281092029504455,-1.278208188221671,0.7378752284951671,1.0233311916035595,-1.6798232858737165,-0.3265344441044489,-1.8878786080376107,1.2420300359084449,1.633187612381993,0.6732267006479709,-0.21217602890525633,-1.5609501510743162,-1.2197916861972935,-0.48597621592043483,-0.09202412702975327,1.9421223009815884,-0.23725372281108426,-0.9329047812566995,1.240099906310415,-1.0195080925057334,-0.35852603489337653,-1.3890618459065092,0.239304025141009,0.7257291367245964,-0.4620850506550829,1.5652448703411839,-0.705754783682345,0.44204619546051616,1.4143091705124666,1.2037773770899949,-0.8836873912894685,-1.4717595306403526,-0.7089359713486689,0.31578884246793315,-0.2417478020984407,0.986035150275431,-0.7053308021528992,0.6401080814077145,-1.229813425342916,0.7106426835915762,0.6605661769929121,-1.1657931798196528,0.8143119305523978,-1.5797628303110827,1.0349803812828973,0.2699448195110996,0.01689430712729134,1.967345819809494,-0.7473995073131854,-1.204048014404822,1.3572943233249735,-1.7540739726703278,-0.5740459657954764,-1.5076586518698627,0.8632172714797317,1.6882505292773713,0.0723859393516526,0.45242626610351566,0.3588646731445748,-0.7286455897929947,0.6836977997909695,1.464219800306601,-0.5711737723251247,0.31567427819140503,1.4174871718976916,-0.44064567932489895,-0.34457738634743373,0.10124745297408966,-0.43244851026233455,1.1974846569980873,1.280652840365271,-1.2876239366994229,0.02489549883991815,0.3968361306477073,0.04332318071454777,1.9202054220693698,-0.7669013040683166,-0.8307846443479869,-0.9879376125614239,-1.479011162779146,-1.2189501665765325,0.9706221004219362,0.647792945409932,-1.527965528755976,-1.609581593599056,-1.5261354154287146,0.21820850663795355,0.45799435697666135,0.5884536855566256,1.597281917482042,0.13392494591679238,-1.6489809711256682,-0.01669868775171146,-1.7019910637603206,-1.263658768116898,0.28411873966192935,1.5435634031862415,1.050908259543173,-0.6535941702279269,0.8519021177297592,-1.3803783938058625,-0.28118917956823974,1.1714252109928873,1.351338834291576,1.9526925274421072,0.09945458952349773,1.9410589205852484,-1.7154326374798754,1.5090034866166455,1.964273297804449,-0.8273167112789146,-1.6060708772910912,-1.2226533774358241,-1.945679304262856,1.3678555910052754,-0.49607330873187117,-1.365463839555622,0.6356017024949918,-1.2274218003652893,1.8761116333409524,-0.3051413493944093,-0.4493376813090526,-1.4865510917843432,1.9608959427673964,0.3886622880566435,-0.5692035752073039,-0.0401422713235724,-0.28595225924627554,-1.9582216184918781,-0.6688896266498627,-0.31737904622161706,1.5676251966499688,-0.4552129904765998,1.452155784624515,1.582514818755166,0.2880126907540763,-0.6152298809624499,-0.30259196424416634,-1.142391135937407,-0.3641437374566898,0.11758947223085014,1.9090431094202711,0.14218248474545536,-1.1860307800807988,-1.2022880128392393,-0.9550286588396668,-1.6129096319104352,1.6482063782033456,-1.3678050429133188,-1.029482018888825,-0.7203626652560482,0.48106568519603954,0.20359533799367258,-1.0796572486181133,1.5964971203993388,0.9777654818828974,-0.015772394290442637,-0.3010232515880822,-1.4449524879644273,0.8282481179942156,0.17065663697447997,-0.636531744147169,-0.08431278544151066,-0.9088538057214017,0.9398859844789711,0.3288724274432302,0.28434964426848897,1.029038901096686,0.44276906966037854,-1.6894956198484956,-0.17837077175871174,1.6268432172125968,1.1461894646479567,-0.16114143245759438,-1.4471725527144677,1.0959037020234876,-0.9715782795887362,0.6247622957213474,-0.5484057882988043,1.5104179485347515,-0.09259890134486115,-0.11607680661011077,0.8212905124150409,-0.998157057151698,0.32233296973207226,-0.21739505886689692,1.2968315067656486,-1.4106327830236753,0.548802478082647,0.29314617439487733,-1.0843637896772909,-1.8416924886271313,-1.9368159751955063,-0.7054112982389542,-0.3743383775171707,-1.8123994589822012,0.387372534301595,-0.05114652937234654,-0.37611438222248106,-1.157296744437465,-0.7799587663718044,-0.0468452116686775,-1.6485707942064791,-0.03344580285327714,-0.6224951352745816,-0.8275206462341993,-0.7575243385709203,0.2241773735499395,-0.5021951264997915,-1.8177317444338175,-0.5197841591202637,1.4799629881478373,-1.4508341876483501,0.8143783222183387,1.1689636523628453,-0.09685490857169654,-0.5265142999462471,0.37949585573790356,1.0035168573019209,0.6859053405535476,1.087521737324375,1.5382359903766751,0.16289253158711547,0.6965356375073317,-1.9835385118222577,0.4651298293538173,0.29864203007122114,-0.2909209390220653,1.2166233728680127,-0.8701262833640033,0.027201942171168003,1.3541697854079504,0.258343592383953,-1.2737487903907452,-0.9213400509228378,-0.18559014352975112,0.8338482883503491,0.44461222089551944,-0.4657764169133527,0.24209959047820506,-0.4876121724882956,-0.8126957487882813,-1.263415481075565,1.336784697006193,1.7571725592144856,1.1433171485171374,0.4473078334253646,-0.4547490862503665,1.8746916594635255,-1.8725928559343021,-0.31552076478299673,-1.9266441892632282,1.0791384452069623,-1.779682718313535,0.9755747559083803,0.9362863739437137,0.8757310611591982,-1.2216445409365404,-1.7259197700956568,0.10112246211919729,1.2270887064187237,0.9533764127001909,1.7944594433266414,1.000544975025115,-0.5494467147926372,-0.14498307392269494,-1.6442231891286059,-0.9677851218716782,-1.9287397899653014,-1.7223673129981218,-0.7170679027985374,1.0593348931429865,0.7252239855760454,0.02279348688795535,-1.08584787737795,-1.740587586468719,1.588706524422948,-1.2721866175466165,1.7305402596761095,1.8103269815035667,1.3818419412486254,-1.9903198091123144,0.4910285819930511,1.2441174453470114,-1.9532160440495074,0.8405377430348242,0.6106557186306496,-1.8486662147445778,1.99976835696989,-0.17107969777802534,-0.7485418274885696,0.29134619376794024,1.252703596010992,-1.8034699213656218,-1.2358927774459358,-1.8270576401111986,0.2120656304469568,1.4625165827633508,1.9331940214314525,-1.3423971775661196,-1.756047223866657,1.1370443551142224,-0.07840027272249861,0.5189731825324442,-0.8828449073558562,-1.7698192246581983,-1.5412956245592317,-1.6749100145390443,0.7471084189281014,-1.4157873936889844,-1.3384278926108437,0.7349069058261382,1.2957810923678181,1.1596613192502137,-0.08259018889547942,-0.1378697989952089,-0.3312264902657729,-0.9462952046621504,-0.838496330439082,1.7797661397571916,-0.7359009929488507,1.9679521981895478,-0.619585791852121,-0.7408922653664143,-0.5883699827866207,1.3954966436896945,0.5714512717127755,-0.21755752125475647,-0.5716459361867448,-0.45257456011979746,-0.44068462010661325,-1.8799002985266644,-1.9414123828835144,-1.04208287717558,-0.7934097318747835,-1.1004231100870796,-0.26130144899345886,1.8988698957676484,-1.430237994854933,0.36581016431365443,1.166619683442304,1.9286164863644046,0.3955830656637893,-1.885375769557295,0.999023231684439,-1.9739754909137708,-1.2267173505939888,-1.6680106744501133,-0.5306883223930163,-0.20975860459997886,1.9170161157193308,-0.6074081777052882,1.637855000198929,-0.7536826462542061,1.080502667306205,1.2273493442919952,1.8327036440512852,-0.8380909819123459,-1.9251188588987942,-0.9139394942011299,0.4970984842393027,-0.4756272521313094,-1.12232967286654,-0.1679538178942721,0.8101098285107642,-1.7095861724365133,-0.22981630255510144,-1.6326290265204175,0.00029167983551081633,1.7943913444191142,0.3923585554451203,-1.3786755940921354,-0.15896750963362738,-0.49496620965378124,0.02632896936389839,0.11931887958261322,1.6528784366178142,0.6696868122756094,0.2401510069245325,-0.0548862869815272,0.8861987561801934,1.3803762079500217,-1.2590768163129349,-1.5485963931532285,0.49517970905968944,-1.8603857944321414,-1.281578654596287,-1.1770949621706883,-1.2810350949707896,-1.6797298924970758,-1.3141936865991903,-0.7879946251312897,0.29675952014653273,-0.046086008169630155,0.760280953876602,-0.7745176804945859,1.7154919940990405,-1.7414913956652307,-1.8076400854763008,-0.5747173895482178,1.207370842372418,-1.298558563253791,-1.1733050356296584,0.531684055707625,-0.6135422656497429,0.4475305695568621,0.24458312777402824,1.7895401193605687,0.7621461155266145,-0.09206583283530634,-1.2178466106391004,-0.04871509687913678,-0.8507758950225521,1.1147644444654534,1.7034597351979182,1.4785086543036359,-0.341038169154273,1.3816936203177002,-1.4943882156177426,-1.4344499573166396,-0.8623119172797398,1.1713090718422952,-0.840075318589049,0.872677778002545,-0.6058542190830773,1.133668186922963,-0.6476667984810249,0.8416916703710426,1.6468823993517812,0.7467686545845229,-0.8597716339200545,0.7742049399585511,-1.2423568895825086,1.5126410612352403,1.0384042094504333,-1.6806867018818799,0.6776811640786002,-0.21271970316131705,0.6680454674013645,1.6729610698990647,0.042185846691092266,-1.562107415119614,-1.5509210483116491,1.0964316860058472,0.006456254567730024,-1.4154321805733376,0.20825527015270318,-0.040659702873171444,-0.15758715083467134,-1.8269050315047717,0.2827574259021839,-1.7421193070055616,-1.264928399650286,0.46350193407121143,0.23275437042863611,-1.2160682012113018,-1.144257176438788,0.7663546072704683,-1.0664429074102877,-1.6998449287102257,-1.392214947501584,-1.952073964038708,-0.33626837415990396,1.8980965695495104,-0.24837417320842592,-1.2756202537605348,1.8981543654178803,1.7478562478162494,0.41375233188654326,-1.1779619189722323,-0.16940826969041778,1.790977707681456,0.07992933566679117,0.7147304005592581,-1.8138781474251737,-1.144754067323709,1.5820346009562236,-0.5334935282141542,0.4932838993535116,-0.3233402471309237,1.3035770126129522,1.8240226507279402,-1.421566028753226,1.0200949537387065,0.0270371913816283,-0.580122996598559,-1.0660720995624193,-1.3619211947447463,0.7775952719410264,-0.43571449146689556,-1.3518500819957602,-1.614077673785237,-1.290305819735471,0.19961935417458365,-0.22007586219589959,1.3273324665712605,-1.3645419446549014,-1.5053249190838187,-1.590521818012144,1.5813085255951975,-1.5778065299878565,-0.9260775044124196,-0.5656963224683733,-0.531202848168566,-0.6929464323194017,-1.2138090157386765,-0.3103359902962102,0.8159350055739742,0.20008334765024438,-0.0748945768821967,0.37563112610780003,1.0383927653315537,0.6886242985516571,1.129497567608639,1.8796863279725518,1.1855407465096306,1.2367091583959557,1.7759173173725333,1.2392130020140475,-1.1024065961812997,0.19532383870225534,-0.16109532547586802,-1.8731028648149115,-1.1878804846055804,0.781075460226559,1.7693735385765588,-1.953920872156484,0.8550774302966095,-0.1569128145661911,-0.4383723551697183,0.17209036435725533,-0.6444103835067287,-0.5172633923672616,1.497201324510446,-1.1896051849830909,0.5824445780709682,1.317555919869526,-1.3853896052247747,1.933059621958786,-1.3767474585745467,-0.1433608363276746,-0.07312132452494335,1.5752300848518264,-1.8813377308841228,0.4471799556237994,-1.4564636754354927,0.2587223285454714,-0.3609750374238434,1.131196000562066,0.18445263884790508,-0.3174396387337137,-0.6643684026375216,0.7998411300198693,-1.0094619234905133,1.382714364763867,-1.6238315174391493,-0.6981866861994428,-0.4320007059038793,-1.3684322074804771,0.3138412576945009,-1.7994262110293242,-0.05381741966359499,-0.4297588813898412,-0.7365002782019774,1.2280510543727243,-1.8840295277580084,-1.0915222036399714,1.7584095358449021,-1.6328443483649182,-0.7709879291907371,0.4252968509853985,-1.8168249503765765,1.2118379692359982,0.5075809880378261,-0.6504266271850065,-1.5959745784733315,1.8227385676626242,1.3826860154334706,-1.224461717330192,-0.03375812651981436,-1.7991355892744534,1.2139689400112603,-1.0720716505740464,1.0725718947188958,-1.7501379591653445,-0.3045688891623515,-1.1979613834559673,-1.6353799791644086,1.252338792771781,-1.4603233399731295,0.3057805284486754,1.7584099932494892,-0.8302182519281223,1.1531716316978144,-0.9363296768558014,-1.2172848610592277,-1.4254290127964029,-1.9634104658559064,-1.6906998589991065,1.2327561409450802,1.4729219812034464,-0.1533558139949518,-0.2921967423102534,1.5853156175930407,1.885160931231768,-1.6373817126197072,-1.4158954593234925,0.12166274278402112,0.9964844932915145,-1.1625457118113185,-1.727746809191947,-0.8840001291286259,0.5529017378508025,-1.6672760596476253,1.3014831120776122,-1.1163447414827394,1.2178327141692362,1.131071539472694,0.8312105655442501,-1.1782008901691388,-1.8878700501521362,0.7254941162724977,1.0266682561542333,1.4010059609335617,1.7784370230196203,-1.3582260867504816,-0.42298773610476204,-1.3934566253887852,0.8542189158250788,0.3478110731759694,-1.0706525396732616,-0.9513619208108657,-1.365251367413597,0.8011787797678758,1.7323643127202213,0.4591026983700428,0.31354123268987255,-0.7589496018377218,-1.5846479702901082,-1.1214437617787936,0.8040327740791513,-1.0174624082992638,-0.9359883672728198,1.6282911218602387,-1.987932219882346,-0.8989948640210907,-0.2562783770128543,1.5394623739896334,1.581958162447715,-1.0791006996248762,-1.3101189670167295,1.576767203581582,-1.998941078399687,0.5176492679884634,1.5881588842506007,1.5757852014969163,1.3663138600228022,-1.416577341200144,0.31834542495448215,1.1051612348822437,1.443495050210211,1.4842903612091591,1.253527632424988,0.9793292813528254,1.444061966696517,1.112148143931524,1.047019743819431,-1.0541969809757616,-0.8547817470376584,-1.7931810021655274,0.016683508755624743,-1.7736638529531854,1.5624304510068572,0.9135246201104321,-1.548079098997622,1.084602190724433,0.5162611371340335,-0.14778653683822762,0.546429939966639,1.2173577084437506,0.2554733545309329,-1.920492161625622,-1.1574340033875012,-1.9560388767006511,-0.039384497087508574,-1.4413896552914656,-0.11259683154245215,0.32636115568179536,-0.28009740364342894,1.8120373512873131,-1.8010160654406873,-1.8446790534008803,0.004296723451449491,-1.876853435587965,-0.22865530468808615,-1.1438813806320658,0.430653855568198,1.4582451483379772,-0.3877151596924655,-0.9733023644879109,1.0645891805451835,1.5462890521082069,0.8903962723169823,1.905163127566654,1.9031636665112015,0.13376866549205202,1.5425974819583863,-1.1847212125277014,1.7616408717484786,1.913615355576884,1.807436911528249,0.3306560682922308,1.6564544248617268,-1.8526613023758993,0.7836271203872647,0.3810741656520906,0.5088504703858279,1.2174186863886653,-1.1658071888094161,-0.7304212390843583,1.2287152834438215,-1.8801611882679552,1.574608730508114,-1.2028100251192875,-1.4587930054863145,-1.084421399006283,0.49680852057198877,-1.4933314524048025,-1.498129334868854,-1.5997325368155377,1.6585359421346713,0.03430559758043028,0.3223522269285142,0.8573630127894027,-0.22092300016552224,1.5964292642445401,0.6636011924622194,-1.7330614018464119,-1.1656093817424984,-0.7864826227059067,1.1768695726847973,0.2854091164951509,-0.43216875413003697,0.5240821924806105,-0.6309783947500738,-0.7417037316207948,-1.5914942581983582,1.0561255608014717,-0.8644947875302025,0.575911876301225,-0.24192928051792473,1.4612426243818617,1.971349355103401,1.919637289614708,1.635845973810254,-1.6868742211916246,1.8604127504791679,-0.4893941076227497,-0.32512943308970366,1.670259845129202,-0.2769415743647934,1.4136197813297708,-0.38174023372798516,-1.75565489827554,-1.33424841039853,1.6154961254667932,-0.46501047236966464,0.7501066935968734,1.0295519948660377,1.6532805549826777,-1.0027988834829529,1.7570270427904306,-0.7074612415400696,-1.175309861682167,1.0459349772464819,-0.09893056819599888,1.2236899322411783,-1.2739376596445173,-1.8761385086314752,1.965875253479048,0.25871906867909855,-1.0834555321461319,-0.5910395811716631,0.06044063429701252,-0.09157900144105469,1.2217136257482726,-0.405010451606878,-1.759201828499453,1.029079693561663,-0.6413795901244046,-0.7039909205688173,0.3482025733779994,1.7929816254370592,0.45425656920723423,-0.0427122274481011,-1.5285347867944248,0.4919678642147183,1.4515184686576181,1.873144187257242,1.5603019689296809,1.6233925578726862,1.2983081876332303,1.409166547173479,-1.6761040147812971,-1.9517500988840406,-0.06421251318228283,-0.13224907459329183,-0.861590549487564,1.8218059943338814,1.017138797868912,1.5874077481715019,1.6031797901834963,-0.21716109288999874,-1.9233297736225685,-1.8242147734796164,-1.683307748230721,-0.4600398767252787,-1.644106436522006,0.8399504053603364,-1.578182165386485,0.6885583208824504,0.25846545402910737,-1.074602535567859,-0.6732426990833069,-1.0761945876940753,0.048861515152727186,1.5241685144724193,-1.1997564634651763,-0.17920906221374944,0.8299059209080641,1.0094273107154503,-1.4688085064319423,1.136963854597698,-1.939081949455442,0.1102850740155743,-1.2298944550746476,-0.07704679724682073,-0.6181298129132191,0.732906727375247,-1.8841467223400277,-0.4522098062934572,0.3905805455406992,-1.8324284052921476,1.9413473927063185,-1.1239614692108697,-0.25562885432585825,0.37661627859490254,-0.28925489487548584,-0.6292767100710224,1.2669399974855438,1.9707016219538467,-0.691463106169123,-1.0903932666840674,-1.8481933170713232,0.1981520904060119,-1.175076244192271,-1.0156095906396554,-0.8697337968343413,1.5136735582478855,0.5050311265565313,1.6929439099665533,1.8450443650518258,1.189853197164041,0.49146275582810084,0.8721672585053755,0.8987291646328126,-0.15410157581621942,-0.2897115589675847,1.2792413129478755,-0.892869044054164,0.975018547864142,1.608957149322023,-1.0760606689531182,1.6426840300139158,0.4385221544909914,-1.5832517953055434,-0.679190420899586,-0.7086655601620291,-1.465042673012877,0.9777896456322805,0.30856324469724905,0.8839591640948461,1.396975487308938,0.6427616637737548,0.6320764369651473,-1.5879721610963293,-0.9343000660833307,0.5187275063529602,1.2188086734570076,1.3319588129364641,-1.4865680324445578,1.4985006706154138,0.6460930652213954,-0.5513139139648691,0.664819072477969,-1.3226727341409736,-1.680963332771321,1.7720338280707915,1.2357406642733326,-0.5044132803204251,0.8082849443459938,0.01044889659655901,-1.3040320890070345,-0.7120939704992444,-0.3108035231281252,0.5835717942955161,-0.8647225510644709,0.7962963473241635,1.868013105335482,-0.8259313553938741,-0.6354966249588498,0.41861339479237314,1.7906605354485268,1.0225800457002623,-0.42551075764571555,-0.464590200266235,1.3429455166970663,1.5269958611178414,1.863888527384511,-1.458447427927441,-1.6889574475880074,-1.4158207615092735,0.8545125535206273,-0.37939189321324385,1.8207851546638998,1.4925446666230213,0.22228911018460362,-1.9583236301105478,-1.6585168329431528,-1.8862224628829471,1.722818555528538,-1.9522736185532468,0.03917175898447667,1.8984178618417098,-0.5797805602813537,-0.7924184506295759,-1.2028712410064597,0.5267773781066389,-1.2385332469281405,-1.2501098730518643,-1.3026847013594685,0.13472958601472307,0.19720316552299355,-0.47871202869797047,0.2698861530326173,0.834053664697441,-0.07308794811273467,-0.744676000516725,-0.9619255734858725,-0.07533340935007216,1.3726275391563205,0.004716497210115911,-1.879616370973117,1.1807755218137532,1.7261546099881442,-1.2597335151172953,-0.9479642489346087,-1.9064364982155508,0.6121167053511862,0.15890598413482726,1.5078772830382783,-1.617870442763424,-1.6231765949078074,-1.2064994432898977,-1.7108578984733516,-1.526144531562787,0.6953224529753825,1.4769405950790735,-1.3364977595456118,-1.3193322431126289,0.1951910768828511,0.008859832053481842,-1.9318238868993323,-1.5652233179678783,0.9065906158389976,0.023460007511353798,-1.0253642728195875,-1.3073712125819084,1.7965147697258614,1.502779455830522,-0.6077822876241923,0.6870424911485653,1.462520268276176,-0.6982272172654955,-0.5228374295002665,-1.24693800966577,-0.6076524798002385,-1.297410736581027,1.0374997908561445,1.758226858829378,-0.4304451859435092,0.7703698086336588,-1.5639652942323372,1.7170394873092332,0.896581318298451,-0.17466165889150842,0.7225846376751717,-1.6519823116589243,0.721651589150436,1.7086731320567288,0.1414219204523932,1.055845358184702,-0.3638661196309396,-0.412428099448499,-0.6180975880960555,1.3571875389133061,-1.9076297317225017,-1.1200628795673095,-1.0131758085197355,-1.289986199424352,0.20454842656818828,-1.6904915911199914,1.7661463310317562,-1.903865622013222,0.19228059613198623,0.23335071691373743,1.0963852148702542,0.9112333213538557,0.4094031969370264,-1.122484418726959,-1.7435179530656764,-0.819731820745548,0.02893001623799485,-0.9700482852455012,-1.21044407176521,0.08382911543853266,-1.66187451598624,1.5313111338758034,1.5173455244077036,1.1290630124589685,1.7338714277403957,-1.5099919416386993,1.4508943688487363,-0.8728898007285002,-1.23722370818404,-0.1393643367405133,1.2333874665866666,0.300781694454749,-0.385623091511611,1.0223778016276381,-1.9215689836658978,1.9937759901262329,0.8683610364028849,0.023539326076040812,1.9038778668462575,-1.9373720511373178,0.3809063616833779,1.9644599406635903,0.6023986116403743,-0.97999308602206,-0.9341815077841571,-1.1942897187026493,-0.5816404057810391,-1.8906130083337636,1.2835685282970637,-1.6825202339931544,1.178983336400182,-0.4227120942941309,-1.4628929926987158,0.18933450710870448,0.10920778982597801,-1.4224183281279261,1.9981333483778196,0.5703498165611434,-0.543786761894248,0.6091835607798957,-0.6181146763358476,0.6656470540243822,0.7828812079193503,0.7477581993439677,1.9396471215248647,-0.8157002683555814,1.93602102288814,1.6828826666314138,1.8883438327614201,-0.9034425397135855,-0.13725615942234137,-0.669706800855745,0.4622670400813491,-0.1607977281741162,-1.7325586140355167,0.37670917039185303,1.3712217076409208,-1.8483285794842979,0.45089685920354494,-1.6923792066626344,1.1599531488681074,-0.7173669756066547,-1.059227745981775,0.09404384810765887,1.356498083655901,-0.8079632170145521,1.7756388517964652,-0.5780244479959835,1.4613750487021981,1.3213924411062838,-0.8961553719877222,1.676081752399062,-1.8324413304148108,-1.9172806041649881,1.1293123204764806,1.8711156846972834,-1.2005607813013706,-1.6773806926514094,0.5732656606653128,-0.8767706109015712,-1.6141725115751462,0.16884772992677188,-0.9759081410732633,-0.4094740608910534,1.6037321128302038,1.3317242945346934,0.9550963617212966,-1.896409882442084,-0.8945753091684256,1.6200265112402836,0.8140509406499752,0.7044980433841741,-0.5995022126824088,0.8097394840146617,-0.5707138820470421,-0.27084825259845013,0.202009399919572,-1.6097250258969238,-1.3521771783128202,1.9978361968475191,0.10195899021676524,-1.731330395560609,1.3811086929556682,0.6828382254988399,1.5543632003631327,0.8765512951497532,-1.7373676566483023,0.4921897004737703,-1.717180936677519,-1.217352237303746,-1.9359279301811378,-1.6536718126181942,1.6626737162996759,0.5406015801620767,0.700764979285577,-0.10548554962838264,-1.015250560939828,-0.6800236578495218,1.084956041156016,-0.4429294741043468,1.847267017922697,-0.5987340088652577,0.36636772660291284,-1.8506247806759086,1.1119085018212487,1.5015038409231565,1.336374999867866,-1.0710336329108627,0.24165778013846229,0.5564815151933886,0.27371573456459153,1.4333519185737305,0.592784606631334,0.5320100806086043,1.9808975014052148,-0.6113916350324247,0.6928066010144871,1.904696716081793,-1.4782274476884583,1.7262784075253266,0.9502479668689876,0.757513894340518,-0.9540844172955332,-1.7841676019528676,0.4977269533989581,-0.5614867222090258,-1.0999389028233524,1.0174375388098804,-0.047890580790241444,-1.4632134041549887,1.8094741857405765,-1.6649452003693184,1.1521529098593009,-1.209586770228578,-1.3158118694030598,0.7036128704405229,-1.3215029063277086,-1.081144485303454,-1.2359374401338163,0.12079582964021407,0.5560358499849696,-1.2123276557317042,-0.881952663388331,-1.8390822948950878,-1.7214305197656556,0.5064328903453919,-0.5254862498203106,-1.5171040946390018,-0.007703056793074925,1.989964986851632,0.08518864081918354,1.0530431595733099,-1.4599497156857772,-1.7436673506257043,1.0966174319844795,-0.13636869931499573,-1.4257919708549216,1.5995173896302584,1.4235729034849043,0.42736914617250843,1.897970970553684,1.041159779631561,1.8319356692376414,1.5818370821467513,-0.9968868309960417,0.135157696588458,-0.04301560751867406,0.2853074493789354,1.6701585487247383,-1.8621856934970213,1.7599899304325914,-1.6743746159116797,-0.9617000754254454,-0.015894808834190588,-1.1330828797738826,-0.1744776885373489,0.5953776493029461,1.0236098956867834,0.032656116646516686,-0.11352299736752602,-1.3790944642785883,-1.610142545133348,-1.2831550940985221,0.6884607051222202,1.1552705384465614,1.9843877781773975,-1.729754150650339,-1.2681258388023342,1.0725536801757154,1.0200002460632156,1.9118602771455078,1.491430418028492,0.6805243615319401,-1.332488488482936,0.4272563003479175,-1.9804658241924353,-0.7491095230209979,1.814782735131934,1.1996284924952558,1.574630845797198,1.8667811297046826,1.0093783710874078,0.9256175265064805,1.1952267687845604,-0.8158096293376982,-0.520599745815653,1.2445227903910587,1.4284362235296193,1.9996919777764162,1.4935622251810323,-1.578576405134592,-1.5089819409315917,-0.8381046762782391,-0.5082170305886247,0.8754699405518616,1.5836442354051488,-0.5390677142819,0.8925661042410273,-0.9677671618919805,-1.8218356224798669,0.25881044783777796,0.2490905701085242,0.3716663858094895,-1.1775355756526595,0.4870787850387104,0.28510228321685016,1.4181652336750221,-1.8281324468515185,1.7228912819217115,-0.25844755462276137,0.7864820540114805,-1.2875016813283477,-0.7457644801822503,0.8337335438660811,0.5502558852447996,-0.6444123291035764,1.4714391800977231,-1.2645865495361832,1.6406766236142558,1.392726165462351,-0.9669509345409408,-0.7443845959961464,0.05268551969065527,0.847303618477786,0.9986638477593992,-1.8619790035396524,-1.9200380072125567,-1.402323556972557,1.2138769066522226,-0.13013271197541343,0.9102941023522049,-0.7467743087774337,-0.12946741417326413,-1.8539491629470382,0.7193748854311752,-0.4025132276212471,0.035223240307932,-0.07563080490676866,-0.35159755677737614,-1.765043384405769,1.8793394419745404,1.2238178986829613,-0.9596439689615108,1.6151608873483623,-1.3779470859362886,1.1258883493589873,-0.00455745127219398,1.5633222970085674,-0.7196598392712152,-1.8597811841770135,1.7819517536102185,-0.6796535073022434,-1.7064422204094525,0.2320826645521974,0.3607922335635694,0.5009062453630269,-0.2656031091686182,-0.16377410822969818,-0.003980030189976613,-1.350844622376786,0.6434257265504382,-1.8864129149956814,-0.7734454012446355,0.29252855562711444,0.6334087447998491,0.7656576078092852,-1.042233922824738,0.9793121864107759,1.070216397135983,-0.05436890877257605,1.2322833106791218,1.364695576680881,-0.38935929862215124,-0.013964054858299768,-0.9465950403467294,-1.8619683158872022,-1.5026375650254784,-0.9789971042751175,-1.9292714591641227,1.2492518417227032,-0.5591295459718246,1.0484371440204732,-1.5451925854490778,-0.46098952096515466,0.9785262336660216,0.6922246751645589,0.8184791865805421,1.2850775355409918,-0.9149976622144331,-1.309571954916386,0.1724895466573142,1.9599890733504148,0.18216062179147574,-1.1295929685816386,0.6706494453023093,-1.2559619261246175,0.6393773737447477,-0.7077651043940167,-0.4369703342608333,-0.47208658508977885,-0.3306763825397936,1.5884127516246864,-0.09994343892312152,1.7384125640121946,-1.629494965049477,0.043516804045141466,-1.49298096112267,-1.2258658730736558,1.8991918354433066,1.9295917671814213,-0.43530091504441115,0.6804185124192208,0.8830409604274667,-0.5097587068769736,-0.4495509927057051,-0.011006228424708997,1.0901968698707867,-0.8968807947065329,1.1697341628895317,0.7143921194958964,1.233624947593511,1.3464346408179604,1.1877323485423394,1.6976705053458105,-1.5513719114401554,-0.6909201459214636,1.0326461243938696,-1.6026976705392415,-0.5726018396119343,-1.032883894606102,-1.308222073190064,1.1074487454046147,-1.5557637271335976,-1.8268155564952173,1.6439103841618015,-0.6684966903487184,1.1216106673462551,1.2879238159951654,-1.7007918435851748,-1.3673901292465316,-1.0760999205797392,-1.1831753113425876,-0.24260533367644888,-0.05552715059838054,0.03102078862875768,-1.3249237205695814,0.22711113076292833,-1.8216548097369585,-0.10964772279576529,0.22115434466033923,-1.1664235786962562,-1.259898491718444,-1.0632770676000791,-0.5418580008711507,-0.3586178825777808,1.7992714185690413,1.8529937529300895,1.1753606498294924,-0.1534026264059194,-0.5304713130676504,-1.6121593842781077,1.7258310734097395,-0.4535625505021921,0.025402751825289283,-1.7518655928646418,-1.0171687052616942,-1.6482795227247689,-0.7551120587535007,0.4285943081920385,0.4033500256445386,0.14484299419179258,1.219421021708091,-0.043992379153829475,0.5638668736681232,0.5860153180626879,-1.2242950144331548,1.4409242506142101,-1.518644409847167,-0.10145978897725749,-0.8659531387631776,1.5508297225812275,1.8266308761006096,0.7960847991948707,0.4231012060916841,-0.18586759971820088,0.8803239631128323,0.023130633929342448,-0.7255249998708555,1.062063412096371,0.06164327236049916,-1.22508121163496,-0.7228610615901663,-1.3680078521639123,-0.18636423364270938,1.5180063999281095,-0.9558434705476788,1.853952351135324,-1.7928485313925582,-1.5275621607656173,1.8490134113754566,-0.21361671795830084,0.8430744681453146,1.7803385964859864,0.500100202860601,1.665000895483741,1.4629119537583946,-1.626691681264914,1.5138355208310985,1.3063490131864732,0.08320423146412148,-0.7971084659653318,-0.459552495607249,-1.97818828883211,-1.3188325729949981,0.44201446242511233,1.2448405627740708,0.44923530237544806,-0.32567677598098754,0.7283297810817775,-0.46048976305974465,-0.25989873155226606,0.17917253146117762,1.062776834124859,0.7865788964790705,-1.5889602899890387,1.5874462339533766,0.09304064443250448,-0.5845281771740409,-0.47716338299257943,0.0030558263306050826,-1.498142212224773,-1.6644672045753128,-0.5089640638058919,-0.8946817995337502,-1.6913645429177726,-1.9334967514743515,0.06615523039663174,-0.8793861291155811,1.7384373498769659,-0.8719043523587016,0.46026195525157965,-1.0841542480899533,-0.039360828585722984,-0.19337657010406506,-1.4555872583350107,-1.346887968379031,0.6572135561036601,-1.853656945137641,1.7057927718543184,1.4152261507980248,1.4870276928652113,1.4037498220680984,-1.9066462838775422,-0.6761276456669125,1.4967496617888552,1.982232462181432,-0.7665097449616747,-1.2379421058134201,0.5521829858981899,1.5256815031756652,-0.2068835602368626,-1.2435166273587406,0.34601199776983194,1.6476507587458822,0.5612060571649486,0.9949932607017424,-0.6933809906056352,0.9673004547264443,-0.7757817842277377,0.20023313447368762,0.8193636404907876,1.0856544475252692,1.9136867808454832,-0.6946294816106255,-0.8890631479334297,-1.4507619428601553,0.13698013004170306,1.3499394294858762,1.2576071430550733,-0.009737121857886333,1.1433192138376977,0.01652969659089054,1.1734086042584537,0.6070323661937671,1.7069670395895935,-0.9796806167252043,-0.5133302449574964,-1.497777650768552,-0.6459865208353461,-1.1215866399552028,-1.165385266959336,0.9987486966333177,-1.99351954915956,1.1232567184178253,0.23394216969308568,-0.9934871859041534,1.0879271201417025,-1.176366475663972,-1.7631946932842135,-1.1411575147531887,0.046490499733395474,1.2029373611314575,-1.7272263269968176,0.5112338198826443,1.9345172597080977,-1.464188771550765,-0.005419261115676477,-0.9954252071127985,-1.1648768190621097,1.677299713728571,0.7410249846544481,0.8838425121608346,1.8425469072106893,-1.6867569462967134,-0.7480822837354046,-0.4621120295190022,0.13569359557202354,1.9174201929135966,0.6082678172345504,0.9031187184358016,1.84796984334214,-1.276574867047159,0.13838866554503593,0.9276605608575292,0.2411199856584516,-1.0331825639759193,-0.5914408005057727,-1.5807349555661871,0.06656485597624995,-0.45689403061082867,0.8930511258450107,1.3637886120541522,1.1946191701971252,0.6400323428415091,1.9611424883351085,1.5468798273860815,-1.7212705450409893,1.6636933780614491,1.8617015237874117,-0.6860709883544676,-0.5206599834282635,-0.4262145723719417,0.03741973771602414,-0.6176607378462831,-0.18140643540270096,-0.1098479968028867,-0.8572471686866012,-0.11497632458987983,1.3607186704815488,1.2515189106549576,0.15394744009208816,-1.6088765365876645,1.8989460628619184,-0.5654126321760002,-1.9942411411208827,-1.0968439225854167,-1.4352371510867825,0.12304258009102575,1.898412398031398,1.6058907550514188,1.319851957871912,-1.531481207136371,-1.6370799621473235,-0.9016356777936196,-1.9733216332252272,-1.696106761866607,-0.27336011747881006,-1.6722452120050049,0.2702080286769011,-0.32679659298791686,-1.3542195454912664,-0.7630266935863914,-0.16989838804961588,0.27280810385308607,0.8342804619260891,-1.7354772322955232,0.7717836377544893,-0.5208547936243071,-0.2004116401552567,-0.9936695602869663,1.1362452923652828,-1.5744052210247443,-0.5063811523594257,-1.3495945001388323,1.5890397771360965,1.3506070786317617,1.8079277992324907,-1.3042873632339331,1.3640041783397696,0.979135732800887,1.687044214631218,-1.995759949749067,0.7359892112964421,-0.3597156098501322,0.19537747662760685,0.11148973829700148,-1.9757596114520455,0.9226436681199668,1.6346244659748708,0.5692609688953034,-0.3221658519153836,0.30260313880054257,-1.21779124190549,-0.8601658189766308,-0.3595013436175605,-0.9310743049497994,-1.7243189727963313,0.2836191023804022,0.24316080227299652,-1.9949863757746829,-0.9619492035697923,-0.6664203518280076,-0.5863347085097099,0.8750451230898797,-1.7548275797346342,-0.539254849553521,0.2927933828775191,-1.9104904268475233,-0.8920047115268943,-0.5855243231501843,-0.49184016654990437,1.0926012571847674,-1.3027473625260724,-1.7283079681170346,1.867715332977303,1.2712398568388155,-0.8423891628219606,-1.4134628460408645,-1.131732966852241,-0.9444514416151857,-1.8993316881039837,1.4269978670642498,1.259727613400973,1.1406531339787107,-1.8262031601167594,-0.887640674251096,-1.3133624374337072,-0.9823873685079061,-1.1630107797750147,1.464729908542128,1.6870386400915458,1.4414469086368888,1.5719998290540027,-0.7368734207831853,1.7982085074762724,0.23914175276097094,0.7492437351034895,-1.612140756353806,-1.1384350086144281,-0.5560918807654978,1.07416718831087,0.61074955793439,0.9207971381401796,-1.5877953645459795,-1.725482155846068,0.9298296262818049,-0.532625553982327,1.5207163232142054,-1.632581280273429,1.7584761934289945,0.612824039348149,-1.8891033083168525,0.878769365576483,1.701200734356807,0.12402690482362999,1.1278827436780792,-1.6527888982233834,1.1170262988852828,0.5027850479016629,-0.04629084455574972,1.476900591199429,-0.6332745755971727,0.18661668103353923,1.9897310088513116,1.5618801057885365,-0.26480860208106183,-0.3097613777239894,-1.2193072759177306,0.25560439551127967,-0.695745371003555,-1.7273063429825517,1.8481634993235656,-1.8081275030713577,-1.7929811805740825,-1.9822717100158251,1.9909355371381334,0.255063820350689,-0.9826599060432346,-1.8349943665677921,-1.948330419905715,-0.2837903539206712,1.3068642314230177,-1.91144250639291,0.3710446559497731,-1.100786727811096,-0.5088889802430208,-1.2331558044154103,-1.472528920879272,-1.1598162839675474,0.013385715923200259,-0.8766953163023943,-0.22320686843841164,-0.784470477380399,-0.2742701786358661,1.8070006791695783,0.16798469934478621,0.967256573767167,-1.7708632499809056,-1.367061485363695,1.7509454158566289,-1.4346688369568246,0.5418647383210433,-0.9086494528318472,1.760913545302917,-0.16751638222160148,0.5366121291432688,0.46565464818559343,1.7214325978554994,-1.4905893557679946,-0.8436108973757248,-0.021323000142995596,-1.3490459413331815,-1.1545564318927148,-1.4421362333341987,1.159369029074281,0.3375234576808035,-0.19032227151856906,0.6271416770586389,0.590075674484154,1.5163191865571917,-1.5600401996941136,-0.8733049252776199,-1.4671321029727031,1.5706368302007836,1.2127821408066923,1.0518119507789914,-1.648492248579395,-1.3328573493526696,1.707280463364417,-1.170429024670363,1.823912478002736,-1.3011208101091403,0.13671472770966675,1.7363114147524583,0.9538460344432242,-1.5888421242585573,-1.8985134767745695,1.399852704894101,1.5295693412817366,-1.0727760696140232,1.309032236896654,-0.8800001439844851,-1.9798639844897528,-1.5264614374929537,-1.0790629322878753,1.4418381923527295,-0.7582780522272681,-1.2929432170601216,1.8135313975524534,0.11885821532385865,0.5955568396157691,-0.13283987977549172,-1.6155881371183058,-1.8193267589844306,-1.1690784274704034,-0.6311998259624483,-1.8640112394063033,1.2431140380159857,-1.8590562120258975,-0.06361521828816041,-1.1102789185614768,-1.9635072837047187,1.9236478262939434,-1.4021805339726598,0.666522812149815,0.6940697992893243,0.6001307406300009,-0.5017948620423645,1.6425670077461922,1.3497767823931275,-1.5900139858018947,-1.3003808378344748,1.8128594205529502,-0.9734861997132032,0.13494758173736887,1.9142398699609893,1.4573272786068614,0.6351832272197808,-0.03657630821805791,1.969640992961371,1.95925165614931,0.5017270982817759,0.1819907151105169,1.2816998479621762,1.691536209890756,1.2948997784508776,-0.3274094359039763,-0.49754427547658864,-0.8985859555050952,-1.05309802364245,1.0380493156954147,-1.6344256246459516,1.2805020789041275,-1.8992746521495545,1.2188425345195837,1.1032023323500302,1.1230584377273432,0.9756066098257454,0.07704457884275318,1.6904666136974287,-0.5390325270399501,0.3068189358601425,0.4981628851367219,0.9238572685798112,-1.4183374587555821,0.5996412388108654,-1.3299548056362585,-0.9829642103997767,-0.14683830330238967,1.3693718418542358,0.13140358818898656,1.6426250480439246,0.894006989447079,0.24724470061099701,-0.5382248331650898,1.7579488349850396,0.7368011807830639,-1.6626040426954996,0.9925405057088885,-1.7280643349271498,-0.4228835733507701,-1.7208028609073431,0.8852754941433476,1.4520785597705532,0.6131063200307572,1.3852663941636703,-1.4706854622847318,-1.4692391065775503,-0.09926254408667834,-1.4153792836161831,-0.7417377205435018,-0.3515549989734974,0.9639975793571307,-1.6603792099017163,-1.208994520403892,0.17337728494346116,0.5748989439395635,-0.7130330705779224,1.0478033457322349,1.154005821214641,-1.9335984753483766,-0.15763567403289702,-1.7951839365953188,0.9942403434956257,-1.0903995701755989,1.749581258300359,-1.9055228554978316,1.9404888195691683,-0.857101115511639,0.39064959025661716,-0.4814926160904007,-0.6957875614446021,1.0421697537715504,-1.7555647984789764,0.5028627218031669,-1.8180241748672463,1.9692113676435827,1.1209162299001596,-0.47898943439036223,1.8819396335223297,-1.8185877698263,-1.5288112519036483,-1.8746814284877327,0.2293702226892571,1.6711107213015008,1.0673054588655022,-0.1493270098493289,1.0739878472100264,-0.8385406481258002,-1.5235308486537669,-0.7353528431669774,1.4565694134356328,0.8819723235766666,1.6893706363637082,1.8832044727300672,0.7703717725969521,-0.6233456953507175,1.062742945148138,-1.3715507598680898,0.7487558368291567,-0.42355233139590887,0.9070596557689581,1.3054936260465606,-0.4247521729405812,-1.5048985498312275,0.40827091618181033,-1.828367188646149,-0.6294380348551756,-1.3701406568424428,1.2738164285768203,0.35800725538850786,1.1187994478414587,-1.6551597323587042,1.4693733320215077,0.08173084828065491,-1.88738272920655,-1.7617250960073885,0.3050030949134208,1.14293133049341,0.5882053118021706,-1.4235271491290242,1.5966575211834306,-1.566438709727835,1.6242761889001351,0.48592852793287733,1.7270637354397191,-0.1974668605185017,-0.42444698947298587,1.1680126762923155,-0.19005728795694532,-0.7688502356019429,0.964531441949926,0.2761651383505841,-1.263902513230501,-0.7488098999256763,-1.5116152826205576,-0.9386002390346397,-0.917559200892629,1.9497328471181161,1.454126621450842,1.8376282591945765,-0.5869745484068623,0.3466358768611184,-0.8677397186429459,-0.18860980129402005,1.4016435822473987,0.05367943281096732,1.120284474979616,-1.2629578928830445,1.8935327825047423,-0.6567633789328884,-1.8114866473900668,0.042977356202436034,-1.375331497271893,1.2071241391534677,0.9715836086133502,0.5783755397618031,-1.131364330280566,-0.6823713299843135,0.02720148095148245,0.5734806149313365,1.0943457847171931,-0.5068283428214793,0.3480339378540238,1.6605436044725765,-1.1121117287973723,-0.8639730714797764,-0.6520594887178182,0.1890659507173269,-1.153073215645748,-0.16330199988999183,0.117990867839747,-0.19493696928582693,0.2873627658675577,-0.0773892392195017,1.249896044314434,0.32895170589410805,-0.10731099887277873,-0.11499107597150982,-1.4447204353419734,-0.3426001491724793,-0.6384881467186592,-0.849980300373947,1.388319824324014,-1.108908731224711,1.3163555127986322,0.5844640049198975,-0.8315826570529383,0.06234647045895203,1.945652037470515,-0.5072525191286976,-0.12299637382271955,1.9609611075217197,-0.03987922784432252,0.4290690638538486,-0.5611304069124068,0.9323627688591394,1.7669119233889266,-0.8997718237546919,0.6892242089486103,-0.830450056867662,0.02361994402674794,-1.6227879198715578,-1.48996873542275,0.8435976089825736,0.17725057377287667,1.7701762254498914,1.3253675376220646,-1.202277781446508,-0.08474921685187908,0.1989221663116716,1.0392124171362003,0.0974101015368607,-1.58527539823453,-0.2738216657309751,1.2487221970890348,1.2296098716571704,0.7904587579774693,-1.8009485551729822,0.46237770253866506,1.244750861240731,0.20746376441990932,-1.2230543365274391,-1.7431682107551967,-0.7822691524290892,-0.947167987991619,0.05119027540019472,1.9095993963707918,1.0930399040306904,-0.6136409509585214,0.1197037641049028,1.2926316479704756,0.051298808293569476,0.03967782238512019,-0.5035334025300293,1.7224420476828652,-1.4713160962745926,-0.8856484342046418,-1.2379757548983,-1.9651305438525113,-1.6420168924476175,-1.8651010220184885,-0.9813555036070509,0.6260473203747328,1.45773287676727,-1.9293071230018612,0.19430893194668375,0.3876012009302774,0.8382073375024,0.406412618822122,0.5047244380941702,-1.1042405030951494,-0.5637849687455598,-1.2578928333644543,-0.7517914592540373,0.14657182221205822,0.699528964885745,-1.015557396023735,-1.6076300103432368,-1.580136952102412,-1.714742752967568,0.35619346221521875,-0.053537102560519134,1.57896931100463,-1.9609568490738716,1.5284138638673759,0.1991825900255173,1.311245071468313,-0.8355420193276286,-1.2229905658119153,-1.370194168619049,-0.7501233694405842,0.042471889864614365,-1.5222998095523677,0.6988552556902801,0.7454713747008341,-0.8180986428790185,0.8742574864371195,-1.7601640130461513,-0.07397787945771928,-1.5369297003335682,0.9470249618544329,0.2578134837221757,0.8418265445832973,1.6649522070516571,-1.024053778253851,0.677271079563381,1.3724810631846958,1.0075259751823595,-1.9490650428526508,-0.4119643430431945,1.818230131694968,-1.8624756128988538,0.9931545859848878,0.3082962181339246,0.14739257026879837,1.214598333653714,-0.5185792343351716,1.522382001038555,1.131202672987651,1.8617327743511223,-1.0750016324289575,-0.003611446666177187,0.7140838234108875,1.4942694626524586,-1.6521247941142985,-1.3886500598634313,0.8806341260809343,-1.4369657302734096,0.6546854042664609,0.7314314716019705,-1.2119148462324443,0.36658800028158867,-1.9239700244712359,1.8813488856834395,-1.8516629854799094,-1.9689913501116343,1.973065406720608,-0.3617251430629267,1.2665732240313305,1.657177515908311,0.9791861532855948,1.0679310298555054,-0.27680422036288377,-1.2981349347483069,-0.873441222968947,1.0776891012709258,-0.5469372251253648,-0.4241923984301872,-0.6236912209317955,-0.5673040137620791,-1.576017427565899,1.2599506188918768,0.43913494577121925,1.6294167451133408,-1.9712814196065809,0.7329485530169042,0.6352862784956748,0.24347276982484933,1.8820169063252674,-1.7963452773109636,-1.0491623114111657,-0.11987475615546872,1.0232534299024238,-1.0716735811093123,-0.9196518389846533,0.03737852663315566,1.895937058036659,1.3548433124980832,-1.7003237763520938,1.8483994281599547,0.5560518313520988,-1.8477224050533447,-1.3231218748533022,-0.44463307174089595,-0.8728915422605068,-0.33274927854115344,0.022503830314545947,-1.420616873395304,-0.7400876623343491,1.7340555403159357,1.847577970158687,-1.6851224290972837,1.5869553922830701,-0.07869169370014806,1.383515229147787,-0.3061601026659777,-1.639995278772243,-0.2620222191424264,-0.4060029186622067,1.8892625987227176,1.6254986185116653,-1.6171940330937526,-1.3426989266844367,-0.5904425589184643,-1.1942975214144935,1.8280773144782518,1.9960233295116359,-0.1900261317535361,0.7914786740696824,-0.8613583253231423,-0.41051158195811244,1.1601734441022917,-1.5374781883446191,-1.600678761681349,-0.23039179586158642,0.5350116526881417,-1.7812164041147596,-1.083879235139769,0.6513029855506551,0.4544069762645937,0.10372365273830964,1.7768381019906494,1.0965431507190275,0.5902436981134036,-1.5120826813978594,-1.5654361005817323,-1.3599274817865812,-1.453099494883722,0.8625391924440704,1.5488940153858612,-0.5155748145395163,-1.8568819968855492,-1.1310462705143536,-1.4573215365607548,-1.9449059923230774,0.046978673731058684,-0.86868741144312,-0.3616183258783665,0.12969691368835923,0.8149714508352028,1.5241278783471417,0.030614073842858414,-0.42113291867338054,-0.6662339686036236,0.5564708262840692,-1.0312817037806674,-0.3542934909379145,0.8467182700809741,-0.7821175475454769,-1.9552783881254943,1.2203161316447266,0.12923143790983183,-0.1021105095695467,1.379751730130685,0.20741713668522,-1.8931054370200329,1.5749255554273294,0.820514780577791,-1.8203038309241828,1.8668824063379024,1.828931007539996,1.2138192417075269,1.9207305563944854,-1.5271988625243829,0.8568831647583663,-1.4561191682647925,1.546529514267299,-0.0665094428000339,1.4570480613112293,1.7216646541845262,0.34072830814426336,1.3019299584996578,-0.8583361564218532,-0.87905829610381,1.5765160342329785,1.6473970543911287,1.2790580455770497,0.4221015843399054,0.7285841778262898,-1.9449111331898923,-0.1531346387328787,0.8283275628012818,-1.6411347212889975,1.572858718388353,-1.0709977453850867,0.3838319482237478,0.934513997609757,-1.9473315152840787,1.3839392158588715,1.1747228634704485,-0.23730623456036914,-0.5158492922122786,-0.16440570999522075,-1.1705819989433115,-0.47223895264003746,-1.8239856123140807,1.1300844488579624,0.44353514565279273,0.07430437461062356,0.9209291904535482,-1.878019594416965,1.0568243115345561,1.6946632638777284,-0.7288253410469201,-1.2216506399523617,1.4594195346787036,-0.8097130166929367,1.9971243244284191,-0.5704277811654084,0.5667362446833022,-0.49514709810360147,1.8198774504206234,0.557665513021739,-0.6268374765159299,0.8649377306074264,-0.27976167921168305,-1.076351266116026,1.5854568240680238,1.2339286697775615,0.9202015602366074,0.095452818461498,0.9914654656830484,0.6757839404702821,1.4489327877910503,1.7259485305508062,-1.3655988141762,1.5503303520901284,1.1424716876587722,0.4220663159740732,0.48794875634354584,-1.436213502136769,1.2687650476832992,-0.9143861457890843,1.1410255048111773,-0.5118395338797987,-0.17372037046140187,-0.08219687300348477,-1.587134820814856,-0.43751294148158726,-1.4911051285057502,0.1030560845963433,-0.8865029896995846,0.7304410378165209,-1.043299843172011,1.8670773510910692,0.425694127964078,1.0587618005811166,-0.6419061554740884,0.11514253059249357,-0.7349920339965963,-0.7534718228848063,-0.06415096826605948,0.24073114636508786,-1.918548868323978,-0.5887476668973366,1.0953280169495754,0.07936346890905277,1.7562457413435526,-1.4609279115400846,1.061530398701422,1.2044184934374007,-0.3245380897118961,-1.9486476340553542,1.7213981478400489,-0.08237468219194088,-1.1776170839286175,-1.910106938963502,0.29753769216484116,0.9954072889370136,0.5288702808670318,-0.8125940200089365,0.998211418073939,-1.7597795261214024,0.17125541065569871,0.9328702898706771,1.3835585971715165,0.48189748621184236,1.995978858140417,1.9337878301020583,0.978370547237494,0.382120806791054,-1.9407144636161298,-0.23219003675942274,-1.6290897610428439,0.20410615368973817,-0.778933173680322,-0.8956839569401112,-0.7363905236057362,1.9596513114438388,1.435918016771062,-1.2418802454118447,-0.08458920251617918,1.1270849792618485,-0.8300249914670021,1.4220552732492187,0.49289745866011714,-1.8176345699734795,-1.2198546732021476,-0.2502510021475768,-1.5275564161989252,0.21255869541242856,-0.09940445009566279,-1.601333965507333,0.6981518299317888,1.9033160964471025,0.9287084308913509,-1.9570995883213076,-1.8006351253294754,0.9761637148639606,0.13194282776270638,0.22327127944380143,1.5866738414628379,-1.512391059437706,1.985258980261344,-1.8158946578929376,1.2665747428966228,0.6027975242585204,0.49625817128682126,-1.49197729540826,0.11620881179915399,-0.8850090859816757,1.4012184289841967,-1.3403851434342902,1.3848588346731776,-1.9314348722664718,-1.9079103732570224,0.7081334359854989,1.1544153265248633,0.8617865899518238,1.7258819680725819,-0.30759171863580903,-1.6969419149093778,1.2969663221007832,-0.6677812029945427,0.47227128790399275,1.648696154220017,-0.748929401055245,0.5927391352415805,0.7460311763196246,1.4504494547782047,1.4855434054475412,1.5692911777257859,1.6530113717623478,0.7949728296669818,-0.43073501509216694,-0.5384048326167368,-0.7471441512295982,-0.6531375371717085,0.2841847820873493,0.7784564689672142,0.1297539313647742,1.9005803374062338,0.8522523732873508,-1.997013863353395,-1.7857134043634693,1.0504629472840388,-0.335343318243698,-0.03225726388984018,0.4822269970877673,-0.16983670910233695,-0.9280231301274329,0.5967774107232708,-0.3108324553866817,-0.794355089152404,-1.0823934041406904,-0.20178220182856332,-0.686529792661625,-1.7974179917270807,0.746632054556192,1.7430181251313455,-0.11087683594353326,1.7167519491322438,-1.7956555442892221,-1.8769443908534882,-1.3121823908188475,-1.243052219115703,0.7460461192035011,-1.9186254480171807,-0.5414003770346505,1.0823603909830521,-1.710054172713321,-1.3813740428909869,-0.82362881204521,-0.4439218223721335,0.2034790068664476,-1.748714169990031,1.9205469572706626,0.5732717022486535,-0.7796656506377646,0.46095463002990433,1.9153940301784327,1.1917358374302505,-0.7293624875555684,1.9868051049640956,-1.855129341436896,-1.5894746661770682,1.3768514078728007,-0.6439004931943408,-0.38646162558152053,1.4593850404950972,0.16158002236166613,-0.43260186159629166,1.503320445221167,-0.23389186722910438,0.9309840298856029,0.9105537753809156,-1.6764135871790415,-0.926505070099584,1.393450686378328,1.955148852902886,1.0845176334902589,-0.5535866829499079,0.48015278726339305,-1.320396287148888,0.271405391404405,-1.1860728097570776,-1.6988990933200738,-0.2673362405702915,0.7579511962233534,-0.3446473247048938,-0.6544873137212952,-0.293270003394146,0.8361290457468549,0.22968027213566078,-1.680650333067645,-1.4546066165588107,0.7869682770905353,0.4158441469709637,-1.920036845871187,1.3762109276778798,-1.3424699057434042,-0.04500933974200372,1.005490658196166,0.328061532592939,0.049798568950826905,-1.336494999884502,0.6997971581018692,0.990189442156046,-1.7568060145195163,-1.7021216715610912,1.4256031478650049,-1.391534694150474,1.4354227852034733,1.311104011764935,-0.014377507221957408,-1.8101981548099597,0.832184183369427,1.8903845156237842,1.4604334043491445,-0.8647428118480192,0.8275721608529274,-0.8742107895659896,-1.4889846102196143,-0.9609145407472561,1.82491050414593,-1.4580874555585788,0.10622600734706023,0.8235428873285517,-1.9341813784366004,-0.05048219834681644,-0.45070805693773597,1.3210547602841687,-1.3204848837790957,-0.3439266748640928,-0.5441425711615628,-0.7824190549107866,1.309664338585721,0.21700977733255478,0.02196305480536731,0.2617385222573123,1.1574734994749174,-0.6122229576667495,-0.6585334874291608,1.5544844485409395,-1.6520504896145196,0.6040640800259705,1.7291316774783567,1.4582662049919017,0.3595256543428955,1.3535175605540841,0.3624496623286828,-0.7134009688787395,0.3137116752208855,-0.6214848842485012,-1.944543331769165,1.9707989327875959,1.847068309274805,-1.1323410015637863,-1.838278387704198,0.9620234237706149,-1.6114157002347569,-0.33449746769493416,0.40493567630573457,-1.8462971512153632,0.23403126680866437,1.7696986803814143,1.8660545593115754,-1.8211343860426572,-1.6049497588245938,0.44670765801598966,-1.0077307513164517,-1.7233313558169714,-0.5911421750999848,0.5750007429730748,0.27609446860281617,-1.609515723711565,-0.9508912756121122,-1.9243729282968234,-1.7115563844178698,-0.8968247651373362,0.7843186365899188,-1.5082957167643238,0.7755513381376149,-0.30667763039779716,-1.7468313401136362,-1.6331719901958603,-0.14203259399094303,1.7806212946570898,0.34022840666177334,-1.9553139884185282,-0.17627574362580178,0.29738828315864296,1.421366386113529,-1.433975786751427,0.48898660058828813,-0.8821293584644021,1.7905251087900562,0.9293237223270916,0.7094802465715246,-0.053557780854328385,-0.7180416764076294,-1.1365512556434445,-0.7894633878770501,-1.900940316201012,-0.5953469698937961,0.5458493557859163,-0.3161446912684527,1.5428066905025832,-1.5421123088063866,0.580312887904689,1.6337230861343284,-0.48183737574093266,0.44514641539503463,-1.6835491383163088,-0.2704280496929292,-1.2536850949532292,0.8672802806614319,1.0481953149205099,1.2045073803937987,1.1350447993409514,1.6881019427800643,-1.9984891110389946,-1.1631847101270156,0.8905577968743787,1.2363429670351955,-0.8356985908165,-0.32947604817204645,1.5000774761242117,0.057699696730383554,1.5318372224846977,0.841038201096449,-1.081582991117862,1.6415500552156965,-0.2468980823395679,1.6534886097921633,1.2623470951012696,-1.356588710805236,0.40944870088925756,1.2401098387065739,1.1731000899338353,-0.7159330602843261,-1.6002407182250127,-1.7711044976333548,1.2420580136179629,-0.3658780044413539,0.09879559583838216,1.5819070924471212,-1.2329300891579047,-0.16030774421964367,-1.7905818808729528,-1.4518892658612441,0.46011195990575615,-0.703877751078525,-0.5284140111634046,-1.6663412204420056,-0.7339477659460614,0.9823657912661026,-1.1152931830488155,-0.24993439989403088,0.7302719610687141,0.2953156033903883,-1.0688141014298735,-1.7447965742863594,-1.1476002781871828,0.7182711231623409,1.243915696286987,0.13368616299592517,0.8533515095078608,1.6868406811800205,1.543157281024453,-0.242846815535545,0.8671825084870863,1.1420524732581954,1.140941779400657,1.2959696276894466,-0.009300924349244788,0.09399989939649744,1.2523713844677715,-1.7342185072859175,-1.4764599603656818,-0.9013216286672772,0.7097334927607384,-0.9534070552621396,-0.6975591286779586,-1.966068877448989,1.0970110923110976,-1.8755007179644938,-0.8490572106519148,0.20396352008629748,-0.2791937806854805,0.11860677568079714,0.4940055250816937,0.5490174027281962,-0.8403862087696208,1.6114524149316822,-0.5335163363184772,-0.5195491551403988,-0.37519631362264105,0.3572943800689581,-0.5450298254968335,1.3265909235685434,-1.2556635589922132,-0.744621370962625,0.7222486706295066,0.15866545830584755,1.378700245228294,-0.13387267447896978,-0.3910894882186793,1.8774970756470952,-0.2601163601510086,-0.3310412767242652,1.687975374530779,1.710347149723753,-0.8792548502808275,-0.5075300026375111,0.10319117886105955,1.8524285140729897,0.03658517523669724,0.5861709456676656,-0.6115458194784753,0.5326471485552129,-0.1249989603220043,0.9050858077548987,-1.85595676072188,-0.27122843016026543,-0.15738411981269929,-0.6102019037683508,0.22007559589345638,1.6091572723791514,-1.2315627843263655,-0.16116948813986776,1.653303581591386,1.809699489748961,-0.9549768021012741,1.263886369770074,0.39205400101392884,-1.3173279995033202,-0.9954882294255691,0.46905328903099663,-1.4200780034943778,1.4319906027080527,1.183588689520302,1.9078693556324144,0.5388128074525156,-1.3504018765716594,-0.6723553904242605,1.5083457031609564,1.2882144995001688,0.09136470993077017,-0.5971153396295015,-1.2651419371124342,-0.27393185055438884,0.9664496279489763,-0.5045219803416887,0.2889339527450412,0.22140889439782807,1.472493665058971,-1.7832254389438122,0.4808815996484266,-1.88288288489115,0.6930925673297654,1.2915104753854179,1.3509724078757293,0.38032144170946713,-0.9796010545966176,-0.8086486465221809,1.436322608460273,0.9639350001494766,0.24772032483083928,1.4796866080728743,-0.48512837199005343,-1.4777247713763653,-1.0036452156100615,0.4601622349375174,0.27794123300375295,0.44741056099194054,0.33530260666495026,-0.7169262303610897,-1.8015801651674055,-1.7830620058167175,-0.07368591390254409,-0.132042907432544,1.7030479838429486,1.8865048675216647,-0.21644075703210008,-0.22094567242348928,0.7569103972837632,1.0001085459230854,1.6995917770809572,1.6724056005167123,-1.8849450471320335,1.765429038577321,-1.4844070431864806,-1.9375748708610985,-1.480274501083347,-0.6849756022844056,0.4275983735393001,0.7913246854216038,1.9154553220082335,-0.15563534327087591,-1.6490928001479124,1.8161616225696702,0.31466265821860695,-1.9279162854010083,0.14530786060506262,0.7168488622961431,-0.10729991996925348,0.27345632672169984,1.7216406493500225,-1.7108821335951938,1.0428455388045572,1.7087072112512085,-1.7209256271718738,0.1988874628056112,-0.5042944694165583,0.45640227755760465,-0.2755864978901865,1.6699882966128605,-1.578986153061173,1.7151525510624084,-1.6380008430520712,1.9151850312744094,0.35921029189180365,0.6473276743598153,1.1555560057062078,-1.0218282708588147,-1.3215174973134052,1.8342494411668118,-1.388572909962834,-0.9136871122499906,-1.3231816114348023,0.5423805108597048,-1.0037074789033662,1.5199877966367121,1.9969934716004394,1.9038485368198343,0.7734881721061315,1.3819705887288802,-0.23682736534921434,-1.0974345132220074,-1.2271657112243846,-0.7106369034862738,-1.3115743074744564,-1.0453893687162759,-0.1861070578712294,1.2943840977173293,0.5955780335654315,-0.9181674036051266,-1.3914723898527552,-0.044655841714160704,1.1663614106124252,1.7549732010372194,-1.0827808926591835,1.2702020041149717,-1.5086377924801804,0.24533605548338722,1.1894379739496181,1.4248219021678494,-1.7475964278886873,-0.6791619058520482,0.0709921935188107,-0.7600443558224681,-0.16608985324888348,-0.4868786526056321,-1.4038439441353008,-0.1794410304509806,-0.9875913814362036,1.3411514467375625,1.068020890034128,0.4141389472792305,-1.254062330842427,1.1897964050575336,1.5761420683444842,-1.6717528401191832,-0.3399234214730482,-1.0991549531196347,0.5475075084588945,1.9465460035498623,-0.9155020370514206,1.3426587305825142,1.7273226677481652,-0.6272279054312802,0.3555247026504542,-1.3509349923142082,-0.4014739349878722,0.7001928967231703,1.0639704900467297,-0.10270964501180169,-0.7676271783423241,-1.730803274797088,-0.28541346144932245,0.3169785580698803,1.3317818628732723,-1.7627492152472626,-1.9364481359533543,-0.5487778198105513,1.9895918335995901,0.02978633961668331,-1.707455789838479,0.8243480009264577,1.708194236763954,-1.1220839272059115,-1.2646325441303752,0.22860658172393933,-1.6472297680575467,0.517427555907132,-1.330687127149886,0.9120209427970845,-1.7936452265259475,-0.07086639087675772,0.29930278226528007,1.5881648245432167,1.3956674967590272,0.29832857014546876,-1.86742527049081,0.19883043215406504,1.6897751444205125,-0.8634764478737491,0.36129977953240955,0.36663261702336225,1.6135352434403631,0.14389302946419047,-1.0669927639813004,-0.43984001004067474,-0.7255505183306656,-0.9771601804449066,1.9488171118588635,0.14050603884163904,0.6436739527966098,1.422997955111549,0.2949409894920354,0.8465511494012272,1.2350285020928973,-0.3187256771488114,-0.5073196693437816,-0.7620711332921171,-0.7988043428481917,-1.9082200603994242,1.8907095360013808,-1.1692349889648388,0.14539571790668582,1.575302400832098,-1.918780983831557,-1.9346433524728508,-0.8676165856558113,1.2567911134939584,0.9508074766740391,0.15102231581321046,0.34174003369509,1.3834524125035905,0.6587309056867632,0.07272710277869487,1.8846315606788804,-1.190826971890675,-1.9676889504113664,0.6994719712263207,1.0954727527116708,0.652502450818734,-0.20645457462849404,-1.9635878996784628,-0.04171403011115116,-0.3083923525021337,1.6182702992875009,0.13468034474787993,1.5816138110048321,-0.9629582182390597,1.3374734053546713,-0.6437681701997628,1.4412040180984147,-1.2820447781383426,0.3070479723117048,0.3986953318513544,-0.680706218474727,-0.8131727688266044,-1.9127850797765222,-1.7179288353158975,-1.8947798403657377,-0.2745553115740491,-1.0236040264020279,-0.2455902493966584,0.4999808017151195,-0.2578135942438906,0.5019116586734413,0.8239652887484459,-1.938205929029647,0.9438964991604539,1.4474656329448363,-0.462022016319676,-0.6674799551470825,-1.0467957283385445,0.8194293852116368,1.8893887499019928,-1.5144212432195063,-1.283100956242274,0.23454299151857194,1.0905368093041488,0.33710243011289176,-0.8028501011128646,0.1607179190469532,1.4082814169436717,-1.921677529908386,-0.060278086336357006,-0.5875791439341382,1.4751450839871305,-0.25202048583839964,-0.5882368080141589,-1.3554836292792483,-1.8354396236657218,-0.16753365914829965,1.2674549481468596,-1.1301306982664228,-0.20513654935955516,1.416903622817423,0.9316500685634783,-1.3047885236033196,-1.0475323891441737,1.2483884787254231,0.6251466689789327,0.837442839686759,-1.0508164887501548,-0.727470184283082,-1.1504922449376784,1.2306093111614982,1.1316588977229256,1.3283129756112757,0.6321626043635185,-0.30883145387480804,-0.2752604021455882,-1.359434178692219,0.1442112278316201,-1.9914833289631062,-1.5164956086009327,0.8448214933373914,-1.6205454343790358,0.24246227303556145,1.0400048793505143,-1.03425337011363,1.7892930501575846,1.7335569868268714,-0.8239940224403495,0.4373906938365755,1.5783389476569871,0.4258986132253897,1.9915203654817684,-1.5592969136792565,-0.9598119762203323,-1.2013085694106054,-1.208429316030002,1.4686453465321665,-0.41568891324216617,-1.1658343082722413,-1.3187300058881029,1.1046141756944348,0.670042144518677,-1.3174687188288048,-0.8176523861274392,-0.7898622363822541,-1.682487158705365,-1.657763180559341,0.47505684919288527,-1.0160756032419451,-1.051455740577548,-0.46343007601537334,0.4747989520408473,0.7470387560599527,1.5384231502840118,-0.6739232083701707,-0.8363006561723014,-1.8413085537178295,-1.8637301325091635,1.7816586631872497,1.70939744911498,0.2866035029079268,-0.7079121337848071,-1.1097212365960365,-0.021062523283603696,-0.876497105200972,-1.5878632604439287,1.0428262119594942,1.7155819371892735,1.9473705246241102,-0.805306514932675,-0.32103101447136817,-1.7594896381991911,-0.26815874945353313,1.8340919949099388,1.2306983392342081,-0.38221851430350195,-1.7896642191535395,-0.18166829240617055,1.2823967636670135,-1.6685561727912774,0.5355413766145536,-0.5314301547979405,1.37110183791048,-0.8582556492856508,1.1945795418573253,-1.065587862532567,0.943297815869446,-1.3139187392712026,-0.39055927426984915,-0.020162800762011823,0.510331688635163,-0.7917605162786696,0.6040007653599084,1.673061950894858,-0.9218856702853566,0.5578185805958564,-1.3601449487105222,-0.4154934705643081,-1.7284305539045404,0.5595799123778074,-1.1380443323708849,-0.17847805930473193,-1.330128192126263,-0.70144855433271,1.6566855259253281,0.16003390996383482,-0.49660109391140095,-0.7339795312600423,1.4708974894343987,0.7461145087824819,-1.1688589196543768,1.589116779679844,-1.1974321771822645,1.2884748739437093,-1.8029146972990757,-0.2641714991689894,-1.9521993199539618,0.7129644116868126,-1.2478621738310935,-1.378945478333967,0.7724680824720465,-0.06491000953864612,-1.2791759594297756,1.5235218754422561,1.3088441188678055,-0.7908849234952018,-1.262320773652994,0.6466944259158645,-0.8960143596998194,-1.8016882514558743,-0.2973153661328487,1.2474957132932305,1.3147583231588875,1.1796149884522023,0.031035543844573077,1.0332017040709371,-0.7691891078946305,-1.002202405784355,1.6924978419575023,-0.8080098604888168,-1.0398706807246727,0.786427764728145,0.626205702056505,0.12740683845451573,-1.8652123540935777,0.2857789028714999,0.2585462224217552,-1.5598017060270548,-1.1442750408832612,-0.49458544317595976,1.4877990698758743,-1.8651189714722665,1.0931093812413888,0.13711816651389475,-1.0112766143429979,-0.8115266268900951,-1.2301175477816213,-0.828281363563315,-0.8251473474616082,-1.3580521772909266,1.6301937749169597,1.04332435912392,1.494270560083105,1.3609461439006267,-0.3681833003605819,-0.0499184354469695,0.8370049521206457,-0.9655225762148136,1.5129053933689263,-0.6821109151504525,0.45416545841202494,-0.3835472204788153,0.9952187763008267,1.059027836302715,-1.519035998174612,-0.4549952613113142,-0.2911571833743345,1.336850419791591,-1.6616198383907639,0.20181410358867868,-0.6759315248511055,1.5649653246798882,1.3126692613689461,1.1459081589315576,-1.5153445674094357,1.710589709193068,0.7924671235352947,-0.2697925660073581,1.7144195133099984,-0.2883879064097381,-1.63057525266803,0.13838497570162422,-1.6627520713968287,-0.6883603053352325,0.5447702171854605,-0.3112079510901493,1.115347311783963,0.7089641248603016,1.3582597793701923,-1.5935548623320996,0.060396575252451346,-0.7374829364391089,1.9041293587551107,0.7106485215511982,-0.8302830783073678,1.6253176033545036,-0.7448102876458922,0.02683740553536529,1.4157922063792086,-1.4373685353673,0.6355436048392038,-1.833281246705404,1.7927891459148544,0.839595773837861,-1.1066838124379785,-0.10800973184578,1.9198183504788129,1.4314502264442566,-1.6003902352887058,-1.8307679945547974,-0.005662465388571292,-0.06200049063884494,0.9937681196875228,1.4014627640959718,-0.709876670490496,1.2689865206590358,-1.7217430791865613,1.0729347318011637,0.3449113677702118,-1.4385713365786703,0.11930268887693218,0.4586752563510248,1.7193677764171018,0.4894692517241057,1.9537461573302224,0.08939200106800227,0.20537566567416743,-0.909361730631828,-1.6122161241116886,1.2455190805733225,-0.4769222336486951,0.9454534866782622,-0.6633370575230573,1.2724708411509011,0.6046740959887864,-0.15504461559708504,0.5475516562048557,-0.0022978838897933507,0.32522851921358065,1.036986216773458,-0.5022361466176375,-0.33164276214006705,1.814802734405685,1.8146998369545742,-0.21497800460461525,-1.1272971915278633,1.235470733643211,1.1788248360486255,0.0676815515320528,-0.5833989079733031,0.37272978872437745,0.0022813665760517132,-0.5707347427169465,0.4644860882992772,-1.6094625079665286,0.5729053698484323,-1.6323696774114436,1.101849169966639,1.5517370315605286,-0.8859806940116535,0.8713407398808486,-0.34387363823934614,1.3877513673155843,-0.19526721986967965,0.12819878823686492,-1.7733413984833524,-0.6500609370294073,-1.3299592597167935,0.9230514509646657,0.2199220211651971,0.5361035065734594,-1.722601774108655,-1.327716712946227,1.2306207440973203,-1.2063190255667138,-1.4663054730839318,0.043670598830283236,1.262887811633655,-0.13560645375979297,-0.14232227827563015,0.30507667073795597,1.5195544646847146,-1.7871443248819072,-0.14660083807726076,1.1296596380072845,-0.7668635175745102,1.055142980462381,0.4957665607796655,1.3413210731860916,1.1119165997237364,-0.10332541110868387,-1.370698721681312,0.7440457311000337,-1.6590138595355617,-1.4767537032523559,-0.8996595835193317,1.3909746797920954,-1.940592238030007,1.410797162763933,-0.33612441088343337,0.4685941058725063,0.4643581946174362,1.6946132282040138,1.574838087621686,1.5708542512197536,-0.20094528462182826,-1.3858432605938984,-1.3454564884458913,0.253400603254208,-0.5526198608764665,1.2655482393473614,-0.13992281369641768,1.409401616483497,0.7424060728425212,0.8937000581737062,-1.1339255340837173,-0.8001458666819139,-1.375683457213178,-1.5994664915640517,-1.394651307491138,0.8450343741434421,1.1156054288228372,0.1688205735624826,-1.8033696715829186,-0.9955811785950699,-1.7375745306513144,-0.3269976285693992,1.9148288642978595,-0.6626975951079457,0.5293235737073045,-0.26219648927687444,-0.8299821528044804,-1.5052657421825129,1.2617067948545237,1.683900448410022,1.8285732516525184,1.502940693887819,1.85775034652303,1.249987063640544,1.9344286763211778,1.2669976947729973,-0.16941432466938444,-0.4397992780675488,-1.2731731341237293,0.5119373891598387,-0.41447844638844833,1.1161205336398234,0.2285530408650991,0.19886024655775314,1.997160297315514,1.0612153709586454,-0.54966758141589,-1.1440900853147724,1.2958465215338553,1.4431136743448079,1.6987624710648697,-0.9559334727385953,-1.758773389735374,0.7650705705335388,1.8824299530840003,-0.8836397317254079,-1.9998535204585322,-1.0595628228379383,-1.5080721611954768,-0.1547469726146229,0.4839976984484622,1.1046013859791133,-0.3205258525860972,-1.0651129901385068,1.2651453600904223,-1.4219368188768096,-1.286098923499885,-1.7834149716894272,0.6547686881892472,-1.7126465324595346,0.38628030997039753,-0.3543286361635656,1.291533208809672,-0.8806302317272392,-0.9300269618641677,0.477275887583577,0.23759380379616557,0.9269559481084784,-1.0528262660093932,0.05692157294799394,-1.9408615056980074,-0.5164913334146592,-1.496599247688621,1.14741237540603,-1.067728847076483,1.7405016954708699,1.9499351834849148,0.24118513463696756,0.10898109545317691,0.7699759255792178,1.3853083754968347,-1.1530193926798202,1.542574286759122,-1.2227716152659274,-1.6165282224696722,1.8079576954967504,-1.3988908409694742,0.24885540710885268,-1.6785743266825648,-0.09653210766615761,1.4584167553129181,-0.9776180442552902,-1.4736284129535275,-1.2318583899127602,0.2086224450804468,-1.4984841342868753,0.3024413505988517,0.5952161966822747,0.7354279468906024,-1.6024357075547018,-0.4057844730536737,0.10896009806974405,1.4179331553829417,-0.8651681508131484,0.039943774686353795,0.24827705370830166,1.3322717651553901,-0.6476743861372349,1.6048534650420114,-0.9549731804073889,-1.2008927625454229,-1.534628792882342,-1.4118957229975475,0.8442636373520216,-1.5493907935049163,-1.4126973285694464,0.5747275704437471,0.39324524879433653,1.3527074071220482,-0.046335949075801075,0.7511261751092753,0.10300997366192455,0.0789289813463725,1.8568783459373024,1.3687344250542326,1.0656537544417546,-1.2929701925756367,-1.927911185500077,-1.8928233377143293,1.3119625456159616,0.13611996083518063,1.0199628375720384,0.3136343735452156,-0.9054614159865757,-1.0318186509431455,0.30022698907446443,-1.4436958177597692,0.9017533255884027,0.18554030709423985,0.4482580203222435,1.3031031093571075,0.239422750320478,-0.23897491196740672,-1.90867670332468,-0.08644137391930862,-0.042756279198113756,-1.8295872385143692,0.9241360337323208,-1.467159589754552,-0.4204713766602901,-0.5415209768959457,0.3980858160510681,1.8402663870703608,-1.6066229670463525,-1.018548345026729,-0.5453053440367923,0.05930900227452662,0.3967970593780863,-1.0075569851706772,-0.48824232229575815,0.10405613583534246,1.5356567215996928,0.5078910812757287,-1.0228970250989637,-1.7911200737121922,-0.20466458345532335,-0.759348154961518,-1.4433133494010844,0.766528465946299,1.0173425667420517,1.3240907572355005,-1.689719597539662,1.1418225395810668,-1.3603715398211382,-0.3498325447279269,-1.6323965308933603,-1.1706136150621238,-0.812498669910362,0.9485591847089445,1.1314139964088565,-0.8170386002063257,1.1401695616791017,0.11290107311028352,0.588546840598533,0.5800039204538194,-1.73615802081527,-1.2289632336839418,1.319617123907344,-0.5230101355311398,0.10848989469376846,0.6726174895425587,-0.8058587325612176,-0.8702232484390424,-0.1376663616315983,-0.5744423928668052,-0.306642094460261,1.10096590131069,-0.6538158107334526,0.35792825401728434,-0.6560224216997961,0.7811552461388249,-1.9521677634548729,-1.4952484473487337,0.3687266239791174,-1.2341979419260536,1.9865103923722498,0.0410858461051955,0.44051803728006256,-1.1736141475893271,-1.2054155959007677,-0.013649178327757028,-0.07104809995449912,0.17655469703769233,-0.8283607506394355,1.6785857399361435,-1.4647015801794807,-1.7756017884710404,-0.07383041705672211,1.3268139844027096,0.5862620391918223,