-0.8464867901296946,0.2344816544034034,0.36472692950793895,0.39702676727528585,-0.7719773155398537,0.7148808094812575,-0.9385615000292606,0.10668578718380228,0.22428917463790032,-0.8124171951056851,-0.26025662399055016,0.1945989770923806,-0.3238744286937816,-0.4742904147478555,-0.397870061467412,-0.7056989922798018,0.3714192989750662,0.34924534194087165,-0.5091422644637225,0.47609254389003364,0.5513449921292364,-0.7459993696129452,0.5807206840642614,-0.07122713832221317,-0.3176929586024455,0.3120979782559179,-0.8485612876696238,-0.4047545906017884,-0.48240097749143906,0.754209944968925,-0.5230568880492799,-0.8061324920235331,0.4553836035276797,0.530708671632607,-0.09010120791653398,-0.16428558780751779,0.3935764401670039,-0.775169280489493,0.5998767427254494,0.6797244732259426,0.054616568288822664,-0.46076664336838125,0.1799366441793655,0.20152603538899538,-0.7159619926179934,-0.10245896164224577,0.1384694329877485,0.8119625524288041,0.9072333323720108,0.3486972802612416,0.6045424209002226,-0.6854782018329832,-0.5657529704321185,0.6266457934260747,0.5577617063511187,0.3653436255240028,-0.33442684747698603,-0.46627556558781724,0.9821711799100104,0.5077884408657887,-0.886827498749283,0.22797213858692666,0.9900997412121897,0.8332441958839394,0.7275895478105787,0.639688864642596,-0.6640620209982337,-0.4334919030013076,0.49601122432351663,0.1907716947406175,-0.13134061287307275,0.06329263220484793,-0.15587927337801966,-0.1936807656280568,0.2519789457279782,0.4367279733066818,-0.35549129687932757,-0.7448031664414756,0.3712371333519675,0.14258558475245287,-0.11625483367593992,-0.94061965993371,0.20134148995695744,0.4039440969683128,0.01844922242090208,-0.92040546792362,-0.42312363371519846,-0.017288988881731582,0.1463753734502402,-0.8281869135708539,0.08813812214847316,-0.9894751695723596,0.4939145059374417,0.11289239437386933,0.3567495555907463,-0.2508513050989494,0.33166260144593207,0.32701454811503283,0.367358048380511,0.6691876230262157,0.6911493250234557,-0.12846395497353913,-0.41751163579033723,0.5515415361531046,0.13466780889007635,0.39318438670034483,0.8449004570144039,-0.9177964253008783,-0.9447142450043191,0.1623239186409544,0.9223384071477192,0.33365071897216825,0.41481450238764483,-0.4938764458967504,0.010259853620228077,0.5342511124954221,0.3740523804366125,0.6626028560986701,0.923367242958774,-0.3771783975731038,-0.2919139648780178,0.10596628613794623,0.8915550512894699,0.6156691382354722,0.4304209512193389,0.5527526098410511,0.6621824496819244,0.01973995146940366,-0.271067111980402,0.901225362730036,0.28472947625382794,-0.9533992647566385,0.48135058702001676,0.26796619655350007,0.3937852861393165,0.03481718534938816,0.17237864085400822,-0.8037666719764041,0.1265524766041881,-0.96538678545831,0.9388193467632289,-0.6189250057053202,0.09261837009069462,0.7251954737708728,0.573345894827131,0.3230411020855173,0.987942194164134,0.7958445136605261,-0.42795472454085415,-0.5294540766103977,-0.41712171221686223,0.8854614594741268,0.9474131418052467,-0.5128241571383279,-0.6545708134552006,-0.07465103225543013,-0.9237605177856556,0.29695981319442755,-0.04550255772416634,0.10881155855524494,0.6059306558488959,-0.7960900743845298,-0.4113803789848547,-0.18716341550530413,-0.6355613328467824,-0.8697433079321264,-0.8190940642669315,-0.8305448789201755,-0.04990191155724566,-0.5565811482316803,-0.05562032998999178,-0.2371782287281068,0.2748408129272135,0.9072240220244492,0.3411510936606166,0.5101777140062445,-0.3185694979799705,-0.3293219285478983,-0.9543144267484049,-0.6499681447664389,-0.10168886972171864,0.35554968078057536,-0.34839581043370416,-0.22785834308997965,0.4314158797927383,-0.27148628952966436,0.47184478907398675,0.6030208205201939,-0.6017196385201131,-0.4108658399117511,0.20377423065945077,0.6163433656340167,0.9413781816008404,0.8047675558523488,-0.5861601689656006,0.06376074427660683,0.7962453061799393,0.4964577203535183,0.41345642033867924,0.09563616482439952,0.36862051708828036,0.04792963084608126,0.6450141380568652,0.03368007634929615,-0.41664737924050854,-0.09342349198825817,0.7805341863791553,-0.5035499330065751,0.12802684868268988,0.18648098241508904,0.06660563164821509,0.47358841209124236,-0.10110505142619619,0.573375004629088,0.5606434217102161,0.30686551508242776,0.7256720681976636,-0.33836766691615305,0.6259491366316365,0.6219757502347156,-0.4685979581551285,0.11965159193873665,-0.8374018516569921,0.6873482100257242,0.9383863894236635,-0.3081421183884414,0.7289902252943632,-0.9054279755523396,-0.11859520686588665,0.15219480892452353,0.04988670882441881,-0.44058379383602886,0.6011031504385216,0.7199989943121121,-0.12520489247898126,-0.7097554019561692,0.1107215210351471,-0.11074295078980478,0.9888198967114377,-0.05524809462218161,0.5639040419487762,-0.06382040003538281,0.8288641718167109,0.3982703080283445,-0.9383441149170941,0.8759764557424212,0.950805646615462,-0.9326454738032333,0.5893217668719806,-0.5721839230833459,0.6580250832666896,-0.5634336569354066,-0.7238419706312393,-0.2550610563122224,0.855062371206115,-0.23075059058777736,-0.40242334988873574,-0.3092619177140108,0.6531186157319138,-0.6545491522618838,0.5487951259120984,-0.5150205839851454,0.9880697426511724,0.5028643048766994,0.7398766325933512,0.9082951014641043,0.6409343196841824,-0.8934996794756236,-0.12901826571839892,0.6587513018050264,0.7095022368154367,-0.04074400425440228,-0.21941401920689518,-0.7739872241890122,0.4259644433587866,-0.9818560404833128,-0.16018595786626655,-0.016686320184065906,0.687785407347729,-0.8247003985497747,0.7715942834695038,0.783332524142424,-0.2584180128922111,-0.743971629795938,0.449169511656079,-0.7601686888591757,-0.7512724202785697,-0.47655659694707553,0.5794903296791512,0.30093910153486125,0.9982215956709828,-0.6950304216986243,0.26534845574980226,0.10704316619123255,-0.25527093312303983,-0.5763224216116756,0.56961367261672,-0.7396419570044743,-0.9747748202193767,0.15800151727654277,0.6399614960290272,0.30563600587591844,-0.7783050149103148,-0.18706234625743523,0.7644341337725169,-0.2228047435111815,-0.6856069554020534,-0.2733854760402108,-0.44240588478688303,0.6591323205333166,-0.052328875410854625,-0.05637789974497531,-0.22786907431286485,-0.7414403451966147,0.17444979768723545,-0.947123203421905,-0.6440680337522637,0.5405423566982717,-0.48164585477579225,-0.2203252946233789,-0.537332667531464,0.5375305012685698,0.030365369117817176,-0.9123033554243309,-0.17938315122018156,0.9064157006346094,-0.21555750475606894,0.33159811345972345,0.9315883678659909,-0.2365515140741452,0.6759921836546865,-0.47655349526035895,0.1689684440873105,-0.8578216145976374,0.6880159453724701,-0.2193448587803779,-0.0239724407750721,-0.43254756312316633,0.5038484719614575,0.7258718405290463,0.4996721765998233,0.2753986713317913,-0.638946534512449,-0.724147104060779,-0.04728914666119777,-0.606259089493808,-0.3651093399249141,0.880597151990933,-0.8116554086636159,-0.8941651634061378,-0.6592888891643158,0.20245216807326294,0.990266216356861,0.44053451335338645,-0.5401068471697819,0.27155394229848095,0.5357455903694346,-0.5018983245333097,0.4349277843836785,0.154293272835605,0.7100279321419773,-0.767579786659969,0.007573025663203614,0.16907650124649187,-0.8669362780669987,0.12289706403130052,-0.36181960905417876,-0.04142390734177748,-0.27030481125768113,0.6958513802591646,-0.40967147177330276,0.9916071538154283,-0.38555068245860213,-0.005899869875399144,-0.27706807101544273,-0.15386612408154754,-0.14649099416416833,0.14765639323797308,-0.866480831853472,0.8174390352636711,-0.8430257468634637,-0.2058270155392914,-0.11611067342491599,-0.18035151821801554,-0.8963600423264051,-0.8631314760126618,0.9281754877876203,-0.8911651288243339,-0.35594685408582816,0.9414343779357963,0.7686664258333229,0.794269939262094,0.266048636762966,-0.15179396648440968,-0.8850794826084927,-0.9971485961284212,0.5085323500674896,-0.3418876113192959,0.5862441238176224,0.8956937251366668,-0.46865287781604503,0.5676099552009888,0.6033727220141047,-0.5139797747806529,-0.2602748925511995,-0.28919708445992076,0.9826752933039997,0.8685344782722559,0.978085210008443,-0.6313700489339662,0.363190585926072,-0.7027445819948228,-0.6940384061586138,0.6664266874020273,0.34050026265146394,0.7210975004316893,-0.9371796306049838,0.3394063093634654,0.39697722056683027,-0.4325437958152021,0.35427779103862744,0.27574248036839344,0.5008210167719398,0.7597637776633435,-0.20387117932571264,0.8037491995952561,0.7190118477968777,0.9291222377558837,0.5183445337462271,0.36195684689694274,0.39414311441776917,0.06764606360255399,-0.6464889364937656,0.18603438145786177,0.8651287801498841,-0.11096326246439747,0.48602397164984734,0.4629832472597837,-0.556642009746412,-0.6988110348240759,0.3192757959304222,-0.21214889581308838,-0.4397737242472535,0.399917663782527,-0.3859396014205385,0.056340950979790305,-0.5405535098232883,0.6223273568604997,-0.9336619617113824,0.3185153371220111,0.5575855805900716,-0.7390711147638875,0.9333431756765811,-0.05368218599921937,0.6808048625572887,0.4646039940069435,0.5562852490647741,-0.5044032603916646,0.5844572591440684,0.9606609658088039,0.9402725393506604,-0.42802615946543776,-0.26476746315850597,-0.3333708237620465,-0.9413362321015368,-0.4785275190950231,-0.18051142333402725,-0.36723656263114,-0.8686757465454233,-0.9020501537767847,0.35772100479424096,-0.1624007125625615,0.3089127643115701,-0.7680880239466799,0.492977660216005,-0.6962543264553505,0.7784890274438703,-0.8777713683233646,-0.5385905214245561,0.08476624591609783,0.42742714351688726,-0.0035863101388826646,-0.7354924225075208,0.30978330695679657,0.48879439901739863,0.01908832070174249,-0.2599774424273382,-0.8585478644711888,0.18707172555457885,-0.8960748223000548,0.817503658903207,-0.00999379187112659,0.40317290711276965,-0.3039383016503858,-0.531397657745627,-0.24159241873358495,-0.5586883904907713,-0.793165610442212,0.8030042100715105,-0.9615785926390896,-0.19034684662247692,-0.8157904100353541,0.7526725198377615,-0.3989719052192713,-0.562824725126154,-0.053390633441232405,0.35771939824445464,0.3982665885220791,0.6689255671106673,0.27624520930322904,0.005669055754350172,0.8383628400821019,-0.0970009927986788,-0.6323072463890336,-0.8238372335852207,-0.19182793656226638,-0.9729053498206737,-0.15441280946576064,0.652260928252306,-0.012959409200782313,-0.6578329915416208,-0.8443444654589407,0.20195895326678137,0.4617455419895231,-0.8757485147433863,0.2903093645468051,-0.18143322895492853,-0.7781385551828897,-0.44980227656981664,-0.7733585025158649,-0.46622832112181123,0.6514760550050036,-0.035899051637812596,-0.27332050477631364,0.4057618232113098,0.8667024519954278,0.0839657494185655,-0.058303719697858414,0.9174820545684361,-0.8245254835474451,-0.7579679015544192,-0.10354292911138718,0.26582850507270717,-0.8434159478898322,-0.5359559579455753,-0.07663596839559261,-0.15127737666007834,-0.7868845167775673,-0.38511187178064277,-0.17947930453207106,-0.160265438950844,0.7126172381575433,0.3026455186538892,-0.28691067770017886,0.6761754289992965,-0.2230213860790362,0.08106258913492725,0.9122521678416169,-0.7682234596082766,0.9609431076814343,0.55984694410719,0.580911702662972,0.7100773270886473,0.2972321957404169,0.8195613181894095,0.8657141048864645,-0.030505416339622116,-0.2877002743861026,-0.8999387338527773,-0.5868292428338377,0.50289234207473,0.0012252466618101199,-0.6958796528409985,-0.7830899223520889,0.5110474740795861,0.3063525965112759,-0.47477818477967704,0.6371258481093314,-0.47897755964179556,-0.7944316331452972,0.8037254722557947,0.4786240558588515,0.46000369635816396,-0.0923462232951,0.5930772814508578,0.18044134123778144,0.8248196016017757,-0.47218579608770694,-0.9933984993921312,-0.7787631986207553,0.3939561263396185,-0.20155149351402524,-0.7739764323695759,-0.3405975195481603,0.12410877576418167,0.4378304323098472,0.3364326605719892,0.9912146287568524,0.6533896998581041,-0.3193179226684608,0.476494542468064,0.45686701747353387,-0.5325027380809741,-0.44966470126300373,-0.186366930907653,0.11248957885509703,-0.3848703180272397,-0.36213625588173826,-0.14205297114010595,0.19296286484349756,-0.5735778510942813,0.9783326209112193,0.9566203960114164,0.35831089078753364,0.311013964767038,-0.24021660789117782,0.3628817057021949,-0.5566336011448325,0.009210277713489035,-0.38461325525471324,0.8974183809302618,-0.7101476813949146,0.4239165602293382,-0.5299225742460014,-0.483541494426609,0.9732395131068219,-0.9934520359039443,-0.6661729578113096,0.4158697498068793,0.9898243516218082,0.7236094228655245,-0.6422053385319477,-0.7087785990200066,-0.30739310693639443,-0.17640052911255943,0.21464980216902085,0.47791157368393233,-0.7478007877795103,0.6966379616926972,0.7984917801524953,-0.9795428565363138,0.18341334713620294,-0.6565731357972961,0.2743033505811505,0.1404246840847565,0.029286157195917983,0.24969773919017957,0.7399154089902464,-0.2515018411982404,-0.8100703858777114,-0.9887373043060579,0.4095016627823529,0.023321486814570358,-0.8610087951906895,-0.14886557515370114,-0.7835025846970773,0.5139021047530647,-0.7047702769830659,-0.18918153172138363,0.9150335757275962,-0.3367737896180458,-0.35140732495981575,-0.5608597085831075,0.7447327211637074,0.2964012796171309,0.3066517370921997,-0.002314222862677573,-0.43889787052867923,-0.26506184360391605,-0.6469837875738709,0.8909691916140166,0.8875471271176769,-0.7952631860892521,-0.8655382624989736,0.9346815308988652,-0.9135862215920834,0.09590796031919435,-0.9294614112552264,-0.7507584560592704,-0.2034214775641423,0.1985101110252867,-0.12564687014769338,0.08965268432751361,0.16097552794797765,-0.20507819217506085,-0.7007994206724684,0.7474001951610445,-0.10317924259119748,0.6602036737917352,-0.017110728288423527,-0.0958372733373154,-0.5533738615322137,-0.9663076118202516,-0.9791024051875219,0.6356249141106143,-0.7003637944439494,0.18101162694838369,-0.32983977021958943,-0.41788912777321263,0.44287555290971303,0.4606090136870997,-0.9571926092489826,-0.8599930463995376,0.36754298104058014,0.09101656879932962,0.7004620175549936,-0.6183395788793034,0.4090352877902228,0.481493872995743,0.8896043693896247,-0.7402646938620092,-0.9389653312353887,0.12693363135241897,0.2667364881762313,0.7642857218576424,0.22033880590076427,-0.020196289631918996,-0.07319674727391923,0.2885650557729955,0.6505054440077955,-0.8380917671405268,0.3421073706138742,0.06944153807624742,-0.8061361897891515,0.10591625770392299,0.622854320691171,0.1485345264834057,0.7088219886536107,0.8415415205903378,0.8979090008493098,0.9671166010769732,0.873390492780689,0.9040150317181725,0.2676531243879394,0.31790575182823444,-0.48921080810387596,0.7395308900744686,0.18516075872177962,-0.5657171341574361,0.7812703928687814,0.852527922849504,-0.5624466060593154,-0.3825572696787325,0.3072523628118162,-0.16538260621819756,-0.5510413373362026,-0.4380567513218636,-0.08192766631075643,-0.24284665440701736,0.6072102495452623,-0.004976509984102151,0.5861483068615452,0.7061090240642023,-0.016012958074557604,0.8005457586477258,0.8614649363193307,0.658305400646938,0.721457370677163,0.757138784320663,-0.05271885012770605,0.19775185933684813,0.6127529124218951,-0.2823644676735233,-0.0378864188811745,-0.7371279637096666,-0.2612349424335445,-0.8023255407025265,0.9723897246830098,-0.9461947677525002,0.5172079625176029,-0.535022538071994,0.3034089449588908,-0.9063376104854834,-0.7957738004364974,0.9348082782538272,0.22672013560522575,0.835505110348427,0.39616681318261016,-0.9708632225093698,-0.09707245388059382,0.10999455649578493,0.020212564563112156,0.21513595957972287,-0.9175813936071413,0.3964881252113821,-0.6840847039160318,-0.8898998014812014,-0.9964951389478924,0.007004551294872652,-0.9679772825096855,-0.7008230107288915,-0.1147779930437347,-0.7522978070966584,0.3509295659238112,-0.008056677424790326,0.2900862405550675,0.051727891657105785,-0.16414413428778696,-0.7542149436277084,-0.5205403935917507,-0.5369101145580115,0.8868363461117215,0.8880296171939805,0.045919238025938336,-0.026915241950823177,-0.9730946318527756,-0.19671932774603573,-0.6474169270460362,0.6162941458476952,0.7529719944714548,0.6553020702438528,-0.4754114436289616,0.15210875844233596,0.5346108937578671,-0.8028489957899378,0.9716639661031243,-0.16954427755892842,0.48444429955987944,-0.27147651266445094,0.11984709046944775,0.10163958391002592,0.6787957913490925,-0.5232989860615485,-0.029137279318609766,-0.75964188009496,-0.731269610787334,0.4287202455598276,0.921878005604142,-0.8827103440437829,-0.17531223045530875,0.46556775404617956,0.9120259558267911,0.9866078161954008,0.5421451674871012,-0.1675349018628658,0.3036862930851061,-0.5198700489432184,-0.24650239578400446,0.6727937982072401,0.9770632880226249,0.7552544650214945,0.595604588826729,-0.9891316222612812,-0.1378487213945625,0.9818780374019538,0.912311188180398,-0.8704834529184,0.32185532625587654,-0.957098538350573,-0.9814243238210627,-0.45534956431173246,0.041376716746148956,-0.3131871680914644,0.763459846891603,-0.9161484084332856,0.3714141960438371,-0.76893522360837,0.6307590894087209,0.007878729196155065,0.13105109287213246,0.8453488286854887,0.8140082246224072,-0.20064117173166296,0.31395563819910133,0.8145758501115212,0.954740743897486,0.7970004439976524,0.6864756167578241,0.10223307314705843,-0.9187989615544692,0.24806469506872109,-0.1935961044091581,0.1260766214045872,0.30985618902053647,0.16082129835377024,-0.9966718255397637,-0.1325374116961695,0.46553937148780133,0.2665861471685147,0.37309237457347266,-0.4674005689958376,-0.048996086885689794,-0.8593961076173833,-0.13222261691014925,0.7956263104305508,0.314554652038159,-0.47080631901202574,-0.5521965188873521,-0.8644403034271104,-0.6718907067734399,0.5297628669451473,-0.39463710054319345,0.19098613649179264,0.8661725682602073,-0.8310286655861527,0.1124059744512591,0.2053663166393822,-0.7386335771770958,-0.6647440863727394,-0.6606596168166317,-0.37476981031523793,0.21632114910487665,-0.0366558203599443,0.8958918799443216,0.6989372240061429,0.25938509679444977,-0.7797646248854251,0.3650300651903997,0.24837780984237856,0.9199751976391595,0.884644949772617,0.48746319623594103,-0.47682402436031146,0.8231726306982461,0.020087123606452373,0.8507425239957782,-0.7769349150280849,0.3147113461878983,0.036519806899529605,-0.31764817674463197,-0.04874887071050238,-0.37650554836328953,-0.4756422057821257,-0.011092274136449864,-0.36144071593667393,-0.2168595037243577,-0.40620059210599435,0.3500224715547209,0.292132904826635,-0.43889904509751054,0.6983579938820277,0.9306169905317878,-0.2565050422015598,-0.46679280555035274,-0.9673151538198517,-0.36866108518535956,0.19330198004241672,0.7131541897013776,0.9666811111184592,-0.0508122584449926,0.22717081346560253,0.8401643746322276,-0.7615207867973532,0.7440758812903625,-0.31403228667576655,-0.5421131737174796,0.6982007791260818,0.16831203530470784,0.2881373362904236,0.1399244357457241,0.6852371901081233,-0.42709116960483384,0.11139227436614707,-0.16707642303963577,0.9685871197174072,0.2628742410852265,0.4996741071975208,0.5426805632722089,0.9106051599550824,0.6003203734456712,0.7581148845767909,0.22429382702319112,-0.7920827977180867,-0.5692736676517021,0.16806293442092635,-0.41909136378931255,-0.8409541471663986,0.6243355583272217,-0.17007036794306596,0.2505020638151274,-0.8278459625031722,-0.6826313054636595,-0.5255803195738009,-0.37444072192489375,0.7206474191827261,-0.9176736007539439,0.9916933094297065,0.9768658096647054,-0.12836139648929334,-0.6570604689625954,0.20518785762329483,0.9950229164074282,-0.01648949621647211,-0.16027295509780326,0.927073441001335,-0.11787822388263303,0.6917020367959745,0.654907121093613,-0.5990899208831542,-0.29623057393937136,0.046104680660508324,-0.18290327711034138,0.0006569498289001885,0.6676375892472475,0.13352907975428607,-0.055072925613915746,0.42885458254436304,0.2905353271490376,-0.8658849922716336,0.17867795770182138,0.40200569553500287,-0.8562799859710297,0.7428007677821113,-0.5207348459282932,-0.4298272279219646,0.6215971250701862,-0.8221693197426427,-0.27567304308954865,-0.2664020150290243,-0.2659685139384247,-0.6174718802669361,-0.36025371772826276,-0.11882705106572544,-0.3963355295957689,0.05803132875337513,-0.5697757602638456,0.7417971868290651,0.920010072320175,0.16905523798131905,-0.615086595944766,0.27997164119259144,0.24280643168476002,0.059235103244963394,-0.08115739281165935,0.8087223632263463,0.0878834917257505,0.9048284412691361,0.5194439192528078,0.6644185688232349,-0.7149943015641698,-0.8234304980485496,0.8349483255777703,0.16620804523140742,-0.5836423898250211,-0.6091110983410053,0.09945792203067771,-0.34466456920564803,0.23375765626689415,0.05403863809557308,-0.49641456235622505,-0.048502397212085935,-0.3034400491056499,0.4500779427478696,0.09462797167751824,-0.29133433740661396,-0.8685329236026031,-0.8516802410547002,-0.508290002468309,-0.6888231203067956,-0.3046121946228635,-0.48976175010301737,-0.9487202024391674,-0.6627360533779074,-0.9795094137675948,0.3628687760034306,0.2124876320740141,-0.45427304899190957,-0.752505436098329,-0.31424410030313843,-0.8020145143331494,0.19631403000491487,-0.550931497328411,-0.6958838670613203,0.5610690845748385,-0.6449567092909823,-0.4551729658009118,0.6927801540125158,-0.8348248265437694,-0.8453691620967094,0.8961971997292522,0.6691849066823619,0.19186771762650534,-0.9787839570922241,0.8292907251366559,0.646072645657692,0.5117808339384844,-0.6965075127590343,-0.8981408080267419,0.29275600406683666,0.11101085182366832,0.27367118784289235,-0.21475334461149886,0.31422092478492325,0.28963575835584754,-0.7820650640608124,0.5798328460345459,0.8257067055104308,0.6162013699206024,0.8248223297919965,-0.7401897189759044,0.31131530490488757,-0.1775454080663572,-0.48807605284236244,-0.4669620192551458,0.9752017227055847,-0.31934934509805646,0.26130435203966695,-0.010906356969066389,0.006202795586632837,-0.0888803572575867,-0.8936849513106233,-0.2981509390903696,-0.6090963097225004,-0.6690236826912523,-0.5918443608642658,0.8810178781728368,-0.35929988486826425,0.7013538559981236,-0.21657643503869028,-0.4691225256196989,-0.313353355443847,0.022307559290885903,-0.8894307435888995,-0.0003758392243222719,0.9603917430180597,0.06909717517411318,0.20985338948200805,-0.3286061050228224,0.6113408645924245,0.6489368094735641,0.9260256783716119,0.48643867916570316,-0.3962150564298368,0.4297275764587456,-0.880563759985054,0.04128742510838146,0.498364514520482,-0.9923671585832168,0.574485315924818,0.8738265018902813,0.644157757390798,0.1361923352775496,0.7018773910302716,0.83185395351478,-0.25767741727566484,-0.8821581068853617,-0.1392997918228509,-0.8990529034591388,-0.5577659705531699,0.4145551208115259,-0.37560778296673125,-0.9922771382843987,0.4239780140576366,0.37160027341629,-0.2742325638685241,0.07190193363727482,-0.14107181990068218,-0.13157365147299727,-0.8455196497560451,0.9251462620493638,-0.5491347651940595,-0.624109018560856,0.9149063782158771,-0.5483710278343898,-0.02144357136802011,-0.7684533011977701,-0.753759511955387,-0.1380254364956306,-0.7560038456491638,-0.25772779518632927,0.6853861404887973,-0.8960104403597771,-0.7875365707729363,-0.8552082465368556,0.8749203440100648,0.7150913656659299,0.19229880578049507,0.48538369251754565,-0.6625344583213426,0.7561610155634688,-0.9381316472959318,-0.3386856624865917,0.35965864012321513,0.9935450604872889,-0.7077907630030345,-0.668644824734637,0.9625993591259503,-0.3508959724373497,-0.18790098331931504,0.18537279994254385,0.3458679290303335,-0.45987100046598717,0.4503348089237924,0.33387087899020407,-0.2986773190680716,0.4508459293853566,-0.3925387316567781,-0.15910280009034228,0.35297512329153036,0.6059152834087864,0.3476060764012161,0.26784249140637684,0.45140697447476574,0.34899167694745925,-0.1269519184931862,-0.5200381283732389,-0.037966404617963745,-0.9773495820302551,0.07439006581300167,0.9989894274800359,0.7309164308628631,-0.6742566972910042,0.6233553957912343,0.49664485489833265,-0.31055760781120223,-0.48387650732199616,0.5798923330168668,-0.7075161645658852,-0.5767456957993229,0.7469000415631513,-0.2796123964133552,0.2254257938081241,-0.4568224489523425,-0.42974672467403785,0.015739846767691024,-0.813725596798953,-0.795188870261246,-0.8833005288716871,-0.07849711235412293,-0.5216619508585818,0.30599807884305164,-0.44163425360026287,0.9076270381496458,-0.5006508578568281,-0.26959779078993606,-0.6763955954933536,-0.992437198063453,-0.7842447798128227,-0.15548740470650757,-0.13989109635065544,0.24952885499822064,-0.4020315847604359,-0.9724619983252463,0.5902137121607343,-0.5229978055101181,-0.8936327666600823,0.4609694245802931,-0.7195205946049952,-0.0009668432253719939,0.5602815273016979,0.8475975658097694,0.8011069079373334,0.9149969421964095,0.6166321624374769,-0.6173785994117906,0.2633636002744959,-0.21193477225846724,-0.00476252231387142,-0.8788621718258849,0.40208342911061257,-0.8329984203699379,-0.7675152746486078,0.5812757701455615,-0.01269298380618089,0.831830257220318,0.3705539458586813,0.7443921009525885,-0.7639788163314154,0.8716645931582039,0.18763805653529486,-0.09201893096286096,-0.9367326815054875,0.15120681766603306,-0.509069261549403,0.8004549225434325,-0.6124154781365188,0.827644942011553,-0.0435031330972917,-0.6862627320602976,0.942015875645277,0.5450555953082337,0.2105721808858263,-0.7547352141674706,-0.26808359544150484,0.10859909799028267,0.3120142450773262,0.5773713832861664,0.12134944252887747,-0.7298025621079478,0.7760977555568891,0.05091996555129441,0.522080037273831,0.7665093281116837,0.7344190512610282,0.2869757620852418,0.3931445209691562,0.6122629960800867,-0.7362321453341774,-0.09000052742849385,0.5084531498723841,0.6833275297737695,-0.7155975484511081,-0.27284161293303955,0.02637808551981813,0.17769051967008576,-0.5579040741898216,-0.2208662879176444,0.6976011409209093,0.8963235902353905,-0.1776872231402047,0.7081652606546813,-0.6453259729638767,-0.0407273278267426,-0.9671661480707758,0.004024927063625006,-0.7602891705442572,0.4073764650091276,-0.9418803110263285,0.7258630020296251,0.4340779752097592,0.6271449411914163,0.30952648393309357,0.6597282767760286,0.09874515561048325,-0.04968726981171412,-0.40357583614019044,0.33166259693633693,-0.060276273532697155,-0.7144027707060421,-0.5362403488953873,0.8066059008490747,0.7378649565729727,-0.2549420146903998,-0.804051200448751,-0.5787160477077555,-0.9510112831409512,0.13599002913892222,0.3180187301419328,-0.252104509365505,0.5603216594668288,0.37872428710695716,0.2846657959557741,0.48165418851863917,0.9640752835259918,-0.1285263584264471,0.7330484257660634,-0.48616623139688797,-0.7424965819991143,-0.613484969776444,-0.8000576962428418,0.9877881244548472,-0.7417906269814565,-0.1988603893264025,-0.11612399207432889,0.2658694349818671,-0.10463373727117786,-0.20250467682912254,0.721479500039927,0.459202450381917,-0.5222600102083037,0.8455789709800943,-0.7765118717655073,0.6667633583913064,-0.5868577500424859,-0.7895318272004561,-0.21960620252670093,0.07354943144686943,0.689943291434542,0.5227276008905615,0.5410764782196533,0.916341853072538,-0.9998820421692107,0.031026369877701798,0.7959210181644238,0.8861792084317002,-0.8100411715509193,-0.3209517096870478,0.0719986596578499,0.7185197453240755,0.13225881161514108,0.046733340090913345,-0.11383858842932759,-0.8880948451356485,0.9117766909324043,-0.2546549051351592,0.18109367575953317,0.505820991178346,0.24266868241135642,0.780717744797434,-0.5338944065682254,-0.6268299181385657,-0.6465551025938827,0.04007793375400959,-0.9316211941507566,0.7496920061815162,0.08260252451859085,-0.9986506090427312,0.7369636949413789,0.2802663645815273,0.32001393319496696,-0.0952129528801009,0.5451853775923607,0.9767216315942959,-0.14619260304145754,-0.27550556915081015,-0.411437539590332,0.5965614574269189,0.7753319706497295,-0.44875543914816385,0.25029444996901007,-0.6958864645371825,-0.4618107295875433,0.9519082457540047,-0.8552154652548831,0.27014563166957073,-0.9416231347935804,-0.5743683374270412,-0.9947633191516507,-0.16363992661454585,0.24923386350523424,-0.2321072476732402,-0.33213766633465314,0.11317561590537961,-0.16422762580960315,-0.9133455685770377,0.5525259436945802,-0.22938343300648967,0.27885301256601314,-0.3585540082686347,-0.0487257928403817,0.13511246265717447,-0.8833327392424428,0.13885351932413692,0.9751485707946312,-0.25255278658170455,0.8435711804842159,-0.19024697344845842,-0.6180542804150633,-0.8248433494653087,-0.3151833363500893,-0.6658409316439344,0.7458848234355411,0.49676973225212806,-0.9902270054593363,-0.8333548068570806,0.5483094681317038,0.8047526657335056,-0.5589678139505805,-0.26641917543942806,-0.9417392908897673,0.8314589486210779,0.8651966308764623,0.45129147619604715,0.08252267924300671,0.6731742994663652,-0.020938481130795994,-0.1009159949843843,-0.5010802688028628,0.47734154080838653,-0.9502499647398097,0.8641674091298372,0.12921831080880097,-0.021665786133145293,0.3811447247300357,-0.961142981090159,-0.6898513729559472,-0.14391175931414768,0.4235488069011122,-0.891991414302929,0.754456944749303,0.6867128436727137,-0.188698835259258,0.9028726604867501,-0.37304281647661974,0.3041347296864161,0.7152531006511995,-0.8688335485255458,-0.1115497553626732,-0.12113468454660237,-0.5872003237136252,0.10224080380589151,0.8025474831699198,0.6154364824591951,0.7318023691902176,0.8083937064436668,-0.4768941658051504,0.14390406778447584,0.4529510612322578,-0.4075637753110164,0.9404607210908453,-0.7491564147243526,0.6748349485985441,0.4363732325392744,0.36776609964934814,0.20996919878571196,-0.05069478669042482,0.16356542932815565,0.6817050389498354,-0.3412827837927217,0.8571698743341223,0.5031246101191282,0.34611474554290655,0.7935129836988244,-0.5896670489807145,0.05304312421522295,-0.7780724572568314,0.7673936858476342,0.758888749292741,-0.4998427514078243,0.7961184284809208,0.07682744521672236,0.3076655526760701,-0.8686612129861235,-0.33617770720821505,0.4026174187130891,-0.1657332533731477,-0.5558974082659478,0.2948019160462272,-0.9735369224030044,0.8052318333310251,-0.34858925335650026,0.9913196588009572,0.7696161013486034,0.9987536204822147,0.4392820069507646,-0.5018198208411755,-0.1416790000166206,-0.029042435195476557,-0.08262529840626387,0.2981251908850546,-0.24833695282687707,-0.5618731670464931,-0.8515727547635121,0.8418620719642704,-0.3775933605190922,-0.11604577780663972,0.21642503922251533,0.8450713274617041,-0.6252633164409658,0.20317774603567362,-0.4636243704355829,-0.3987615321892479,-0.87743416258964,-0.6503801541789793,0.7459040129640302,-0.25254339965114037,0.7644774046942444,-0.7883990935391036,0.3560970177837832,-0.91467787617202,-0.9112240857784797,0.6422201028903911,0.10315937224786298,-0.842232179882757,0.4029084782697425,-0.5589697867095962,-0.5871942439783759,-0.9387437194490256,-0.6744501653775306,0.5747845930539239,-0.7936582455135159,-0.4156638257577039,0.5729643779976807,0.8394163681166884,0.23750447667366714,-0.8031108691550197,-0.6286952304988185,-0.2557451009855838,-0.08944207293390627,0.5457849603130085,-0.6125297628727764,-0.022934760629402584,0.23733439569968962,-0.8220064729142988,-0.08759590641760062,-0.8274272813857317,-0.06635897494886356,0.257437794549201,-0.536641700354495,-0.7212505257262485,0.6741098919227035,0.5525932567914693,0.7945676889911679,-0.10362301755768999,-0.20194770411718266,0.32058598585179787,-0.3522405361893082,0.6562217257112077,-0.9766019182359842,-0.44896050716835156,-0.7251383527681845,0.5852226061971901,-0.5390660783994563,0.42523635172348984,0.24371834119945168,0.02557168768864604,0.6336250794230638,-0.16904949038457207,-0.19211265874730787,-0.026932972706224412,-0.4045714098459894,0.28569134664628737,0.5869505471905971,0.29729870491537214,-0.5210326599945747,0.8794054080742288,0.46641105900446633,0.18018516395329853,-0.02772962848213334,-0.4560738591498168,0.8346088629121733,0.8534132848979155,0.3063141843846351,-0.29657086983867176,0.8997554880481828,-0.7897777361779585,0.5954712103630786,0.5226489873312492,0.42163851729841006,-0.2244989561071986,0.37847641861778025,0.7481048760822908,0.6625280383525609,0.5481921040500526,-0.8043056217557163,0.44160273018242013,0.4401999899943929,-0.9942589820187409,0.5646269587356356,-0.5956052155680802,-0.968742051872403,0.180066712467005,-0.181794077940574,-0.9341910350322602,0.6196215625686563,0.36034448283631204,-0.9707982160099458,0.6486760423810802,0.11599894615383466,0.7523937092381696,0.502350476141868,-0.4079378105071729,-0.1376928494710492,-0.10994021510318897,0.7619385474739608,0.3326307464767191,0.3469254969826776,-0.4703469457120695,-0.8571724116708963,0.3020021272868345,0.8564773931578786,0.4928177803505627,-0.08162214336594298,-0.9699990163494616,-0.7723897235861465,-0.5222028044378504,0.32318389368945755,0.3585675327345923,0.593915773044718,-0.3836037431925592,0.7458797415072695,-0.7661141678560233,-0.9246360501443072,-0.7716734895752135,0.34963371091513795,-0.6271738903157029,0.8874963264349702,0.9711965498464357,-0.022947931634358154,0.03946335972295345,0.877027202300664,-0.9373779033835523,-0.090456079354988,0.6194011635522412,-0.7592674604918752,-0.8681284472548816,0.8807104710857478,-0.31774370906192084,0.05763779475777886,0.13145156302759964,0.9717518336310276,0.25193483199887545,-0.10326740661551681,0.2975953628292476,0.1338653214686163,-0.332422389042073,0.8923118309796865,0.3334377143748557,-0.9810883637431769,-0.3935764572632734,-0.3009014287688401,0.8725129504611713,-0.9351182225641175,-0.40964875539356704,0.5906479402990783,0.8632821591779241,0.7044540004970559,-0.1688916647515002,0.9952662656188604,0.7111776658884803,0.2755459082172653,0.6408036471268015,-0.74695590734422,0.152793915164523,-0.8941504963399776,-0.2080545708527679,-0.3858944118409249,-0.5956838184480431,0.16388691027725422,-0.34745750612601234,0.06352591498173532,-0.4624152755955775,-0.05717963254607916,-0.2976627648876715,-0.15687301167697298,-0.9456815190772012,-0.7630758777844346,0.4662259396392656,0.21734210358981843,0.3916996316921495,-0.14550906756546267,-0.6427049095864377,-0.9183347831412294,-0.013387798158668307,0.6599984476307352,0.8412804096106461,0.5731966157219974,0.6878341189104262,-0.09299817174758296,-0.535615560684449,-0.2198893364332808,-0.9349990893406714,-0.6691157497675546,-0.19636142073989338,0.7467450469187717,-0.06130281229620782,0.48647081312914997,0.1173370899206776,0.4935084809908641,0.42604277666419166,-0.438787486151458,0.5496361454689997,-0.5698034158079905,-0.6694308883070237,0.15487512911785606,0.19203412763455008,0.015119095162660523,-0.9913966849336375,0.4351810854391127,-0.37830444614414316,-0.5092765255209417,-0.327085066825322,-0.395454236058844,-0.7197879188421863,-0.06074762127264899,-0.736893351410455,0.17477404031226262,0.49233667566103567,-0.09040342759832143,0.8696836210887984,-0.4807557107994209,0.027278106589872175,-0.5064695465142959,-0.08884281786519233,-0.6649224918693069,-0.4384289825481511,-0.8336929762133518,-0.21534870000154993,0.48881799439968154,0.5368445954447663,0.6569532261973372,-0.031837706322469295,-0.5080185087080542,-0.11935926667243102,0.7571216900355331,0.3691923074144918,0.6584349534771841,-0.09731536415562925,-0.9523319605165954,0.4544708980729184,0.5588732182774327,0.42553258476200906,0.9642051236254476,-0.000467973714424641,-0.8179709944090585,0.7814794672742598,0.3758134144912617,0.19887859005140895,-0.8460902729720388,-0.21047452477102335,-0.12330625845495558,0.2782151152930652,-0.8753810492191383,-0.028141328640731045,0.395054857974233,-0.7745910767619866,0.4796500830819601,0.33967218285120326,0.9508475114806125,-0.24432987228859715,0.267221220219785,-0.08438995181069564,0.44877793018960577,0.5490937140176402,0.5755008442522043,-0.9394059660352183,-0.7851455731598431,0.16693810400148612,-0.6712727671396379,-0.3047682975246353,-0.3951027365186994,-0.14120860427860027,0.7517979884451118,-0.48941715343089,-0.5289911336616511,-0.8221880003076523,-0.6223024385403813,-0.6837211081450185,-0.8609413618380379,0.21164829665803642,0.5716027851858692,-0.01660029681562314,-0.030436008117176838,0.6180169034116529,0.6658190444589291,-0.9963255614976014,-0.23415913166155722,0.8252325407475876,0.6691774907861219,0.21542541930597747,0.20099441208907498,0.5803304530477107,-0.15957260711744725,0.9261850925945427,0.15570556100459632,0.8670871805665834,-0.8354615212708965,0.4357012654240573,-0.3780941405226501,0.7518231841380967,-0.8550816846507714,0.018210816209258907,0.9533688114803609,-0.6420383058407626,-0.8475726706538409,0.3934446665461493,-0.9547092969834463,-0.8071450325092786,0.2947254097613903,-0.19431076515638845,-0.8110113092490956,-0.7409992437355717,0.2891740574463806,0.20751404120994366,-0.4453306153717609,0.12092580838161848,0.0666564065516122,-0.462883725316555,-0.9574436373650164,-0.8237968312852493,0.9414185609497181,-0.2982090607875638,0.389642145665529,0.6196281199486715,0.3211221694395121,-0.8425309668967143,0.2871820899418833,0.9873906961004493,0.21489275768103822,-0.8619918716568713,0.008550964781196546,-0.049398297855559825,-0.6661743731575567,0.8752073256099484,-0.2866264887313654,0.45815957557020415,0.37604442520512826,0.020735853989628295,-0.586983984748431,-0.7289694763081151,0.31440008634630034,-0.090285430351144,0.3925858235103248,0.8118363461079681,0.5735359000315494,-0.8213573724971608,0.4471412227778697,0.4922915665552401,0.4615120737974583,0.6484360554369815,-0.7598117067578138,0.7381511810525547,0.2018232720445332,-0.9607322526429554,-0.9084157927667393,0.5293889005707828,-0.24618751997515242,-0.4244666794755403,0.7398262089061316,-0.4387918314035997,0.9577583729859458,-0.812835793794874,0.837911925185399,0.11962132235731571,-0.0752506662651582,-0.749612756802134,0.9632762073852346,0.3529559136049252,0.7934089515461951,-0.6960328029026708,-0.7083459058885566,-0.06856726679420899,-0.9252032483352057,0.5989890939261304,0.9167698988880681,0.28287247723737785,0.9870583825590451,0.3527919184950674,0.9928123431475553,-0.30041860938996434,0.828433134933531,-0.4198219127466578,-0.906019493080122,-0.33794579357068777,-0.06630554178415271,0.4815980423055104,-0.8902225564107489,-0.9488440785415548,0.5892451836016617,-0.9434935443152772,-0.9093170032845246,0.5815718320142631,0.7822490312725701,0.352454939006714,0.290035378400763,-0.2186558643594081,0.9193278220241476,0.11635208257099228,0.7650148517268756,-0.217578488267276,-0.2870205140844133,0.08730835036085294,-0.4122687556260298,-0.9023733081723146,0.3170996723801547,0.7805908839046722,0.7479708439139547,0.20996520114898365,0.8089611029095127,0.08920506087476943,0.7468367847621935,0.18287178627640088,0.9850627189828973,-0.34777481004226374,-0.7866654013037566,0.45711531473857425,-0.3221630373953719,0.16132831911122825,0.903588435211254,0.10797929511551008,-0.6664031537769197,0.7756353477700817,-0.7937838080857387,0.5355038615597594,-0.857195688646307,0.7649956120309767,-0.03200363214596891,-0.5599047743340366,0.647057766149548,0.9931663094698502,0.27998539337855166,-0.7400502181870978,0.9879821811590983,-0.8903286661889898,0.19903044957359284,-0.3446720233860181,0.8224005952138194,0.036687658381657995,-0.9776502621350547,0.06888379432485925,0.02804644782853516,0.651874396070999,0.8974362808322356,0.06163299454825544,0.7465725906588281,-0.8328302272794308,0.21134106108176098,-0.3334831749256213,-0.9452587231613416,-0.7473744526095703,0.8900595604444907,0.06451585551998917,-0.7842731296539949,-0.5744338391686328,-0.900464009897195,-0.7213891024316497,-0.9063170275052439,-0.5588556156369269,-0.29948376734938575,0.17219640667443525,0.2025123827336328,0.967471617670467,-0.32348121282182785,0.4440853922410808,0.2878105500693713,-0.4398547562472497,-0.9092116506458929,0.19128888909292519,-0.9342060852411804,0.6774430952052879,0.864211361247702,-0.7929204239428354,-0.055438715239990666,0.7304126952507499,0.0475837650229598,0.4505449959056802,0.308667658194943,-0.12581663928093945,0.09126665433001802,0.6449045077285134,0.8758351317036832,0.9152099402431524,-0.05541365607577564,0.1171768348169473,0.3105962051880582,0.7113207660471221,0.4134850280558837,0.37014385797640026,-0.05813016985660613,0.1309740219586062,0.402273547729465,0.7732862610149851,0.45826023430764984,0.7001324110463918,-0.24930545917479674,0.03885973284711075,-0.14858652679231144,-0.22144891639102404,0.7285427242287579,-0.36414916088303295,-0.48950559879255406,-0.572838955706136,-0.8667025985644157,0.5157166874893202,-0.55996732844023,-0.18382247120575368,-0.6635936121068289,-0.7936436231662001,-0.24813472364984457,0.6777087833185751,0.8744200606798092,-0.8205184305572559,0.2716605880825811,-0.5335845709687059,-0.6876243160641342,0.24970070970932245,0.6192851651642595,-0.2392333318598754,0.5372034417764724,0.5614346717167342,-0.5026408363927826,-0.6456399520024039,0.2931949962499476,0.5813981294078483,-0.8080772871735642,0.22888910587716138,0.8794392983297086,-0.3581894185996839,-0.25246428530853193,0.35416824803075087,-0.22276752388734655,0.2892275125044734,0.46132563377314795,0.13449813442764547,0.18398858083677982,-0.6723308542334636,0.013975253819942024,-0.9085634674388194,0.7622799728299778,0.9740279904861322,-0.7788081765932391,0.9929558419111311,-0.7467621754232783,0.25982529399264087,-0.826026990216886,0.6553120367180334,0.242644145855053,-0.9315102420604593,0.734651512550033,-0.25316010344162754,0.7620873864971538,0.22161151976153404,0.5515920320257779,-0.4812822699206232,0.03649896715692291,0.11400833209778427,0.07508688018195242,-0.42615783854866596,-0.3624771044258841,-0.5935585897867304,-0.2760661496449486,0.0876700915178319,0.508136247399334,0.5051262217822361,-0.5458165181557595,-0.7729614249125523,-0.9098732340787723,-0.5408564020923312,-0.16162701626001819,0.4663950573280513,0.0005367796750912479,-0.17751796211760595,0.24994568836924103,-0.3403106267267544,0.9022773801729203,0.6831676784895278,-0.8891313764986235,-0.6909898172549278,-0.8633270486542755,0.7599325480235859,-0.965608269669787,-0.9819588067839564,0.33923287252870926,-0.35259623634423654,0.14773373105019005,-0.9905951319739896,-0.2560615976214311,-0.2725762211769467,0.30660275209858634,-0.23498877935112783,-0.09547511920899088,-0.3565316802111822,-0.013658207052114957,0.35690937802140565,0.7293654472585414,0.17034208873074452,-0.8415757837493014,0.9488586129782868,0.6188924076043731,-0.9119975931896551,0.29605737553014677,0.35947110761539935,0.327904530243621,0.7402003272988364,-0.22533278321600658,0.09770355170611289,-0.8491751253075521,-0.12184507181412796,0.24207023383615822,0.4697076271640428,0.42593692720332155,-0.3779099297245292,0.18474332276704764,-0.7696331277401545,-0.5386224369910138,0.6143197355911694,0.5138222229476201,0.7539136784066693,-0.2247458594065017,-0.25423522111112873,0.9514276884284196,0.2744668904520746,-0.9849093305701857,0.4528571616217627,0.36350053071845867,0.5061300766558412,-0.5348393083435401,0.9130221744396241,-0.9668761935054362,-0.5243360135497883,-0.7134651152450857,0.3655472318647808,0.05291331516576303,-0.5109489820518047,-0.0752094404493806,0.6272217263814037,0.6542812962372204,0.4264602016639867,0.7355631730711794,0.37229147239483074,-0.7788238077664689,0.35922302709044285,-0.9457549999762134,0.08877563096600372,-0.3501540065646134,-0.029462611084317913,0.3528512653847271,0.11319271624218974,-0.6682807760702469,0.17314992162874754,-0.7399706221637212,-0.14148818785863515,0.5109979459999661,-0.10231794734795496,0.4942443725566321,0.2574758742015535,-0.01910470406931153,-0.02858428087012177,-0.30503218656201025,0.6755914282937663,-0.4878996605332704,-0.2713395681366768,-0.4746148259862315,-0.8673913756955267,0.7964304619849019,-0.586582893610275,-0.7051063494537972,-0.11015819269302707,0.4055371946917248,0.9799435449561629,0.6778417102665089,-0.8225897092354815,-0.35117060418223467,-0.4530671207224708,0.06266453793051596,0.5639148071346485,-0.8251407529850752,-0.8706327009549448,0.16778492556906488,0.22634687887101768,0.2459099273784855,0.37046216576151236,0.2586332887488112,-0.45876148336973177,0.580482188482315,-0.7327803107494653,0.6757564558430451,0.5865347605108278,0.20746755366921188,-0.012077617436940136,-0.37799194648926315,0.15726184674582866,0.7072429320057982,0.33348984386117086,0.05719118730483452,0.557712232954864,-0.6492935075467536,-0.5124114328081546,-0.027918647632589666,-0.8324522153847387,-0.4035929435082435,-0.7382266224333192,-0.4085572985578527,-0.6242325967064788,-0.25182119593384056,-0.5523690538297235,0.09532611013093728,0.3486784260489637,-0.08719707582232195,0.1556039150656765,-0.6486880911604602,-0.9356359227074669,-0.10612010274993766,-0.6013040852455787,0.19577963073695992,0.647681070140715,0.5511806244826789,0.20646863801720228,-0.6148746241276957,-0.8322966307016699,0.49887154640896414,-0.4404578066254905,0.10053407472892473,-0.7579774284205643,0.14667772514732236,0.7630531660996018,-0.2792341386114654,0.38965972579861763,0.7406606644485096,0.7451479823941585,0.33195362985313404,0.658654882299905,0.46973094025838225,0.04106060794814792,-0.8717397196978798,-0.5346570277355114,0.7034343809423922,-0.1412953055358419,-0.4715310038751406,-0.8420362355637956,0.6433419496385628,0.8569119923580855,-0.49001725668780227,-0.9050241537770884,0.8218420869162357,0.11229416690636906,-0.03805423904405858,0.9271212732552225,0.5278994549597942,-0.5601033738119217,0.20959606740305103,0.690730342853956,-0.46213397242689447,-0.41161303584193387,-0.6311854260811207,0.5097670918525874,-0.7737295718741533,-0.11937339881180464,-0.8641710985088837,0.30297653152891546,-0.29291527507898785,0.7646514782059841,-0.4074296438482037,0.18436239044628855,-0.17337870260829913,-0.5652832104658907,-0.5991454017616318,0.2163356714891096,-0.4498672170434297,-0.9273801500397838,0.5988681979514658,0.4410148973600929,-0.10148911305193153,-0.9593274548626796,0.23510997713436876,0.1425030930609541,0.6429517975253995,0.09556853957510647,0.6542388070616416,-0.17726709338799096,-0.6871344845904421,0.6460656573081176,0.43301978038727884,0.3136205213027461,0.9270004257497111,0.978127447224409,0.47519770882244816,-0.30563194352190615,0.34130132063114527,0.6002307688592332,0.5883293123329796,-0.2416458729976727,0.8616132501215441,0.24364474685871418,-0.07840617169062991,0.7420776212709796,-0.40272069902480334,-0.23312228411268365,0.7072324761199951,0.9429107975910733,-0.5878373090094933,0.8614856814083189,-0.7489552247141258,-0.12425193474941953,0.46616227068442373,-0.03481461841686562,0.5340168157726095,-0.7961941584296137,0.05943404747046177,-0.20350166001673475,0.699423032084225,0.7119981468950707,0.32023276582181137,-0.8962890446853884,0.8405681217518217,0.3628953855119603,0.5018216447499253,0.7410825369721903,0.9977758294033201,-0.23111700786654743,0.12573607845162327,-0.46395365319720305,0.049328252243416415,0.667250392669521,0.21151681676473477,-0.5398857698408883,-0.5818875583328453,0.8822740598365459,-0.29644126101792945,0.8426676425264275,0.8852168575956902,-0.812381758109334,-0.21211159968458304,0.18255932157208932,0.5129256899182082,-0.5897764662537968,-0.053551391496533984,-0.4139899169598589,0.5108737702076915,-0.5197395102188376,-0.6164818051185148,-0.0070404462478586005,0.5363596449594341,0.6139926822660449,0.2793984176127313,0.06914229168271291,-0.9028991877457448,0.3841268229311423,0.42695161760982625,0.6005770533903196,-0.9505461376691453,0.0985039522533715,-0.7135113146028547,-0.3489540039384005,0.8229542804958132,0.5786923832885451,-0.4587349637251572,-0.0802237704302049,-0.05804328221094335,-0.5973173325476773,0.2996534688184622,-0.9719544388756083,-0.9041707053956733,-0.9176697147128479,-0.9451986941356174,0.682751745061777,0.19214857342041736,0.29386914541115305,0.20158345864611493,-0.6721512138710468,-0.7050173180547572,0.18106341506677093,0.1757021113608801,-0.6929017005686771,0.3768690293185617,0.7689237233461228,-0.9204598735230292,0.5977412144406711,0.619507529877461,0.742286427682811,-0.4334814112553582,0.946247345644665,0.537539679086118,0.04022408791684828,-0.9545525700765178,0.600658465476998,0.28188955844965835,-0.40929146253083193,0.8596312604295873,-0.23674619011274434,-0.36145641239455895,0.32085517534957564,0.05571587866989591,-0.11862581357934032,0.07460323003116964,0.11330614095375569,-0.4483086717361866,0.8234720674078286,0.17464075853291017,0.8084008651941619,-0.6256919608032079,0.7927655478580347,-0.5635167623924324,0.9490114317425375,0.37412749968340697,0.43554816400502694,0.6526620473535012,0.5004454949343815,0.6668408609342502,-0.6958446175550708,-0.5793986160336775,0.9246705973178555,0.9097578839888694,0.39327844300010883,0.08759534974756122,-0.47235415615812615,-0.1852198690310205,-0.9288965937863014,-0.7977323735586022,-0.15297175726941625,-0.4035504920720874,0.11442401836846305,-0.37058982632603943,0.677579399259763,0.944496628769143,-0.12742240772652735,-0.7912419926144016,-0.612053418734519,-0.9963447649505028,-0.7116709234276071,0.9146001170181728,0.7224048456797876,0.7766707236406829,-0.4773578510290857,-0.35539476017853433,0.2421863680328491,0.7154749311079982,0.9948085893015095,0.4220928068934853,-0.26487119656563785,0.32315309415827254,0.09013553753862791,-0.5071828768107578,-0.4492362823104683,0.6994736032749116,0.23375110199700777,0.5636144289749281,0.49910529990135566,0.9642874291967276,-0.8704335452090888,0.5928425641743413,-0.06534330973320013,0.8327632469751576,-0.40198949074295953,0.16576491512013214,0.23587301998484467,-0.19323520941116712,-0.5101645661218062,-0.2269348905817643,-0.7618402265861466,-0.09238315078067183,-0.6766241549885577,-0.9926598099976791,-0.9393362401231642,-0.8948096391999076,0.030890136212186725,-0.21162694712690655,-0.5055464334482123,0.07633846473368378,-0.030846445258086552,0.892014323684913,0.5330488565059663,-0.4576445181942306,0.5572198999941922,-0.13005952970479417,0.7052363673180957,-0.507684245146667,-0.27652200098853585,0.009303381407223865,-0.8542743159163864,-0.5557320198386912,-0.05888490122855461,-0.5681194909205438,0.1626421818864785,-0.8214956099038664,0.6559150067569537,-0.2362242426567942,-0.6425922886567381,0.6917917894226788,-0.21700485543934178,-0.38499584760447214,0.04822828291884318,0.22597335287504583,0.6464224261957414,0.4698297536256655,0.6662843551705622,-0.9396595686062639,-0.887825191555732,0.7289038969116761,-0.6006362531280816,-0.6680124651626151,-0.6938187495997141,0.015523962007777614,0.14337007045740924,0.8220241066993743,0.10178946841190406,-0.11054820028780288,-0.8793884574973911,0.599259580737391,-0.6614825302836733,-0.31587741182623774,-0.8967251795911317,-0.5107869627080539,0.3773161050434275,0.30465216392653205,0.15343361646088027,0.38859169993204223,0.12200765479642506,0.865778356408333,0.08668182179096906,-0.4332031586827476,-0.3179470098909931,0.0251367766023729,-0.2361289258992163,0.7349859081345942,0.9484314841873385,-0.24483731309272638,-0.16983026010999547,-0.0858890443964464,-0.1828153993179018,0.5143652432961294,0.1013099903667436,-0.8101350261102811,0.6029950716346957,-0.8152912545136286,0.3011985009779501,0.5242771740819301,0.37841877614896013,0.8958481047961051,-0.8287650381979548,-0.893442268604717,0.11937238123863114,-0.7155935642034108,-0.7931944333410961,-0.3400064946584531,-0.5847427576231958,-0.15735480326276496,0.21505180387935097,-0.4907942941865775,-0.4307397814671581,0.9194531604943388,-0.5786983333034501,0.3699416816083625,0.9717141758587564,-0.02515771939702449,-0.1943012613594206,-0.9742411720548527,-0.6476865708769592,0.628528078567343,0.9054695700722444,0.6607294718683243,0.5529863066261951,-0.9783564612105893,-0.08313032396993192,0.7528118599618057,-0.9679133189618243,0.23327477332495206,-0.6499952182214495,0.41996830548931063,0.7469774740511255,0.4596179880806657,-0.2865668960717376,-0.8094082926719148,0.7646911066534854,0.9653644767076583,-0.006300223604994493,0.21316136209660597,0.4296732867945974,0.6568045151916799,-0.45166591222704056,0.30677387790868504,-0.036620014953493873,0.6960588311419913,-0.7284998518361703,-0.2222554306876816,0.4063610077145847,0.10483563339111157,-0.9369259988038587,0.28666686158866517,0.8063633908029602,-0.7538887769414737,0.6731026426593467,0.4614998214627548,-0.06449269015533687,-0.7148566339475733,0.7036953499114598,0.44888524575433597,-0.047173443649025426,-0.20060218091934945,0.8375319489831596,0.5360658287038897,0.7546423050045798,-0.23692668599908706,0.39846509670496566,-0.7813949346500297,-0.03361615685573138,-0.44453806091581516,0.6407455895833758,-0.9722238645135128,-0.9701247597019185,-0.8448387078034763,-0.05216294686425904,-0.22597054284942053,-0.12100367171444937,-0.6192312913317981,0.6031624439921861,-0.08244411612073188,0.48881881259730364,0.5722123694826955,-0.8720823135874938,-0.18905828923759738,0.7798067275279073,-0.15398074451771038,0.7315162620632838,0.7813802924903488,-0.01320993384789726,-0.8409400095629884,-0.058625580377734465,-0.8849709313835212,-0.5032906164697801,0.471391184791744,0.04517298607267861,-0.6940185587776642,0.8933671475995486,0.13394277300528667,0.43935209834775946,-0.9749154301542784,-0.7488110146260465,-0.1914220066329233,0.2753253713894912,-0.7706103815526948,-0.04926469446208781,0.25991311586784893,-0.7816948834988577,0.3334044224648447,-0.14279450957708284,0.6776581026919559,-0.6543627173407434,-0.9408870956502693,-0.4451657549179764,-0.6094379612209084,-0.5204950736362872,-0.8942687367759459,-0.647062979837628,-0.436196692313805,0.3609794848367607,0.6949924495727295,0.3549161308251241,-0.9000423659943482,0.9793639311006275,-0.5828028336342774,-0.49754333497069303,0.4474054340204281,0.9045533590114472,-0.6571329978998746,-0.7345566330190108,-0.2288195607370609,-0.06064335745010152,-0.34716074535680486,0.5160720603404372,-0.0018389369087645768,-0.1375129144493814,0.15813599802678002,-0.9686130675323628,0.6561755248557417,-0.4875715279050088,0.31249434899298434,0.02142025262795899,-0.00901960816382319,0.7813004659560054,-0.10180104333774431,0.13260814192656234,0.9601018748003323,-0.35991045097218555,0.5160048740618253,-0.7885747391629245,0.8485450138599027,0.9350846541494824,-0.31778394863260306,-0.044789841225126636,-0.5045394055680701,-0.809368335312481,-0.3520817080503855,0.45898195658963203,-0.44231963361211823,0.10300163526668271,0.0015221149944388834,0.4321330134337915,0.4593499387095794,0.5588364814412858,0.975114211184622,-0.9458267229981332,0.8404285856818317,-0.7556270519016335,-0.9409334624630714,0.7776011797791986,-0.11017078133419722,-0.017940218346944814,0.438250851793492,-0.47421148871038876,-0.7308344191272165,0.41637236421774393,0.6761007671076034,-0.5405426269105322,-0.08386643834670537,0.21482581772411447,0.04802846054175669,-0.7608183811786446,0.581762435849285,-0.6084716274429729,0.4114368605781267,0.27996179138372423,0.20582441663413897,-0.8211212900716012,-0.019275439873402522,0.36001793703806695,0.45540808607576366,0.768164466976305,0.731712098536323,0.6765485629457197,0.14663471830411856,0.10896456470764537,0.25010476336857246,-0.898696311930059,0.48016085605989933,-0.28563360319792896,0.9047571309478848,-0.07585018359067575,-0.055896776104563006,0.5662553442089191,-0.054350261252191334,0.5797575800657508,-0.4024851231345432,0.38715424651752794,0.16782731977241694,-0.08741013211661053,-0.12870695620732842,-0.7862213284755466,0.5586324157512235,0.515928581852986,0.15526731515371117,-0.49480055566865544,-0.4754410942109053,-0.01047008469278543,0.2524161079681271,-0.657290396766556,0.7334663037708928,0.8791157650408881,-0.6207150672866963,0.8033994228090249,0.4850130131710406,-0.7988891721382425,0.12345769237098403,-0.10260445671656915,0.7924680741526744,-0.5102239300258231,-0.5215642015330051,0.03506021770947054,-0.4201026960822145,-0.8195449676103534,0.7137953170628188,0.9575469755809218,-0.3764248184764718,-0.1842754689681252,-0.6080745895837825,-0.572067993838913,0.6851698367131116,-0.16925713382962493,-0.6746740095620483,0.9660802520000145,-0.21836603407009214,0.6822944879602879,0.9307466570772172,-0.19521546449740468,-0.7048571463316504,-0.04560548721264723,0.6197474416259432,0.6292900924405471,0.9276394102907664,-0.516421374265374,-0.6690151043201313,-0.21776943837581042,-0.6523805090817132,-0.470324537041366,0.17928620478728852,-0.17723520183469121,-0.04199294371812701,-0.7726934531401064,0.5758783217731658,0.4535832177756447,-0.5995860176375312,-0.6849657221401906,0.06901827962270835,-0.5594228435629318,0.4202290470974446,0.25703627319704525,0.3152224276359554,0.39557133673272227,-0.1523278517111759,-0.03143993817831059,-0.8772692665771908,-0.46563971023720474,0.7414167751453571,0.9766614746679749,-0.2872906857047288,0.18889844233861308,-0.19580867312356776,-0.35858837984696623,0.969365706514552,0.7704029376278123,-0.01958491527772499,-0.6406535315685125,0.9043420429893012,0.45600967130715575,-0.8596550254452149,-0.05836518169759408,0.8284295290980983,0.45355257624936796,0.9967956282139139,-0.4199365351598583,0.11947472663016767,0.29057651123652817,0.9607374119167293,0.6309547907149269,0.2314208735817378,0.12987395172651306,0.009257520634471383,-0.7742756905669237,0.9164080428564447,0.5065318476087086,-0.808965638227553,-0.28043484959151876,-0.8288030641917767,0.2959523207140138,-0.5335798003595993,-0.653534646666958,0.7474597555837903,0.5826497298151809,-0.6981001014554042,0.4425124905703075,0.24289065056966197,-0.7519736398568726,-0.2683945535037162,-0.37810169888282963,-0.8027855552850267,0.2753182392062492,0.8446047522014448,-0.3407967459312511,0.6431937899234725,-0.5976273428977588,0.08190419208587185,0.8080656873877032,0.6180312783887896,-0.007800108176531095,-0.5961773863895867,-0.8615512252726323,0.5464797072740766,0.1706943775332017,0.5463606272822683,-0.6142614281669638,0.3991605604604451,0.2228749996014625,0.7112650921812698,0.8565772707811699,0.7303122737178955,-0.7975862040594124,-0.8718538189603375,0.9045571362535285,-0.24350255938568077,0.7297200744914556,0.5981727115528233,-0.5143794913740038,0.6876966758786371,-0.376379766490474,0.5848001687034035,-0.39911040869532743,0.6197816310056017,-0.44846335706355966,0.4390310624171234,0.8770468658627759,-0.0815541612458075,-0.4542646066545917,-0.8744915811999245,0.8254795227523333,0.6844848610182759,-0.2529685926378422,0.4946675594523817,0.6077893582250165,0.4768112271867073,-0.40519030124651567,0.38306107348953966,-0.11161182553969162,0.8889365960220732,-0.8046998252898454,-0.3779260206684114,0.06476678622267329,-0.47697728810934326,-0.4752024237239767,-0.5420933621218467,0.0836594547163203,-0.3802351667459447,0.07654861498119603,0.5830932562846951,0.0538444154631077,0.8445262248635963,-0.2601444550084868,0.4117815735290349,-0.10717170291513156,-0.3981924424986547,0.8957561234929599,0.2740987363883973,0.02550864852860224,-0.8780287024180948,-0.2532816350872942,0.499815310069879,0.9347304229815392,-0.016342480545781024,0.9502644230171005,0.022380092262232143,-0.06734773185284237,0.2798986754406201,-0.12901018900811767,0.49258741322232824,-0.4968921639969768,0.8070747768189954,0.9690704437759503,0.8640126281154561,0.15342085534256067,-0.017157877420886924,0.4614739710253293,0.8924771193641525,0.26327158710789367,-0.6550477036169156,-0.8198796966915447,-0.987859701638703,-0.07412707223753312,0.3004137149558823,0.8753758454365612,0.045184390853960865,-0.4236104454544405,0.43789693199817603,0.5486866014083076,0.9905452839210158,-0.8298082415028314,0.6422197184480896,-0.4016291928044,0.6493958904249608,0.36028434958305655,-0.45940561988297834,0.497127920063817,0.7144603222542041,-0.04705439526378763,0.6875913158410802,-0.2565928034073255,0.42358262738723185,-0.21439874411052262,0.8219252111207016,0.29709379465155616,0.48624737836958754,-0.5856554497483049,0.10582033964634241,0.9350080107987273,0.8247137423235131,0.973720067857254,0.2591935887080796,-0.07833680438463841,0.5701888282015963,0.48525790301352134,0.12363217286061201,0.11383846280663579,0.20675908974206414,-0.5820521689165779,0.360643163726889,0.14476433214482554,-0.3622583528687573,-0.08287372996053288,-0.42944138679751953,-0.532542285657138,0.07975790500693014,-0.1285529758642172,-0.7223070552603807,0.6488603135624047,-0.09691379838153225,0.09392403390546122,0.31051756244413364,0.2991702434575083,0.6339535928396469,0.5546095032225655,-0.25651472405255515,0.6778232980799583,0.5544966475946933,-0.10207850180037537,-0.4939961227004426,0.7632607845308108,0.806391707401422,0.10658084084332953,-0.3625502554854254,0.05385983420749785,0.8538042886261441,0.6066758984448608,-0.33270583713023294,0.21519547895608282,-0.7086334018448901,-0.9686588476732139,-0.9265253474309705,-0.5978709733954757,-0.05381544738859323,-0.061773666815767125,0.155292596503807,-0.9715755809771087,0.0008660945342084947,-0.5555484745633268,0.6266409643196835,-0.002872172104830817,-0.6581366686801913,0.2444162225096529,-0.6960707323858735,-0.86536877569545,0.8942941390048094,-0.03752382521937436,-0.8253058527186268,0.8541982277164915,-0.802474800502466,-0.6094343914402385,-0.9418909867521517,-0.2075612914668341,-0.5939266179380285,0.3969063795519032,-0.9480263655414904,0.34645942641580785,0.4904129547868079,0.6718752867830797,-0.7983098089485672,0.5029328498874654,0.7780822519333035,0.45958251772816605,-0.13936389966335816,0.5291087592158024,-0.7308502465840332,0.616091060328154,-0.788852459585963,-0.8713934768942397,-0.1361139971043912,-0.40554419087934335,0.3177771637268476,-0.8943866049301052,-0.7125650566472934,0.8685442837717636,-0.26840806942805506,0.8317807068990104,-0.44337000312459884,0.7199517645995834,0.7199654996958951,0.18322350355629768,-0.8844558820354238,-0.6422037741681568,-0.3401874416872728,-0.2719024913932757,0.9802670159289091,0.7459594945188395,0.3165945564309314,0.5058111249894053,0.6191235240249344,-0.015534231338141469,-0.5261758263754046,0.8203556595116239,0.44175940422763427,-0.5836456392912721,-0.7726573309303746,0.18481738161415184,-0.1366208671381759,-0.6915997157623481,0.20923403224162795,-0.43636251479736243,0.8110790931605298,-0.5092807404774469,0.8700766544963829,0.3716400424722692,-0.966611241568655,0.7625273946164399,-0.1321898401662498,0.7673981933623917,0.910441029587409,0.24388046158737753,0.4874403556720863,-0.041077285555275456,-0.32655117901730746,-0.30123723293917815,0.4648560892050104,0.34139639144147216,0.27905086353651987,0.08958295709148167,0.6885780771191503,0.3507191143434827,0.013567583629707336,0.1484742938978869,0.4215983059926256,0.00021821446912251297,0.4572650219777663,-0.31806918960359676,0.5309774803835039,-0.1972283406961881,-0.4259506046662458,0.5393158411987324,0.9954281704924579,-0.7826338783625055,-0.8398041613948508,-0.31255398630554554,-0.22379854582520808,0.49058817824026524,0.1503514789599234,0.3074526542238434,-0.9903188515814889,0.573689718380793,-0.8648361074850848,0.9264691427919951,-0.4091625853609968,-0.9169817629065953,-0.7480468870617418,0.027971814878575252,-0.48783830288323915,-0.3167137414929133,-0.3849531192264133,0.024918228153403943,0.8424348813868416,-0.6284624556841187,0.18512592551741447,0.43649220559467605,0.958242252357149,0.03425924800620361,0.2349605302235951,0.5860531198086572,-0.6283463015836839,0.3902429708824433,-0.9355813324264111,0.9662029313425922,0.3925118586619809,-0.7327338063464723,-0.34685826598012426,-0.707463937675956,-0.3529514135499383,0.19153833415356747,-0.2819009785415476,-0.4434421976911913,0.941726287611454,-0.24420173605814055,-0.37732509551706794,0.8733542852692266,-0.996202693529249,0.9325162435286349,-0.41965392384565026,0.3359581628202113,-0.5507381807784428,-0.6778119583299811,0.8356607744105624,-0.43113494385173934,-0.4508267134551156,0.9902509556815451,-0.4725075057672139,-0.8759890368149597,-0.6089461707799451,0.8811878745807387,-0.9461477474942663,0.42519388141027203,-0.19481774084115155,-0.23773514165155896,-0.45505797589127006,-0.7301545649550536,0.07879208743802724,0.5736530136532345,-0.42859672473995336,0.03668952083557819,-0.8691499781191203,0.20244033082227775,-0.13125976406192597,-0.7140152701197469,0.1013135370670144,-0.16071977249091374,0.6882973917621864,0.10654057127594041,-0.037129514060465274,-0.5751728381891399,-0.2969691503699101,-0.07836866239389173,0.6711299279220082,0.5147347473923489,0.07173232556323117,0.06396726927934226,-0.2172820167779903,0.16710823588187118,-0.5799305995780388,-0.7438609431298362,-0.16698602593685763,0.14543053213965762,0.5635265600653154,0.6760684328710014,0.7327951685731144,-0.7090794024417155,-0.6769344542421076,-0.0019464893032223873,0.0761109327357854,0.055206096764291335,0.8064630357151452,0.28681220747337366,0.8240974579833653,0.49815731350984205,-0.10822439976373932,0.2002939421290033,-0.994651778855987,-0.891951421015134,-0.3269471449778725,-0.389838128143714,-0.802571543988208,0.10834832563945596,0.3463787484461085,-0.7456111255797193,-0.4283014923525841,-0.0753370203928787,0.4728376901304552,0.41343926393500374,-0.08930852105646081,0.32922522659565456,0.17765924957263635,-0.934563628228297,-0.14999696818957986,-0.052985724530223655,0.6762157556713777,0.04652017185802815,-0.6275815989858475,-0.116538541952941,-0.9854715704147163,-0.1834228443465329,-0.4475828128067181,0.6344940401059724,0.1195536772807464,0.6753908073899595,0.7085356200568058,-0.00912295819699116,-0.7235229430082963,-0.5668190693586481,0.39562722999858946,0.7918349574493015,0.21441136737620936,0.035024839926649065,-0.5183994230691755,-0.9841272763222373,-0.7014833517719015,0.9503057866958617,-0.9416333770192253,0.8702091909044749,-0.16156943609241714,-0.33592765333741315,0.21000583380694704,0.7802639647307359,-0.8214627316844678,-0.02042421458142396,-0.4793275725120314,0.6438133651462143,-0.6045679318411696,-0.39461256586031124,0.37346304926103824,-0.20938676966155656,0.8690179691450024,0.1652468448402029,0.29901131112468415,0.4216839435225712,-0.6265413519468874,0.3644842652052842,-0.542166859322416,-0.5237201843406887,0.13670847570855726,0.397130467633406,-0.44501443365705273,-0.33630344239326515,-0.9341568542992567,0.7999742727382277,0.7424253322684724,-0.6139530140710079,0.08176950492268276,-0.2568374787872296,-0.8966714361917949,0.8471017915982408,0.2957232977883977,0.7322428805923802,-0.19666625897062606,0.6739896331806114,0.7680523338153593,0.659136747159887,0.7819942243146782,-0.6966666118670404,0.38835534760177315,-0.7350282313862284,0.23585560126296912,0.45470791253835774,-0.9330746877596325,-0.2996676231989037,-0.4566840674614283,0.5359986222131794,0.5094813018559965,0.8443123990767711,0.2302508551760316,0.4972490671359049,0.2765810448583814,-0.4707226073640731,0.8891400382743142,0.4498552756035312,-0.8068099736569376,0.10226544822774941,-0.09280703592368855,-0.946171705875819,-0.046536645745948846,-0.6992134410677608,0.6769860231817901,0.7358893581246031,0.7254150496801115,0.8039921554834053,-0.9917536779696652,-0.3419227865669898,0.2625015569547797,0.5150502716207803,-0.20101375458053794,-0.12258546408089788,0.9911322018672419,-0.608396758176255,-0.426439957444805,0.27225487144395566,-0.11273022898690721,0.6910528803155798,-0.7105811060464098,-0.5297302617526682,0.33469325491642166,0.2353719562896981,-0.6048957724683006,0.7617042668290968,-0.5317358028616224,-0.2664710102398524,-0.9137759062975266,-0.3868004232588049,-0.6981061659287662,-0.7990788694007556,0.9598969623303539,0.34355210587110885,-0.24936863528521624,0.25934836926972227,-0.22689090292998904,-0.2107623596802779,0.18723135118045442,-0.3652814473972634,0.9652963756280559,0.12231855209717546,0.6739946121401061,0.09792995719801967,-0.42352846162198654,0.04046394656686192,-0.5376563551137874,-0.9059735592821319,-0.8529157460859276,-0.5531358636802188,-0.8010096746963531,0.16366789575401497,0.5018123336400762,0.1300123116387104,0.5339546939026902,-0.19946119105088966,0.19872976226184025,0.40815373122773746,0.0788073563383287,-0.862999612457164,0.7242705148157464,0.8302785773082204,-0.9419286979279125,-0.6430259952494419,0.9742863453521389,0.912766203767559,0.5732860845995287,0.6974516486164057,0.5294495154058756,-0.24296045657251186,-0.8869790933285886,0.2573029680532124,-0.5185897907849226,-0.017707147816031776,0.9988849101265544,-0.8569412815155417,0.3791773470286479,0.6111205199238439,-0.7977323610289186,0.6382100853209456,-0.03984316868972004,-0.4439619362390368,-0.965199894694873,0.6958561684494868,-0.7920818719569691,-0.36236325179239115,0.11281979079496796,-0.15219692221809922,0.16646377430020598,-0.6188366975376891,-0.5711686280221919,0.9993414137720511,0.879775138666903,-0.939513772038842,0.592571738438251,-0.7016029684558083,0.9588436518009797,-0.4866276383253618,0.40803701773855017,0.4066499229918714,-0.07470259739448193,-0.9140144574469011,0.18858050106359547,-0.4890931791704842,-0.7044855417376692,0.5661238518661194,-0.019059703355144952,-0.05070646707562654,0.8925544870906548,-0.560170085107661,0.8274980138526546,0.497955697208357,0.6321177896208696,-0.856249616558177,0.024010709733443214,-0.45709341514042046,0.931225696992368,-0.8001005632580118,0.13875752566341504,0.7134254345218307,-0.22966900915897104,0.07700577833826805,-0.7782568829501688,0.5705423731763544,0.39298161195724357,0.15899816925771937,0.3812093585194758,0.9681005501198441,0.8302016891397999,0.1370353458467266,0.6393181349674679,-0.5767539583371635,-0.9454526237600609,0.5883186816272543,-0.8079917039677871,-0.46981448763763445,0.7738579605423612,0.852132603571004,0.30592411714532,-0.558532194487956,-0.13734942100180492,0.8807862296235187,-0.04375394791962939,0.7933270639112728,-0.9722047254386041,-0.33290112816694317,-0.09421966611722032,-0.3295356874649302,-0.7400980792986078,0.5148258305862632,0.9055050999089,0.5466775541028654,-0.8034307272123618,-0.9449964091181251,0.6399290573863134,-0.9843162230177649,0.3348364917673694,0.9940551329697549,0.7554267450393872,-0.9578468720588842,-0.7085028102329434,0.17830955639932977,-0.9895023037506308,-0.5610419142840761,0.302476002575252,0.3963483457836896,0.24879296591913058,-0.5026655390165053,0.8861648384100305,0.26053961620657384,-0.6769126567562529,0.7112945278331226,0.14308893760250885,-0.45321424690539325,0.6032865390181696,-0.29192152554071105,0.7962482257484067,-0.7208274636690875,-0.004409655307905602,0.19829108440023457,-0.5773865543155459,-0.9488900348199751,-0.23174827386384078,0.0881872565959243,0.18887837227534687,0.6577601012452896,-0.06991596914016873,0.6158800035769538,-0.9898293771485023,-0.6222618778427953,0.9341229059139176,0.6808834042000214,-0.6804811521304,0.6574520915353861,0.8460106671750147,-0.10909766135116272,-0.004020320556992418,-0.873040174167212,0.1255522370187776,0.5539223768630246,0.9484370937350515,0.7293553528512486,0.3328447588085379,0.9499168034722509,0.5806485655704108,0.5107055708431598,0.5849421650002411,-0.441005554515568,0.8083092880125233,-0.05054102240889491,-0.03166027112778447,-0.5916688868335214,-0.19718062387198398,-0.9785265399787499,0.28499967710449114,-0.5422541178603413,0.5141995051941484,-0.6532320277114401,-0.8318989740690763,-0.21400567362525313,0.14626030398716994,0.31577314217308605,-0.8927056993146143,0.8668761506779117,0.3382517116720982,-0.7199594698309251,0.2978948159506394,0.5291651576999259,-0.02072778095714245,-0.33271031896988434,-0.7276556429147618,-0.878875615053696,-0.10062731047392637,0.8228982436940806,-0.5793073653563254,-0.6277311493679778,-0.35046548183059145,0.7952630153460363,0.6062880017404402,-0.3226859884531015,-0.6117796524229042,0.3311489000076129,-0.4614327237587832,-0.23494699601871982,-0.17220445324037814,-0.7116862949378031,-0.6738145119227366,-0.2810852695196422,-0.146780728134412,-0.9095338850158616,-0.2437176626984956,-0.3677840924966347,0.6573280035510631,0.27977845161743997,-0.8489760860949904,0.43930350295205245,0.3218900342777662,0.5485106353076394,-0.4528581495019519,0.17027987157005975,0.03321113559616995,0.6924904849707529,0.7411261081123071,0.046679252264915094,0.311248384256108,-0.7954705603391985,0.007232920935646314,0.552342191295879,0.4256469727134191,-0.9789056374793705,0.8140211738499759,0.2512752908944651,0.03307963971963912,0.8100428576420917,0.8388652498625213,-0.5932375189988031,0.1396153668787441,0.6174357647206989,0.18939654926156768,0.05988289733649843,-0.427444450391788,-0.5803463360831587,0.5297574320294371,0.4916577568238403,0.8065786822942593,0.4794411550858564,-0.6666952551673875,-0.4571916993175844,0.31458811226630434,-0.03932654261053248,0.28794656742172964,0.5577439501454038,0.49609124697639895,-0.15008041243001058,0.8748679425060761,0.2003743449187827,-0.9900424231130622,0.35872949519654296,0.7156667065582456,0.9582025470062947,-0.5535115793651642,-0.4086288220703136,-0.19326309103651051,-0.5541103388783148,-0.9339835101256697,-0.3757988250242532,0.8159190851847473,-0.8025035979090329,0.24135012855501414,0.8886727024182817,0.15262865775708478,-0.18168032421314928,-0.8865127828738837,-0.973884047526751,-0.5871437394317238,-0.04883059228103348,0.6836823669345431,-0.10059813832387299,-0.15194266199190998,0.6325840478600235,-0.36489276037331986,-0.9284474154771298,0.22902151778192836,0.8987277510396845,-0.6017866516293779,-0.19555059596870206,-0.5822947986445095,0.7505461157177731,0.8212068307636244,0.6479335647055438,-0.6310295544445659,0.1952618273943334,-0.18076642605655246,-0.6615019316488733,0.058068030492874456,0.3555363663325255,-0.19325691295552438,-0.4739076853588442,-0.6277328616480422,0.9910786246677612,0.9876402062667085,0.7775138929678613,0.3446092629288944,-0.28999124291854583,-0.4711620564294816,-0.16692199557019793,-0.1798339885336222,0.6057498929366583,-0.05178393209377319,-0.9151675028909116,0.029593765751666945,0.43955747539927903,-0.6502046901867586,0.2792573163224228,-0.1382507363562695,0.1763200672898395,-0.2718520223093306,-0.23519404411795364,0.46178763552401625,0.3946571712837543,-0.31580342504190195,-0.45023204719057963,0.19792860013532843,0.5206504468909423,-0.5370202907560577,-0.8345328409290478,0.9088798127231141,0.7246507676964129,-0.34910326989138585,0.4815366022558887,0.804556729287006,-0.08545988492940726,-0.3037594431073696,-0.36084485585299597,-0.22378732137018753,-0.939677427064467,0.3997835330728141,-0.10111278584316041,0.22729201379135233,0.47850354651644,0.6972772826029929,0.5438944926714695,0.08718996610769714,-0.7756524313336837,-0.4989920679525399,0.4381714831118724,-0.7444559510097566,-0.5942764267266758,0.9405076863706703,0.8453141763106164,-0.21449602334348006,-0.22434949392452008,-0.8424492233141061,0.1445909574658737,-0.2939717902693575,-0.9985052261426812,0.25782030013475876,-0.9511822492684319,-0.781865189942432,0.5946396621234211,-0.1968407574895472,0.0992693487890215,-0.5814481625776922,-0.8895763541578223,-0.0867532355583005,-0.5617375300360576,0.1995486789762395,0.2809219606209554,0.843253119864656,0.9159319122896565,0.14062294036671918,0.222558641067512,0.972814690142763,-0.964177043916217,-0.003975908735405875,-0.4989764496995148,-0.7460500459540396,-0.7586299337345863,-0.5500099664128948,-0.36195572790595487,-0.9966354678746776,0.8226653625932137,0.1237086164866692,-0.6411843057167621,0.5746827232399094,-0.6423458609328536,0.3422115844095046,0.13763364348723472,-0.18003823104932626,-0.330848251812657,0.03669377146579955,-0.7350092579379575,0.3626585675850684,0.42756054788387665,0.00032501818158370277,0.12945872055861352,0.18773046745141997,-0.9422643904743766,-0.762953435299196,-0.31045845727196864,-0.7807511944268757,0.30857408791705687,-0.493186633588915,-0.4917494799115911,0.1569061041094164,0.12064830754675837,0.09991168317044363,0.26784359555620574,0.9164760071378633,0.6661386515782435,0.5370381375852871,0.19881137686093697,0.5335185678489602,0.6691885475699375,-0.7630879583278602,-0.09651715580820852,-0.016991090589379976,-0.24751067820164518,0.6354134879457414,0.6108490738426415,0.6927671629155547,-0.543816474604983,-0.9820769030795795,-0.6931160223097692,-0.12595475688891988,0.9338907428988437,-0.6309192734367768,0.7488734824365151,-0.6034937791954724,0.41080641484107283,-0.03260298900749037,-0.8119278356521344,0.7612885738561108,0.4360717543924124,0.8113015011996911,0.7993240111468121,0.5191330556177776,-0.4588426930170679,-0.12789780230370762,0.6442034600651347,-0.4295698571636104,0.40817498222790594,-0.6295706420046496,-0.9219008639998763,-0.4707137980652081,0.7399490802208148,-0.6495276741318718,-0.20684521988826088,-0.23470084672922265,-0.5330812220734451,0.8466501410488101,0.9758714150380658,0.9765397975968129,0.9899699543272276,-0.6266900412887662,-0.8583788934455094,-0.05904328166502815,-0.13868576184946968,0.40033095327896606,0.3283262329712828,-0.5089351399681799,0.9704237762426677,-0.6201316457745589,-0.03355945960550466,-0.07170316982206493,-0.6205451176250767,-0.6491687216792468,0.07395064432742693,0.42567752407010717,-0.3812221784129648,0.6424305719972374,0.4364690862232985,-0.03703268866033227,-0.4193204475590706,0.9742765363123396,0.662868879062023,0.418246773049052,0.5287613807186029,0.22968871920406464,0.021023805938207074,-0.43371279678652286,-0.5726792191851235,0.0047848984094334135,0.8405291767038559,-0.4571195311186653,-0.8295925767487939,0.5831404285592456,0.1265755537620339,-0.48711777373467413,0.16877153694659475,-0.27207572543556413,-0.1866559935684069,-0.9209739590564114,0.6415618319836125,-0.6574941184099856,-0.09733243416505699,-0.7013024333187692,-0.33959793831946183,-0.7783606233845377,0.815108554375745,-0.06697179726737135,-0.9853754684046325,-0.4752768619704866,-0.1019790552804436,0.8407818241442708,0.8074036975722718,-0.6494359941002512,0.6273467629663816,0.7739270526827522,0.3580516614257889,-0.7343631111211693,0.982425253202309,-0.6623032135931624,0.8366930840792446,-0.33555601647829136,-0.8732220876027212,-0.8876909067897445,0.5955551380719211,-0.9114581178257877,0.7810671258811441,0.7291651928727325,0.8378974352540136,0.967347464055045,0.436709664228055,0.9153707827149096,-0.351322276652994,0.6408894345860359,0.24827563659089624,0.34017063651431334,-0.9999200002120632,0.47326228101807777,0.9436888008910949,0.30354852172946756,-0.9700907339792353,0.808593054128137,0.07343153983068973,0.8383727172912345,-0.30636777267458193,-0.8547768532743374,-0.05689860241662159,0.21633246612089208,0.28924509074173255,0.43363701174489444,0.24713480419947098,0.48243444401873914,0.5265936408533742,0.5871555243296525,-0.6107641079908759,0.06116999070662943,0.2969072968638813,-0.4350609439479365,0.8823288094995194,0.15396382171925183,0.862355735333959,0.8896467245538671,0.7584562529451198,0.8057808471880903,-0.8455547084153181,0.9559655569550369,0.09000220434937711,0.7193957963795337,-0.14199584782287888,-0.03765025936879485,0.17852878809956563,0.536129240403824,-0.4944766367070945,0.19959148539869687,-0.3644578665135949,0.3622508946693639,0.4534642630405097,-0.524667186625299,-0.3760130692647712,-0.7649812220171555,0.3824306897120724,-0.19171861194601592,-0.11918539777072668,-0.021436140207933718,-0.888561212417238,0.9656492821935472,-0.9916379262295456,-0.4375411269441001,0.7095448412975078,-0.8120674927789382,0.25566609467216805,-0.3546588999190199,-0.9241551069480243,0.7625471545725335,0.0014515021126937366,0.26477457245311764,-0.09771537738670255,0.4811399394982958,0.4648196386373151,-0.8975507701026348,0.49268015807381293,-0.6927796156516499,0.4491721115498304,-0.10437989071058151,-0.6709336164928135,0.5621429743147262,-0.811306630583225,-0.3791792726194949,0.8734896521210802,0.4946809941321293,0.33994017393758336,-0.6032306158006575,0.424574427236895,0.07904473389696309,-0.04749715566968815,-0.9829313228838619,0.23640325010942154,-0.31012915002321884,-0.8091488290356783,0.7565916157496402,-0.7047075037305883,-0.2013251251203887,0.9659306727486074,0.48661104754122153,0.120896624032786,-0.14602090199651574,-0.907282015681868,-0.7134609496950426,-0.4413667024582879,-0.901942172629171,0.22338811248607393,-0.5739935889560583,0.649519119935084,-0.9130517999735521,0.49875194640724696,0.517553473027742,0.23705050328627908,-0.2834389875026657,-0.1795123975666144,0.3164927558633106,0.5950574484645308,0.1309719615456455,0.9134700612019344,-0.29331264354186404,0.18250607610879,0.07248497450077673,-0.7559711974391901,0.5675497468198578,0.1731118389562596,0.8423503720748768,-0.644916562270806,0.895915938156284,0.9680184947856738,-0.40909925827604043,-0.9877935429089002,-0.0014101092737621723,0.27470820144637575,-0.77955151414256,0.583032670522952,-0.7868826930769894,0.24996107456522343,0.09974910941520232,-0.42858011973306764,-0.9636673281715851,-0.2654741218954242,-0.8802561761954315,-0.6758118807968732,-0.9991670860610633,0.8895299983972469,-0.620600687345517,-0.018027885494660945,-0.5244923851407377,0.07861163388866421,-0.20458203832919364,-0.9001748542317671,0.2830231745288807,-0.27703059289381793,0.5380541203359299,-0.21513840240670445,0.9768075014329671,0.8675313333000183,0.11250201752691624,0.553899947466568,0.037819984321159295,0.5738084362888494,-0.2783945502036378,-0.7558374011218179,0.2037372200650005,0.8240209222388042,0.7808937279058779,-0.7334051985803813,0.7539469833321872,0.6075931035743298,0.0161456365523569,0.09099094974556099,-0.2184259897279106,-0.9233007880746971,0.5063930318050232,-0.02578864145853932,0.5088840726896091,-0.8641889439564479,0.5487894120493004,0.46410687707415055,-0.5748363326927126,-0.06381333844402337,-0.4550964004916487,0.3552926403294976,0.28755380730744307,0.8671460650957177,-0.41867864713709824,0.7643144777433655,0.5788477589651124,-0.4796902243716432,0.7474019573593889,-0.07074375896591834,-0.024294844202504384,-0.8937410257551102,-0.8866229433945492,-0.8541105716435866,-0.020594025134298866,-0.8903433869307433,-0.9987259230960002,-0.5800151858875862,0.16095213979779088,0.028260636021633756,-0.6593178030384461,-0.9904492122686217,0.08377108865740945,-0.29287552893214364,0.8489908150445025,-0.860092231106572,0.6173098568448709,-0.39158711606959584,-0.02008346807496242,0.9704190067136789,0.7355907984929193,0.44871220881778373,-0.27236194770276434,-0.960339804125941,-0.7423393350497567,0.7416395055807761,0.19992215858048046,0.06776731045687923,0.4349438705150712,0.8425087271815883,0.6094204872766893,-0.6879549689606836,-0.5190846011886643,0.4485411910284718,-0.9058285888457582,-0.10033965570888226,0.4369057643491254,0.2571058575386258,0.8502935901822029,0.057164775723637096,0.49590410946225694,0.925998393187266,0.30129636192763076,-0.21528606233052328,-0.5271602657087209,-0.10094829022726137,0.526276262331687,0.8174595263124589,0.8416211146717334,0.44983866232819647,0.9582857383669563,-0.3261002620197826,0.14300849083842238,0.42969881077665995,0.3537986527190764,-0.089653276041183,0.9116642230488914,-0.7832295480555962,0.37493162156979687,0.09266986228922769,-0.28909029047067913,-0.03002302496362974,-0.8487585546384655,0.23864442229271265,0.7524821537804467,0.83871987181524,0.21726536560438614,0.4565610708574992,0.7467992124173841,-0.06698795258394852,0.7513954408676957,0.08763946462363625,-0.9397170205330778,-0.3980249263364557,-0.7268891879751254,-0.7791173775356164,0.8306673230569903,0.5321187800219971,0.8622840791815616,0.4329228656676396,0.8415245052268019,-0.5647809846850418,0.5143514353635052,-0.7320942175033376,0.9124513079640928,-0.04422307494254385,0.06179117160856196,-0.6492083008918035,-0.8353542993993133,0.1067411114051311,0.653943420451786,-0.890072977739595,-0.2815506567621837,0.5057204732074763,-0.11387259203441058,-0.8139356615100761,0.9470935511264329,0.3259366583845258,-0.9044116025977964,0.6456960221571113,-0.4945316716333614,-0.014894228018097255,-0.16295190116343305,-0.091576125976919,-0.39098629221350234,0.7104989591095405,-0.5559262379940859,0.665665313288961,0.5012143451212252,-0.30039952702885886,-0.9836144397201576,-0.5128491286947741,-0.1055818720491768,0.772101140416968,-0.24483393445992507,0.07071733526468305,-0.9971840779959997,-0.09614286941432582,-0.20494644838259202,0.41976711985035053,-0.946017281952904,-0.39701575665953603,0.8864710226563104,0.25582699133002995,-0.8044880982255755,-0.4600916005404301,-0.48582234815341785,0.6142118281669255,0.40824270134320595,0.5879333920642338,0.047909756721168595,-0.8456818952402836,-0.6032931411001548,0.32247054905519357,-0.1086043179892433,0.10282477519614486,0.06824459016521622,-0.23074404387115321,-0.6064146617255022,0.6440435760439704,-0.780638892915283,0.8392133027192443,-0.8086078291376033,0.7122081286108788,0.9269600359936743,-0.8886875722029273,-0.24847081529636328,0.7583414901262135,-0.8529632018158049,-0.6636974899528987,0.8523323599516257,-0.1365262910241527,0.8769400597277142,-0.7449230384706744,-0.9763448504166148,0.6368330081539701,0.19118772148044427,-0.4414254201564243,0.544807855001707,0.2834659501319883,0.544490093096029,0.7622543076416528,0.9046479165548158,0.1578701233052615,-0.3080318223142915,-0.5101809979046443,-0.4092489133001387,0.440456345806574,0.9169122409625903,-0.5831669139971716,0.8857387946461306,0.5695807265164414,0.1914219865335678,0.9893022118822685,0.5991413281288953,0.2563793084798609,0.957253334618555,0.7386133428734534,0.350753476546142,-0.10873914213625646,0.9620188161515748,-0.16999351649529548,0.9566730965820784,-0.5973243746375745,0.05868972372588277,0.45819064955246147,0.1901862426071963,-0.9417794507293438,-0.882446655956038,-0.40376990725019146,0.3582330339941837,-0.7374687994635305,0.6352362181616946,0.9764173995659804,-0.9556066144133948,0.7416109383060048,0.3502790878615256,-0.8542440832281026,0.06509360246328932,-0.31544490716144136,0.9980640615438316,0.26291039071522615,-0.5277654540370857,0.06036462906943174,0.2120922109168255,0.346209009046863,-0.46398367243932714,-0.49827159774809715,-0.316584709199498,0.2673514745183472,-0.024981933613005713,-0.11067539421477912,0.6750346336298811,0.11689673044907645,-0.10703127483779551,-0.042672359828142215,0.06920401695372758,-0.7695414364161528,-0.843532282347897,0.9861754208406617,0.2425150606755213,0.4859335984061859,0.1853428262187824,0.07159124522733396,0.11443655560005928,-0.34994177095070356,0.24476573672814905,-0.484057943547316,0.6172231061315008,-0.30290669819901384,0.12812078178454156,-0.08589791081970843,-0.9568717059481073,0.23955357376313424,0.9912692703029504,0.43431677378108136,0.3990144275434049,0.06101866892147956,-0.9137261838162396,-0.2927748003623323,-0.7355718732065883,0.8657300298193884,-0.9606800242179983,-0.8742810373233663,0.8328977183178228,0.5616045603680699,0.8999263989310169,0.7404413290420777,-0.30751942102120333,-0.5829290139202719,0.7515423135968442,0.8858914586042463,-0.006064244328058521,-0.9995267204615528,-0.09638610956499427,0.5874400019552883,0.7067588953691442,0.9896907589858353,-0.03612990472589428,-0.7762159680592446,-0.2775882656344175,-0.3718036326120089,0.7889643370040396,0.37674449611098826,0.5604804335568119,-0.0269228052230297,-0.16329360392635772,-0.02389404795799388,0.3241941879747834,0.33914807906176603,0.9394545712283038,0.7619540436216576,0.6284706873698189,0.4214454390727367,0.23191857721485643,-0.2318836964346367,-0.6273615627514835,0.2607509042435754,-0.9675110793122257,-0.8990510626235375,-0.8596411602778387,-0.07444557476090075,-0.16457455134106302,0.14758442242155345,0.35182426848763826,0.9047215554332784,-0.1537154842703341,-0.11569611080161879,0.6907392030738475,-0.9318435780759082,0.46801893997174626,-0.42025240131528774,-0.7164598284543573,-0.2510714711113968,0.3406007617179665,0.09356011034008005,0.15782957172441758,-0.26087248330843393,0.7810507140789267,-0.46809173908032364,-0.046250687146032865,0.7085208660971534,0.9227882132609102,0.8091097142947945,0.5301760693072655,-0.17128209932135152,-0.6831441813743275,0.5990742569332752,-0.14866356193535202,-0.4108339266060925,-0.12621512372440513,0.17318329392680787,0.8307918421494465,-0.9102545237390076,-0.7518143407532993,-0.04461316898916623,-0.05774617491828571,0.6678770909567229,-0.2900676570826748,0.3432770720434233,-0.5455528794102027,0.15371965886308248,0.22929056784634083,-0.5004909375216222,-0.9928524464888699,-0.1293761267241864,0.04717338324307141,-0.8166371350279562,-0.4605252616214037,-0.9855279756037332,-0.29673204817149945,0.02021863392329326,0.9633567289689118,0.12800076800513338,-0.06366755909495447,-0.6428197754403511,-0.2550337267316054,0.2414323900799733,0.016501934199326662,-0.09355984910338333,-0.4339464425662569,0.8224548361649135,-0.9472813875076485,0.026505139362054342,0.5334923389087554,-0.7328830016265535,-0.8104119562385617,-0.15999545713913377,-0.6013158953709883,-0.7608676949853661,0.8573446227896273,-0.030969671687919087,-0.8363780988581953,-0.9819938883968726,0.554990536031513,-0.4948861917463365,0.40241931326057423,-0.1716756690565513,0.0353108910577713,-0.14069618784275884,-0.6460893910395435,-0.46257671078977647,0.19212356952560272,-0.9522832687538207,0.9879747467046855,-0.18140152005008914,-0.15567946924951648,-0.8607297354577008,0.23314284301943733,-0.5908535637826713,-0.2121597958598338,-0.9314035704007049,-0.7977275609410646,0.40264566042257033,-0.6867793860667872,-0.3592644051133933,0.9852486447299826,0.1354165061959809,-0.7773869459442404,-0.4209295780878095,0.9067946076756526,0.24447833523445506,-0.15771193874174094,0.6345516349667557,0.44540262532450803,0.20913135053834675,0.9081501083605705,-0.03642068970315804,0.6137153983964807,0.428706627478749,-0.5903009571370053,0.1639428737111044,0.1379489683427717,-0.04899976250008575,0.10589487882180282,-0.3082101185102464,0.7467401070871575,-0.7355306693300345,0.08857083124413312,0.48079709259087466,-0.934428508797537,-0.19219181881104763,-0.03219266723403713,0.4376298089629742,-0.22077632847558304,-0.3429889780655204,-0.762073226543635,0.4407751547537462,-0.15437245252158704,-0.040720015059407366,0.30364232171939265,0.819657605584434,0.08435589337748106,-0.6759535298227606,-0.10710022443401312,0.5442431576622706,0.47817653264709725,0.19213368377369888,0.5748635986040367,0.6165774128089045,-0.30454851589117915,0.5083251536409652,-0.10265766983678626,0.6520759299472221,0.17726825725178919,-0.8623929130055978,0.2893742454108814,-0.35404082512562773,0.7897561678135714,-0.10597715955744147,0.01239955107771129,0.015289662523287229,-0.28630072867957734,-0.8676692887511714,0.1518205981168057,0.8477052827375022,0.6050285402976037,0.22941717654354665,0.7746206954820729,0.48354796407700373,0.6020685801970502,-0.7176224943179439,0.41500976611259177,0.8432333039686779,0.18903254250897406,-0.36150086118007785,0.9396393592218286,0.7999823045172687,0.3080986799699663,-0.6053689211672062,0.6917030420822723,0.7883878408665239,0.5380407496297175,-0.16833544641533882,-0.4437477924957205,0.9455890730747394,-0.858721679245096,0.7996626045350663,0.5633994204385442,-0.6774618276516597,0.06747330379652605,0.0635836263841032,0.17114228024220735,0.03312609445686743,0.24230102699293443,0.49333237520221407,0.8771569851649372,0.045561692094106876,0.11441978437734801,-0.13067247451302388,0.17020904392086478,-0.5260548506736988,-0.85643271646759,0.38228180625036057,-0.5873891669192772,0.6558643442981278,-0.4623399153780616,0.7621021328908311,0.314290576423216,0.7766825211085397,0.9498386860423409,-0.8491411453189657,0.3958258274188575,0.5839863516736394,0.21563586755566533,0.26681055407481247,-0.2133398346722526,0.2923207769540659,0.3154329003555558,0.017051266819643196,0.4105101275612235,0.4792389903566705,-0.4611545355970499,-0.7383507434891525,0.968564201885322,-0.4881305502380018,0.8204787483626423,-0.00638621177799803,0.9720722106858437,0.5636537105072119,0.8795753951773264,-0.5287024545375112,0.3148862760862998,-0.4855326995079847,0.04347403377819248,-0.05330155965078731,-0.8118287040039833,0.04177043988536311,0.8838042011325171,-0.9201112544754526,-0.04195733025866821,-0.7322449917875224,-0.12782655562782486,0.6206965168532312,-0.7583207196823014,-0.7655175736935933,-0.7211003171164498,-0.4665718368482701,0.3804804662094001,0.1695149532531255,-0.7160736678190811,-0.6416965579837206,0.8768532656594075,0.7664901127603245,-0.6429763588509914,0.5736393412957079,-0.5554599689259427,-0.9226528997094054,0.14335779964301465,0.009775315862067702,0.5757840216156807,-0.0650959130069817,0.08448004534877418,-0.3978610596744747,0.6135608855893393,0.9379341444312013,0.37749288335722575,-0.9579699619049074,0.9008304432972438,-0.047499558461994384,0.8068071666606993,0.612424038637515,0.48584400796691307,-0.18184504544198976,0.42557624572555963,-0.05905130142339332,-0.8154504175804538,-0.17408813588239358,-0.5558509880395206,-0.09162977286393081,0.9936657276459049,0.3726034203929902,0.03718267106632456,0.8227772413205225,-0.6464085993896678,0.02877734182172431,-0.9728737354037125,0.024483429390289357,0.09255319876193879,-0.7989366256460062,-0.9427217228239264,0.9535976852894286,-0.23323924810228602,0.6885631628922526,0.03224774655500906,-0.7404355101233306,0.4516677136844034,0.9369743270941471,0.9352652163428865,-0.9414363975469053,-0.7409474218378183,-0.48329264189172716,0.013418525054429198,-0.7446184344966884,0.410286175616293,-0.0586062927019555,0.7685270506484219,0.31282721070481756,-0.8792445765121462,-0.4517958572043248,-0.9488679756015366,0.03205693780033725,-0.5888052795861549,-0.9354930919304478,0.6356872973174776,-0.004344955038257048,0.6343263446566432,0.6523670944234174,-0.7266667018243129,0.24967353772450207,-0.6317787631366394,0.012884165714826645,0.2622845891355745,0.7089360568034451,0.8981034369496737,0.14867731174698062,-0.9501382871861068,-0.7479346951068706,-0.170373196368107,-0.5709897193554965,-0.22725877130388716,0.14674301996577244,0.1730907832569002,0.2405732310276243,0.1303713303248073,0.5362822733383021,0.42277964679125435,0.3359625900084888,-0.16883101604109596,-0.21460053989156092,-0.026794805822534684,0.9909624928433765,-0.7212208572093772,-0.8615594617209321,0.9759485440446798,-0.7105188258160242,-0.2532339921735738,0.7374673755667631,-0.20562896217470783,0.5933593487064803,-0.6390281522622068,0.19926816595244112,0.4277653215278929,-0.27607880198392065,-0.5259972727146833,0.2735401087851721,-0.2053053676630363,0.28852096632950164,0.5509464439098333,0.1845266105171206,-0.5462590111665113,-0.5151884178249126,0.25151307226849595,-0.01147001097836542,0.6821810522110847,-0.3070751157885161,-0.650902070571572,-0.7254469967642703,-0.2546713080586953,0.28983914565558155,-0.8060272466367542,-0.18872859715897783,0.8614805658757785,-0.8808912469795496,-0.35592751562461555,0.6227018040376122,-0.866605545250541,-0.5933528548912261,0.7210017107541526,-0.8598021404591121,-0.989525440546025,0.5789614722144059,0.1487861306395093,-0.5650327125699455,-0.4353160011364994,0.3455980125457039,0.25753068830854775,-0.6493526989713656,0.6828109830511169,-0.5980285514223245,-0.3345487181867892,0.03215393874512995,-0.9314205224280161,-0.6269068573013461,0.41679523758085946,-0.2964462743662364,-0.32671709323641385,0.3525419533011358,0.9234324157097373,0.6047923386503142,-0.40279136381214764,0.7886401477597862,0.6030796402786975,0.36984591322689475,-0.37269681932869014,-0.4813553310433951,0.8281770148963696,-0.1207009944492039,0.7034821990446334,0.9704457934999562,-0.5982313512987509,-0.2641409114432147,-0.93142697684673,0.21404467433027552,0.7045912405036177,-0.3891304888551188,-0.03687854725100115,0.8038167756731986,0.15661641898340584,-0.7184037575658562,-0.46182269813135535,-0.7366463191480546,0.941288709121709,-0.2525430649635416,-0.3185053120087171,0.04190382047354069,-0.08922600788076651,-0.10262739287235845,-0.5843950090442509,-0.9505786188017977,-0.4171322653978502,-0.31330191567161325,0.4183302517465395,0.3315484741682191,0.28218913946961766,0.1248973004857894,-0.606892752499369,0.1490714572868872,-0.7228274250934186,0.008852469578564559,-0.7031152767927771,-0.6819982863764447,0.994946409391178,-0.0028431541326459087,-0.909340287680549,-0.34306504953757844,-0.3926434396381113,-0.7906381586568481,-0.5481034492763179,-0.38185218565946477,0.1312959699471905,-0.6762612900861293,-0.46448754110072277,-0.8252990965861764,0.1292173337740099,-0.12078312620854681,-0.664247320049298,-0.22465300266785704,-0.7194960033965341,-0.37989714956485954,0.6917665610187951,-0.6424479705760622,-0.9189443481699353,0.976339419352785,0.09166830142871096,-0.485501830369806,0.2296198365139781,-0.8561197128617608,0.7076836709204253,-0.4739553682303064,-0.3954351682540491,-0.7796443670868718,-0.9773515113008475,-0.3283740704056659,0.6760636509083571,-0.40668881571998994,0.7076050682755723,0.24848901380674548,0.4841528979644605,0.48374259933138797,0.006348205315954258,-0.7909255669932176,0.42237215916372195,0.14040865218518106,0.17930680354114648,-0.16919293080156494,0.7199391253418668,0.3165839159343924,-0.9240973587587582,0.9133577447928845,0.6123773086401292,0.8134373947172475,0.7032897388042556,-0.7364107407108469,0.1266427992543928,-0.6554513921546838,-0.21693739957127978,-0.8123100996061208,0.6552706341298546,-0.5220840991784044,-0.9522832473781679,-0.45839118816349145,0.8193452659192857,0.25043236457339724,-0.24426358139748516,0.8961571298188207,0.7889110893992257,-0.6206964944260915,-0.9608310931479414,0.6227426130772089,-0.4653417869642431,0.024271893674991052,0.8400512520876737,-0.7694405552840331,0.07929192667952689,0.23741069162385742,0.8012422403100226,-0.7556766392223324,-0.7728401044084046,0.3348826325507499,0.14301211333229347,-0.06269806257942001,-0.6091455232320477,-0.05069960092723025,-0.9035053795224912,0.369497136400901,0.8328932243833129,-0.7262245511082481,-0.6502411804983355,0.3710144920945271,-0.07455680553490929,-0.6984421169150754,0.970895886162003,0.5303671379057615,-0.2659777400269372,-0.12748821513361253,0.4942891460132519,-0.4888949492975996,0.9683714077926253,-0.038405050250942985,-0.25668634543056235,0.18749309731536323,-0.5439526402199804,0.24022513283510905,0.1744117920156003,-0.029187075539774954,-0.05073896040570047,0.8925479920704473,-0.23215173606238637,0.8445337312126393,0.6011795101247301,0.2740159660950716,-0.46960109108916614,0.8496729123108067,0.7673369749229415,0.7544722008168807,-0.9035327188825772,0.27661666117389117,0.6355764968045543,-0.1770859541373635,-0.6278965630976336,0.003617122972888076,-0.20813219455652754,0.21077419213541293,0.6158860071768371,0.18330953942362305,0.43666346984459836,-0.27400683104509604,0.3449169066397033,0.48698607228852,-0.6695019832504274,0.40601915315889703,-0.75861985470782,0.8456980378940568,-0.13384482946616494,0.1319617832599227,-0.12474274234586602,-0.21761359274098946,-0.7515032324414002,0.709497044671612,0.30651457331362897,0.7896464546682178,0.39852280224960923,0.9515823352057533,-0.8577289595271542,-0.6929922202580179,-0.47656855736955883,0.2860793279686884,-0.7027139445492203,0.8637835830446328,-0.8023683942558266,0.9058742654321854,0.7520649881943422,-0.8170390577831199,0.7189072050500498,-0.8567734925833481,-0.20155393541741207,-0.43878655473523676,0.6286845145574806,0.8309800754035692,0.34557755947330127,-0.40798283949847436,0.4651281285825606,0.19021801222979584,-0.6107722435284015,-0.10808921185591092,-0.2635911931070254,-0.7020076249602047,-0.6129147906180501,-0.10239335794582116,0.5484914714635725,-0.1064368161855187,-0.14164562157823135,-0.37947563985414545,-0.6164878719636739,-0.6925708921306803,0.7648534785830232,-0.34943441124562935,0.9936729408473575,-0.004076151645282522,-0.25916993753886786,0.40056906281152616,-0.1273478475972687,-0.2567526312985473,0.18300537541318196,-0.48283247887610137,0.8918442395826867,0.29599124948472544,0.7030189478740851,-0.24447231678024828,0.5113844676706261,-0.3051339174586465,0.17305471540310613,0.21333210305859418,0.9961814181546089,0.7281999357611362,0.3799373771714767,-0.7347471520921072,0.22569086807698313,-0.9702211840952744,0.9843283829807263,-0.4891076345777705,0.517671256896826,-0.6149813381572884,-0.33843988669367153,0.9100526574880312,-0.22424411264735378,-0.29552300816956567,-0.3825716530473029,-0.2060110439924454,-0.4603480407316638,0.6970984320609586,-0.8323200943812903,-0.38489570768720505,-0.07724328482151299,-0.6596179664054274,0.7920194616078726,-0.3143683498962997,0.7051272947249898,0.8722223619235043,-0.6023912984475008,-0.29991117141869483,-0.44294219380807354,-0.27443431777214466,-0.6045673651029471,0.8840126413990534,-0.18655827162241923,-0.8603392320122722,-0.5890630439395206,-0.2817924432973631,0.3409581363756218,-0.5847321446076252,-0.3427474181442729,0.7789831734919854,0.04154901107156328,-0.6846186436061441,-0.6851474305371437,0.14846965316582406,0.07817373547238415,0.47432429237517715,-0.333371850341722,-0.2874628104595207,-0.6188356678298321,0.08952236851104756,-0.10550101825395908,-0.006742032101252793,0.5169490593765758,0.8639040191610339,-0.6839411777351352,-0.6146759968124118,0.7214792533566114,-0.5916335037177436,