0.4283214116049059,-0.3502009968528492,0.6022235780860103,-0.6331254107672946,-0.9239245458406502,-0.7856854825884692,-0.8771915620424602,0.6744256155094273,-0.8181936501186851,0.11229753750835192,-0.690042655379407,0.6367189304212675,-0.16531458398264176,-0.44245058469359266,0.9765467606527993,-0.4098546180923339,0.8559830352732494,-0.6878944853151343,-0.8691467566476245,-0.22296131207073988,-0.7641428350229984,-0.5871718098881675,-0.4154981759949683,-0.562387556869324,0.501952309773998,0.4325518847693959,0.9796305763870174,-0.9527437953228612,0.14256192630095854,-0.48005609393546034,0.0991554360945619,0.2627604463709228,0.7183397417982635,-0.13995063178040312,0.12523355115351342,-0.706885227905113,0.7639973653935332,-0.545461713364445,0.2619936073550142,-0.1668908382053702,0.45882452867966994,-0.39183900417611883,0.04235668979255158,0.5589613385741492,-0.4857541286071645,-0.4380509237321286,0.5016736302373372,0.6996324991520575,-0.8972989422697162,-0.6181840933892506,-0.5333106384441875,-0.9327167585289031,0.11814721884406887,0.8683204044203545,-0.2606573181210261,0.9550328180904111,0.28685400035569275,-0.19867142946649397,0.061696912960190975,-0.4775282680113342,0.3739760480193588,-0.9109465788088618,0.32258751730833723,-0.8733539365336611,0.3709998196262234,-0.08613500164266785,0.32636805363989585,0.3535320500433743,0.4597631715971462,-0.06806013382201881,-0.15771669415294332,0.9937845538157535,-0.6842096745187469,0.6048628830991933,0.9818671554746277,-0.44264881644601095,-0.5313394771280766,0.9662745130671357,-0.21714183032833412,-0.6011747057535743,-0.7653490534952399,-0.758331172908689,-0.7497844855707294,-0.23867519664052783,0.9084009653306364,-0.7374724854574013,-0.6664101607495101,0.7046465905157517,-0.5951499122224833,0.16761966403288242,-0.5461818843378903,0.5175979167320945,-0.8383751342606145,0.938947009132123,-0.7695538126184396,0.3315419100239698,-0.2851299916068111,0.30627146998561483,0.6763069002852544,0.9592457139803219,-0.7691936935124737,-0.10518627148620086,-0.790453189432377,-0.937366997470761,0.8516664629567046,0.9610860772558223,-0.6265484491478126,0.15306813173778333,0.9092947117141712,-0.5530628740842967,0.9768607302454368,0.05756282894582809,0.7149304880406464,0.519142053490083,0.0980446756656983,-0.13158301177573128,0.12558675777026984,-0.29749845099644645,0.5545882982173371,-0.9879734010221011,0.9559495451467375,-0.17916168726058768,-0.5354924768567424,-0.20709003519741653,0.5303539857491302,0.4256655981777411,-0.33653654657295373,0.8853472683903951,-0.9448770339881105,-0.6913010567420621,-0.48538872721307413,0.22014237587220253,0.5590398628847679,-0.7990576544172086,-0.5782503308500515,0.8798908820375058,-0.45229013777740157,-0.397661815182601,0.0324879261246418,-0.10797454551998209,0.7456698370965671,-0.982330407234056,-0.26691027695756664,-0.5401066928370502,-0.3987437653217538,0.10096900216111493,0.8988841319184369,0.5394025775359912,0.8010723535692617,0.6196553667868052,0.0620402311778272,0.03637179816565883,0.0007117273141405978,0.8600664372387854,-0.13155920454328562,0.7028646940245409,-0.3355315878766343,0.6857619051212149,-0.2173239207522939,-0.2225511386287733,-0.2235074726750248,0.38864085874230136,-0.9571476780225368,0.414938383946968,0.45786925231419917,-0.4110696693932676,-0.7307593947026674,-0.2396526521702127,0.25646988519901104,0.9752359552546701,-0.2325512849642546,0.5513651656525995,-0.19142854312870616,0.7636383594743437,0.17639110959788207,0.9425408549494381,0.6322557794992341,0.5177257108921238,-0.37660162153824084,-0.9095141097442028,0.27197517774237623,0.8265004571907972,0.8669544887064138,-0.22102453361876662,-0.6690645522771748,-0.22675982827692764,-0.820173443201156,0.7601471226040639,0.768856065001194,0.7697223479248458,0.9561688671473181,-0.801061659633342,-0.5248689177272052,-0.2220718707744831,0.26550176932590297,0.3815528867784437,0.30621824952710996,-0.5372529025976507,-0.8343656563932542,-0.7216553270940973,-0.8829187148910131,-0.9198220017066996,0.9910638049056018,-0.04692839437026297,-0.3754260579510722,0.5168838336871968,-0.47567768490802176,0.847308363346762,-0.4033074717226175,-0.7945961710725933,0.6545569031522978,0.2534259824878826,0.37052650903609674,-0.5180520592202968,-0.2337063972559399,-0.3181604205084938,0.7794701579594179,-0.15554467994552668,0.5684315038167709,-0.6315004114707001,0.6262507223724012,0.47376447177040837,-0.2666365253616927,-0.22783807938934197,-0.5538600335730564,-0.8756505250162467,0.8548439961130689,-0.49752363095318075,0.0052579183901226845,-0.818871762963254,-0.40651297628251837,0.8416600172349973,0.8703909124278602,-0.4130872665050822,-0.8784307210374589,-0.3166431643599301,0.7089971271768236,0.32021877175896885,-0.7387280869616548,-0.5796688199093551,-0.4846195641487012,-0.22278224604983565,0.21990721329445595,0.2132042388229245,-0.33376793088174694,0.31394837098283435,-0.7276068889300453,-0.9453348334387939,-0.4337494694458217,-0.7900530053962829,-0.7330487672317878,0.5491971455799531,-0.7143971548122079,0.737989132972888,0.7723811222831809,-0.2682526615296783,-0.4121089869018215,0.1307472953601363,0.06192268641083176,0.29601060867703355,-0.07756763986848347,-0.7836675421817019,0.536138298061871,0.06521089679073522,-0.08835362513146916,0.4797400799964462,0.9745548420128698,0.9738415973316648,0.3435903657394179,-0.916640709428248,0.2156486563319322,-0.18253656645785088,0.9248567918921256,-0.4145446363904166,-0.2493968261672399,0.9754335217206276,0.7486082260563622,-0.5993622498588433,-0.3467601508914495,-0.7825697938672798,-0.2503342743101411,0.4565608951986344,0.22958675285764074,-0.5996382363058568,-0.6033368611898158,0.866390207930664,0.776238690281944,0.2724743702008403,0.6601112272436431,-0.9946940046286363,0.3543668436068277,0.6343529492078883,-0.294545443526012,0.19490570549143715,0.6977023144164647,-0.7347249080907654,0.5870820948591466,0.9158972880057068,0.9821768983801724,-0.5796182393686407,-0.07577051348653341,-0.9160494140386275,0.5584705002348671,0.7523818005533758,0.31762497824296543,-0.7442140970802515,0.331510170183581,-0.32246337554219706,-0.3233842537499614,0.7838613915360102,0.19284207501272754,-0.4269113406818936,0.5818236241561654,0.8022772029010725,0.21087201566464464,0.7018836962652244,-0.12322995425761918,-0.5969253107039045,-0.5704128893352305,-0.21459162950967836,0.23910402255458885,0.5656587745374357,0.5598985445621951,0.9351163862890817,0.9497828510396487,-0.885690305953164,-0.11700286821646588,-0.3333205223375926,-0.7809206141709024,0.9816980150407142,-0.7037757555264925,0.10296750635322138,-0.927230372786886,0.17166231246081876,-0.7282600484579591,0.9288186533762235,-0.20541869032838878,-0.026146703459692278,-0.18749340835104467,-0.5044347921734147,0.42590787230923266,0.6611518583808154,-0.16122169427946598,-0.6043834021156349,-0.6872251736727617,0.39662186028854807,-0.2740389928945062,-0.4837826388768849,-0.08287936424364495,-0.15015849848292073,-0.04975927072258868,-0.4277287360078723,0.9435944424862641,0.6013926957532227,-0.16946246092724349,0.6109569768123373,0.6663241517433396,0.5642756741978656,0.13277694783580962,-0.3364090883599187,-0.22958217373895673,0.4845724564285814,-0.9146566388192328,0.5990490556263612,0.7368931183849101,-0.8602931137617769,-0.2111545241436259,-0.24582241224637236,0.18946898835992365,0.06059080731716704,-0.02326746203001151,-0.9364501028909975,-0.9281286251968017,0.5146837910599256,-0.40061053182053774,-0.18249333889390873,0.43630695942900677,0.4114373415329149,-0.6354402392986802,-0.22041658398791886,0.7791763465507768,-0.6037457105110453,0.5262135370921142,-0.28302378394639405,-0.12541113791451108,0.9570316026056682,-0.9561043088165007,-0.5963624887794732,0.5482397198528286,0.9567441895753017,-0.15086982213776534,-0.04680805340135685,-0.7677389485719528,0.9802627554808991,0.5479865935507733,0.2621465294002967,-0.7101069482729441,0.45366710762809404,0.747359923463105,-0.0676369678572446,-0.29747603221834606,0.7440900117026592,-0.35342073966953547,0.30852107251070926,-0.6711166270835793,-0.447739267076138,0.23753400151823012,0.39155099119039405,0.9058313563092792,0.9464247487971464,-0.9984436303735542,0.21693368764103305,-0.8099640455304391,-0.33893857341515954,-0.2957896603266783,0.6397719600310758,0.7883439238864234,0.948683819432943,0.6488085896418085,-0.2884290869960082,0.19839039413744963,0.8336390642576497,0.4505045419259548,0.24948263517989533,0.5106726073292998,-0.049467311924436874,0.27661052802912356,0.718528429623924,-0.9884605806370257,-0.17529239423143306,-0.5026006184737277,0.8669741819769952,-0.9205612421978948,0.22425398424316367,0.4218299850751779,0.8130593209134831,0.27148454345368345,-0.6700364250095698,0.8244020048790202,-0.2733529285836618,-0.2531421323808478,0.17473860520484363,0.44232343382100714,-0.563907020101734,0.9830114800206402,-0.6057494041765612,-0.8198276306640118,-0.8711316354940908,0.8186969833058686,0.5178827194056346,0.3366156822370099,-0.7689421308909443,-0.7005777442049321,-0.7523678401304001,0.05137522238654868,0.7575794418889192,0.7229866252855941,0.8876085116032117,-0.31634350291884483,-0.8327306944230719,-0.8821094881832587,0.303729803376128,-0.5243870534875426,-0.2565497261418497,-0.17314819160626094,-0.5510782466929156,-0.04016661839950286,-0.47450821251271025,0.31405889581204693,0.4262491999288691,-0.4407755018642243,-0.11360295859373348,0.52899190288703,-0.0809038838117686,-0.5923508907437476,-0.5473449658798724,-0.8447533907727158,-0.8376384255718214,-0.7402598150957018,0.619490206204198,0.8305313906520972,-0.5680410921719066,-0.03926107404315138,0.7776549059580109,0.9562598915503762,-0.2580886018918678,0.7711680082904935,0.38771309569841006,0.29103686161413966,0.3387051050673817,0.9400680142977533,0.2683045206755581,-0.18896039803300835,-0.6799321365317883,-0.7210692913991819,0.8789424764666967,0.9790791532589553,-0.22650886800663717,0.08788730007843104,-0.2828696765228984,-0.4030758566043,-0.0117189215282405,-0.02059907814791706,0.011681080709801561,-0.021696945246875154,-0.8609590783614061,0.5265990609491582,0.13052462844639412,0.14823755929832805,-0.2788938315486189,-0.6947317184896433,-0.6657660657651854,0.879725700068654,0.2521107975821648,-0.4280980403069472,0.9811797127461495,-0.8817530000848093,0.13161636187979342,-0.8509226964183567,0.46130794887188764,0.4566109560673661,-0.3099014206492463,-0.8943621035573894,-0.9975472406798263,-0.3658528699561434,-0.30332216546728086,0.2173727645309913,0.6521543166420838,-0.30358762934089367,0.43862987045232327,-0.8784694799365822,-0.45836949094769874,0.7567125045912453,0.6235136830262091,-0.4840966778524558,0.2509549705528218,0.5389103383416283,-0.24799398929241634,0.22724792495684043,0.2653243776060423,-0.9822901167133442,-0.8496694332550547,-0.0721158600516778,0.978778217908534,0.8397650729627437,-0.18710321804133656,0.7745663781401808,-0.6447910157713763,-0.2508271153841297,-0.4903967671957654,0.3864671769896797,0.974550597635226,0.0066163677660273645,-0.40276426013570865,0.8532064469752738,-0.005749969188943327,-0.059393913255921804,0.5440884776856165,-0.09513311972684169,0.5996241429236184,-0.07819540034015238,-0.9740771416550502,0.24095127032797592,0.3885959703291608,-0.7959823563595556,-0.7916738011236035,0.4834741458452374,0.31570693502955227,0.5922910802680987,-0.1585835943979641,-0.35912518932386805,0.11572560134689991,0.2713861079231883,-0.8131524331484692,0.5975182872809897,0.685520644741652,0.5330838278635508,0.9770850667841722,0.7602278861311886,0.22117058358490693,0.18606835003418154,0.3025855224857845,-0.7796122877377645,0.03517942857601519,0.8950873997309303,0.5022572635787741,0.6095356963782261,0.5298283471084941,0.302837044839388,-0.9853500958569932,0.6513715067574701,0.13062444101128867,-0.11753287792157385,-0.6489239818793673,0.47247209700400616,0.09613435725413488,0.37332578645581727,-0.7178842668048795,-0.3842336341863637,-0.6980954225603628,-0.8020207866392988,-0.2632969736621744,0.9319048545754613,0.431859765899552,0.800365663492588,-0.07515452684886581,-0.09638727439635586,0.33201439137398636,-0.689326420128507,-0.2069484310718901,-0.9313979373536654,-0.4924314613965506,0.6124997286049838,0.6994252437938597,0.4306895223786191,0.16886066754422124,-0.19626214169202272,-0.9085778536429265,-0.05964370567723032,0.00778328976677134,-0.4443305226821028,-0.4492557647247073,0.32357621171615647,-0.33850151956276076,0.7320535557840033,0.17280682630754907,-0.28135417143316954,0.3982343531228767,0.8132910605172661,-0.5159570797580204,0.609462846868071,-0.4654743222841813,-0.7976072198715811,-0.9393208237481072,0.15699092030323425,0.7294825774195601,0.4619385955037234,-0.39171154824530285,-0.9963156470182686,-0.36248182914590155,-0.3906482546701806,-0.6598452755334743,-0.9437103774877347,-0.018564315979883173,0.15448295297991899,-0.6712887565262424,-0.9069307396513777,-0.16380929107355002,-0.2170044670114859,0.05125429991594288,-0.0008497026336748981,-0.6355182424779053,-0.9435127393101845,-0.23022354683547852,0.48154209834185036,-0.21980317378670078,-0.48340285197572164,0.2840806036026504,0.9896913487998038,-0.4998418221250094,-0.7741577594344027,-0.8706084182043237,0.09209003121010428,-0.6016837605080554,-0.1769437150514681,0.27021529968946045,0.06202449398518528,-0.5884171569131604,-0.03694739128441826,0.9124577866093637,0.07367662925214091,-0.9379987896991862,-0.4706019978055065,-0.7661694876728518,-0.19080648256873123,-0.7734306838660254,0.15872922986311933,-0.2783842075828362,-0.7091926679267764,-0.9881404461226353,-0.6500319834717783,-0.05520962451427969,0.5694080244259603,0.6584631242571108,-0.0981110686401443,-0.24266219662959343,-0.9799900871525293,0.9805921996070339,-0.361533517514246,-0.8271187827028059,0.20480886344188987,0.3731937911116079,0.9543330552472071,-0.2168592206016562,0.8992964262183216,0.36154107978018124,-0.9996950033466989,-0.9596858210739239,-0.7103585562945705,0.5905691851966561,-0.060353874679701214,0.3332156077235944,-0.5507289442647325,-0.9914976118202565,0.27942454557297003,-0.6198296271533723,-0.8908806026222564,-0.09648260240295348,0.9386975889752465,0.8684272166984237,0.4142323434237867,0.4338139730654069,-0.6523658186606085,-0.651841734218026,0.585814600847467,0.2146598237276256,0.6645854844447168,-0.8222623361660812,0.17311807884405672,0.9463940097026136,0.735379941012452,0.3439094164275933,0.6194706336518614,0.27648845396078503,-0.46017223072544033,-0.2891214195554539,0.4580942787703952,0.694312794049744,0.8012825408381881,-0.74136999338246,-0.19543150066292214,-0.4632194092201882,-0.30659260687051937,-0.2585510845579102,-0.025369888993565848,0.6215385585606419,0.715227702483543,-0.8785098905333668,-0.6633093597842432,0.17456398237300608,0.7590814073629617,-0.3995852595621654,-0.17777511165996018,-0.982055421422638,-0.20765775569743017,-0.4242619870813302,-0.8890351890211263,-0.40152948560244894,0.20624663365791363,0.27405224541105966,-0.4528805792715924,0.761035459866003,-0.775530451435972,-0.5421734883812861,0.13957612067882486,0.08116913365237988,0.4975383727440763,-0.8706689277392257,-0.07975902590251094,-0.9610204229813564,-0.3112873060926733,-0.6932465477826404,0.5558741609208484,0.8065972563111363,0.9909723124331709,-0.33865406683413046,0.9644724723809406,-0.7738350813109853,0.2768554975856983,0.5426231044204255,0.37321810829258495,-0.09693170978599186,-0.45318111354300017,-0.28158001937558685,0.08452571525704022,-0.6917062294046223,-0.8859464372247243,0.22245845569870948,-0.12822983866586024,-0.6224614534973729,0.7822682867858486,-0.304417404486907,-0.7274061720157381,-0.6109515136496102,0.5771887813532313,-0.4806014409818862,-0.6807190091629407,-0.27183670924609116,-0.10588129951585645,0.9029374580383356,0.009896050648174448,0.5543272458933906,-0.5043702882589274,0.7862650610519186,-0.42870643980381873,0.8256059491716938,-0.7209510432676527,0.6605066793124899,-0.02522359274045316,-0.05518318959946278,-0.8532489772400393,-0.27964141251294117,-0.7732812198206125,-0.1253069661206896,-0.9129984969341671,-0.852972336533731,0.3040013409536415,0.5547977458722495,0.3691310087382311,-0.5846449986558795,-0.5366491358225085,-0.9900746063159065,-0.11257840912541783,-0.3027844573295013,-0.47680732472728327,0.5211033381461947,0.43967080983910933,0.8665251265918574,0.6209407700845271,0.9174349873670136,-0.3155643937510735,0.27070752772613504,0.8984834124992693,-0.6268547972881358,0.03973206645593108,-0.9218147795093234,-0.5259833687232227,0.8613143088040827,-0.26263191355030946,0.4442141983634449,-0.25578320561243095,0.08320471640909766,-0.4879481088803026,0.07194739079212464,-0.27238294398115426,-0.28864587595700963,0.17738655013116733,-0.730007461795283,-0.7710663597701699,-0.08941702673176422,0.05469572594273231,-0.14759432596717792,0.49703465461229035,0.49969478330057804,0.5356919107296751,0.23044723674633816,-0.40474995663054725,-0.4892914717322614,-0.7179954175822103,0.8300046821213081,0.25609667216445153,0.24402341364929758,-0.6538652588803711,0.44971169267987876,-0.9557539507433708,-0.32338911627331934,-0.05991497986009442,-0.23750513515521665,-0.36803930473048796,-0.6745502785557549,-0.7546240301543008,0.9065666116682352,0.3577625032031344,0.01334302583370417,-0.5706309403492027,-0.8468308140689202,0.2929337758291819,-0.4508233201376841,0.8095962832880601,0.6933021997360085,0.6022984932994762,0.7982172282566646,0.5452693553144852,-0.7502542756494286,-0.18431735135395488,-0.27771515333089636,-0.23877301769009196,0.33169145231200714,0.08735158537185495,0.4651725755123657,0.4007098676742715,0.8207063956732354,0.2571860213692889,0.8426803909664076,-0.327575278059536,0.6570729065699099,-0.12809562770904503,0.5642840875819755,-0.923363513321529,-0.2095741653134453,-0.43290323135058717,-0.8175811723185991,-0.65426921401075,0.7425666560607187,-0.8701994630557135,0.8181796540884585,-0.9025567549665898,0.9656008222861043,0.9726747415791543,0.7560569297101163,-0.9997510233355777,-0.026964990948880718,0.11054934232587588,-0.29847607428788225,0.7916235142959311,-0.3816868680025669,-0.032200429974524214,-0.7680289523383856,-0.5817028392923185,0.016058283727283795,-0.24427816983074213,-0.8509452310438683,-0.5213905648661887,-0.3835882755189153,0.63637156584639,-0.46320746625538645,0.5547471139120306,-0.6640982968074078,0.013897195167297705,0.07735155077696976,0.7127173281386241,-0.18193347974165253,0.9043325267079791,0.2508196504847018,-0.2931705567483689,-0.40214451034956156,-0.47371060783891283,0.7767723285622539,-0.9380325976465895,-0.8670548143784171,-0.24910901210478698,-0.059774071466392575,-0.5370247652866047,0.4359019054510418,-0.2950889302109314,-0.8156257186369871,-0.8642438282436395,-0.0570212509791268,-0.11032724447905284,-0.18324704986639162,-0.604566152698621,0.10006016520928962,0.16973054690720168,0.08923617749201229,0.4606878616189798,0.5787071754066657,-0.17498156377711815,-0.8169985902035197,-0.6918049611886987,-0.2514513223848003,0.6372006302728921,-0.5688428891836201,0.9787873566595169,-0.7913799644556303,-0.8699469689319017,0.7743481260543064,-0.32044932908795554,-0.4764749379789732,0.336757788394042,-0.05006734284116532,-0.4762022198646365,-0.31508084032339934,-0.9608361392496163,-0.7126468741702228,0.8126262590519435,0.6860513969555926,-0.45799235542080874,0.7363894804311977,0.08544799030023498,0.5651503587791975,-0.8512554827098135,-0.9424088629112668,-0.03507233167574997,0.43608476581266165,0.8088093838576378,-0.8406349152555845,0.4465221193126492,-0.2654241462159088,-0.6566999551475148,0.907699791791791,-0.9917974280818638,-0.31213474197600166,-0.5134805628199048,-0.9260664658457394,-0.694437705696739,-0.6436370894456811,-0.01053036240577887,-0.3836133407142337,-0.16626735924260605,0.1224975992431454,-0.5033383104287195,-0.42092430107931644,-0.2669776794643004,0.49928861764957344,-0.9101564085972906,-0.11461192760607575,0.5408299689353095,-0.4972804618718569,0.5865204671540887,0.9616828407214042,-0.8672631909691244,0.9148560540563964,-0.06594449723562956,0.7594826569081892,0.35877234895533294,0.6892991277121723,0.9688707806568171,-0.2790198251913403,-0.8967258001622049,0.6989111117100082,0.07519936998452947,-0.4108925854120249,-0.3533391228410694,-0.3626488969266082,-0.6746846239583821,-0.3767543427198943,-0.3838116139663612,0.24695126502247633,0.2940346617741245,-0.9215891398649538,0.06290971568584913,-0.698251108095183,0.3298511698518831,0.9341381818486318,-0.6023077309007943,0.5360579776974099,0.8573336894799042,0.758506234193441,0.8629151193520961,-0.9434449329613235,0.6665573937433942,0.03632266510077731,0.18086071575451101,0.8132144583416048,0.9259512022135556,-0.3452358986158959,-0.028795875187313413,0.42154966888084067,0.684839583091307,0.7842303692826298,0.549475473961466,-0.10652439575404893,-0.4580686260216573,-0.14795975399213024,0.6289117177333905,-0.1335800360840247,0.8493732539953196,0.7221324296768266,-0.39409836278392496,-0.4897064540563343,0.3411602678736054,-0.0990425133637054,-0.6398870624976334,0.16802271530806978,0.7482927039156524,0.4729510389887661,0.38879774659132504,-0.06537430687634838,0.11085321850264696,0.6773161437784392,-0.9687824173612241,-0.22845964552139586,0.9465066415763401,0.600719008775159,-0.22048218015118626,-0.47326275368128967,0.7484028638732172,-0.38947427040959437,0.10973207671974894,0.7281383899615037,0.2823195357870778,0.5195549118400089,-0.8995963411175545,0.44864702595942063,-0.7663503970157459,-0.7010960344152837,-0.9035832239854527,-0.9744908314505087,0.8644908805999068,-0.2564543026993311,-0.8733181008732931,-0.6901316745282755,0.02394479287370288,0.8288989114646468,0.7281331437359053,0.1591361146349899,0.16855364989682697,0.5610203097028734,-0.9418031908972777,0.9368774149796064,-0.9687951429743806,-0.8926813212311979,-0.5196735480907502,0.25452816656613186,-0.4931963619902602,-0.8708435882593089,0.008355647077102901,0.6831399975622023,0.7091304546982449,-0.7402027741628672,0.37198129962923443,0.584927654365123,-0.7553084411620681,-0.13346540107681637,0.6646450659320242,0.7686719120355994,0.9919078950370142,0.5987408285971156,-0.37973978935316555,-0.8490856630318391,0.8911390862921034,-0.5663179109620902,-0.07604452260193573,-0.9561072316413111,-0.3101148728259142,0.227252573630073,0.5493677342485799,0.24125943099258595,0.22069362433367568,-0.05892314399144816,0.2233004899636386,-0.6767520639512725,0.6099761469852867,0.3867258389432766,0.3341717680953815,-0.9714147948313665,0.2629890200868994,-0.5418265476893402,-0.549388033151547,-0.04263427898271677,-0.319363283020466,0.211185514107318,-0.6087808187381658,0.6291107272327476,-0.10299839915282294,0.0879912524498545,-0.9175938387283424,-0.014603998329203893,-0.3989033246729996,-0.08512179413262633,0.21406044814497394,0.23858484351001819,0.45759246806652865,-0.11953505061196945,-0.855994054023735,-0.5452213792431504,-0.0754150197493868,-0.6890146357732871,-0.5002971082545804,0.5129867558237511,-0.1123771891485752,0.5731157315235809,-0.5277781477155961,0.6638114134963984,-0.817185172924771,-0.8074499459367186,-0.7621121300018796,0.8282355735183364,0.2566433660708767,-0.2227763038563697,-0.11956923373181372,0.4233221000143246,-0.036437067066122264,-0.28438094134996317,0.8221423665265559,0.05341431813130004,-0.6040151517978165,-0.6270977866578611,-0.9289039567249862,-0.3455373514720632,-0.603119366134979,-0.7619385803947805,0.8708081047531069,-0.7752451860431653,0.7693749926145259,0.35578816136478997,-0.7551821144815583,0.6412246973307396,-0.871945800413336,-0.030619717224859455,0.9248685676128672,-0.927445591371777,0.01559821713868903,0.717514273457063,0.8143743753820236,0.43385918787696154,0.2328486218450294,0.9072615087945448,-0.5375782533618754,-0.1045376815603627,-0.989588105364795,0.8823314000448146,0.31187158516630187,-0.29230130365551643,-0.9371205960155642,0.6282225815954048,-0.6331929888753627,0.594299153515971,-0.7596298696256447,0.39646264414386456,-0.43826028850471443,0.13140440933548292,0.786567238282972,-0.49143901797803835,-0.6429257002780779,-0.3671118226860346,-0.9977608048935742,-0.10883823667554005,-0.7434054807835235,-0.5928162867072235,-0.12708564819526202,0.045182407062340335,-0.628979422861268,0.3333436003703891,0.9371986892726132,0.3635341738324427,0.45974114020023404,-0.164634765567375,-0.7186205194063684,0.36637245130189466,-0.505246777617141,0.8230378873341022,-0.8751872635833013,-0.6558213352216467,-0.8633866382508557,-0.9552275092162199,0.2809869381856296,-0.05283008390267474,-0.5294045704304793,0.8301513411972608,-0.2369740377734375,0.9300711710883527,0.9748702343143409,0.8409976518161804,-0.6355414254676881,0.6245622990274331,-0.08001974788672128,-0.9065270566202035,0.8341366007964948,0.7208360089770134,-0.4127315276345531,0.34545006565076153,0.1879653793051268,-0.18263016166684087,0.6999966813558314,0.13375130129178947,0.25487848868451213,0.5686970230695583,-0.24946353859994552,-0.7949823400428322,-0.9162252123938068,0.5211521195463189,-0.7951077582851724,-0.4975862785066718,-0.17929714867015156,0.15549581534805257,-0.464168093650863,-0.851594793568847,0.43088900628582993,0.23272845525443442,-0.5433094213636787,0.4606515997344873,0.658233379373897,0.4299505045928904,0.3762463014633579,0.4134393624057331,-0.5582303036894272,0.7563855029008868,0.6701308209016703,0.28676641582207485,-0.25788436196108644,-0.07628389882649733,0.6510580011381772,0.10681197008916832,-0.8965537189907979,0.07544504948820618,0.4239802109221804,-0.4696103858822591,-0.8257258510752923,0.3278426056049488,0.7527064177124987,-0.7037534075252252,-0.26027539901585883,0.758952757120599,0.5305209878910335,0.9498216628357223,-0.9977115838910571,-0.11291450535114267,0.5803950625073924,-0.13565641122132255,-0.4586081808751339,0.41271284893597193,-0.49513625669363304,0.3767372221087426,0.30718209655642936,-0.8294272446803617,-0.7358977883029012,-0.10101970143943584,0.2500708645073235,0.44893559997489785,-0.714209985694257,-0.8746342345726359,-0.39574148246960683,-0.683491714358444,0.8797143543226316,0.6874686831225176,0.8940513215158314,0.530371051169183,0.5475291420445332,0.9534816753903697,-0.1735485601150173,-0.3354771680751054,-0.6230994383070572,0.598759179837852,-0.7011937668772825,-0.025443050884326635,-0.6879470609872083,0.5453323946629769,-0.6943394436536152,-0.8928836578736796,0.4275648963421754,-0.9458505087650884,-0.9761042421773383,0.23138675120738128,-0.7618486960352899,0.059608410265339584,-0.19792972749918714,0.9897312781745049,0.14902945936421408,-0.21568372266108216,0.7098832885339927,-0.13016871626876125,0.9554050991271987,0.9603418005175499,-0.047153360177023984,-0.8938023226403529,0.8349401631695559,0.6542855275405675,-0.5779704202234819,0.538506318933738,0.968975912430498,0.8911282473771032,0.04740362415832022,-0.8111137888404178,0.33745808923178,0.38186788868909805,0.6244882463494954,0.19308608905185798,-0.5792408967716971,0.06111241672853196,0.24316389007209915,-0.06323754996334507,0.7916840227216935,-0.5572751510488734,-0.9078552045734067,-0.37407458514251335,-0.4434709143436033,-0.5749671161894516,-0.7634613949677822,-0.515583126948564,-0.04926557557574163,-0.7370805056791025,0.8372589489790287,0.7313033988074267,-0.9633568688191845,-0.4574564669464176,0.07849342935142567,-0.7569513901492693,-0.5536609377681734,-0.6922375730217518,-0.2270375583091251,-0.369987146558729,-0.3655408144505836,-0.7384251754411268,0.5190979280341745,0.8822554415587178,-0.2935795618799253,-0.3883157331416447,0.044361696283979235,0.9906359710301111,0.07653559473713356,0.8834101767692015,-0.1548238845784251,-0.5864824326479756,0.5170099239680386,0.5184578155916089,-0.6585419012736755,0.849268552700023,0.8657996255662403,0.7003126492927851,0.6699349729734996,0.6964079584808847,-0.8303141172064943,-0.06482487005757132,-0.7376813085672378,0.9478551518277418,0.6595792120471298,-0.23312188548419877,0.3004448512444575,-0.6220002276890624,-0.1985201611747034,-0.8552309745030597,-0.19977400872333995,-0.3911224934924038,-0.1831241686816949,0.5046907546692556,-0.6889285725860357,-0.5178987872935876,0.9818480819353661,-0.7551581632883615,-0.5023534053955276,0.724835866159105,-0.8784604231966213,0.6277906960303314,-0.29322572978468386,-0.9837334844663808,-0.7124400782993647,0.8332015855338057,0.18469862058290532,-0.7917277469720838,-0.6455223685969083,0.3736762929347366,-0.461173223024844,0.7678400345963103,-0.03125103514479055,-0.03190989066656713,0.8928643835209162,-0.21450303946110405,-0.44759049300294085,-0.5526237411368287,-0.17044311046791782,-0.46989612577857875,0.5635539733212216,-0.22491420406363782,0.011267085087169892,-0.10146736489643726,-0.9698705047704499,0.3096377297426458,-0.7027484852697179,0.6746045625931665,0.40049156590415924,-0.12129214289536394,0.008833978618563165,-0.3870688080685549,0.7408259464410913,0.12673623444293836,0.6555888490827013,0.8414570372242847,0.7001467497639502,0.43129283902850624,0.9400806710155671,0.3412521473723171,0.20274913726342225,0.18311997302409555,-0.23689709824305116,0.5342752816496275,-0.9662632655847525,0.3227642399410724,0.12175533787479642,-0.7236685552329256,0.5156481956048453,-0.9254329916971307,-0.7473403626318083,-0.2992361206367453,-0.4427388312854257,0.14374637386735722,-0.9696859241888125,-0.0595628038669056,-0.18494830584796462,-0.10398494932076985,0.7833025429780058,-0.16110519223004327,-0.35527623602322644,-0.31735762177522964,0.22481873925123153,-0.5371845702860623,0.354552882242978,-0.5945357387906376,0.6531937898839262,-0.59980648995407,-0.476911277166284,0.8565266277891539,-0.6462496540085654,0.7042800410499315,-0.8011095372410906,-0.7593163688528033,-0.2634306420387631,0.4030922982429359,-0.2846043870925894,0.5094928934881418,0.6683148887366237,-0.8499285081722119,-0.6189365171345309,-0.991594777402008,0.25532900764693034,0.20364609917549292,0.18756550197239297,0.6243698685931527,0.33501631067013027,-0.7407445793011522,0.6719893188639314,0.21934671050969134,-0.3739264910964344,0.7644633012718467,-0.9314514296679226,-0.9214383682791718,0.7054708242524446,-0.21130321682790099,0.19099833454379356,0.2982648987994463,-0.4124161007102505,0.06320997059578248,0.032025742372012944,-0.08462340707607163,-0.6072247152754766,-0.358933948964425,-0.42753403386232103,-0.6661423162969808,0.470216382114673,-0.42851605974445794,0.6819799404589721,0.7687170697162169,-0.04437837215720997,0.14493290748860654,-0.7203428180499079,-0.6584320729243789,-0.10410414483079489,-0.5157352924815692,0.8318478477367275,-0.04947209203837244,0.15197410993992344,-0.5441688559067808,-0.3471598575234134,-0.8090165787304164,0.1508527792435681,0.3117672103580251,-0.18789731209688232,0.9993179387815567,0.35834584040336104,0.06958322556916907,-0.7695727161878909,0.25486634509652095,0.36787502497131563,0.7120132422999248,0.5263357423523252,0.9548362704171065,-0.4189363810697784,-0.6816019852214685,0.133022213238988,0.29621656251309103,0.575313482985738,-0.8356226721653506,-0.10934941473569637,0.05250574998817936,-0.27850564026220614,-0.09356826601802815,0.8081195756245894,0.2185166163839798,0.42197885945196134,-0.9522461312231607,0.6528192471405483,-0.6376467083879696,0.5243684787980831,0.3605789105444086,-0.3816164936593298,-0.6614718382665861,0.9369922895834062,0.15362041720177277,-0.4010973097428998,-0.8609024673163315,-0.6414788115463805,-0.5871100165845284,0.6319226502091926,-0.7958237087889908,0.5970614309500277,-0.648496282051054,-0.22575529057733457,-0.4487390540442424,-0.5487597157872102,0.22198599680732856,-0.5524791223530581,0.11287583362711784,-0.38872452276380876,-0.37321797134330614,-0.1585566476208249,-0.12987649841311355,-0.1910652481599069,0.3980413719850042,0.28049711037365443,-0.6242348655251886,0.3502278574411892,-0.7831409025229457,0.7431670734907343,0.6765630845873081,-0.9488690744222812,0.8133757059227775,0.9522415882605788,0.4958126730636403,-0.5235712061215494,-0.759947903388563,0.17956880581753576,0.2689017153509661,-0.9176110101290387,0.8363563503123741,0.3529714305182503,-0.07359171746227156,-0.35866709959508203,0.6701004891049238,-0.16413977342004693,0.969701098031923,0.6759237227397505,-0.3470639550325607,0.8566143032526925,-0.7954694500639805,0.46853198626185777,0.37895052703017984,0.2717277504560518,-0.14197110255034895,0.746894322779597,-0.6244440903289119,0.5183087778948283,0.5525984817976413,0.606546548431427,0.16332766242990115,-0.7363957497291076,-0.952895172304205,-0.21408237919119166,-0.4230130634695728,-0.8938241535941123,0.39513003339611164,-0.7297000551329567,0.12944838311630624,-0.944369667992282,0.9208866498601018,0.41316894345818933,-0.967057014116798,0.7552468760135216,0.46403393577197893,0.22973774592502405,0.5967916289794808,-0.3538270873899745,0.2462412269149492,-0.14044608318898621,-0.913535841452003,-0.3159840585923319,0.23279057502619493,0.35700942952244086,-0.9050234066117129,-0.6070752749028876,0.030554188294262596,-0.267578017215079,-0.9886731279496519,0.7385493968023102,0.7882846927539693,-0.3456585446519971,-0.942740633173305,-0.8812650612509256,0.9239880303358927,-0.8925332693992951,-0.21557176351463458,0.8443908574656083,-0.501551298677313,-0.182596977601861,-0.2624259449311175,-0.6620674416593895,0.6683635307059952,-0.3289566055583133,0.6271522321570835,-0.11777486784152802,-0.09669339435683844,0.6527963684218574,0.9469039065555758,-0.80263429280681,-0.6985247580500311,-0.8815447840738986,0.6803262039358606,0.16306297724362828,0.08948069053777075,0.7739184887669108,0.1383325938811919,-0.7075680710972818,-0.3069961893595936,-0.18914523785134185,-0.29766831152358764,0.43031108370819937,0.4934895662626426,-0.9375905591489271,0.7035013695457106,0.6975805100193782,0.018423522547482696,-0.3571994269023706,0.5584571536943395,-0.25105088103813644,0.7197388486090719,-0.7858937726889605,0.9258094602090003,-0.33977364729426807,0.4509836774629641,-0.43591325311196494,0.22247834799136235,0.3090390893783106,-0.883976223268879,0.388062960263974,0.5253745625007067,0.7564099136193696,0.19844531865468307,-0.30297781163753035,0.01264651156888208,0.6982655831251763,0.6174488455790421,0.8794232291069106,0.49012587808709074,-0.7243539240837877,-0.8575104017191402,0.6887805886078879,0.8806577065296248,0.6592122753951624,-0.2449172451081032,0.8606457621700896,-0.44219708683069836,-0.496309739902977,-0.7667998199955086,-0.4168396150324991,-0.6411020207890159,-0.34616621560754424,-0.7305238051914482,-0.7555879673593451,-0.7195348907884462,-0.7162140254136236,-0.6689340194305593,-0.7267779899501141,0.7996489657355423,0.7701162767362706,-0.4774078713354517,0.28724825544319565,-0.8786735542816839,0.842570896474591,-0.5779276432187692,-0.2951260118401384,-0.2083318532213405,0.5858103260744103,0.4279844793897907,-0.375557285558906,0.14641545142348167,-0.9255365447113533,-0.1749191283468281,-0.7608188996562166,0.10944714012024503,0.8433418479825463,0.5880533996268307,-0.8656593111134447,-0.2976843683986188,0.5318953614152397,-0.6351331932936333,-0.679117685807731,0.5938158180524973,0.7200600687555985,-0.5314255853601795,-0.47127540349649966,0.2461444408880875,0.8252286753747775,0.49857415512200687,-0.8594546950469024,-0.8617359783459997,-0.607675813104781,0.754845379650029,0.07196324379177943,0.7776179945036796,0.9822132289726575,-0.8114738696575183,0.844342630529286,-0.6524193691878062,0.482253389544004,-0.3237695365777795,0.37871558189911925,-0.3743937410093465,-0.07415800590397792,-0.7121920783563525,-0.6691052863572882,-0.4488030175868827,-0.4400238447230087,-0.3992610114831969,-0.5602359493008311,0.8407063318326786,0.4863589775813393,0.06483869674173381,0.9275641515711761,0.4532212417369703,-0.12338217690149045,-0.004111648596812678,-0.9211564810170247,0.06275139749814662,0.723268643824172,-0.2516696245420249,0.0926354773362239,-0.5659823827749011,-0.590666814653338,0.14067435758319013,0.16804203559530206,0.13092994919014456,-0.024213049525277253,0.5152137419925034,0.9854468339452429,-0.3505803336997775,0.5779966253310207,0.9256442688663025,0.5825087443543966,0.3898453153918624,0.4335364944888809,-0.604332782894001,0.8937765986043542,-0.6085265994609788,-0.04815399739022985,-0.45280540536523683,-0.11522783844128948,0.8852928658212593,-0.2080471466200977,-0.43913556893414896,0.45630759225427875,0.7766089919749706,-0.6154374367611779,0.6536199913837151,0.7246675507889617,0.8467655430191556,-0.10990828229799554,0.25471162646021606,-0.6623085298686653,0.38101954700676677,-0.7370697143958824,0.997155397916077,-0.2134787021464899,-0.40279833341279025,0.38586787248650833,-0.8456698364564785,0.6674560817722075,-0.5184989937831612,-0.021260290051900554,-0.4061268730315031,0.07598944005361763,0.7649663681267289,-0.042250203924314444,-0.2023810620069686,-0.8450437762537057,0.5998739972885512,0.45132708298993207,-0.7440520823055223,-0.6789048580106158,0.9593754113277384,-0.9274301427677083,-0.5470291452184115,-0.8461240366472076,-0.6199711656086977,0.5161500742220451,0.007320582658696173,-0.5232972879014315,0.6242041856937848,-0.8070974078801008,-0.3728092814758148,0.1694685516346861,-0.7539436839736628,0.6530832663158601,-0.9495930009997893,-0.22857261268772566,-0.21769005094656468,-0.5176851392042416,-0.05073640261074619,0.04013072913730231,-0.609853866490305,0.47951951737950504,0.05567313391688877,0.24310208014338763,0.944347316242135,-0.4455971476956089,-0.17187915246046104,0.6567917788292801,0.9383886845834195,0.7786458645587491,-0.2391825594307162,0.9592012504195551,-0.6619048061260497,0.18100366352382902,-0.6224930825744386,0.33902552430864175,-0.09866272059675207,0.6983828476219198,-0.07557654616750376,0.5036005875927159,-0.1947186166888808,-0.2715745636117253,0.16507627843309503,-0.5701714811852592,0.8380687855661542,0.46390696266688325,0.20990515944369692,0.853732058168803,-0.594255406022008,0.14814484313755405,-0.3512771661614911,-0.7329850682373342,0.3171651663845001,0.7575825726286161,-0.15199361445989257,-0.1919558790343452,-0.811639174458084,-0.7810378564787512,-0.20994011137266888,0.30283295122113874,-0.09432268956327361,-0.4688205777222809,0.9347482186225795,-0.1319007906071934,0.35264260713887796,-0.5109811240064019,-0.39921969593881523,0.17998328614818693,-0.7422793375690966,0.08764057027578365,0.22403043971976633,-0.3883366146678269,0.5977829044644822,-0.6197436807607681,0.06811430744129088,-0.5822001242377859,-0.619539984662351,0.10127234072565217,-0.9840790430675743,-0.2859088388644564,0.9679113667679637,0.19985437249372162,0.0900274220649897,0.5802728455346409,0.013643377592699624,-0.712608649895043,0.6375501679987827,0.6984390757731469,0.6883164233151626,0.0574285709183735,-0.30404295575005347,-0.5532664461487589,-0.6626732050483124,-0.9226729375124634,0.07398386464749951,0.5910417344390044,-0.5676452240884347,-0.35445390084964234,0.026974138900456968,0.1586723785261719,0.9700993789382861,-0.09664698496513635,0.9142548363789282,-0.3569269810638871,-0.5103818071992436,-0.04317496830822076,0.3146379672359567,-0.23357761375920938,-0.7323765997033389,-0.8551838485236707,-0.03173036972235388,-0.4954077177632925,0.31407828951148575,0.8639161722703259,0.3052633781839418,-0.018237024304081473,0.6601033360490318,-0.43985962995900296,0.49186660760864753,-0.01639838082282319,-0.02608257022970717,-0.6888317538840258,0.06679798741539522,0.7396235946131111,-0.964590656140734,0.51300987936161,0.5463543288935939,0.6236008156368156,-0.6224601429655114,0.5101395585759108,0.6275544822453418,0.5213184063511744,-0.617313782070211,0.5667455687910681,-0.14781701104524392,0.8661784454025026,-0.7942432488426201,0.8715600800947019,0.49738418740136536,0.4254646549728327,0.32171616297241346,-0.21149730363657882,0.5938748799697819,0.3342300607115627,0.27540367354951467,-0.8549874755644529,0.8359779473855142,-0.12727236158632227,-0.8355360961317562,-0.5700905173200557,0.46483171006424695,0.1811757132313716,-0.009126197626889265,0.5245789835610306,0.9350963517737358,0.5508620974173035,0.9241756704182513,-0.17907552532891624,0.742660894383387,0.6648603207229573,-0.048115350958950476,0.7605140482966928,-0.530538230965609,-0.9126173426276536,-0.6149442156558775,-0.2642911019176901,-0.35274302552405623,0.4361733992246355,0.6423332210144825,0.5084536751350701,0.17956649111699696,-0.8523315106958,-0.7961227000565705,0.5641829495834749,0.29491505809463825,0.1704587048866535,-0.17845216038727263,0.17590100091426053,-0.4038804330941501,-0.3552528458244162,0.30318437391088926,0.4533504427536086,-0.6200875036966145,-0.23858828960255574,0.7821758181531309,-0.825438649905313,-0.24675037570070235,-0.06619849052816451,-0.6569803728358465,-0.42785111179482405,-0.5955782776171177,-0.6415384328051823,-0.7005692596533695,0.41970909109553434,-0.9471670187780286,0.005505535699128705,0.052784191735652186,0.7753717690997672,-0.14126103092726683,0.48459093884777227,0.5207845737204158,-0.7749024984296324,0.4163407290059664,-0.3317428159321716,0.9481315746013905,-0.15243744606113796,-0.3794154436566688,0.8751110447106305,-0.8484790799970292,-0.2872025466150665,0.21374070973538273,-0.01611929697611214,0.9191829165629286,-0.6126148648097103,0.010328603906937461,-0.8845119730815898,-0.9726069847111662,0.480053416140372,0.7127089004331764,-0.34930647063660913,-0.6371066824184639,-0.526027808137765,0.6220909052586685,-0.5991826381274645,0.9098761333558056,0.4178383743801677,0.17964741523108274,0.6419769639327237,0.40774429569571424,0.8553398254867939,-0.3404928953727382,0.7929984990348156,-0.3023513345629292,-0.8477842964129563,0.4835434547137871,-0.38579679840944725,0.02548573637897311,-0.06616964716099671,-0.006886835761952703,-0.789087972637291,0.966887461931697,-0.45652356057615506,0.25953131558961573,0.7052007940388816,-0.9343927169971853,0.2842826861154706,0.7307448094582552,0.45306768476989334,0.7704756562000259,-0.949080943811105,-0.2833107183294512,-0.5618563575506941,0.9194007648148519,-0.056265655148092675,-0.19669821321529724,0.6630775789667664,0.879052828416645,0.3391384514879292,0.13016376466625146,-0.8304412830235444,-0.036153095881930275,-0.6173546354646064,0.7919040380915721,-0.04239704814488632,0.23680930745576312,-0.9681152412608132,-0.43641621077539416,-0.16487081995894126,-0.052622143220352635,-0.17384901680045806,0.18326896322825403,0.07168004248792004,0.9059090370110763,-0.8486022412005874,-0.6701199965758304,0.49455289958410775,-0.9796536943087517,0.3678693674301321,0.9742249385846051,-0.31775390419263716,-0.9150083245860015,0.36944114744800527,0.03659791207758878,0.6106066884694621,-0.7035210096770388,0.13182011563615514,-0.018738429810212898,0.11814931081475,0.49067191547763755,0.37944286827746554,0.012671413388316566,-0.31643494902127056,-0.05218196112300677,-0.5226758970566301,0.29858274774567084,0.5350511031408738,0.9093415983859301,-0.5332419495790166,-0.3522082802247264,-0.24065250348428546,0.05647172610602058,-0.09380948621734309,-0.36107284964203323,0.2676802362305346,-0.9757041417605012,0.0562433700737881,0.6944510740484893,0.13799696154627328,-0.3521740281140835,-0.15478865868038993,0.952315801742952,-0.3415507155983246,-0.9904221410058975,0.7408145889936537,0.07875652391464039,-0.01860317029039016,0.10951645960583223,-0.005505335923501109,0.10823219846410725,0.6557748738302476,-0.12851223711664383,0.6782693178070769,0.1655961028673989,-0.04422948381202696,0.6850515976972211,0.3367886253082384,-0.608262715622744,0.5407397443591753,0.45835324633187,0.13104731686324378,-0.28997696973957354,-0.02781074625503943,-0.13753815281628023,-0.5203562052747723,0.5263856669583817,-0.9309356375401721,0.4487562885589702,-0.35293647389961547,-0.0715861585114903,-0.38273319576638265,0.1742342315753438,-0.5315289933577425,0.1140137505806118,-0.06934262769689759,-0.9719128949739446,-0.48728465921880293,0.9771457417167575,0.1318437242980286,-0.16594054241866263,-0.41875811441837474,0.7633826743771268,-0.18218070151559784,0.4737555951554222,-0.3357193305245709,0.5066199264389559,0.07725723586225564,0.06688032530333565,0.7091375920795429,0.3856756885888608,0.5900618715130042,0.8471693212746734,0.9158381923544319,-0.8439602287579018,-0.8343822716969536,0.31817717580764615,0.6361327449108867,0.3521633977797307,0.05453359352258702,0.7815032089285576,-0.8845341100182276,-0.5713741893198883,-0.6763008469852052,0.5045514807960385,0.7206176135693501,-0.29661154274061774,-0.11029368095390146,-0.9103992033879875,0.9739915440840292,0.3883556178689236,0.7090129199121555,-0.4070573357624736,-0.6466002154202553,0.4829229896425631,0.5072100479723862,0.809172742459026,0.14785933272262275,-0.5724278058910863,-0.7568858030877983,-0.5712881632472444,-0.7920807292859118,0.15155800451745094,-0.04858791611074342,0.42000357523084997,0.5780673401273442,0.6026320949470727,0.5669537538689329,0.3196533962811461,-0.049605772589896624,0.08589623828055726,-0.012013448515843406,0.9147974661947602,-0.9118467908137904,0.4300277373297292,-0.0018966088197962527,0.33162537841078454,-0.1921203354967722,0.7616856256467928,0.6950255130525254,0.2041431359017718,-0.5484811103604461,0.16550949025903705,0.5909808366789457,0.10143280488066675,0.2742650565563718,0.37182302394156097,0.7515446065255156,0.19301232577710392,0.5189595204576269,0.3169037729314743,-0.568635783157124,0.24255968838251607,-0.001205712155931682,-0.4365888839210528,-0.7097667099658214,0.539144656887599,0.1834525217152594,0.5961694835401565,-0.7815358162403643,-0.22009967399941166,0.7583016656318851,-0.5981476230928313,0.0887670186448084,-0.5740352616280149,0.1458966874630947,0.20977749409375868,-0.26420445747711363,-0.73563918193957,-0.7328670682059404,-0.45600186999184134,-0.7612121096040996,0.47033494712267787,-0.049401150168401964,-0.2848994908754088,-0.3358324681694371,-0.5319831539149531,0.942618958368884,0.5209563388349694,0.5815334222008155,-0.12691479756324942,-0.7106331570399769,0.5558827247547093,0.6413487546731915,-0.16753150176219478,-0.3973921437640595,-0.7065401035933798,0.08424582079795839,-0.11551258937096853,-0.0362418684696002,-0.4089775859924605,0.9434423306589328,0.3268568195652457,0.07099846618852257,0.15435176496447656,0.5631653199022637,0.19032955782419836,0.333878886928513,0.8720249611947375,-0.32350491901082945,-0.10561054915571644,0.4303007393790834,-0.21883964215917961,0.9940429944385569,0.5839608362766038,0.7048077083962201,-0.16062590679636046,0.4376965415279026,0.13549850184175383,-0.3986093445731076,-0.9643086587528433,0.48506067369677774,0.2900817275716039,-0.7354891690193075,-0.058424007719920734,-0.4116010396856751,-0.7965625559384115,-0.8367019186533424,-0.7988390692812939,-0.5309334821866889,-0.9162889056895895,0.0047403422738339085,0.9439833812973288,-0.37938957130619166,0.2693093255757437,0.9998126725998886,0.296129035672994,-0.24121364946246437,-0.5619519573302088,0.4786193686744473,0.8652485101825238,0.31898855878644095,-0.8020348649884887,-0.955397904680805,0.8833832521200258,0.7784123984644467,0.683360526267899,0.29172275205474474,-0.48128568166760655,-0.8966456417558868,0.3657555362752096,-0.10035408680058944,0.8789880206354415,0.2683593109767257,-0.38021048209063535,0.11937891973374493,-0.13971216780254814,0.26312440974238416,-0.6137372352904507,0.6498083456102579,0.014390309643610877,0.12725202611199893,0.7280455975253337,0.8387358582158346,-0.17964251560699385,-0.9948583877689097,0.44870590861173065,0.6308736120390834,-0.06755683437680804,-0.9534590783999826,0.14912111565300745,-0.14238078988361202,-0.4427620971112751,-0.5468247788416949,-0.603936550249988,-0.09077803904599602,-0.31516782970876034,-0.30611254875343197,-0.2349505394283793,-0.012021502488118951,0.7558718595714882,-0.5842378213135166,-0.841842638686958,-0.10882131210151647,-0.8183381389672508,-0.147525078071304,-0.5434240117685822,0.7745485831551633,0.34133905476109305,-0.6819439923017663,0.8554249194729027,-0.05440396568239536,0.2847286039545629,0.5720807931175995,-0.3274949079883016,0.7740678816710089,0.23011215751427128,-0.5280373187872602,0.8927661017443653,-0.7782480312963358,-0.20317313557934757,0.6417873057462591,-0.33469560390753617,-0.2310403409944628,0.9895909813558712,-0.121574406864976,-0.9412538221673046,0.686672877767964,-0.4737709488098856,0.310663486862506,-0.033657799663071586,-0.5296715177240907,0.40794941541264906,0.8697616111641528,0.5695210778623614,-0.9879049284756043,-0.4842553449278517,0.4246605736776261,0.14781587827675557,-0.5437689287703569,-0.011753562136629814,-0.3419216971356245,0.2990926703453207,-0.8218781077029664,-0.8391793462645192,0.7135730676955163,-0.6950413168991378,-0.5846100496014077,0.8300600362773549,0.8565812879956836,0.4831388844764617,0.07166090222347865,0.5991299001376889,0.8460347019262613,0.5309288013006768,0.46855150611532537,0.34148894006805897,-0.18232415860996376,0.6505960175210019,-0.894079569941763,-0.05627253750995953,0.8965007187155154,0.7613907684267041,-0.5558346181149223,-0.014490491635988256,-0.5242750143345871,0.5326606369340332,0.6250480022593585,0.24008338713685728,0.8681988632653053,-0.6000543631654971,-0.22325746511288158,-0.3018526415977312,-0.17581287606056506,0.646408126221697,0.28011612731837654,0.824996536311128,-0.7831160476931163,0.8216808698962965,-0.7751620790052107,0.3755880858643943,-0.9510193548856289,-0.9728478292867706,0.5344446284149771,0.2895817004727552,0.686564625231689,-0.7769864764379819,0.701655420196934,0.37904188914991277,0.8416431776995219,0.5546339183604663,-0.6190956691745171,-0.6361648936472604,0.18211729358993511,0.933964565001639,0.7663748488173574,0.6190143210963248,-0.7326811508968332,-0.37943727738340916,-0.9657148791743986,-0.3641993590538115,-0.21500185619440382,0.59057181618024,-0.512257696848696,-0.017153382712364884,-0.4433787848361963,-0.8401252176183451,0.8887968538359035,0.7837370537831077,-0.10444262805276372,0.44594969067275536,0.8273163390028526,-0.04515936525843012,-0.40800213798032114,0.8800026956967861,0.10229781279875749,-0.4983169866327457,0.80902455622136,-0.08210825987308934,-0.6842974097612937,-0.2617173463306959,-0.057508688376093575,-0.2154559837083625,-0.4805838747936808,-0.06945093602328045,-0.041057630335216366,-0.6492114808384002,-0.11389323743777857,-0.1452876984988778,0.48481238210829125,-0.6196855335744182,-0.15802006530707624,0.5927847313531138,0.9813952225866818,-0.9865714712146059,-0.7233930136742539,-0.5287096225501298,0.47618461122345446,-0.5726941957872733,0.5636426312038099,-0.29537397998572534,-0.7348294584637323,0.09701825660786012,0.3729325574891864,0.3771463555102099,0.4626033154679121,0.12396840086909755,0.1289604457082414,0.8300499948618467,-0.9875528706648711,-0.36353989123691033,-0.6847933696667428,-0.9183864880142172,0.6983369201587453,0.31411708258141036,0.8729024029329866,-0.2876423639828276,0.7051079669134304,-0.9675990064912625,0.7759435483156425,0.4475586136200993,0.05229241206137014,-0.3739746793540357,0.9577740137544142,0.1887356958853632,-0.25316254443079567,0.867821368024126,0.5756727709777807,0.22717871619569263,0.7166050990266102,0.4125697435749225,-0.5066749590152391,0.650865886079367,-0.821601472205882,0.36304411418770566,-0.04313845523220161,0.6370034998078484,-0.7229636498318639,0.9214382189761381,-0.32693961619347744,0.9171985418501984,0.6272400425183158,0.7724862489647588,-0.01990164424008234,-0.9756404249689903,0.8122663841373963,0.727218265489523,0.35837340943238005,-0.6606149674544524,0.4905684101118317,0.7999184375791528,-0.5449957860647952,-0.2013934338270278,-0.7301976975877027,-0.7464487820584667,-0.8693021322111472,-0.6922532508248385,-0.5824703233992348,-0.3942215922354779,0.260438180119678,0.6349897478028816,-0.5110683683461219,-0.7791407374223327,-0.7811451411041306,0.5496944491813462,0.6020561774598787,-0.9454003279215415,-0.945661012595925,-0.7076032527203855,0.06825328875851655,0.7719485003976081,0.7169784131137136,-0.4389759492213512,0.770840822903397,0.5033254217951033,-0.880584766937458,0.2694103233498324,-0.024607378429589488,-0.5834122874726815,-0.2853587635321795,0.9782472725705111,0.001854354335321995,-0.24130386791813696,-0.06108776618470424,-0.6030207725038783,-0.14529052436495138,0.7141428819171407,0.23900558710293085,0.2707374601405055,-0.07691128288423021,0.15997984157285816,-0.8359542615659714,-0.14152484375216967,0.2961262494128294,-0.09690791622316142,0.9749843671513636,0.01880718175757279,-0.9737768645521423,-0.8332131255632986,-0.5080869738685871,0.5459315135706673,-0.8677990485401905,0.9413830365164764,0.8257426052553654,-0.18065332758114772,0.44929954662365934,0.993021347356823,-0.8668216837332527,-0.33866209886032417,0.29260152744296897,0.7609355109345717,-0.6522352473026074,-0.18284546904640142,0.8690941788242279,0.40459874973708265,0.677462887798715,0.09465751129622646,0.4181688983147678,0.1683211600909913,-0.22222511130367684,-0.21873959728037096,-0.5336237110041018,0.1309464241729259,-0.9277700335134085,0.5862278058711332,0.19449822348952273,-0.4219424688368796,0.44448880113378664,0.18304371625777605,-0.14639713334207882,0.6407638734231158,-0.6930351266728196,0.8974497346023207,0.3536538525062505,-0.9052842444347511,-0.1963095158734487,-0.6440023901838772,-0.016572435050348666,0.42616876679127746,0.5169623666033962,0.055277396798323775,-0.9208398141944516,0.6325284557680642,0.1294988291203394,0.6168869098690191,-0.7678578770998792,0.5087679624583765,0.06698837295239701,-0.0010848248769008695,0.8719053297259485,-0.5971341864535415,-0.4205505430519363,0.0984912294049316,-0.22024959476963968,-0.6968304794182572,0.9643603949632009,0.9113636798014728,0.11007317145593243,-0.9323916458308876,-0.25026210220944,-0.8945786712128432,-0.08027645185208865,0.09262888149416604,0.8151369412123972,-0.8203615945426064,-0.42422604583496115,-0.013054488007782528,0.9292727355960735,0.9799407457136893,-0.915151111398568,0.27994664539486047,-0.8282742825654175,0.24684392431304425,0.977269954673252,0.5313684263675473,-0.5127497621597283,-0.466930171823736,-0.8091441168553763,0.7912111730685845,0.6894954951188075,-0.09623954163294113,0.3878313031867322,0.5913218429859723,-0.23579658183743457,-0.3188299773149492,0.6819002238119001,0.3632183293026119,-0.28199871615167127,-0.22993886536152064,-0.8277263975582709,-0.6582488029091751,-0.06454508168809125,0.9793913673649133,0.7805350380450602,-0.14764832740185518,0.551329849520217,0.4179381670478255,0.06207517197984713,0.21465398836796346,-0.4003338893114132,0.44472694732422524,0.33147645342760024,0.838330670194219,0.43851807113263686,-0.47412904270648304,-0.831804900444223,0.42491775901716133,0.08383848020344531,-0.1210711375827378,-0.4793620802076448,0.07076977576708154,-0.20934268607946427,0.3862401067115784,-0.7824600314416521,0.41109600895964893,0.6287930224373048,0.33041083034438334,0.09885852442113707,-0.13632522488437449,-0.7411713932104067,-0.893455260000277,-0.7651910996983968,-0.4088863589312468,-0.868251774876013,-0.9996614628462364,-0.9398662058523111,-0.12493355118200111,0.4773440393144386,0.0791305884212885,-0.5815542943824026,-0.46084052439222556,0.6095196783467649,0.07192704531028693,-0.035862125556831215,0.15984305342787497,-0.9956766972263811,-0.929326399011627,-0.1979974673154803,-0.1434061180254267,-0.41014137006473894,0.26454604127129766,0.5658946009370878,0.3785611865146532,0.3003270416029735,0.2823764159486677,0.15826514283335102,-0.010019859434774014,0.7624393300168284,-0.7786356993674339,0.28658205043874485,0.8524062109827999,0.9561920711286336,0.4665164847434804,0.7524310892928212,0.26279723910374786,-0.5221142663133576,0.7352512254431025,0.8618752443205497,-0.9857469271871708,-0.9358568722256662,0.5451859848186771,0.42391345902548294,0.3121465689741123,0.030723331039179902,-0.4543339726999558,-0.18911229266036078,-0.23497880565499107,-0.8790208016073353,0.7024255859980053,0.4608227435152976,0.17054145162841383,-0.33096487710135514,0.10452090553397042,-0.6541345342705505,0.27154174488371674,-0.9546513810951389,0.6911039014030562,-0.6501583998463953,0.26049268117933955,0.07058657779158195,0.27876345196477814,-0.19879945589980252,-0.8007703222960054,0.24332545677730621,0.210337341240024,-0.14059782791720066,0.3648053157668243,-0.8427513475996085,-0.8856770771747535,-0.24552913591197134,0.3477770451217519,-0.022741198112862016,-0.7490133439717979,0.62532527607481,-0.3803933090387912,-0.2142132270313606,0.012668375312518076,-0.9215684745181767,0.740615757300999,0.01097839487347918,0.00237341520835721,0.37192108602873963,0.7013434248816852,0.11218754644905937,-0.37278256204353855,0.23912197547464786,-0.3452123351175622,-0.1150553904927043,0.6995845495440292,-0.014848885909797493,0.6402380303766453,-0.18468283475653324,-0.0666372398520938,0.8580569106466169,0.10225729650551818,-0.8292697125101882,0.6366133125010758,0.21499300910252295,0.3053381805114994,-0.3124107770850182,-0.8264261249217015,0.8351711006551978,0.22446841489228087,0.025953764424350156,0.2554553607005434,-0.00473112506291562,0.7279350898691814,-0.5565801732030426,0.7272750340375607,-0.3546986036705637,0.011204562366953885,-0.979005484129339,-0.8042496079098764,-0.4218323382057956,0.026696511472195095,0.3087333577475211,-0.3048794157881116,0.9562529138380302,-0.5449203842131436,0.6299337641857505,-0.8504498139209766,0.6639086094011053,-0.7845734200394865,-0.6567083195357355,-0.2869585692720331,0.9185953458838201,-0.6880308152813559,-0.8846481667250969,0.8816363127696458,0.27979256872336977,0.18120624289610254,-0.5634455355386001,-0.3175470341661657,-0.9203377290553414,-0.23399448381257626,-0.0471030583754708,-0.09000217795810439,-0.9135556754479079,-0.2822006900709766,0.21088617660242615,-0.34640307422194416,-0.235317621993125,0.12448597826142405,0.17942582887279745,0.32870188934802047,-0.8967484113714916,-0.4486874083838024,-0.16262468614058712,-0.7687387913147217,-0.08223805319228705,0.5676027710724978,-0.2478931198028711,-0.688469114922698,-0.26495787163550166,0.4758460007384713,-0.48154856084185127,0.2686667459188936,0.7787532541119675,0.229751077112325,0.04907676479562251,0.05119506268273044,0.3712940959901967,-0.06381610271934979,-0.7962094277718426,-0.8996599646382182,-0.8011837808226132,0.9603889374468229,0.23911511209157754,-0.004758189513198063,-0.051551562856343214,0.7956195958419232,0.47210354628333007,0.6014982053695992,0.6937186898148959,-0.13303644032646078,-0.8692379881381445,0.9066709798584005,-0.1894230117577076,0.4396487299582936,0.9158650439051303,-0.36692093154224037,-0.12420945931364602,0.6499733417092053,-0.3836135817117332,0.8560150319648538,-0.07331693054640742,0.2773251540807993,0.1527928104543539,0.7551380926727806,-0.6050284867889046,-0.8679499474386583,-0.1319208873505766,-0.4025656914405289,0.946416676084042,0.686617801168421,0.9233234350366222,0.3213825695736807,0.1340475131906933,0.5668440510991051,-0.5785379318149337,-0.24541487928167793,0.9546339682595648,-0.24708315271962134,-0.8794583904655897,0.8669845089891548,-0.7515419539678123,0.19026936831255736,0.7173364786463743,-0.11531482937432891,0.06294991837348896,0.47189275050754054,-0.8086990631376716,-0.2433100034514888,-0.60040123486347,0.36868227882349713,0.017128865801170123,0.29407136383374954,-0.32770782252395114,-0.7470336935736084,-0.0014612921574483906,-0.24834800323005513,0.26803270074969743,-0.9832936613794021,0.9432214273708386,0.6682821563014478,0.3311670255157728,-0.771600257949218,0.49413556398548586,0.5130997307572767,-0.8876950464313538,-0.4930302132678841,-0.968563434961184,0.06567160954407991,-0.26419371410599557,0.37124493439327755,0.6624083617713798,0.458273592512936,0.9132181661850505,-0.7110319604925344,0.40108521016909804,0.2117222128445484,0.499639061757464,-0.05183122331815815,-0.8755218031594196,-0.8746130289924374,-0.6558764727945388,-0.05473263657996297,-0.8348659895532213,0.13551152077099782,-0.12509127803267295,0.7444773541574203,0.11353943132244582,0.2803304196051688,0.9401478441684656,-0.44623011499042375,0.37176207058594546,-0.024392863590802394,-0.9204853794479269,-0.92417263485208,-0.5040039285432358,0.8698182032046213,0.24126452905798002,0.40951207950607893,0.9049439143568445,0.9692265896701018,0.31244679692233523,0.5726899384222075,0.24968859229928375,-0.6872448381314344,-0.9491416259984573,0.06671591277977229,-0.030567726381912408,0.9129210509842891,-0.08541559733864568,0.6568716544575248,-0.17982177907630836,0.2991812699350782,-0.0697751278207106,0.6784266725383135,0.4404670607745085,-0.9412286978450126,0.5645878999354639,-0.5020636240937766,-0.6193037418936511,0.38840211216819154,0.6519061293830222,0.4917886346336138,-0.6725137759970188,-0.8963482938859857,0.4247088346696761,0.7704051189916783,-0.5269700760950531,0.4250688705117518,0.8913924928644417,-0.8979851459670394,0.8090721051018506,0.19902793045978884,-0.15492999224768922,0.7409785299819589,0.3783206102348813,0.23937650212021122,0.988642148274163,0.27680794081839166,-0.24562568106077776,-0.3341834330709128,-0.5509439108537302,-0.5588379078369419,0.7973153771005503,0.5742057052662348,0.8315731710279834,-0.2749309664491957,-0.787690147160585,0.15385647535722669,0.9677029508145563,-0.8060137082787113,-0.6599710940064472,-0.229964335019601,0.8295696555979202,0.43876372434329425,-0.7910986363379742,0.5997449194285605,-0.7861605711568604,-0.6211229017210718,0.16030312847164097,0.14167986572603608,0.44416253560515107,0.22447543517750645,-0.447052435264669,0.4518908991435322,-0.822941845588061,-0.09128090875706119,0.7199580027627175,-0.5460669552981274,0.6198653657579687,0.9270421432251128,0.7339932212501261,-0.49883851120377987,0.213473066839301,0.39639073167441063,-0.9517211261860017,-0.8185097201190319,0.7158568826679401,-0.9489686982511931,0.7723039631706383,-0.6315930962087788,-0.013664352259459944,-0.40278801312502477,-0.766413912103364,0.6907786299416858,-0.02656789050903452,-0.3901034319042165,0.7913243354294945,-0.3590205896722718,0.45109516255895565,0.6176813388107705,-0.8394236532217698,0.3694631864751541,0.6342320581080738,0.5834130021594262,0.14049097719314507,-0.07624152892464164,-0.5343522255198874,-0.5442190263369153,-0.9453543823044874,0.5319168936882799,-0.39406732045734416,-0.8587585334230619,-0.5252543951561424,0.5050863469097415,-0.3129690431336114,-0.8163977160141496,-0.49257388556760073,0.24548551661085627,-0.6250912481048712,-0.9743761601727636,-0.8595199747025293,-0.018406899095566587,-0.6486318459676774,0.41713553571508677,0.3889568328589874,0.6431861575716802,0.5209838061081429,0.007105180901818997,-0.7378449607359057,-0.05631366022593465,0.4268300883680076,0.09359405473162741,0.6392767529203158,-0.29728677631418665,-0.3309784928934345,-0.9847596881882048,-0.5821923600463017,0.2425969444031597,0.38031236997934603,0.4697536492179708,0.9087810156753819,0.48232851065676496,0.5327532696060915,0.4743222438396171,0.026320414483307797,-0.9240991932620435,-0.6212888379749066,-0.31950131468100773,0.053178543285393065,-0.903885804841225,-0.700408517713472,0.4918772124454116,-0.30823095864821504,-0.9393507221034507,0.6431979513914745,0.4472746800772178,0.9378036997992245,-0.8430133914718401,-0.5951173517964186,0.8399589562868068,-0.699129711007118,0.9588394704447927,-0.308207992870017,-0.5427584456512837,0.6342598866750822,0.24821828876022378,-0.030364315828351973,0.8564981223518833,0.5166594141057221,-0.2329266883632004,-0.030203091463845144,-0.47345136475492744,0.503794352326024,0.8657301313930568,0.7097724812148278,-0.6734231474806551,-0.6613248579853486,-0.3194176448659787,0.26457957886908057,0.1861258328240296,-0.9721607742633851,0.6204841846137779,-0.34545700713009264,-0.5106340661073547,-0.6772844037176808,0.3120581411100751,0.8138142054709132,-0.4455407905508746,0.2584692384832039,-0.7726704542612335,0.4827934913270435,-0.7199487432422025,-0.3083667950140876,0.5250675572186911,-0.6660550671785745,-0.9493471847496822,-0.33121460220596943,0.8641519169840779,-0.511326972851772,0.39623111524611376,-0.7246299793030724,-0.853472869857014,0.7344533246515417,0.8261648009620357,0.19016737458500566,0.6398202039139256,0.29480662797649093,-0.8684395611461821,-0.4707628445831693,-0.4266612134352725,-0.5297954413415764,0.8033525067291389,0.6838425900027478,-0.41320653227205084,0.8394434373914434,-0.43967354305997697,-0.5222101898119833,0.3461205458012717,-0.508511178036344,-0.8677756326588069,0.8082913451282645,-0.6135342260107668,-0.5840960036865068,0.5908840974198284,-0.3312021556623861,-0.026022319372981162,-0.8294887760117331,0.4153670869312136,-0.06060969094843616,0.6834879985834927,-0.4814523336382073,0.896476568467981,0.28668070316749694,0.6330427933537361,-0.16621330724499206,-0.13759013160016553,-0.4721965844464229,0.6892135012476688,-0.09689089585328148,-0.24786553393277333,0.8143649376086934,0.59483878010649,0.6572677350661538,-0.07747272804858585,0.6222383037796813,0.8403220607653268,0.64804223215383,0.5505723844162711,0.09138594730154548,0.8016005853431725,-0.0701288111636309,0.6273678372292981,0.035941401475763524,-0.03632655947534613,0.6481399734661499,0.5668153206233486,-0.38938417426326,0.07299946625044429,-0.06860758203032757,-0.42913059220454786,-0.7501036707078996,0.09854251743443831,-0.6281088881483952,-0.12586585185976773,-0.7578231203977039,-0.729137410993346,0.23286509607441985,0.6402657421658886,-0.4904145065808099,-0.9647659557703334,0.898461862605151,0.1093204828342107,0.703546923091634,-0.1274952290727711,-0.9538808228240769,-0.15029785719655342,0.1532948913310288,0.5724687838996214,0.7333282536188108,-0.4031391695205686,-0.8262326965367022,0.5810785387311579,-0.17733146712331682,0.0053277358859942225,0.2650763154850604,-0.5517158416478523,0.013468214823240343,-0.640252707684843,0.7218912133277804,0.0668465699610512,-0.5736252206052852,-0.7892455742692541,-0.7014387521364933,0.23996017411835613,-0.8233025146033885,-0.08078312202575111,-0.18702291708670793,-0.2700546890971727,-0.4582069441881411,0.5511948878540842,-0.3007837199097383,-0.8324535855443946,0.5570987965920411,0.3842259766995182,0.2626337113601789,-0.11325270020064604,0.22848621211969622,-0.04832252936200998,0.9726305003306976,0.6344721344442223,-0.653309326983823,-0.4041963637267445,-0.1153774044916589,-0.10092998915289653,-0.4992066184236317,0.08844762424255115,-0.13299432477828588,-0.8864765970911956,-0.005371102982571818,-0.16849549242285833,-0.5654995891761601,0.779803714427961,0.4094557731235755,-0.5649365775075885,-0.7294165614584358,0.10016665969582572,0.12853163083229036,-0.5412059770071191,-0.33753244408445005,-0.9884338502502314,-0.1472646981026502,0.954669831978328,-0.43546730460138683,0.6005741375620202,0.6455012661811514,0.09193572698661612,0.11576390200730668,0.10644556404763139,0.9907363783755456,-0.826808936277603,-0.32956918365411214,-0.3841535264405509,0.0862296183944653,0.14112991806475872,-0.4044473598192997,-0.07304228061154938,-0.3444123287517613,0.5620263062510296,-0.7118241908315814,0.14421579349216107,-0.5116034886509977,-0.5142009135342229,-0.8045613453388372,0.1261169010188925,-0.5015764814218622,-0.7010771235683786,0.02355089312017311,-0.5897628562417223,0.03814860110649665,0.2904146385989619,0.6541057060610274,-0.9392489300042972,0.40629251354617146,-0.3418911681368315,0.8515203662178397,0.7019373407169187,0.6680396475603827,0.24871669490994575,-0.7871909160751112,0.23273726648397397,-0.6128281163272666,-0.22997835509715014,-0.38514371943773607,0.8510026738597765,-0.03558112486020604,0.15793360518659805,0.05042834257176754,0.8996312318998745,-0.8829825000260096,-0.956229810970004,0.38990254502378896,0.09170231210290436,0.7538669680297698,-0.4408529346421257,0.3216006897720265,0.09360533727344089,0.009261056484788366,-0.29117642457349935,0.1747117685121944,-0.26338564866086434,-0.7715518992638712,-0.42674921397864574,0.779501073507535,-0.7883040025301844,-0.22815021353412335,-0.6402975516353524,0.3358439477444206,-0.46737214639475333,-0.7771197549358138,0.08752192496346445,0.39515124649144284,-0.8664604662201401,-0.7903945920861457,-0.6354241178494178,0.8872934442526688,0.5013222108194288,0.5546789753042456,0.6353884807784058,0.7537886412581558,0.8062324316731018,-0.46751794860993345,-0.08411906290534521,0.5484033421116576,-0.7392445011920872,-0.8858989013855414,0.21624126526616627,0.2050038425234768,0.13596287551947817,-0.6964436908499041,0.07457677478400826,0.013506828747537725,0.9679825761333232,-0.26484872510806445,0.6696252600061345,-0.3354969433922894,0.8466222148052136,-0.5708806985052504,-0.9563696494436547,-0.6896254697795388,-0.8810247665944706,0.7292273569456105,0.7943638614436019,-0.9959861206886609,-0.12281800316542335,0.34440551773892647,0.14406791891781512,0.5545427667193064,0.9830294507856445,0.6486261809709037,-0.7546543906189596,-0.9110848195662791,0.5238977795600133,-0.5270294419223762,-0.22721621020817429,-0.9611658448219587,-0.9867615185593042,0.577126906510234,-0.41104562451138116,-0.6266699206010691,0.8870517606328934,-0.036635853739311,-0.8292623212358108,-0.7406256076379014,-0.9873739559510006,0.055708209968463596,0.8500972483109748,0.8467777424430221,-0.3651036234984133,-0.7596654003267089,0.16027680411318745,-0.01052132034836184,-0.48648074044980505,-0.6286207536264985,-0.058735119297653515,0.16996932582604796,0.45237246510072193,0.8273163019277796,0.6586418284311744,-0.8461407706197517,-0.3093184254313368,0.3775989865417724,-0.8683279700569686,-0.6457748992352355,-0.8563220434322303,0.8883745345107932,0.23273278686921373,0.10180149634744873,0.9820925890264325,-0.3659986056222553,0.21235068692562797,0.09665195579233887,0.8332298610739202,-0.3663109033094174,0.08769033926350445,0.8828351215012387,-0.4996992550957655,-0.6675903934471046,0.9665257268838161,-0.22348077232026542,-0.41017548778441215,0.21875166798414147,0.3045184029179753,-0.36964825284668557,-0.32585612686951104,0.018776841405566014,-0.9806290111441474,0.4296019502321162,0.09697212501106423,-0.015704435675472528,0.15571634773277188,0.5259975457412791,0.6281130857169344,-0.5195811272157758,0.639794355978637,-0.3406917691783147,-0.734065375522148,0.5912093779539478,0.42734385451171875,-0.5165211324638415,0.7408533447134678,0.5570916424202186,-0.6254446193660295,-0.4462734320066899,-0.5116807669353001,-0.23535933514039664,-0.7962409278367517,0.5425827544562707,-0.015063359005804244,0.6536631971753619,0.3427653962189503,-0.6027145434539012,-0.8332477044677513,0.4982752907474981,0.8579082153474717,-0.9568426537286407,-0.19877208117693113,-0.2478732535811088,-0.8415944632675296,0.29740558141584716,-0.9819324537827043,0.3114364156188778,0.4012939696131095,-0.48240537926972715,0.6128807502564941,0.8489967870324486,-0.2290245883526687,0.13518500357885332,-0.6208609796678681,-0.8018737722001039,-0.876373340095179,-0.6775563893872201,0.7544629715889359,-0.604778840479486,-0.30110279869815537,-0.2785176143234276,-0.7891456881386105,-0.7439300386148398,0.3709438281979385,0.22366735368396862,-0.26937079900813754,0.9111254901512753,0.5061250936474744,0.06570334058854366,0.6909513741106503,-0.38753503303052805,0.15742969565725073,-0.44104819021970276,-0.8210069115355574,0.7320023071414661,0.7192897346382721,0.6358548671979558,0.7086947567938424,-0.5584337767804584,-0.5840634765227048,0.9763755094517372,0.21087324492213178,-0.22839198588137966,-0.4045568963457722,-0.35261372079329156,0.7913081984747676,0.3619663717825501,0.12919090389563292,0.24627575373980504,0.7488777565298463,-0.16487354001460464,-0.9839759123690599,0.7293836578022748,-0.6433106874261918,0.8161364383316903,0.5743243566831635,0.3392114545046294,-0.11495089693154892,0.344864220119659,0.30960588135704037,-0.8215899844049039,-0.24386309966038544,-0.6116823655991157,0.6830337082446578,0.2644823546301336,-0.7023696905461874,-0.08311534667954379,-0.3266081350918817,-0.19993740171619567,0.37594288328996983,0.8984956729746094,0.7751018482909193,-0.3429497714330396,0.3030209927756624,-0.19353300621383562,0.9114117274897255,0.6925598772546122,-0.46774378876353806,-0.9470477668543156,0.6658106518567206,-0.9247963528088765,0.8674181191121249,-0.36779112597642905,0.7308349087900996,0.7391763829357796,0.3956056204141398,-0.05198632426081895,0.6561684388132285,-0.7823690057362895,-0.9159087042490892,-0.5348245720966416,0.4417779541852691,0.2654581726863323,0.49161275197582244,-0.4463007650628983,0.33004418720998085,-0.07255844408249557,0.21512264696435168,0.11262298769000134,0.013217219726295415,-0.26452439317213705,0.0879454154812418,0.3749875889058907,0.15242583484930372,-0.9596539609571586,0.08458178210806166,-0.36086774504211827,0.2766346403261697,0.9788856645624386,0.8747144516009013,-0.581392054865937,0.6452900594815061,-0.31902479204024026,-0.9199912355644819,-0.21337070104621114,-0.45507314654928566,-0.11917019164358833,-0.038884574978099495,-0.12217973147114947,-0.35302697166681063,-0.5282745653172634,-0.10242304246463418,0.7624522756504011,-0.2513355214695523,-0.8489056155690546,0.18574106311180505,-0.488098803280111,0.22983488908187288,-0.7693884017534509,0.801994089869124,0.47516474905752704,0.6465444083667498,-0.3988999420247421,-0.32823152218927043,0.042648800196512404,0.7024823814225165,-0.27905090334265825,-0.7515626625364469,0.47989548727184306,0.40924735274639135,0.8404654428237044,-0.10083390244996071,-0.12327863572816611,0.3810753592647067,-0.2824987889185344,0.8327104083768109,0.24246209647517825,0.4248407873663582,0.4818399903760431,-0.5116710317955331,-0.19430016092978453,0.11987705335964405,-0.4125067416012951,0.5264543062397944,-0.6442063831949858,0.20637469536515618,0.15111289416125673,0.9029489987536734,0.42554049278924944,-0.873814321234778,0.5938757868565814,0.5090835666050382,-0.9374912480516882,0.7074361582927928,0.6231478325126167,-0.9896085877139003,-0.15974404730844327,-0.21083683541118736,-0.39535434060141417,0.6555868651307788,-0.9685782019062881,0.6822959700617868,0.5042209250963319,-0.5505982581021684,-0.45002617974891,-0.33876465037028614,0.932592930572355,-0.7207307013853979,0.05016712771459986,0.49742942397006606,0.2776472006428441,-0.6407881995541795,0.05907980714826366,0.775627167034795,-0.27888618581771873,0.0989533149290005,-0.4658168858113463,-0.03978775946883406,0.9361516610051988,-0.9173065953735873,-0.2679553254840148,0.8260062603673541,-0.20394106035733772,0.7621257972112379,-0.2830492455777167,0.5753158053920571,-0.61717364009009,-0.5447114956319754,0.47883633377403356,-0.9737112008431563,-0.2056172446673845,0.2696745334142583,0.631243282948657,-0.8672643782784093,0.005445897183340653,0.4876449455895713,-0.24422775765709281,-0.3891415942526406,-0.38036910527365486,0.7594144389717923,0.5707516860067738,0.14982084010428376,0.7834383667588605,-0.3810692885446194,0.21643937883258912,0.7539790852506632,-0.38964454488006584,-0.2871355414667691,-0.3812797656879128,-0.9759477034070179,0.40298970654367183,0.7938409747002726,0.36437536276941795,0.04891364021120048,-0.7092269672739953,-0.07828042676667746,-0.8466833685830817,0.20712462424073386,0.2298647192301364,-0.2860661812432379,-0.8928055572351883,-0.7259773736751325,0.23149168527102515,-0.6977504632187725,-0.9521748481631294,0.4227396918248809,-0.31183475393327065,-0.758002041214201,0.2741657938467841,0.5077536491938384,0.7181205935303527,0.9609164780779995,-0.7221677952765855,0.9226586808967743,0.8777842585909519,0.8879038821182619,0.6683926027047753,-0.1616093241085872,0.2589329567849721,0.22378114952081618,-0.22289742727581485,0.2829778456879539,-0.8934448099301209,-0.9042377575511307,0.759504720436261,0.499772318469087,0.20366990233608462,0.9233376170339334,-0.18763234997169564,0.040870244883460805,0.9274168497331754,0.1488693185600114,0.9933661193767573,0.20088821572091198,-0.5826234841828266,-0.4367525888458115,0.6139734149319469,-0.4986795147433687,-0.7595665053243212,0.3144894887754235,-0.9035850203187943,-0.05041435334902178,0.3391125423004455,-0.8748797835117457,0.15616641173657175,-0.0974994856525746,-0.19200783673004507,-0.6031471889618223,-0.9383267821395922,0.5287314710579405,0.05246754090962713,-0.2855744600747423,-0.8947921048394334,0.4143205364713691,-0.2866235407371889,-0.18402993783481358,0.9279279619461622,0.19984162043032505,-0.5927087451999697,0.049936524958874795,-0.22587746700554545,0.5417791737435034,0.5367518609753716,-0.51313548266404,0.2675529605812048,0.4261470884810554,0.07782032331181643,0.464876876947933,0.555707449090884,-0.7678160871145641,0.7440177579948934,-0.9029620668507059,0.21216782739156392,-0.6423802802992991,0.34151282066029,-0.18882915166612801,-0.10300094396559478,0.31957198009868937,-0.1212571448270745,0.30847798015897654,0.8466072556283952,0.3592178688465437,0.08060124240761568,0.6492333118036424,0.8730592229521479,-0.5871409290970193,0.6368425325260947,-0.7570719677047641,0.3372061529638637,-0.7649854206191535,0.6200053779613677,0.9626589464894661,-0.3599063303625385,-0.17923179443362636,-0.9218881364651246,-0.47801957032103015,0.13676849698220184,0.1932925637034264,-0.6202521423514882,0.7244106891244466,-0.31684342552658284,0.5006596303623483,0.6849269992677762,-0.30956429998846313,-0.9322143589080514,-0.4010532462508809,0.804722226107593,0.4338477023396856,-0.20166552614342304,0.11850980070724071,0.5995396290513049,0.8683073021732133,-0.7507270805201589,0.16595534104351084,0.07187143137909735,0.42553870667578453,0.42857947411110775,0.3085094902700001,-0.9924026154953662,-0.35512740462173586,0.2607725296107264,-0.7168916850476164,0.3262464892834227,-0.19329176520141877,-0.44062516103177596,-0.08019853762617801,-0.10731310005467654,-0.8574472081993931,0.04247263289766279,-0.19690757134307213,0.4466373818256517,-0.3154168113771769,-0.7512687338814761,0.7556698349212436,-0.20876554222487975,-0.5194719023468268,0.7359685036333214,-0.6624028994775755,-0.41299709011389085,-0.16828822012349431,0.3748813841298613,0.24089184093788174,0.12845010899935616,-0.13834980805964103,0.28384926670004473,0.36436208480814325,0.9195289393889994,-0.9908367516815186,0.5681016916967327,-0.4045186755991732,0.7914110437854394,0.5568185868988138,-0.7926959577051045,0.6534015525494368,0.12391235060178896,-0.03081676512038123,0.6502654332815698,0.8470601021577109,0.6207110921017744,-0.5248007511626935,-0.6675984930643599,-0.5952475943901105,-0.5843468134252765,0.9779327434679284,0.6077608692410907,0.2223380231685983,0.22125215132409748,0.6089205875930852,-0.3053674462542788,-0.22714734087516275,-0.18357228861480768,0.6455298203623672,0.18516493008962231,0.34663549152740836,0.8330018382803595,0.20186534864334615,-0.7392171209481284,-0.5319495723565599,0.5313729654312869,0.3856258172742357,0.7017061936670175,-0.19302520955058267,0.8927524572017362,-0.5718265536035678,-0.2830288118693418,-0.8086810883579671,-0.21275887354749923,0.9914526808660262,-0.8990234633909993,0.6649036398440862,0.47678340424127463,0.3258411453255301,0.7980099182425187,-0.7944588019203713,0.4903448254904246,-0.8223851745766146,0.32484366764194994,-0.7911398906488651,-0.954651338297545,0.2152560039919722,0.2195942353882845,-0.7929315954997553,-0.7266719427926596,-0.33992447453262686,0.2579661596440037,0.9299587250590131,-0.19631773287613874,0.9977317779601675,-0.5692938329865891,-0.749812389973529,-0.07781043490777484,-0.006093781466413262,0.6892647135068806,-0.34504242329505774,0.10865447520914895,0.17383609178979453,0.6195854978138624,0.45968045690228365,0.5831192145338311,0.6216170103272372,-0.4552816236765891,-0.9710448677025463,0.6714695135801336,0.7147545208147283,-0.15670976901796174,-0.1706015758987931,-0.13886150655923957,0.1920741052430115,0.0962777037249809,-0.5269315274014144,-0.21122082681478993,0.9055735729507175,0.13551752932491756,-0.8656942183405498,0.7775268227675678,-0.5369300205232215,-0.7671335370244243,0.9158604830073325,-0.6797489771157741,-0.4890479974119428,-0.06918319631893266,-0.5210813928009559,0.11040263609824286,0.8430626429569408,-0.15246190683890792,-0.8327065866662091,-0.33952346171096726,0.5418393160042949,-0.11043655836990007,0.7560623834068647,-0.6806001857380455,-0.7310292720057638,-0.22348800570033434,-0.860359644526,0.69135041850268,-0.5745492647327883,-0.18709676264107467,0.7297438587973375,0.753414888414055,-0.7005430353000479,-0.2262491440508405,-0.7575938422169015,-0.5512681001843482,-0.22198775609677956,-0.11339073730209082,0.973224036375193,-0.8547051983774869,0.03538347322362512,-0.13160710085938643,0.12182717862105874,0.38677633703930403,-0.7879038821019413,0.8825229166031563,0.3740936593765338,0.46559646351140405,-0.2602061136384435,-0.37085520629537716,0.46865919173069215,0.6315566894704949,0.9478844071773098,-0.8352918414933621,0.026863502285386698,0.6658203136371919,-0.24879983950447104,0.22827232706542033,-0.989238177587358,-0.7046069668704731,-0.4153340300931718,-0.600882626869145,-0.8952178845727179,0.014354540785889158,0.6512355208735561,0.5512299494575001,0.8318814307910194,-0.2000212727194839,-0.4352302868660529,-0.6428143164433502,0.30950119603202597,0.8496516656451267,0.8578752166953496,0.1654411442465218,-0.9459769820445458,-0.6282967678825209,-0.7224925308974763,-0.08223801507519557,-0.9963547957267138,-0.8754289335713414,0.19432018966992404,0.7127867367971594,0.3709218649579096,0.2178136643076789,0.6798532279738208,-0.43365707346610716,-0.969283999329138,-0.7263435781154108,-0.18416748301723063,0.4278908719125556,0.5222494839330989,-0.6812238998898643,0.9601822400904276,-0.27708425806025305,-0.7768846378478202,0.9057631823211494,0.10209472576325718,0.8263767281658712,-0.2399423574794417,-0.5670614309754878,-0.5614780845359284,-0.7554994243547541,0.09976757241441381,-0.8242843074888808,0.7293556135424795,0.0227708436225611,0.464603008568643,0.5811009641361187,-0.9126604320977723,-0.7295175363324693,-0.8821879766717833,-0.27032367711072514,0.2135238721964019,-0.8863197451944642,0.013534619969213901,-0.5646156577774113,0.00712514956935717,-0.07236171874222497,0.4186151578565167,-0.3206340017147009,0.417086850581166,-0.950502535952221,-0.5468725298582211,0.43261067061911684,-0.0898822864072264,-0.2545318148407725,0.5301521513110599,-0.2139948399451963,-0.9118462883568612,0.9225634024081997,-0.5383562059992015,0.8325676151582468,0.8602922582757206,-0.6034724010719856,-0.6998902173587995,0.08630378794031901,-0.4792087631389219,-0.996982758384507,-0.04310056269694096,0.1139692979883209,-0.5299086811860103,-0.8387130723880107,-0.5214809516213081,-0.6520836410711206,-0.10348195381536551,-0.34504973996559984,0.5601449182272737,0.1144912156467024,-0.11034154298647536,-0.08230593075071346,-0.2644680421164207,-0.6476851967284694,-0.03214866145361661,-0.78211678841161,-0.7153694331804161,0.14182364661514812,-0.4034137142412335,0.3124851679704379,0.754257193269136,0.9018769731888083,-0.45161041963926607,-0.155966604464437,-0.18308881511145025,-0.9672081639261403,0.30579660977571144,-0.4389331868648647,-0.8119557524158392,-0.7587028181769666,-0.4472348716641663,0.5995942452881413,-0.1053882351734643,-0.1752139277889011,-0.025669360910229866,0.10970803795772133,0.667447461270329,0.6751186874848181,-0.7615747513794282,-0.3130994868972583,-0.052174860455750594,-0.07899700523141973,0.4558669508712363,-0.11700354282973957,-0.8777408272214742,-0.5200382110622506,-0.934676523576571,-0.1071637039163722,0.13289005717925573,-0.8836203966179317,-0.2511532867766133,0.06321227509684024,0.9769891339968262,0.23046568318776806,-0.716255542093094,-0.07558930364131289,0.27831687364341096,-0.12448664260882536,0.7027049386740891,0.783650173928258,-0.15766592919408984,-0.6414882855941888,-0.42197113513658646,-0.602638207847233,-0.263555588676992,0.9906856103843917,0.5477378606854337,0.09391458744163561,0.8996823881370895,0.3534045862797712,-0.8684651578275258,0.4258972761240951,-0.7312878651206762,-0.34297977194736995,-0.6133649870930793,-0.7633988582534246,-0.7111070922151435,-0.7963827405654877,0.5946137489450039,-0.8436903910067852,0.49223167904673937,-0.8112205479853389,-0.30097774376453224,-0.05743103708792363,-0.6991944547907805,-0.9360460605531498,-0.8525982676647683,-0.8629855900080972,0.8319606160557673,0.9730753064002027,-0.10880475246572896,0.4343131275187313,-0.12512111926903047,-0.3990908926957699,0.8319470018678901,0.8853741077631399,0.39119545383511833,-0.8840311645732741,-0.4608247726136001,-0.08474989715759262,0.2767273324995536,0.35771304114530045,0.0025160126655530135,0.19104807050656114,0.3982793326005558,0.39825629109278493,-0.5839186959624205,-0.7611737765553148,-0.7067216531608314,0.4569196453865272,0.69055430835844,-0.7036771642297348,-0.4708755780382021,-0.3980730314927867,-0.9286176073768266,0.6355238541243495,-0.04727781700366673,-0.5174843085884053,-0.6606348445649586,-0.8119783109233709,-0.8696214308938492,0.2392496801755719,0.19029525316808504,-0.7599074553688039,-0.15290696119589975,0.04456691603932694,0.9486873532178846,-0.41037328354308933,-0.8722267662957188,-0.6357455454581591,-0.8364989534244127,-0.8316946669678695,-0.889713992653625,-0.6396316525282482,-0.7546091300688365,-0.33460939617894514,0.22597935462819252,0.2139747515113115,0.14511936442264473,-0.37611224206608274,0.9708938986176456,0.2568432016360458,-0.947833602727038,-0.22475640040910694,0.30123144996082596,-0.6318082762557882,-0.38340219120313446,-0.32414442846748925,-0.6588156302194463,0.6955579146116995,0.8935838504989704,0.671668886166086,0.036974373169637254,-0.9552826972845139,-0.8916495020470787,-0.561630347732833,0.5808101899077802,-0.1544508460073899,-0.24729748615756897,-0.3646854226725207,0.6464328858045747,0.05261182807614895,0.7047298395754755,0.5945857131562091,0.13783394811244065,0.9565902097320682,-0.31788003295624834,0.6073463973444952,0.45332695836151427,0.6879519537084795,0.938585930354537,0.6948092875336347,-0.9895483350231962,0.5280597136828953,-0.31509815917345274,-0.6411327934519915,0.17081291120926467,0.754154283698975,0.8156497068594342,-0.9146430125679517,0.1737212764555387,0.6814102629423926,-0.43093467559765486,0.7906699477664061,0.647138686740576,-0.3903845809255757,-0.3241866826730384,-0.5897693275411602,-0.041273722423661896,0.4699670308279513,0.6019350074933072,0.8775931513936917,0.6442788670916675,0.182012252593736,-0.6831919151584376,-0.575540149259528,-0.6579613388770162,0.011668533115858137,-0.3578075854507403,-0.4751241585417645,0.7461084590370217,0.2967666343454516,0.8537933094760808,-0.6650097741572705,-0.07995932922730553,0.21506142945406626,0.350084489437114,0.949175117031215,-0.3612337144747364,-0.9002142055274007,-0.63563393810052,0.823845998256421,-0.18454286752648819,0.33612757423540107,0.513364077226016,-0.6495610287886961,-0.9888154527825233,-0.6153963901332846,-0.5921978084781268,-0.1581723680963396,-0.45624114732384546,-0.12143717162226464,-0.6911316387674824,-0.5480858762625072,-0.45002864906857853,0.33804403751322143,-0.6914933678713455,0.52288322217297,-0.8664031574096684,0.23493786649782966,-0.8929298600780833,0.3246282140508179,0.3634855317448251,0.42735000949270563,0.1429015870643997,-0.2200234144052351,-0.22757374203464353,0.16094055798953044,0.9730308811160417,-0.9061369173899281,0.8577631984915093,-0.8025588168073763,-0.40487663583588773,-0.49265844769819145,-0.6273907664947038,0.11208355414874127,-0.5752500842326089,-0.04617955964362874,0.3221629232052643,-0.5382127114813098,0.7087205217207964,0.94815311423329,0.6801281310768832,0.7574837758487203,0.307442353006409,-0.6447824142551282,0.12673085281375807,-0.5609119512295837,-0.8018322870918702,0.6336089752464855,0.15963892850643213,0.17869482415655424,-0.16098538086933734,0.5135162304052974,0.10826838997688704,0.6096090427420158,-0.41303383666884197,0.4223009528080097,0.18366538310231695,-0.8304146585765209,-0.07331004792732077,-0.2931503501911339,-0.0797533969306754,-0.8256553841065901,-0.8290990275108494,0.5356831469031835,0.30495552294992745,0.6821210419438846,0.282052111380354,0.8143699259334616,0.5641558042598962,0.07755186659230051,0.5268295818495867,-0.45777935115759005,0.040002221677293504,-0.058383820813053156,-0.5981093395698496,0.8081036355701616,-0.11382201205689046,-0.5459200874932519,0.6808248985285663,-0.9897246682144256,0.47037334325120694,0.13529295885369685,-0.49907829301610107,0.34436892223559723,-0.5420149804923866,-0.9735571370264116,-0.2631385922324321,0.5908969737634131,-0.5078899387930791,0.9570418881751099,-0.21531893567541438,0.3600015957250198,-0.6579216675134969,-0.43761460793077966,0.4852585237480367,0.7266374687458457,-0.4098899481551299,0.4199871829225803,-0.02013062764424589,-0.6483588428606126,0.7453209271246872,-0.796119906031798,-0.8652448033055076,-0.5877523851467379,-0.14944454074461033,-0.5093571432451964,-0.7522298505081446,0.16113827985910856,0.9057816647852364,-0.7859116996887512,0.5108995447629676,-0.8611793037585596,0.8201662825251503,0.09218849551822572,0.7884370393365197,-0.4936850452654824,0.4863491809006708,0.2043412700544016,0.25103062838788626,-0.14071237787376112,0.1884362895048688,-0.9217087068961891,-0.16083608764866497,-0.4427918107223465,-0.09692041432936405,-0.8434459685669136,-0.13962442192578495,0.8405930857583372,0.8271820532898952,0.3340813937038076,-0.3550502836346243,0.4513955335661979,-0.20037791807029337,-0.8520939068516402,-0.38250815652530523,0.15425774398408554,-0.28722145333541826,0.293510517745196,0.9171694386646609,-0.6399308256591385,0.6135022672358974,-0.3301165955702885,-0.235053531338834,-0.8517627633642448,0.22855211180833312,-0.42108706967462384,-0.5864889637083879,-0.6920179438310747,0.8110542182027058,0.24536260352795525,0.8142824730969902,-0.8575348894441808,0.8651357007335458,0.932007299347501,0.42743989680340855,0.22686202270168265,-0.07092574539327323,-0.6784121705407804,0.10090250563799752,0.5895393425698086,0.2053474588341393,-0.21276984443716374,-0.7769668127477709,-0.20472045403836403,-0.9718854442424554,0.3879972878144311,0.14071133613385456,-0.5616969367536062,-0.6300335747840589,0.614711061060804,-0.6513872212307883,0.4253826505142537,-0.5370838715499611,0.7101043226879578,0.20258185846361965,-0.1939060874267362,0.6157591712372248,-0.02643036764290141,0.46957375258733736,-0.908018920782893,0.5485406160527009,-0.828338526884395,0.8696520294812162,-0.8037754849593759,-0.4787265003982779,0.3812374934260008,-0.7668639635710666,0.9623834947609398,0.14046322448211201,-0.36370145727104397,0.03731476490271057,-0.7499005542719439,0.028036230066536216,-0.038854790591612565,-0.5416839804375693,0.8566472810637447,-0.684663443431706,0.16314569578925786,0.1677705237546705,0.49846838753044387,0.6097521915349347,0.22963590901029685,-0.4500120367027176,-0.4323244725475248,0.5261348602339166,0.8143133240390448,0.7549128143036847,0.6672311066516019,-0.1655803005328027,0.6547693884167407,-0.5830238348506296,0.1315455252108202,-0.9097793500863067,-0.3731660067854128,-0.7765112970075763,-0.24366943187398293,-0.7143803469931129,-0.9795439048110914,-0.7357139542381965,0.7094176566954098,0.677912504825599,0.8596329365813249,0.5666065260927735,0.8932766382456432,0.34205531947748624,-0.9064852923103384,0.4114590222874901,-0.754926922128641,-0.4762732684810098,-0.44312210380392925,-0.7607638175321452,-0.9810217436362096,0.9189997972579862,0.302836296820693,0.1877608534461659,0.5859742272860957,-0.7115898054638905,-0.9506018259458082,0.44050331640828944,0.18011851519179722,-0.555989307141199,-0.9398071032604227,0.46039649633797053,0.7604195739212383,-0.554689399359066,-0.5205819828880789,-0.8676482145527549,0.42661946087292835,0.6573609584594913,-0.12173724689773358,0.776761649878402,-0.051888452336902535,-0.5107460706121436,0.6187585392801587,-0.6752778185805395,-0.9467829457208718,0.6602018784639041,0.11672089304891897,0.16759852699237698,0.22915471845929436,0.7253225599409878,-0.3354118858953916,-0.09159452880268137,0.8676232244440829,-0.3936805563372847,-0.8466591272292177,0.2983191358571957,0.10597485389526762,-0.02243320274965277,-0.023942305441860823,-0.7162360072105092,-0.3995060895418383,0.7228400950930474,0.5268027002942759,-0.9915672045480626,0.14838188132119212,0.484866127821427,0.6158835416585462,-0.08236240448366239,-0.14472353175550468,0.8076653322999905,0.30289884790869026,0.1990007561160223,-0.2594963432358679,0.6101833785102344,0.9551878756013836,-0.86548355129339,-0.2801766199074367,0.7684980681563389,-0.2482740565630437,0.6011902294673568,-0.22634726446676812,0.11411900413915332,0.7189087573845379,-0.99068532935996,0.916829491918651,0.7331209067240594,0.24711640396039236,-0.49432102639853515,-0.5825112470519418,-0.5240336269700769,0.9830359408837936,-0.6266368826933908,0.8318980999301462,0.996409208492681,0.8236671746548547,-0.9801881154568841,-0.9383826186560973,-0.8773598625397017,0.36815419717543874,-0.7338294015356204,0.7092842486581195,0.42800160528718334,0.7409467353537753,0.35991182039169756,0.39493623900562524,-0.19704961106342034,-0.9130237925798093,0.9138622830191945,0.5904109732798439,-0.01570539312272423,0.0004066590604785425,-0.01718267360560022,-0.8249283646285985,0.23794659803116613,0.2578178480523772,0.2453212610013813,-0.9225967509800648,-0.8729996341522404,0.33277440097976774,-0.8317098644088619,0.058769933304884336,0.2156691897145182,0.7216644583467899,-0.01733944169360835,-0.6943592995559553,0.4314431914958887,-0.7551916169665898,0.4558534169448045,-0.5408470389177178,0.37358622310905965,-0.44293284889488604,-0.9924483243064415,-0.3583915591786937,-0.794978735552629,-0.09293277466857464,0.8299128841607679,-0.993732716384822,-0.17329081814546576,-0.6562989121023046,0.19206989644270234,0.9437247617215765,0.23123653578966663,-0.9071238492901206,-0.6595736385644446,-0.41133183780297045,0.8981384554585885,-0.46675261456597683,0.9701149168259044,0.720172858580598,-0.6551784153908558,0.1507434967440784,-0.3592294938110543,0.7729000154442851,-0.5118315071291442,-0.5075002675420113,-0.03532382958286173,0.8043051566106043,0.9588928725325236,-0.9526894520724394,0.21648392159940633,-0.24877299930406793,-0.2954275612556023,-0.737613391379293,0.8890438108450183,0.5507001904828581,0.19446523229480084,0.6141056001760175,-0.26418017264402116,-0.3360763580112627,0.6693390580558392,0.4766841338599772,0.48703126295216115,0.7777059831047259,-0.6704915844049844,-0.5220632127822613,-0.8631612043454342,0.6596814536505802,-0.9545726213235608,-0.9971149850174257,0.28486411508500775,0.17503942504792214,-0.8505602862888941,0.47799295986015333,0.43003196318081227,-0.9633530584405281,0.8329159568766349,-0.6026416024886148,0.4581376067274643,0.8627541474532043,0.7099322646578181,0.2259524766864356,-0.46876529205505135,-0.2808892987282017,0.047614018896284804,-0.6708295752182363,-0.49569450946244475,0.486020718689842,-0.17263006677456572,-9.096436625943838e-06,-0.7950331772169505,-0.5926614980846066,0.41239382158846993,0.841804465389375,0.18721418970078907,0.33078694164117795,0.10018093303716613,0.8212962072840415,0.16505419093574325,0.10772051893444101,0.29870845634114773,-0.007237304798967559,-0.19296658689153867,0.9751729769439108,-0.638552689028312,-0.28951022531851645,0.3702051490473808,-0.3850311118984948,-0.45145925609161663,-0.2648394610525251,-0.1248249648154871,-0.3967279079488668,-0.4707448869424007,-0.09361591447076845,-0.8904048827296482,-0.6239245241280935,-0.9241418926212601,-0.5569004356254335,0.04640055489535144,-0.8313371282927984,-0.5957588314869444,0.8878289152233898,-0.8716017240126903,0.04084623635887907,0.8877370461487584,0.8347682801579219,-0.09893820780159635,-0.21640465949675347,0.6353205726551274,0.14046467047913636,0.42465922357762076,-0.020809640371785898,-0.670734466669674,-0.020187628697030613,0.10475871823208704,-0.67192941622886,-0.002807129182120116,0.15148294236998971,-0.470750711503263,0.39746537415522076,-0.778495431399697,0.884563430843285,-0.19384740859752858,0.43607859220613165,-0.6268206962458502,0.580996757814511,0.12333073635571501,0.5840608007342416,-0.3927908276826584,-0.8156911754786085,-0.8841861384993313,0.211096681466048,-0.41875036586465075,0.12344332171892147,0.7320668346723844,0.10323473267547145,-0.8293121497358511,-0.18191408011441412,-0.8078721850367552,-0.3237159263146612,0.7422143308723548,-0.09945764959426873,-0.31014526487623306,0.6244248731178501,0.7281632263870044,0.36978462419458924,-0.9654160267029477,-0.334008276094663,-0.5703889986464714,-0.5721062243034802,-0.6256234967102832,0.17925563872024042,-0.935644753541379,-0.3513619215397179,-0.23960183512195288,0.6563629443929231,0.556508157554054,-0.2782611005876885,0.6808235041355573,0.001012532283603651,0.18967953979175256,-0.5048855553491878,-0.15084363919598798,-0.7074008600263386,0.15459918843243714,-0.056979357301661704,-0.8350131127592362,0.2506454541869838,0.6428644547632072,0.35999045979950095,0.484184702499445,0.057474735223238316,-0.854488650842743,-0.21911551149509956,0.001658866711160556,-0.4531128310068382,0.2802873042851628,-0.8741469670746491,-0.1941793695445566,-0.18340126255013156,-0.3231244725008986,-0.8885288032677618,-0.5101255209647413,-0.27569254333619897,0.5493842504086541,-0.5825035000536689,0.28700415783407185,-0.7421484443057638,-0.8490990387815869,-0.5944580985679913,0.8841225977580189,-0.46315906624382275,-0.1746473298978628,-0.48632777189397114,-0.38320041216143963,-0.8487290914073133,0.32687192955103095,-0.9898223780803523,-0.3715256411842074,-0.08292334606661123,0.573666324522903,-0.6742472312042347,-0.7253807316805596,-0.34033568803684466,-0.787479154778592,0.6403293947080011,-0.17890769174097754,0.0274821765970088,-0.3169463035631739,0.09868694631932673,0.5796180707631546,-0.7792599323498246,0.27124003103249295,-0.9398399253652159,0.8908740208529189,-0.17243366642570956,-0.8577849063821203,-0.22738019982433566,-0.8305920957359432,-0.03602291279249603,0.5511942718871681,0.6902708167944516,0.08544169725301987,0.017370494243070356,0.5118951250058534,-0.8610197946836886,0.7744578259609203,0.7107725398256197,-0.455388311938032,-0.5266929587297489,-0.6199107407339048,0.8888400729128318,0.915833124800771,0.6970947191335157,-0.04140942128529668,-0.7855538084681224,0.22772707639414258,0.778735713637067,0.07815627982758744,-0.3653876696306668,-0.7798847151320321,0.13855111093524108,-0.19820943655176682,0.3694901546754221,-0.15527671540205756,0.009408526253481542,0.488954727703099,-0.8862357887325045,-0.07074972471591678,-0.4760030080549571,0.5091188444889119,-0.20106504043914208,0.563531841932237,-0.42030795695451073,-0.519654779880965,-0.9091830737204514,0.9112355808742341,0.06896026713090819,-0.18316039341966928,-0.2982168670905023,-0.7942495370048797,-0.49507023990834487,-0.6739022945393505,-0.0683899860307331,0.8780366308693965,-0.07101256653714438,-0.37083968595407346,0.5152071770853612,0.999226886429383,0.5013970019362137,-0.7204012982953854,0.7860935224453516,0.8977180058332104,0.7229492007113252,-0.7213762747321069,0.6780957507475489,-0.04193696720729134,-0.8358647568742275,0.9214721496370983,-0.693218844267077,-0.04276185752946571,-0.20841907988153574,-0.15951723372092896,-0.8510690567248906,0.5894038918482276,0.3237134946532785,0.4946592913369927,-0.040039905742247806,-0.0874907383462935,0.0352776281673608,0.1809463256834818,-0.7190649289265603,0.20100014872773397,-0.1529119330538058,-0.6658365206856018,-0.3506437719038733,-0.30341615679983525,-0.13548995005787212,-0.7369816557623099,0.5381830156085696,0.8662552459410096,0.798514421265083,0.4749657262502347,-0.9825900100792588,-0.59645487119851,0.8832408972926662,-0.9598634523935823,0.6044584943800566,0.3009986519226049,0.5901485671283702,0.8269895330377677,0.3232120552153588,-0.10337879719754772,0.4612941182608088,0.9928834935105479,0.5030844854684262,-0.15243926727257207,0.21985225099000538,0.11067373566941896,-0.20991141628113086,0.8529038548681567,-0.9197104724399257,-0.17859713093286755,0.28341076565401946,0.03882687097297688,0.8356005960251924,0.45403030537411815,0.6308035122400923,-0.9866556309680679,0.5287126480505477,-0.5612382084564973,0.3570329362109026,-0.7391497610907671,0.8375290857638944,-0.06537146982343978,0.47787576756414163,-0.5356778717620732,-0.8166975075036305,0.4032008756030385,0.3312114556342447,0.29946679167539325,0.03072611698578176,0.8850516023811337,-0.2036215537826127,-0.7803626545261864,0.7084593152874479,-0.4735774362497165,0.7759716407240091,-0.49549762678647835,-0.42100461103405307,0.8629806149744874,-0.31139367114226735,0.8328173052588312,-0.1461642221437014,0.2673295395672719,0.05670320886943858,-0.5586928564667697,0.8625338626276655,-0.6101188388702932,0.5187623918787148,0.6245419636431784,0.46367815404724455,-0.37061984514313595,0.08575216834585975,-0.7589313203193344,-0.5740663556806891,-0.07476994910838308,-0.049978332717261376,-0.25589876389977384,-0.03601278361825311,-0.23766416927162193,-0.3428632187854279,-0.02329373301073856,-0.4573394899346217,-0.11290497542665134,-0.7215889201990229,-0.10725527737501328,0.8958226172502419,0.4494555346555029,0.8650924777405014,0.3891648327218009,-0.8067586532521513,0.19831223293272116,-0.5416367661396579,