0.9224685182884449,0.2130886367056184,1.8283363810016495,1.5363208924968421,0.9950546275340844,1.9363872479276347,-1.4022765530531216,-1.826498573652676,0.4371577517609109,-1.5056999289268518,-0.9829929142306448,0.6899954521142471,0.901496319879354,-0.8272583969566432,-1.3630946121000314,1.9114096079402727,1.532166744802438,1.5808449352154699,1.9415990493179116,-0.834296985541708,-1.4745016055770193,-0.7720516540574187,0.6533607424387387,-0.4527423698602613,-1.7406190786313211,-1.663890430212572,0.7737334931264459,-0.6147246694612649,0.9006485084868134,-0.34659405501034923,1.912627553914148,-1.6834600614135296,1.9800622146832443,0.5598507464763962,-1.4452700742290716,1.4811758319752473,1.1625639132367072,-0.8259494647627164,1.1365833666146203,-1.5687896014322735,1.9948979954876216,0.6546038656337694,1.2901028715449523,-0.0019562409790339075,-0.48694090385708844,0.4919014215844979,0.755058503820329,-1.2726915013748004,-1.7400685815409034,-0.32390104110374107,-0.8375742660158467,1.5703746963833876,0.9338415045746862,0.16410716175304518,-1.4301650575936926,-1.5002907069914717,0.34245870769435527,0.6751043609048968,-1.193884472116728,0.4109382777390267,-1.1925259131099297,-1.5309810084780886,-0.45563966328559724,0.19881531077405157,0.5542131747699237,-1.3354834857007543,0.26646341594904754,1.1597351946158838,-1.0133576492092224,0.7167568714140056,-0.9597418336125956,0.4713717652245224,-1.8986765235774086,-1.3474266333124723,0.8505207160455335,0.9113919843244349,0.7091203917030091,0.8657089105836242,1.8798494964044368,0.13121319582524116,0.19763461593642573,-0.34321210909624167,1.7225985287324739,-0.5880448621265644,0.037900450133006025,0.35826258695775914,-0.9455816079814969,1.562967616166672,-0.9195298258969502,-0.9852718784533328,-1.149612970907294,1.3003496077863703,-1.0142121287849193,1.748232471271539,1.9565470799412599,-1.6486180526170284,-0.35466278543248464,-1.1350198303453563,1.6076557098299133,1.9101766761425805,1.6412364464268712,0.1670561827796071,-1.9330577660801125,0.17771267995052265,1.2406449336785008,-1.6280708034469895,0.20970048083207793,-1.26362838443353,-0.04739263168801244,1.4200826359125052,-0.1879381582850188,1.2455786349469231,0.3460451639983466,-0.7680345100089778,0.03822100330059053,1.912638507673714,-0.7984498889814402,-1.675287212516293,-1.0270612898473939,-1.6476969671504427,1.503757027008136,-0.8695840364851004,1.8995749328626013,1.4012407769013135,-0.8475274194503202,1.0081180528741278,1.0112899152129526,-1.611893726723943,-0.786369868149333,0.6870475561171236,-1.9141900202410933,1.16029267271115,-1.2930670951020153,-0.6513389348963821,-0.8452458196628778,0.8681953243479135,1.551490415417697,-0.6452209113005076,1.592326216326259,-0.18065106139644094,-0.4198630112689461,-1.6862103241861464,0.21706438348030632,1.433334710590418,-0.15972089471775064,1.2614201889296752,-1.3754732500776137,0.5844138946609156,1.8979796048813067,-1.9559613640607982,1.2879692944188,1.9979576087498683,-1.5963322642291753,-1.449434460466442,-1.7778868323615362,0.6120998029789515,0.767414787287287,-1.9302116822959494,-1.8146454054633447,0.2382124949984874,-0.0929241741856881,-0.3735257796783049,-1.387798949519107,-1.085887140630462,0.41306441839042085,-0.4145768213927563,-0.5526114581416626,1.5063675520759796,-1.1280522037701832,-0.9141932286002277,-0.7310107532142691,0.842709057165695,0.592447167349627,-1.6488069612889404,1.0448957008663347,-0.48356397768463877,0.7733694504787212,0.6791854036457079,1.1924603432667875,0.8844632847751761,0.6486088112517745,1.9921723866543442,-0.9964930727419095,-0.37066752698861904,-0.3157560527010017,-1.5569724583816775,0.5873009613409721,1.653788355158726,-0.7167368728365857,-1.709945400099044,0.7500203536167898,0.5654395118294056,-0.745125015247575,-0.9740897595659397,-1.5541596065370724,1.9812298060212834,0.5374876908996669,-0.03652741109810531,-1.7144174124425668,-0.8007146569122203,0.7282434090406222,1.0262997521321724,-1.3441149612686005,-0.9004492182745603,1.5712937759474217,-0.3862431195913678,-0.9293453729900003,0.6483588171218639,-0.2469448143122306,0.007585631000972981,1.4614025034056537,-1.7015439551368776,-0.4674580529184218,0.9991923011845114,0.3101808076282291,1.6416719293995579,1.7776058912386627,0.5904996132687863,-1.869807289710347,-1.7528830531583415,-1.998385805296615,-1.7551605767495868,0.5784693333739392,1.9180608244884874,1.8477061852581653,-1.5612016926356342,1.5367918431064536,1.719263500676902,0.7378791429003413,1.6899164305686787,1.8863924012456121,1.8293223662751799,-1.2066365335325893,1.0388727167542022,-1.2685337871085673,-1.0024893332583726,1.6278061799682395,-1.3053187764165926,-0.8649615072786228,0.6399420443598771,-1.4060826121994716,-1.4145036340776342,0.32100576928674895,0.4559799133896698,-1.9152339703989174,0.5642562848143693,-0.2835528944302026,-1.6016108601346004,-0.8467916931709367,-1.9906434658587666,0.2506016525622141,-1.3179306455253936,0.9422161670401432,0.40056546692402417,-1.2938649701681504,-0.8089213417923555,1.0838143914392995,0.26693936272632435,1.2908874354772495,-0.03241694158176944,0.3625922659173897,0.02881322596303626,1.099648869406463,1.6659156290165713,-0.054693053492920196,-1.0720859641812894,1.3081146056563089,-0.7522976181351155,-1.2058141231480293,-1.859653050240611,-1.0258597971891499,0.2744023591944784,1.480680022881478,0.4055126543568295,-0.5777858328375194,1.0916180878194721,0.807533182808482,-0.2335328013166511,-0.9057904487810782,-0.571349523730591,0.4779348844504927,-0.773770569248557,1.5560694541070048,1.8603087364527493,-0.46744416924419285,-0.80552398799504,-0.5660483880494187,-1.1438476854868926,1.169169799086255,1.6873134952505735,-0.5242464910192419,-0.676686221259716,-0.34501372919980966,-0.7341020397926097,-0.04083041569868451,0.03317479377842503,-1.3241391724769969,-1.7470490823529965,1.0278476125646088,0.19615287200173537,0.5575828017028059,-1.9244386361281292,-1.4205748101189246,0.4795237817492102,-0.17159734844552288,1.7761540284885537,1.5673862762584134,-1.7792362811067326,0.40526495027455844,1.0284576142061161,-0.7809105968115855,0.23828560108779806,1.416679525064497,-1.2542520007738744,-0.7187873093918689,0.5200793270325468,-1.7957787972905188,-0.5736437905704617,1.635577760658144,1.4855913520662263,1.528103776260771,1.4186334843363748,0.24820887447851359,0.7709436801306104,-1.780946574308433,-1.6653065911084424,-1.1423234364000279,1.2930937065261388,1.7623351213665237,-1.7511672577154718,-1.0166407922528498,-1.9551168093016624,1.6576524227804041,-1.5883178117294645,-1.870290991949532,-1.4169751873535694,-0.18477208937208145,1.1205022830077045,0.03307575314925337,-1.0831913573634906,0.028909570886167746,1.8485051445209506,0.5247556921318188,-0.12704948948179506,1.4737704736079489,-0.9210867573868806,1.8581720350685695,1.6278923844564872,1.4699728390115685,1.9390037561350955,0.8477749243218584,0.46863757180799936,-0.0977175489920965,-1.964936155957425,0.4564420413427812,-1.738555637801333,-0.5258035540813579,-1.6625773765438878,-0.9499830698398513,1.824529655558889,-1.6462316059785778,1.2813049410712813,-1.3677139585627671,-0.48806201432604235,0.24168807072780973,-1.5368055338567546,-1.7483970774536632,1.869845830809373,-0.7694117334241195,-0.7734896446840276,-1.7018601294589892,-1.471742618078923,-0.6818221614178168,1.503479804926826,-0.9662875440273635,1.3803593902288167,-1.4933146529437682,-1.412877204490449,1.5745348475616257,0.09884712870586876,1.7143598277118115,-1.4426232172139755,-1.7763433807187936,1.4568874777258625,-1.5501657255119823,-1.4627720200858394,-1.3735677109013817,-1.1746315065043844,-1.093785229173279,-1.9458357476574517,-0.1328982865633237,-1.1757379515426862,0.23103310399869947,-1.930214805207446,-1.6369538562227781,1.6622100188865851,-0.9261631150792491,-0.5272297075166703,1.6300520733769184,0.4287696251805819,-0.21933344485040518,0.9434561421031216,0.972454257980734,0.9427966761042827,-0.6003393696800328,0.7003105009355264,-1.0336671119472811,-0.5965400016218396,-1.6909409359789955,1.2701314097526466,-0.13362082914458506,-1.0701490906718947,1.6015282604959227,-0.3311858849793978,1.4263417520768034,0.2969946245636561,0.47833872415277856,-0.5182797834885315,-0.8634182615622548,1.1314967881641436,1.177770112821463,-0.25181208486567597,0.8810686014894298,1.0529894997502862,1.433577938364293,-0.535268796688408,-1.0505058086289312,1.5576202573852642,-1.5983437785878127,-1.3009882365455359,0.03396104755577323,0.399548488159124,0.019918661315114772,-0.5737293280152937,1.3385489606695624,-0.12941337341575965,0.2043491657208678,-1.2875090707129644,-1.1511920186968911,0.39933198108708234,0.5438764033826122,0.960957771285281,0.7190624056244079,-1.14320622883784,-1.9196775934897965,1.8803196189088993,1.4087999587980056,0.5963673011552482,0.9591826381252528,0.5832422827544472,-0.8113158838963361,0.43147928710697947,-0.6391547011291911,1.3579742066080298,1.0676819356600848,0.7140615561185242,1.4658179611121644,-0.26650922170950464,-0.25289923144120374,-1.2496340254038816,1.7908653012551174,1.1412366213616214,1.4704335208566008,-0.4227938149012216,1.880307358725687,-0.08041698653284435,-1.9169576010510414,0.1476593371899355,-0.8272200993006824,0.2829898207897763,1.2031342383906272,1.4468494924663426,-0.5601210623433572,-1.7744560322890424,-1.1639525349309707,-0.4127063060946483,-1.9515550667770074,1.164167990972993,1.358651487626667,1.7959785838844096,-1.349746027751476,0.43361601939310823,1.4144292321073935,-1.8773453024149407,0.7529226424791715,-1.5130576272623317,-1.587662630391256,-1.298613787303586,0.12415046698558863,-0.6471342657132406,1.8916545973913843,0.6727255424327199,-1.6851315527957227,1.4150578165691696,-0.11411152997697149,1.2258346556315236,-0.7597223775657223,1.6098082169363135,-0.8658580456696092,0.9993331875200386,1.4008173751238555,0.5144784475820345,-1.9378732498579083,-0.8885827964790738,1.9381656064298478,1.6410571437040327,1.1486209121326354,-1.3449409650038255,-0.7409423187819164,0.05214806832460939,0.176092650009966,0.20603000362175639,0.12069606764505236,-1.488586139457715,0.6188033815288931,0.09731978542172603,-1.5327701962845484,-0.13206829796548902,0.7307606595154428,0.7661928077898552,0.2097739383745627,-0.5171811778622142,0.9177254453932941,-0.3144011425339759,-0.9145072369276042,0.6986009033306408,1.9222569224740411,-1.5660619189118643,1.835688117076212,0.6543289290280305,1.9206516422063973,1.2424163697454849,1.7364487063461183,-1.3749627827929212,1.3649235707755225,-0.594637440681816,-1.117944905799746,1.9721008818687054,1.931269263957347,1.6327284377638338,-0.031143504912436448,-0.9827734008051032,-0.9397062898405637,-0.39938360288269736,-0.7722375665871279,0.2962359467012967,-0.7191773730824509,0.2019630389883167,-0.8700126744575525,-0.1375477008060173,-0.20478064956507858,0.6779307098263438,1.7056084399382976,1.7611779028522871,-1.3358676223521857,0.4590009657016605,-0.6213036800620677,0.6298741546622848,0.947003706561242,0.027234239067586596,1.8177983523802421,-1.6653566024108546,-0.9124918030913554,-0.39658452999182314,-0.9713244759880926,0.375558759921212,0.5939423633068737,1.8935294751338745,-0.1886089587750881,-0.5141155503715229,-0.771376703837714,-0.5153299464948762,1.7086700781065995,0.316591761234593,0.8075389159876707,1.8380328014495295,0.7171575985794107,0.707664392699864,-0.2540428784266364,-1.6654428363063118,-1.0956781358769438,1.8573854307254267,-0.9662993448885655,-1.1526113349497082,0.7271198844039657,-0.5433310044041617,-0.6334862305531193,-0.08824814719813201,-1.273287640776215,-1.677457176108173,0.4630061279181188,0.06320924403496031,0.91529979306915,0.4781376364119745,-0.10573780400112964,-1.3890028751734431,-0.15423335011636263,-1.4148393091809188,1.2109371511781215,0.16497441208361785,-0.2933589653232822,0.404920044398847,1.7439355218213608,-1.8045630740745033,-0.5515707070684881,-0.03154758184515094,-0.4908987316002942,1.544544844521377,0.6037829657336564,1.5892758063597396,-0.4888637148713637,-1.4981099348434483,-0.8770913998417975,0.6662828727223609,1.691766827876009,0.9505674760712859,-0.3361845833859154,-1.9073382421194949,0.673934705423914,1.2430897121376883,-0.10881925893369271,1.9813361448094073,-0.847373676136173,0.5494004280056828,-1.8196256666921338,-1.7156281439039942,0.6357064359032596,1.4703022563827979,-1.7433726655675166,0.9773537744092429,-1.3845292194596213,-1.0123235036633975,1.9954552115140558,0.6499008377501299,-1.916327905428643,0.194273486278163,1.544924351510856,0.19081032150594668,-0.9118452610322794,-0.438881761833819,-1.2080135844915851,0.6870712475648943,-0.5335867266859768,-0.18798595783917627,1.9213168691280162,0.18210011471137344,1.7743194319767137,0.8508571179774065,-1.0390032904941737,-0.48791547805644875,-1.5356113067885446,-1.9458553540587875,0.35703188081246084,0.655586651236415,1.8002394275372966,0.06966222067047267,-0.9011427596725712,-1.0837605677888011,0.5470180143626551,0.21456139943769426,-0.963431940578328,-0.08433063746847269,-1.7272185445753938,-0.20149806207088083,-0.3929782259393244,-0.4785999432410444,-0.5553785298833045,0.701699773582785,-1.3746992256559372,-1.6654757714972952,-1.8882616436167186,-0.7241686745332401,0.31789875480645025,0.0693376256440188,-0.29412413481322064,1.2975742118931994,-1.5093061079776695,1.2987713667750977,0.6403684860224907,0.6883757363739011,0.8200952519746636,-0.26430966728410654,0.01411786554177974,-0.5121364004185369,-1.677468082051639,-0.8829448437987124,1.646078417714389,1.254258498947229,0.9092478611819543,0.4015478396562089,-1.9805212886299826,1.6427724602055558,-1.0856081050651003,0.20770449951246395,-1.5397416450696468,1.2177381871146662,1.4819442426178955,1.0765276339670313,-1.56426704198882,0.23622352487864573,1.6154056647009964,-0.38111425166266377,1.9827210974218024,0.5615724359696581,-0.2002923088813855,0.24915464956181976,1.7863202196462207,-0.45447272817680817,-0.7489559936930785,-0.8124679560340882,-0.7278161135276635,-0.26197639585179155,0.7213129645352563,0.7434169908940649,-0.9183269833953647,-0.8641376105039424,1.212335650033343,0.025041814678844698,-0.843627530420942,-1.3965425890222471,-0.13308536670658677,0.3851461437221597,0.8041286917576715,-0.1235397287272133,-0.9171639770136961,0.0790752986754395,1.500422169204807,0.8181344536987689,0.3245593180038,-1.7486721260267206,-1.430596602329703,1.2475436715350443,0.4163473388161667,0.7934090694316671,0.162380019942713,1.8193959385303362,0.07361335840902639,-0.42449037855251204,1.870115851126318,1.4477627998322378,0.21375589297494058,1.5925143194305664,-0.665034159560614,-1.8108421852843675,1.5020107108589982,0.5027145359528009,-0.4113552347992959,0.8895682825166715,0.3991649488814919,-1.623763662747895,-0.4844737508733101,-0.17815109107590876,-1.5738400945371813,-1.4102899409130503,-0.3649211624919384,-1.1711511722356303,0.9048662363832594,0.8429713262561331,1.1926606815059886,1.4059487030372004,-1.805974064287343,-1.8562953340073967,-0.6394043573313941,0.3703183401889394,0.6005835656261178,-0.6790728944486517,-0.7103213380411746,1.2600587811601165,-1.4708169020571873,-1.385879227311957,1.3426569737298997,1.8300077713570602,-0.51744987807287,-1.874665619738228,-1.0609154741852111,-1.7457226666732812,1.9702763255223807,-1.2762095473541422,-1.8847261031123588,1.226134519720072,0.019205448352411114,-1.8547636479618967,0.7150071395830455,-0.8886899668728812,-1.9745336367907296,0.9009699617625708,1.3049505993192398,-1.085243764933788,0.7287295041398365,0.7656154486628073,-0.04972597335990647,-1.948443881965071,0.5212151589608571,0.38265512826804304,-1.1775944491762766,1.9162933085311042,0.6063644397725381,0.9482170829798111,0.4935571851681928,-0.20778869305331948,1.8019042716387643,0.17684343815757808,-1.3201449238202891,-1.2259896690159175,1.4018799559757178,1.6341480334203013,-0.16645281304363202,-0.14991223944633747,1.5304916548238068,0.9768849887154505,1.6483157919658837,0.08981507478085682,-0.2084941293071223,1.8170830685779764,0.7592672953989523,1.6372155090673122,-1.1592564654413557,0.7627894800587276,-0.4200968280050992,-1.4908635964197239,-1.0975581958428058,-0.855780469592708,0.3702049742428466,-0.04861855437370366,-1.9714581027820866,0.6512387987844495,0.2149331174735125,-1.3392333445109958,0.3661701209229151,-1.9666912207972644,1.0652992942080575,-0.601098408377096,0.8737314629033803,0.6089488344987117,-1.6446314390785521,-1.5481654242207465,0.5961646196108239,-0.9768843274753243,-0.3575819371655258,-1.5254391272803232,-1.1913922950567235,-0.8750590496289883,-1.7716343865980684,0.7067329741102366,1.9564529404093562,-1.0454276941476057,0.18348568219381445,-1.8133271306936734,1.0049227996232193,0.5516907499259669,-0.594983969279463,1.6577115026077078,1.033795998878913,-0.023854115558679112,1.9962681178693833,1.3252494680970526,-0.0682134250389641,0.35069182152926714,0.09136243755055462,0.8509359781398009,-1.6877021119847253,0.09545983331697183,1.6234166194396185,1.392846309679781,0.8729460902035697,1.440806179213705,1.9175147794481524,1.0181208650246534,1.4362835471840283,-0.07166102035328059,-0.17437481335535798,-0.22213989476416307,-0.37950245239159397,0.6199848589584933,-0.4761895044210114,-0.5743426224270141,-0.3660834824424888,1.211376782997776,0.343064640495399,-0.2093403153375366,1.6483207297262061,-0.2118461155969258,1.7969500591278194,-1.2036888760269684,-0.2570961643383347,1.222118710260128,1.587119392068867,-1.4744243427227786,-0.5522067599221443,-0.9147726601365616,-1.7901465836740855,1.8839077355740956,0.48699412810788356,-1.0038321057071444,-0.4144788034915541,1.4321749342889865,1.6456956987859077,0.9296562938079616,-1.222229279615687,-0.8498883913558024,-0.7856379309375332,-0.9262600521314845,1.0765663158270762,0.6376461566947831,-0.7828293159627315,1.528728056449765,-1.1519344897761483,-0.3579505815481481,-0.9936149865217132,1.5926785615366317,-0.39487222968358715,0.0608102056642843,0.5477771574501329,-0.32819946704775793,1.6174998851937428,-0.9963572471221012,0.919458812342433,-1.6651789849287129,-1.5481456868810302,1.291870808129647,-0.5245269807748447,-1.4094643687692732,-1.214846893677365,-0.8117779960613523,1.1846737252110406,1.3210713219747445,-0.9307022410127739,0.31167167903245385,-0.1236006861049086,1.7277051693631837,0.29288915677138094,1.0939000832383883,1.3843640321370927,-0.25565957794911753,-0.32857232240829637,-0.12058021961864585,-1.6614209091239545,-1.0614688105566619,1.2170596409024323,-0.2979434813881512,0.5029229458205728,0.33635064345053145,-0.3713308859984803,-1.7348122436842863,-0.3744636431978403,0.6490940324343666,0.08049826239172653,-1.1726264100012984,1.138875433666401,1.999130591838215,1.5320455468230985,1.2687899627370944,-0.2089660049176878,-0.08983754234905872,1.4850940328163804,0.2538138639809313,-0.7530764832460353,0.4927920632422409,1.361283204559478,-0.43695324385732714,-1.9463459711179216,0.21367613801706575,0.6908333734140699,0.2909509460211779,0.8404175022468885,-0.762959212662925,-0.4178612676692266,-0.9495340849511362,0.27210813724868377,-0.36585238783303975,-0.22516079482285445,-0.508309078124912,0.8468965149045413,-1.186326864466091,-0.8339674898437655,-0.21790138357133815,-1.6301101290164794,-1.9379779274578333,-0.40072225759878277,-1.9263027687350829,-1.1317677823045544,1.2826284539787824,0.5642659781327137,-0.6584936261125605,0.38118075025274356,-1.1606300615132255,0.3195329133266873,-0.05189120261005353,-0.5007713185377618,-0.4989184380665974,1.3129412533436322,1.2496951876621956,0.42178169192368786,1.0434340775797546,-0.3417464218969828,1.4554652148497023,0.15270364102683498,-1.8517335596918763,0.7461997932634734,-0.1815796086413175,-1.1269250286686425,1.343571292975716,1.5199941579670413,-0.060278715635446734,-1.5970574931978923,-0.16765214282416263,-0.3711452766555303,1.1355712942994254,-0.021547178595144434,-1.2224985990557844,1.832301205382144,0.1603873738744972,0.7765164141828858,1.298668216227973,0.13420501486816905,1.4592349410286376,-0.26857450033432917,-1.433577931755575,1.7985013996872974,1.546855151826561,-0.6636716606761821,1.2866425086092206,-0.2667473280479009,0.6372331479053321,-1.560957125306245,-0.36125193442110515,-0.8188642213285915,0.7848175150161856,1.248740865483005,0.8621827361717922,0.9159092737157861,-0.42300654971725926,1.8150649550526365,-0.14359243771815144,-1.5167272646416237,-0.7380290343000397,-1.5515551741973743,-1.7104808174700397,0.4694658752268359,-0.9742567467665535,0.07644206371792395,-1.8280483636986395,-0.1767577627636001,-0.23745446500258272,-0.8680439599351732,1.9843022648547843,-1.7648975931416326,0.5465565211265213,1.4795384258824886,-0.31279666868293443,0.1894250987160655,0.48315388702334916,1.8440560808961082,1.3702694142573497,1.6074045427229238,-0.7953067132697313,-0.051689092643993906,-1.1616805577317821,-0.21217462715407187,-1.6671133501166415,-0.36992465329139224,-1.659931437472134,1.554338266344097,-1.6164374374665478,0.9140175602901781,1.071339316526362,-1.116847698275648,1.679615004937081,1.8015980185389826,-1.7773754155783354,-0.7609193718925185,-1.693391114275034,-1.7367367465584262,-1.6174873477397744,0.4524705363138799,1.440259731039022,-1.9295776970162297,1.8396513834879422,1.3683010626920797,1.8556739392857704,-1.947445602590527,1.9843147324440626,-1.9488379217441905,0.8979263534282773,-0.17794598473191225,1.1390140231213555,1.774249981206542,-1.0160800057705393,-1.9567946460568737,0.10610943143724816,-0.7614255713720142,0.6544760615149703,-1.856401061697745,-0.7699641650507432,1.941159375167088,-0.23498519039240984,-1.6739542232862714,1.950781597923109,1.2652188054206785,0.8257071335068917,-1.0966163818049552,-0.39005991771659776,0.6629353498757302,-0.6532498360461934,-0.23301129104228346,-1.9735789351898685,0.2595186547218975,-1.2806239118858844,0.30857393109495135,1.4077035353209308,1.3583579593940516,-0.5054503894790825,1.7473904357671555,-0.8655060700201811,1.9592652903649683,0.4941526199838715,-1.9187746889506458,-0.6192976452457639,1.8517563874117053,0.9477711291022377,-1.7316353225359729,0.6863397751314064,1.1177415354612719,-0.4644913335852672,-0.5857844975235462,-0.36368591469726086,1.0332646519069355,-1.8235533351959674,0.6341712847180174,-1.3535712801546986,1.8655835568040269,-1.4398591924682997,-1.2646606722568863,1.2699798430459923,0.7360713518460469,-1.8673974774187023,1.7249851885363672,1.26604084892976,-1.2433199443156746,-0.17955228448658112,0.3297212709126831,1.8985219729200424,1.6632710393701529,-0.19827318534870697,0.5882975029028628,-1.265808847588299,1.137036623512774,-0.1259132626214967,0.2311859991019749,-1.103947428804013,1.733310128789188,-0.43764453623213306,0.8572399461695452,1.203323727455874,-0.9336254415396614,-0.3687098066584831,-1.2229802236834693,-0.5657877020744944,0.2930375327777539,-1.5405334444718175,-0.6287237699810091,0.5097276653636742,0.13045627263758108,-0.6804705163628912,0.3466350851876032,-0.07130023340204517,-0.4853545361301985,-1.478441764496175,1.3167542995533879,-1.876190336499211,1.267494088743816,1.9341914420410191,-0.4972754075679777,1.9848634630906146,1.7321227408413784,1.3730872084795718,-0.6308763457006004,1.9286542498768298,0.6997112320358263,1.4565310599482442,1.7739733532628774,0.13803907861629972,0.2792317184097839,-0.7244641222360628,-0.7849009327305407,-1.6923163869516693,0.6661273175159503,-1.0256061030338315,-0.3018529682382116,-0.3199837954482754,0.38994410506918875,-1.989233984332786,0.05224227638976675,-0.30528450011321295,0.5069952404522469,1.1242071192712721,1.6674945435684219,-0.3661450119920131,-0.10469023400767918,-1.348449078840285,-0.0022910339910144906,-1.6240114518204432,-1.3173560970416633,-0.13885060036347063,-1.1366578730759245,0.8670468341115245,0.49908030084991317,-1.6319732337591137,-1.9128463146720676,-0.18945412611478085,0.36146882213580156,-0.3620034060946975,-0.2054436059649314,-1.0421626776348143,-0.8434304342641918,1.374032317045192,-0.3412418954682295,-0.47665828991994275,-1.2251428558431425,-1.4986504703262118,0.30186947262659336,-1.017458213500284,-0.07148306030610208,0.5259736482151078,-1.1635308723305569,-0.8641075168615329,0.771927253210217,-1.312719157632313,-1.0531344941514251,0.5094933889663031,-1.313016453698601,-0.848630324087285,0.3777853924821817,0.2405926689790472,-1.2519552651408827,0.5569881827475833,-1.7576101177936208,-0.6227268009615288,0.6199548548130114,-0.9742148808900266,-1.0521074575741127,-1.6856368493444718,1.13370823148674,0.9388736710864158,-0.9070687449204278,0.3968225093867046,1.0985240525342452,-1.1177589497543945,-0.40506343684855617,1.2585589340317176,1.7040964522154862,1.330708362477663,-0.2971878743120202,0.9824799207015151,-1.8561366780982471,1.3596302796985773,0.941749609486406,-0.8282119444273182,0.23734321421065196,1.8770182849398869,1.3916018507262335,-0.21718013961132288,1.877808357622603,-0.5694013667466531,-1.3892972500314773,0.4493420936842285,-1.3124030827646065,1.6467927327466088,1.2285344604552249,-0.14054162684934024,1.5088309269523736,-1.1468012200475832,1.8159715454074812,-0.7530815064162479,1.3297597986134164,-1.3578142361505092,1.9012166233100776,-1.3254733782836992,1.800456576384089,-1.33623968232637,-1.944706223237341,0.5277080503161895,-0.7202179150441546,1.8583869441092502,-0.13136055358164267,0.3943202834209196,0.27319943468658403,0.22659450354168653,-1.703241996239666,-1.9674968375834951,0.174932146852794,-1.607145002285348,-0.30254803241551853,1.9045901532796767,-1.3388406602530383,-1.7141264875813795,-0.02205653507638372,-0.9469568413055476,0.9493903507406372,-1.4455178199565264,-0.5706909131906293,1.4011182865149179,-0.6423468412076643,-1.5832599897267974,0.6299863710563658,-1.4609521252069242,-0.9874626389846468,1.2709945881755917,0.584145701955272,-1.8815217971129794,-0.4999728424148362,1.8680084217777368,-0.7194033792398211,-0.33235309084367115,-1.7629800005022238,1.2017078631833558,0.9999036941165325,-0.359122180855997,0.7019626114522279,0.8206505516450493,-1.9393854653402607,0.18288658844199368,1.1132134792458221,-0.13048568139546246,1.1295574492168274,1.2677697391244287,-0.05927169408944,-0.9024282711214764,1.534102151434817,-1.685458019276716,-0.5024502037605534,-1.6565952151430077,0.2151455682044756,-1.7811969200745956,-0.8226192783474175,1.3535167148764589,0.78430645169944,-1.4346834292865656,0.23479584016733268,0.25828643231000736,0.8087585704756464,-0.07730139319623763,-0.9097369765686687,1.8996287071727638,1.7416544256582709,0.8102774903487666,-0.1216818393748702,-1.7816349515677299,1.651202844109072,-1.616407665716558,-1.6245507664554313,1.557968993997028,0.5393230061852252,-0.9676720166535979,0.4202365721448009,0.9388794694942035,0.5426782187718109,-1.0298731700912804,-0.6892254448802579,1.492640166797322,1.9579970467050956,-0.15893462246105106,-0.7642760084547371,-1.4652959309630957,-0.5270324612137549,-0.7103018807978594,1.2318793541239916,-1.47003330604816,0.6308576224118645,-1.1111366850213575,0.28849275341931335,-1.8614871554348498,1.291811917766728,-0.700876417702331,-0.15169904651740485,-1.3552153096808124,-0.15443071268047337,-0.9483949431267069,1.8463540006032435,-1.5790717887923522,-0.2625770758516994,1.2014746030679628,0.9359371401147487,0.054574134340239944,-0.16993891136525496,1.235641518045238,1.6664124087387138,-0.9807890365676508,-1.2861932437249677,-1.4976927122357302,1.8752230327570585,1.3746835098096772,-1.551195304589661,0.971878552843215,0.21517584144795388,-1.9901992682065552,1.9307885638489757,-0.4756565569672513,-1.1884219552785744,-0.5562606526264959,1.096218537315326,0.6402853507172535,1.2341624302659744,1.7537346630947526,-0.7404170583516008,0.22829520058727093,0.04926771611917724,-0.549440274478139,1.8409361453191533,1.0893548898967356,0.48082094907010253,1.8208311358863454,1.6986723687293286,1.997517665947234,-1.7586359688164133,-1.366143657064311,1.0873904618097394,-0.3971724970449819,-0.5281216995969746,1.7162025886230245,-0.43244882965509523,-1.5068865726964784,1.4350401849140226,-0.25953037481136,0.8917054047904696,-1.863745118494745,-1.0617964960650994,1.7083155132999384,0.4004611516574834,1.052181167016954,-1.2774548512764823,1.2734022268323657,-1.9424568650064145,0.28513954831912125,1.5417998832487156,-0.979774257679396,1.429672696602076,-0.4808301864841096,-1.30833874960961,1.5023567182910242,-0.8673363818729656,1.5025339007147065,-1.8184696217907987,1.8857915044548932,-1.7176053613491673,0.9809828144583612,-1.0471625912945357,-0.34883032523044744,0.9874524944578091,0.9395101630469491,1.7726172406945646,-0.8092541603510726,0.5751331456138269,0.8407117359197458,0.6773165072534404,-1.4202305842369327,0.4056306843769111,1.0961858273723357,-1.2501222501078408,-1.9855674116880144,0.47515255368394094,0.5012371167700671,1.4705037151991838,-0.42130795279461,1.22885280856296,1.781562845701917,0.25520891010319025,0.4096251098444874,0.6233540817381527,0.9004644347476374,-0.5904575615678302,1.1409774902690737,0.7085067025204994,-0.46582680441053137,-0.5833212988739405,-1.892589391492555,1.2766987416665967,1.2893690067750998,1.765928638321256,-1.7410861600464567,0.3797472415189924,-0.3349057790432166,0.8895132261586443,1.5272398418679969,-0.210168052927183,1.996333029843603,-0.4422835944448802,-1.100636543329963,1.9403885027989571,-1.8203723930559441,-1.9984223356322,1.9026333637495187,-0.8405095422895461,-1.1656129432602689,0.661638346520423,-1.1341580432031582,-0.7215793282755483,0.7086580366941786,-1.5694949128271398,0.3422930545443883,1.8811911382942155,-1.9872872659281335,1.0722319405206133,1.797274892051432,1.623737138535705,-0.773568587963986,1.8708057345049047,0.7099415297489742,0.5452506361576188,1.0147614738152089,-1.3196021669556415,-1.383606063806114,-1.0961154647366804,0.0050275902401888395,-0.7714929467730456,1.707245072651495,0.4856371207876222,0.15881883938849084,-0.6333069701481371,1.395593744996955,-1.0102599125431828,-1.11652474505376,0.7440133411281908,0.3443610587298709,-0.13429257203753187,-1.4970465341449932,1.150337134323156,1.099969150782484,1.8387792438343542,-1.8632572655813915,0.441078253854982,-1.1319804251453474,1.3106796991568865,-1.7651520536472542,1.920713719153139,-0.6879311914900308,-0.44335484217714116,-1.2568878355285271,-0.46815693864377916,-1.685315829014212,1.3464593304316033,-1.9263292476074176,-1.8121820126176278,0.4504494003095778,-0.23605779532902682,0.3558055751572651,0.4472132813926071,-1.826829666830692,-0.30668392561658075,1.3526433247918992,-1.45896548837529,-1.3404704649151205,0.955572944970883,0.3676741187141128,1.0074450334587004,1.4211719760202368,-1.9004277402218999,0.9886358407557112,0.9309650623015768,-0.7422449964516731,1.6439858112252637,1.836244431255524,-0.422503592372232,0.6518366060640526,-0.3984365528056344,0.05897498845953075,1.9898810996185472,-1.9871405221240788,-1.2041109969205213,-0.03012557586259268,1.157226357422235,-1.039707016060853,-0.828792782537898,0.48299536693150813,-1.3827666573359312,1.051215603594804,1.4681225271427438,-1.4363933483573788,-0.18776561393680247,1.9758699229475365,-0.08352068149046765,1.629311759914362,0.2514447687978789,0.8115993358284102,-0.41780676972711195,1.2255671126572398,-0.9496505395369361,-1.537863996942228,0.5070375086833234,-0.7904272467275608,-1.8951028385566575,-0.2844684073156256,-0.6277155439112292,-1.9728206444604561,0.9858689511333525,-0.41490394885575377,0.558796086624306,0.7810622233036004,0.5976095720312129,1.2995975833278353,-0.1670654442152828,-0.6012435036885568,0.5580358385750293,1.156127106938711,0.768549591255598,1.310462360676548,-1.5412025788948323,0.5399807494849127,-1.2237503596702868,0.40676304430152443,1.9291093236847976,0.7831780966728403,-1.5872470781505066,0.9501099184598694,-0.28280520356947303,-1.1742667342663213,-1.714431900470001,1.885757796435274,-1.2155521622845846,1.9060479191291346,-1.0279102572640113,-1.0279860584345588,0.6435396659768542,1.778722814869734,0.025997264354953753,-1.1869351468833678,1.4841988623468185,0.5316807757792672,-1.2764689426274676,-0.1687195979186411,-1.5385980156543941,1.9678677354544414,-0.4222597722486725,0.3832521519455221,-0.5786218894103663,0.6911111559985477,0.16413159697359836,1.2904327893162368,-1.344690543167781,-0.1569186509719911,0.7347127161683171,1.315950483185269,-1.0116594010164337,1.5268615947065558,-0.8042638821463113,0.6143369634305329,0.10258729602356675,-0.5311996500361755,-1.526112551819459,-0.31273359319706895,0.4525552919793481,0.09826655990152888,-0.5402599165306192,-0.6572807046629907,-1.9147223815020826,-0.7777365760930102,0.03943654816112341,-0.24914374325542354,-1.0781196514696196,-0.016585412032969593,-0.5309553135851868,0.9994497533316866,-1.4269219957464907,0.5390657287983709,-1.5753261216551366,-1.6539459960695746,1.7883262966086475,0.39805620719979773,1.4325039958436658,-1.7989475145002207,0.21727876132544077,1.612396531205246,-0.2562225111823393,-1.0937874407943826,-1.432009953157423,-0.5344060320549726,1.1165089771070718,-0.18543431929632925,-0.029839449489804437,-1.6088707305326189,1.178555156249788,-0.8003156097122988,1.0037422282416912,0.15843357093799604,0.7147112264930371,-1.5677868222334146,0.224570810682156,0.6678581809093531,1.2685961171647024,0.5229648669238309,1.1785759723279141,0.8398593113077872,-0.5061462660924145,1.4259354513845528,1.3479337975625492,-1.3901694520796748,-0.23142355070229215,0.027559912449409474,-1.0032269849179505,1.7377533590303047,-1.1167582437701604,-1.1532090590034683,0.8662044338946289,-1.4422110531094368,-0.4223381165996303,-0.9834589839041303,0.09230413727367859,0.3502641567249243,-0.0064678576900178975,-1.8577892095630522,-0.4797022020880579,1.2930475365105787,0.339840365092134,1.310330672586542,0.1042439463547109,0.2748960987174658,-0.8902616578815801,-1.2278904070625494,1.8719873167038035,-0.9154095214425602,-0.5800019519737316,-1.0803904131738946,0.3876849641777542,0.4524737023068801,-1.8550806507340174,1.0006181583751217,-1.115901077304804,-1.0262725572965974,-1.9263310962772189,1.606906465943772,1.982652686426535,-1.0859803593887323,-0.8266978352475913,-0.6054604276849824,-1.1530929689265745,1.1453965218072644,1.2646926974814243,-1.890270334815042,-1.650773499499162,-0.9391762204445602,0.19023781794893946,1.776518664695605,0.11029089729616715,-1.517780579356728,-1.552986163080762,-0.8742433173772621,1.234746675999585,-0.6236510607256651,-0.4483920355855906,1.8543062110097415,-0.8713482459407591,-0.5800432589875695,0.6892413486141602,-0.8907581482435751,1.3136552477358001,0.563577418445004,0.308156610896003,-1.352909595987199,-0.5025021133176257,-1.9006479292157392,-1.3254188547569647,-0.5295985794278244,-0.9348953397743767,-0.48145669771744215,0.4135633948737607,-1.914126092606816,-0.3375788526876189,0.04665117701691335,1.7780680626182308,0.6367993065458939,-0.7862653037791949,0.0939280032399652,-0.7486512755492893,1.2449407860956834,1.3025469406448185,-1.8375180525527566,-1.8730398655809526,1.8250050662495827,0.7410165491850425,-0.8960852675590707,0.6732155150503374,0.6861246201908431,-0.1599156277458067,-1.2965335677306546,-0.8674479944455089,-0.3799702258237785,-0.044553850167250886,1.3863535892958745,0.3279348052508615,0.6520617503125523,1.7368152864784552,-0.3935714760053268,0.15585073730360177,-0.006366707137789085,1.7121051901197357,-0.06000288503199247,-1.8377128698474925,-0.6116014851149005,-1.1949152261894254,1.8557195992948659,-1.4216760388374956,0.532967385382165,0.8114407779985164,1.9375964126457461,-0.1645605354107862,0.3357062447568282,0.7476475012554418,1.3727534696192722,1.9791861049088495,-1.7067592561058889,1.7478923102209034,-0.7862565158202779,1.0922355186807575,-0.7387025204124247,0.3653717773826668,-0.7444881822805036,-1.700381471036673,1.7703496361123197,-0.9169129655435104,0.9619554617721127,-1.4315472246215233,0.36885344455393687,1.7619960795302325,1.6295195230171777,-0.835781052918223,0.8544310083310083,-1.1761242539560013,0.8510618886610497,-1.3672142470714324,-1.9072209638018882,0.749502848467051,-0.2069259878652776,-1.2793377572976397,0.97241419230506,1.7597023895724972,1.2518088261625673,0.47848498454689903,1.0667423198412438,1.6837789550762698,1.749337070347965,0.24800364298720412,-0.633844132853528,-0.0043267326948468465,0.9176171349237872,-1.8314970351633506,-1.0491910420658628,-1.9746763317747962,1.4188623273315994,-0.4803997391208137,-1.1847384075913463,-1.4976828280555803,-0.1863073294427542,-1.017413196607289,0.6743305902408028,0.405384368693515,-1.3391283211397753,-0.07332879837447326,1.1599033553920544,-1.9164381540069928,-1.9578462268208363,-0.6856227911635031,0.23098266336362716,1.0923737118976806,0.2639751165001263,1.8795632835712004,-1.8111766540390533,1.000523912134951,1.6046711160265037,-0.8332910357055257,1.546606042674512,-0.9150535897713952,-1.3976470862005015,-1.1687487275041244,1.6690185803447348,-0.8335367783043801,1.0462286763598647,-1.9360502202295082,0.3134714298032595,-1.6080278367123415,0.5826997704680812,0.22231202357937674,-1.2653301226607931,0.011331810797611475,1.6238074963311964,-0.12593518443614338,-0.663995172903038,-0.043914859589774036,1.7323217545096754,-0.4352201072210846,-1.0542827259122105,1.0128843579407287,1.7753288186918947,1.1565007334901511,0.7523969158135397,1.9259595032990342,-0.2935549803657196,-0.07669377508420983,0.6902538970488821,0.971827159131426,-1.2629094583602494,0.5951080679805183,-0.6195764242710609,0.03556525177955239,-1.438285688597118,-0.21765278121440446,1.791353113372741,0.29159947755722015,-0.1788211611081354,0.8085565463368849,1.985203388070142,-0.24038440122220806,0.6730213522571717,-0.528593908969023,-1.819141319556194,0.21026633245532356,-0.6346407421594473,-0.15362083469077747,1.8716964006054742,-0.9917087567046474,-1.5167894704215028,-1.0793374440911583,1.5403879992938885,0.23721188194437737,1.8751555830419435,0.19051789964635635,-0.4227549409871596,-0.5003453376802329,-0.8109637424920808,-0.5766343738300339,0.035870964108134284,-0.8162563562381413,-0.7876585614903044,1.8048490871233809,-0.0030672106380276176,-0.8022286595331933,-1.149668406094651,1.9417850411874995,1.892300168675305,0.403695690870574,0.11150833116488901,-0.35995112315930866,-0.5486188991026983,-0.23037911237548858,0.7204183667375186,-1.2477149967971304,-1.1677613581019504,1.5858985111866604,-0.41022938858720037,-0.6441352387913999,0.4196256382021897,-0.28575934659829016,0.5801259359894835,-1.5590781686947093,1.20433754492324,0.7321722188883126,-0.6050845900691426,1.9986215351521386,0.611178411030703,0.32074840597091914,0.7714710939987137,0.09570778641756617,-1.2157215353660118,0.2411845253937086,-0.20467288358798053,0.6643646883897385,-1.289042853103298,-0.4748909984544296,-1.0065370698903293,-1.0925452999867047,0.2772068371653291,-1.8055552829945598,0.4929428409151142,0.893417316635527,-1.3552932634368196,1.305701748707527,1.5912619774130836,-0.19530050193997806,-0.6040325218436307,1.1789919936780842,0.24453928111559176,0.1659702674483654,-0.20149411182604782,1.3079484928405205,-0.7109031649981192,1.9582236069302503,1.139676002035392,1.9784461264223463,0.2445648406102512,1.314575167210016,-0.5416793370453861,-1.778342779191148,0.4379091049956454,-1.5083024837585466,-0.5578352377697966,-0.6388618362102174,-0.514300298579283,-0.767269641014654,1.8265994844999778,1.260938028615875,1.8366587200099502,0.25142661361312646,1.0098118090453911,-1.7941867168163625,-1.4307132488352963,-1.8884014329198182,0.11376128938302354,0.6397062067009087,1.0583218245081403,1.625903929072356,-1.4668384237638152,-1.606465219589373,-1.8395129387532227,0.33586356129442496,-1.4489937700460218,-0.6380236287338317,1.4200695954890183,1.602654708692783,-0.8085461957835407,-0.3581061416664024,1.8687101725597794,1.4965619948795523,-0.2927895489373178,0.26855782435362663,-0.0697946168818051,1.902587488126601,-1.6552794308135126,1.87098909562406,-0.43550066783437735,0.9886886304651838,1.5373058139692426,0.7536465432796944,-0.8172803606922323,0.2785211911061807,0.7993175889495525,0.4737652252253164,0.10412315290424567,-1.7227793799969038,1.7294975638222452,-0.8207603023443828,-0.5321517697444174,-0.31325363907511683,-0.7343017797784945,0.2503957536032635,1.91063973538329,1.3840173508237208,1.5484356104277,0.7517420983813352,1.9266721165997711,1.453295779708728,-0.28228676014551857,-0.5703655549821107,-1.5288200162610615,1.8092686252379044,-0.5628358697886702,-1.2154868128789373,-0.7722526630348594,1.0406253438740976,0.329750463701624,1.0613584262019113,-1.3638674607176662,0.9140639759787756,-1.9312255741368505,1.1866158631712596,1.6580820347782095,-1.7483915388028537,1.2343781345836318,-0.4323170593784975,-1.9489868074331103,-0.43813643782464196,1.5561030406375398,1.3988361970437335,0.388161278759513,1.1170263134177167,-0.025417569510961524,1.47314040010844,-0.9871050179966132,1.548096612584327,1.4520593978708427,1.169180137374918,-0.8663108836112627,0.5015571821159317,-0.15653504914963667,1.9691338124485864,0.5537885427502287,-0.30981970425609306,-1.5307532609210757,-1.7432015918953971,-1.0206478912587205,-1.0299927509596372,-1.696816637991931,-0.613584621752469,-1.5318940131017653,-1.779271860065038,-1.058911459083169,-0.9868328858045827,-1.4976630736036074,0.7431928057639845,0.24955828938497504,0.10352898087934115,-1.5891422892705132,-1.0747963309755404,-1.4192387131434483,-0.57018966326546,-1.2274793631138796,-1.6649514336517477,1.6367189675273228,1.7810474804750123,-0.8136104119057523,1.3837957471573858,1.8537053234465728,-0.9771236226394837,1.2028049579316158,-1.0609830711690056,-0.9268300634092319,-1.831968133267576,1.6478260909985494,0.812529621563292,-0.8731912386339284,1.3959681148800653,1.560526528947825,0.013027330899779255,0.8239675856599757,-1.7317579260082003,0.18065259660251387,-0.05832162476029934,-1.9934353650749341,-1.475767522036446,1.8348097362484102,0.19505350945197497,0.366738345989714,-0.8518161117033354,0.10361015032786636,-0.2853639507673251,0.4728045051290355,0.042216135560564805,1.239282648131193,-1.4110272057001607,1.465105714026877,1.662306585255703,0.23265478167412157,-1.522419148263916,-1.4119566687623477,-1.3227683871845053,0.1317598914003173,-0.912641898536104,0.3199807445427032,1.7573447821947594,-0.3866817320274154,-1.816527974983741,-0.14116921971128793,1.4434937729890813,-0.2731050232197574,0.307947873823891,1.970313843375743,-0.02694048657461101,-0.8322930734403795,1.2579245324699921,-0.591974395108211,1.7742471908640023,1.9458589112894682,-0.9685538583782778,0.4620390965814436,0.09621091976318485,0.6993082735492551,-0.8860705641176256,0.13411763864558113,1.3443994616862023,0.7332435047083967,0.5154648139491607,0.6771579228584077,-1.1539980165664976,0.6724130613392583,0.7548183847417462,0.5302192015748619,1.4155273827046662,-0.5973696403308977,0.19064914196921645,0.31677385678012593,-0.24333629253178213,0.27378265570376215,-0.8746470882813435,0.1667367975034919,0.7212491110338783,1.113826713291632,1.2565352841186375,-0.887305499510437,0.3171018783861803,-1.6858732792801376,-0.21580299872405462,-0.6196317942973102,-1.8310533058985174,1.4525507351970557,1.8482794413164445,1.0835830790446592,0.45906745010185857,-0.17124009659021144,1.0329351972778982,-0.550753163522498,1.2000524870542781,0.26753713909891497,0.2737167543040222,-1.675606903286242,1.3086397030256336,1.7945796976712378,-0.6388311446760406,-0.9179374160091438,-0.765660364624722,-0.6628232560382354,1.2591347603094203,-1.3217332876424095,-0.18520170497137434,-1.7469547546932724,-0.22179277091947203,-1.6384726267704481,0.15206320159737574,-0.8537349450556881,-0.7617533685291358,1.0235336386260303,0.30138449469685824,-1.6665246817962678,-1.4933266620948977,1.5724838658479001,1.8768750538864323,1.8050744141676511,-1.7528098422488023,-1.1775422341812178,1.4900048821695364,-0.5648454891908372,0.2497394581400263,0.5329797574213848,-1.4129192822884509,0.7056920424372266,-1.2203444153797713,0.8057298726057733,1.5263013863580408,0.27657417534568385,1.3600341868423604,0.27991669208691405,-0.06149214472690767,1.2707498585704506,0.4688790067429034,0.8776693539783955,-0.729660591538384,-0.06540359885451874,-1.0628005719775846,-0.5011139019455397,0.987708275922309,-1.0779476516763977,1.9119312490584934,1.2713349905987128,-1.849936092109186,-1.7026936042215493,0.527174004312946,-1.0166892520203192,1.9442465253977694,-1.8822691984278865,-0.32481206784884353,1.4417934227588467,0.7057044585045253,-0.7175365830735894,-1.6483335936407788,1.2391267898094083,-0.42207072614199515,1.8027901517860156,-0.9465107910169839,-0.6484604051557707,0.6687984450750086,1.497573205308357,1.7096452517433827,0.6851692060599439,-0.34369429851593924,0.6302148626849098,-1.6771870256847383,1.3513640610827493,-1.9435398771587948,-1.7422372780068693,-1.1031155275095021,-1.9758831556087286,-1.0543537294743577,1.5379812178637908,1.3512573470556202,0.22629038855306316,-0.18211372299482154,1.3809927435297142,-0.1503827279545349,0.5116174160018603,0.5792285542219693,1.764967688234686,-1.318787147413751,-0.5272055727346263,-1.5021147470953151,1.2290002847385932,1.152526878898744,1.2274596132478863,1.498444461744604,-1.5197427050752927,1.0295217510232386,1.7957242927635666,-0.7479225244059244,1.6762207211070597,0.09922877089468995,1.419230760541442,-0.2944011549596537,0.040223131435752624,0.4673543413589929,0.6191744690078309,1.936373260374289,1.110346052425517,1.5207206826108708,1.2537735766147868,-1.648213325398793,1.3019338346360563,0.08682372041195485,-0.8164499527425826,-0.81329824195352,-0.7472678576369898,-0.1024826639406049,0.20613228399854577,1.028717254003749,0.49371579135714505,1.5548611935653667,-0.9233553620795583,-0.9395833169602779,-0.7575785338926413,-0.41407488849487795,1.600956074943868,-1.6060152541007504,0.8376288199189679,-1.266358961020246,-1.2266489752049465,0.8415523848282915,-0.5531473584943041,1.6395204722916494,-1.9798454584771248,1.236705813363892,0.6905810234422995,1.9294965101535744,1.2271447617075912,1.6339828131547312,-0.03961474541433718,-1.0817684331066073,-1.4211632457575045,-0.3127470648947068,0.9622639422340895,-0.0757439368589563,0.9073593305833167,1.8235263505572967,0.8571592660711076,-1.3472228039826222,1.180619315314181,-0.25034788961271603,0.21555963698759983,-1.2608696938722672,0.22519314226671083,1.3793862211641863,1.7872065621920803,-1.9713696662019902,1.3612102922854188,1.870107764169028,-1.7542946310862328,0.8238836746393874,1.4361285047562995,-0.7432157544691269,1.1958739860192082,1.0318222043313825,-1.156598736743276,1.8624965776890483,0.2022672636885603,-0.6699034998288904,-0.29180877960258256,-0.4203959109931561,-1.6172985609063026,-1.3030969823339604,0.12449380692115941,1.2363197769709289,0.47162202905253015,1.7019807987763769,0.07730220197329896,-1.6833597743031303,-0.7484196273888957,1.7783599476293643,-1.5284051759115527,0.4800657776663857,0.12705074171009523,1.4784055080149776,-1.1360272502358355,0.17683852017050494,1.517941486528163,-0.054884498762915346,1.5249833051294739,-0.7596413767110808,0.25147165494626966,-1.8951188468171267,0.8128105552385905,-0.1685639092358815,1.0873693889108083,-0.2475771749149258,1.291910026335088,-1.975296861288419,-1.0359797219450098,-1.0035544939786418,-0.3985272485370399,-0.8625773062714894,-1.1825713413650392,-0.4168624217248835,-0.5836306934210658,1.4888658215262698,1.7804772545914558,-0.5847001149082196,1.1059037682144748,0.09583689609302226,-0.1576158562402039,0.1790377779404948,-1.2962666947329753,-0.9135983676501,-0.023216420332470733,-1.6190006596042585,-0.6765223765945358,-1.5893855973384627,-1.902053940786395,0.8514257979189708,0.057492717268268656,1.8043216486759341,0.6497653662451559,0.7355079759845276,0.6696029876347587,-1.3341481611354493,-1.8587929277980857,-0.7223044647802523,1.2015852875865773,-0.8392110943770992,0.2219796056870491,1.384469006561487,-1.2666693509351985,-1.8989726743562154,-0.27877443243823885,-0.3889167562742979,0.9217078621066799,-1.176197466607864,1.4511055731617333,-0.8358299825665823,1.4013791744928024,-1.8513635405124869,-0.6395088818362784,-1.9254654458610427,-1.1313838978618742,-0.6213393849827935,0.4138185491890396,-0.988413810478578,-1.4044456753786245,1.4591061719524783,-0.09691665891720103,-1.8344922499536938,-1.7442325770458513,-0.5076668396829569,0.6435516325200741,0.43268216744297083,1.6402999521887267,0.1244337792610688,1.7950485125833473,0.18835338278142544,-0.9439046523424985,-0.45304464638624564,-0.006689197279641679,0.012321939640250967,0.21684263948678995,-0.24803128668453,1.3332456921714408,1.5749760980322298,-1.9685014134331111,1.8321026973500856,1.922315117281732,-0.2498807256743678,1.8241727458318473,-1.4272543866732872,-0.8814637569697688,1.8768343661043438,-0.25292674842045626,-0.41475645185363685,-0.4035698436417481,1.0342610888202861,1.0308722759158808,-0.336373473755744,0.9310628841812503,1.5347007424217471,-1.4748586829558814,-1.9655246137831397,-0.8644497339881707,0.05073399317557259,-1.6587533652892845,1.7635815232915033,0.7994472801397166,-1.7496860777614542,1.5617792838637121,0.06828893013792525,-1.4230972391697176,-1.639512215812375,-1.1784691741243183,-1.427058787666922,0.48784734644666594,-0.3610103882950324,1.0617766899283572,-0.36750658149097504,0.5698810246612913,-1.1780950212810009,0.7193245629681102,1.4812354855150947,-0.5808655527740525,0.9834670358184363,-1.4817859749592457,-1.5274619296014342,1.7901940755479253,0.12125886969892985,1.9532387232803945,-0.09664938336363615,-0.13643334103288485,-1.5594470503258968,1.8530644487998482,0.2915788797276746,-1.6768685791043718,1.3935934672422707,-0.5452336743040158,1.3260948134411938,1.3567470506407142,1.9310795111674417,1.6833219603538359,1.3978073834409313,-1.091882299589753,0.792806782716923,-0.37027010964100304,-0.439104215639301,0.2990216403769601,-1.5409674134700806,-1.6462091175236835,-1.6411285890339204,0.43599638572218113,-1.8533529369781414,0.4056422569099465,0.7752178167184587,-0.036194887343099946,-0.9203347730937064,-0.9626001116495937,-1.0217967451183112,0.24044866913868645,-0.8833740196936084,1.7925937908846645,-1.1131712566832017,0.7376623650343266,0.862861661320113,-0.7554593485623298,1.2902159465816085,-1.609263089188551,-0.26951242236366424,-1.2833378091714804,-0.6529625465957452,0.44158907823869686,-0.18467868462238268,-1.3590236620552623,0.5878551622993173,1.1061964318338844,-1.5616774623119896,-0.35488561421742926,0.4663151694369847,-1.1487095726500098,1.1317939383406284,-0.42599184287277225,0.7686781563859304,-0.1729868488677906,-1.7981128339442054,-1.2831894571522455,-0.46376759268926016,1.9574107321183427,1.502422304891481,0.795479126694993,0.8661069018462508,0.39080265552162174,0.1129111784745338,1.4890179747655274,-1.0558569848466228,-0.1634556690373361,1.8601941966460012,1.6230082534250703,-0.9241175057998174,0.9165178553096665,1.0845911204617313,-0.02814599006220231,1.8435456982424214,-0.8762638076566325,1.841817965101637,-0.7889441436274631,0.919851939913785,1.0245199317561733,1.7383288485246262,-0.5741789726137339,-0.6039516199615411,1.646961700942581,1.4298761834082296,-1.5130275484376292,-1.327445122210877,1.3604254220890928,1.1899006402246388,-1.3781860189156565,1.922756446725395,1.8706856375716145,-0.11612737207670554,1.0436514293607937,0.633034334313697,-1.7458851010304008,-1.255400868642456,-0.6425805402129248,-0.05779857554303458,-1.6969635610980438,0.012535337687123782,-1.4444351954929608,-0.08049411718789878,1.3203610216583774,-1.9712440078689406,-0.9187952890100815,1.8000717315181127,-0.7843125158347877,0.9403839896382933,-1.118994907255244,-1.880237122034381,0.7702377180829134,0.5021559802453117,1.1147186667674105,-0.7786186982557113,-1.3990862866175013,-1.20553977565993,1.2048962425644958,0.9729053763891766,-1.4098659291509446,-0.41521813993252854,1.523145433647639,1.274431243865274,-1.7974584787080898,-0.6220771454048539,1.6949786911122433,1.264234173249657,0.4380914940446501,-1.1104403409069055,0.18554917444548957,-0.7719745687809363,-0.45158908479067295,-1.5825519923409908,0.7981066855566916,1.9160186013628584,0.9310606457193358,0.05553242575196249,-0.2263493036689228,0.29201985018076115,-0.6915527524128762,-0.7308376164278103,-0.1066812373931767,0.21719543727619817,-1.4628222441421461,1.9717462476261738,-0.3199560908904675,-0.8637612865160298,-0.4626341471747346,-1.2934578807886798,0.9886304914851354,1.767085696810569,-1.2658224451364917,-1.5243751932409917,-0.7137324009828365,-0.7810534889242193,1.4477734123135155,1.6143222458828155,0.4819822729498542,-0.23926094932850317,-1.1907638607820124,-1.9504312618763353,0.0322147221469713,-0.815319805401896,1.0705646219261178,1.8044267128036942,-1.6971103822081282,-0.393153614058416,-0.09080139516845298,-0.7249845314316143,0.377341171525857,-0.9237020753935226,-1.3667475122113544,-0.21391722690423887,1.3240545311724214,1.4520116668164427,1.6863669889460686,-1.9380031009333094,0.5322609461435608,1.3996699890220836,-1.3007208816555473,0.5297837494881454,-0.6096247539077178,0.622134544274024,-1.065315934951804,-1.1530530357563618,-0.3208997993731715,-0.57544785464275,-1.507493358068062,0.800552519188201,0.8862003573984443,0.7150063411354557,1.1375881345205756,0.9533959507696879,-0.417346402161078,1.6764602656758711,-0.41147784388700304,-1.2592775748353309,1.7281730001548987,1.147245550734835,-0.7880071214172335,0.24079029166402366,0.5076124765047463,0.6251519376374066,0.17029876409467493,0.15581936225180115,1.1015460326795399,0.8992088542210026,1.540609971049947,1.9455479758019498,0.3000849924404081,0.8788178548357668,-1.7044005411546053,1.6159118679410898,-1.5044801196408883,-0.28874259494230436,1.2748308576639205,0.360132400440373,-1.874546677072105,0.5146818718926793,1.2464095659624506,-1.6102747091933134,0.6583961980760415,0.2281215662096021,-1.7116482080642492,-1.281319768549165,-0.40957070662325146,0.819116447661195,0.02119062886305434,-1.6112493179325456,-0.4662166451249039,-1.9983617191445266,1.252302074939112,0.5651244902471024,0.2566276984260445,1.5416072294672616,0.7275231153971875,0.0823460767132449,-1.7006225471326881,0.48402776953710624,1.8145371847031964,0.20624876116536095,-1.2774396512609956,0.5437810759227322,-0.289803799171652,-1.9617203877926115,0.5491123540150857,-0.6439027616647945,-1.7740183043023592,0.08239028163346696,0.6135931642649273,-1.4889775339722853,-1.9102114303632862,-0.5797548024227535,0.5430171422652554,0.6294482896435509,-0.1922818865305027,-1.0179806748275726,0.7051251992282612,-1.6099958801229635,1.8156870651410246,-1.547477290042813,1.7557623595753489,1.3315892433330818,-1.5233558730699133,-0.3303724354153279,1.5432509448911453,-1.9377636207518343,1.6144595155789951,-0.502242441356155,1.483803155194218,0.7800340129792787,-0.4817391895298164,-0.6276236531188233,0.010873525548965812,-0.7466419940761058,0.09329136445752173,1.1112599620938721,1.5263451969525987,-1.0996631648878918,-0.505942602614355,-0.38966872294935584,-0.8113192362207471,0.7648664547358783,-0.5907844834173477,0.2662514556691926,0.6584546941560556,1.6027990883196543,-0.49413227285368944,0.6990033913103924,-0.08732831437381927,1.4927112601410766,1.9145548958038563,1.9558102655694136,-1.484195064652703,1.960632162897154,-0.8963591515576521,-1.4851260074395527,1.5714039489193756,1.7575440868669934,0.4891766426400208,0.1835241675157957,-1.4048696744299662,1.5254070839017362,-1.9907989653212677,-0.7310832592937153,4.810755804562916e-05,0.9315767018442909,-0.9929951973974442,0.9656746454333383,-1.0263220031814293,0.7271644982469612,1.315626093879302,0.6922305942021247,-1.811990263866515,0.22190161358041793,-1.0077694685638674,-1.836533591760936,1.6524958431371037,0.04024109864091807,-0.7851634015874582,0.6723365479472179,-1.2918573761229837,-0.8184435297462409,-0.6983311971394675,1.1510216759597989,-1.108681463637046,1.7259715081742386,-1.4856689772525566,-0.941026993142549,-0.24322309988480662,-0.3736666013694321,-1.5274571246119737,1.1235448009637201,-1.8638515095915107,-1.4996621795944867,1.430126329104104,0.3030756813702111,0.7148014862560514,-0.49970880487984237,-1.4138916897360394,1.2641498789022578,1.4271092210269996,1.2568172848715058,-1.5848315366487369,0.99295607775404,0.11190358315512006,0.7109220223384098,-0.6692370554021037,1.0288484084181801,1.120110807526995,-0.851988216474977,1.8490821640429709,1.786309471230052,-0.6754291153318532,0.4256981132833575,0.16135885259095817,-1.2461973999182572,-1.4381252601284777,0.28329359871754445,1.7349401085412302,-0.1278294955809054,1.5988450704631951,0.5415589065258417,0.5445742593693934,0.3429065726959437,0.7836225926357958,-0.5990625564343559,1.836748739395503,-0.6585540854027183,1.4646682152615735,-1.611971635033516,1.5058694879000205,-1.61853562290937,0.015330240048007315,1.3632472158025446,-1.033572666575405,-0.3435889358125461,0.46048343294707417,1.2559779595387246,-0.718991289333581,-1.450236444028862,-1.2563583816556263,-1.1575377428804545,-1.1705909325584338,-1.2703980996869668,-1.4679267269087313,0.3093378538858458,0.2770175411191018,-0.5438290796232348,-0.06186720262145862,1.3252392543743339,0.33573478579885574,0.008653668604413411,1.1218353563274932,-1.1650693119342677,-1.1542813590702852,-0.24947109028774817,-0.37411409993398204,1.9249886202076216,-1.3415458099485145,1.156816097807999,1.88358283791962,1.6979689847577055,-1.8450126940042968,1.0283910270719536,-1.4582129609358057,-1.5895927769938378,1.344564309747092,-1.3702578494113133,-1.3155401141735172,0.6728017748130655,-0.8098683555033435,0.7773888945331211,1.5196277081154879,-0.023011065313329748,1.095216941712994,1.6841071015022004,0.8028170212355286,-1.6027437126142896,-0.6121924649854784,-1.0859814720377132,-0.8553725466920876,1.0379807032718409,-0.3222587481762669,-1.6692950414205434,-0.9707190458222739,0.5353570297267858,0.4491397516781892,1.4240846218372636,1.5208465425922766,-0.6204058273028936,0.28070617216888527,-1.4579804458905423,0.7868979525249382,0.034392525909305416,1.1670209266272655,-1.9387993105650612,-0.5886088914053649,1.2745568293085747,-1.892638067123892,0.059573182964222315,0.29717548802269134,0.5949916070114547,1.6564062436927949,-0.9207950498015682,1.7265998102780777,-1.9137559099136263,0.9414545338612594,1.517293074555833,0.2196539823529262,-0.004441623859238408,-0.15113079507128635,-0.04837186421771511,-0.16032633403560714,0.5788731481823453,1.8786602260711325,-0.7728376916807913,1.6339734650357682,0.5425165158613772,0.6513023299134986,-1.4795737713055401,0.8492380071594772,-1.9590454445375953,1.5310134126191564,-0.6733405581553864,-0.9192045502258077,-1.5696415388202625,1.1556203963316332,-1.123856663249478,-0.0601445378991019,1.5104717315518825,1.7262522968900829,-0.21051636114029515,-0.0666769914634,-0.35979430967367954,-0.9328743688475463,0.34292669541153487,0.7499206364546094,-0.034930955763525784,0.25364680286258423,1.6396199781962233,1.090311018381509,-0.01169044257857843,-1.4004835162139768,0.3747380725924092,-0.35585299655787583,-0.7287997733756533,0.6029557199712507,-1.3892236369957986,-0.3490286211007332,1.835377626964045,-1.8856737849160203,1.6949903444297272,0.8003733089991156,1.5795060261713978,-0.8803942019507436,0.12100996850907908,1.1056684159001842,-1.351406222256335,-0.4940823432570034,-1.6364682030111672,1.9461913838510938,1.2275379828217363,0.39354733454555113,1.751766581182899,-0.7765478877755387,1.8407963346033123,-0.7714366481735064,-1.4215455123718064,-1.7944267407222894,-0.9007773659103555,-1.0698947554020846,-1.8054308576528295,0.3194962406779345,-0.9573664109946165,1.2609497264927723,-1.7726267401340223,1.3337794837334669,-0.6612558827928314,-1.6980063716688258,1.39746376190699,0.7456497507803657,1.3626577666077297,-1.6393299986195253,-1.5257581365115502,1.4436893574193612,0.198491747514701,0.27803277140150984,-0.6786533383866109,-0.3128186723278401,1.5994261624931432,1.2107479830865735,0.22039498773357158,-0.5992266650248759,-1.3936800274791352,-1.9448807366206546,1.2172346600892143,0.6632717035274367,-0.8494174220397213,-0.5049210122061711,0.49118056766746854,-1.5196474381851526,-1.8318456188957875,-0.1383833879598888,-1.7637544821087845,-0.5909496371786678,-0.17820600300153888,-0.7353626032903442,0.8754597202360035,-1.5292148885448311,0.4621429450562058,0.43418467826016194,-0.11266534032084374,0.5472941198518608,1.999781931572429,0.11954091803826783,1.174468298072393,1.7498655803264684,-0.8659692058078923,1.316530073455847,-1.6486153981983214,0.6267583222481399,1.533396133677332,0.8995291134853778,-0.03410870959427026,0.1269353106034159,1.3138316134815335,-1.4118101287185092,0.11435951389025467,-1.8520095345808665,1.0603561772117658,0.21183557557858856,1.9855497346158515,1.6348261982073296,-1.271105500675283,-1.2688973385160507,0.030183883779459908,-0.5088746284459456,-0.34303282225939435,1.1693719964736498,1.3341664913738152,-0.10459703803151932,-1.9187889136407583,-1.607589903073026,-0.6308262953753232,1.572013209470466,1.90869522424369,-1.803041051853513,1.5634099103364685,1.5814877388439044,0.3759882025580392,-1.5737272839542258,-1.2243436265342695,1.0080491791287987,-1.897273705823014,-0.8977323297621447,0.8723840919428629,1.4015035734009293,0.38592992301395723,-0.6863745641932093,1.0741926887591453,-1.832458693452288,1.8219913056023347,-0.5561556123731495,-1.8894072719132766,-1.8603383180538176,-1.035831720442002,-0.12812650735825049,-1.6688460561102727,-0.020758050789299265,-1.095125163059107,-0.4766790067279101,1.9914457138226638,-0.17433514238142322,1.3520984409372248,0.9030645531738868,-0.655449159888156,0.7551271881630135,1.4752469925249367,0.7513146631970398,-0.07804640281132835,1.3654295944102963,-1.9341295137895522,0.6363761307967666,-0.5862473978890725,-1.7608948231762223,0.10411644149931387,-0.7882738697166323,-0.8765200803781186,-0.25342181128076335,0.463621989735695,0.8066266352564804,1.208828445464853,1.3895923050768721,-0.6419486596724591,-1.2472054736750087,-0.42303465956797437,1.345204518219857,0.42903219507763524,-0.25942654104217766,-0.06743381770409895,-1.8483968188779154,0.8495078659336097,1.5308596982848184,-1.5497672491076782,-1.6447732895758764,-1.012354969380687,1.0242485363593894,-0.03319817933797786,-0.7884274267698195,1.3941084358979667,-1.188719535118262,-1.6353739695469867,0.7575460189309458,0.19870365174383586,-0.42633373066777036,-0.044990787897820184,1.1575796374380163,1.159723383100265,-1.6672731438143598,-0.9200564327602394,-1.5660779196601644,1.856372558920944,1.7468926185730544,0.9929473537672422,-1.5327546296648258,-0.018988768689179647,0.5729373355216372,1.7465259553055472,0.04730849909462709,1.2750996131880243,-0.6624668336063735,-0.18128777632535575,1.2701046515183756,-1.9956466585306627,1.4614604307114618,0.14618946525527265,-0.3513971407815917,1.9294761738171653,0.4518206108295031,1.1023919487831941,1.6387603909633999,0.9453672658517918,0.48170520533935557,-1.0833950316738852,0.050895484684878145,1.160325998725659,0.7080669272230944,-0.3195586609431271,-0.6931129689663988,1.401941428424756,-0.8000990112791877,1.522903162005254,1.5736439439064536,0.8097357439005131,1.7891802850018128,1.3943974639291787,-1.3474690551391713,-1.6573737230433312,1.6202553631952297,1.901432962076147,1.2055012864611614,-1.3478242136422618,-0.3092441633407055,0.5732190156398191,-1.4774576410184403,-0.2949416966334386,0.12900078957243855,-0.04909338128466523,-1.9783335787129084,-0.8219479391925613,0.9184694142610459,-1.9007387986955426,0.692396652753803,-1.3420476242922335,-1.6812193647989195,1.8934769445380684,-1.0064478098974523,-0.5230979219443275,-0.23506653166495806,-0.8525644911705696,1.3720359803217228,-0.5829374931884628,-1.7363425740042389,-1.3254279890852136,0.7336400751133558,-1.0489120497904936,-0.1197618949775241,-0.2805268796858589,-0.0962671033149376,0.9768890572881932,-0.1834342065836907,-1.6116265725414358,-0.07644764054999831,0.6696641955691285,1.5654318358842931,-0.20721911554747763,0.6395593632722085,1.846401965576427,-1.7772935491537614,1.5874444696750323,0.7437216937577591,-0.44671914521307077,-0.550944854069805,-1.6595087713022236,1.6425701638854497,-1.2079273815639087,1.2451749407109642,0.6073792351424041,0.9945572611299753,0.9518204525398484,-1.5290015967049677,-1.2110690429522721,-1.0314476575394824,1.9415935566576512,0.266816951896387,-1.2980753894082917,1.4092810889387493,-0.6485288722524674,1.0829052972535393,0.766097848295805,0.46472442823452287,-0.5648853721724021,1.6111067677464503,0.1584378101714754,-0.22277504811102133,1.4721149980151993,1.3386591803934138,-1.9221544054852648,0.10920084056216162,0.12914092859865978,0.4630552245985702,1.8995641109796466,-1.142386956930729,1.2424815130111302,1.3473024422737372,1.3777138622546854,1.3602662969547863,-0.6562636959441943,0.8561959608683178,1.354363336100791,1.7668060921431032,1.6816519991666383,-1.9613025757927454,0.7837665673113978,-0.8284114836610175,0.23022524998973415,0.46062004142807744,0.297282547572185,-1.652900453457101,-0.5580242907709123,1.7477413708477365,0.6443605878283543,-1.9299777568690355,-0.8143209158579601,-0.9291626678458522,-0.7335867404793728,-0.3453545971870833,1.4138155820131093,0.9952419166135273,0.5021415549100934,1.481388353029661,-1.80158472421686,0.08388642941940949,-0.6092733129254677,0.8385713265169921,0.8005879265791305,-1.1543424388589894,-1.2185318026683025,-1.1031191749112566,0.5808277162143192,-0.3915227629717384,-0.8130161282656565,-0.2277651477848921,1.5492864466838383,1.5205200330195896,-1.4232496788642481,0.9824471094428278,0.8339979764051821,1.271456218292828,0.6201867076665435,1.7210820822600188,-1.086805368314125,0.5344684667881658,-1.412234501388065,-1.5505857632019246,0.7671976416412081,-0.1727422802241878,1.7455716036888682,-0.7722595818694069,-0.1477370993667093,-0.8189661772817689,-1.157708523007794,-0.7770505577405635,1.9365776139333986,0.5202957170701734,1.793999160752319,1.0260376834270337,-0.3515185973156716,1.3342627923998824,-0.5466938840400388,-0.8253710383993846,1.904346411672793,-1.2718313016266922,1.2314681001325116,1.2948762318913518,-0.10874149891825535,-1.9229757403455396,-1.225485224774788,-0.01210765634587796,-1.9803147864054949,1.2104246403764511,0.29154327217907605,0.08085439965276064,-0.748851914802378,-1.6448989927841975,-0.09148480168684348,0.44047601950916615,-0.27770370860405746,1.3384054557924503,-1.2305173531355886,0.813180159389896,-1.8219897869367045,1.3359658486469312,1.0177775561574625,-1.8571046406941778,-0.13020433988234936,0.5577152977905642,-1.544664161345846,0.5448625932614166,-0.6252293032232714,-0.8054060787109028,-1.830560589689882,-1.1875681622929664,1.3127456094629868,-0.02297396602693702,1.1501099627893634,1.503227598163467,-0.16812839221633658,0.9687479391569767,-0.15944573728966205,-0.6094765145002832,0.3014576967674434,-0.8017058024200079,0.857409998515728,-0.04513729509457409,0.570880949129585,0.17136474170028704,-1.9824057058992728,1.7414504787482827,1.5026286819867254,-0.04993577823992634,0.01556469481294842,-1.1947789559005515,0.28703633347162016,0.08180620760182045,-1.8995865242832664,-1.4417715351673244,-1.5075751612620527,1.2199627460573006,-1.3137111589731973,1.3911369888376033,0.05428412582811237,-0.3330720083132719,0.7870342200066398,0.9007700815116437,-0.6563907295290359,0.9287460661029425,1.4328556250309772,0.53941339336951,-1.0810861421363942,0.5163176952844948,0.815512647637151,-0.2842848718205695,0.4826610435972527,1.0492585256915987,1.0990163362726202,1.5403661478210582,0.013611667278792261,-0.3937274468741774,-1.84832472589645,0.26421133183890655,-0.200813055494085,-0.24126599648195945,0.8462395948533166,-0.2035812949470368,-1.404918066791263,-0.2951590602172671,-1.0077978741811568,0.3180685874498925,-1.1134713465823727,-1.0505304576391081,-0.8164544420207713,0.8685294143934232,1.6953496202016964,-0.8874354231682839,-0.8267125168277474,0.6826129090079629,1.8464206769738558,1.0174242797979272,0.7869215918467667,-1.5064551184579655,-1.7415255078444583,1.2969977703828626,-1.5739521139951673,-1.34764249885288,-0.961634415997016,0.622449622028761,0.8313134175522245,1.0955354202625132,1.057224471769029,-0.10286673080273045,-0.07547782245185974,-0.5364100485911574,-1.5180480866107158,-1.0154390525506933,0.11746840328807107,0.27773999131490923,1.2992362254879475,1.321106633124601,0.9128614259670655,-1.7941401292154366,-1.905513920846,-0.46577047361271084,-0.2629813785736119,-0.6152368843153084,1.429762374022896,0.1788652529427246,-0.6694123326341783,0.811675983184363,0.4385948851947692,-0.9606513975018691,-0.1713219860515096,0.3395658008775668,1.197687984840841,0.5648580379853692,1.912364644830665,-1.2254101537896762,0.24222319205557685,-0.21458141423788346,-0.9437451007810873,-1.009050314635302,0.7030248489402182,-0.9507156996305883,-0.2536865903740244,1.9837342626700645,0.9596924584037176,-0.5867389416175293,-1.894981622565708,0.17968259764589867,-1.7126772331402829,1.8488835182002359,0.5327911188463794,-0.22064164481672677,-0.08777247591023984,-1.4514301018882843,1.581414579564497,-1.8607790039245677,-1.3575355926105224,1.9458363011494115,-1.1098561201675339,1.6407157658031912,-0.9339238932299176,0.789823306251217,-0.8584221297184156,-1.355842499007931,1.823286457261811,0.5409422574772336,-1.5179345287809407,1.3742974425028889,-1.6182321231294274,-0.5829525485878531,0.4342036759190906,-1.508296767155008,0.24801254720513244,0.6991782755244427,0.8417362203382037,0.8015749756734865,-1.2591842776095956,-1.4145673059407553,0.20232924214480352,-1.3360596876888962,-0.1393099648781302,-1.8426525152479956,-1.057554631907761,-1.8299938248548573,-1.1159678277332445,1.3767098905751292,0.8843057690197123,1.3806714538746072,0.8987983004186835,1.235700795842415,-1.595303045376586,-0.910053227019612,-1.802669787178088,1.562307814049836,0.7301479990446671,-1.1785981313007197,1.4264373348161556,-0.761378417616795,1.1725878254381294,-1.5080356071278844,0.8313483378481412,-1.7272093035728013,0.21108215857833024,-0.8480311377723746,-1.0456452312636473,-0.8915224553783268,0.5700887301896214,-1.8570029524996339,0.9714114529665192,-1.554583855556348,-0.14006830658741354,1.5017897611820832,-0.5737728182317632,1.7514750160833468,0.5038066609805361,-1.3250313502268778,-1.830393131674529,-1.2508856716216803,-0.7592912550574975,1.7258110736357222,0.687227185942207,-1.0934244548713732,1.5574775016922655,-0.9483530063107724,-1.4419996969445767,1.7132351036399718,0.14984804631026583,-0.43187297647334866,0.9185798341496754,-1.7293144217934122,-0.4966094854025096,0.36563220269198826,-1.8970784969582168,0.907828367588638,0.7110818885036401,1.9970529362881786,-1.4981040625701278,-0.5275763555050617,-0.06239215592047964,1.0966104890679302,-0.5216771921820311,-0.3563080182795302,1.1373694230232507,-0.03401305310289837,0.2749924967134034,-0.8630045529544224,-0.7860893671493168,-0.5656750996616315,0.6098178893669863,1.4984364574408335,1.7322353303872848,-0.358504299770702,-1.7970865400826668,-1.630094171383246,0.30955020375186626,-0.9648307556231712,-0.06896480481714962,-0.050996817503491165,-1.0923751630191254,0.5130000783914221,0.6622026909281704,-1.6915041896986325,-0.6625858508600762,1.1425324506881185,-0.8836329396789266,0.8599669032607777,-0.7426206016236798,-0.3501357185013063,0.8873173816915041,-0.2049068141670647,0.9129137515092176,-0.33146043715735996,0.7493724942247662,-1.8986703238186804,0.0012005222998276999,1.0070763990612996,-0.5641486957361073,1.2031854869737808,1.2180066063329984,-1.29960576510467,0.5924458885277133,1.0729876331017127,0.10174209218878039,0.021191822017027295,-0.15548202108843157,-0.39610107395193417,0.012826696391901038,1.1535228802794681,1.9827094091666808,0.1404738562333283,1.5408722548580074,0.9983977977220091,-0.1067622838417952,-1.3464547452464948,-0.6943704029793256,-1.52921917889525,0.8879463413295694,0.1978627921213696,-1.4714817489638423,-1.5446688726924598,-0.4234579572465851,0.10916685877713173,-1.8263175956358446,-0.18805884965118258,-1.5086560686696155,0.9233895207530449,-1.5005563054020103,-1.975616563801049,0.7323437506750801,1.1948524127497384,1.0258815012656912,1.0899877013236927,1.0262969490954923,-1.1602923154381695,-1.8772088569417007,-0.9085077645377293,1.2920476190528674,1.1871255736806416,-0.7641729961773653,-0.5289774454102871,-1.5033699129032017,-0.42166016958135,-0.25170232944997606,0.14403521652555584,-1.8418318693395603,1.6013360421157565,0.7069983468081662,-0.1251775290562369,1.3011270364984209,1.4818439904031986,0.8332989278467164,0.19574208212876254,-0.18797745092571816,-0.5940968894869663,1.735820127649185,1.7464476819400674,0.8000143823099806,-0.18360379089825152,1.8232408421342323,1.1933320161773318,-0.6073261877257554,0.7084539990191412,-0.48479378576062526,0.926340383389225,-1.753017094696979,-0.7872356140992096,0.7889143552775102,-1.0203439840903754,0.7456667611328411,-1.5311808015264283,1.2740571889174839,1.1546048245055527,1.7777342894250907,-1.4091627595782268,-1.8614268205784668,0.27680417587202033,0.9242767549986817,1.8896651063109173,-0.8083547673760334,1.7699899857922974,-1.6476934782337738,-0.5738724065447376,0.9450896056712259,-1.233132669524284,-1.4624901080386676,0.4047512571921783,1.5028969979817255,1.0738599350809235,-1.268089878907487,0.8695128092445996,-1.8237320811694113,-0.18239070114133638,-0.8516840058222028,1.194607889948097,-1.810687749053209,1.218707308287816,-0.9434924720359956,-1.79703805285155,-0.2299951748667901,1.56601163468107,-0.42066385590643396,-1.6840676114159114,1.6683627004351589,-0.8475333779588943,-1.6227964824745849,-0.8267520929461565,-1.2843928418987698,-0.15792026994377295,-1.4729362640193546,-0.2345907559321323,1.8369291757960964,1.5410388810327404,-1.978033917015353,0.22870972521761823,0.4191151930215882,-0.8565019266476401,0.3645772033870287,-1.9089326691854205,-1.2329994268922593,-1.3031879934977364,1.782434713126209,0.08258345818723711,0.08085723851861104,1.7669154316040871,-1.7505229403281541,-0.15577793796298378,-1.9861331224013434,-0.26938380860005484,-1.6597532639839803,0.1377989658161023,-0.4587664785398382,-1.128368536087986,0.7384945535936058,-1.853755184162745,1.0881906882140266,0.34505642104519474,0.5523725944882845,-1.697188281636607,0.36158162052889953,1.4046253768383776,-1.5374236441858975,-1.7985472163421545,-1.3671760540805389,0.5665221249313106,-0.160006429150092,-0.104574122757227,-1.8961006418765436,-1.859688222817025,0.6879320552947132,-1.8029078497242876,0.5588221600237087,1.064976518233864,-0.8579338873141942,-0.7865825068792445,0.9881464916397182,-0.36831235593184886,1.4275190132993751,-0.561635508431372,-1.9222666514069142,1.652755762599019,1.3312368084669317,1.3335347039900705,-0.20813377713028558,-1.8294255862090032,1.554644292385134,-1.102152403086662,0.820475495488302,-1.2552587408609273,1.4443458009373686,0.22880030430711695,-1.2470908103452567,1.6683275908553177,-1.645441465790289,1.48249323140706,0.6375482430807877,1.1145199825523098,-0.4381485753340013,-1.4434926768253482,-0.3234944416674068,1.6560529326026896,-1.8014806176649563,1.1960575185326596,0.7044318246861732,1.6158798552739033,1.4960349736246599,-0.8900160391956198,-0.9039299432090258,1.5762495253046973,-0.2576732678985052,0.13968786460619143,0.6303889597230325,1.8816636098779367,-1.3135056362220592,-1.711747469896662,1.4174589120324188,-0.6641074318449096,-0.25611060493392657,-0.09443755163772005,-1.8188158601504805,0.0419312133889953,1.391076665327144,-0.9616032537694048,1.9581890091961172,0.9260370893771213,-1.8744366645093469,-1.7190580272056017,-0.9291218876049743,-1.0222422336304668,-0.5016440971147738,0.592512192414758,1.3737593574528262,0.7574540160026548,-0.24418471174750733,1.4789477072759052,-0.3911467420103101,-1.2892718272505372,1.155476850706557,-0.8558094221937487,-1.3477910429467923,1.4335809498687975,0.6946659296646489,0.9109354329274564,-0.17042213976583342,-0.9849011091913895,1.2842735124842233,1.8416056196857515,-1.6275677018142614,1.63348897602821,-0.49825681980611636,-0.4518783812602263,0.38774856006118164,-1.148996775490032,-0.8773979920799686,-1.606880860870688,-1.355121432269379,-1.4508586005592128,-0.15501797580572818,-0.8184055277841416,1.5392357720060077,-1.3072334667847825,1.8863968960376907,1.755700333830522,-1.6924673916377442,0.1861814604475711,-0.013233039567718041,-1.5875849527618286,1.9686576866279295,-1.9515619142151195,-0.6801442375553326,-0.27724982183544533,-0.7678381934984069,0.6470416877370502,1.7343686092710153,1.4239452314933434,-0.4617403281581618,0.33587555774461775,-1.324942286847822,-1.3120300107858323,0.12371068877358127,-1.0843191504355594,-1.9638049514873681,-0.7700876885092476,1.538358146016345,-0.8685822867559385,-0.3233099701476636,1.2319859004522482,-1.8656036924445814,0.3138359505877397,-1.1199562387991762,0.5774792845755785,1.6970240275225525,-0.22417870546034013,-1.6779000644188682,-1.337856150353681,1.5397725024829332,-1.8055944252540632,-1.750295299011253,0.2190613196632918,-0.22892651940701159,1.685741441092349,0.08957223532687841,-1.0802961241713591,0.6364515230279073,-0.8633064801591432,-1.4297739101150762,-0.5775537755983131,-0.30542494061228753,1.562172393733639,-0.5263660180637673,-0.19755085931193017,0.49220640952561645,-0.5090877601772483,0.19001540510968384,1.5647614088226844,-1.216418138546345,1.4758827532997754,-0.17229893584541012,0.23417681957869352,-0.38779759130396085,-1.262560537665748,-1.237940889057373,0.5273299012231893,0.8648040493413527,-1.1413060299290714,0.3696935254533802,0.37709908115894963,-1.87288637825332,-1.1667256511864532,-0.48943114330850124,1.624877537010477,0.9371635837640135,0.5212180943946785,-1.7300068456914817,-0.9958206093201047,-1.7181143752329149,0.8260863327311547,0.32551981120060525,-0.2541351464517403,0.09805348474128195,0.14937914573179345,1.0790305544044299,-1.8667819547326077,-0.9144451070248008,0.049730885707147454,-0.7556317263299142,0.9980672836178512,-1.6919724854017049,-1.072333439584975,-0.34378946559298074,-1.3823803350315798,1.8790972464399904,0.24152843000929725,-0.3306629860061494,-1.923196906396409,-0.9976318299038325,1.3028998708642558,1.479668455487654,-0.14168116384448481,1.2526898411998157,-0.01151574942330491,-0.16092441635706978,-1.7743007796596766,-0.9767534328537435,-1.4545659797521697,1.344679422386478,0.05181517980670769,-1.0592637136209815,-0.03724293316428673,-1.6886227912147644,-1.7688862460088108,1.287570904018787,-1.178964789977095,-0.09433785591475807,-0.05860554146569763,-0.35460775911552256,-0.4586517584095766,-1.8125176722278074,-1.899244832066552,1.3515833660442476,-0.2217085834302499,-1.8693933196781076,0.18571064011528726,1.59619956515552,1.4481942681972373,1.8347920050866908,1.0977889086279964,1.8530359288880747,-1.1352258987672013,-0.19833872806240205,-0.19161006559744242,-0.6571483667306199,1.0371424049764446,-0.8417523914855547,0.6556650919228892,-1.0487279368508968,-1.1292926477894736,1.2804822267087315,0.72645250939095,1.146662219259412,1.55246998951112,-0.19657536162593825,-0.5072556279114311,0.0308615000569592,-1.7226366507316646,0.11482072072924154,1.4721834244512424,1.5751350801438257,1.5555723446898768,-0.7908538496724948,-0.16199083446888496,1.0048046589141135,-1.176795480149388,-0.021198848389720748,0.975959991604797,-1.3478432346998628,0.8615615442925457,1.9649454417978136,-0.14357006898862545,0.03011415331301759,-1.4599349898179597,-0.7208405976973244,1.8574850659239663,1.0108252107096147,0.03080340983364316,0.5433817120209001,0.6139072555828617,1.2189827338948733,-0.07283624711299597,-0.0769362605341426,0.3381675465985592,-0.5029543205002809,-0.9280295692286504,0.9963897168306994,-1.5171341346210419,1.4687668221916121,0.7032028057518982,1.0750203089382757,0.9426038569365209,0.898051071644423,0.924783312430709,-1.0184385807401282,-1.8340425607275042,-0.8433116116301473,-0.11677022410704874,0.9931394181896378,-0.18625285210237408,-1.3808839702688491,0.7063453427907782,0.02999581288168507,-1.7254600961038222,-0.9204228359387536,-1.8718867483304953,-0.8368685017766202,-1.7261042357656038,-1.1451444016306804,-1.63448226075104,0.8384642896126517,0.6695093013029809,-0.6300557561421409,0.458563726622625,-0.5856200146168087,-0.9404439193799989,-1.66120689875395,1.5823459993863307,-1.0497970047810439,-0.22795895201596306,0.8160625144642202,0.6237968878421061,-0.1095942122370146,-0.9783756146775868,0.1046027193018193,1.9671163890063341,1.2197661936654467,0.7243514459294769,0.6664902261014749,-0.6375510712944386,-0.8497932255864509,-1.5729663106081615,-1.6506305569381436,-1.1464942920274432,0.08332583593855913,0.4645880295572633,0.8088917631812294,-0.9338419747844404,-0.10898745652651787,-0.08938876089848957,-1.6513856246115148,-1.7127829655961082,1.3310565616209353,1.0594410473674514,-0.8634484765782937,1.5775277399610577,-1.0325516640459322,1.643136901896714,-1.9247701419644212,1.3259899877708938,0.10438970571364958,-0.5520540851974003,0.7030822814926436,-1.7877994927817205,1.5437266085138868,-0.4379956315736937,-1.9365708741497873,-0.2174417645117317,-1.4924957859957426,0.05253939763138371,-1.9147511139118967,-1.466570157403396,1.8995484024186569,0.21699911323462606,-0.7168813930544133,-1.5936045344091987,-1.0976147427036094,1.1902645894960604,1.3504869901495913,1.6825218928934862,0.5788914539735193,1.6087944720539942,0.24020919316728762,1.781278215006712,1.3577923953450215,-0.3020434294382155,-0.9889731100929633,-0.35955401903296025,0.26060606192602176,0.5820175316558123,-0.3674686463325476,-1.2104792679063627,1.5523484614001704,0.6003934307089906,-0.2421499606025601,-1.1352720928620554,1.501502545223269,-1.237745688220527,-1.075650699564135,0.5235525242187022,-1.0300430597057146,0.915426573788503,0.9002619562758323,-1.4002998858851328,0.15715828821617173,1.7697898731720922,-0.4260493791286022,-1.530139729121283,1.0318117779561602,1.150447301963808,1.4349376649741976,-0.43195267370975987,1.1316700129656176,-0.06884209374891714,-1.5467535448249428,1.651044971138945,-0.7900727839315027,0.4516245141581323,-1.5402227555887888,1.3261740442124808,1.002002206361504,0.46114318241150487,-1.6581751065625285,-0.6652852661830915,0.5450370818325938,-1.9718601533133309,1.5303408285498303,1.6161913056438948,-0.8267586904656876,-1.3485912434310845,-0.5756077712801755,-1.611089180881598,1.052688730307652,1.9407725801025424,-0.991756802576766,0.09046932587611689,1.9773094279288013,1.06327859809972,1.3124442942772827,-0.49334680921939533,-0.7809686613005753,-0.7028302410842668,0.8909001742127187,1.4543756803889423,1.060499048350914,1.7717346347738787,1.16301433794222,-1.7310971287575057,0.9063020874388346,-0.07917420495549221,0.42801777390868345,-0.22386450372629518,-1.6549576298232402,1.6783862793977788,-0.6780451927463278,-1.0404164553878186,-0.4869284703367387,0.5873913415113328,1.2476209819369308,-0.8782156749697752,-0.9275107292003262,-1.9167843836678435,0.7802945477844592,0.1435033885980075,-1.2504353028850281,0.8542791639171843,-1.944928959642172,0.20246332641685516,0.5555207626809597,-1.6152794925892846,1.4513771925439842,-0.5923540235626263,-1.6129801996863828,-0.9627608243345835,-0.12412054542824702,-0.8987881858353179,0.7284978407519742,-1.6136640649647322,0.27952855051439496,-0.43924922301117597,-1.4852861713626684,-1.7939806542351722,1.5903485496887533,-1.6041575242383366,-0.7174465295259771,-1.7953296308182023,-0.6674177027934549,1.4843140021883734,-1.479563716961719,0.9052549024088066,-0.7056119141483039,-0.6443810951127293,-0.1323277335958366,1.9082246541449206,-1.0448380955979504,0.863500939416959,0.7790817831205556,1.8610089664654983,-0.1348805362458152,-0.6615067537503796,0.13786540352145948,0.6155759921035662,0.20499684117169004,-0.9317107881933304,-0.7393541577689389,1.6196715390443779,-1.687777826454881,1.6991476658559352,1.3521246860964427,-0.7917998165673676,1.9325127438731489,1.6834099962503037,-0.07763724313181042,0.21936576332420632,0.28054332244191693,-1.2150540376411039,1.6670306186887873,-0.7356391181433444,-0.9457697572518553,0.9044431648876881,-0.9985755758285504,1.1110672207796441,0.6206055937481967,0.8995270479798458,0.5791976866898607,-0.6985478033014667,-1.3278242685244201,0.38160283376059434,-1.558863557558074,0.6925227235729317,1.0123776422446733,-1.843769744196567,1.024860828948876,-0.1297146194859935,1.7255537818792366,-1.5439387823364257,-1.0420560768384464,-0.25325830002560545,-0.2991388124031813,0.49386691895866663,1.4115786602104698,-0.5995516868201416,0.6886888171021641,-0.2341141861110807,-1.4000009351495133,-0.7430997457631832,-1.0162104810216799,1.5254702635252744,-0.38750247229362955,-1.728868230656781,-1.4679037744076386,-0.9533103682067905,-0.2829856472709782,0.16422591388588526,-1.315560559261403,-1.0414666983295486,-0.763767221647488,0.9600034497559733,0.45419861052744315,1.6247253762322904,1.9038038660891998,1.4470014138775071,0.6539925628389285,1.6683453592577395,1.8665290097938159,0.06092187547284045,0.9692404698244679,0.5042229003099581,-0.9909652857482394,-1.014565766432761,-1.6377219144477615,-0.055955346402149164,0.25443707842494456,-1.0815804647551492,0.5103693347082929,-1.1966057329944921,-1.475224504248871,-0.6023001182670567,-0.5240585117397405,1.77961747468223,1.231017241365608,1.277770735168339,1.9165159155558733,-1.9407713526714407,-1.1690486734556536,0.4850028284130272,-0.7799984991161422,1.5335245745359973,0.18978557354829517,0.8570920123722283,-0.7747385867504542,-0.5369597077263517,0.5916913184704189,1.1721093486581542,-1.2694556179347085,-0.48942434927047795,0.21787043109094117,-0.4636663441420641,-1.6353440346851262,-0.5653353898444857,1.1469293097617186,1.538535845534839,1.1682937313666963,0.4733534953577232,-1.5778350877307488,-0.7071879850351603,0.9426005424261183,0.4572440609091144,1.7764853032846912,1.9788550773574332,-0.1480087377580679,0.7529176733576324,-0.2628709051963405,-0.18702249012790073,-1.3531075619759103,-1.8728809415425012,-0.6343154514552856,-0.11241361487363122,0.23261267055103652,0.9244695851076448,-0.3115133138159516,0.5960252542428233,-1.2111423668783288,-0.8339574112385013,-0.5282276894429763,-0.03537706378380401,-1.1276286079991018,0.4517446566348138,1.4565600018088554,-1.0022937975100685,-0.8795975844398791,-0.11895343234288092,0.6163692433122403,0.08984101733936445,1.5053444491144439,0.5706857257427598,0.2117160124467259,0.30053439706207863,-0.6513782710898743,1.0671427162216913,-1.0488554284500329,-1.341076894030186,-0.32995223144706776,0.6796580817162154,1.6051427569869725,1.262884062270285,-0.44266249101202515,0.30085633673404644,0.395045878167509,-0.6727511939543995,1.7246241776542273,-1.784980967485104,-1.4493735424896879,0.8777940648289113,-0.7664999686966127,0.24898216623568015,1.289325293006781,0.8635388421527557,-0.39516939771305104,0.39691969894192836,-0.8824392915444714,-0.644700002868988,-1.0400603570403164,0.9676477958233645,-1.481660186487995,-1.5401449708091506,-1.1410707514319873,-1.9224300923201096,0.24606532722715446,-0.3151989475733341,0.36743793502947364,1.7625727147611476,0.8507273560011388,0.22834017506776672,-0.7894890285693847,1.8776252003995677,0.4903564478028266,0.611533142617525,0.022610497814688824,0.9494383639456356,1.2092828442934231,-1.3883302442620535,-1.0423123713118554,0.19103036951392482,-0.7303889807832125,1.4558814135905314,-0.6068943518664693,1.395887317684506,-0.43381034189009604,1.0940248176781724,-0.9775878733148637,0.5614894701533424,0.6696104306891715,1.00411428173147,-0.43255058234449084,-1.7059743247333907,0.575060874353162,1.2638716728280186,-1.6227067520683467,-0.19048586409514634,-0.09393238155555395,0.400952828191246,0.22698634876316115,-1.2352610188132003,0.1389577866642253,-0.800987674827101,-1.080988944419949,-0.19950666745152779,1.3911027026469305,0.19550633591202216,1.875155133075876,-1.9501440414333198,1.1098343841912945,-0.48232338588539614,-1.0772232681871436,-1.1327179751595402,0.3052546735655093,-1.8722744991840643,-1.1743663990987931,0.18417663877836787,-0.4227488166869171,1.9296244157326767,0.3456989903001313,-0.7174324130026277,-1.7077404784679366,1.3536445429836328,-1.6535706481875256,0.6209487324752363,-0.9380456944743245,-1.329423906135692,-0.564162910974598,0.3825156555941178,-0.6072846549498268,-0.0816480205327137,-0.1509719945032284,1.86858174450165,0.6976652685332225,-0.46703838059640557,-0.46902757630480973,-1.6204495722469012,0.8703902887719699,-1.8380354523402258,-0.7701357165253584,-0.6170282619026604,-0.38833010460772366,-0.43320293129097553,1.5980792787428229,-0.9059001493883314,1.5490233664312365,-0.9805729366759506,-0.7162224939792798,0.3399054180904897,-0.32491199162021545,-0.7144842186329834,0.04279089856018148,1.456363184225196,0.23847923582032005,1.723723876166042,-1.150681781479718,-1.0939630123616353,-1.6506877000546276,-0.8496257904604194,1.7818963476449041,-1.857915348112431,0.6652105673763864,0.9680910403345839,0.11463325696641968,-0.8089174817560982,-1.7252947264149472,-1.7787931978300415,-1.2166740633484046,1.2726886738769059,1.5035097687703325,-0.20857065304064148,1.7880792017214229,0.8842552208881953,-1.7776051404297983,-0.8082969708013819,-1.6809876256227398,-1.0188259813870002,-0.9646039984897872,1.383884233577199,-0.9092080994341867,-1.9737914493647186,0.4861734860820017,-0.09863724480585212,-0.8111144301037734,-1.417852544177058,-1.8913857547380646,1.8233632113850575,1.9207361364890199,-0.6269115295116885,-1.4277120914816557,0.8843926726063418,-0.3891971742906519,-1.6270075081638282,-1.0976541420370172,-1.7100449996691682,-1.3217953856911757,0.619713328559429,1.0586109486224644,-0.3476556316056483,-0.260032405446351,1.826406268915322,-0.9076786219318027,1.74290186566913,-0.234882769351914,-1.350544677775983,1.3872395201606196,0.029318345810469548,1.4790769681255687,1.3107707955025,-0.38751738113280654,0.35998920988888283,-0.6427031135415056,-0.8538463197486279,-0.44334184691873046,1.491761431543699,1.5670590176204318,-0.13876298383399854,0.8339611736786057,-0.4398672907230683,0.03685471776778071,1.2144045013405398,0.324230509487883,1.7093669997157508,0.6717497060452198,-1.3927389834980284,-0.6331281026002822,-0.9849488728632956,-1.3773358638651363,-1.5478772089379818,-0.4861206298522598,-0.5979440829318805,1.107972965882861,-0.669733188275027,-1.6965384382492448,-1.2633148486886099,1.1075505249728081,-0.7505601953188208,0.9817341044227081,-1.571899297907799,-0.7961967397455272,-0.24604566636082836,-0.8285143492177673,1.977351203703829,0.41771424731068674,1.2843385099862132,0.14816052155465087,-0.7031545962660926,-1.7029117464557761,-0.7167493082366376,0.03737832978384903,-1.6405337934978648,1.2064826509094466,1.7696044841984655,1.405728626513092,0.02692562929096942,-1.7297277442685992,-1.6159516653137285,0.18153686109872824,-0.6155121357062439,1.6624756952683968,1.2746666554861856,-1.7094020122503681,-0.6952472550823368,-1.6125792722605912,-0.07835406733902328,1.4904239464822462,1.171761557358074,1.3602800589464534,-1.8074786812544432,1.670625961022564,-1.6820734257843322,0.3829436462173894,1.2205143452291272,-0.7047555042382405,0.7882184926657962,0.41217704153463863,-0.4091289959245996,-1.4367408630285805,1.558282395564405,-1.712568222713514,-0.5024592320274985,-1.5330498585485484,-1.6624518825530692,1.3886172562760226,-0.7352440594429082,0.16622122148268748,1.0933030613257073,1.4870721284545185,-1.4485932934923436,-1.1085309977989275,-0.35829744078865655,-1.315264878710574,-0.952590523284468,-1.8097435021478834,1.423426223492715,-1.4653001191807982,-1.2026343952068488,-0.9205559080932462,1.9655491467471946,-0.295312622755711,1.3367588119419809,0.9284647233836756,0.9243089400374376,-1.4034789641124226,-0.397102145715142,-1.8238362975736422,1.0249443761229262,-1.1593442493126687,-1.5950222818614597,-0.0514766325116649,0.9437218354198031,0.5525708241407732,1.6339456427564354,-1.9548583706506975,0.3421120948820837,-0.19643477637343265,-1.5011825410398139,0.8903008898636191,-1.5953521167686948,0.29322724971827174,0.9155640196403274,0.08389243482304876,0.8995517064017524,0.5094204589923943,-1.348634829797812,-1.5487938093500673,-1.6248467872053918,-1.2341235019887415,-0.34407276051254376,-1.8357044730887564,0.5679043742433185,0.2298918268304413,1.4050613545990567,-0.0329217547237457,0.5404763027076651,-0.41253592218150903,1.7183044957023403,1.4976424302838867,-0.20648772450605657,1.5143596092240745,0.5700380184875353,1.2119486424084123,1.9087992449828128,-1.2616309583566356,1.1406771211902766,0.8385633606244176,1.7845016787383154,-0.19892253459085785,-1.2030958762956527,-0.8135755993622742,1.6936873328543043,1.3658905074390715,0.17343942412939128,-1.9577667724983714,-1.5615571322013433,-0.6721573655453073,-1.4793834994038382,1.365665089410832,0.533644493784768,1.7734084472931793,-0.7695247501160773,1.1070010718068626,-0.23856165910962446,-1.7660530427546028,-1.1823659809789002,-0.24323756086625758,0.9752253906824202,-0.4638572356530757,-0.7940607187356998,1.416676058226197,-0.3187635480535769,-1.1790002824471086,-0.6115702775113432,0.7824757012175647,1.5106060008028068,1.16827934980097,0.9649591010992973,0.6624047927531715,1.3213797185560119,1.793690426636835,-0.3837121925563318,-1.2852417748947862,1.4151465574731295,0.40362644212370835,0.8735578521467269,-0.04229596270868985,-1.29762452985225,-0.7787022680696216,1.3200966468841648,-0.2776199829615069,1.1781672523439717,1.172739752810625,-0.6909630790773509,-1.92023498488114,-1.9697898965400604,-0.5050655491886209,0.05713917677981817,1.206782902776447,-1.9703350759449028,0.08951797363609248,-1.6858638132426833,1.9658918407024464,-0.3208873149812299,-0.34191665573402696,-0.1964299800074265,-0.5994622074673712,1.8027827168638741,1.8319095567935428,1.2736549498264491,0.14761302478683103,-1.7787378310258264,1.8852046555064637,1.0550736383080896,1.2683466325872015,-1.8694593362683212,1.0735926405770826,-0.7344823750935552,-1.889575873326255,1.359887587170649,0.9860235283966312,1.6118933113048315,-1.6938166773378058,1.376172455900433,1.8040714914021208,1.9952627806178689,0.7244958998973461,-1.6704642502462286,-0.5829620819257699,-0.5489607498148361,0.5791664321451724,1.3926285058383736,-0.769086276249328,1.0327779503007304,1.674047142078038,1.8004939960174187,1.4317026479865054,-0.9867775318527072,-0.7798632000076955,1.02320491369451,1.9116961106236716,0.4980187211970475,1.161623863088121,-1.342402994092848,-1.0154760553024227,-0.30948801452148356,1.7461888235993683,0.6889535873636352,-1.8703704177805345,1.0277545520217384,-1.4796984508069428,0.7582854811444881,1.8611615784248476,-0.3085923859359734,1.9639353872341698,-0.05226795349216928,0.3627466121962195,1.0761416002352173,1.1853102989373467,-0.013859221381689935,-0.9379725784336483,-0.7976208073334696,-1.402639344562469,-1.1241856117735765,-1.6534672789830607,0.7064200133189904,-0.1385927783872285,-0.13476874888370283,-1.112122765541144,0.46719864153597035,-1.73813558033241,0.58220672829504,-1.9899959104909466,-1.0124009481931213,1.4682631810402031,-0.2798590443674236,0.48678941344111415,0.9437970953325823,-0.2467191816728116,-1.018447916574849,1.0926466902866743,-1.5511047177485455,-0.5970688725396478,1.7635077983606537,-1.803209948277892,0.855220363091711,1.9825740001596195,-1.579897005462028,-1.1706995250571168,-0.07630455454881568,-1.3246292393630172,0.7109918194238789,0.5586834129057054,-1.046640024263382,1.5671954483046053,-0.42780151771477737,-1.9314202523628876,-0.8305291344130432,-1.2670884741058588,0.8553013857813232,-1.7960954435914154,0.5832005885779346,1.3985085834514446,-1.9861190519635454,0.6660288627664768,1.8290712739226023,1.1861961666244158,-0.3166479352326359,-1.7276465522476676,-0.252274322149729,1.7084768038649614,0.3148214590406062,-0.9609942724136826,0.5882863956035904,0.35938861430864266,-1.234215484952022,-1.52515503306428,-1.7010302120035097,-0.2804504644870147,-1.0206061285486308,-0.40744298584758853,1.183924729698334,1.0032530747594537,-1.703252602603488,-1.1655955565691754,-0.9533204673319013,-1.760084474733763,1.1931294627501652,1.9828686429738553,-1.511061540919043,-0.021233170457771067,1.0596193402444776,-0.4448653621848231,-1.7480237954955538,1.3017812693324031,0.2024840831579997,1.3014043245490736,-1.5482090365486076,-0.7094855557446071,0.010949520749561792,1.0993978424947621,-0.7399736847010296,-0.7182479126601127,-0.8888499223561297,1.3246291445969876,0.036152722416651795,1.9024263596311752,1.8409898083890064,-1.7639537119814408,1.930363281526597,1.5831043212213185,-0.9220108281381849,0.2251117690598794,1.4552100376817019,1.254656113774038,0.172743360714263,1.1538702949894515,-1.7060913738437096,1.855965926975804,-0.3789952747315999,-0.03484424786022533,-0.2018685670585847,1.8592397429218055,0.4604917174574976,1.625711300748517,-1.452033637682526,-0.8427289701851834,-1.7922211111827782,1.147782419863307,-0.5540971141954203,0.503418992117969,1.2639591918031896,1.1316347558548094,1.1883192845894577,-1.6957219998885482,0.8044765801059679,0.36658996809553646,-0.11264756986164848,1.192669584004792,1.8827463089834438,-1.5835724338738402,-0.8466732308177698,-1.0091512629172255,0.3980703986355403,0.8088777318539742,0.9031706344580344,-1.9958782538462567,-1.1443081984466068,-1.8225653203404262,0.5820020419941043,-1.3600979662513697,0.11616409113030901,0.1499745641932675,-1.706345992656721,-0.8599735707177474,-0.7362759991651862,0.30554410834232604,1.299722245036457,-1.445017792323441,-1.2477911928781564,0.23656755280957675,-1.5345733521752067,-0.7681251697329459,-0.36413667862167554,1.5149035829754283,-0.7085792495440137,1.924741206391705,0.08279415626027964,1.7045999963090672,1.5691476211053992,-0.9968369502311303,0.4661800319473244,1.6236795628568017,-0.16532647165540526,-1.2413131254548606,0.7378152102601976,1.2914688437322366,1.9863243713252694,-1.1828308382669364,1.7687300372782264,-1.4995901663518514,0.5229639751330164,-1.269470531252435,-0.715647439293174,1.7470808841701309,-1.2201264882889316,-0.6082604650766239,1.7236808982883702,-1.4456910077541019,0.6292884730030597,-0.8316962894207713,-0.48644964844474536,1.1531473464895359,1.3803626217499483,-0.9436607754550246,1.0126158668911733,1.0882063030332811,-1.3556948688212387,-1.8903848271035373,0.986402928275778,-0.8163566636169226,1.6184849615942594,-1.78500267179502,-1.8054386146645798,0.7724941503345732,-1.5253576971534746,-0.30586222749543523,-1.6411825693304642,0.3615418547896305,-1.0546564095490414,-1.4242533656101681,-0.12081975523630195,-0.4578970897415169,-0.09716833674026537,0.267106724198825,0.03449617217111767,1.5311703636946334,1.9415863263007984,0.8215891089084035,-1.5329754626845058,-1.4597544242388838,-0.3383599196465239,-0.6160253834590241,-1.762161716162404,0.27427056191547194,-1.0268650838930231,0.14102145977896585,-0.6975976284265402,-1.2813893231258184,-0.6384464822030114,-0.2145909724388826,-1.6713176784282986,-1.0434284493414734,-0.09049170201863488,-0.9518081046774483,1.1551837429846565,-1.6754840166971205,-0.28378045273919916,-1.6406697158085035,-1.4741173974317263,0.9341246256809068,-0.23157363598146352,0.6015175221027329,-1.4427381377049948,-1.439142574322232,1.8140019275527708,1.4411044271684204,-0.4561360306396809,-1.1650742139874661,1.2092868096505618,1.5316835748137074,1.014357460984447,1.0303382430537908,-1.8837205040808533,0.46968475550279587,-0.4373810706459178,-0.1776161585994318,-1.1157265665759977,-1.785153044125205,0.08653541321666802,-0.5562496755323667,0.06885938319766671,-0.45768959650577257,-0.2972715710913234,-1.6882968895627712,1.4753685478484826,0.15013419491319402,-1.6670550459623614,-1.6039463626473456,0.18711335977127863,-0.4221635898942675,-0.016484111192614836,-0.14646514826526946,1.1655788659823214,0.6840705576712924,-1.9408057526032931,0.4449758915148698,1.0017589717666113,-0.9810875459571662,0.38603633875158216,-0.3343600833711844,-0.15665864603104662,-0.854645170109948,-0.535342415564569,0.5837327402307664,-0.3238694562371216,-1.6875285554108688,-1.7166551559004133,1.303520453706926,1.1052587952897102,0.28560285972171506,-1.2180213358091074,0.9875580650882925,-0.994407182948843,-0.14679156915224656,1.4493532106234381,0.969158460494898,-0.4550264222651079,-0.4113418253032566,0.9072535655220637,-1.179307298765317,-1.10074484151157,-0.855245225488793,-0.957294543697317,0.6042366790100244,-1.4886297365975079,1.224966041155238,1.8720489885174771,1.919759918162725,-1.7015999838089857,-0.99337310665865,-1.783212734038639,0.1127564264347809,1.024347243734288,0.8723413972534257,1.8638017519610002,1.9914439665385846,1.0028135252528596,-0.9801063407321164,-0.8776518832204112,-1.854411573676293,0.5176031580276788,-0.33438213497859515,-1.9685204155713527,0.28700177237694735,-0.13077504156774244,-0.8268574515038796,0.9131243803508751,1.035544677746155,-1.3433233294240816,0.007518786745660311,1.4509823684786807,0.10740699332167392,